[[[0.012610547200401858, 0.017678629157937352, -0.000511522147925308, 0.003782216714564048, -0.012547851971448733, 0.0003060261339322081, 0.012093979346836195, 0.021508004965987138, -0.014019866377173085, -0.0007652536155963954, -0.00942607046526985, -0.016864844973858283, 0.01860864985770644, -0.011601806928725688, 0.009879274813554127, 0.0006369767283716658, 0.01922836909989777, 0.0031649760033258655, 0.008052232037025663, 0.009401410632757484, -0.00011207375833027227, -0.014086414740628694, 0.006773519955819016, 0.0026153859747179127, -0.0007641158226873502, -0.00015722420244181645, 0.021230927634431625, 0.018366997359586374, 0.002057588089650179, 0.008744170885859803, 0.01478367668715787, -0.01829015063058562, -0.0012117739523163657, 0.006656643134944372, -0.006412859394821054, -0.013495725405320642, -0.004585193407903362, -0.006034932320657325, -0.007975906890406935, 0.005851732332061039, 0.007037146010395396, 0.0007331911079654402, -0.002439378011137351, -0.015672419208067986, 0.007704764463612936, 0.01082550077942217, -0.015642109400104375, -0.0011398224966894534, 0.003482136541042609, -0.013740048146604431, 0.004618652785668937, -0.002761082067058384, 0.0153264482103136, -0.020093957419955424, 0.01832894722845086, 0.0063676667111488006, -0.0037031277732042936, 0.011874309146062495, -0.007863951609545169, 0.0070190660176388826, 0.006081323253584335, -0.006556127261769209, 0.002096815127312692, -0.0008981009907699183, 0.006224882011913484, -0.010194708550511872, 0.0034941440784182105, -0.0052441319968618205, -0.004090229913167102, 0.017246769485744103, 0.005568268418168472, -0.012052772029701786, 0.014746062803571925, 0.009919055832765497, 0.006449978766111461, -0.011699512600835545, -0.0009263353227343863, -0.004259980181603817, 0.011364763326113202, 0.001903022133749355, -0.005599131179879034, 0.016684887869617495, -0.0009078272530524991, 0.00909360793706535, -0.0059885045803189365, -0.006781689801300749, -0.010698184159603857, -0.008387403488306638, 0.012827165263659826, 0.0027765517226868573, 0.005541942141742983, 0.01147836625710437, 0.005844093943289967, -0.006063987849704633, 0.014588540208963802, 0.0010874749632332626, -0.001544607445851054, 0.006864544764001488, -0.009785557771954802, -0.0023251724137310914], [-0.004391515195746922, 0.013963063563259397, 0.012256224930006497, 0.009565072088295726, -0.006063621423335389, 0.00481064346703451, -0.007776853786244055, -0.016098136012603032, -0.013295338482916558, -0.008422676050844671, 0.002747608503133223, 0.004303478834581587, -0.009363087185904914, -0.007713441581279921, 0.007627500469169245, 0.002207570939318263, 0.006395617173174375, 0.016949141708552672, 0.008787323570894668, -0.0016033360043042242, -0.005207351156617025, 0.006152758419267358, 0.004847302673775848, -0.018464125906399162, 0.007219957683127279, -0.004458076421921587, -0.005205871356595606, 0.0034190747570301775, 0.020753832654617728, 0.0019802227993910766, -0.0064657286336991604, -0.0012959346386559774, -0.008108070013728734, -0.0002446051445019318, -0.0029457235721339894, -0.019930666352126238, -0.007688754246260243, 0.028844577768059626, 0.002183978343889498, 0.012338180659224896, 0.008835668384132954, -0.004737411671423103, -0.011177638530000021, -0.016388419541120604, 0.0014337487730092286, -0.0066655766536338175, 0.0017532651308061415, 0.02784421323968442, 0.0070495932198522265, -0.002437900053559011, 0.005221219363013823, 0.0011106624354974177, -0.006697280552214419, 0.005157013011758587, 0.015286913803700434, 0.002011628622576002, 0.005210660779335429, 0.01865936127821324, 0.009607963331823581, 0.00826102890416057, -0.004626448186336835, -0.0006086165138201624, 0.0008662664582880861, 0.004316513694977584, 0.009505718093426985, 0.021410759933389135, 0.009338390968468311, -7.361983504310922e-05, -0.0006235360863990965, 0.009788041485907322, -0.00015368110207275104, -0.002850379774823704, -0.00010181389502326666, -0.003872918886794681, 0.017676692541314504, -0.022466604268408113, -0.0026747496168340683, -0.020818793049306467, 0.003555721360968263, 0.012963851177476218, -0.013227460284696228, 0.022948161923853756, 0.008202004186925238, 0.006018203551652452, 0.006682225662471107, -0.002108961641023038, 0.015229987492519765, -0.00914974311074738, -0.002532702390025572, -0.0004872620343169339, 0.00468258751006249, 0.01163059553049894, 0.004822270353857869, -0.00588729805670739, -0.015858152975405927, 0.019966634047186384, 0.0020161191437576024, -0.002155389555470714, 0.002146037375411725, 0.0007378813916498597]], [[0.8805881509229937, 0.03258933679614373, -0.02394653532150713, 0.0011108619300655772, -0.011353197926912088, -0.0031515129485910173, 0.413671785058798, 0.9135550362752143, -0.012685065001649731, -0.000692395461941992, -0.030597836248505927, -0.017327032173751058, 0.7828105747411074, -0.010497223801440423, 0.34262194658303907, -0.0010922895755145097, 0.3132533778522342, -0.01935465482132505, -0.007968197412106881, 0.13929791866057245, -0.00010140345643474999, -0.014141374785174214, 0.3023131653682323, 0.24756569706962386, -0.032459354186689916, -0.00014225522370557155, 0.6776552119383168, 0.021624986215949972, -0.010916068581149057, 0.1079894081114597, 0.005814508153592778, -0.016548784660080744, -0.0010964035561327893, 0.010168006824248564, -0.005802304820978464, -0.012210826366337095, -0.004148646988468511, -0.03303928007080703, -0.019451979458770648, 0.018247026848418897, -0.001988799116989233, 0.08125555751425628, -0.0022071300683189307, -0.014180281825733972, 0.3555276577846947, 0.09974222345458943, -0.08523276118375087, -0.016481124405660318, 0.009885147703394223, -0.012431887664011963, -0.0021939317197451646, -0.0025514859198748317, 0.6747809256404736, -0.03342458070210849, 0.024905383474053654, 0.42581704149836347, -0.02964023040426325, 0.015761020590244097, -0.026614510534779416, 0.005970615109314446, 0.3677466848469783, -0.005931932461926882, 0.38313617500793845, -0.0011977970550616814, -0.00978767485792899, -0.03042334730743198, 0.29344568554472505, -0.004744849449188308, -0.003700807905323183, 0.5187412641054293, 0.4310866438037309, -0.010905253483425935, 0.4664528258830682, 0.29651728370723246, 0.0006615132715890747, -0.010585627126293877, -0.0008381409256041157, -0.003854396615175167, 0.1210763995622246, -0.010351478840870149, -0.005066049922214065, 0.0009638414374170351, -0.01677820343533728, 0.3133788531337669, -0.023113513951737445, -0.006136019676378048, -0.008535554821632003, -0.007588856810893978, 0.39058834357582467, 0.029274210135830443, 0.3633444567653702, -0.0033003002629694725, -0.007526080244472579, -0.0054866485866056965, 0.5936190551316821, -0.015917730756466398, -0.0034838680978287752, 0.26055195340563503, -0.027358296236117515, -0.009358532570207611], [-0.3989186357156598, 0.06373418747221754, -0.03561443962057765, 0.012828663105498031, -0.00548631704690431, -0.0013068521975992393, -0.1956847420824376, -0.40202020448474235, -0.012029517852561589, -0.007620771148486965, 0.03357938945654138, -0.03380474474615193, -0.37028395678529363, -0.006979061369962424, -0.143542861740845, 0.00042191488864165767, -0.1330854256842377, -0.021978354249098497, -0.0029663057450258087, -0.06330305462083073, -0.004711570433770575, -0.0247220198403346, -0.13728136223690443, -0.11528850390524113, -0.05697908992329398, -0.004033632537787435, -0.30706967574155053, 0.03949585776121271, 0.0023035212685720246, -0.04071150300899593, -0.004197880329482836, -0.0011725514842285698, -0.007336118076669905, -0.0028605086204930848, -0.0026652675556345785, -0.01803311040214726, -0.006956724463103454, -0.037571543129345145, 0.01941759786337488, 0.03839887276766801, 0.010243527523032347, -0.036483468150831054, -0.010113439565219639, -0.014828113304410771, -0.1621063880880973, -0.04544766370926017, -0.19728949309340318, -0.00198000027788875, 0.020701777100714164, -0.0022057928239082843, 0.0036657726313389263, 0.0018767680728543575, -0.29402176357885973, 0.030863307425353897, 0.05418092580738872, -0.19475739677935194, 0.034501545758055335, 0.043067161623220496, -0.04658245518037352, 0.01821006829951838, -0.1707373966588151, -0.0005506714423082052, -0.17038507395636673, 0.0026393363405018975, -0.007282169607488352, -0.046638697467546376, -0.12777472656266906, -6.661064861881187e-05, -0.0005641705544159182, -0.21717565984007184, -0.19123288972576108, -0.0025790012365522314, -0.21593423000344916, -0.1351572610772242, 0.02198517224055342, -0.020327607114367003, -0.0024200924488068662, -0.018836680463397946, -0.046803486740041686, -0.0056433993044269866, -0.011968102191851617, 0.03290480560583626, -0.02809100534584016, -0.13180434890929962, -0.04183485787953954, -0.0019081719313616859, 0.012967144033470584, -0.008278615714711996, -0.1764273863469236, -0.012218360237556916, -0.16485986134647743, 0.012662656380148268, -0.008327415867588074, -0.005326781049426647, -0.2638065667521863, -0.011010065863593741, -0.0057624638785272716, -0.11911936280452805, -0.05769045183090544, -0.023705227700295487]], [[1.3760032725712035, -0.4921608941733177, -0.12153469024153081, -0.10200344836710362, -0.0102722843288977, 0.027288520025014477, 0.6359247951858255, 1.3832728117794373, -0.011477347199119633, -0.0006264739766622832, -0.5801799692774056, -0.10420559418377892, 1.203491937276263, -0.009497805662038415, 0.5212450918678759, 0.004195154353404158, 0.4834528253149853, 0.25650423114652154, 0.06810022124486789, 0.21386779516032262, -9.174905107234894e-05, -0.0823512946379498, 0.4667212935533838, 0.38699174154907795, -0.19582351032516523, -0.0001287114092947052, 1.0394445139866733, -0.2992229832092417, 0.043166923510694934, 0.16532610801994094, 0.00526092131669938, -0.01497321040471687, -0.0009920173276564922, 0.015157336502028674, -0.005249879837181329, -0.011048259806030825, -0.003753663216313247, -0.11862858935327532, -0.35040797796638073, -0.30293309443005956, -0.07409951573830606, 0.12314515571459106, -0.001996993953473511, -0.012830207639783342, 0.5454299475478681, 0.1540636643192212, -0.5988797698847375, 0.09761645640507456, -0.16720049352027802, -0.011248274332197819, -0.009675117437557489, -0.0023085644237739447, 1.0210607521826511, -0.5759259574528489, -0.4409670449613828, 0.6643662527758468, -0.5809253074823056, -0.3544092249584815, -0.15712750220823463, -0.1520957350790777, 0.5746653342121041, -0.005367165908760333, 0.580934987564502, -0.0010837573692557363, 0.10621868693925114, -0.14607122624480828, 0.449423828833739, -0.004293102520862391, -0.003348461930712751, 0.7843861726005986, 0.6535547680822694, -0.009866987714088206, 0.7169892576075203, 0.45481795901296057, -0.17755105220590056, -0.009577792296144562, -0.0007583433276612193, -0.0034874277892721515, 0.1861861605167483, 0.09192395915927067, -0.004583722186505298, -0.2584792012012895, -0.08624053399050872, 0.473981449586544, -0.14096754156332544, -0.005551822417722061, -0.1236229065698667, -0.006866338048067254, 0.5991340680887375, 0.044219758282751966, 0.56203255905407, -0.07675255732979126, 0.10044861582686287, -0.004964276555133367, 0.8996527216951261, 0.16158783922037467, -0.019064056604645326, 0.3996795902462461, -0.19888930093516743, -0.08179631206432783], [-0.7655339793022785, 0.3145665587407946, -0.2979677128880195, 0.06089608044156724, -0.0049639765806150935, -0.013316571560756722, -0.36753910724620265, -0.7804458620315907, -0.010884213286561896, -0.006895213890101733, 0.31719705703189127, -0.23526294752964047, -0.6955523374089495, -0.006314599921766648, -0.28502157838025344, -0.002246500147987038, -0.2628043426794473, -0.11956608333612262, -0.03305393046790859, -0.1211721906096305, -0.00426299192904875, -0.1766677485498244, -0.2622962672297884, -0.21832040466861694, -0.45749655694420444, -0.0036495990445324132, -0.5881652552425188, 0.19300692926685054, -0.02406112278390817, -0.08509970134074496, -0.0037982091566391815, -0.0010609153750165343, -0.006637662026069855, -0.006764878357541768, -0.002411513154295114, -0.016316216679897376, -0.006294389663849839, -0.32857259399880073, 0.18952049439854415, 0.1925046663223871, 0.041684610641495645, -0.07016096293387511, -0.009150560698919811, -0.013416360474343175, -0.3095507906812844, -0.08664124460588632, -1.3450914055460326, -0.05287814206283454, 0.10471929778471009, -0.001995784025231989, 0.004665016685077147, 0.001698085014272352, -0.5733216644991345, 0.30573705656498346, 0.2752441087260278, -0.37219445860928413, 0.3189781513355773, 0.22231686859149313, -0.3710550697916881, 0.0951037053722207, -0.32399629577630257, -0.0004982431966402442, -0.32944927578838823, 0.002388050794477951, -0.048589902466688845, -0.38054038186287004, -0.24945848876890836, -6.026879178445165e-05, -0.0005104570872683107, -0.4321394886230363, -0.3701766405437088, -0.0023334600662290052, -0.40997919407482275, -0.25811953896819895, 0.10290688231543973, -0.01839225928669204, -0.002189680642969639, -0.017043280560972672, -0.09684142789647752, -0.045690615591971476, -0.010828644879041715, 0.15284675361886094, -0.226755053545749, -0.26170305524312476, -0.33280370030579126, -0.0017264989788388528, 0.06845907151346264, -0.007490426487643555, -0.33847714768909887, -0.02432122623520379, -0.3154427857034192, 0.042520259935881634, -0.046580376044859734, -0.004819629662915355, -0.5100052068657731, -0.07438095149835894, -0.046209591253884574, -0.22712842511127562, -0.41917404386260104, -0.18505621858305446]], [[1.583343326387215, -1.0488445729515437, -0.3256199614229065, -0.21529372265098684, -0.009294282193705853, 0.05366081404027773, 0.7329150354725961, 1.5929177204823708, -0.010384613615460964, -0.0005668287344551312, -1.2145936453922164, -0.2630859437908383, 1.387067063712313, -0.008593539977824489, 0.5991069420446773, 0.008414098026390175, 0.5554934403023145, 0.5015255611143652, 0.1338711832185334, 0.24666045358545907, -8.301382091539606e-05, -0.2028356276370468, 0.5356999553424157, 0.4455457307196954, -0.5154253953042716, -0.0001164570723737876, 1.1968304410431858, -0.6384572656817653, 0.08649309177689563, 0.18943072913200276, 0.004760040293932715, -0.013547643191269103, -0.0008975694878643212, 0.017200694537630998, -0.004750050049972263, -0.00999637871176872, -0.003396285001029811, -0.3485643330539714, -0.7323380145227715, -0.6449279649840942, -0.1548558108037182, 0.14187273653887691, -0.0018068644469363914, -0.011608671118314283, 0.6280530602266428, 0.17721460498777442, -1.5086107954205494, 0.19334653267738544, -0.35418615966318745, -0.01017735028435329, -0.018974803135715326, -0.0020887709617367495, 1.1755028552676083, -1.1985829653963185, -0.9335383135400037, 0.7647466041534704, -1.2168706115603467, -0.7532115558200878, -0.41244065136450353, -0.32308097545205977, 0.6616813577699601, -0.004856169566502761, 0.6692561741185501, -0.0009805751570792019, 0.2081108075029137, -0.40881960298857667, 0.5170432603306498, -0.003884365447630356, -0.003029662059818106, 0.9037275276253702, 0.7528721315530638, -0.008927572999374453, 0.8261203818718934, 0.5237249096525609, -0.3721977956969212, -0.008665911256237781, -0.0006861430876839497, -0.003155397277359566, 0.21387163752742844, 0.18063826083694368, -0.004147315838900878, -0.544729828583384, -0.24175669696087454, 0.5461565157153001, -0.3709312301310654, -0.0050232453257247674, -0.2588925377286848, -0.006212608745319323, 0.6898246352809763, 0.05086213236989908, 0.6466161362538699, -0.15985310205954603, 0.19635048056395743, -0.004491638443185364, 1.0363242183033794, 0.31692560645530243, -0.05153852143515804, 0.4602319661968738, -0.4892178962667453, -0.20920153484690246], [-1.1036164522767795, 0.5818379729661342, -0.4641046259986516, 0.11529220380247752, -0.004491367028596896, -0.010611481207793875, -0.5239515577270972, -1.1207189675377598, -0.009847950709191897, -0.006238735380433416, 0.6152286516655282, -0.3685969281615697, -0.9915841504471203, -0.005713400421379302, -0.4127863794917551, -0.0021007856615576415, -0.38116541847572666, -0.09156132093431542, -0.026249866250852183, -0.17362639679921535, -0.0038571216206124363, -0.27745898913632316, -0.3770108296480829, -0.31343148409616856, -0.7269900361888012, -0.0033021285556066233, -0.8435262226890182, 0.35572773900400323, -0.021677318842652823, -0.12540866273664253, -0.003436589818022516, -0.0009599079000671553, -0.006005704476382878, -0.010354156404703205, -0.0021819181646676286, -0.01476278472257685, -0.005695114338725031, -0.5110208500684831, 0.36957211796736644, 0.35655070022238644, 0.08119879806666098, -0.10046854702758992, -0.008279355462069976, -0.012139017600032472, -0.4435470924157502, -0.12436140419290914, -2.108881041803046, -0.04306715063516857, 0.19600852814771838, -0.0018057697133648922, 0.009130781497339705, 0.0015364139860450945, -0.824383981466855, 0.6018613474347886, 0.5161323488358958, -0.535548039966295, 0.6174882803165727, 0.4135981540236787, -0.5796715174936451, 0.1771599882285419, -0.4653137321704648, -0.00045080653167292443, -0.4724986443922184, 0.002160689605752301, -0.038268065238960126, -0.5920548560707983, -0.3597955197343684, -5.453072952260306e-05, -0.0004618575639989045, -0.6245622135367375, -0.5310925894656134, -0.002111296343527441, -0.5863643021431296, -0.3698536431592059, 0.1988645449131208, -0.016641171770278157, -0.001981205850445828, -0.015420626412623793, -0.1422236732340669, -0.03578446496140119, -0.009797672850440023, 0.2905136830923614, -0.35470779527103413, -0.3779979432112074, -0.5263506983157787, -0.0015621227180532314, 0.13169597227751526, -0.006777279064552409, -0.48566987422272706, -0.03518293404783819, -0.4532156102821231, 0.08322429864445859, -0.035616623839392236, -0.004360763071002102, -0.7314464366776388, -0.059130593965352723, -0.07350029386981348, -0.32530584243076316, -0.6627116106728267, -0.2912682038550326]], [[1.6515682249643862, -1.3121876176851635, -0.47323733944759033, -0.26885189865253256, -0.008409393541923833, 0.06792192372248082, 0.7652470891859453, 1.6622458519501575, -0.00939591685007919, -0.0005128621876934051, -1.5075346154292248, -0.3774172354987599, 1.4482628941269031, -0.007775367487843315, 0.6245634227051682, 0.010655765439077529, 0.5789801213429774, 0.6618967490390456, 0.1694535415957203, 0.25735899284457314, -7.511025326615415e-05, -0.2895452934605689, 0.5589596744292882, 0.4649049747194754, -0.740887200341012, -0.00010536944455965583, 1.2488983947040322, -0.7988999339235203, 0.10944933681042164, 0.1971385834359471, 0.004306847077895149, -0.012257801171358785, -0.0008121138241085112, 0.017813007463290845, -0.004297807983611984, -0.009044644957982998, -0.003072931998291847, -0.5147776220884284, -0.908729394509009, -0.8068459190377809, -0.19228529273822437, 0.14808693278945492, -0.0016348367624870021, -0.010503434466276478, 0.6554189601481921, 0.18485150214830678, -2.163085226396428, 0.24455223048800168, -0.4427097390145959, -0.009208386615708337, -0.02353217471638626, -0.00188990356329856, 1.2264870798565592, -1.4861354610817794, -1.1667530102553232, 0.7978656052581571, -1.5105079885365478, -0.9420319251857392, -0.5973754857771354, -0.4040408043483029, 0.6904499481559366, -0.004393824088824277, 0.6985202992994523, -0.0008872167017800533, 0.2720938809478798, -0.5963509575778568, 0.539266932827085, -0.003514543353535773, -0.0027412144401317666, 0.94231142900888, 0.7857647591513783, -0.00807759794261839, 0.8623622537543935, 0.5465457680327956, -0.46446505355635986, -0.00784084845222825, -0.0006208168775327904, -0.0028549786775789133, 0.22261583999902693, 0.23591048277686402, -0.003752458802637819, -0.6800810654840317, -0.3527172341391946, 0.5695097930050154, -0.5337710723100831, -0.004544992923741415, -0.3214047632997859, -0.005621119605854873, 0.7198105215885119, 0.05303890192750991, 0.6745087017106179, -0.1984072233398446, 0.2591605743345247, -0.00406399919106816, 1.081598128118132, 0.4119310222188489, -0.07430827913843684, 0.4802959592486586, -0.6970199858618152, -0.3005283033280242], [-1.2548139946238825, 0.7095344947600258, -0.6031586261767629, 0.14157359510293235, -0.0040637536172799076, -0.006378201359919712, -0.5935902290790315, -1.2726420980388222, -0.008910348466839711, -0.005644758780136615, 0.7716960818304761, -0.47214763063722404, -1.1233847087281963, -0.005169439834580148, -0.4700448449531405, -0.0014610658716122892, -0.4342490788961374, -0.04450793526561794, -0.015686803436850714, -0.19710493241678592, -0.0034898933527926336, -0.35660729227994886, -0.4280347197480823, -0.3558987303217121, -0.930760082212119, -0.002987739985872806, -0.9575094571201728, 0.43361415887766575, -0.01492912056233487, -0.14359816600661152, -0.003109399480197704, -0.0008685171299331732, -0.005433914248116877, -0.012000518188443247, -0.0019741824210360273, -0.013357251686517767, -0.005152894730593091, -0.6699899298715786, 0.464000563169186, 0.4346129697911097, 0.10133967451831677, -0.11398442584068964, -0.007491095805243909, -0.01098328779818448, -0.5033368818224562, -0.14121347570561932, -2.701975493414627, -0.027639170259796862, 0.23946839372206827, -0.0016338462561483282, 0.011434793235625355, 0.001390135309289274, -0.9365416038568485, 0.7584449647417456, 0.6307377696968302, -0.6085418559596653, 0.7742144400083896, 0.5047798465033431, -0.7544815279495418, 0.2162785732710128, -0.5284144946340706, -0.00040788620972522974, -0.5363250761025093, 0.001954974987634896, -0.02274096708598955, -0.763269309429055, -0.40915607370401513, -4.933897584843293e-05, -0.00041788509699127607, -0.7109625782658286, -0.6029014547336933, -0.001910284351853519, -0.6649939281642203, -0.4197102304648762, 0.2445596063161467, -0.015056801536518012, -0.001792579495299122, -0.013952461681716256, -0.162742788203406, -0.021972801563282858, -0.008864857455067321, 0.3570458422519898, -0.45568674419519584, -0.4302025509816435, -0.6729474913858667, -0.001413396368122487, 0.16500307211102871, -0.006132028876405161, -0.551383124391151, -0.040046902909095995, -0.5147774692183809, 0.1040210358484615, -0.017196902317119955, -0.003945584182066159, -0.8302566486490983, -0.03782855480693434, -0.09397744289785483, -0.36910674806065946, -0.8529822097326678, -0.3743463642029547]], [[1.6629231419572486, -1.4539557970685857, -0.5833560110116541, -0.29758511942405474, -0.0076087532387214265, 0.07825595742482394, 0.771062236870638, 1.6741613051254387, -0.00850135178088503, -0.00046403367997654993, -1.6707009985594627, -0.4643320486249075, 1.4592712284698643, -0.0070350914439238875, 0.6286131663085597, 0.012129585662779264, 0.5826465029198094, 0.7797672316745301, 0.1953861036799375, 0.2591852558814416, -6.795916732293805e-05, -0.35522962366813976, 0.5629385155490051, 0.46822159654600043, -0.914705053745295, -9.53374459833099e-05, 1.257852941835285, -0.8853444703687688, 0.12471502220934089, 0.19817498838411612, 0.0038968014148991533, -0.011090762240726642, -0.0007347942106158648, 0.017846768962781267, -0.00388862291337473, -0.008183523731414623, -0.002780364740668899, -0.6362416083529489, -1.006996178023539, -0.8936322451626411, -0.21315231368598134, 0.1491771608881402, -0.0014791874645110387, -0.009503425022810425, 0.6601545525038792, 0.186133459013478, -2.6605866378997036, 0.2802005797528973, -0.49020184132964284, -0.008331675897479891, -0.026072521466459934, -0.0017099699028747545, 1.2351536258258564, -1.6463777858280921, -1.2918795097372668, 0.8034724254937446, -1.6740541288699395, -1.0432445890261304, -0.7351731515157478, -0.447438981040832, 0.6953829136847013, -0.0039754975313672555, 0.7036174719001203, -0.0008027467045587178, 0.3199101168560711, -0.7376180014750003, 0.5429358617413272, -0.0031799312269698474, -0.0024802292989859246, 0.9485412300339221, 0.7914783000244328, -0.007308547186022973, 0.8687513308538406, 0.5504937708603103, -0.5140019342706282, -0.007094338106284799, -0.0005617102355873221, -0.0025831622876504833, 0.22381381169697948, 0.27708430248778293, -0.0033951952569944107, -0.7527035548266493, -0.4361084612222171, 0.5733004112828008, -0.6594598087909777, -0.004112273906088609, -0.35622120552107933, -0.0050859448773643975, 0.7249511471163947, 0.05339222425115811, 0.6791927947942473, -0.21990688483205903, 0.30534376510502625, -0.0036770745539549394, 1.0894673533963515, 0.48337979176465556, -0.09187766377791638, 0.4837753333945314, -0.8542212455034909, -0.36959053473030934], [-1.325811660553258, 0.7501061348668836, -0.6866532959813194, 0.15031980748531887, -0.0036768523607197904, -0.00252266273602047, -0.6259619454766304, -1.3437238416193178, -0.008062013320843246, -0.005107333416618766, 0.8181439314865663, -0.5417004019388603, -1.1846532167179724, -0.0046772685673049106, -0.4970477770188633, -0.0009074063217095303, -0.45931586769710153, 0.022898458777329184, -0.006038440743913178, -0.2080847384716638, -0.003157628099871107, -0.40926727151160386, -0.4519003548984655, -0.3757680120050048, -1.0696013591930928, -0.00270328367683534, -1.0107919565676156, 0.4581312374476166, -0.009064208691995645, -0.1523006009753413, -0.0028133602319223316, -0.0007858274787972717, -0.004916562939785444, -0.012811376619433, -0.0017862247515233274, -0.012085536432982623, -0.0046622986871442465, -0.762009642938791, 0.4920836744998874, 0.46008881391972545, 0.10716941137049561, -0.12029202290393246, -0.006777884657861133, -0.009937592549287139, -0.5312650544150235, -0.14910255535651698, -3.1003800887779476, -0.014126760113956072, 0.253543000998117, -0.0014782912621541396, 0.012162809683238473, 0.0012577835112704222, -0.989082789218331, 0.8050914221233917, 0.6678658087980155, -0.6427583698992171, 0.8206934607345597, 0.5346588486820343, -0.8597857864903419, 0.22910693487891684, -0.5579436222547679, -0.00036905223947536334, -0.566149226297574, 0.0017688460166157749, 0.004983620427286433, -0.8759724681670294, -0.43234601092375935, -4.464151789429506e-05, -0.00037809915415355707, -0.7516666216900281, -0.6364661670908126, -0.0017284102803112656, -0.7016498249564141, -0.44299822257988397, 0.25974340756324843, -0.013623275790891115, -0.0016219118504237015, -0.012624077762521802, -0.17254300191248567, 0.0029051240379996384, -0.008020853410627336, 0.3792339256319685, -0.5190428193818715, -0.4547831592967072, -0.7733218738309994, -0.001278829934636263, 0.1748719146134547, -0.005548211573245893, -0.582114080823594, -0.04233747431153029, -0.5436140769633993, 0.11006747493754619, 0.00919206840763692, -0.003569933583709525, -0.8764310607318639, 0.0034456560899332883, -0.1080207667408211, -0.3895591575713334, -0.9798024675963818, -0.42969396268281573]], [[1.6582961622502557, -1.5376682389632217, -0.6740033614147514, -0.31456601939786893, -0.006884340179721148, 0.08413442257579302, 0.7693979553145124, 1.6699172153126087, -0.0076919563311959255, -0.00041985402963905835, -1.766915992056747, -0.5354561330591537, 1.456123337357237, -0.006365295492689177, 0.626660029733313, 0.01297647238704749, 0.5807605506250317, 0.8452858690431393, 0.2101120967933909, 0.25851581639748966, -6.148892091818088e-05, -0.4091128636327242, 0.5614927455563008, 0.4670238295775939, -1.0562475304017052, -8.626057245157623e-05, 1.2546745858820625, -0.9363831178427833, 0.13346281485506947, 0.19735335221731146, 0.0035257953190623455, -0.010034834580914712, -0.0006648360315098509, 0.01772297084354529, -0.0035183954751078876, -0.007404388007902624, -0.0025156521834690648, -0.7365549303723449, -1.0649471509476571, -0.9449031206554317, -0.2254606110944387, 0.14882372777491432, -0.001338357201998626, -0.008598624331322788, 0.658519491446346, 0.18562955973410702, -3.067664780546625, 0.300619006451665, -0.518274329422852, -0.007538434924336365, -0.02756988448113084, -0.0015471673399218698, 1.2319158598270425, -1.7409065129362884, -1.365844365409647, 0.8013408792557367, -1.7704901683042507, -1.1030416638012221, -0.8486481018835637, -0.47307947805241435, 0.6936078350685057, -0.0035969989472510286, 0.701907696642445, -0.0007263189144061363, 0.3463815545040445, -0.8527357753011185, 0.5413929586852047, -0.00287717680252398, -0.0022440919927638058, 0.9456912742738719, 0.7895375690681097, -0.006612716100723581, 0.8667285007531934, 0.5491290588523842, -0.5432882970073258, -0.006418901407536028, -0.0005082310101127999, -0.0023372249525864417, 0.2229089050446428, 0.2997678157368437, -0.003071946006446256, -0.795625305697201, -0.5046224286315781, 0.5715996917185796, -0.7617867192160908, -0.0037207531370095914, -0.37675016598662037, -0.004601722985692506, 0.7231009377263556, 0.05323370162421196, 0.677353927094192, -0.23259002644544238, 0.3310206723736695, -0.0033269881807700733, 1.0868025133373427, 0.5228861179460573, -0.10615995062371636, 0.4825855713781634, -0.9831701431980931, -0.4260747861318481], [-1.3773790620148088, 0.7651033264090386, -0.7568690838815471, 0.15365878658630122, -0.003326787142075768, 0.0019217982482593325, -0.6493703278390541, -1.395267059642945, -0.00729444634262508, -0.004621075168048093, 0.8371196295219216, -0.595361785202607, -1.2289571233582945, -0.004231955869639278, -0.5167010979404157, -0.0002648207404061395, -0.47756941872640635, 0.07221687827657995, 0.005120556581776829, -0.2160462321594846, -0.002856997108268961, -0.451485589329674, -0.4692057831245679, -0.3901770909252713, -1.179634118898369, -0.002445909842221289, -1.049415915257542, 0.4671484366835884, -0.00237303539830418, -0.15867524670702707, -0.002545506244845329, -0.0007110105318019361, -0.004448467538708164, -0.013413270658867047, -0.0016161621281584428, -0.010934898458219305, -0.00421841123962667, -0.8366352161081514, 0.5035933295511728, 0.46951262335921984, 0.10944637355061501, -0.12486060428111047, -0.006132576812475245, -0.008991455699810705, -0.5515042895018386, -0.15482676999259784, -3.406792041911769, 0.0014450668765891763, 0.25869983683459674, -0.0013375463251438778, 0.012485276297337014, 0.0011380326437665852, -1.0272032643856157, 0.8241078848237234, 0.6814815636417497, -0.6675919594097642, 0.8396494025889947, 0.5458060786098023, -0.9479949973289645, 0.2339007143684954, -0.579358808940793, -0.0003339155681520364, -0.5877612082541552, 0.001600437985287319, 0.025371302706167033, -0.9618245535166775, -0.4491933333823874, -4.039129482599428e-05, -0.0003421011455084741, -0.7812759140069188, -0.6607921124851889, -0.0015638520486162372, -0.72818645066522, -0.4598743060710247, 0.2655339803259555, -0.01232623295356259, -0.0014674931055740285, -0.011422166424082529, -0.17971583703951888, 0.020361299502430454, -0.007257205179085824, 0.3877414294943336, -0.5702115967177493, -0.4726594227602551, -0.8527588328514151, -0.0011570752823528286, 0.17888895619521342, -0.005019978261998283, -0.6043942480817845, -0.044003175349104355, -0.5645405436219026, 0.1124477992429081, 0.028495764674744253, -0.0032300478722578777, -0.9098934939361898, 0.03414950792551533, -0.11908016168709458, -0.40437873081535236, -1.0812403498496217, -0.47362278031506416]], [[1.649461527693696, -1.5896045938377616, -0.7537655043690666, -0.3251710945702449, -0.0062288969326710734, 0.08675176212828652, 0.7657418433405739, 1.6613962339212787, -0.0069596216844076495, -0.0003798806289514665, -1.824026547489304, -0.5983303931346806, 1.4492052239415454, -0.005759269375843455, 0.6231387531797918, 0.013337962637674184, 0.5774283088140615, 0.8757892738882926, 0.21667661781289466, 0.2571877057610082, -5.563469278126595e-05, -0.45661719792504396, 0.5586140393954465, 0.46463273225624147, -1.1806463853852611, -7.804788855971923e-05, 1.2482876874135076, -0.9698187790023426, 0.13720892479791735, 0.19605758947996085, 0.0031901119170178833, -0.00907943952639672, -0.0006015384204283556, 0.017562231646901013, -0.003183416596318026, -0.006699432123733214, -0.002276142340472266, -0.8252127937022419, -1.099344875189861, -0.9767779662775822, -0.233104545313368, 0.1480869812355689, -0.001210935086401433, -0.007779967770961736, 0.6551985400359408, 0.18465630721598822, -3.4277155409993005, 0.3095646108477378, -0.5357349208789528, -0.006820716721067274, -0.028457584507493416, -0.0013998648594321138, 1.2255331712798467, -1.7970282057302827, -1.4118498544719775, 0.7971665032783326, -1.8276547636912028, -1.1402291041450383, -0.9485463100708853, -0.48902509156447715, 0.6900585206337433, -0.0032545364006490093, 0.6983915197672127, -0.0006571676500548265, 0.3585983911856473, -0.9544113625555692, 0.5384799982236075, -0.0026032469767814266, -0.002030436812453447, 0.940462441643169, 0.7855664585780029, -0.0059831335990270795, 0.8624709447364617, 0.5463583904587578, -0.5615884938731255, -0.005807771586635733, -0.00045984342686972943, -0.0021147027831384243, 0.2214660294851071, 0.3102043498989358, -0.002779472622989892, -0.8224475126784762, -0.5650929776388299, 0.5684591022041436, -0.8516923332279513, -0.003366508219714976, -0.38891461939798433, -0.0041636028206472305, 0.7194026807681054, 0.052940864207990435, 0.6737988496763198, -0.24046874413627783, 0.3429804580004143, -0.003010232779500889, 1.0813439142221875, 0.5410209671952205, -0.11870501998401903, 0.4801599775647729, -1.0969183395461761, -0.47584332007096936], [-1.4226365066636055, 0.7670928421544294, -0.8168490766184072, 0.15413955696319748, -0.003010050881269013, 0.005315577849256018, -0.669920311071803, -1.4405033122464141, -0.006599957768349489, -0.004181112523272076, 0.8448393411230436, -0.6432364027417921, -1.267850703442434, -0.0038290404377813816, -0.5339516647808786, 0.0002575744299492882, -0.4935901034550482, 0.10657016195109915, 0.013610725884458049, -0.22303536956018077, -0.002584988547888331, -0.4877451117899975, -0.4843964312485462, -0.4028246735225198, -1.2736282407181259, -0.002213040017789953, -1.0833180684724217, 0.4655287489510096, 0.003025358204235179, -0.164270269674938, -0.0023031540607649594, -0.0006433167456895345, -0.004024938495713392, -0.013942071875087406, -0.0014622908020203382, -0.00989381025448263, -0.00381678536291042, -0.90314464923157, 0.5083086807924896, 0.47073998752832247, 0.10983125002305194, -0.1288703706553056, -0.005548707341499224, -0.008135398508309527, -0.5692707740061628, -0.15985313150722932, -3.681502802587465, 0.013610155248607085, 0.2593273536940775, -0.0012102014113909805, 0.012635775197649286, 0.001029682999239059, -1.0606590787034702, 0.8318598804379141, 0.683155967492152, -0.6893876959458494, 0.8474757158978126, 0.5473532172831999, -1.0234872638339283, 0.2345761236157702, -0.5981546576311662, -0.00030212418386297516, -0.6067272041468821, 0.0014480637210304535, 0.039655539444557256, -1.0382642411318042, -0.46397928270839645, -3.654572637031421e-05, -0.0003095304299746718, -0.8072627862008275, -0.6821396247143007, -0.0014149610528356572, -0.7514773562939465, -0.47468817923864026, 0.2663573969886576, -0.011152678779877648, -0.0013277762378668902, -0.010334686483535731, -0.1860109796175654, 0.032698827979418074, -0.0065662622560297874, 0.3889788881953555, -0.6157777186162345, -0.4883487854059115, -0.9205219914464754, -0.001046912629092217, 0.18055220640505448, -0.004542036910137569, -0.6239499538195556, -0.04546484499437016, -0.5829126239689371, 0.11286990223174337, 0.04193790279601882, -0.0029225219496202726, -0.9392604079046709, 0.055816738765619635, -0.1285079206638253, -0.4173881262279544, -1.168330232004054, -0.5112832875827165]], [[1.6409726995096756, -1.6236703671891208, -0.8274380146848718, -0.3315539783221908, -0.00563585702986146, 0.08718469539120967, 0.7622178878117952, 1.6531954273039609, -0.0062970110469343235, -0.00034371300991590327, -1.860764506984944, -0.6563658879823004, 1.4425368312706197, -0.005210941704375634, 0.6197634957645519, 0.013373200484069168, 0.5742364763930514, 0.8831852136126391, 0.21777781597328327, 0.25591148770427324, -5.0337833135573174e-05, -0.5005277606879833, 0.555846469195887, 0.4623330439827539, -1.2954992392181452, -7.061711666763991e-05, 1.242144606454003, -0.9886645680543719, 0.13759307187931868, 0.19482176497159848, 0.002886388210931644, -0.008215005583677562, -0.0005442672389907606, 0.017410843341655224, -0.0028803303373400027, -0.006061593575675132, -0.0020594357153723227, -0.9069433419988677, -1.1215325589372374, -0.9977058910396422, -0.23772710032745806, 0.14737723530348235, -0.0010956445568404774, -0.007039253743963924, 0.6520041188473827, 0.1837227931138442, -3.7599637032865147, 0.3108101996476369, -0.5471928271805191, -0.006171330926908834, -0.028984388425574756, -0.0012665867318346128, 1.2193938832444933, -1.8332396930660666, -1.4420707981054082, 0.793152398758871, -1.8643468364309577, -1.164761145624023, -1.0408223767703042, -0.49954394736819024, 0.6866436636754544, -0.0029446789778029376, 0.6950038544220151, -0.0005946001291067766, 0.3614145495304048, -1.0482126687133588, 0.5356825259170872, -0.00235539742158934, -0.0018371232831184705, 0.9354453337903533, 0.781741006673052, -0.005413492295531887, 0.8583690236132236, 0.5436931813091128, -0.5725990256321043, -0.005254826123818137, -0.0004160627215335878, -0.0019133664716631514, 0.22008917202034928, 0.31254604024644533, -0.0025148450023987972, -0.8385735060924404, -0.6208125036519524, 0.5654450542140431, -0.9347061072064543, -0.003045990200391864, -0.39672738941815494, -0.0037671951358221015, 0.7158457785969101, 0.05265967633404834, 0.6703864385472634, -0.24523040648679176, 0.34588767580975927, -0.0027236349798766776, 1.0760864765761466, 0.5450470784068382, -0.13029151023395408, 0.4778268356717904, -1.202068850775041, -0.5218666521660358], [-1.4659314680117401, 0.7593210724131754, -0.8706859113358425, 0.1535579121843158, -0.0027234703997849013, 0.00781928922120339, -0.6896290942311611, -1.4838129855203772, -0.00597158996008474, -0.0037830377772553603, 0.8416215465866861, -0.6861013008136932, -1.3051517836354576, -0.0034644857190854307, -0.550440199945186, 0.0006600707308935787, -0.5088977209059546, 0.13022226678162951, 0.019859878048141585, -0.22972919316151968, -0.002338877338508231, -0.520338854404439, -0.4989435673149143, -0.4149350564295884, -1.3579737689886038, -0.002002341229344733, -1.115786814612698, 0.4637639902805055, 0.0071659668073876725, -0.16960109601471318, -0.002083875707773184, -0.000582067939606638, -0.0036417327435371394, -0.01444331951146077, -0.001323069234464609, -0.008951841823288967, -0.003453397423579896, -0.9624563892093925, 0.5063109278012073, 0.4659359510897893, 0.10940082405518817, -0.1327117633653257, -0.005020426829220681, -0.007360844683959041, -0.5862902352301806, -0.16466708718761908, -3.927273255879019, 0.02273617483684883, 0.2566587134489762, -0.0010949807334524864, 0.012677841938565356, 0.0009316490917279912, -1.0926810388676393, 0.8285812551868268, 0.6760791875563348, -0.7102470491624553, 0.8444265948597637, 0.5416163768110644, -1.091249984690501, 0.23212669249043694, -0.6161501583419233, -0.0002733595890123585, -0.6248894962767383, 0.0013101966833086109, 0.04956385302406902, -1.1066464697203016, -0.47812263134711236, -3.3066286230426715e-05, -0.0002800607023338128, -0.8321052070710011, -0.7025809156363358, -0.0012802456490774486, -0.7737958707945624, -0.48887893202685173, 0.2653563863059983, -0.010090856179314994, -0.001201361513146146, -0.009350743173185325, -0.19201073034710517, 0.041312813380305395, -0.005941102525144899, 0.38757920493476306, -0.6564017482560565, -0.5033491006811712, -0.9813451565016234, -0.000947238325516805, 0.1798840935498872, -0.004109599328193085, -0.6426765004271461, -0.04686205435342455, -0.6005031956746882, 0.11245469106309236, 0.05118908882157551, -0.0026442749097838687, -0.9673835652253507, 0.07094541178920641, -0.13697723030275916, -0.42985187858653434, -1.2466280946670343, -0.5451870312354692]], [[1.7057859558206925, -1.6524399496646354, -0.8890664150466989, -0.3381262146615655, -0.005099279182874243, 0.08302956895889872, 0.7928400508603575, 1.7189655970078863, -0.005697486145554451, -0.00031098883223272566, -1.8982955161783763, -0.7048535668958508, 1.5004953965705976, -0.004714819133186398, 0.6439953081521912, 0.01270602032215945, 0.5966537054641129, 0.8443498057773571, 0.20741251422646034, 0.26607553315112903, -4.5545276123786886e-05, -0.5372020441062351, 0.5779331169578827, 0.4807012961922147, -1.391505462571283, -6.389381261269322e-05, 1.2915903703962308, -1.0062336742199995, 0.13075121955184277, 0.20221376233114524, 0.002611581386772539, -0.007432872540606722, -0.0004924487237701002, 0.018021970099064862, -0.0026061002703186157, -0.005484482266265763, -0.0018633612627543812, -0.9753516028456773, -1.1420092404588564, -1.0155336844742446, -0.24246637055925654, 0.15326706776795168, -0.0009913305910571439, -0.006369061509079335, 0.6779717105753407, 0.19098525334787364, -4.037491236130774, 0.29571868940559726, -0.5568540947570234, -0.005583771759907083, -0.029523672001787078, -0.0011459977286023754, 1.2677888612012904, -1.8666801735392757, -1.4675197745706179, 0.82457212979556, -1.9020268299093617, -1.1856243300485911, -1.117972154727139, -0.5084898318802353, 0.7139328398442334, -0.0026643224148869206, 0.7227484951101041, -0.0005379895274886087, 0.3453447427956596, -1.126684731942223, 0.5568193401250522, -0.0021311450903859146, -0.0016622147198453487, 0.9721339385929139, 0.8129316871268678, -0.004898085317457817, 0.8927480135512963, 0.5653540865995289, -0.5839421505909324, -0.0047545254112786196, -0.0003764502831503482, -0.0017311989581114836, 0.22848005466952395, 0.298561997089154, -0.0022754120093785887, -0.8536307657882578, -0.6674163380455905, 0.5876455038040627, -1.0041167139379685, -0.00275598801349987, -0.40474303713691506, -0.0034085285755367993, 0.7443292772671498, 0.05473079818307762, 0.6969029531456115, -0.24965993661581634, 0.3306878993040697, -0.0024643235413966233, 1.119017427429878, 0.5206123012734288, -0.13998224961575037, 0.4968643356919695, -1.288803659125706, -0.5603401574437537], [-1.5450117141123776, 0.7474124035018244, -0.9061300095660032, 0.1501221217483674, -0.0024641746306220125, 0.008107363917709824, -0.7261364768608364, -1.563302846634345, -0.00540304770166774, -0.003422862873095151, 0.8228601896152323, -0.7143435048668533, -1.3742438731221187, -0.003134639472416088, -0.580390888207553, 0.0007391167318501532, -0.5366436279800499, 0.12631576284088916, 0.020362194195321835, -0.24202739517034091, -0.0021161978489444605, -0.5418714556439139, -0.5256611984861264, -0.4371683219128192, -1.4135531576195477, -0.0018117026201531258, -1.1754580057917063, 0.45632059691026927, 0.00796920629346725, -0.17909755025136267, -0.0018854743759541997, -0.0005266505008427426, -0.003295011188239267, -0.015302430925782146, -0.0011971026534313256, -0.008099556183915923, -0.003124606869717805, -1.0013358824507947, 0.4983346458187574, 0.4583664316428285, 0.10695513186348213, -0.13978719758922678, -0.004542442770237852, -0.006660034466169829, -0.6176075626786705, -0.17350333422353642, -4.089189668398635, 0.02400224526895928, 0.2526382902538523, -0.0009907299688686189, 0.012479514302950079, 0.0008429487820611062, -1.1513552861126313, 0.8155038946625753, 0.6655296317599246, -0.7484419605650879, 0.8254315538019794, 0.5327729420688609, -1.1359026798867171, 0.22834439659365194, -0.6491751119173892, -0.00024733360947661303, -0.6582776647787898, 0.0011854556702320582, 0.0484442993489355, -1.1515789891004329, -0.5039362770896879, -2.991811611550425e-05, -0.00025339672418678386, -0.8772868302737665, -0.7401417645944721, -0.0011583562096617686, -0.8149576141721937, -0.5149895155818338, 0.259418507240603, -0.009130127428698053, -0.0010869824629392757, -0.008460478992775206, -0.20271999908891705, 0.04041257552399455, -0.005375462909948529, 0.3813160346312674, -0.6830539846390606, -0.5306510899369249, -1.0214123997936106, -0.0008570537983727444, 0.17583835639213613, -0.003718333199932873, -0.6770701963583924, -0.04940338233609667, -0.6327560449100768, 0.11065114654833058, 0.04964774822711004, -0.0023925191731822577, -1.019081905916561, 0.0695576477708414, -0.1425561357823993, -0.45279854964878863, -1.2970331443027112, -0.567569923759251]], [[1.7567540853306551, -1.6582914434029288, -0.9297842474596747, -0.33914825715130065, -0.0046137877606050245, 0.08448894421877962, 0.8169194121860461, 1.770708307198564, -0.005155040722786825, -0.00028138025324423295, -1.9050536309665518, -0.7368245655335715, 1.5460715967053786, -0.004265931326768519, 0.6630339228674249, 0.012853394445148299, 0.61428241769543, 0.8472084094167577, 0.2114385563641843, 0.27406908819526815, -4.1209008174927896e-05, -0.5613518231302805, 0.5953045952708674, 0.49514584456327676, -1.4548588188674931, -5.781061990111967e-05, 1.330494748492097, -1.0117276217022988, 0.1323130550392934, 0.20801448054377222, 0.0023629383303001225, -0.006725204705238087, -0.00044556373812335487, 0.018501361402000368, -0.0023579790591751974, -0.004962316485501662, -0.001685954637776048, -1.0207348766537676, -1.1464998176452674, -1.0189356154477673, -0.2432141338649112, 0.15790129696940783, -0.0008969481339820952, -0.005762676837899171, 0.6983952215842514, 0.1966892533823345, -4.220921138214896, 0.3011758433083255, -0.558806551288542, -0.005052152839639222, -0.029643521598370783, -0.0010368897454495778, 1.3058584178587136, -1.8740038329732838, -1.4726574147336287, 0.8492754692523953, -1.9079531737781186, -1.1894636931367606, -1.1688892593768718, -0.5101352788023411, 0.7353953958150561, -0.002410657998368718, 0.7445842475543749, -0.0004867686997011083, 0.34608371078146616, -1.1786514132976011, 0.5734450771704371, -0.001928243342141111, -0.0015039588253328846, 1.000967304248234, 0.8374800049795023, -0.0044317491311287914, 0.9198124464786097, 0.582393637767145, -0.5857032493435994, -0.004301857255377472, -0.00034060925997316725, -0.0015663752223907053, 0.23507122048638276, 0.29894917913306895, -0.0020587749175339717, -0.858407649052956, -0.6982905320703816, 0.605093267808829, -1.0499422974080654, -0.002493596312154193, -0.4060566736393265, -0.003084009888358372, 0.7667430784430972, 0.05636004838472578, 0.717737123628931, -0.2506081843683391, 0.3318279735454579, -0.0022297005882031097, 1.15280114116909, 0.5211703272725839, -0.14638285208785257, 0.5118294068995153, -1.3469392656389778, -0.5857057267596053], [-1.610694718111368, 0.7233758913873869, -0.9195420306996198, 0.1456548920775567, -0.002229565854903622, 0.0201144438124051, -0.7564353743891211, -1.6293011118344527, -0.004888635130949744, -0.0030969794482235604, 0.7974301055847054, -0.7251339989972275, -1.4315858763457412, -0.002836197178674737, -0.6052803830006597, 0.0025117999319525905, -0.5597039613710184, 0.2921338799584502, 0.05203023362674705, -0.25223924839099743, -0.00191471919546387, -0.5503609016816977, -0.5478456478438454, -0.45562914106151975, -1.4346977319960597, -0.0016392143036198788, -1.2250006746245736, 0.438544421035819, 0.026228379499250214, -0.18700132792097446, -0.0017059624089474808, -0.0004765092374360153, -0.0029813002477706995, -0.016020293231861382, -0.001083129080113648, -0.007328414830313415, -0.0028271197585382174, -1.014404328421166, 0.48240451174510846, 0.4439187795737798, 0.10378601718663903, -0.1456603087901339, -0.004109966547224646, -0.006025946884497104, -0.6436079265404402, -0.18084320195858544, -4.151535881975921, 0.06889363910260589, 0.24450547625328264, -0.000896404695742536, 0.012090027799974378, 0.0007626934384279547, -1.2000772011725722, 0.7894124767150111, 0.6441260540611478, -0.7801606672819988, 0.8015879580399046, 0.5163146314093464, -1.1528864728117532, 0.22129630450044055, -0.6765960487311303, -0.00022378550757172844, -0.6859940750059516, 0.0010725909811773844, 0.11577527848195128, -1.1679892955439453, -0.5253782731655179, -2.7069676517744343e-05, -0.00022927136614854052, -0.9148273153991782, -0.7713229731421927, -0.0010480716020623692, -0.8491217068546573, -0.536666933734969, 0.25169584284042773, -0.008260867599633478, -0.000983493196517775, -0.007654974953483514, -0.21163141434009589, 0.09470022698963126, -0.004863676628022434, 0.3664534376478823, -0.6927702797833982, -0.5533344914379039, -1.0366208938286081, -0.0007754555464216354, 0.17066048257221805, -0.003364318679651453, -0.7056267463583336, -0.05151468563941775, -0.659546283742049, 0.1070865418812419, 0.11461191790496471, -0.00216473255971429, -1.0619994324682582, 0.16410455864223805, -0.14466950258139943, -0.4718514365384217, -1.3197847947628876, -0.5761240412752141]], [[1.7997247821811067, -1.6364885114672727, -0.9540541620985202, -0.3346610722735879, -0.004174518934244773, 0.0825499169624695, 0.8372457196338244, 1.8143418417672015, -0.004664240364028897, -0.0002545906434882486, -1.879739796379014, -0.7558087200756733, 1.5845441341772415, -0.0038597811645865207, 0.6790809996759635, 0.012490342712842975, 0.6291411546766875, 0.8482089182615191, 0.20667064880942534, 0.2808105877192128, -3.72855869870194e-05, -0.5756241679749469, 0.6099545913920086, 0.5073267620473405, -1.4926587882046143, -5.23065949063086e-05, 1.3633057398279278, -0.9967435775358007, 0.1286146212254101, 0.21289919680579875, 0.002137968045369533, -0.0060849124050315825, -0.0004031425712926406, 0.018906474716726736, -0.002133480935800291, -0.004489864987574805, -0.001525438516649706, -1.0480062283217784, -1.1316349819701657, -1.0054687305395729, -0.24000336999023497, 0.1618098702919104, -0.0008115516279952941, -0.0052140247492852305, 0.7156204101239376, 0.20150252204533398, -4.329400152256452, 0.2943871239370872, -0.5514496778770739, -0.0045711482153237915, -0.02926454050896161, -0.0009381696991055101, 1.3379593350256427, -1.8496992522605036, -1.4532639665143925, 0.8701042805501686, -1.8831152227850172, -1.1738356461275914, -1.1992732179855274, -0.5034317403015063, 0.7534940078452594, -0.002181144426300868, 0.7629991923870246, -0.000440424496950314, 0.34152358120176457, -1.2096930641973431, 0.5874621649733529, -0.00174465943369357, -0.0013607701347435528, 1.0252709965297324, 0.8581822169643597, -0.004009811811823335, 0.9426415738422261, 0.596764961871342, -0.5779520147456106, -0.0038922866626696735, -0.0003081805836579334, -0.0014172440006525997, 0.2406225462872875, 0.30030945323162694, -0.0018627633780594103, -0.84575361786134, -0.7167455237393676, 0.6198005166170922, -1.077305298765401, -0.0022561863613088195, -0.40072910538725204, -0.0027903879286076817, 0.7856459107850885, 0.05773341707056269, 0.7353166942155351, -0.24734296314855808, 0.3322388804604606, -0.0020174155826209903, 1.18129236403107, 0.5268098234756389, -0.15019609356934288, 0.524458712191576, -1.3811149896884425, -0.6007635713494381], [-1.6378247905619288, 0.7193247391988093, -0.9360233563413578, 0.14498911998257819, -0.002017293676989659, 0.039332216240981384, -0.7687548899650871, -1.6564038171908653, -0.004423198676587528, -0.0028021226845252258, 0.7954300722830058, -0.738808057236968, -1.4549009445727619, -0.002566168934930956, -0.615635313562281, 0.005598185682338681, -0.5693136140797771, 0.47781079678977095, 0.09854002354221428, -0.2564318042051183, -0.0017324228919835883, -0.5607927381756643, -0.55695477196115, -0.46321264404738416, -1.4615772491466552, -0.001483148229351734, -1.2453202501056369, 0.43878549612116463, 0.058079845762274006, -0.1903650309268311, -0.0015435413908868663, -0.0004311418160592485, -0.0026974570523710835, -0.01633951790093859, -0.0009800066859973245, -0.006630692189259227, -0.0025579557564753843, -1.0335383565591318, 0.4805166519550492, 0.44154070244239313, 0.10334611965867169, -0.14806252771037673, -0.0037186654568289053, -0.0054522294200173, -0.6542619584269819, -0.1838630274116792, -4.2298100790898, 0.13415833348454467, 0.24310092523677773, -0.0008110599293437005, 0.012057843112771032, 0.0006900790337447664, -1.2201246625369568, 0.786273095917392, 0.6404455063050709, -0.7932281275857171, 0.7988742402040326, 0.5135119192298544, -1.1744769879470636, 0.2201036008688218, -0.6878621289975746, -0.00020247936988875543, -0.6973498384179796, 0.0009704718968342854, 0.20123312550548658, -1.1889462736745124, -0.534241230178831, -2.449243073816346e-05, -0.00020744293164923146, -0.9304167537899657, -0.7841044289168912, -0.0009482869551589153, -0.8630697181109556, -0.5455484773625165, 0.250537503497252, -0.007474368132494444, -0.0008898569209490429, -0.006926161224264013, -0.21541240268438422, 0.16004508312759774, -0.0044006164191351844, 0.3669402705726717, -0.7051693593495133, -0.5627461373951183, -1.0559723677633261, -0.000701626088838066, 0.1700630047859941, -0.003044009121736599, -0.7173454987692004, -0.052390417365698994, -0.6705745458670017, 0.10658274244575379, 0.18736683989669808, -0.001958633020630847, -1.0795872823599482, 0.2846843376352413, -0.14726665979807893, -0.47965346084528937, -1.3448167903955806, -0.5869868430207711]], [[1.7832687958502453, -1.5890121285087313, -0.9734994987375233, -0.32455619964478305, -0.0037770719496821583, 0.08898469130313744, 0.8298450621510685, 1.7979674208980332, -0.004220168053624131, -0.00023035161495679315, -1.8229332730208616, -0.7709751736075557, 1.5705386905634668, -0.0034922996872952905, 0.6727666740024486, 0.01282109529638504, 0.6232631060371674, 0.9588168295712983, 0.22297391731772317, 0.2782730043374892, -3.373570630638023e-05, -0.5870771678719415, 0.6044444774856566, 0.5027426609725177, -1.5227370906012236, -4.7326596313485977e-05, 1.3510210393087316, -0.9678152180079798, 0.13297979866727494, 0.21081474673879474, 0.0019344166982303995, -0.005505580959947367, -0.00036476023267280973, 0.018698275690816373, -0.00193035679672891, -0.004062394582358474, -0.0013802047907694394, -1.0697138586585562, -1.0988580948173348, -0.9762763002885101, -0.23275952080553866, 0.16036237166051373, -0.0007342855399874882, -0.004717608648009802, 0.7091858423646812, 0.1996704675920442, -4.416091579813516, 0.3085254151928422, -0.5354471693863044, -0.004135939008517813, -0.028389130316830075, -0.0008488485764106972, 1.325829995662542, -1.7961217934405733, -1.411087852077809, 0.8621972470995607, -1.8264537050727823, -1.1397718757431567, -1.2234505244081237, -0.4888216556193823, 0.7466859582719046, -0.001973482348637862, 0.7561510368548681, -0.00039849262623714956, 0.3814508544348792, -1.2345323971734834, 0.5820784092042517, -0.0015785541549937939, -0.001231214131942829, 1.0157836741732091, 0.8504712593464849, -0.003628046238741548, 0.9342368441555358, 0.5913999393685776, -0.5605002921609785, -0.0035217104066989466, -0.0002788393719866177, -0.0012823112423344886, 0.2382814339472602, 0.31974538304233313, -0.0016854136763991589, -0.8212320460033248, -0.7315108887575679, 0.6140763304054421, -1.0990800121236826, -0.0020413797021372722, -0.3886488028685517, -0.0025247210852051196, 0.7785578636247367, 0.05720060202719606, 0.7286287989064116, -0.2401808864300794, 0.3756026432549289, -0.0018253417766203007, 1.1706819475698733, 0.5905958277713517, -0.15325161428157474, 0.5197482880737389, -1.4085434277220843, -0.6127966725584866], [-1.6289519017432148, 0.7162084643354495, -0.9477364718889177, 0.14505398278656578, -0.0018252314773623817, 0.05398099015079637, -0.7642775391042511, -1.6471815681286517, -0.004002075427700148, -0.0025353386002076104, 0.7971109913886869, -0.7481014421120578, -1.4464276174219048, -0.0023218495004926802, -0.6124148232686067, 0.007921682870908829, -0.5663669889271938, 0.5941316287548859, 0.13395247628543425, -0.255001040574567, -0.0015674826281467731, -0.5682443669696867, -0.5538498264314088, -0.4606350331761157, -1.479784597590274, -0.0013419408709230492, -1.238345979745018, 0.4368509441226392, 0.08078584605043308, -0.18949057194238628, -0.0013965841292194092, -0.0003900937294627513, -0.0024406379581618483, -0.016288516096750808, -0.0008867023536093096, -0.005999398222769956, -0.0023144182811232353, -1.046213554354599, 0.4793541274176531, 0.43966729375177405, 0.10342931431794139, -0.14722277203780013, -0.0033646193030818067, -0.004933134363493986, -0.6505788204221773, -0.18284622591084443, -4.283059516218885, 0.1817924274688064, 0.2420109578753118, -0.0007338406549087798, 0.012092032970298977, 0.0006243780906200811, -1.2133939055299356, 0.7843219681659094, 0.6375894821788889, -0.7888740058874433, 0.8002344959110488, 0.5114132291876285, -1.1890992309041026, 0.21921188423218868, -0.6840387047197417, -0.00018320174382787787, -0.6934282229197574, 0.000878075351250207, 0.23523029635294027, -1.203786557497948, -0.5313588330609678, -2.2160558995616734e-05, -0.0001876927355304705, -0.9255056896608267, -0.779705002016733, -0.0008580025902381558, -0.8581381800800175, -0.5424767794380678, 0.25064115072595256, -0.0067627495909179354, -0.0008051355541294789, -0.006266736285357553, -0.21440582348805548, 0.23014453424024203, -0.003981643178493165, 0.3655937412059477, -0.7139385262392565, -0.5597626928989522, -1.069065570156717, -0.0006348257753907884, 0.17034099242121747, -0.0027541955490897733, -0.7133396696795823, -0.05211280302130016, -0.6668793722450961, 0.10622693436867371, 0.2329420806320438, -0.0017721557761443936, -1.073520822147532, 0.3620370367178872, -0.14911403749049787, -0.47694647226887554, -1.3627101181170247, -0.5943758003820341]], [[1.805817583424527, -1.5332332983389017, -0.9870386047710402, -0.3131964700074984, -0.003417465039155883, 0.09545543580766863, 0.8405846627188732, 1.8209295139767887, -0.003818374914419262, -0.00020842033228786718, -1.7590970337113674, -0.781492036979205, 1.5908665550049406, -0.0031598053324324413, 0.6811537569280565, 0.013664236018782507, 0.6310317103447368, 1.040302230225987, 0.24040136964281475, 0.281819472490146, -3.052380214334726e-05, -0.6280287618407525, 0.6121518846673004, 0.5091496429763284, -1.543627723522228, -4.282073269406273e-05, 1.3682960762684002, -0.9338347941997347, 0.1414665686971824, 0.21333842667311737, 0.0017502450378044953, -0.004981406417859136, -0.0003300321941017275, 0.01890014029348073, -0.001746571670807891, -0.0036756227165952253, -0.0012487984560969083, -1.0849102466831493, -1.060336058304056, -0.9419892514629927, -0.22461392327008262, 0.16242292424830385, -0.0006643757903198288, -0.004268455257874992, 0.7182560177543443, 0.20219822333233517, -4.476165698817863, 0.33487795107921065, -0.5166492706024605, -0.003742165135848179, -0.027398939289459773, -0.0007680315260250498, 1.3427073143514916, -1.7331556279585112, -1.3615457721600646, 0.8731385491708383, -1.7626419644751792, -1.0996947774218917, -1.2402457327860978, -0.4716327024668363, 0.7562062150243513, -0.0017855913315150559, 0.7658545735661959, -0.00036055299890209145, 0.41708805791568887, -1.251861961294314, 0.5894322431265197, -0.0014282634032321017, -0.001113992877997293, 1.0285004681781982, 0.8613779234654263, -0.0032826277461787804, 0.9462849631874941, 0.5989687153069307, -0.5408819350777205, -0.003186415920389833, -0.00025229167407961014, -0.00116022514221987, 0.24115604421456302, 0.34430968667006406, -0.0015249490590440048, -0.792409487127834, -0.7418232010654544, 0.6217750389929819, -1.1142198385491873, -0.001847024323771126, -0.3750548527174458, -0.0022843478115459927, 0.7885087714559077, 0.05792011171692359, 0.7378622172211865, -0.23175708324274188, 0.4075501624062403, -0.001651554905284634, 1.1856918985527742, 0.640820578104195, -0.15537761685404405, 0.5263996929562782, -1.5068461315933352, -0.6211361451128784], [-1.648585336348561, 0.7271862169949079, -0.9614633688071323, 0.14728891214371806, -0.0016514551073822366, 0.06367323231504388, -0.773166449737068, -1.6667720232880123, -0.003621046419139833, -0.0022939544557421107, 0.8106494985582288, -0.7590079756926986, -1.4632500057746498, -0.002100791194825664, -0.619920141141498, 0.009073530021254666, -0.5733333081941573, 0.7191016812903396, 0.16182320445091453, -0.2580321675266493, -0.0014182459726843576, -0.5944950059519313, -0.5604351324572587, -0.4661174494224734, -1.5012105841354275, -0.001214177561902106, -1.2530319922158832, 0.44350718218397533, 0.09262422955732129, -0.19193919204413148, -0.00126361835290136, -0.0003529537430561971, -0.0022082700584924795, -0.01652392191480867, -0.0008022813263729467, -0.0054282083993702004, -0.0020940674858967103, -1.0611285535706807, 0.48770351743267093, 0.4464425532655057, 0.10506203869002997, -0.14895779318326097, -0.0030442811234556184, -0.004463461232746144, -0.6582778361579483, -0.18503091462204851, -4.345560191203389, 0.2269590462568575, 0.24567745517020376, -0.0006639732617942453, 0.012314581049807266, 0.000564932393222901, -1.2278905323502434, 0.7979281865821493, 0.6472645885868231, -0.7983255754741332, 0.8136171248087036, 0.5194887763744366, -1.206308580330079, 0.22268196435806295, -0.6921831369684157, -0.00016575949915300148, -0.701632047408322, 0.0007944756823852989, 0.293503337675039, -1.2211670563762327, -0.5377740596332539, -2.00506997548841e-05, -0.00016982291317826003, -0.9367997012819195, -0.7889396909487579, -0.0007763140058507046, -0.8682091216249541, -0.5488947556597104, 0.2544939947432696, -0.006118882722758995, -0.0007284803267383969, -0.0056700937790240494, -0.2171566010921608, 0.2577785623153817, -0.0036025594805094824, 0.37148502710335674, -0.7242157609076941, -0.5665799366600655, -1.0844904226700414, -0.0005743853763589557, 0.17318163041695173, -0.0024919745044319572, -0.7218102251570659, -0.052747041060130555, -0.6748574679444979, 0.10798157529005914, 0.28190641634500696, -0.001603432629717648, -1.0862280309919363, 0.4392453364099598, -0.15127789707982525, -0.48258398889116333, -1.425699582264874, -0.6030482962648134]], [[1.83551842353192, -1.4747118727490833, -1.0024880824800095, -0.30126368501839124, -0.003092095530463887, 0.10283915364365176, 0.854642571514877, 1.8510881639440981, -0.003454835637302529, -0.00018857707995289204, -1.6919852142683276, -0.7935508876203707, 1.617473996661863, -0.0028589670511928976, 0.6922488680752478, 0.014788225924448494, 0.6412998110563642, 1.114709723533873, 0.2565644722763302, 0.2864815303293879, -2.761769647935318e-05, -0.602382232958542, 0.6222814571461356, 0.517571640860049, -1.5675617985460895, -3.8743862675243244e-05, 1.3909788104642395, -0.898188545348221, 0.15287194977183377, 0.21671475077625438, 0.0015836079657302435, -0.004507137408460779, -0.0002986105375179505, 0.01917882948525693, -0.00158028433211825, -0.0033256745697281187, -0.0011299030364042067, -1.1021798280043527, -1.0198445643463503, -0.906020900981981, -0.21605480753441572, 0.16512478905042363, -0.0006011219978138455, -0.003862064797631512, 0.7301673059723889, 0.20552881048428173, -4.545094230895107, 0.35708441944455843, -0.49693030811526084, -0.003385881628118139, -0.02635544358939519, -0.0006949088934832235, 1.3648944811087973, -1.666973432524225, -1.3095765837678612, 0.8875376909667921, -1.6955099570677667, -1.0576611046833229, -1.2594854287907207, -0.4536044232409616, 0.7687177923839461, -0.0016155890147091351, 0.778580111895817, -0.00032622552202491, 0.4500940917990932, -1.271591821769827, 0.5991199499948917, -0.0012922815112543068, -0.0010079320079525514, 1.0453009215839004, 0.8756836626681512, -0.0029700958066401356, 0.9620641445634892, 0.6089056084641887, -0.5202745470009793, -0.0028830441022068237, -0.0002282715254894026, -0.0010497625975644247, 0.24499175135480586, 0.3800000399059784, -0.0013797619333714554, -0.7621517009590123, -0.753553936101275, 0.6319419263604664, -1.131552480604756, -0.0016711731036761226, -0.3607597144870616, -0.002066859961163199, 0.8015752159364627, 0.058868961972634394, 0.7500216347987854, -0.22290925814384654, 0.43672204333312925, -0.0014943139088286614, 1.2053826473219291, 0.691760613523467, -0.15780476419285935, 0.5351333829506649, -1.4053223310699583, -0.6307038681049885], [-1.6679500860876761, 0.7454973972958995, -0.9735388560266947, 0.1510347524022816, -0.0014942236124702755, 0.074768755392109, -0.7819543192120645, -1.686112033903162, -0.003276294364371938, -0.0020755519773919657, 0.8324286525708414, -0.7686208048957812, -1.4798812705147852, -0.001900779375803888, -0.6273139812786592, 0.010855945936652968, -0.5801983804180603, 0.8176090378226014, 0.1843416651661415, -0.2610246843761831, -0.0012832178187604502, -0.5366690208152816, -0.5669363547974374, -0.4715290622832216, -1.520100709470046, -0.0010985783232106952, -1.2675342779897347, 0.45463669329852463, 0.11095121567677621, -0.19434410570114152, -0.00114331196265391, -0.0003193497750116369, -0.0019980254076303263, -0.01675396509995143, -0.0007258978438782125, -0.004911400332646835, -0.001894695816765491, -1.0742408643796884, 0.500954841489126, 0.4577143842987076, 0.10777139133347884, -0.15067165966361276, -0.002754441654109143, -0.004038504672335187, -0.6658806563132741, -0.18718674233014174, -4.4006610790021705, 0.25788250426670856, 0.25182251609555756, -0.0006007577931649082, 0.012663458033072431, 0.0005111463930382349, -1.2421976037256846, 0.8195565056974875, 0.6634681650788326, -0.8076504470626864, 0.8353145521547446, 0.5327639097202308, -1.2214809033310075, 0.2283803888590789, -0.7002222842625577, -0.0001499778931431374, -0.7097342926883762, 0.000718835358495024, 0.3396378276028323, -1.2364424289530185, -0.5441015141953447, -1.81417156823539e-05, -0.000153654438243663, -0.9479290628930748, -0.7980594874151947, -0.0007024028161881037, -0.878161779967831, -0.5552330254809386, 0.2609577249398765, -0.005536317036662088, -0.0006591232789597303, -0.005130256324659257, -0.21986012398807647, 0.31198411038827284, -0.003259567527475022, 0.38111760851902915, -0.7332467509947647, -0.5732986318285388, -1.0980893975070023, -0.0005196993779465355, 0.17779401464785155, -0.0022547189624176115, -0.7301744337751543, -0.0533722917171672, -0.6827299876726715, 0.1108235654466197, 0.32050072292491544, -0.0014507732517944117, -1.09877725915315, 0.512312987956975, -0.15318154953788277, -0.488151423343703, -1.287022073018814, -0.6106937252974463]], [[1.7745399977446903, -1.4017977158300685, -1.0057056930197699, -0.28636759475831836, -0.0027977037540891235, 0.11343477690952379, 0.8264293122660868, 1.7897223894759702, -0.003125908154199916, -0.0001706230610670107, -1.6081601239593906, -0.7959937560866204, 1.564077055617516, -0.002586770936776171, 0.6691977107009696, 0.016313991840399673, 0.6199048140586091, 1.237457194205436, 0.2822374694892317, 0.27698737641870774, -2.498827489588868e-05, -0.5450307139417101, 0.6016569536191875, 0.5004187079727307, -1.5724720766191311, -3.5055142697412015e-05, 1.3448802473030983, -0.8537823374951455, 0.16835998526789814, 0.20943027015533455, 0.0014328360514994406, -0.004078022533137748, -0.00027018046939164515, 0.018518350418271934, -0.0014298288539074248, -0.0030090442345457624, -0.0010223273943384605, -1.1059075695050644, -0.9692973701918984, -0.8612154036491753, -0.20536705273170588, 0.15965955088577374, -0.0005438904630792718, -0.0034943659005412884, 0.7059899461106393, 0.19871645339236152, -4.55900247261441, 0.3946061480242091, -0.4723657397359409, -0.0030635191081778714, -0.025048216912020926, -0.0006287481097830977, 1.319611625881208, -1.5843590220456847, -1.244838008253668, 0.8580942414604098, -1.611575664471962, -1.0053243012559616, -1.263436881853783, -0.4311571204222301, 0.7432370289115384, -0.001461772253471999, 0.7527849087407066, -0.00029516629051620893, 0.49419598686493244, -1.2757539520534342, 0.5792029504047715, -0.0011692461632431329, -0.0009119689656200215, 1.0105149156737425, 0.8466644539241189, -0.0026873193620233523, 0.930225642605956, 0.5887398728370531, -0.4945504485490889, -0.0026085556634592266, -0.0002065382836724784, -0.0009498169546099801, 0.23675934145075953, 0.4221666310907386, -0.0012483977622009214, -0.7244299537405781, -0.7560461164600549, 0.6109193899354879, -1.1351355486924566, -0.001512064300673799, -0.34289540379569466, -0.0018700786620442088, 0.7749998947228071, 0.05690879637014226, 0.7251470016066138, -0.21187252420199132, 0.48483585113582484, -0.001352043490030965, 1.1654476526239732, 0.7636209039889346, -0.15830804432227563, 0.5174188263278192, -1.3093699319052938, -0.632635453265186], [-1.5977167143790025, 0.7192114602536646, -0.97309748443728, 0.1457439777112534, -0.001351961790594983, 0.08391215536492952, -0.7488864216753647, -1.6150028805271743, -0.0029643654125166316, -0.0018779431300705828, 0.8038528693390065, -0.7683620788585647, -1.4172991550073888, -0.0017198102526230549, -0.6009496653074604, 0.012141504312047503, -0.5558320314179119, 0.9261358506031524, 0.2053137947779606, -0.25001491002508647, -0.0011610454054508368, -0.48555956994972815, -0.543024651234933, -0.45164285701092277, -1.5194942890698495, -0.0009939850398303833, -1.2140612259717876, 0.43858560827754384, 0.12455419486776928, -0.18623127443147697, -0.0010344596855104203, -0.00028894516861305877, -0.0018077976985575856, -0.016065876407189518, -0.0006567866687477797, -0.004443796452310515, -0.0017143058961786107, -1.0735619944038808, 0.483807234234873, 0.4415876893958925, 0.10401574047569734, -0.14431033103602617, -0.002492197178320847, -0.0036540073136109024, -0.6377792066318444, -0.17929492528141638, -4.399253851018875, 0.2919681664051276, 0.24292153975808226, -0.0005435609335729708, 0.012239235738197999, 0.0004624812424464921, -1.1898380908689752, 0.7914763225490735, 0.640023433609694, -0.7736150114041851, 0.8065852327222995, 0.5140588436530256, -1.2209872268954296, 0.22036603871198562, -0.6706933840208161, -0.0001356988199565698, -0.679785575416249, 0.0006503965874339654, 0.3690538497961972, -1.2358118021423263, -0.5211971445993316, -1.6414481884563424e-05, -0.0001390253290920347, -0.9080706308314664, -0.7643884368574414, -0.0006355285521975503, -0.8410721122374847, -0.5318014597674349, 0.25181184417750996, -0.005009216178703699, -0.0005963695667826025, -0.004641815635232134, -0.21067549612709363, 0.3403947302200991, -0.002949231101846249, 0.36782663110992425, -0.7328472460819141, -0.549186685499345, -1.0976110364544531, -0.00047021991602590494, 0.17167569249591363, -0.002040052011143827, -0.6993765876420092, -0.05112786237969249, -0.6539529394375801, 0.10698158918603627, 0.36302185210188453, -0.0013126482454662038, -1.0524137668778277, 0.5715198524756137, -0.1531153854692678, -0.46754727247155503, -1.1644530148912335, -0.6104970003687136]], [[1.8597930868638037, -1.266753923609281, -1.0339563911484655, -0.25882111042556477, -0.002531340386650382, 0.08095506640430196, 0.8649512768982495, 1.8778794924871798, -0.002828297150518793, -0.0001543784057699342, -1.453833781812623, -0.8182349139142133, 1.6369852017224074, -0.0023404900299770527, 0.7012949492872261, 0.011645613676979397, 0.6500974806068338, 0.9083542486477792, 0.20262044053176162, 0.2899574368820328, -2.2609194895718724e-05, -0.5173916947813929, 0.6297342119156275, 0.5238499445235781, -1.6165086376185283, -3.17176178285689e-05, 1.411143226631825, -0.7715169140221813, 0.12472592017703031, 0.2197113445989246, 0.0012964188074981074, -0.003689762763735791, -0.000244457167009056, 0.019508666206763975, -0.0012936979187320328, -0.0027225595937347877, -0.0009249937981766595, -1.1371936767367772, -0.8762810571970372, -0.7782527308031105, -0.18562551734812757, 0.16714856077322315, -0.000492107819884164, -0.003161674825951679, 0.7392142180836415, 0.20798900772458503, -4.6862918539714284, 0.289840015482891, -0.42684466850992125, -0.002771848031612133, -0.022652734276351345, -0.0005688863522443349, 1.383318514752545, -1.4323022948627002, -1.1248784205435223, 0.9003027331707423, -1.456925315720636, -0.9085034562644139, -1.2988262376973934, -0.38963564724766575, 0.7798663092628653, -0.0013226000558101748, 0.7898016724161534, -0.0002670641417517495, 0.35311853682847766, -1.3116825650395965, 0.6071020348205124, -0.0010579247465452204, -0.0008251423585044075, 1.0590099808117668, 0.8876390929168666, -0.0024314654555453535, 0.9761392565106866, 0.6163322858138832, -0.4469752256691759, -0.0023602006796068988, -0.00018687421714520203, -0.0008593869217265688, 0.24849272679937368, 0.3091642177700504, -0.0011295404917137212, -0.6547429148580004, -0.7773681246388182, 0.6402169232076118, -1.1669695840919998, -0.0013681039051806354, -0.30998683207883215, -0.001692032487902512, 0.8124473963873464, 0.05967648483052241, 0.7593279909349071, -0.19150792445069997, 0.3558752514169279, -0.0012233183323362307, 1.2229016478554406, 0.5586735864546591, -0.16275124715415765, 0.5417515102833212, -1.2322536900500514, -0.650300749754315], [-1.3779990719627473, 0.9576945429518621, -0.988296282236918, 0.1942725230663716, -0.001223244411328129, 0.06262894121108717, -0.6465302636379555, -1.3923761103846797, -0.002682134546420539, -0.0016991481968140023, 1.0743600734820862, -0.7804487370816137, -1.2235835490820202, -0.0015560708110989837, -0.518248271395254, 0.009075411143760087, -0.4791410713736603, 1.0974045665039518, 0.15617510820471764, -0.21577531162188948, -0.0010505047652943696, -0.4334662993187642, -0.4686860638379926, -0.389788643137432, -1.5433084709586393, -0.0008993498583870388, -1.046721341409874, 0.5839110297887096, 0.14466440533056305, -0.16043227793197593, -0.0009359709999555454, -0.000261435319507542, -0.0016356811612251393, -0.013792676033909143, -0.000594255420211964, -0.004020712133422316, -0.0015510905126131366, -1.0901498553763158, 0.6468059446960797, 0.5880652863450857, 0.13874717544441986, -0.12455230579862789, -0.002254920436003651, -0.003306117122851206, -0.5504076582169247, -0.15474861822117708, -4.468526429635816, 0.34490303248321924, 0.3233632096036925, -0.0004918096641746203, 0.016412107044764594, 0.0004184493963529773, -1.026195636785405, 1.0579988182821018, 0.8519921631050132, -0.6669594095327843, 1.0778130718537162, 0.6848660554060576, -1.2401170906668082, 0.2936066278241196, -0.5782348445503054, -0.00012277922666930144, -0.5861216636506864, 0.0005884737248198068, 0.28117706267466325, -1.2550471292108956, -0.44948235866202024, -1.4851694308093214e-05, -0.00012578902601237225, -0.7831247297466257, -0.6592741022441558, -0.0005750212432948878, -0.7251816034296583, -0.45898196658793877, 0.33563566061022193, -0.004532299461686047, -0.0005395905008025035, -0.004199878335107675, -0.18145968203694154, 0.4011849167983872, -0.002668441140973998, 0.49052506496391113, -0.7442299706926497, -0.47363844284824924, -1.114775574606142, -0.0004254512874367065, 0.22938516192013758, -0.0018458230393864651, -0.603206632622536, -0.044079925458684076, -0.5642928102893299, 0.14278346072106207, 0.43013620885338955, -0.0011876738244204089, -0.9073600117597465, 0.6798309479163415, -0.15550997165607827, -0.40350828149125145, -1.0394806740240041, -0.6201087861948708]], [[1.8718240793234457, -1.1071986405172825, -0.9796680962840636, -0.22627490758523602, -0.002290336903513045, 0.07324750835168121, 0.872400024604251, 1.8890889246803348, -0.0025590210514934843, -0.00013968036922457023, -1.2716356325139402, -0.774862981869702, 1.6509799217213341, -0.0021176569995211667, 0.7057826469988046, 0.010536859803250965, 0.6554414040552259, 0.8937531677619636, 0.18332938343785826, 0.2924554745164013, -2.0456621994209666e-05, -0.47898473228856364, 0.6352206275737247, 0.5283628206798908, -1.5317619593602187, -2.869785153644288e-05, 1.419704976807106, -0.6743166836114669, 0.12281278004593515, 0.22145841695617619, 0.001172989556394807, -0.003338468373340721, -0.00022118292501545822, 0.019641050410178867, -0.001170527717606093, -0.0024633505404603254, -0.0008369271247191245, -1.0787442497060358, -0.7664863393539815, -0.6802383459976251, -0.1623049997638089, 0.16859492412323465, -0.0004452552909644391, -0.002860658554248182, 0.7454408408808308, 0.20973861852067788, -4.43808727022439, 0.28520954598620185, -0.3730567467404306, -0.0025079463319952495, -0.01982602298070976, -0.0005147239041108378, 1.392412743120815, -1.2528115776290343, -0.9831357456201348, 0.9058715119695163, -1.274298530874126, -0.7941425996488904, -1.230747795046589, -0.34059324843167005, 0.7846774159016037, -0.0011966781442691995, 0.7946360147382641, -0.00024163753823264528, 0.3194988791226895, -1.243608105882686, 0.6121789850217302, -0.0009572020029113773, -0.000746582326225673, 1.0678726415068813, 0.8934678716857831, -0.0021999708501556936, 0.9822768906804404, 0.6216542444147336, -0.39076412923419934, -0.002135491040520761, -0.0001690823241710009, -0.0007775665381104231, 0.25046336647396383, 0.30418732871503085, -0.0010219993667495324, -0.5724392056178751, -0.7370111545522005, 0.6443337000998055, -1.1058153780451627, -0.0012378496698430364, -0.27112787914183817, -0.0015309377077154644, 0.8178147122859623, 0.06017380523011414, 0.765787749400853, -0.1674601493279131, 0.35016399627298117, -0.0011068488205180599, 1.2302522550971446, 0.5491471346887541, -0.15421115371778565, 0.5463977477140809, -1.1533082507635664, -0.6158523718254116], [-1.185342400553203, 1.188987501938863, -0.8882741457244976, 0.2411954296941353, -0.0011067819373704218, 0.05666617418983782, -0.5557847244448787, -1.1980597075487083, -0.0024267742751036938, -0.0015373759452597282, 1.3341887246511508, -0.7014549795743221, -1.051876642865624, -0.001407920650235221, -0.44574740614103187, 0.00821136073470237, -0.4116665739989555, 1.3058394914277025, 0.14130601147826222, -0.1854458770659074, -0.0009504884621438764, -0.3897606103121224, -0.4027902385824504, -0.334998071635629, -1.387106899535142, -0.0008137246893764183, -0.9006165876314559, 0.7249202606514102, 0.17539701320065193, -0.1377904102078574, -0.0008468592106859431, -0.00023654462406858765, -0.001479951469858339, -0.011832775671136142, -0.0005376776375875419, -0.003637908764125317, -0.0014034145152749442, -0.9798326841493792, 0.8032881383992247, 0.7300976090563448, 0.17226956047494457, -0.1070506822378954, -0.002040234302862327, -0.002991348810193939, -0.47310278439769393, -0.13300962578892772, -4.016234803159135, 0.4131507565052065, 0.40144703137765186, -0.00044498552201982706, 0.020386083626422854, 0.0003786097277846456, -0.8827316552902588, 1.3139464530890657, 1.0577301360934055, -0.5737907178459478, 1.3384309665297955, 0.8503281176908586, -1.114602624660606, 0.3645435549870317, -0.49748648557416386, -0.00011108968011907798, -0.5043076173403368, 0.000532446404999715, 0.2544067982565343, -1.1280336875993333, -0.3862488231290175, -1.3437696381296105e-05, -0.00011381292292907656, -0.6729092756034843, -0.5671438941377638, -0.0005202747053567758, -0.6239379200442223, -0.3944783702866687, 0.4166997714363921, -0.004100788961301224, -0.0004882172477832584, -0.0038000169364384253, -0.15585246050492302, 0.46639787460545185, -0.0024143845893884177, 0.6090691213918085, -0.6689140995269488, -0.4073952987136182, -1.0019493906014907, -0.00038494498385214935, 0.28484748700623863, -0.0016700861909984318, -0.5188911763856435, -0.037874609418142725, -0.48496751639826624, 0.17730147137121083, 0.5118178959754911, -0.001074597949668091, -0.7807422578146034, 0.802725875830281, -0.13977110430936798, -0.34681411080977076, -0.9346280553372507, -0.5573432525962141]], [[1.8662018026077503, -1.071426687287385, -0.9193054006274308, -0.21889469152445404, -0.002072278844543332, 0.066273770352247, 0.8683544615423898, 1.8802082705554033, -0.0023153821516899696, -0.00012638170118033467, -1.2292430662550013, -0.7273329925525194, 1.6433326020362935, -0.0019160394234471318, 0.7037037634096516, 0.00953366800521957, 0.6521883683875095, 1.1067620501992237, 0.1658749864697722, 0.29107161468280374, -1.850899093683448e-05, -0.44882174809155945, 0.6322181001431805, 0.5258626100501632, -1.4371042407333166, -2.5965590709208615e-05, 1.4130262804182854, -0.6525630353022869, 0.14605245269181366, 0.22031961395699115, 0.0010613117392724155, -0.0030206199675861635, -0.00020012457362962704, 0.019526210638724468, -0.0010590842868689267, -0.002228820224596814, -0.0007572450901523198, -1.0120276015421785, -0.740885689397511, -0.6582411007041988, -0.15697993818373038, 0.16780140101675256, -0.0004028634907254542, -0.0025883013954574098, 0.7419249388932179, 0.20874790601935345, -4.1652691399241055, 0.33964256740957033, -0.3610389866573287, -0.0022691701465719317, -0.01914811180890169, -0.00046571814637119555, 1.3880944551792218, -1.2110095431532264, -0.9514545718654434, 0.901577597042827, -1.2319059003585229, -0.7683660968674602, -1.1547783421364577, -0.3295317690299552, 0.780969366507108, -0.001082744987557377, 0.7909122518180107, -0.00021863174704078606, 0.2890800768418414, -1.1665410205139857, 0.6091990588248831, -0.0008660688554357275, -0.0006755018259428739, 1.0626504332787459, 0.8907183385166122, -0.0019905163490999407, 0.9776672448806745, 0.6187207484531992, -0.37802604480674684, -0.00193217552369487, -0.00015298435912565616, -0.0007035360975407038, 0.2491733428809784, 0.3806029632694379, -0.0009246970013901609, -0.5537041557967936, -0.6916114612992978, 0.6424497493422934, -1.0375584174725179, -0.001119996660581276, -0.26210881428230076, -0.0013851804156612144, 0.8153327122058229, 0.059877546323444754, 0.7621353329576462, -0.16194314791550649, 0.43365280842311765, -0.0010014681208468114, 1.2244810957705838, 0.6571711915053831, -0.14472891897694032, 0.5438169958823726, -1.080876838263174, -0.5780066003637819], [-1.059851486823523, 1.350697392664429, -0.7970303803761049, 0.273860783272774, -0.0010014076055000537, 0.051271109413942806, -0.4974568906097889, -1.0722827269699788, -0.0021957263069313855, -0.0013910056824325177, 1.5138183060721278, -0.629392752389205, -0.9414856924029272, -0.0012738755480920549, -0.3985220296767242, 0.007429574709876556, -0.368420990596349, 1.5241555045829445, 0.12785256952549126, -0.16597738713775853, -0.0008599944964699652, -0.3498966492386086, -0.3605042362406119, -0.2998289324577629, -1.2446127728908483, -0.0007362517088603255, -0.8060690113466406, 0.8235601553735509, 0.19660060041471747, -0.12330549016565016, -0.0007662315635395549, -0.00021402371829922246, -0.0013390484680372164, -0.010586005350254678, -0.0004864865041678587, -0.003291551281696726, -0.0012697984325661619, -0.879199884216223, 0.911465465602521, 0.8293899021129618, 0.19556074778325733, -0.09581339805014183, -0.001845987975501848, -0.0027065489127414116, -0.42343877428478177, -0.11904602089550913, -3.6036297833430195, 0.4602572316534277, 0.45609130184560503, -0.00040261940590283397, 0.02310465416818078, 0.00034256310852040614, -0.789332862682568, 1.4909455163391032, 1.2016978663586744, -0.5135474361343477, 1.5185834162789726, 0.9659216151845083, -1.0001027429699234, 0.4140926315214307, -0.44525823430856787, -0.00010051307019711568, -0.4513660257509448, 0.0004817533260026675, 0.2301852732348539, -1.01216859657181, -0.3456865486086086, -1.2158322161095011e-05, -0.00010297703890628627, -0.6022363892169307, -0.5071424142451174, -0.0004707404677487096, -0.5584434706904824, -0.35306746366631575, 0.47314296787935406, -0.003710361649155932, -0.00044173513187976, -0.0034382254829885806, -0.13946910239752988, 0.5424206469979084, -0.002184516216590997, 0.6916055717550958, -0.6002092206135287, -0.36423704980316923, -0.8990246833624033, -0.0003482951984602385, 0.32319944244135196, -0.0015110808706184271, -0.4639782679933351, -0.03389650955951149, -0.4340506007572593, 0.2012775634141207, 0.5973715414133892, -0.0009722877861641819, -0.698781078010789, 0.8871670500064425, -0.1254135065310858, -0.31040787445049267, -0.8389862480774628, -0.5000851359849456]], [[1.8600617478853494, -0.9951840433101642, -0.8616072853197154, -0.2033108716887533, -0.0018749816251726755, 0.059963986974330426, 0.8656534289058708, 1.8742604949582826, -0.0020949395884163275, -0.00011434917076683825, -1.1415611633563516, -0.6818187715098221, 1.63822834964718, -0.0017336174238952434, 0.7013549942874544, 0.008625987944311892, 0.6499817472033841, 1.2883594150211406, 0.15008238516044256, 0.29014322669182796, -1.6746789650646637e-05, -0.42022549557127464, 0.6302043724979202, 0.5241852832132681, -1.3471853433454537, -2.3493462568860633e-05, 1.4085523982337445, -0.6061317304603083, 0.16753054890469682, 0.21954111246204158, 0.0009602665273332735, -0.002733033226086827, -0.00018107114266456567, 0.019445684276763173, -0.0009582511458905268, -0.0020166190365434092, -0.0006851494110102312, -0.9485981736190436, -0.6880221528541314, -0.6113953134479096, -0.1457986000635018, 0.16726972543729837, -0.00036450772276720717, -0.0023418747769733206, 0.7395679854068075, 0.2080835258779935, -3.9045917656593603, 0.3908703728442248, -0.3353534695979495, -0.0020531273290831514, -0.017779760242247783, -0.00042137812160501065, 1.3835388503174777, -1.1246092132651277, -0.8837627548141657, 0.8986958871599546, -1.1440662153126286, -0.7136595113177672, -1.0825189736608136, -0.3060683451976338, 0.7784826313192523, -0.0009796591620686457, 0.7884202029709304, -0.00019781628783225412, 0.26155738341352547, -1.0933237288961821, 0.6071865316999335, -0.0007836122992580042, -0.000611188747474084, 1.0591197302965594, 0.8878125471380852, -0.0018010035613670776, 0.9745810399773309, 0.6167540402690572, -0.3511143763658805, -0.0017482172406844366, -0.00013841904676811724, -0.0006365539362658535, 0.24829117358762076, 0.43526700247355127, -0.0008366585853174117, -0.5142608513869577, -0.6483332820879358, 0.6403167833900275, -0.9722357331402789, -0.0010133641832875168, -0.2434182546428798, -0.0012533003624259705, 0.8126607561348999, 0.05967694382364254, 0.7596802903704297, -0.15040126951993746, 0.5048297393324621, -0.0009061204913269177, 1.2206178425033234, 0.7609100039124143, -0.13567251579636005, 0.542086291875196, -1.0119754528845821, -0.541832828180052], [-0.9730548261537925, 1.4948238283478223, -0.715324272111608, 0.3029938349049124, -0.000906065737516391, 0.04638969717154322, -0.45667303624362604, -0.9844278007208411, -0.001986675919722501, -0.0012585710180554879, 1.6741540168150415, -0.5648639997921527, -0.8642980120419909, -0.0011525925923138627, -0.36589726596376765, 0.006722220853890922, -0.3382703672898675, 1.7660443257374059, 0.11568000089497395, -0.15237808301555208, -0.0007781162669670322, -0.31416758748104384, -0.33096672285748563, -0.27526297795240745, -1.1170145985217883, -0.0006661547644758715, -0.7400224279040546, 0.9114686069441489, 0.22911648668712586, -0.11322720731283538, -0.0006932803015612482, -0.00019364697961321312, -0.001211560538484716, -0.009724436536788093, -0.00044016916864787926, -0.002978169751501262, -0.0011489036502031619, -0.7890846299527497, 1.0080162935906514, 0.9178859263830912, 0.2163382998333327, -0.08796154424673866, -0.0016702354239004065, -0.002448864202027577, -0.38874028953466183, -0.10929198112353769, -3.234159760129374, 0.5363668188543463, 0.5047881839511148, -0.000364286876736471, 0.02553468670464134, 0.0003099484104801248, -0.7246778787923509, 1.648914779045936, 1.329997373014951, -0.4714769978190752, 1.6793959069378526, 1.0689502869647702, -0.8975722249604041, 0.45825664868830107, -0.40877745135764687, -9.094343659663924e-05, -0.41438113404444255, 0.0004358866262131241, 0.20826982760411925, -0.9084141260758528, -0.31737969106695363, -1.1000754413437348e-05, -9.317281613543068e-05, -0.5529301771387706, -0.465594825232823, -0.00042592227854766667, -0.5126775945227461, -0.3241361565552014, 0.5234814702427486, -0.003357106083108157, -0.00039967847842904523, -0.0031108794170143085, -0.1280693551977433, 0.607486225739541, -0.001976533118014086, 0.7652054595701068, -0.5386854242364928, -0.3344145340636559, -0.8068590875089084, -0.0003151347604442345, 0.35743272134643145, -0.0013672141053892987, -0.42596913174837614, -0.031121710085087524, -0.39849201602493284, 0.22266414106173982, 0.6921632653294947, -0.0008797183536559246, -0.641522851484158, 1.036041255071737, -0.11255673174656335, -0.2849709335368004, -0.7532704526457261, -0.44881294415501793]], [[1.8599794346951253, -0.916281283673086, -0.8073187427163753, -0.18719655387863549, -0.0016964686504387367, 0.05425494452400292, 0.8657508231160906, 1.8743830556223486, -0.0018954848882767215, -0.00010346223173879972, -1.0510666812595089, -0.6384123999133235, 1.6384189498421773, -0.0015685634312399147, 0.7012946097628386, 0.007804726153110926, 0.6498997830133671, 1.4462668750073784, 0.13579336351326346, 0.29015573600254974, -1.5152363765270205e-05, -0.4036767260702421, 0.6302338789545575, 0.5242077974134345, -1.2614349165230645, -2.1256700440814966e-05, 1.4086413599740817, -0.5580742825260989, 0.19396120676521475, 0.21948441316560266, 0.0008688416130672976, -0.0024728270007642076, -0.00016383174795180514, 0.019430606911399147, -0.000867018111764462, -0.001824621067984491, -0.0006199178066816396, -0.8882193670564817, -0.6334717941955459, -0.5629187188639981, -0.13424252144250914, 0.16728004329961654, -0.0003298037251220701, -0.0021189099077291284, 0.7396081924926234, 0.20809370999645455, -3.6561310409316907, 0.453418715115399, -0.3087651595720217, -0.0018576534843789778, -0.01637072043345666, -0.00038125961539373906, 1.3834882065820933, -1.0354440674990757, -0.8136936072869934, 0.8987289772721822, -1.053392858002524, -0.6570663139805902, -1.0136052127071788, -0.2817969636062135, 0.7785196837296698, -0.0008863879166877071, 0.7884804047425333, -0.00017898262380180877, 0.23665506653216728, -1.024432806617258, 0.6071524882374368, -0.0007090062547503603, -0.0005529987791188152, 1.0590425715114606, 0.8877954066346025, -0.0016295338792487546, 0.9746510941330134, 0.6167865574084616, -0.3232852484268263, -0.0015817732308200752, -0.0001252404665267576, -0.0005759490027476649, 0.24822562540555068, 0.502854081318719, -0.0007570021178104594, -0.4734866081911603, -0.6071582550736742, 0.6402716244911205, -0.9109826439214492, -0.0009168839552048422, -0.22412455521170435, -0.0011339763258977821, 0.8126346279834479, 0.059671163749552295, 0.7596921074376567, -0.1384767789060207, 0.5667215031171239, -0.0008198507048914109, 1.2207067276364223, 0.8837620432811543, -0.12703880825605451, 0.5421131727534232, -0.9837410396733606, -0.5073543363732291], [-0.9116087899619757, 1.6187162057524875, -0.6426129672347733, 0.3280254269320861, -0.0008198011640736218, 0.04197303370779533, -0.4277365002455753, -0.9221731034059056, -0.0017975287710248254, -0.0011387451737215127, 1.8117759762398922, -0.5074404353051093, -0.8095321489940509, -0.0010428567263470157, -0.34281874288102193, 0.006082212639764518, -0.31695632721335176, 1.9688978013689427, 0.10466635638787934, -0.1427411384259554, -0.0007040334878932052, -0.3101227241337161, -0.3100357628077593, -0.2578552840374856, -1.0034650329961483, -0.0006027315996601507, -0.6932168323925494, 0.9870408045750417, 0.2746736051866496, -0.1061209092797785, -0.000627274572601241, -0.0001752102664663237, -0.0010962104609738277, -0.009122232610315834, -0.0003982616071941712, -0.0026946246039299274, -0.001039519000494097, -0.708887410375435, 1.0908823891564001, 0.9939555540434246, 0.23418582421035766, -0.0823954240094988, -0.0015112158953762248, -0.0022157130993424325, -0.3641457844898207, -0.10237984614298132, -2.905372729794921, 0.6442456937339835, 0.5466539274753148, -0.00032960390536773866, 0.027617650446799414, 0.00028043888781279316, -0.6788890539645699, 1.784500756359747, 1.4402977514904802, -0.44167412086277025, 1.8174349648141817, 1.157498745902022, -0.8063302456825485, 0.49621266255152285, -0.3829276506360639, -8.228490726417266e-05, -0.38816861523841106, 0.0003943867964295235, 0.18844090449693301, -0.8160805944032025, -0.2973449485517308, -9.95339620560459e-06, -8.430203236380716e-05, -0.5180448130706748, -0.43616058741423663, -0.0003853711329107065, -0.48023190816747413, -0.3036303652761251, 0.5667342507073194, -0.0030374832210239237, -0.00036162594865295607, -0.002814699267132221, -0.12003082449728285, 0.7234744927712184, -0.001788351643689319, 0.8284357171383407, -0.483933616059443, -0.3133119003127076, -0.7248404515784154, -0.00028513145653250304, 0.3868189675963169, -0.0012370445859793324, -0.3990449861992708, -0.029159011948255202, -0.37330156248531915, 0.24103166498024228, 0.7716571553634596, -0.0007959622580596811, -0.6009417323964682, 1.2390590045199492, -0.10111537017686738, -0.2669401120325607, -0.7745860785098383, -0.403186400275522]], [[1.8600001828401491, -0.8128825659130385, -0.7549730373318214, -0.16612096208407134, -0.001534951512741561, 0.04908944774740778, 0.8658775800489681, 1.8745768664762827, -0.0017150198418854842, -9.36118148001247e-05, -0.9332305951553692, -0.5971438448717641, 1.6386639560212894, -0.0014192238748356107, 0.7012767909412798, 0.007061654933707751, 0.6498605474656679, 1.551139372245338, 0.12286476893695804, 0.2901805675355799, -1.37097397450268e-05, -0.4280112785386685, 0.6302896473743289, 0.5242525356914646, -1.1798954608274395, -1.9232895632397902e-05, 1.4087849480972687, -0.49507817310553537, 0.20120741904055267, 0.21944569850289847, 0.0007861210685888985, -0.0022373944514622016, -0.00014823367899470579, 0.01941844680939489, -0.0007844711789298411, -0.0016509028137705968, -0.0005608967633415018, -0.8308616318407814, -0.5624645925150924, -0.49940258284658406, -0.11914643233841601, 0.16729709448878136, -0.0002984038205792976, -0.0019171730449547494, 0.7396789163294516, 0.20811253737559604, -3.4197813237762853, 0.47055386072011235, -0.273902194637824, -0.0016807902847245175, -0.014545840959130134, -0.000344960706019848, 1.3835141253636036, -0.9193555464770654, -0.7218235722689758, 0.8988002408676043, -0.9352808744362281, -0.5829673911779074, -0.9480819968493012, -0.25002142856765847, 0.7785889261079625, -0.0008019968263155177, 0.7885694380327979, -0.00016194207248568384, 0.21412364577297738, -0.9580073344203838, 0.6071529338565833, -0.0006415032915526277, -0.0005003489527101724, 1.059027744326868, 0.8878255633634732, -0.0014743894574000122, 0.9747586876580195, 0.6168445809608596, -0.2868840108699372, -0.001431175997760684, -0.00011331659061426757, -0.0005211141348240589, 0.24818070496587402, 0.5354756389107943, -0.0006849295715433503, -0.4201907946533031, -0.567827418090911, 0.6402641194581525, -0.8519207275104279, -0.0008295894024838993, -0.19899131332485848, -0.00102601287468517, 0.8126534074756167, 0.059669101398015886, 0.7597393954295866, -0.12291128603120638, 0.6078280153056708, -0.000741794479591388, 1.2208410902206577, 0.9450689921059561, -0.11882626698215398, 0.5421630329790159, -1.0477182102027396, -0.4745564680152385], [-0.8726395734522286, 1.728117052494725, -0.578471874721064, 0.3501366304096311, -0.0007417496554484904, 0.037976871289352204, -0.40930407293169596, -0.8826149121378417, -0.001626389916234218, -0.0010303276907468607, 1.9333774661772516, -0.45678720292554087, -0.7746458914708793, -0.00094356857656349, -0.3282042148529528, 0.005503138233534681, -0.3034770237125444, 2.1716205232197234, 0.09470129732675803, -0.13661725330585456, -0.0006370039711508468, -0.3920317627297902, -0.2967353824148467, -0.24679414556650428, -0.9033015374187706, -0.0005453468181897886, -0.6634700074278369, 1.0537714562999176, 0.28738657277535923, -0.10164955230101652, -0.0005675531073737115, -0.00015852887319243018, -0.000991842616673018, -0.00874997564928813, -0.0003603439746861708, -0.0024380751810551865, -0.0009405486284225507, -0.6381389591311748, 1.1640971549020631, 1.0611267683969887, 0.2499525957592508, -0.07885586657205963, -0.0013673362747298203, -0.002004759812542011, -0.34850961419326215, -0.09798735620160212, -2.6153519846489783, 0.6740538300743301, 0.583620970816132, -0.00029822302523474015, 0.02945932251238626, 0.00025373890343831785, -0.649828082177416, 1.9042932602836367, 1.537692051785851, -0.4227475309392886, 1.9394140621462024, 1.235687751682378, -0.72584441923138, 0.5297283382972079, -0.3665032376421201, -7.445073791860314e-05, -0.37150660925753265, 0.00035683807633476566, 0.17049985058382938, -0.7346284510826, -0.2846445420568884, -9.005754723942421e-06, -7.627581686849846e-05, -0.49594539817104283, -0.4174668286142353, -0.00034868077478192056, -0.45959597215280673, -0.29059473483243625, 0.6049404639601957, -0.0027482909653721017, -0.00032719631853374005, -0.002546717793387945, -0.11497235569044911, 0.79197246345951, -0.0016180865234879896, 0.8842812520054558, -0.4356337179295092, -0.2999406231175991, -0.6524900354369896, -0.0002579847027657028, 0.41278540176812023, -0.0011192682270236291, -0.381949578591413, -0.027916351522912677, -0.3573037060059543, 0.25725612725518726, 0.8511002005625519, -0.0007201804004912949, -0.5751461963399753, 1.3624236660081988, -0.09102262188706005, -0.25547574542882995, -0.9790982962672404, -0.36293951007471925]], [[1.8625220895107046, -0.7213700035057126, -0.7048981819921832, -0.14746449439972664, -0.0013888120749288733, 0.04441574682800333, 0.8671570853642164, 1.8772677913706173, -0.001551736485082181, -8.469923490821577e-05, -0.828881428681345, -0.5571376315970564, 1.6410895703375472, -0.0012841026169475513, 0.7022041339578983, 0.006389329929645556, 0.6506989688734656, 1.6646294387117735, 0.1111670780911, 0.29059306117442996, -1.2404464860272953e-05, -0.47784510606741637, 0.631186983650203, 0.5249975917455196, -1.1016858221280024, -1.740177293445119e-05, 1.4108062972234983, -0.43932519992490404, 0.21402084807726196, 0.2197053094935851, 0.000711276169539873, -0.002024376929678787, -0.0001341206686921841, 0.019433469182203827, -0.0007097833623327535, -0.0014937239015475618, -0.0005074949868128879, -0.7752281112026471, -0.49958364083564477, -0.4431873735066133, -0.10578180911568362, 0.1675374470803086, -0.0002699934335288765, -0.001734643115733135, 0.7407374408353873, 0.20840926876785848, -3.1906719385659037, 0.5007204866207121, -0.2430483714402447, -0.0015207658505637573, -0.012929051012503148, -0.00031211773786955934, 1.3854013448119527, -0.8165542452395084, -0.6405179642047312, 0.9000717098269735, -0.8306894995961499, -0.5173828190838275, -0.8851781367150552, -0.22189681549187154, 0.7796974778827557, -0.0007256404304603977, 0.7897082211320388, -0.00014652391547236577, 0.19373739320674743, -0.8933370760675455, 0.6079702472504491, -0.0005804271405444134, -0.0004527118032287327, 1.0604390102235706, 0.889049167257642, -0.0013340160028427737, 0.9761659885679523, 0.6177263190451334, -0.25466132502373096, -0.001294916803911494, -0.00010252796132548836, -0.00047149997693876324, 0.24847339601023538, 0.5577868220390184, -0.0006197188976583806, -0.3730115356580431, -0.5294964148925198, 0.6411188875576034, -0.7948467657877262, -0.0007506059766961857, -0.17673535191798406, -0.000928328391852704, 0.8137657222223199, 0.059747520033431326, 0.7608039485000432, -0.10913059249835702, 0.6523110071865655, -0.0006711698199065882, 1.222601350941725, 0.9847728969154823, -0.11080519389115859, 0.5429374958321214, -1.1679393575742232, -0.4427633339078303], [-0.8515880886002487, 1.8469969683378578, -0.5214394337600661, 0.3741711734499937, -0.0006711292633740938, 0.03436117491455395, -0.39924839633093057, -0.8611512549031489, -0.0014715448243536437, -0.0009322324035415617, 2.065599825828321, -0.41174908379216735, -0.7556130283590131, -0.000853733438337906, -0.3203359383727469, 0.004979196258183383, -0.29624159823969737, 2.3164204548668335, 0.08568499014273118, -0.13329425694711006, -0.0005763561907775338, -0.5082160515000178, -0.2895186276075124, -0.24079294237625037, -0.814240505499158, -0.0004934255185515681, -0.647323500683149, 1.1262815610508496, 0.29768478279268906, -0.09927708848740859, -0.0005135175946217177, -0.0001434356795552958, -0.000897411410738459, -0.008560604137536532, -0.0003260363985557884, -0.002205951277891565, -0.0008510010129752935, -0.5752290181766875, 1.2437049248961478, 1.1341183197029208, 0.2670929344179702, -0.0769321610210817, -0.001237155123839254, -0.0018138909352371623, -0.34001611468865367, -0.09560373103833787, -2.3574822756822975, 0.6981834019731795, 0.6237886564030627, -0.0002698298513208863, 0.03146311908616942, 0.0002295809672482338, -0.6341032253529363, 2.0345430797277184, 1.6435192943556125, -0.41249167283367316, 2.072056564321765, 1.3206542471712517, -0.6542798541961841, 0.5661495465328517, -0.35759328408070407, -6.736244301557291e-05, -0.3624588856056161, 0.0003228642892588581, 0.15426692589230973, -0.6622024842555416, -0.27779053963097383, -8.148336153055297e-06, -6.901376011730079e-05, -0.4840373794753679, -0.40733638436788583, -0.0003154836268722053, -0.44837638597567725, -0.28351514322904814, 0.6464695549040431, -0.0024866320834522337, -0.0002960446595738436, -0.002304250260372166, -0.1122877292473796, 0.7792339120426587, -0.0014640319798024564, 0.9449814789748237, -0.39268589643737334, -0.29273200563864143, -0.5881587173323166, -0.0002334225331378724, 0.4410212105883748, -0.0010127051023248643, -0.37269044624238423, -0.027247590633609025, -0.34863465187320053, 0.274893680749787, 0.9078434672899736, -0.0006516135708697298, -0.5611387568584472, 1.3467481302896778, -0.08204847729215846, -0.24924707808379878, -1.2551947379045663, -0.3271542762573812]], [[1.855605484980344, -0.9512115910729798, -0.6810145615404536, -0.19397528894526675, -0.0012565862592123418, 0.040187018938168055, 0.8640282824370359, 1.8704286100739251, -0.001403998986092186, -7.663520261149297e-05, 