[[[-0.019100124551016208, 0.01631544883219941], [-0.005284170846528626, -0.007278902369653205], [0.015922392084649812, 0.002251051469528997], [-0.008666413336794283, -0.006634220960228353], [-0.008572744082082348, 0.011290701402561321], [0.004053880171072566, 0.004489107045374152], [0.0029559261754185584, 0.008242205452315557], [-0.01018420678298704, 0.006347644530846755], [-0.0031910437538483593, -0.005545009407477681], [0.004126097120295962, -0.007702262768617355], [-0.008589399403148783, -0.0034877844036793407], [0.00710651895843597, -0.0024155329021318906], [-0.007548398203415633, 0.011495142623384975], [-0.009427590030552416, 0.004916113409777609], [-0.017330533890008493, 0.00021343719253956407], [-0.01933501396200545, -0.019388847711040574], [-0.0072894306424385255, -0.0033546490930110927], [-0.0001819752130163464, -0.010462277771825103], [0.0004889184379371184, -0.009684736216878497], [-0.00435130582770293, -0.0070476407382175504], [-0.02050207622017502, -0.016465309115807316], [-0.001013977614633627, -0.008585866438200487], [-0.0017282883041753955, 0.014355870299037449], [-0.012547039024373189, -0.007165524267051519], [0.011899110690205578, -0.017952918548564956], [0.009550024367510054, 0.0010970040043037925], [-0.0036334304669529806, 0.00972311648415284], [-0.0075719435995563, -0.021128070592354737], [-0.007815321819533736, -0.0033967263023293444], [0.0022454857803278798, 0.0009847513538688473], [0.014729338394088123, -0.012915107239093318], [0.005805760101961919, 0.01154362695413034], [-0.0011483606242226, 0.006224324075182875], [0.0032179739754579022, -0.0031401279367875025], [-0.006184023904615261, -0.011934111968588653], [0.0022361551537687673, -0.004342912576293082], [-0.005347477050357105, -0.005375571094361163], [0.021350891977689114, 0.016374047334829802], [-0.0005516808757136531, 0.0014169400664395138], [0.002917022752894958, 0.009921507120553853], [0.0020409752111750466, -0.00158302508528401], [-0.00801159838153088, -0.006030796551799431], [-0.008790539868382637, 0.005925026044946606], [-0.004472174268730598, 0.0013316688044433672], [-0.01602260519066403, -0.0006688328321107173], [0.007351920183646792, -0.0007016251631049907], [0.016396007356417667, -0.013918962297389821], [0.003727788689300628, 0.010304167174765521], [-0.008046610489088873, -0.004427096258448285], [-0.002255711605064359, 0.003452366272110579], [0.015061213113616682, 0.011511146054726848], [-0.008197337038613703, -0.0009043109560667344], [0.004693030863389655, 0.022349382283563743], [-0.0049248242917691405, -0.0023263458121087466], [0.001930058816300361, -0.002608091968696243], [-0.0129678188781086, 0.009268203027200326], [0.0005091406402706461, 0.006367196126997444], [0.0023038185316765904, 0.005122134233916977], [0.004326949619867058, -0.009469243622833995], [-0.001458185849295393, -0.0027773338148278735], [0.0016479264430831239, 0.01317263519183189], [0.014941004556992508, 0.00186964173061118], [-0.014132977008019909, 0.008413487754031284], [-0.01047166061437784, 0.0029603026921137757], [0.016424000786206525, 0.007080264155794373], [0.0005382850847457348, -0.009478770175250242], [-0.002660786237456867, 0.020181777055050153], [-0.005425566883147218, -0.026176069094299047], [-0.003380548910962671, -0.010614133086651637], [-0.010804860055684632, 0.011414124426970101], [-0.017314137364518062, 0.0032890040665318806], [-0.01530236700116033, -0.003245820761947915], [-0.015593401546416372, -0.0015086086138003869], [0.0014868637841412731, 0.005347186955345341], [0.005403034647459076, 0.009382395967470189], [0.007418695850954896, 0.009300706838240946], [-0.004814119758869654, 0.009494169837170002], [-0.0015103508503424127, 0.002986480988492799], [-0.0031119021802689085, -0.005392673098669578], [0.012272452825513112, 0.010806326179447942], [-0.00849818683107964, 0.00013679289210750183], [0.008416885686153522, 0.0031931893687966494], [0.007368696559952385, -0.0033607203805943457], [-0.013397249187544036, 0.0016955119091756638], [0.015669180589366265, 0.0022135078596935767], [0.007596045109178086, -0.030284602358421744], [-0.009722428033836284, -0.005494552242536365], [-0.004325261601156386, -0.007534861124256718], [-0.0056986413020860185, 0.0017997084723617692], [-0.008959393311464668, -0.010505110219102621], [-0.015020449414897398, 0.005993100307112315], [0.0064827001352990845, -0.0016399137062824529], [-0.0012016201450510127, -0.011865629388792555], [-0.01171706675261878, 0.002084737158015624], [0.0056896007384869655, 0.012806253464672221], [-0.005037133837778819, -0.005696633253798285], [-0.00016768339558229545, -0.0013321507362947529], [0.004807989529813946, 0.011186966311578311], [0.011779321480211092, -0.017872097385216456], [0.012590626327315523, -0.0018907707237813779]], [[-0.7382456729540885, 0.7357261202314449], [-0.05357668233804093, 0.04220971234842508], [0.0637985326587401, -0.04735534364490484], [-0.013305235812191656, -0.0005386579456131051], [-0.007756551524683628, 0.010215737964443219], [0.009522622758104964, -0.0017929950117711755], [-0.3360566435604324, 0.3461886251195522], [-0.7416034597705157, 0.7381321683728664], [-0.002887231329578248, -0.005017080967557448], [0.0037332602726722727, -0.006968946868051282], [-0.0374163184933386, 0.02648897742567166], [0.03396007685020979, -0.029715709504245954], [-0.6438760993681703, 0.6474470827260232], [-0.008530009425851316, 0.0044480608074871815], [-0.28521173229757574, 0.26972431762432], [-0.016036728401581043, -0.01900031754610853], [-0.26217757758912164, 0.2525468978312346], [0.03884493346778373, -0.04847576998035995], [0.01015647118363345, -0.018476774896308234], [-0.11968146162931381, 0.10936778429110022], [-0.018550117563541076, -0.014897682387782229], [0.019463908637760288, -0.028149772150280816], [-0.24323747539643473, 0.2546628124224204], [-0.21630428732804005, 0.19846851486247694], [0.07710367980786934, -0.08258111761824823], [0.008640787052467661, 0.0009925606084463649], [-0.5533030235192161, 0.5588129236059666], [-0.04278629817470894, 0.016818750711815825], [0.009137442841318412, -0.019282015935041093], [-0.08581316184786197, 0.08873585504019826], [0.010513367182662738, -0.00887186508057441], [0.005253006148281231, 0.01044458301730728], [-0.0010390276748512054, 0.005631719544316265], [-0.007431651569656937, 0.007502086054129822], [-0.005595256266459342, -0.01079789079195475], [0.0020232556228578303, -0.003929433194631349], [-0.004838355242033893, -0.004863774512429428], [0.08614134426888681, -0.05200811542857843], [-0.018663113458346186, 0.019445993179332908], [-0.022720705624398967, 0.0343369066343802], [-0.0026325470286575926, 0.0030468967063335393], [-0.07228932228452857, 0.059583873622181954], [-0.007953611441802587, 0.0053609170369118865], [-0.00404638815887144, 0.00120488347681666], [-0.29939588133553724, 0.2842935992884956], [-0.07905450810225537, 0.085071642812831], [0.18382915893924154, -0.18158794802178635], [0.03073739989213741, -0.018041396417684173], [-0.02103258570335544, 0.009746473792784541], [-0.0020409501464154936, 0.003123673891965883], [0.013460720135321002, 0.010581741770481195], [-0.007629684851457707, -0.000605414779922393], [-0.53340112701036, 0.5578688900647283], [-0.03347253281938205, 0.02691173105200765], [-0.0396628112124486, 0.03904933214067803], [-0.3578916436129503, 0.35454426024371094], [-0.029092998850643623, 0.03531465435857704], [-0.02602508264691186, 0.03274402639405825], [0.06277186608075226, -0.06742457331278671], [-0.013816273736259953, 0.009984008805215532], [-0.3015704277574086, 0.3149799555404946], [0.01351850359315696, 0.0016916371557730804], [-0.31391578082977806, 0.3087408318672678], [-0.009291373103207691, 0.002495155440982817], [0.030372187591383215, -0.009105713248180745], [0.06924258332517301, -0.07733186402644873], [-0.23215286852235933, 0.24800572342376906], [-0.004909010309511808, -0.023683901758827623], [-0.003058694107572826, -0.009603584265222188], [-0.4187155900313275, 0.4192668476499827], [-0.3565128641488009, 0.34382303367855993], [-0.013845461494901826, -0.0029367931363491083], [-0.3923429452461443, 0.3768691807533214], [-0.24023873128593035, 0.24642212672799438], [-0.0034330255530937337, 0.016810767065176358], [0.006712377747769048, 0.008415206509847183], [-0.004355777753090208, 0.008590250312035258], [-0.0013665535887763286, 0.0027021445458926727], [-0.10251600147433801, 0.09482112854741705], [0.028871077115339278, -0.007989579106677783], [-0.007689092709466, 0.0001237691345598405], [-0.009640530520732755, 0.020145235257852424], [0.044535750408445644, -0.04090936503554368], [-0.2585687145995321, 0.24798107460247665], [0.06547548857110326, -0.049295372493112916], [0.00687284196390583, -0.027401270392361298], [-0.011272079999399942, -0.002496124257446214], [-0.003913462730938762, -0.006817483174819851], [-0.32226697319994707, 0.31873924939348863], [-0.0323794248869434, 0.014768094945019041], [-0.30418225586547815, 0.2960143812835003], [0.00037513964081361504, 0.004006575490309479], [0.011279183334207406, -0.023102328096804337], [-0.010601509984976604, 0.0018862538093686887], [-0.47339003574017996, 0.49012493937735824], [0.025755403708565407, -0.03546723188197193], [0.00785393530330945, -0.009210973447804912], [-0.20657295207670023, 0.22104506251542258], [0.05691648714291985, -0.062429182935892384], [0.03293323370960513, -0.023252088384276844]], [[-1.0507674316604383, 1.0484877601427511], [-0.3971241610615919, 0.3868394158785103], [0.2086495142160249, -0.19377184592280036], [-0.08604477547441218, 0.07351892911687394], [-0.0070180669082166155, 0.009243119487199606], [0.023699791569261993, -0.016706085084266964], [-0.48363888456290455, 0.49280622191229656], [-1.0600645345345667, 1.0569237373376297], [-0.002612344233903075, -0.0045394154608796285], [0.003377824577845457, -0.00630544839986548], [-0.45007331555431646, 0.4401863431674583], [0.15714666341889091, -0.15330639317479694], [-0.9224082295010253, 0.9256392272006844], [-0.007717885543316185, 0.004024570488498666], [-0.40272726248968327, 0.388714371314228], [-0.01251699502771071, -0.019184249003821024], [-0.37069210932649277, 0.3619783459101895], [0.18185095721725722, -0.19056486246397208], [0.0465936152923835, -0.05412176075321268], [-0.16831028492087743, 0.15897855065739733], [-0.016784000699528054, -0.013479306034659563], [0.11496137458998251, -0.12282027568701258], [-0.3502910472363635, 0.36062860245560335], [-0.3039277324275099, 0.2877900655629613], [0.3120362492989087, -0.31699219201604334], [0.007818116269954543, 0.0008980610440566761], [-0.7922280054693552, 0.7972133197992289], [-0.2505369536870393, 0.22704172066281117], [0.029440045457502055, -0.03861877552852336], [-0.12252334426792569, 0.12516777411677432], [0.009512412066596218, -0.00802719385515607], [0.004752878711704894, 0.009450176693936838], [-0.0009401040808391863, 0.0050955356184441535], [-0.010804579993527677, 0.010868308561964756], [-0.005062543930981179, -0.009769846793952082], [0.0018306257991654222, -0.0035553202971103787], [-0.004377705827938716, -0.004400704984177951], [0.2438516591057726, -0.2129681816954264], [-0.26782868379083963, 0.26853702721452305], [-0.23557871181371864, 0.246088959266844], [-0.056783419990897414, 0.05715832032541773], [-0.10015559598246775, 0.08865980580722016], [-0.007196365173736723, 0.004850515636325967], [-0.003661140230320778, 0.0010901691080107754], [-0.42401162338304904, 0.41034719718338947], [-0.11456813220485276, 0.12001238843910697], [0.8903437733229381, -0.8883159432847992], [0.07959654960696494, -0.06810930536355127], [-0.13720167919950832, 0.1269900937713773], [-0.0018466356651273134, 0.002826275607594846], [0.004598139327895469, 0.017155291401754858], [-0.006903278938551354, -0.0005477745386203554], [-0.7693941684009519, 0.7915324082699827], [-0.4410221524049092, 0.4350859904870194], [-0.348406679198011, 0.34785160815145444], [-0.5091426386845544, 0.5061139524986874], [-0.4433021454390436, 0.44893145048466854], [-0.2778033783156206, 0.28388262585493734], [0.2500444167336629, -0.25425414970002674], [-0.12215840299592175, 0.11869099978065353], [-0.43348318617208564, 0.4456160216067248], [0.012231435891816876, 0.0015305800143092536], [-0.4476470494216975, 0.4429647962387037], [-0.008406761419685858, 0.002257597048829297], [0.08741139233301697, -0.06816965335049223], [0.2549600892418483, -0.2622792068961612], [-0.33529025830874826, 0.34963379693287666], [-0.00444163397814652, -0.021429008324399788], [-0.002767482408954867, -0.008689247627317818], [-0.5976836467108089, 0.5981824202752044], [-0.5065800349602914, 0.49509837600261297], [-0.012527264833752405, -0.0026571873674661154], [-0.5567486938901463, 0.542748153290753], [-0.3450756775985115, 0.3506703652369896], [-0.13153422022294906, 0.14363829568919856], [0.006073306674642241, 0.007614012766449895], [-0.003941073505568616, 0.007772391024070586], [-0.001236446955734878, 0.002444879165489829], [-0.1434586678182705, 0.1364964072209544], [0.07723742636219398, -0.05834401094398653], [-0.006957030701954111, 0.00011198534100480368], [-0.1968950612910458, 0.20639963564493985], [0.15332982991508068, -0.15004870490727107], [-0.3662723932967102, 0.3566927797709072], [0.2325020493636946, -0.21786240739694057], [0.006218493437295558, -0.024792454271947886], [-0.10089776851742724, 0.08844040542597523], [-0.0035408703469755605, -0.006168405239656838], [-0.4595821403486303, 0.45639028355136046], [-0.04163684652889275, 0.02570225349721106], [-0.4319735433437737, 0.42458331456339027], [-0.05658783744669853, 0.060552378888228016], [0.06751298087262513, -0.07821046940801138], [-0.00959216298195441, 0.0017066676341801084], [-0.6817319295100555, 0.6968735389036791], [0.11439938990836852, -0.1231865757737845], [0.031523603650993694, -0.03275144110746696], [-0.2991714433025819, 0.3122656951796999], [0.28596244576097485, -0.2909502896238832], [0.128134622279555, -0.11937519801413139]], [[-1.270507674863167, 1.268445045975965], [-0.4865804098853434, 0.47727485320862517], [0.30003748215804443, -0.28657628471897245], [-0.10405815561045358, 0.09272486819020004], [-0.00634989182647298, 0.008363101926851899], [0.025710689674247438, -0.019382838967405686], [-0.5876513935800158, 0.5959459284236879], [-1.2824123746500142, 1.2795706060105483], [-0.00236362854839328, -0.0041072274614904454], [0.0030562291523622493, -0.005705120196228991], [-0.5540890680528684, 0.5451434130785094], [0.23227128005587094, -0.22879663369622016], [-1.1185726311767097, 1.1214960125227058], [-0.006983082231914902, 0.0036413997734991766], [-0.4846923525579401, 0.47201359866402914], [-0.010708903878083981, -0.017974132775381263], [-0.44674145194269144, 0.43885730723181343], [0.2053988583387129, -0.21328313137663354], [0.052816925289106496, -0.05962833218439444], [-0.20236011932343106, 0.19391683944288243], [-0.01518603203008397, -0.012195970248702398], [0.1719803188758676, -0.17909099087340358], [-0.42579211057056376, 0.43514544935328586], [-0.36542508355672965, 0.35082384930494914], [0.455819660034445, -0.46030375808645335], [0.00707377020627679, 0.0008125585802912191], [-0.960009913513713, 0.9645205867702762], [-0.30425283793688856, 0.28299453560196053], [0.0328706784368332, -0.041175521325569744], [-0.1481400415679577, 0.15053270092878918], [0.008606755737965942, -0.007262941963504633], [0.004300367334534509, 0.008550445661511042], [-0.0008505987898128471, 0.00461040061290647], [-0.013023907818135396, 0.013081568926404075], [-0.004580549993169939, -0.008839680657671895], [0.0016563358473886316, -0.0032168258852994496], [-0.003960913855492873, -0.003981723311448368], [0.3359411126967547, -0.30799798486030955], [-0.33078021988889045, 0.33142112345609853], [-0.29156252859492043, 0.30107211795473016], [-0.07027434417587121, 0.07061355105449552], [-0.11951203020398589, 0.1091107295285549], [-0.006511214696959567, 0.004388708457199991], [-0.003312570929876316, 0.0009863764479541063], [-0.511407537036658, 0.4990440715163914], [-0.13961548391532358, 0.1445414042029518], [1.3210451238879626, -1.3192103591937738], [0.08663077817806997, -0.07623720979465216], [-0.1673682119762883, 0.15812884967133461], [-0.0016708214483872946, 0.0025571919753308425], [0.0014410965083148446, 0.01824123678865482], [-0.006246032572936727, -0.0004956221009325322], [-0.9343091074835242, 0.9543396130679429], [-0.5452506439516196, 0.5398796512643179], [-0.42909683585452957, 0.42859461193051523], [-0.6154863812062318, 0.6127460497291874], [-0.5483042354689741, 0.5533975864679629], [-0.3428519998788806, 0.3483524553128148], [0.3662385302552937, -0.3700474635847049], [-0.1497646291548597, 0.14662734995480817], [-0.5264704976027081, 0.5374481918261929], [0.01106690714284068, 0.0013848567774762007], [-0.5410760413607284, 0.5368395754499578], [-0.00760637171519026, 0.002042656081127832], [0.09608616255092885, -0.07867638822272877], [0.36973863489825276, -0.37636091507567654], [-0.40772225403152523, 0.420700175140459], [-0.004018755543780396, -0.01938879845235123], [-0.0025039963508976925, -0.007861963017523592], [-0.7223958576953878, 0.722847144099641], [-0.611330289967281, 0.6009417751065359], [-0.011334570846392906, -0.0024042022634930904], [-0.6722153189917557, 0.6595477398020778], [-0.4187628008771887, 0.42382483031803775], [-0.16439680270900384, 0.17534847513893814], [0.005495080186229572, 0.006889098959107396], [-0.0035658523590363796, 0.007032398362876141], [-0.0011187274958715696, 0.002212107469577116], [-0.17196634177760925, 0.16566694306299845], [0.08415098901913008, -0.06705637511657893], [-0.006294666746357056, 0.00010132345713299722], [-0.2444215029631679, 0.25302116720022977], [0.2211231397490704, -0.21815440360830565], [-0.4412406447838399, 0.4325730856933091], [0.337092247054712, -0.3238464139666371], [0.005626444028943156, -0.022432017932934183], [-0.12285740347212686, 0.11158607917323698], [-0.00320375168389128, -0.005581124621056564], [-0.5559240684349805, 0.5530361014700993], [-0.047903565285760334, 0.03348607064324194], [-0.5219132299259255, 0.5152266089600609], [-0.07079406847851034, 0.0743811544417131], [0.0771108636635083, -0.08678986728416475], [-0.008678913739907168, 0.0015441794731392937], [-0.8274808897378332, 0.8411808990118471], [0.1293087156288234, -0.1372592923950804], [0.04565518408483804, -0.046766121773387154], [-0.3643599062491468, 0.3762074825198925], [0.419280853680248, -0.42379381563843616], [0.18859237780065555, -0.18066691951206326]], [[-1.3711694365831721, 1.369303186163622], [-0.5107810241218756, 0.5023614295162603], [0.3322921600493926, -0.3201125743157731], [-0.1084876333499514, 0.09823336389112336], [-0.005745332259614277, 0.007566868948927125], [0.0281979052066577, -0.02247251557899936], [-0.6355412901772889, 0.6430461201678046], [-1.384254553487, 1.3816833435380975], [-0.002138592549280017, -0.003716187153566331], [0.0027652521368373485, -0.005161947951887815], [-0.5823728627260482, 0.5742789043544603], [0.2589558633929459, -0.25581203065273667], [-1.208591412789339, 1.2112364652742145], [-0.006318237966085875, 0.0032947099195636937], [-0.5219665890150235, 0.5104949520566249], [-0.008987938628134283, -0.01696424769129576], [-0.48138246096878323, 0.47424894874767254], [0.2470432915729398, -0.2541769199033506], [0.060127987232287836, -0.06629089470194052], [-0.2177834159107917, 0.21014400257898808], [-0.013740202526637237, -0.011034818107458357], [0.1925043865958087, -0.1989380667798807], [-0.460582831192459, 0.46904565867236003], [-0.3932759423729952, 0.3800648602838164], [0.5129143974808246, -0.5169715741851695], [0.006400291733126162, 0.0007351966225173592], [-1.037003523232813, 1.0410847449735463], [-0.3182140405568143, 0.2989796955432023], [0.03706707393845314, -0.04458123056719505], [-0.15993005429976223, 0.1620949137001607], [0.007787325003837445, -0.006571452853521612], [0.003890938593991135, 0.007736376088857669], [-0.0007696151053670884, 0.004171454269606006], [-0.014036209005646423, 0.014088380323601787], [-0.004144445663281913, -0.007998073642054479], [0.0014986396677001642, -0.0029105587996510487], [-0.003583803751843835, -0.003602631984178077], [0.3688763023070507, -0.3435935796748405], [-0.34813657973897366, 0.34871646425364083], [-0.30692893683402167, 0.3155331386090534], [-0.07387152939761223, 0.07417844111763845], [-0.1281406085235949, 0.11872959335269642], [-0.005891295925980382, 0.003970868948046073], [-0.002997188164109247, 0.0008924656642067897], [-0.5511827589638377, 0.5399963924499898], [-0.1512167032766872, 0.15567363727024133], [1.4746661320102392, -1.4730060513231362], [0.09570427179142357, -0.08630025273761784], [-0.17490221973896908, 0.16654251728110867], [-0.0015117461257299772, 0.002313727217941541], [-5.58493038064093e-05, 0.01786426990777923], [-0.005651361222609588, -0.00044843498485975315], [-1.0103611549966662, 1.028484599152165], [-0.5722111749518386, 0.5673515429461627], [-0.4500933727986561, 0.44963896453611535], [-0.664178737617056, 0.6616993072161388], [-0.5772968948748074, 0.5819053188611855], [-0.3605803420755878, 0.36555711095776017], [0.4077714356385757, -0.4112177286039065], [-0.1571115474458278, 0.154272961862318], [-0.5693560219312752, 0.5792885534580999], [0.010013250675678865, 0.0012530075371376646], [-0.5837923419957344, 0.579959220908154], [-0.006882185395931982, 0.0018481791814585278], [0.11031020021434002, -0.09455797311916274], [0.4118853349705484, -0.417877122071068], [-0.4412131306796357, 0.4529554517848602], [-0.003636138457182189, -0.017542832581657824], [-0.0022655962346936178, -0.007113442399153745], [-0.7796248100481429, 0.7800331304428102], [-0.6590879296858263, 0.6496884830196495], [-0.010255430692720285, -0.0021753033280815523], [-0.7248249689380803, 0.7133634427643185], [-0.4526572035523093, 0.4572372880388479], [-0.17348897366725233, 0.18339796087961868], [0.004971905400260651, 0.006233202638889596], [-0.0032263552122230076, 0.006362858814105634], [-0.00101221585302478, 0.0020014974670449527], [-0.1848807036600289, 0.17918105717151092], [0.09619969152378569, -0.08073261910681662], [-0.005695365040801665, 9.167666833234843e-05], [-0.257425314617859, 0.265206223287367], [0.24697892108936012, -0.24429283194234344], [-0.47543406856354364, 0.46759172916378716], [0.37783060285081727, -0.36584587709074856], [0.005090762373562583, -0.020296313669632752], [-0.1284592375313487, 0.11826103181814122], [-0.0028987293648871522, -0.005049757729194956], [-0.5999999814349357, 0.5973869716039875], [-0.050435281776684104, 0.03739044584307952], [-0.5629885402727222, 0.556938538132081], [-0.0746825643703849, 0.07792813158091261], [0.09377771741480058, -0.10253520388265581], [-0.00785261299734528, 0.001397161461030618], [-0.8945990657182044, 0.9069947265247168], [0.15085415755190307, -0.15804777697503686], [0.05139477187641738, -0.05239993957294927], [-0.3945247018307524, 0.40524429580285376], [0.4675405317953465, -0.4716238243353383], [0.2084676128609252, -0.2012967204391298]], [[-1.413607800815468, 1.4119192320913108], [-0.525447579338353, 0.5178295962573112], [0.358950807416062, -0.34793081388918484], [-0.11105352780952688, 0.1017755453287913], [-0.005198331511058056, 0.0068464436032278295], [0.030160019825371046, -0.024979732251099503], [-0.6560357506884262, 0.6628260619292683], [-1.4272210444047004, 1.4248946338343522], [-0.0019349817444644446, -0.003362376953751663], [0.002501978418199837, -0.004670489970677789], [-0.6007585109079073, 0.5934351609342294], [0.2804010590581932, -0.27755654388301315], [-1.2468229144226148, 1.2492161371396342], [-0.0057166920953101875, 0.0029810276622388686], [-0.5373966363710676, 0.5270171893365698], [-0.007485319549884947, -0.015996014832367178], [-0.49579319012723766, 0.48933884428823704], [0.27526148661035715, -0.28171593750414065], [0.06604490796228264, -0.07162105824421276], [-0.2241156419124446, 0.21720356072127286], [-0.01243202734585332, -0.009984216768456485], [0.20930132089841413, -0.2151224642060036], [-0.47551171889275795, 0.4831688187389505], [-0.4047175111947331, 0.3927642278655696], [0.5517040289667527, -0.5553749305882968], [0.005790933699369342, 0.0006652001306382283], [-1.0696642780847434, 1.0733569354663888], [-0.32648681012148834, 0.3090837257982963], [0.040280205040899984, -0.047078954950768075], [-0.16493199904357173, 0.16689074682865748], [0.00704591051049435, -0.005945798936994328], [0.0035204906847448357, 0.006999812332316694], [-0.0006963417036362316, 0.0037742990651834663], [-0.014458948264206087, 0.01450615246299667], [-0.003749861890276942, -0.007236594223368037], [0.0013559574026882062, -0.002633450745636971], [-0.00324259749146495, -0.003259633128225004], [0.3996579394794348, -0.3767823305841571], [-0.35951405195102754, 0.3600387269061314], [-0.3164586772922196, 0.32424369149045057], [-0.07622537174013391, 0.07650306305427076], [-0.13155180564481228, 0.12303679302181532], [-0.005330398290150042, 0.003592811041409761], [-0.0027118323143081992, 0.0008074959245429238], [-0.5677321411964374, 0.5576108046199726], [-0.15624331668740646, 0.16027591556497844], [1.598248385782838, -1.596746357813574], [0.10260261572840457, -0.0940939331372135], [-0.17948925929797868, 0.17192546616189927], [-0.001367816022990058, 0.0020934422173567576], [-0.0012216676589022898, 0.017334586773874873], [-0.005113307254720084, -0.00040574045279215975], [-1.0429422618695232, 1.0593402118200723], [-0.5902193807965669, 0.585822423919969], [-0.46322186658139824, 0.46281072155386777], [-0.684685580271018, 0.6824422111149534], [-0.5962985596177675, 0.6004682254512133], [-0.3715244179658718, 0.37602735936846093], [0.442140115131226, -0.4452582939429106], [-0.16157428031397994, 0.15900595036911006], [-0.5877342133793261, 0.5967210899057565], [0.009059910578435283, 0.0011337113798764484], [-0.6017435231836854, 0.598275345324707], [-0.006226947301219911, 0.0016722180098427185], [0.12073985176472002, -0.10648736038945186], [0.4456083707457524, -0.4510296926614797], [-0.4556427065920539, 0.4662670665169485], [-0.003289949521876602, -0.0158726171580145], [-0.002049893681681174, -0.006436186821700008], [-0.8037701215860303, 0.8041395666726315], [-0.6790247382304664, 0.6705201926996947], [-0.009279033156042211, -0.001968197368838506], [-0.7467903744477936, 0.7364200755718353], [-0.4671146406211867, 0.471258665097724], [-0.179254981718623, 0.18822055553422237], [0.004498540962348081, 0.005639752799035757], [-0.0029191808598187626, 0.005757064688196028], [-0.0009158449550008252, 0.0018109391906502524], [-0.1901529254561886, 0.18499593007205337], [0.10524621496589379, -0.09125172930418114], [-0.005153121563863295, 8.294832958065691e-05], [-0.265548239914444, 0.27258834497602374], [0.26712638811402434, -0.2646960357473564], [-0.4896581422949598, 0.4825624551910596], [0.40511339529387325, -0.39426970954085144], [0.004606081818421368, -0.01836394522364034], [-0.1319668817330359, 0.12273962528907574], [-0.0026227475659578066, -0.004568981138202352], [-0.6185649376916065, 0.616200706916234], [-0.051170012598909846, 0.0393671474857977], [-0.5802140453500961, 0.5747400509232234], [-0.07726697320036366, 0.08020353692537888], [0.10512372323269455, -0.11304742821726452], [-0.007104982574321054, 0.001264140718190421], [-0.9232782913531716, 0.934493787909189], [0.16785856818471945, -0.17436729854809546], [0.05529621614204341, -0.056205683980397894], [-0.40756551450193595, 0.4172645189481404], [0.5071821644789694, -0.5108766955035224], [0.22507692437866905, -0.21858875722763138]], [[-1.4397225861087497, 1.4381947823872705], [-0.531042554761133, 0.5241498634925613], [0.38220837057389817, -0.372237566969536], [-0.11185520581645807, 0.10346056012682986], [-0.004703409529299076, 0.00619460840785743], [0.02969237985284936, -0.025005296335857723], [-0.6688048982342569, 0.6749487185214286], [-1.453677191103839, 1.4515722730888256], [-0.0017507562871998154, -0.0030422522633906223], [0.0022637704250351933, -0.0042258226486425994], [-0.6074810823953769, 0.6008549728486277], [0.2994805349143223, -0.2969068399214738], [-1.2704875594919955, 1.2726529286126471], [-0.00517241811530367, 0.0026972104191224674], [-0.5467348807631232, 0.5373436385949262], [-0.006439063200203654, -0.014806663752609195], [-0.5045583793834851, 0.4987185379536017], [0.2757387629873044, -0.2815786994699309], [0.06578394017800623, -0.07082919716422247], [-0.22791835131342922, 0.22166435453144465], [-0.011248400715230972, -0.009033640927180437], [0.22403880954139824, -0.2293057342933288], [-0.4848373533129994, 0.4917654371234996], [-0.41159324275915005, 0.4007780058706977], [0.5882192205110026, -0.5915406234710031], [0.005239591335645525, 0.0006018678544604829], [-1.0898688412174253, 1.0932099286183201], [-0.3292762644221013, 0.3135300903909192], [0.039932070621764626, -0.0460835261504033], [-0.16802720939604, 0.16979946901016188], [0.006375084499161236, -0.005379712186509507], [0.0031853123255440926, 0.006333375229549841], [-0.0006300445051578443, 0.0034149561550366136], [-0.014717081656460714, 0.014759791644837233], [-0.0033928455910835465, -0.006547613625151829], [0.0012268596097729902, -0.0023827255544630727], [-0.002933876746528102, -0.0029492904568896765], [0.4255927859301293, -0.4048951146412371], [-0.36381751390425815, 0.3642922356834234], [-0.3205017943709345, 0.3275456140826623], [-0.07712631471360369, 0.07737756763395635], [-0.13352782154464082, 0.1258235049907791], [-0.004822902513916096, 0.0032507472163309805], [-0.002453644582275254, 0.0007306159713527618], [-0.5777927611072071, 0.5686350552545265], [-0.1594072211675398, 0.16305588496442644], [1.70835695273799, -1.706997929626654], [0.10114076428117108, -0.0934421750903782], [-0.18115582429821245, 0.1743121636662953], [-0.0012375891962977087, 0.0018941300787007048], [-0.002104485021577946, 0.016683327703883512], [-0.004626480249850289, -0.0003671107754527067], [-1.0632724625331955, 1.0781091988772171], [-0.5969879171546919, 0.5930095851015479], [-0.468549907320707, 0.46817790652847263], [-0.6972903245992771, 0.6952605418037927], [-0.6035714021394298, 0.6073440830416195], [-0.37604877891002686, 0.38012300493000256], [0.47219247690588145, -0.4750137806079903], [-0.1633028805958764, 0.16097907583056092], [-0.5992029250689052, 0.6073341803770994], [0.008197335944920652, 0.0010257731536056586], [-0.6127604636074909, 0.6096224835158935], [-0.0056340930186346795, 0.0015130097235678073], [0.12007935080214428, -0.10718380852899585], [0.47640217503743865, -0.4813073445337642], [-0.4646911579606643, 0.47430399538881857], [-0.0029767204917944537, -0.014361419358713844], [-0.0018547277056031335, -0.0058234112936309135], [-0.818636132902283, 0.8189704039154294], [-0.6911884197431528, 0.6834935737321398], [-0.008395596332394737, -0.001780809523294944], [-0.7601912960185688, 0.7508083310323798], [-0.476099494686367, 0.47984897549018485], [-0.18184530867980978, 0.1899572894625321], [0.004070244536201891, 0.005102804044230112], [-0.002641251917968662, 0.005208946920305401], [-0.0008286493232584548, 0.0016385235586008052], [-0.1933054058317408, 0.18863939690547366], [0.10454834909871898, -0.09188624836910608], [-0.004662503924105825, 7.505099722077813e-05], [-0.269039775102311, 0.2754096068768834], [0.28503361607260375, -0.28283465233652294], [-0.49830593384691757, 0.49188581187693253], [0.4308370653073227, -0.42102578359222004], [0.004167546658270887, -0.016615553428376086], [-0.13303059643387083, 0.12468184726397122], [-0.0023730414015402175, -0.004133978254156143], [-0.6299796141023155, 0.6278404766627935], [-0.05144222264897495, 0.04076308298118872], [-0.590757892378305, 0.5858050652075258], [-0.0783291296014653, 0.08098610939935799], [0.10556942022130539, -0.11273872626739011], [-0.006428532438625435, 0.0011437845946653778], [-0.9411349676514742, 0.951282660861339], [0.1681235636475518, -0.17401261176801505], [0.05899843568100503, -0.05982131503920065], [-0.4157620469320503, 0.42453762998979694], [0.5420292428392051, -0.5453720254974884], [0.23985324780607792, -0.23398280511865788]], [[-1.4606551069006144, 1.459272762091088], [-0.535564243944298, 0.529327791012016], [0.4062981354008321, -0.3972766305991921], [-0.11250910917211934, 0.10491369967434185], [-0.004255608006769587, 0.0056048330418739575], [0.02846412318094147, -0.02422328682190132], [-0.679080115727506, 0.6846389960766166], [-1.4748835039495762, 1.4729789906592727], [-0.0015840705401683455, -0.0027526059574547418], [0.0020482417034401066, -0.003823491147587078], [-0.6130112335990503, 0.6070159817152364], [0.31879059723530256, -0.3164619382167072], [-1.2894805422256326, 1.2914397512016016], [-0.004679963292315452, 0.0024404148063352843], [-0.5541701945842602, 0.5456730724188324], [-0.00560203099594674, -0.0136209359106804], [-0.5115534137096955, 0.5062695710435483], [0.26740067416393465, -0.27268460283305773], [0.06353043882681263, -0.06809534772811163], [-0.23093390774711708, 0.22527534057070306], [-0.01017746463472922, -0.008173567370757868], [0.23909783498359516, -0.24386330713858057], [-0.4923533679147299, 0.4986218437410158], [-0.41704866714118266, 0.4072631257353366], [0.626474851319638, -0.6294800306352464], [0.0047407410945771045, 0.0005445653083160216], [-1.1060904169959125, 1.1091134066390622], [-0.33169275821280714, 0.3174457436023079], [0.03846459546957876, -0.04403038412521025], [-0.1705166723023464, 0.17212019888385072], [0.005768126392027418, -0.0048675213400857275], [0.002882045578256801, 0.005730388172421183], [-0.0005700593205989606, 0.0030898255118147534], [-0.014923697038526492, 0.01496234070061288], [-0.0030698200471817637, -0.005924229390372102], [0.0011100529405335916, -0.002155871370405345], [-0.002654548640858145, -0.0026684948449511824], [0.4517343623256844, -0.43300727187995386], [-0.3673698543010911, 0.36779937883894337], [-0.3238622579851738, 0.33023545074602995], [-0.07784676644955643, 0.07807409811883091], [-0.13507105835048003, 0.12810025323366808], [-0.00436372432088625, 0.002941250553588021], [-0.002220038349850747, 0.0006610555934358338], [-0.5858114699728011, 0.5775256496317186], [-0.16196372294355188, 0.165265005294433], [1.8194792482238191, -1.8182496147849345], [0.09704205729744252, -0.09007643425375865], [-0.18250365532786372, 0.17631156493059388], [-0.0011197609861629337, 0.001713794020820269], [-0.0028898437575229172, 0.016080666130479163], [-0.0041860029988412106, -0.0003321589467504332], [-1.0796566560857592, 1.093080818618628], [-0.6025965338146896, 0.5989969702143936], [-0.47294617019484675, 0.4726095867993133], [-0.7073873032547419, 0.7055507717210406], [-0.6095764354017761, 0.6129899274556424], [-0.3797858026186204, 0.3834721303270608], [0.5031673313056589, -0.5057200247399498], [-0.1647127306439556, 0.16261017034087266], [-0.6084444299441877, 0.6158015258932182], [0.007416885190217147, 0.0009281114941024644], [-0.6215798556812311, 0.6187406359365539], [-0.0050976831193688356, 0.0013689593163908357], [0.11592797505733142, -0.10426018967581374], [0.5077357601524601, -0.5121739189929971], [-0.4719987548072779, 0.48069637462375275], [-0.002693313325128077, -0.012994099457171091], [-0.0016781430630639425, -0.005268976807890534], [-0.8305568154570635, 0.8308592612447662], [-0.700902860096651, 0.6939406238526376], [-0.007596269631887421, -0.0016112624721825717], [-0.7708893258239334, 0.7623996927877871], [-0.4833253935618198, 0.48671789434886803], [-0.18406674431525646, 0.19140640082500096], [0.003682725293187951, 0.004616977027479481], [-0.0023897839939270677, 0.004713014268224465], [-0.0007497554003953394, 0.001482523248682817], [-0.19580597176547718, 0.19158420353062816], [0.10084306506308421, -0.08938649575696765], [-0.004218596936417802, 6.790555291841282e-05], [-0.2720262786380597, 0.2777896524061286], [0.3033117854235485, -0.301322180303355], [-0.5052046707360597, 0.4993957947941045], [0.45789292667728654, -0.4490157560283414], [0.003770763489133476, -0.015033622261942933], [-0.1338656868510705, 0.1263118041639232], [-0.0021471092248892985, -0.003740391060699315], [-0.6391223029950152, 0.6371868282381388], [-0.05160264274550406, 0.04194024103616057], [-0.5991853232008668, 0.5947040440707346], [-0.07919044705830362, 0.0815944615144767], [0.10253658485445784, -0.10902331666521002], [-0.005816485667934034, 0.0010348873192428706], [-0.9555117459906735, 0.9646932991182782], [0.1630218106725222, -0.1683501751658921], [0.06287841218286908, -0.06362294696418645], [-0.4223828370060828, 0.43032291564307606], [0.5777012351440297, -0.5807257586427526], [0.255060455585755, -0.24974892514209637]], [[-1.480362003017705, 1.479111268289441], [-0.5453200799281878, 0.5396773862892141], [0.43265071086593127, -0.4244881241662588], [-0.11413743347764328, 0.10726516660994129], [-0.0038504407057193477, 0.005071208922170995], [0.027170820082392882, -0.02333374464753907], [-0.6887248560386727, 0.6937544873252934], [-1.4948401927347605, 1.4931170040656212], [-0.0014332545852184897, -0.002490536254403464], [0.001853233008663416, -0.0034594647648955724], [-0.6240293086018404, 0.6186048517773965], [0.3398622855090101, -0.3377553331156798], [-1.3073237342281, 1.3090964111241106], [-0.00423439403566744, 0.0022080681524721877], [-0.5611876737860897, 0.553499544377744], [-0.004867987309706913, -0.012524802191636038], [-0.5181515832687474, 0.5133708039178331], [0.25776954102307137, -0.26255039818880327], [0.06103366836809391, -0.06516396209427867], [-0.2337799983878597, 0.22866017124272478], [-0.009208490079030478, -0.007395379570966567], [0.25543860812212277, -0.2597503699052426], [-0.4994103227382464, 0.5050819904402419], [-0.42219882692712307, 0.4133449459078571], [0.6683634202867682, -0.6710824829321993], [0.004289385313872615, 0.0004927184145548921], [-1.121341223551485, 1.1240764008414128], [-0.3367966135582929, 0.32390602661889883], [0.03688760797008529, -0.04192348983819527], [-0.17286204201661096, 0.17431290027524426], [0.005218955463065741, -0.004404095084417962], [0.0026076522068305408, 0.005184810218319965], [-0.0005157851966669157, 0.0027956498590415856], [-0.01511870376954763, 0.015153668251539121], [-0.002777549071742295, -0.005360196230108916], [0.0010043671834752761, -0.0019506154861300283], [-0.0024018147643798194, -0.002414433180325244], [0.48037386493135414, -0.4634297405577687], [-0.3742311842008322, 0.37461981462967314], [-0.3303851131157532, 0.33615152787781755], [-0.079286099120742, 0.07949178702989189], [-0.13653559706155813, 0.13022846733280674], [-0.0039482634977069855, 0.00266122040358029], [-0.0020086732652362317, 0.0005981179097463353], [-0.5933668664420771, 0.5858699212650708], [-0.16436056680691952, 0.16734754115340172], [1.9406927987570783, -1.9395802360777479], [0.09271389284883118, -0.08641145181915173], [-0.18561790038282985, 0.18001534561716187], [-0.0010131509469245247, 0.0015506273718086066], [-0.003695144936136244, 0.01563009743315887], [-0.003787462641145966, -0.00030053480661335275], [-1.095049361349208, 1.1071954381905253], [-0.6136328540899909, 0.6103759972114066], [-0.4819436741457981, 0.4816391361326708], [-0.7168928765192932, 0.7152311972096737], [-0.6210327224278558, 0.6241212232324288], [-0.38731661610605495, 0.3906519764683395], [0.5369146358989776, -0.5392242928723134], [-0.16776791545550193, 0.16586553540443955], [-0.6171251454201605, 0.6237817880604049], [0.006710739476152443, 0.0008397479915098813], [-0.629883432475777, 0.6273145287468628], [-0.004612343654879034, 0.001238623639188579], [0.1113154577803629, -0.10075853719295758], [0.541916202414901, -0.545931813681462], [-0.47886083612932023, 0.4867303742378468], [-0.0024368887462925958, -0.011756959147662916], [-0.0015183706651936005, -0.004767328839103611], [-0.8417816769141239, 0.8420553274877643], [-0.7100569025097677, 0.7037575258298348], [-0.0068730451102900865, -0.0014578576317698121], [-0.7809648309969167, 0.7732834776939338], [-0.49011370480317323, 0.4931832128743718], [-0.18785509647667062, 0.19449596004919953], [0.003332100925253491, 0.004177404557867827], [-0.002162257791003246, 0.00426429829912436], [-0.0006783727985337981, 0.001341375393321717], [-0.1981732713109338, 0.19435344856510825], [0.09675295595961268, -0.08638714201857449], [-0.0038169533799087794, 6.14404110259943e-05], [-0.27732386712503404, 0.28253852245126404], [0.32333861846730694, -0.3215384393786985], [-0.5117117960973112, 0.5064559707614722], [0.4876183945967958, -0.47958640030504185], [0.0034117571935910604, -0.013602303365279794], [-0.13591337172448034, 0.12907867798893102], [-0.0019426875656752406, -0.003384276458855055], [-0.6477256689661759, 0.6459744666052171], [-0.051772617924026355, 0.04303015273515428], [-0.6071183560999233, 0.6030637299339537], [-0.08077863637216519, 0.08295376977365841], [0.0989754338050985, -0.10484457780789981], [-0.005262710556146148, 0.0009363579195985072], [-0.9690203128998707, 0.9773277100680343], [0.15711474978414006, -0.16193581213470065], [0.06711946698927808, -0.06779311621266701], [-0.4285928556915794, 0.4357769764897963], [0.6164938554851614, -0.619230420595567], [0.2716512421733818, -0.26684541113880417]], [[-1.4737589495747614, 1.472627294614506], [-0.5915754526392818, 0.5864699877461699], [0.43683024788210056, -0.4294448035361022], [-0.1234735867077735, 0.11725561361300708], [-0.0034838485134618337, 0.004588390009153295], [0.02400962607749689, -0.020537870356158262], [-0.6859310902676812, 0.6904818611586928], [-1.4881527616306476, 1.4865936340548154], [-0.001296797493520406, -0.002253417645086244], [0.0016767906730105712, -0.003130096552494088], [-0.6783844056397639, 0.6734763997026499], [0.34339792084027987, -0.3414915668604523], [-1.301666331733991, 1.3032702358688728], [-0.0038312464712570273, 0.0019978427246487114], [-0.5583640463771142, 0.5514078872624488], [-0.004535537012262768, -0.011201322344954103], [-0.5156622822105372, 0.5113366705967456], [0.23835418771952907, -0.2426798697395557], [0.05382353648319428, -0.05756059381191916], [-0.23252383782743602, 0.22789145843193837], [-0.00833176951028128, -0.0066912813607356994], [0.2584220183614504, -0.26232326656304217], [-0.4974740728552511, 0.5026057532530549], [-0.41993512722550547, 0.41192420520779427], [0.675614538852212, -0.6780747253813091], [0.0038810021479368114, 0.0004458077522275833], [-1.1165400421831404, 1.1190148091160308], [-0.36458760062328316, 0.35292429878883314], [0.03206695194409301, -0.03662337831215127], [-0.17216782760660657, 0.17348055276559296], [0.004722069919118075, -0.0039847906475234595], [0.002359383239144006, 0.004691175569810815], [-0.0004666783955417254, 0.002529482038540371], [-0.015059840455456828, 0.015091476044190625], [-0.0025131045883354, -0.004849863455991056], [0.0009087435404271434, -0.0017649015738888398], [-0.0021731431376326247, -0.002184560181289056], [0.4845832533006236, -0.4692523426276856], [-0.4070570645287727, 0.4074086942889176], [-0.359220563653865, 0.3644379704475816], [-0.08623363071501723, 0.08641973551997241], [-0.13564628265735898, 0.12993964120795717], [-0.0035723578074609887, 0.0024078513228982224], [-0.0018174317965029957, 0.0005411723877865506], [-0.590419821896648, 0.5836366447731501], [-0.1637809763478431, 0.16648356728017025], [1.9614663022079764, -1.9604596642325467], [0.08144504643940761, -0.0757426472881065], [-0.20101079173264025, 0.19594164417688953], [-0.0009166910206181277, 0.0014029954691119964], [-0.005124972507811904, 0.015923623803293135], [-0.0034268664551954167, -0.00027192153295809915], [-1.0907599770568839, 1.101749652001147], [-0.6671023261963004, 0.6641555476682844], [-0.5231815947742552, 0.5229060511714798], [-0.7136424967255094, 0.712139022335144], [-0.6759585836782261, 0.6787530349525587], [-0.4209027481137515, 0.4239205559773414], [0.5427770808397108, -0.5448668403317118], [-0.1820162864065323, 0.18029502787550533], [-0.6146998316203273, 0.6207227096073622], [0.006071824379348694, 0.0007597973882726498], [-0.6269770895502702, 0.6246527656296578], [-0.004173212318724291, 0.0011206969419672306], [0.10252662815998577, -0.0929748093147983], [0.5478846786077196, -0.5515179721475648], [-0.4771073099838567, 0.48422760626586364], [-0.0022048778010353115, -0.010637604310742088], [-0.0013738098542749881, -0.004313441696329661], [-0.8380685407890529, 0.8383161376791359], [-0.7066263995284946, 0.7009267729767801], [-0.006218677242548746, -0.0013190581368351145], [-0.7771813565920027, 0.7702313284442573], [-0.4881011810648783, 0.49087844786320095], [-0.20485917292038303, 0.21086777413086086], [0.0030148587505596826, 0.0037796828392758263], [-0.0019563938693351705, 0.0038583036139980655], [-0.0006137863809289307, 0.001213665922209052], [-0.19713107786860048, 0.19367493224481117], [0.08895984539526955, -0.07958093834297625], [-0.003453549444040596, 5.559080141175819e-05], [-0.30194741798238905, 0.3066655971714668], [0.3266697850129571, -0.3250409971101857], [-0.5092085003429634, 0.5044530708524949], [0.49237310779254695, -0.48510582243170597], [0.003086931116619897, -0.01230725726756354], [-0.14724133732698733, 0.14105736010713502], [-0.0017577284537184058, -0.0030620667636338463], [-0.6448003771848289, 0.6432159030406267], [-0.05114656209835969, 0.0432364482490533], [-0.604279460455479, 0.6006108665410276], [-0.08802322851971564, 0.08999127214031144], [0.0915735597620473, -0.09688391516606144], [-0.0047616591837334535, 0.0008472092925404588], [-0.9651110347298356, 0.9726275024505444], [0.14457432115537247, -0.1489363805109053], [0.06786733285179491, -0.06847684537902644], [-0.4270377476666141, 0.4335378837487569], [0.6237254039657667, -0.6262014265877274], [0.27431444589094484, -0.2699661677105037]], [[-1.448468725750739, 1.4474448132294577], [-0.6068801070972115, 0.6022607225545589], [0.4359471077847833, -0.4292648157375783], [-0.12629477103799325, 0.12066879781088426], [-0.0031521587767140346, 0.004151539248176904], [0.03725601121472656, -0.03411479390136227], [-0.6743708061363757, 0.6784883079018765], [-1.4625980960581917, 1.4611874096712303], [-0.0011733321885340042, -0.0020388745894415004], [0.001517147033293476, -0.0028320867804043433], [-0.6957204063669302, 0.691279681137042], [0.3429019876972997, -0.3411771335867328], [-1.2794535008347436, 1.2809047007007082], [-0.0034664817208504657, 0.0018076324084304082], [-0.5485323066091301, 0.5422384284681072], [-0.0018463371470220746, -0.012392249619620637], [-0.5066777875528168, 0.5027640081331948], [0.3721534039827026, -0.37606724710533346], [0.0881393722336753, -0.09152063235801937], [-0.22836637123302242, 0.224175030733525], [-0.007538519624463937, -0.006054218829321992], [0.25830014718955346, -0.2618299659262954], [-0.4891618492665225, 0.49380495339195324], [-0.4124308898233151, 0.40518267049054957], [0.6748959513417196, -0.6771219087936806], [0.0035115002663846638, 0.0004033633533379311], [-1.097533223726058, 1.0997723734128741], [-0.3737486871840279, 0.3631958232748006], [0.05235001337337688, -0.05647263217009781], [-0.16927463013331343, 0.17046237354848282], [0.004272491780939903, -0.003605407285771378], [0.0021347514268092037, 0.004244538816296505], [-0.00042224694751377825, 0.0022886554847365054], [-0.014808629560601897, 0.014837253192857554], [-0.0022738372964013014, -0.00438811836955446], [0.000822224019118789, -0.0015968690844832475], [-0.0019662428454840465, -0.001976572896927639], [0.4834056612902034, -0.46953437370522755], [-0.4176723885757441, 0.4179905404214148], [-0.3689888108023247, 0.3737094794975772], [-0.08846632729899963, 0.08863471346506323], [-0.13309993744557141, 0.12793661307575901], [-0.0032322412908710493, 0.002178604968375669], [-0.0016443980173906716, 0.0004896485267040459], [-0.5800508027882163, 0.5739134373943937], [-0.16108835392968943, 0.16353363698211967], [1.9592685995047963, -1.9583578013696405], [0.1278972296832849, -0.12273774371147979], [-0.2060196319790582, 0.2014331070780543], [-0.0008294148367849336, 0.0012694192828886489], [-0.005910472201283775, 0.01568100709285447], [-0.003100601857868208, -0.0002460324676516098], [-1.0725045075406374, 1.082447879129539], [-0.6843034965309065, 0.681637274459475], [-0.5369989045818112, 0.5367495948938331], [-0.7013528387697109, 0.699992506947922], [-0.6943400721077199, 0.6968684696762285], [-0.4320658565956505, 0.4347963454521246], [0.5422182985555652, -0.5441090965332842], [-0.1866597688893164, 0.18510238768729081], [-0.6044040905688473, 0.6098535432745402], [0.005493739017088269, 0.000687458710306599], [-0.6161425990123215, 0.6140395689816027], [-0.0037758897342199307, 0.0010139977923862983], [0.1556396313110036, -0.1469972206292253], [0.5474260375216089, -0.5507134129846198], [-0.46921848653258347, 0.47566087469366597], [-0.001994956119722093, -0.009624820844462373], [-0.0012430123677754387, -0.0039027681738719113], [-0.8237191665030597, 0.8239431902248575], [-0.6942958321742282, 0.6891388548287568], [-0.005626610334492842, -0.0011934734437948522], [-0.7636099203631066, 0.7573215894728073], [-0.4798579946356301, 0.48237084382519213], [-0.21053182992087502, 0.21596836511125325], [0.0027278205221634494, 0.0034198273515572163], [-0.0017701298096358654, 0.0034909628111258937], [-0.0005553490974698403, 0.0010981153956342682], [-0.19362756558041455, 0.19050047216072827], [0.13986061924768142, -0.13137465779825705], [-0.0031247444166368475, 5.02981205691165e-05], [-0.3104018375910226, 0.31467080906997547], [0.3262170664653789, -0.3247433519616373], [-0.5002981192976433, 0.4959954440385141], [0.49142032580468054, -0.4848449430793569], [0.002793031032998636, -0.011135509728199617], [-0.15062774905176202, 0.14503253502530955], [-0.001590378901682738, -0.002770533961673794], [-0.6337066042846158, 0.6322729845216378], [-0.0499616724229762, 0.042804663529348405], [-0.5938045792904578, 0.590485264325712], [-0.09045609016381768, 0.0922367605769101], [0.1442035311765756, -0.14900829904451046], [-0.004308311836673906, 0.0007665483148523682], [-0.9488698660977486, 0.9556707070654795], [0.23401349512247352, -0.23796025217260355], [0.06781113720051621, -0.06836261934872274], [-0.4199846920600186, 0.4258659641423115], [0.6227759715817476, -0.6250162574061734], [0.2737825617142471, -0.2698482737631183]], [[-1.4161523944233918, 1.415225966414806], [-0.6211604729537336, 0.6169808900950425], [0.4471112392761005, -0.44106515390706896], [-0.12894630878203564, 0.12385597238627528], [-0.0028520485076264134, 0.0037562801101848164], [0.04991235717514812, -0.04707020841763844], [-0.6594865440839799, 0.6632120273471315], [-1.429937112719099, 1.4286607347541365], [-0.0010616217501413098, -0.0018447577174763574], [0.0013727027217407984, -0.002562449878854399], [-0.7113451445516172, 0.7073272112361246], [0.35185230786102006, -0.3502916734068625], [-1.2509815132797644, 1.2522945475223826], [-0.0031364454391387187, 0.0016355316080160737], [-0.5360910293424523, 0.5303963778255639], [0.00027596817153329714, -0.0131589296639888], [-0.4952618478845182, 0.4917206910001092], [0.5449386133602281, -0.5484798278826195], [0.11879852260473209, -0.12185786021258739], [-0.22312763261372745, 0.21933534064390242], [-0.006820793357077559, -0.0054778096536784926], [0.265330675235107, -0.2685244275088459], [-0.4784332406252975, 0.4826342847762181], [-0.40297478022137134, 0.3964166482885275], [0.692889754636595, -0.694903783458938], [0.003177177865612543, 0.0003649599945336123], [-1.0731598940732927, 1.0751858591261367], [-0.38181228656162247, 0.3722641381669941], [0.0675280165995124, -0.07125812971232882], [-0.1655581311263287, 0.16663279204115994], [0.003865717012002289, -0.0032621441993124947], [0.0019315063270167528, 0.0038404253891043947], [-0.0003820457222532012, 0.002070757510038308], [-0.01448559297897185, 0.01451149141665865], [-0.0020573501295981646, -0.0039703350413782855], [0.0007439418356669521, -0.0014448346076091], [-0.0017790410859124801, -0.0017883876353379218], [0.4953081866695609, -0.48275755459231917], [-0.4274451091659551, 0.42773297045750774], [-0.3781271503045824, 0.382398374269172], [-0.09055520425433032, 0.09070755873506721], [-0.12994360605741737, 0.12527187071461013], [-0.0029245065375568045, 0.0019711846670492166], [-0.0014878384128644319, 0.000443030141807618], [-0.5669022283932585, 0.56134918838096], [-0.15759332203544968, 0.15980579493875893], [2.0109004991708646, -2.0100764161705693], [0.16936694782622777, -0.1646986854357953], [-0.2107009615565887, 0.206551109843619], [-0.0007504480310226065, 0.0011485605985523662], [-0.0066226243122504405, 0.015462927555244095], [-0.0028054002123253327, -0.00022260824466618427], [-1.0489591874870627, 1.0579558720165343], [-0.700143623085577, 0.6977312462928844], [-0.5498948859665089, 0.5496693125186266], [-0.685668465549852, 0.6844376480000282], [-0.7102898086293903, 0.7125774828941586], [-0.4425320741790887, 0.4450025990542079], [0.5566884892207346, -0.5583992683827528], [-0.19101700097823918, 0.18960789469658398], [-0.5911288932967372, 0.5960595153109157], [0.0049706919209536495, 0.0006220072425503288], [-0.6023228021983358, 0.6004199971413976], [-0.0034163953798894654, 0.0009174572397417598], [0.22184808779858506, -0.21402850248158045], [0.562146025648087, -0.5651204171516336], [-0.45900081487075467, 0.4648298370875607], [-0.0018050206309609862, -0.008708462317445891], [-0.0011246678291284352, -0.003531193995724617], [-0.8053783616190385, 0.8055810565232883], [-0.678622132944866, 0.6739561403398395], [-0.005090912845517962, -0.001079845399734337], [-0.7463564540140956, 0.7406668216061006], [-0.4692575466970556, 0.4715311529106524], [-0.21583552926066796, 0.22075446360842957], [0.0024681105871891063, 0.0030942329321736435], [-0.0016015995511304156, 0.0031585957373727078], [-0.0005024755022973973, 0.00099356618659455], [-0.18921240059146535, 0.1863830310220422], [0.197922629480229, -0.19024459820008036], [-0.0028272442099104263, 4.5509344505515147e-05], [-0.317803069479091, 0.32166560134949973], [0.33478542671805217, -0.3334520214079789], [-0.4889959180518734, 0.48510289126583306], [0.5040315841000618, -0.4980822294459221], [0.0025271125453020546, -0.010075321756183331], [-0.15379138709779097, 0.14872888138523632], [-0.0014389623411778657, -0.0025067573718342818], [-0.6195341387682586, 0.6182370108647688], [-0.048587448711456975, 0.042111843267679576], [-0.5804640676910375, 0.5774607775771384], [-0.09270209645421867, 0.09431323306058244], [0.21208714119330127, -0.216434457428913], [-0.0038981267171395865, 0.0006935668956616699], [-0.9279568685721358, 0.9341102160735079], [0.33612483148255023, -0.3396958262680736], [0.06964348839036709, -0.07014246510733788], [-0.4108409755551461, 0.41616230435024393], [0.6393022909886308, -0.6413292840098621], [0.2807698762351942, -0.27721016339252885]], [[-1.4038028501345743, 1.4029646253475394], [-0.6194351163978042, 0.6156534626490494], [0.4733194023350448, -0.4678489517723662], [-0.12838485467933602, 0.12377915828228496], [-0.0025805110928877498, 0.0033986527460546385], [0.06558797213509135, -0.06301641825836755], [-0.6539836712989929, 0.657354459299696], [-1.4174887571201285, 1.416333900360681], [-0.0009605470227329697, -0.0016691222961000187], [0.0012420106429526891, -0.0023184845277599356], [-0.7089534981946404, 0.7053181036831557], [0.3727480841088237, -0.37133603431018675], [-1.2402923141443833, 1.241480337215996], [-0.002837831203183323, 0.0014798161552892], [-0.5311768981588326, 0.5260244221858025], [0.0032416667978302674, -0.014898069187772311], [-0.4907776905390212, 0.48757367959831044], [0.7180060231436357, -0.7212100862347405], [0.15902817834259111, -0.1617962429855482], [-0.22103594999021017, 0.2176047139963501], [-0.006171400266569127, -0.004956279158031965], [0.28142193130795745, -0.284311613285063], [-0.47447804511846237, 0.47827911687589336], [-0.39920549560276497, 0.39327174933019243], [0.7344233310146223, -0.7362456084771389], [0.0028746855827897237, 0.00033021293706467464], [-1.0639613762490039, 1.065794453519144], [-0.3804477597378881, 0.37180867005095203], [0.09118642067257783, -0.09456139772489998], [-0.16414262914833752, 0.16511497390488664], [0.003497670395423542, -0.0029515624542904837], [0.0017476117567852018, 0.003474786733637769], [-0.00034567196933308166, 0.001873605133659398], [-0.014355376941616323, 0.014378809644657856], [-0.0018614742411237895, -0.0035923279668494566], [0.0006731127308208154, -0.001307275006842831], [-0.0016096624039262579, -0.0016181190884490084], [0.5239019927242854, -0.5125462793794836], [-0.4261290365303886, 0.4263894911664433], [-0.37739378924088757, 0.3812583591426119], [-0.09032181427363187, 0.09045966341138019], [-0.1286184195928327, 0.12439147014126697], [-0.0026460705493641, 0.0017835124072570817], [-0.0013461845121338625, 0.000400850193242206], [-0.5617684223904149, 0.5567440753946792], [-0.15633140994625902, 0.15833323805487526], [2.1309280155594714, -2.1301823917322293], [0.2245114262207329, -0.22028761906920336], [-0.21000200796215165, 0.2062472547205703], [-0.0006789994852861997, 0.0010392086100544022], [-0.007004987573841639, 0.015003624526206157], [-0.002538304081623094, -0.00020141419165673057], [-1.040246780990625, 1.04838691050295], [-0.6978710066468413, 0.6956883070689337], [-0.5485597425188816, 0.54835564543464], [-0.6796713355198989, 0.6785577014662886], [-0.7081454105348632, 0.7102152802447794], [-0.44151526447320094, 0.44375057597945794], [0.5900682976165833, -0.5916161971678228], [-0.19046177050998805, 0.18918682221189798], [-0.5862239891823137, 0.5906851772611286], [0.004497443015800416, 0.0005627872685073903], [-0.5970195508364345, 0.5952979077634286], [-0.0030911277111595435, 0.0008301081058309633], [0.29165876899872245, -0.28458366961021103], [0.5959088377946683, -0.598600043869519], [-0.4552586300448672, 0.46053268357198496], [-0.0016331684922717327, -0.007879348318260697], [-0.0010175906199068302, -0.003194996597266714], [-0.7983732861454846, 0.7985566829031098], [-0.6725352998977514, 0.6683135464302324], [-0.004606217964264957, -0.000977035637776492], [-0.7396589046498057, 0.7345109699270882], [-0.4653027383363119, 0.46735987938400336], [-0.2155214249832722, 0.21997203815329466], [0.0022331270774969087, 0.00279963765837134], [-0.0014491146966836427, 0.0028578726190816623], [-0.0004546358885957016, 0.0008989708832684633], [-0.18741779351810378, 0.18485780215040715], [0.24849569976519775, -0.24154867735762567], [-0.0025580683590996586, 4.1176497528882507e-05], [-0.317133446219353, 0.32062823472367535], [0.35465383820255725, -0.35344738354908306], [-0.48457146905283227, 0.48104908898831966], [0.5336715960108944, -0.5282886666394349], [0.002286511585861837, -0.009116072004638577], [-0.15310446417127818, 0.14852394875784058], [-0.0013019618262900918, -0.002268094384755057], [-0.614111601558893, 0.6129379704180141], [-0.04788296158807069, 0.042023884634734096], [-0.5753188746065149, 0.572601521295954], [-0.09251375873013189, 0.0939715024794973], [0.2800421844380337, -0.28397560202903493], [-0.003526994442122043, 0.0006275338806927118], [-0.9201840678353882, 0.925751568333091], [0.4419674810503869, -0.4451984890897124], [0.07383658740644838, -0.07428805762155616], [-0.40752728620384887, 0.41234198270986333], [0.6776143969266926, -0.679448404294557], [0.2972635825929747, -0.29404278236695114]], [[-1.3796253784702146, 1.3788669592653888], [-0.5966184725082114, 0.5931968618932353], [0.47359435358304286, -0.4686447328727574], [-0.12351790666356054, 0.11935070873151866], [-0.0023348261723846525, 0.003075074315396678], [0.07710773695549258, -0.07478101520195302], [-0.6428304151643901, 0.6458802776770113], [-1.393040032272477, 1.3919951269454882], [-0.0008690954031022443, -0.0015102087460837005], [0.0011237614763752418, -0.002097746593921826], [-0.681990765523829, 0.6787014891181773], [0.3730876410335627, -0.3718100294644225], [-1.218937649829122, 1.220012563774908], [-0.0025676473874745188, 0.0013389260364776697], [-0.5218479333275519, 0.5171860135289611], [0.0055813376902888595, -0.016127959036305897], [-0.4822400269162321, 0.47934106297781065], [0.849547724411588, -0.8524467355352763], [0.18973517652220429, -0.19223969967385504], [-0.2170973118223283, 0.21399275644018992], [-0.005583834497887198, -0.00448440246109067], [0.23453874579423645, -0.2371533073547773], [-0.4664579953775113, 0.46989717525425095], [-0.39209834622317935, 0.3867295391927903], [0.7353211835514093, -0.7369699658893564], [0.00260099294072914, 0.000298774072331471], [-1.0457226702588578, 1.0473812241779334], [-0.3662800389390504, 0.3584634584320997], [0.10977559598850353, -0.11282924872213368], [-0.16137496565295079, 0.16225473555296363], [0.003164664706971322, -0.0026705505303576942], [0.0015812253937428427, 0.003143959749490348], [-0.0003127612833299033, 0.0016952232117269546], [-0.014116722334595622, 0.014137924060293261], [-0.0016842472754232554, -0.003250310134262346], [0.0006090271129689376, -0.0011828121603094132], [-0.0014564099025766535, -0.0014640614443234574], [0.5239988348447508, -0.5137242745854999], [-0.4098858125331976, 0.41012146984257924], [-0.3636678108497355, 0.3671644433487876], [-0.08697225929520515, 0.08709698411252625], [-0.12623739380435728, 0.12241288313433403], [-0.0023941438537734947, 0.0016137080203660755], [-0.0012180171751448197, 0.0003626861070145611], [-0.5518952415940444, 0.5473492518879288], [-0.1537175342221414, 0.15552877257468878], [2.1331856104588405, -2.1325109758752516], [0.26617291053421727, -0.2623512429925907], [-0.20222150044495926, 0.19882422919762677], [-0.0006143534021812046, 0.0009402677895901748], [-0.0069558801224478715, 0.014192984024560821], [-0.0022966376000392516, -0.00018223797892826527], [-1.022662843170167, 1.030027968429407], [-0.6712271366899785, 0.6692522472523792], [-0.5285112169500924, 0.5283265515110223], [-0.6679233160544542, 0.6669157087079896], [-0.6813602206069193, 0.6832330224659995], [-0.4253120603045614, 0.42733455260177583], [0.590796860613812, -0.592197387972295], [-0.18340244040233508, 0.18224887719424715], [-0.5763018407635316, 0.5803382887040407], [0.004069251122787612, 0.0005092055010410608], [-0.5866726782664128, 0.5851149491338243], [-0.00279682807878273, 0.0007510752954112909], [0.343390641534293, -0.33698914716751893], [0.5967354611370164, -0.5991704432598061], [-0.4476414175176805, 0.4524133397324742], [-0.0014776780267210003, -0.007129172482735892], [-0.0009207080018682714, -0.002890807831261944], [-0.7846551378180417, 0.7848210737641472], [-0.660792759690501, 0.6569729503060395], [-0.0041676698419610275, -0.0008840141725104044], [-0.7267229226429547, 0.7220651117319854], [-0.4573702382127697, 0.45923152327822575], [-0.2077122320726097, 0.21173911191868672], [0.0020205158432261903, 0.0025330901680582], [-0.0013111475978264244, 0.0025857807031963776], [-0.00041135098179745366, 0.00081338179566518], [-0.18411747416414123, 0.1818012140779704], [0.2950882990494781, -0.2888026877292837], [-0.0023145201630934225, 3.725617160977998e-05], [-0.30544032093213475, 0.3086023781266691], [0.35501687275691984, -0.3539252820606076], [-0.476101790283877, 0.4729147684623557], [0.534009221310357, -0.5291387890865925], [0.002068817727172304, -0.008248150362320114], [-0.14719205275281866, 0.14304763837700704], [-0.001178004836269098, -0.0020521539882390723], [-0.6035011183304907, 0.6024392260906157], [-0.046832238024832724, 0.04153099120811886], [-0.5653105267614035, 0.562851886825074], [-0.08908511226057432, 0.0904040673575043], [0.3317166686421348, -0.3352755939897913], [-0.00319119687414572, 0.0005677877272985565], [-0.9045563939375771, 0.90959382466695], [0.5226099124769518, -0.5255333031781947], [0.0739412601709785, -0.0743497468762637], [-0.40069336215131557, 0.4050496617406935], [0.5649570008495072, -0.5666163963136994], [0.2974299581203158, -0.2945158033683873]], [[-1.3683905908875587, 1.3677043791468106], [-0.581708670052769, 0.5786128236378589], [0.4657810156365716, -0.4613026376867138], [-0.12028865544504387, 0.11651820748066385], [-0.0021125323856491934, 0.002782303092361978], [0.0888878159600446, -0.08678261638892334], [-0.6377208223865032, 0.6404803140376989], [-1.381668065542429, 1.3807226434080917], [-0.000786350695819534, -0.0013664250139589747], [0.001016770559053227, -0.0018980246448149986], [-0.6643705733819142, 0.6613944619203942], [0.3670300134982562, -0.36587404058343653], [-1.2090441586672687, 1.2100167323642377], [-0.002323187192743976, 0.0012114497633710793], [-0.5174137761857779, 0.5131957077615383], [0.007814942530579311, -0.01735744270303734], [-0.4782181099090938, 0.47559515010284414], [0.9705240248825058, -0.9731470273816147], [0.2177999371362025, -0.22006601001608064], [-0.21519781566707094, 0.21238883833703265], [-0.005052209604470956, -0.004057452131292228], [0.2128882218320871, -0.21525385660020985], [-0.4628160541104961, 0.46592779705548176], [-0.38867499171644077, 0.3838173372759758], [0.7235459103336931, -0.7250377156453672], [0.002353357987469921, 0.0002703284344066983], [-1.0372981612248624, 1.0387988077864079], [-0.35694596931565586, 0.349873588655685], [0.1277693781636411, -0.13053229917704212], [-0.16011512541214015, 0.16091113430893872], [0.0028633637751155593, -0.0024162931483379915], [0.0014306803190753065, 0.002844630092180451], [-0.00028298395307810233, 0.0015338246495754284], [-0.01400809545575462, 0.014027278610671106], [-0.0015238937086006212, -0.002940855085164678], [0.000551042949193628, -0.0010701991541585583], [-0.0013177482428299977, -0.0013246712977158196], [0.5151810021976854, -0.505884660760069], [-0.39930701763436827, 0.3995202385173066], [-0.35477271480357336, 0.3579364404300585], [-0.08478966993336884, 0.08490251996863114], [-0.1250432701614177, 0.12158288294062808], [-0.0021662025579548103, 0.0014600703445616348], [-0.0011020523751206566, 0.0003281555414940171], [-0.5472071112952291, 0.543093935508276], [-0.15254686999805558, 0.1541856642359916], [2.0987956811615187, -2.098185277088118], [0.305279307317824, -0.30182149253728074], [-0.19710746721797526, 0.1940336428717735], [-0.0005558621338461443, 0.0008507469122051552], [-0.007020043242535334, 0.013568118021013105], [-0.00207797966528159, -0.000164887492240168], [-1.0146735836512386, 1.0213374911483066], [-0.6538430752226175, 0.6520562107680602], [-0.5154478736561925, 0.5152807898170793], [-0.6624468326377352, 0.6615351574232796], [-0.663922509724558, 0.6656170061397529], [-0.41478648808017987, 0.41661642322829795], [0.5813403336007904, -0.5826075197565641], [-0.17878958851994442, 0.17774585358806724], [-0.5717897125392124, 0.5754418589380172], [0.0036818264605318774, 0.0004607251386090536], [-0.5818334410987586, 0.5804240200122619], [-0.002530548082509737, 0.0006795670291792453], [0.3935654060715435, -0.38777338423869373], [0.5872415946261157, -0.5894447473291774], [-0.4442195062101132, 0.4485371039566958], [-0.0013369914745396422, -0.006450419277798583], [-0.000833049369875166, -0.002615580224540617], [-0.7782959179744218, 0.778446055515381], [-0.6552535628465376, 0.6517974293120051], [-0.00377087494476897, -0.0007998490812246381], [-0.7206107914550547, 0.7163964407200697], [-0.4537318751126155, 0.45541595122337997], [-0.2026731806790969, 0.20631666994119782], [0.0018281468680698917, 0.0022919200919900044], [-0.0011863160502203526, 0.0023395940744102466], [-0.0003721871380378505, 0.000735941461323102], [-0.18253734489529252, 0.18044161095865216], [0.34060631597192004, -0.3349191442095993], [-0.002094159667903269, 3.370909150404962e-05], [-0.29786459285680594, 0.300725597375145], [0.3492704473926512, -0.3482827847027654], [-0.47209893353582544, 0.46921534121903274], [0.5252201719673613, -0.5208134431382495], [0.0018718500333551307, -0.007462861676040333], [-0.14328162553929025, 0.13953179195767076], [-0.0010658495251182508, -0.0018567728132267915], [-0.5985536597994929, 0.5975928680397729], [-0.04622200690133984, 0.04142548041166562], [-0.5606102522980291, 0.5583856941910575], [-0.08686899683881338, 0.08806237705291124], [0.37923927904367183, -0.38245936675039566], [-0.0028873698716208617, 0.0005137298768872734], [-0.8974188562290012, 0.9019766839945673], [0.5986180631114355, -0.6012631240608651], [0.07276769299469563, -0.07313728855783798], [-0.39762211218575955, 0.4015636578447032], [0.5133268773897409, -0.5148282853746987], [0.2925241719747229, -0.2898874676397039]], [[-1.3552543772472099, 1.3546334982529236], [-0.5876766019743728, 0.5848755044494924], [0.5450671193314723, -0.5410151181306343], [-0.12134081693332967, 0.11792934522405776], [-0.0019114027130587828, 0.0025174059888593077], [0.09992582438715183, -0.09802105634709415], [-0.6318204803388919, 0.6343172467149203], [-1.3684412550161236, 1.3675858444932698], [-0.0007114839344549156, -0.0012363306222498212], [0.0009199660172477752, -0.0017173177936568968], [-0.670954735156214, 0.6682619728768954], [0.4298273539528782, -0.4287814387372735], [-1.197673027658433, 1.198553004701939], [-0.0021020015282698927, 0.0010961102325209144], [-0.5122667224726043, 0.5084502472863647], [0.009899946042745045, -0.018533925262616276], [-0.4734805521968778, 0.47110731876198825], [1.0923581719762043, -1.0947314440392555], [0.24566033259772949, -0.24771065754423052], [-0.21302984709538714, 0.210488306465748], [-0.00457119957569778, -0.003671150825682989], [0.1926298050590423, -0.19477021282017898], [-0.4585421022820608, 0.4613575828625206], [-0.38476736235393405, 0.38037219476280926], [0.8478424485561746, -0.8491922222871994], [0.002129299826410106, 0.000244591044592724], [-1.0274716081881736, 1.0288293814126546], [-0.3603435341798952, 0.35394449969735453], [0.14457387810464456, -0.14707374734066533], [-0.15858323692138065, 0.1593034595202367], [0.002590749058054423, -0.0021862430657408746], [0.001294468317729473, 0.0025737989688482195], [-0.00025604165850426114, 0.0013877924979852833], [-0.0138646771987852, 0.013882033966710498], [-0.0013788070605778293, -0.002660862586856417], [0.0004985793331527737, -0.000968307790530397], [-0.0011922882619854714, -0.0011985521876801996], [0.6022963553053295, -0.5938850985756858], [-0.4033581999105717, 0.4035511204910546], [-0.3586817667041912, 0.3615442808066574], [-0.0856713815234088, 0.08577348734911555], [-0.12370594402272883, 0.12057501283938576], [-0.001959963063495142, 0.0013210601819929738], [-0.000997128334717182, 0.00029691255697563345], [-0.5418326192996522, 0.5381110501479193], [-0.15117061129486395, 0.15265337945208365], [2.4586895346934283, -2.4581372458812494], [0.3443829275097302, -0.3412543238501213], [-0.1990298388789026, 0.19624866674885216], [-0.0005029396935818613, 0.0007697491253444604], [-0.0074320105189502154, 0.01335665715723024], [-0.0018801396830087564, -0.0001491889081361767], [-1.0052603952707377, 1.0112898464431757], [-0.6603722693775833, 0.6587555284511426], [-0.5208904304439763, 0.5207392542984375], [-0.6560889718386655, 0.6552640952639082], [-0.6707132106481978, 0.6722463776979783], [-0.41925083595031, 0.42090654690205437], [0.6812171356700518, -0.6823636757527265], [-0.1806161334217107, 0.17967177025168005], [-0.5664974534096288, 0.5698018867913767], [0.0033312876685247053, 0.00041686048739134675], [-0.5762191286634871, 0.5749438955324491], [-0.0022896200329484634, 0.0006148669114387741], [0.4422495337729442, -0.43700895790267014], [0.6882476937784882, -0.690241089043111], [-0.44013939270174973, 0.4440459212372536], [-0.001209699386921447, -0.005836288708143041], [-0.0007537365280210738, -0.00236655644731026], [-0.7708331485307878, 0.7709689917988353], [-0.6488466724220331, 0.6457195899406122], [-0.0034118580377748057, -0.0007236971675681672], [-0.7135677057910987, 0.7097545943409018], [-0.4494887792203745, 0.45101251806053627], [-0.20497529015923238, 0.20827189063167437], [0.0016540929300001605, 0.0020737113010446872], [-0.0010733694462343268, 0.0021168463459601576], [-0.00033675199975337296, 0.0006658740549405303], [-0.18065789793904205, 0.1787616943307303], [0.383380475105215, -0.3782347667553802], [-0.0018947792223211295, 3.049972127920154e-05], [-0.30111129055563024, 0.3036999049766802], [0.4090387053038386, -0.4081450758580326], [-0.46744832234316164, 0.4648392706594503], [0.6147143598457633, -0.6107271862067236], [0.0016936352107542573, -0.0067523386394771475], [-0.14453843380315573, 0.14114561382552324], [-0.0009643722803318682, -0.0016799934603818295], [-0.5927968070389026, 0.5919274901996967], [-0.04557091524203485, 0.041231055740754745], [-0.5551808828137832, 0.5531681201077978], [-0.08782607235023818, 0.08890583339647468], [0.42708462791721874, -0.4299981379872799], [-0.0026124695856552752, 0.0004648187583452972], [-0.889053111108906, 0.8931769978790866], [0.672001337333132, -0.674394567708813], [0.08529688025975139, -0.08563128742289065], [-0.39401706360349636, 0.39758334316319904], [0.46445807047496285, -0.4658165326293665], [0.3423450684901115, -0.3399593991135254]], [[-1.3168979775138923, 1.3163362110755539], [-0.6513029304560907, 0.6487685194122793], [0.43891334503489704, -0.43524712616828354], [-0.13357225298615047, 0.1304855801735006], [-0.001729422164747425, 0.002277729169816922], [0.09076951868172364, -0.08904609951700623], [-0.6131792264043745, 0.6154382810145823], [-1.3291587141892267, 1.3283847454655893], [-0.0006437450766923716, -0.001118622238247843], [0.0008323780280172618, -0.0015538156537994014], [-0.7337316064926525, 0.7312952163282808], [0.34611844860576996, -0.3451721127321438], [-1.1622246327498031, 1.1630208290684074], [-0.0019018744759996132, 0.0009917519307559046], [-0.49782372677512543, 0.4943706099969612], [0.009014904018676754, -0.016826860615159204], [-0.46049570337538376, 0.4583484204002279], [1.0559746905110594, -1.0581220084366718], [0.22310588506406168, -0.22496100297468735], [-0.20680044935564837, 0.20450088335238048], [-0.004135985478980872, -0.0033216284379479774], [0.1780495065183748, -0.17998613065227254], [-0.4454286681793905, 0.4479760928989418], [-0.37352407584294084, 0.3695473627212425], [0.682502525766435, -0.6837237904386462], [0.0019265737617864484, 0.0002213040564018357], [-0.997981126774196, 0.9992096293252668], [-0.39913620807652234, 0.3933464119276097], [0.14002344918625476, -0.14228531123981739], [-0.15450082646635818, 0.15515247821797715], [0.0023440894028698826, -0.001978095557564146], [0.001171224768569121, 0.002328753095263229], [-0.0002316644819486254, 0.0012556637540004027], [-0.013585354572279018, 0.01360105883959711], [-0.0012475338007957556, -0.0024075275731363552], [0.00045111066534981925, -0.0008761172848609299], [-0.0010787730565403064, -0.0010844406073190007], [0.48503023548688706, -0.4774197964505479], [-0.44107868286327406, 0.44125323588951154], [-0.3978956560502501, 0.40048563633116396], [-0.09432830819843686, 0.09442069274771074], [-0.12001330198141703, 0.11718046003357477], [-0.0017733591884833329, 0.0011952848785318504], [-0.0009021938869166766, 0.0002686441499310048], [-0.5259947121158968, 0.5226274655724684], [-0.14683355167010728, 0.14817514865474987], [1.979683336107491, -1.979183629527292], [0.332346285819895, -0.3295155497972494], [-0.22065049677362591, 0.21813411407058475], [-0.0004550558852246434, 0.0006964629638593139], [-0.008554925895776895, 0.013915499648516294], [-0.0017011356206631807, -0.00013498495251808117], [-0.9767724461615868, 0.9822278462338132], [-0.7222490588812746, 0.7207862443871137], [-0.5781441212893726, 0.5780073383000573], [-0.6372598813827733, 0.6365135395355946], [-0.7340272219744362, 0.7354144194812926], [-0.46439193210137225, 0.4658900063684005], [0.5483623024136485, -0.5493996828768033], [-0.1998521047660523, 0.1989976523857853], [-0.5503050794776432, 0.5532949048521086], [0.003014122922257889, 0.0003771720954336838], [-0.5596305816629907, 0.5584767607402877], [-0.0020716302256860025, 0.0005563267529898633], [0.4023307457066763, -0.3975891138128985], [0.5537672197610835, -0.5555708281426082], [-0.4279168909017067, 0.4314514872431063], [-0.0010945265056547943, -0.00528062819141624], [-0.0006819748915462191, -0.0021412416892276436], [-0.7492430303966446, 0.7493659403188125], [-0.6301439345580235, 0.6273145748854566], [-0.003087022359645433, -0.0006547955141041116], [-0.6927897113754146, 0.689339638079208], [-0.43653235252050626, 0.4379110194573365], [-0.22659030701270005, 0.22957304523233693], [0.0014966102936604514, 0.0018762777005661856], [-0.0009711762459046093, 0.0019153059504711009], [-0.0003046905649016899, 0.000602477615876954], [-0.17594329346682983, 0.1742276233327007], [0.37370315505507684, -0.3690473585488087], [-0.0017143813608703781, 2.7595908302578437e-05], [-0.3323808932441966, 0.3347230512442679], [0.32919582542744097, -0.3283872765224462], [-0.4542231150685565, 0.451862465593721], [0.4950545719102684, -0.4914470085124865], [0.0015323878387657232, -0.006109462975651391], [-0.15788198439126738, 0.15481218751893489], [-0.0008725564661384146, -0.0015200448901558662], [-0.5757915530420519, 0.5750050019925848], [-0.044166157440959856, 0.04023948664462477], [-0.5391474252496564, 0.5373262933592777], [-0.0966993404139553, 0.09767629972934933], [0.41294281774070046, -0.41557893877262847], [-0.0023637419656742983, 0.00042056436238196955], [-0.8636166575947757, 0.8673479179600212], [0.6486464560288611, -0.6508118320790116], [0.06863943618750126, -0.06894200516264816], [-0.3826782031967584, 0.38590494493678923], [0.43182810610681693, -0.4330572319962721], [0.275761684488635, -0.2736031495710907]], [[-1.306047607761665, 1.3055393258997452], [-0.8093739071680046, 0.8070807919580062], [0.4004986779147272, -0.39718151187461526], [-0.16523718597463383, 0.162444388653039], [-0.0015647675937078614, 0.0020608714661021787], [0.08212754770051467, -0.08056821157409313], [-0.607961364170558, 0.6100053390417749], [-1.318032967604195, 1.317332686780936], [-0.0005824554901343704, -0.00101212061675341], [0.0007531291031800135, -0.0014058802016200522], [-0.9067121235106761, 0.9045076968226472], [0.31589263852153554, -0.3150364012545465], [-1.1521845738566885, 1.1529049660333246], [-0.0017208010906804502, 0.0008973293588328015], [-0.493645645368261, 0.4905212924243113], [0.008156614363082538, -0.015224811345173], [-0.4567599304144798, 0.4548170856409278], [1.1396320145143535, -1.1415748909108039], [0.20186445278081672, -0.20354294889832086], [-0.2049632273299896, 0.20288259806846312], [-0.003742207181958226, -0.0030053833262849057], [0.16342484464036625, -0.16517708694862765], [-0.4417987393185573, 0.4441036292001705], [-0.3702144096990187, 0.3666163108951821], [0.6228698849117973, -0.6239748755967615], [0.0017431488104996953, 0.00020023417235679025], [-0.9896861244945732, 0.9907976639554905], [-0.4954224157715839, 0.4901838536826586], [0.15124118566822514, -0.15328770069214312], [-0.15338025728591487, 0.15396986667343251], [0.002120913683849133, -0.0017897653267245526], [0.0010597149731064119, 0.0021070375131609113], [-0.0002096082040322819, 0.0011361147040348841], [-0.013509008999472261, 0.013523218097217848], [-0.0011287587862189173, -0.002178312042133499], [0.0004081613874877568, -0.0007927040392927538], [-0.0009760653900755223, -0.000981193345513454], [0.4424566739690082, -0.43557080849284113], [-0.545230687986562, 0.5453886221939568], [-0.49511813665521553, 0.4974615304745661], [-0.11695199244619303, 0.11703558126089059], [-0.11887402936079879, 0.11631089621237677], [-0.00160452146775166, 0.0010814843716593818], [-0.0008162979440562019, 0.00024306711722561086], [-0.5213978197853373, 0.5183511615554478], [-0.14565363945826865, 0.14686750587456468], [1.8068718104333508, -1.8064196798437253], [0.35877644148334387, -0.35621521375950216], [-0.27405684131023833, 0.2717800380013941], [-0.000411730991449135, 0.0006301542204554468], [-0.011393692234723618, 0.016243897270226102], [-0.0015391741507514507, -0.0001221333250168766], [-0.9689092549819498, 0.9738452581266639], [-0.8926651859725239, 0.891341642905523], [-0.7191404127142145, 0.7190166525396232], [-0.6319180866035246, 0.631242802361135], [-0.9078156151630989, 0.9090707405737986], [-0.5773247571261347, 0.5786802029587359], [0.5004467485102166, -0.501385362206848], [-0.24817697288830862, 0.24740387108456044], [-0.5458244437285739, 0.5485296142486316], [0.0027271547504943644, 0.0003412623500588194], [-0.5548954179577866, 0.5538514498477486], [-0.0018743947599240967, 0.0005033600773344963], [0.3640256992578034, -0.35973550795580905], [0.5052778941694115, -0.5069097848694832], [-0.4245834639080604, 0.42778153892097537], [-0.000990318987124265, -0.004777870919420687], [-0.0006170455263997428, -0.001937378665485665], [-0.7431720181658975, 0.7432832260982776], [-0.6247546953406189, 0.6221947129275202], [-0.002793113588971618, -0.0005924538391266843], [-0.6867931249291095, 0.6836715257037352], [-0.4329089023011509, 0.43415630931908034], [-0.2817152475385492, 0.2844140056565726], [0.0013541212409935192, 0.0016976413292768516], [-0.000878712640757863, 0.0017329537833064102], [-0.0002756816304226888, 0.0005451170156572577], [-0.17456167093322625, 0.17300934606882873], [0.40404399457474843, -0.3998314664573176], [-0.0015511587924736318, 2.496856112464295e-05], [-0.41275505501739584, 0.41487422118316003], [0.30034753979293194, -0.299615971093135], [-0.45042009063859945, 0.4482841935316803], [0.451762163281861, -0.448498068249333], [0.0013864924828477737, -0.005527794123451327], [-0.19472905429507223, 0.1919515261917516], [-0.0007894822384753268, -0.0013753246798733478], [-0.5709591267737447, 0.5702474615608828], [-0.04364044804584472, 0.04008762714501992], [-0.5345583964730932, 0.5329106506398202], [-0.11998604656001285, 0.12086999167663101], [0.4458187450894653, -0.44820388669799516], [-0.002138695168345226, 0.00038052333243909016], [-0.8565425581290885, 0.8599185732063996], [0.7003157454386758, -0.7022749606844002], [0.06263726282937103, -0.06291102486204424], [-0.37957256334181366, 0.38249209392895755], [0.3963933054343726, -0.3975054088869657], [0.2516805254995665, -0.249727500056902]], [[-1.3008902714495685, 1.3004303820123821], [-0.8170509002946781, 0.8149761076602454], [0.36742568316162577, -0.36442433737786023], [-0.16673577631246145, 0.1642088752274023], [-0.0014157894308448877, 0.001864660318739967], [0.07430836022113217, -0.07289748513923532], [-0.6055148454391935, 0.6073642178515681], [-1.3126239003161875, 1.3119902917265294], [-0.0005270011535168451, -0.0009157587859703689], [0.0006814252983200659, -0.0012720293662084607], [-0.9161480732415179, 0.9141535252853009], [0.2898272742308551, -0.28905255747561753], [-1.1473993075703581, 1.1480511127546207], [-0.0015569673135923771, 0.0008118965572464979], [-0.49159925677871885, 0.4887723667702221], [0.007380040622751967, -0.013775289746400235], [-0.4549437803090854, 0.45318590961491484], [1.3854755802201124, -1.387233479526433], [0.18264537165748923, -0.18416406176356778], [-0.20403701865925442, 0.20215448164237024], [-0.003385919671108325, -0.00271924723268906], [0.15069690349376644, -0.15228231857412186], [-0.4401103418085705, 0.442195788073416], [-0.36854895119235914, 0.36529341965010875], [0.5714766056122863, -0.572476392506675], [0.0015771873549907257, 0.00018117030673223683], [-0.9856992682150247, 0.98670498039047], [-0.49990084018122916, 0.495161030341002], [0.18419028683859867, -0.18604195756118969], [-0.1528620643064787, 0.15339553825016922], [0.0019189860458527018, -0.001619365612796776], [0.0009588217858454964, 0.001906430995581992], [-0.00018965185697901677, 0.001027947662431179], [-0.013473552699999105, 0.013486408980056876], [-0.0010212920857564788, -0.001970919629685616], [0.000369301218153958, -0.0007172323897374005], [-0.0008831363000098124, -0.0008877760338208015], [0.4058748160987378, -0.3996445390898203], [-0.55098934076269, 0.5511322383933016], [-0.5000194531375372, 0.5021397374628802], [-0.11813953116569831, 0.11821516166882326], [-0.11827124827785222, 0.11595214553315313], [-0.001451758423897064, 0.0009785185667036125], [-0.0007385799694871172, 0.0002199252188873], [-0.5191328260192103, 0.5163762335778664], [-0.14511658273267403, 0.14621487953378365], [1.657811571399733, -1.6574024871927708], [0.43553136984833507, -0.43321399111683356], [-0.27655684002293895, 0.2744968062685742], [-0.0003725309677865189, 0.0005701585901386484], [-0.011781251119729717, 0.016169678547743743], [-0.0013926326846403249, -0.00011050527337615631], [-0.965297963192386, 0.9697640200758514], [-0.9019847531880825, 0.900787221814693], [-0.7260123092771585, 0.7259003320430631], [-0.6293347013204299, 0.6287237094408461], [-0.9174174807565113, 0.9185531083717554], [-0.5830100362936254, 0.5842364330388008], [0.459156376538298, -0.46000562684018315], [-0.25055341295782546, 0.24985391651687466], [-0.5437321352905141, 0.5461797523336653], [0.002467508202211148, 0.0003087714944387892], [-0.5525742614550421, 0.5516296873072416], [-0.0016959376593704092, 0.00045543624514280155], [0.3293675940360373, -0.3254858626363774], [0.46357662509309305, -0.465053146983466], [-0.42307322694909016, 0.425966820106656], [-0.0008960328426876377, -0.004322980087814796], [-0.000558297946698131, -0.0017529250025170675], [-0.7402981643856227, 0.7403987844495366], [-0.6221455915528552, 0.6198293395687335], [-0.002527187241298109, -0.0005360475811691923], [-0.6838347319602609, 0.6810103334947061], [-0.4312024589083119, 0.432331102982389], [-0.28465826343385897, 0.28710007858600606], [0.001225198265090807, 0.001536012543345374], [-0.0007950522969272638, 0.0015679629744466336], [-0.00024943457430995266, 0.0004932175950247477], [-0.1738715433783741, 0.17246701203129802], [0.49031675904534944, -0.4865052966852024], [-0.0014034762943565258, 2.2591358030305596e-05], [-0.4169848154632293, 0.4189022203684415], [0.2755479945560058, -0.2748860769413553], [-0.44857355016551076, 0.4466410072361273], [0.4144606361624168, -0.41150730860955237], [0.0012544875105128539, -0.005001504713760069], [-0.19662696921802206, 0.19411388360174972], [-0.0007143173296582281, -0.0012443829700810797], [-0.5686566488984772, 0.568012739802506], [-0.043310811680207395, 0.040096247229039664], [-0.5323359661482889, 0.5308450986579037], [-0.12125194556444824, 0.12205173216444382], [0.542237965707624, -0.5443960231047754], [-0.0019350745933887914, 0.00034429452298442804], [-0.8531902814470734, 0.8562448733775617], [0.8504766665190072, -0.8522493490878444], [0.0574697536086859, -0.05771745134602643], [-0.3781591063208798, 0.38080067466938594], [0.36551138376483644, -0.36651760623552065], [0.2309059083750027, -0.22913882629136664]], [[-1.306366315114656, 1.3059502107633507], [-0.8346783616615319, 0.8328011055790078], [0.33722513025955575, -0.33450953616363177], [-0.17017197389175365, 0.16788565363345911], [-0.001280995158995043, 0.0016871300134304677], [0.06723362079297707, -0.06595707209831847], [-0.6080700662783082, 0.6097433639141127], [-1.3179915855507094, 1.3174183014744438], [-0.0004768265052219074, -0.0008285713581963734], [0.000616548258764612, -0.0011509221814434447], [-0.9353105605161206, 0.9335059091882942], [0.26602615665552076, -0.2653251990191442], [-1.1520950260945988, 1.1526847743067667], [-0.00140873179865111, 0.000734597629265287], [-0.49355629438199156, 0.4909985465015494], [0.006677402800846144, -0.012463773986758938], [-0.45681637462432584, 0.45522586702459894], [1.6065212491806973, -1.6081117826684728], [0.16525609798236102, -0.1666301968642403], [-0.20478763297948205, 0.20308432826995426], [-0.0030635535291766466, -0.0024603535421977474], [0.13898996438575928, -0.14042443550038056], [-0.4420330224575804, 0.44391991786124024], [-0.3699118379828867, 0.3669662586087773], [0.5245470232545845, -0.5254516225854143], [0.0014270267333226507, 0.00016392147082150971], [-0.9898068228772656, 0.990716783355865], [-0.5104994759716768, 0.506210933249427], [0.21307975293788622, -0.21475513006672692], [-0.1535666813871837, 0.15404936442212477], [0.0017362835047083124, -0.0014651892897645032], [0.0008675344223145476, 0.0017249237938167564], [-0.00017159551088014664, 0.0009300789726116236], [-0.0135410910699099, 0.01355272333114727], [-0.0009240570591018429, -0.0017832726035318055], [0.0003341408421052281, -0.0006489462338899996], [-0.0007990547890799354, -0.0008032527837968159], [0.3724760662394108, -0.3668389605273991], [-0.5625773867850942, 0.5627066794391132], [-0.5110002205243955, 0.5129186371316139], [-0.12066857265234261, 0.12073700253765234], [-0.11864328606371691, 0.11654498011196328], [-0.0013135396214482386, 0.0008853559149583904], [-0.0006682613564074264, 0.00019898661100149263], [-0.5211377883010927, 0.5186436451073716], [-0.14577034033236505, 0.14676407065320937], [1.5216988299553684, -1.521328693777402], [0.5029754124377497, -0.5008786663595984], [-0.28246041949736056, 0.28059651713362216], [-0.00033706309420991235, 0.0005158750149668727], [-0.012275515054318875, 0.016246129729364376], [-0.0012600431168764477, -9.998430356539986e-05], [-0.9695949295233027, 0.9736357827200254], [-0.9208910783074683, 0.9198075613249035], [-0.7418161922589582, 0.7417148761368929], [-0.6319108671671385, 0.6313580465125411], [-0.9367959752913104, 0.9378234822396283], [-0.5957073054571351, 0.5968169396014166], [0.42145728017411505, -0.4222256751781948], [-0.2559357821479373, 0.25530288326123113], [-0.546100359709791, 0.5483149443895767], [0.002232582044299312, 0.0002793740234207808], [-0.5547944283224423, 0.5539397850511465], [-0.00153447107619275, 0.0004120751381161607], [0.29800921259754287, -0.29449705250992547], [0.4255010414604957, -0.4268369868719466], [-0.4250104378678493, 0.4276285382337563], [-0.000810723479619749, -0.003911398435583758], [-0.0005051435979221774, -0.0015860327767567206], [-0.7434520633963447, 0.7435431036400151], [-0.6246466760798931, 0.6225509494739239], [-0.002286579170212486, -0.00048501164192118367], [-0.6865049777614255, 0.6839494842094718], [-0.43303855064467994, 0.4340597389397911], [-0.29092223429525704, 0.2931315694696234], [0.0011085497689115019, 0.00138977208708705], [-0.0007193570748045046, 0.0014186805862443665], [-0.00022568644405429614, 0.00044625940679670126], [-0.17457424149557213, 0.17330343256236272], [0.5653247031187634, -0.5618761219062832], [-0.0012698543297940338, 2.044048333845475e-05], [-0.4260454493755037, 0.427780302276577], [0.2529036776656039, -0.2523047798058318], [-0.45038484087630976, 0.44863629120984383], [0.38039955829023375, -0.377727410712547], [0.0011350504481642564, -0.004525322188762308], [-0.20062418130035367, 0.1983503611697261], [-0.0006463087104219998, -0.0011259079393313937], [-0.5710235677488741, 0.5704409638553845], [-0.043336263669374014, 0.040427750997566576], [-0.5344786872528686, 0.5331297620551804], [-0.12388287908331405, 0.12460651971835676], [0.6289342147470769, -0.6308868081330394], [-0.0017508402961774318, 0.00031151498069057095], [-0.8568457131160264, 0.8596094839073694], [0.9824935551196362, -0.9840974643872447], [0.05275098383950367, -0.05297509880710722], [-0.3798525683256695, 0.38224263862346225], [0.3370976662042138, -0.33800808839393753], [0.21193627362282674, -0.2103374316302476]], [[-1.3175424801057347, 1.317165992156294], [-0.8299919834470106, 0.8282934568854208], [0.3091879912263802, -0.3067309430136399], [-0.16910194274394616, 0.16703329812845427], [-0.0011590343603493929, 0.0015265019873117337], [0.060832452115506634, -0.059677440881171225], [-0.6133101240558728, 0.6148241106165323], [-1.3291421179597496, 1.3286234150294791], [-0.00043142887746045605, -0.0007496848582194192], [0.0005578480228468516, -0.0010413453517090073], [-0.9295979571735267, 0.9279651228238306], [0.2439215285092403, -0.24328730754438738], [-1.1618848373027366, 1.1624184368538804], [-0.0012746094688088946, 0.0006646581662475792], [-0.49766487079746546, 0.495350640600945], [0.006041661617320673, -0.01127712482661961], [-0.4606689861722916, 0.45922990738613406], [1.8184097621851107, -1.8198488643945707], [0.14952241971709376, -0.15076569359477607], [-0.20644185157920225, 0.20490071485387973], [-0.00277187917546152, -0.002226108564103919], [0.19165059783199884, -0.1929484960317695], [-0.4458900045094692, 0.44759725265312594], [-0.3729064009914062, 0.37024126390501194], [0.4809681930189261, -0.48178666738974496], [0.0012911625820316642, 0.00014831485954263098], [-0.9982558029318473, 0.9990791280270682], [-0.5075048000695366, 0.5036245602918832], [0.24181831858490926, -0.24333418665453813], [-0.15492450865744362, 0.1553612364770032], [0.0015709756802231496, -0.001325691763414035], [0.0007849383326610306, 0.0015606975030149873], [-0.0001552582707243217, 0.0008415281506145834], [-0.013663252675539117, 0.01367377745415986], [-0.0008360795705603359, -0.001613491047838597], [0.00030232800996677196, -0.0005871614563226878], [-0.0007229784982731264, -0.0007267768109265849], [0.3414752596253051, -0.3363748506446272], [-0.5591850909531059, 0.5593020739311422], [-0.5082647176394073, 0.5100004859205112], [-0.11997438938906169, 0.12003630421191777], [-0.11954301864190424, 0.11764448789451569], [-0.00118848033440908, 0.0008010630792550241], [-0.0006046376274969954, 0.00018004152301492098], [-0.5254407783473021, 0.5231840971718466], [-0.1470615229220285, 0.14796064231267705], [1.3952947114051943, -1.3949598150980083], [0.5699500462452871, -0.5680529268592841], [-0.28083187415288136, 0.2791454299311839], [-0.00030497204072297705, 0.0004667596624341938], [-0.012372022446976131, 0.015964603424171758], [-0.0011400771171744914, -9.046501270060705e-05], [-0.978119652892542, 0.9817757851325765], [-0.9152953220797947, 0.9143149644227061], [-0.7377513172765503, 0.737659647244929], [-0.6372567501355386, 0.6367565623484979], [-0.9312075858166777, 0.9321372660346205], [-0.5924425443987942, 0.5934465326587094], [0.3864448820383433, -0.38714011980391655], [-0.25448131857714335, 0.2539086766345345], [-0.5508580113498128, 0.552861750177201], [0.0020200227014690875, 0.00025277542249868405], [-0.5594528773140185, 0.5586796027935661], [-0.0013883773797123222, 0.00037284234898829927], [0.2696363953257965, -0.26645862045911417], [0.3901482874903722, -0.39135704040762537], [-0.42879160203422084, 0.43116043868564874], [-0.0007335362378406498, -0.003539002588749032], [-0.00045704996056475096, -0.0014350300014744318], [-0.7498393208390886, 0.749921693336634], [-0.6298898370139028, 0.6279936400383253], [-0.00206887887696204, -0.0004388347248690132], [-0.6922018341201024, 0.6898896436222949], [-0.43677448719324435, 0.43769845034338534], [-0.28936931935325544, 0.2913683084693644], [0.0010030071255958436, 0.0012574548706741928], [-0.0006508686322538046, 0.0012836110536965757], [-0.00020419932229034455, 0.00040377200684527754], [-0.17602453078484798, 0.17487471284159825], [0.6389294036843877, -0.6358091544846524], [-0.0011489542255759845, 1.8494388807842472e-05], [-0.42369064059424755, 0.42526032187553636], [0.23188197902142316, -0.23134010094097834], [-0.45416111424474276, 0.4525790402376866], [0.3487769192626789, -0.3463591811184589], [0.0010269847320769146, -0.004094475979551562], [-0.1993189946750944, 0.19726166007695345], [-0.0005847750458010135, -0.0010187126618800236], [-0.5758914966407698, 0.5753643612130622], [-0.043558048776776874, 0.040926449351544804], [-0.5389678098171986, 0.5377473128912863], [-0.12319441399279375, 0.12384915835671284], [0.7120357175601896, -0.7138024087223145], [-0.001584146550831582, 0.00028185630823710693], [-0.8642555526132317, 0.8667561907216607], [1.1122627392673021, -1.113713943777316], [0.048368944889133514, -0.04857172235187185], [-0.3832099262447356, 0.38537244308122864], [0.4905711089349296, -0.49139485178274994], [0.1943216678979095, -0.19287504821854828]], [[-1.3303135382541567, 1.3299728949140204], [-0.8558740653653817, 0.8543372518707901], [0.2825417069403577, -0.28031858901239026], [-0.17420207414527056, 0.1723303807420044], [-0.0010486851874790908, 0.0013811670106731266], [0.05504072496378111, -0.05399567986912636], [-0.6193145940877955, 0.620684437238716], [-1.3419344963366937, 1.3414651779987012], [-0.00039035346036430334, -0.000678308972526985], [0.0005047365103547407, -0.000942201096659674], [-0.9575740351419088, 0.956096659444767], [0.2229119444460507, -0.22233810629751702], [-1.1731335150653344, 1.1736163117489116], [-0.0011532566380150636, 0.0006013774893358079], [-0.5023785326619921, 0.5002846353535672], [0.005466447986870059, -0.010203453985146464], [-0.46507197605090383, 0.4637699088661105], [1.9632765230777036, -1.964578611455717], [0.1352867111774665, -0.13641161561870502], [-0.20835724192895974, 0.20696283352225936], [-0.002507974510705606, -0.002014165547423801], [0.28822941780594763, -0.28940374590485285], [-0.4502889284952241, 0.4518336332087795], [-0.3763721070685702, 0.37396071196181974], [0.439539577654723, -0.4402801268380538], [0.001168233764869311, 0.00013419412021444525], [-1.0079335365744502, 1.0086784746551263], [-0.52317718221455, 0.5196663717348103], [0.260875578324379, -0.2622471238498398], [-0.15645614924547832, 0.15685129714704182], [0.0014214064587725226, -0.0011994754970303426], [0.0007102060393602287, 0.0014121068447479335], [-0.00014047646412582043, 0.0007614080622511972], [-0.01379852181886466, 0.013808044555910799], [-0.0007564782298051942, -0.0014598740295226327], [0.0002735440092704504, -0.0005312590747686169], [-0.0006541452677695873, -0.0006575819512307188], [0.31202557680908993, -0.30741076681630425], [-0.5760634027233628, 0.5761692480032353], [-0.5242804051234095, 0.5258509146333614], [-0.12366546127035503, 0.12372148131586509], [-0.1205992023556515, 0.1188814266443604], [-0.001075327673572411, 0.0007247955834526725], [-0.0005470713772087456, 0.00016290015617829266], [-0.5304037260529464, 0.528361898646854], [-0.14853026396270874, 0.1493437801266853], [1.275127426117959, -1.2748244145691192], [0.6142565370229306, -0.6125400383003382], [-0.2895456985801221, 0.28801981709178504], [-0.0002759363075353919, 0.00042232047715990415], [-0.012956719442733241, 0.016207258498769944], [-0.0010315328227235158, -8.185203308005123e-05], [-0.9878167699919734, 0.9911248097315657], [-0.9428810426555225, 0.9419940227460256], [-0.7609108611261323, 0.7608279188013953], [-0.6433869477256434, 0.6429343817438472], [-0.9594141792046776, 0.9602553465651995], [-0.6109914107508048, 0.6118998114441697], [0.3531629563157303, -0.35379200198639776], [-0.26238093003158985, 0.2618628080988095], [-0.5562853736709111, 0.5580983408267989], [0.0018277006772806517, 0.0002287092172601594], [-0.5648067372125452, 0.5641070844988774], [-0.001256192950394018, 0.00033734482947604216], [0.24396489306682817, -0.24108966732215878], [0.3565405444659203, -0.35763421461325184], [-0.4330789034498376, 0.4352222082498444], [-0.0006636978276215541, -0.003202061750915211], [-0.0004135352151576169, -0.001298403876206641], [-0.7571254882376568, 0.7572000182265747], [-0.6359105980501814, 0.6341949339172986], [-0.0018719053612046852, -0.00039705421294228846], [-0.6987674658021351, 0.6966754139970874], [-0.4410461748742097, 0.44188216947667974], [-0.29845153394788654, 0.3002602036023075], [0.0009075129707382132, 0.0011377352923358933], [-0.0005889008272658828, 0.001161401201333015], [-0.00018475794325424505, 0.00036532974101795], [-0.17767944209686454, 0.1766390958512017], [0.6876656451160676, -0.6848424681431098], [-0.0010395647606942636, 1.6733577759003536e-05], [-0.4368761470483406, 0.43829638234512225], [0.21190023231290936, -0.21140994528102994], [-0.4584897413968697, 0.4570582932591328], [0.3187222211959817, -0.31653467070931396], [0.0009292077207888682, -0.0037046497128439644], [-0.20521966020514698, 0.2033582000167637], [-0.0005290998692688172, -0.0009217232166343481], [-0.5814632719989609, 0.5809863240035053], [-0.043843368805528866, 0.04146231831122996], [-0.5441230993077464, 0.5430188032736039], [-0.12701175384271998, 0.1276041614015608], [0.7688664214939842, -0.7704649097838507], [-0.0014333233590696842, 0.00025502137430739543], [-0.8727231825864704, 0.8749857403097502], [1.1991508953625225, -1.2004639338070386], [0.04420331002305751, -0.04438678147895483], [-0.3870320308162626, 0.38898865906792235], [0.7239781727462109, -0.7247234888061597], [0.17757958143801794, -0.17627069131227172]], [[-1.3438785673150242, 1.3435703558959031], [-0.8683415254725604, 0.8669510286910761], [0.25759828112024546, -0.25558682147691275], [-0.1766413161860875, 0.17494782269300796], [-0.0009488421224255491, 0.0012496690651095607], [0.04980041571867463, -0.04885486712365132], [-0.6257027026923443, 0.6269421260180744], [-1.3555441064789469, 1.3551194709322345], [-0.0003531887455362842, -0.0006137286316591846], [0.00045668163093054643, -0.0008524961532595978], [-0.9713254654331829, 0.9699887475040718], [0.20324096940657352, -0.202721765156066], 