[[[-0.05553905066681363, 0.05553905066681367]], [[0.25058865904868133, -0.2505886590486814]], [[0.4450599532837053, -0.44505995328370446]], [[0.8542445604910704, -0.854244560491069]], [[1.0602849196099149, -1.0602849196099127]], [[1.18665433759371, -1.1866543375937078]], [[1.258173041513923, -1.2581730415139205]], [[1.3059068830549125, -1.3059068830549103]], [[1.3348962218641085, -1.3348962218641067]], [[1.3165230212702013, -1.3165230212701997]], [[1.3619208453783407, -1.36192084537834]], [[1.3277806798585075, -1.3277806798585068]], [[1.269071780947018, -1.2690717809470173]], [[1.2201188386346644, -1.2201188386346635]], [[1.1526814049278509, -1.1526814049278502]], [[1.105679277551285, -1.1056792775512843]], [[1.6858894249216319, -1.6858894249216323]], [[1.8779760569922246, -1.8779760569922244]], [[1.8971297813630843, -1.8971297813630843]], [[1.934199620975801, -1.9341996209758008]], [[1.952295108367394, -1.952295108367395]], [[1.9796157004740362, -1.979615700474039]], [[1.954947055050738, -1.9549470550507406]], [[1.8310493390387423, -1.831049339038746]], [[1.8157210824296548, -1.8157210824296577]], [[1.8133906502397612, -1.8133906502397639]], [[1.7431936804069346, -1.7431936804069386]], [[1.7330083112100991, -1.733008311210102]], [[1.7267030560822922, -1.7267030560822951]], [[1.6178630131447134, -1.617863013144717]], [[1.5464937234080889, -1.5464937234080924]], [[1.5183963881510143, -1.5183963881510179]], [[1.3625113283830002, -1.362511328383004]], [[1.3225434353007814, -1.3225434353007857]], [[1.274543841406343, -1.274543841406347]], [[1.5526711441322099, -1.5526711441322127]], [[1.6105723216811616, -1.6105723216811652]], [[1.6267984084896263, -1.6267984084896303]], [[1.616700871987029, -1.616700871987034]], [[1.5879028955032952, -1.5879028955033008]], [[1.5976014782560741, -1.5976014782560801]], [[1.5770978219239857, -1.5770978219239906]], [[1.554562957284729, -1.554562957284734]], [[1.6303525136131938, -1.6303525136131987]], [[1.5564674667834133, -1.5564674667834189]], [[1.5331867150398932, -1.5331867150398983]], [[1.6210351295355825, -1.6210351295355885]], [[1.7512655413852776, -1.751265541385284]], [[1.6296536918128786, -1.6296536918128848]], [[1.6224700855743026, -1.622470085574309]], [[1.6814026861643556, -1.6814026861643616]], [[1.6199958433764006, -1.6199958433764061]], [[1.7430997836051179, -1.7430997836051232]], [[1.7678056311140984, -1.7678056311141044]], [[1.6412093017390073, -1.6412093017390132]], [[1.5846593558681257, -1.5846593558681306]], [[1.5696135194998637, -1.5696135194998684]], [[1.5740904103712605, -1.5740904103712645]], [[1.5516473151284105, -1.551647315128414]], [[1.631113052996328, -1.6311130529963316]], [[1.5973502765846377, -1.5973502765846423]], [[1.646694879617825, -1.6466948796178313]], [[1.6211185797553236, -1.621118579755331]], [[1.60710134416782, -1.6071013441678268]], [[1.6118853981496117, -1.6118853981496195]], [[1.5885809204027204, -1.588580920402728]], [[1.618269223993385, -1.6182692239933922]], [[1.6008094372366695, -1.6008094372366772]], [[1.64006623549418, -1.640066235494188]], [[1.644399552771234, -1.6443995527712418]], [[1.640179622630004, -1.6401796226300125]], [[1.7897908924153416, -1.7897908924153503]], [[1.6739793722210223, -1.673979372221031]], [[1.6064581282242298, -1.606458128224238]], [[1.5655992001698422, -1.5655992001698507]], [[1.5574992397419096, -1.5574992397419174]], [[1.560494917298045, -1.5604949172980522]], [[1.5604152210320308, -1.5604152210320372]], [[1.626593819095209, -1.6265938190952152]], [[1.6801617495558236, -1.6801617495558308]], [[1.6563579088638265, -1.6563579088638345]], [[1.6403418679561135, -1.6403418679561204]], [[1.7905996600236702, -1.7905996600236775]], [[1.6514266623613953, -1.6514266623614036]], [[1.6280654394118912, -1.6280654394118992]], [[1.5704387320372821, -1.5704387320372892]], [[1.585978325252739, -1.5859783252527464]], [[1.5871296994997832, -1.5871296994997905]], [[1.7876889184485472, -1.7876889184485536]], [[1.7232982231781322, -1.723298223178138]], [[1.6569697844953042, -1.6569697844953102]], [[1.619460354907239, -1.6194603549072446]], [[1.83842114834518, -1.838421148345186]], [[1.7500577055763096, -1.750057705576316]], [[1.6630765593215582, -1.663076559321564]], [[1.6373529771025295, -1.637352977102535]], [[1.6364292520598602, -1.6364292520598667]], [[1.647082177049993, -1.6470821770499997]], [[1.6507874570749357, -1.6507874570749426]], [[1.6816717197075102, -1.6816717197075173]], [[1.5589208905864753, -1.5589208905864833]], [[1.6514166039821963, -1.651416603982204]], [[1.63617949296446, -1.6361794929644666]], [[1.6941915939531758, -1.6941915939531829]], [[1.6447958833904228, -1.6447958833904301]], [[1.654776713077267, -1.6547767130772741]], [[1.6574966746206852, -1.6574966746206918]], [[1.7592834841550404, -1.7592834841550458]], [[1.6216567562674642, -1.6216567562674695]], [[2.0290619710942908, -2.029061971094296]], [[2.1728334792450372, -2.172833479245044]], [[2.0300798881341158, -2.030079888134123]], [[1.8856157121903712, -1.8856157121903778]], [[1.768403872634309, -1.7684038726343159]], [[1.7010285023090777, -1.7010285023090843]], [[1.66660624566779, -1.6666062456677966]], [[1.6379378248982999, -1.637937824898306]], [[1.5769266273179545, -1.5769266273179614]], [[1.5796345767863598, -1.5796345767863669]], [[1.5850284227724447, -1.585028422772452]], [[1.6597887867985768, -1.659788786798584]], [[1.6171722246872362, -1.617172224687244]], [[1.6277178088356206, -1.627717808835629]], [[1.66195490055077, -1.6619549005507772]], [[1.6003243621278451, -1.6003243621278527]], [[1.6222447271295481, -1.6222447271295555]], [[1.550140456451283, -1.5501404564512902]], [[1.6187398065913272, -1.618739806591335]], [[1.6525442384821163, -1.6525442384821238]], [[1.609104146862538, -1.609104146862546]], [[1.6396790924258087, -1.6396790924258173]], [[1.580342182212745, -1.5803421822127537]], [[1.5485325260857659, -1.5485325260857739]], [[1.5814798097057587, -1.5814798097057665]], [[1.6707771680023435, -1.6707771680023507]], [[1.6809803543678357, -1.6809803543678439]], [[1.6959724170082384, -1.6959724170082466]], [[1.6468446892139617, -1.6468446892139696]], [[1.6413837677302507, -1.6413837677302574]], [[1.8619146302940528, -1.8619146302940595]], [[1.7509504321767735, -1.7509504321767793]], [[1.7039455843871782, -1.703945584387184]], [[1.7522916630837426, -1.7522916630837482]], [[1.6805546396431967, -1.6805546396432016]], [[1.6205012099955167, -1.6205012099955218]], [[1.5861807444838985, -1.5861807444839036]], [[1.6393467971219158, -1.6393467971219213]], [[1.6203773918797693, -1.6203773918797741]], [[1.6589657029565235, -1.658965702956529]], [[1.739310264945373, -1.7393102649453784]], [[1.7099519345756211, -1.7099519345756267]], [[1.709355916337239, -1.7093559163372445]], [[1.6619271907201187, -1.6619271907201245]], [[1.681268491783844, -1.6812684917838505]], [[1.6803195637393575, -1.6803195637393649]], [[1.9098551588293746, -1.9098551588293828]], [[1.8225985669642164, -1.8225985669642248]], [[1.7093206431919177, -1.7093206431919261]], [[1.658554008847434, -1.6585540088474422]], [[1.633631281413422, -1.6336312814134295]], [[1.6215441652232145, -1.6215441652232236]], [[1.6317858001258236, -1.631785800125832]], [[1.6297471061324302, -1.6297471061324385]], [[1.6360034322549992, -1.6360034322550066]], [[1.6425006860425087, -1.6425006860425155]], [[1.6496981526978811, -1.6496981526978887]], [[1.6194328050424605, -1.6194328050424671]], [[1.6266768154546138, -1.6266768154546203]], [[1.6125948430066235, -1.6125948430066297]], [[1.7133047591199289, -1.713304759119936]], [[1.7116602147100408, -1.7116602147100484]], [[1.8832359902679845, -1.8832359902679916]], [[1.8346148559135815, -1.8346148559135889]], [[1.6943808654597754, -1.6943808654597832]], [[1.6505427986985792, -1.6505427986985863]], [[1.614370064570302, -1.6143700645703094]], [[1.621111879932818, -1.6211118799328252]], [[1.6835064605327523, -1.6835064605327597]], [[1.6451969253317813, -1.64519692533179]], [[1.817614296278181, -1.817614296278189]], [[1.7753045009191397, -1.7753045009191468]], [[1.7113957460967513, -1.7113957460967593]], [[1.7585136941966666, -1.7585136941966741]], [[1.896559900006641, -1.896559900006648]], [[1.7426013372345965, -1.7426013372346043]], [[1.7258776933315134, -1.72587769333152]], [[1.7605466613758873, -1.7605466613758944]], [[1.7053225189869623, -1.70532251898697]], [[1.900047473301086, -1.9000474733010937]], [[1.8646522380965873, -1.8646522380965944]], [[1.7559106171115233, -1.7559106171115304]], [[1.6963455224768549, -1.696345522476862]], [[1.66947434394805, -1.669474343948056]], [[1.6456229636226851, -1.6456229636226902]], [[1.6354971661363824, -1.6354971661363864]], [[1.6240214465991827, -1.624021446599187]], [[1.476297080696308, -1.4762970806963114]], [[1.6295377494343188, -1.6295377494343215]], [[1.6939485080488654, -1.6939485080488672]], [[1.6160274821237652, -1.616027482123767]]]