[[[-0.05879107147444056, 0.05879107147444054]], [[-0.07048898503019119, 0.07048898503019121]], [[-0.06935039936429603, 0.06935039936429606]], [[-0.06475644999846533, 0.06475644999846535]], [[-0.05933668089270036, 0.059336680892700375]], [[-0.05382930145619447, 0.05382930145619448]], [[-0.04843326856949862, 0.04843326856949865]], [[-0.04319350935770836, 0.043193509357708396]], [[-0.03811176581714257, 0.038111765817142575]], [[-0.033178618788233034, 0.03317861878823305]], [[-0.028382691553915908, 0.028382691553915866]], [[-0.023713201394942325, 0.023713201394942297]], [[-0.019160565293032963, 0.019160565293032984]], [[-0.014716442262243931, 0.014716442262243924]], [[-0.010373622189437506, 0.010373622189437472]], [[-0.006125883304303165, 0.006125883304303088]], [[-0.0019678541465854432, 0.001967854146585339]], [[0.002105110324371877, -0.002105110324371981]], [[0.006097036892571912, -0.006097036892572016]], [[0.010011427389282047, -0.01001142738928218]], [[0.013851338684765777, -0.013851338684765895]], [[0.017619451014579894, -0.017619451014580012]], [[0.021318126195658836, -0.021318126195659023]], [[0.024949457135893235, -0.024949457135893416]], [[0.02851530987691782, -0.028515309876917985]], [[0.03201735925156902, -0.03201735925156921]], [[0.03545711909203173, -0.03545711909203194]], [[0.03883596779446844, -0.038835967794468663]], [[0.042155169931178314, -0.04215516993117855]], [[0.045415894501305114, -0.04541589450130539]], [[0.04861923032457693, -0.04861923032457718]], [[0.05176619900809685, -0.05176619900809711]], [[0.054857765852389, -0.05485776585238921]], [[0.05789484900836451, -0.05789484900836465]], [[0.06087832715036085, -0.06087832715036096]], [[0.06380904589079711, -0.0638090458907972]], [[0.06668782312828135, -0.06668782312828148]], [[0.0695154534923484, -0.06951545349234851]], [[0.072292712023637, -0.07229271202363712]], [[0.075020357207602, -0.0750203572076021]], [[0.07769913346224272, -0.07769913346224282]], [[0.08032977316534981, -0.08032977316534991]], [[0.08291299829402765, -0.08291299829402775]], [[0.08544952173840178, -0.08544952173840188]], [[0.0879400483421834, -0.08794004834218348]], [[0.09038527571489299, -0.09038527571489312]], [[0.09278589485383806, -0.09278589485383816]], [[0.09514259060821789, -0.09514259060821802]], [[0.09745604201285135, -0.09745604201285146]], [[0.09972692251485626, -0.09972692251485628]], [[0.10195590011305578, -0.1019559001130558]], [[0.10414363742685007, -0.1041436374268501]], [[0.10629079170870027, -0.10629079170870039]], [[0.108398014812156, -0.1083980148121562]], [[0.11046595312546759, -0.11046595312546782]], [[0.11249524747920915, -0.11249524747920943]], [[0.11448653303495966, -0.11448653303495994]], [[0.11644043916091375, -0.11644043916091404]], [[0.11835758929928998, -0.11835758929929027]], [[0.12023860082955005, -0.12023860082955032]], [[0.122084084930715, -0.12208408493071522]], [[0.12389464644544532, -0.12389464644544555]], [[0.12567088374802707, -0.12567088374802732]], [[0.12741338861796114, -0.12741338861796142]], [[0.12912274612047525, -0.12912274612047556]], [[0.1307995344949625, -0.1307995344949628]], [[0.13244432505208192, -0.1324443250520822]], [[0.13405768208003271, -0.134057682080033]], [[0.13564016276032775, -0.13564016276032798]], [[0.13719231709323587, -0.1371923170932361]], [[0.13871468783293556, -0.13871468783293575]], [[0.14020781043231598, -0.14020781043231614]], [[0.14167221299727828, -0.14167221299727845]], [[0.14310841625031945, -0.14310841625031961]], [[0.14451693350312908, -0.14451693350312927]], [[0.1458982706378854, -0.14589827063788563]], [[0.14725292609690666, -0.14725292609690688]], [[0.1485813908802899, -0.1485813908802901]], [[0.14988414855115423, -0.14988414855115437]], [[0.1511616752480947, -0.15116167524809482]], [[0.15241443970444973, -0.15241443970444984]], [[0.15364290327398306, -0.15364290327398317]], [[0.15484751996258478, -0.1548475199625849]], [[0.15602873646560284, -0.15602873646560306]], [[0.1571869922104222, -0.15718699221042237]], [[0.15832271940392006, -0.15832271940392018]], [[0.1594363430844374, -0.15943634308443744]], [[0.16052828117791734, -0.1605282811779174]], [[0.1615989445578761, -0.16159894455787616]], [[0.16264873710888417, -0.16264873710888428]], [[0.16367805579325048, -0.16367805579325057]], [[0.1646872907206154, -0.16468729072061544]], [[0.16567682522017377, -0.1656768252201737]], [[0.16664703591526198, -0.16664703591526192]], [[0.167598292800058, -0.16759829280005795]], [[0.16853095931815595, -0.1685309593181558]], [[0.1694453924427905, -0.1694453924427903]], [[0.17034194275850054, -0.17034194275850023]], [[0.17122095454403113, -0.17122095454403075]], [[0.17208276585628807, -0.17208276585628768]], [[0.17292770861516876, -0.17292770861516837]], [[0.17375610868910596, -0.17375610868910552]], [[0.17456828598116977, -0.1745682859811693]], [[0.17536455451558552, -0.17536455451558497]], [[0.1761452225245333, -0.17614522252453269]], [[0.17691059253510555, -0.17691059253510494]], [[0.17766096145630694, -0.17766096145630633]], [[0.17839662066598935, -0.1783966206659887]], [[0.17911785609762326, -0.17911785609762262]], [[0.17982494832681462, -0.179824948326814]], [[0.1805181726574812, -0.1805181726574806]], [[0.1811977992076127, -0.1811977992076121]], [[0.1818640929945421, -0.1818640929945415]], [[0.1825173140196638, -0.1825173140196632]], [[0.18315771735253786, -0.18315771735253727]], [[0.1837855532143273, -0.1837855532143267]], [[0.18440106706051818, -0.18440106706051757]], [[0.18500449966287796, -0.18500449966287733]], [[0.18559608719061224, -0.18559608719061155]], [[0.18617606129068304, -0.18617606129068232]], [[0.18674464916725697, -0.1867446491672562]], [[0.1873020736602538, -0.18730207366025303]], [[0.18784855332297082, -0.18784855332296999]], [[0.18838430249875981, -0.18838430249875893]], [[0.1889095313967383, -0.18890953139673738]], [[0.1894244461665176, -0.18942444616651674]], [[0.18992924897193392, -0.18992924897193303]], [[0.190424138063771, -0.1904241380637701]], [[0.19090930785146437, -0.19090930785146348]], [[0.19138494897377978, -0.19138494897377892]], [[0.19185124836846038, -0.19185124836845951]], [[0.1923083893408385, -0.19230838934083766]], [[0.19275655163141034, -0.19275655163140948]], [[0.1931959114823712, -0.19319591148237036]], [[0.19362664170311436, -0.19362664170311358]], [[0.19404891173469271, -0.19404891173469196]], [[0.19446288771324816, -0.19446288771324743]], [[0.19486873253241205, -0.19486873253241135]], [[0.1952666059046814, -0.1952666059046807]], [[0.19565666442177723, -0.19565666442177654]], [[0.19603906161399198, -0.19603906161399137]], [[0.19641394800853285, -0.19641394800853215]], [[0.19678147118686942, -0.19678147118686873]], [[0.1971417758410946, -0.197141775841094]], [[0.19749500382930812, -0.1974950038293075]], [[0.1978412942300314, -0.1978412942300308]], [[0.19818078339566572, -0.19818078339566508]], [[0.19851360500500279, -0.19851360500500215]], [[0.19883989011479958, -0.19883989011479888]], [[0.19915976721042794, -0.19915976721042727]], [[0.19947336225561135, -0.1994733622556107]], [[0.1997807987412596, -0.19978079874125892]], [[0.2000821977334143, -0.20008219773341362]], [[0.2003776779203164, -0.20037767792031574]], [[0.20066735565860908, -0.20066735565860835]], [[0.2009513450186864, -0.2009513450186857]], [[0.2012297578292031, -0.2012297578292024]], [[0.20150270372075466, -0.20150270372075396]], [[0.20177029016874296, -0.20177029016874234]], [[0.20203262253543847, -0.20203262253543783]], [[0.20228980411125166, -0.20228980411125103]], [[0.20254193615522703, -0.20254193615522642]], [[0.20278911793477128, -0.20278911793477067]], [[0.20303144676462878, -0.2030314467646282]], [[0.20326901804511577, -0.20326901804511524]], [[0.20350192529962705, -0.2035019252996265]], [[0.203730260211426, -0.20373026021142548]], [[0.2039541126597312, -0.20395411265973068]], [[0.20417357075511067, -0.2041735707551101]], [[0.20438872087419657, -0.20438872087419596]], [[0.204599647693732, -0.2045996476937314]], [[0.2048064342239611, -0.20480643422396047]], [[0.20500916184137477, -0.20500916184137413]], [[0.20520791032082303, -0.20520791032082242]], [[0.20540275786700551, -0.20540275786700485]], [[0.20559378114535143, -0.20559378114535076]], [[0.20578105531229968, -0.205781055312299]], [[0.20596465404499065, -0.20596465404499004]], [[0.20614464957037984, -0.20614464957037926]], [[0.20632111269378445, -0.20632111269378378]], [[0.20649411282687286, -0.2064941128268722]], [[0.20666371801510813, -0.20666371801510752]], [[0.20682999496465523, -0.2068299949646546]], [[0.20699300906876134, -0.20699300906876067]], [[0.2071528244336211, -0.20715282443362038]], [[0.20730950390373393, -0.2073095039037332]], [[0.20746310908676527, -0.20746310908676452]], [[0.20761370037791982, -0.20761370037791899]], [[0.20776133698383636, -0.20776133698383553]], [[0.20790607694601368, -0.20790607694601282]], [[0.20804797716377593, -0.2080479771637751]], [[0.20818709341678676, -0.20818709341678587]], [[0.2083234803871205, -0.20832348038711973]], [[0.20845719168089938, -0.20845719168089855]], [[0.2085882798495043, -0.20858827984950337]], [[0.2087167964103686, -0.2087167964103677]], [[0.2088427918673618, -0.20884279186736088]], [[0.20896631573077196, -0.20896631573077104]], [[0.20908741653689406, -0.20908741653689317]], [[0.209206141867232, -0.20920614186723116]], [[0.20932253836732245, -0.20932253836732162]], [[0.2094366517651867, -0.20943665176518586]], [[0.20954852688941925, -0.20954852688941836]], [[0.20965820768691867, -0.20965820768691776]], [[0.20976573724026912, -0.20976573724026815]], [[0.20987115778477838, -0.20987115778477733]], [[0.20997451072517984, -0.20997451072517873]], [[0.21007583665200424, -0.21007583665200313]], [[0.21017517535762864, -0.2101751753576275]], [[0.21027256585200804, -0.21027256585200685]], [[0.2103680463780964, -0.2103680463780952]], [[0.21046165442696296, -0.21046165442696185]], [[0.21055342675261052, -0.2105534267526094]], [[0.21064339938649976, -0.21064339938649862]], [[0.21073160765178783, -0.21073160765178678]], [[0.2108180861772854, -0.21081808617728437]], [[0.21090286891113696, -0.2109028689111359]], [[0.21098598913423233, -0.2109859891342312]], [[0.21106747947335186, -0.21106747947335064]], [[0.21114737191405297, -0.2111473719140518]], [[0.21122569781330136, -0.2112256978133002]], [[0.21130248791185288, -0.21130248791185172]], [[0.21137777234639094, -0.21137777234638971]], [[0.21145158066142367, -0.21145158066142244]], [[0.2115239418209467, -0.21152394182094547]], [[0.21159488421987493, -0.21159488421987366]], [[0.2116644356952488, -0.21166443569524748]], [[0.21173262353721903, -0.21173262353721772]], [[0.21179947449981462, -0.21179947449981334]], [[0.2118650148114979, -0.21186501481149658]], [[0.21192927018551092, -0.21192927018550964]], [[0.2119922658300184, -0.21199226583001715]], [[0.2120540264580492, -0.21205402645804794]], [[0.21211457629724234, -0.21211457629724106]], [[0.21217393909940008, -0.21217393909939875]], [[0.2122321381498527, -0.21223213814985137]], [[0.21228919627663817, -0.2122891962766369]], [[0.21234513585950088, -0.21234513585949957]], [[0.2123999788387123, -0.212399978838711]], [[0.21245374672371775, -0.21245374672371653]], [[0.21250646060161288, -0.21250646060161166]], [[0.21255814114545213, -0.21255814114545085]], [[0.21260880862239379, -0.21260880862239245]], [[0.21265848290168413, -0.21265848290168277]], [[0.21270718346248405, -0.21270718346248269]], [[0.21275492940154134, -0.21275492940153998]], [[0.21280173944071143, -0.21280173944071007]], [[0.21284763193433012, -0.21284763193432876]], [[0.21289262487644037, -0.21289262487643906]], [[0.21293673590787718, -0.21293673590787587]], [[0.21297998232321222, -0.21297998232321091]], [[0.21302238107756177, -0.21302238107756044]], [[0.21306394879326063, -0.2130639487932593]], [[0.21310470176640384, -0.21310470176640256]], [[0.2131446559732602, -0.21314465597325893]], [[0.2131838270765587, -0.2131838270765574]], [[0.2132222304316514, -0.21322223043165006]], [[0.21325988109255478, -0.2132598810925535]], [[0.21329679381787223, -0.21329679381787092]], [[0.21333298307659926, -0.21333298307659793]], [[0.21336846305381493, -0.21336846305381366]], [[0.21340324765626095, -0.21340324765625973]], [[0.2134373505178107, -0.2134373505178095]], [[0.2134707850048308, -0.21347078500482955]], [[0.21350356422143674, -0.21350356422143543]], [[0.21353570101464536, -0.21353570101464397]], [[0.2135672079794255, -0.2135672079794241]], [[0.2135980974636497, -0.21359809746364833]], [[0.2136283815729477, -0.2136283815729464]], [[0.213658072175465, -0.21365807217546373]], [[0.21368718090652744, -0.2136871809065261]], [[0.2137157191732138, -0.21371571917321247]], [[0.21374369815883904, -0.21374369815883765]], [[0.21377112882734828, -0.21377112882734686]], [[0.21379802192762526, -0.21379802192762376]], [[0.2138243879977156, -0.21382438799771414]], [[0.21385023736896674, -0.21385023736896536]], [[0.21387558017008707, -0.21387558017008562]], [[0.2139004263311242, -0.21390042633112272]], [[0.21392478558736594, -0.21392478558736439]], [[0.2139486674831641, -0.21394866748316255]], [[0.21397208137568288, -0.21397208137568133]], [[0.21399503643857404, -0.21399503643857243]], [[0.21401754166557924, -0.21401754166557757]], [[0.2140396058740618, -0.21403960587406012]], [[0.21406123770846935, -0.21406123770846766]], [[0.21408244564372753, -0.2140824456437258]], [[0.21410323798856773, -0.21410323798856606]], [[0.2141236228887891, -0.21412362288878742]], [[0.21414360833045631, -0.2141436083304546]], [[0.2141632021430347, -0.21416320214303297]], [[0.21418241200246368, -0.21418241200246202]], [[0.21420124543416974, -0.21420124543416802]], [[0.21421970981602, -0.21421970981601834]], [[0.21423781238121822, -0.21423781238121653]], [[0.21425556022114328, -0.21425556022114156]], [[0.21427296028813225, -0.21427296028813053]], [[0.2142900193982089, -0.21429001939820724]], [[0.21430674423375834, -0.21430674423375667]], [[0.21432314134614883, -0.2143231413461471]], [[0.21433921715830273, -0.214339217158301]], [[0.21435497796721648, -0.21435497796721475]], [[0.21437042994643124, -0.21437042994642952]], [[0.2143855791484549, -0.2143855791484532]], [[0.2144004315071366, -0.21440043150713495]], [[0.2144149928399946, -0.21441499283999296]], [[0.2144292688504983, -0.21442926885049657]], [[0.21444326513030537, -0.21444326513030362]], [[0.21445698716145542, -0.21445698716145373]], [[0.21447044031852022, -0.21447044031851853]], [[0.21448362987071154, -0.2144836298707099]], [[0.21449656098394781, -0.21449656098394615]], [[0.2145092387228804, -0.21450923872287875]], [[0.21452166805287956, -0.21452166805287792]], [[0.21453385384198198, -0.2145338538419803]], [[0.21454580086279967, -0.21454580086279795]], [[0.21455751379439147, -0.21455751379438975]], [[0.214568997224098, -0.21456899722409634]], [[0.21458025564934047, -0.21458025564933886]], [[0.21459129347938388, -0.21459129347938227]], [[0.21460211503706605, -0.21460211503706447]], [[0.2146127245604927, -0.21461272456049107]], [[0.21462312620469876, -0.21462312620469715]], [[0.21463332404327762, -0.214633324043276]], [[0.214643322069978, -0.21464332206997638]], [[0.21465312420027, -0.21465312420026839]], [[0.21466273427287969, -0.21466273427287808]], [[0.21467215605129417, -0.21467215605129253]], [[0.21468139322523683, -0.21468139322523522]], [[0.2146904494121138, -0.21469044941211218]], [[0.2146993281584318, -0.21469932815843015]], [[0.2147080329411883, -0.21470803294118668]], [[0.21471656716923448, -0.21471656716923293]], [[0.21472493418461158, -0.21472493418460997]], [[0.21473313726386017, -0.21473313726385856]], [[0.21474117961930506, -0.21474117961930356]], [[0.2147490644003139, -0.21474906440031233]], [[0.2147567946945317, -0.2147567946945301]], [[0.21476437352909078, -0.21476437352908911]], [[0.21477180387179712, -0.2147718038717955]], [[0.2147790886322937, -0.21477908863229211]], [[0.21478623066320057, -0.21478623066319896]], [[0.21479323276123263, -0.21479323276123102]], [[0.2148000976682959, -0.21480009766829428]], [[0.2148068280725616, -0.21480682807255996]], [[0.21481342660951996, -0.21481342660951833]], [[0.21481989586301262, -0.21481989586301098]], [[0.21482623836624534, -0.21482623836624376]], [[0.2148324566027805, -0.21483245660277886]], [[0.21483855300751004, -0.21483855300750848]], [[0.21484452996760994, -0.21484452996760844]], [[0.21485038982347537, -0.21485038982347388]], [[0.2148561348696375, -0.21485613486963612]], [[0.21486176735566287, -0.21486176735566148]], [[0.21486728948703449, -0.21486728948703313]], [[0.21487270342601592, -0.2148727034260145]], [[0.21487801129249873, -0.2148780112924973]], [[0.21488321516483266, -0.21488321516483128]], [[0.21488831708064027, -0.21488831708063882]], [[0.21489331903761488, -0.21489331903761344]], [[0.2148982229943032, -0.21489822299430178]], [[0.21490303087087304, -0.21490303087087165]], [[0.21490774454986505, -0.2149077445498636]], [[0.21491236587693036, -0.21491236587692897]], [[0.21491689666155384, -0.21491689666155245]], [[0.2149213386777626, -0.2149213386777613]], [[0.21492569366482117, -0.2149256936648199]], [[0.21492996332791278, -0.2149299633279115]], [[0.2149341493388072, -0.21493414933880597]], [[0.21493825333651578, -0.21493825333651456]], [[0.21494227692793338, -0.2149422769279322]], [[0.2149462216884679, -0.21494622168846667]], [[0.21495008916265712, -0.2149500891626559]], [[0.21495388086477402, -0.21495388086477285]], [[0.21495759827941996, -0.2149575982794187]], [[0.2149612428621057, -0.2149612428621045]], [[0.2149648160398221, -0.21496481603982087]], [[0.21496831921159865, -0.21496831921159748]], [[0.21497175374905167, -0.21497175374905053]], [[0.21497512099692145, -0.2149751209969203]], [[0.2149784222735989, -0.21497842227359776]], [[0.21498165887164206, -0.21498165887164095]], [[0.21498483205828223, -0.21498483205828117]], [[0.2149879430759205, -0.21498794307591945]], [[0.21499099314261397, -0.21499099314261294]], [[0.21499398345255324, -0.21499398345255222]], [[0.21499691517652988, -0.21499691517652886]], [[0.21499978946239506, -0.21499978946239406]], [[0.21500260743550892, -0.21500260743550795]], [[0.2150053701991817, -0.21500537019918065]], [[0.21500807883510537, -0.21500807883510437]], [[0.2150107344037776, -0.2150107344037766]], [[0.21501333794491698, -0.215013337944916]], [[0.21501589047787023, -0.21501589047786926]], [[0.21501839300201145, -0.21501839300201042]], [[0.21502084649713332, -0.21502084649713232]], [[0.21502325192383098, -0.21502325192382998]], [[0.21502561022387817, -0.21502561022387717]], [[0.21502792232059606, -0.21502792232059506]], [[0.2150301891192149, -0.21503018911921387]], [[0.2150324115072283, -0.21503241150722727]], [[0.21503459035474104, -0.21503459035473999]], [[0.2150367265148097, -0.2150367265148087]], [[0.21503882082377673, -0.2150388208237758]], [[0.21504087410159803, -0.21504087410159706]], [[0.21504288715216377, -0.21504288715216285]], [[0.21504486076361357, -0.21504486076361273]], [[0.21504679570864502, -0.21504679570864424]], [[0.2150486927448161, -0.21504869274481542]], [[0.21505055261484207, -0.2150505526148414]], [[0.21505237604688604, -0.21505237604688537]], [[0.21505416375484435, -0.21505416375484365]], [[0.21505591643862598, -0.21505591643862532]], [[0.21505763478442685, -0.2150576347844262]], [[0.2150593194649981, -0.2150593194649974]], [[0.21506097113990996, -0.21506097113990927]], [[0.21506259045580983, -0.21506259045580906]], [[0.21506417804667535, -0.21506417804667463]], [[0.21506573453406308, -0.21506573453406239]], [[0.21506726052735142, -0.21506726052735073]], [[0.21506875662397948, -0.21506875662397876]], [[0.2150702234096809, -0.21507022340968018]], [[0.21507166145871337, -0.21507166145871262]], [[0.21507307133408335, -0.2150730713340826]], [[0.21507445358776653, -0.21507445358776583]], [[0.21507580876092403, -0.21507580876092333]], [[0.21507713738411421, -0.2150771373841135]], [[0.2150784399775006, -0.21507843997749987]], [[0.21507971705105533, -0.2150797170510546]], [[0.21508096910475893, -0.2150809691047582]], [[0.21508219662879619, -0.21508219662879546]], [[0.21508340010374793, -0.2150834001037472]], [[0.21508458000077935, -0.21508458000077862]], [[0.2150857367818243, -0.2150857367818235]], [[0.21508687089976627, -0.21508687089976547]], [[0.21508798279861582, -0.21508798279861502]], [[0.2150890729136843, -0.21508907291368345]], [[0.21509014167175428, -0.21509014167175344]], [[0.2150911894912467, -0.21509118949124587]], [[0.21509221678238474, -0.2150922167823839]], [[0.21509322394735444, -0.2150932239473535]], [[0.21509421138046203, -0.2150942113804611]], [[0.21509517946828843, -0.21509517946828752]], [[0.21509612858984073, -0.21509612858983979]], [[0.21509705911670035, -0.2150970591166994]], [[0.21509797141316872, -0.21509797141316778]], [[0.21509886583640977, -0.2150988658364088]], [[0.21509974273658983, -0.21509974273658894]], [[0.2151006024570149, -0.215100602457014]], [[0.2151014453342647, -0.21510144533426384]], [[0.2151022716983248, -0.21510227169832394]], [[0.21510308187271565, -0.21510308187271476]], [[0.2151038761746193, -0.21510387617461846]], [[0.21510465491500358, -0.2151046549150027]], [[0.2151054183987438, -0.21510541839874286]], [[0.21510616692474216, -0.21510616692474122]], [[0.2151069007860448, -0.2151069007860439]], [[0.2151076202699566, -0.2151076202699557]], [[0.2151083256581534, -0.2151083256581525]], [[0.21510901722679265, -0.21510901722679182]], [[0.21510969524662132, -0.2151096952466205]], [[0.21511035998308184, -0.21511035998308098]], [[0.21511101169641628, -0.21511101169641542]], [[0.21511165064176788, -0.21511165064176702]], [[0.21511227706928127, -0.21511227706928043]], [[0.21511289122420035, -0.21511289122419952]], [[0.2151134933469641, -0.21511349334696328]], [[0.215114083673301, -0.2151140836733001]], [[0.21511466243432104, -0.21511466243432015]], [[0.2151152298566065, -0.21511522985660558]], [[0.21511578616230037, -0.21511578616229948]], [[0.21511633156919358, -0.21511633156919274]], [[0.21511686629081012, -0.21511686629080928]], [[0.21511739053649065, -0.21511739053648982]], [[0.2151179045114744, -0.2151179045114736]], [[0.2151184084169797, -0.21511840841697896]], [[0.21511890245028284, -0.21511890245028203]], [[0.2151193868047948, -0.215119386804794]], [[0.21511986167013752, -0.2151198616701366]], [[0.21512032723221775, -0.2151203272322168]], [[0.21512078367330015, -0.21512078367329918]], [[0.21512123117207851, -0.2151212311720776]], [[0.21512166990374568, -0.21512166990374482]], [[0.21512210004006216, -0.21512210004006138]], [[0.21512252174942348, -0.21512252174942276]], [[0.21512293519692594, -0.2151229351969252]], [[0.21512334054443133, -0.21512334054443055]], [[0.2151237379506303, -0.2151237379506295]], [[0.21512412757110444, -0.2151241275711036]], [[0.21512450955838738, -0.21512450955838655]], [[0.2151248840620243, -0.21512488406202346]], [[0.21512525122863055, -0.21512525122862963]], [[0.21512561120194906, -0.21512561120194812]], [[0.21512596412290658, -0.2151259641229056]], [[0.21512631012966882, -0.21512631012966793]], [[0.21512664935769488, -0.215126649357694]], [[0.21512698193978966, -0.21512698193978874]], [[0.2151273080061564, -0.21512730800615543]], [[0.21512762768444738, -0.21512762768444638]], [[0.215127941099814, -0.215127941099813]], [[0.21512824837495576, -0.2151282483749547]], [[0.21512854963016823, -0.21512854963016725]], [[0.21512884498339035, -0.21512884498338936]], [[0.21512913455025034, -0.21512913455024935]], [[0.215129418444111, -0.21512941844410993]], [[0.21512969677611438, -0.2151296967761133]], [[0.2151299696552249, -0.21512996965522385]], [[0.2151302371882724, -0.2151302371882714]], [[0.2151304994799936, -0.21513049947999258]], [[0.2151307566330734, -0.2151307566330723]], [[0.21513100874818478, -0.21513100874818358]], [[0.21513125592402857, -0.21513125592402726]], [[0.2151314982573717, -0.21513149825737038]], [[0.21513173584308548, -0.21513173584308412]], [[0.21513196877418245, -0.21513196877418111]], [[0.2151321971418529, -0.21513219714185156]], [[0.21513242103550062, -0.21513242103549932]], [[0.2151326405427778, -0.2151326405427765]], [[0.21513285574961946, -0.21513285574961816]], [[0.215133066740277, -0.21513306674027569]], [[0.21513327359735107, -0.2151332735973498]], [[0.21513347640182434, -0.21513347640182306]], [[0.21513367523309268, -0.21513367523309138]], [[0.21513387016899654, -0.2151338701689952]], [[0.21513406128585139, -0.21513406128585005]], [[0.21513424865847752, -0.21513424865847625]], [[0.21513443236022942, -0.21513443236022814]], [[0.21513461246302448, -0.21513461246302323]], [[0.21513478903737115, -0.21513478903736985]], [[0.21513496215239641, -0.21513496215239508]], [[0.21513513187587302, -0.21513513187587163]], [[0.21513529827424596, -0.2151352982742446]], [[0.2151354614126584, -0.21513546141265705]], [[0.21513562135497738, -0.2151356213549761]], [[0.21513577816381868, -0.21513577816381746]], [[0.21513593190057126, -0.21513593190057007]], [[0.21513608262542144, -0.21513608262542028]], [[0.2151362303973764, -0.21513623039737523]], [[0.21513637527428736, -0.2151363752742862]], [[0.21513651731287198, -0.2151365173128708]], [[0.21513665656873684, -0.21513665656873568]], [[0.2151367930963992, -0.21513679309639802]], [[0.21513692694930803, -0.2151369269493068]], [[0.2151370581798654, -0.21513705817986412]], [[0.21513718683944655, -0.2151371868394453]], [[0.21513731297842037, -0.21513731297841915]], [[0.21513743664616888, -0.21513743664616766]], [[0.2151375578911066, -0.2151375578911054]], [[0.2151376767606996, -0.2151376767606984]], [[0.21513779330148403, -0.21513779330148286]], [[0.21513790755908435, -0.21513790755908313]], [[0.215138019578231, -0.21513801957822984]], [[0.21513812940277838, -0.2151381294027772]], [[0.21513823707572155, -0.21513823707572038]], [[0.21513834263921314, -0.21513834263921197]], [[0.21513844613458027, -0.2151384461345791]], [[0.21513854760234002, -0.2151385476023388]], [[0.2151386470822159, -0.2151386470822147]], [[0.21513874461315324, -0.21513874461315208]], [[0.21513884023333418, -0.21513884023333302]], [[0.21513893398019307, -0.21513893398019188]], [[0.21513902589043066, -0.21513902589042944]], [[0.21513911600002877, -0.21513911600002755]], [[0.21513920434426426, -0.21513920434426298]], [[0.21513929095772283, -0.21513929095772155]], [[0.21513937587431278, -0.2151393758743115]], [[0.21513945912727794, -0.21513945912727656]], [[0.21513954074921085, -0.21513954074920943]], [[0.21513962077206544, -0.2151396207720641]], [[0.21513969922716986, -0.21513969922716858]], [[0.21513977614523844, -0.2151397761452371]], [[0.2151398515563836, -0.2151398515563822]], [[0.2151399254901279, -0.2151399254901265]], [[0.21513999797541555, -0.21513999797541417]], [[0.21514006904062374, -0.21514006904062238]], [[0.21514013871357368, -0.21514013871357238]], [[0.2151402070215415, -0.2151402070215402]], [[0.21514027399126892, -0.21514027399126767]], [[0.21514033964897378, -0.2151403396489726]], [[0.21514040402036033, -0.21514040402035922]], [[0.21514046713062926, -0.21514046713062815]], [[0.2151405290044875, -0.21514052900448638]], [[0.21514058966615784, -0.2151405896661568]], [[0.21514064913938863, -0.21514064913938763]], [[0.215140707447463, -0.215140707447462]], [[0.21514076461320775, -0.21514076461320678]], [[0.2151408206590027, -0.21514082065900175]], [[0.2151408756067891, -0.21514087560678818]], [[0.21514092947807834, -0.21514092947807736]], [[0.21514098229396034, -0.21514098229395934]], [[0.21514103407511181, -0.21514103407511087]], [[0.2151410848418046, -0.21514108484180366]], [[0.2151411346139132, -0.21514113461391227]], [[0.21514118341092286, -0.21514118341092192]], [[0.21514123125193696, -0.215141231251936]], [[0.21514127815568468, -0.21514127815568368]], [[0.21514132414052833, -0.21514132414052722]], [[0.21514136922447025, -0.2151413692244692]], [[0.2151414134251604, -0.21514141342515938]], [[0.21514145675990282, -0.21514145675990176]], [[0.21514149924566245, -0.2151414992456614]], [[0.21514154089907206, -0.21514154089907098]], [[0.21514158173643838, -0.21514158173643722]], [[0.2151416217737488, -0.21514162177374763]], [[0.21514166102667737, -0.2151416610266762]], [[0.2151416995105912, -0.21514169951059]], [[0.2151417372405562, -0.21514173724055502]], [[0.21514177423134326, -0.21514177423134206]], [[0.21514181049743378, -0.21514181049743258]], [[0.21514184605302553, -0.2151418460530244]], [[0.21514188091203804, -0.2151418809120369]], [[0.2151419150881182, -0.2151419150881171]], [[0.21514194859464558, -0.21514194859464447]], [[0.2151419814447375, -0.21514198144473645]], [[0.21514201365125446, -0.21514201365125335]], [[0.2151420452268048, -0.21514204522680375]], [[0.21514207618375003, -0.215142076183749]], [[0.21514210653420945, -0.21514210653420834]], [[0.21514213629006482, -0.2151421362900637]], [[0.21514216546296522, -0.21514216546296416]], [[0.2151421940643315, -0.21514219406433038]], [[0.21514222210536074, -0.21514222210535955]], [[0.21514224959703065, -0.21514224959702938]], [[0.21514227655010382, -0.2151422765501026]], [[0.21514230297513212, -0.2151423029751309]], [[0.2151423288824606, -0.21514232888245943]], [[0.21514235428223166, -0.2151423542822305]], [[0.215142379184389, -0.21514237918438786]], [[0.21514240359868148, -0.21514240359868034]], [[0.215142427534667, -0.2151424275346659]], [[0.21514245100171622, -0.21514245100171508]], [[0.21514247400901626, -0.2151424740090151]], [[0.21514249656557408, -0.21514249656557294]], [[0.21514251868022033, -0.2151425186802192]], [[0.21514254036161262, -0.2151425403616115]], [[0.21514256161823897, -0.2151425616182379]], [[0.21514258245842113, -0.21514258245842005]], [[0.21514260289031772, -0.21514260289031653]], [[0.2151426229219275, -0.21514262292192632]], [[0.21514264256109272, -0.21514264256109147]], [[0.2151426618155018, -0.21514266181550054]], [[0.21514268069269255, -0.21514268069269127]], [[0.21514269920005524, -0.215142699200054]], [[0.2151427173448353, -0.21514271734483403]], [[0.21514273513413618, -0.21514273513413484]], [[0.21514275257492205, -0.21514275257492071]], [[0.21514276967402085, -0.21514276967401955]], [[0.21514278643812662, -0.21514278643812537]], [[0.21514280287380239, -0.2151428028738011]], [[0.2151428189874824, -0.21514281898748108]], [[0.21514283478547508, -0.21514283478547375]], [[0.21514285027396507, -0.21514285027396368]], [[0.21514286545901595, -0.21514286545901457]], [[0.21514288034657242, -0.21514288034657109]], [[0.21514289494246286, -0.2151428949424615]], [[0.21514290925240126, -0.21514290925239987]], [[0.21514292328198995, -0.21514292328198859]], [[0.21514293703672122, -0.21514293703671986]], [[0.21514295052197988, -0.21514295052197854]], [[0.21514296374304526, -0.21514296374304387]], [[0.2151429767050933, -0.21514297670509186]], [[0.21514298941319832, -0.21514298941319687]], [[0.21514300187233554, -0.21514300187233404]], [[0.21514301408738248, -0.21514301408738096]], [[0.21514302606312122, -0.2151430260631197]], [[0.21514303780424004, -0.2151430378042385]], [[0.21514304931533557, -0.21514304931533396]], [[0.21514306060091412, -0.21514306060091248]], [[0.21514307166539387, -0.2151430716653923]], [[0.21514308251310651, -0.21514308251310493]], [[0.21514309314829871, -0.21514309314829716]], [[0.21514310357513405, -0.21514310357513253]], [[0.21514311379769457, -0.21514311379769302]], [[0.21514312381998207, -0.21514312381998058]], [[0.21514313364592041, -0.2151431336459189]], [[0.21514314327935613, -0.2151431432793546]], [[0.21514315272406065, -0.21514315272405915]], [[0.21514316198373148, -0.21514316198373]], [[0.21514317106199365, -0.2151431710619922]], [[0.2151431799624012, -0.21514317996239973]], [[0.21514318868843854, -0.21514318868843707]], [[0.21514319724352168, -0.21514319724352032]], [[0.21514320563099998, -0.2151432056309986]], [[0.21514321385415702, -0.21514321385415552]], [[0.21514322191621202, -0.21514322191621046]], [[0.21514322982032108, -0.21514322982031953]], [[0.2151432375695787, -0.21514323756957712]], [[0.2151432451670186, -0.215143245167017]], [[0.215143252615615, -0.21514325261561337]], [[0.21514325991828406, -0.21514325991828237]], [[0.21514326707788456, -0.21514326707788287]], [[0.2151432740972194, -0.21514327409721773]], [[0.2151432809790366, -0.21514328097903498]], [[0.21514328772603034, -0.2151432877260287]], [[0.2151432943408419, -0.21514329434084023]], [[0.21514330082606103, -0.21514330082605926]], [[0.21514330718422647, -0.21514330718422464]], [[0.2151433134178274, -0.21514331341782555]], [[0.2151433195293042, -0.21514331952930243]], [[0.21514332552104942, -0.21514332552104767]], [[0.2151433313954088, -0.21514333139540706]], [[0.21514333715468204, -0.21514333715468037]], [[0.21514334280112385, -0.2151433428011222]], [[0.21514334833694476, -0.2151433483369431]], [[0.21514335376431193, -0.2151433537643102]], [[0.2151433590853501, -0.21514335908534837]], [[0.21514336430214248, -0.2151433643021407]], [[0.2151433694167313, -0.21514336941672949]], [[0.2151433744311188, -0.21514337443111703]], [[0.21514337934726813, -0.2151433793472664]], [[0.21514338416710388, -0.21514338416710216]], [[0.21514338889251294, -0.21514338889251122]], [[0.2151433935253453, -0.21514339352534362]], [[0.21514339806741456, -0.2151433980674129]], [[0.21514340252049902, -0.21514340252049735]], [[0.21514340688634187, -0.2151434068863402]], [[0.21514341116665242, -0.21514341116665076]], [[0.21514341536310622, -0.21514341536310452]], [[0.21514341947734622, -0.21514341947734456]], [[0.21514342351098303, -0.21514342351098134]], [[0.2151434274655958, -0.21514342746559412]], [[0.21514343134273273, -0.21514343134273095]], [[0.21514343514391165, -0.21514343514390996]], [[0.2151434388706207, -0.215143438870619]], [[0.21514344252431875, -0.21514344252431708]], [[0.21514344610643632, -0.21514344610643465]], [[0.21514344961837564, -0.21514344961837395]], [[0.2151434530615116, -0.21514345306150992]], [[0.21514345643719218, -0.21514345643719054]], [[0.21514345974673899, -0.21514345974673732]], [[0.21514346299144754, -0.2151434629914459]], [[0.21514346617258812, -0.21514346617258645]], [[0.21514346929140618, -0.21514346929140454]], [[0.21514347234912262, -0.215143472349121]], [[0.21514347534693457, -0.21514347534693296]], [[0.21514347828601552, -0.21514347828601388]], [[0.21514348116751622, -0.2151434811675146]], [[0.21514348399256472, -0.2151434839925631]], [[0.21514348676226694, -0.21514348676226536]], [[0.21514348947770717, -0.21514348947770562]], [[0.2151434921399485, -0.21514349213994693]], [[0.2151434947500331, -0.21514349475003164]], [[0.21514349730898286, -0.21514349730898144]], [[0.21514349981779962, -0.21514349981779823]], [[0.21514350227746554, -0.2151435022774641]], [[0.2151435046889434, -0.21514350468894192]], [[0.2151435070531774, -0.2151435070531759]], [[0.21514350937109306, -0.2151435093710916]], [[0.21514351164359785, -0.21514351164359638]], [[0.21514351387158132, -0.21514351387157993]], [[0.21514351605591583, -0.21514351605591447]], [[0.2151435181974565, -0.2151435181974551]], [[0.21514352029704165, -0.21514352029704029]], [[0.21514352235549328, -0.2151435223554919]], [[0.21514352437361728, -0.21514352437361584]], [[0.21514352635220363, -0.21514352635220219]], [[0.21514352829202696, -0.21514352829202552]], [[0.21514353019384677, -0.21514353019384533]], [[0.21514353205840753, -0.21514353205840608]], [[0.2151435338864392, -0.2151435338864377]], [[0.21514353567865732, -0.2151435356786558]], [[0.2151435374357637, -0.21514353743576214]], [[0.21514353915844614, -0.21514353915844459]], [[0.21514354084737905, -0.21514354084737747]], [[0.2151435425032236, -0.21514354250322204]], [[0.2151435441266281, -0.21514354412662653]], [[0.21514354571822808, -0.21514354571822653]], [[0.21514354727864662, -0.21514354727864501]], [[0.2151435488084945, -0.21514354880849293]], [[0.2151435503083708, -0.21514355030836918]], [[0.2151435517788626, -0.21514355177886102]], [[0.21514355322054562, -0.215143553220544]], [[0.21514355463398427, -0.2151435546339826]], [[0.2151435560197318, -0.21514355601973018]], [[0.2151435573783308, -0.2151435573783292]], [[0.21514355871031318, -0.2151435587103116]], [[0.21514356001620033, -0.21514356001619878]], [[0.21514356129650347, -0.21514356129650195]], [[0.21514356255172384, -0.21514356255172234]], [[0.21514356378235294, -0.21514356378235142]], [[0.21514356498887244, -0.2151435649888709]], [[0.21514356617175467, -0.21514356617175312]], [[0.21514356733146273, -0.21514356733146117]], [[0.21514356846845062, -0.21514356846844906]], [[0.21514356958316355, -0.21514356958316194]], [[0.21514357067603787, -0.21514357067603623]], [[0.21514357174750134, -0.2151435717474997]], [[0.21514357279797353, -0.21514357279797186]], [[0.21514357382786564, -0.21514357382786387]], [[0.21514357483758084, -0.21514357483757907]], [[0.21514357582751442, -0.21514357582751267]], [[0.21514357679805401, -0.21514357679805227]], [[0.21514357774957943, -0.21514357774957768]], [[0.2151435786824633, -0.21514357868246153]], [[0.21514357959707084, -0.21514357959706912]], [[0.21514358049376, -0.21514358049375829]], [[0.21514358137288186, -0.21514358137288025]], [[0.21514358223478067, -0.21514358223477908]], [[0.2151435830797938, -0.21514358307979226]], [[0.21514358390825206, -0.2151435839082505]], [[0.21514358472047973, -0.21514358472047826]], [[0.2151435855167949, -0.21514358551679347]], [[0.21514358629750918, -0.2151435862975078]], [[0.21514358706292827, -0.2151435870629269]], [[0.2151435878133519, -0.21514358781335052]], [[0.2151435885490738, -0.2151435885490724]], [[0.21514358927038202, -0.21514358927038058]], [[0.21514358997755878, -0.2151435899775574]], [[0.21514359067088107, -0.2151435906708797]], [[0.2151435913506204, -0.215143591350619]], [[0.21514359201704272, -0.2151435920170413]], [[0.215143592670409, -0.21514359267040756]], [[0.21514359331097502, -0.21514359331097357]], [[0.21514359393899152, -0.21514359393899007]], [[0.2151435945547044, -0.21514359455470286]], [[0.21514359515835463, -0.2151435951583531]], [[0.21514359575017855, -0.2151435957501771]], [[0.215143596330408, -0.21514359633040658]], [[0.21514359689926993, -0.2151435968992686]], [[0.21514359745698716, -0.21514359745698589]], [[0.21514359800377808, -0.21514359800377675]], [[0.21514359853985665, -0.21514359853985526]], [[0.2151435990654328, -0.21514359906543137]], [[0.21514359958071222, -0.21514359958071078]], [[0.21514360008589667, -0.21514360008589517]], [[0.21514360058118387, -0.21514360058118237]], [[0.21514360106676783, -0.21514360106676633]], [[0.21514360154283854, -0.21514360154283707]], [[0.21514360200958238, -0.21514360200958096]], [[0.21514360246718223, -0.21514360246718078]], [[0.21514360291581702, -0.21514360291581563]], [[0.21514360335566252, -0.21514360335566116]], [[0.2151436037868909, -0.21514360378688946]], [[0.21514360420967105, -0.2151436042096695]], [[0.21514360462416832, -0.2151436046241668]], [[0.21514360503054508, -0.21514360503054353]], [[0.21514360542896035, -0.21514360542895886]], [[0.2151436058195702, -0.21514360581956873]], [[0.2151436062025275, -0.21514360620252607]], [[0.21514360657798226, -0.21514360657798076]], [[0.21514360694608137, -0.2151436069460798]], [[0.2151436073069689, -0.21514360730696735]], [[0.21514360766078622, -0.21514360766078464]], [[0.21514360800767174, -0.21514360800767018]], [[0.21514360834776136, -0.2151436083477598]], [[0.2151436086811882, -0.21514360868118665]], [[0.21514360900808285, -0.21514360900808127]], [[0.2151436093285732, -0.21514360932857163]], [[0.21514360964278467, -0.21514360964278312]], [[0.21514360995084042, -0.2151436099508389]], [[0.21514361025286094, -0.21514361025285947]], [[0.21514361054896453, -0.21514361054896303]], [[0.21514361083926697, -0.21514361083926553]], [[0.21514361112388217, -0.21514361112388067]], [[0.21514361140292132, -0.21514361140291982]], [[0.21514361167649376, -0.21514361167649226]], [[0.21514361194470652, -0.21514361194470505]], [[0.2151436122076647, -0.21514361220766323]], [[0.21514361246547117, -0.21514361246546965]], [[0.2151436127182269, -0.2151436127182254]], [[0.21514361296603085, -0.21514361296602938]], [[0.21514361320898, -0.2151436132089785]], [[0.21514361344716942, -0.21514361344716798]], [[0.2151436136806924, -0.21514361368069101]], [[0.21514361390964037, -0.21514361390963904]], [[0.215143614134103, -0.21514361413410168]], [[0.21514361435416812, -0.2151436143541668]], [[0.21514361456992193, -0.21514361456992054]], [[0.21514361478144886, -0.21514361478144745]], [[0.21514361498883172, -0.21514361498883022]], [[0.21514361519215164, -0.21514361519215008]], [[0.2151436153914882, -0.21514361539148666]], [[0.21514361558691958, -0.21514361558691802]], [[0.2151436157785222, -0.21514361577852065]], [[0.2151436159663711, -0.21514361596636955]], [[0.21514361615053978, -0.21514361615053823]], [[0.21514361633110035, -0.21514361633109885]], [[0.21514361650812347, -0.21514361650812203]], [[0.21514361668167858, -0.21514361668167709]], [[0.21514361685183345, -0.215143616851832]], [[0.21514361701865475, -0.21514361701865342]], [[0.21514361718220787, -0.21514361718220654]], [[0.2151436173425568, -0.2151436173425555]], [[0.21514361749976424, -0.2151436174997629]], [[0.21514361765389184, -0.2151436176538905]], [[0.21514361780499988, -0.21514361780499847]], [[0.21514361795314754, -0.2151436179531461]], [[0.21514361809839277, -0.21514361809839133]], [[0.21514361824079245, -0.21514361824079098]], [[0.21514361838040233, -0.21514361838040091]], [[0.2151436185172771, -0.21514361851727565]], [[0.2151436186514703, -0.21514361865146886]], [[0.2151436187830345, -0.21514361878303306]], [[0.2151436189120212, -0.21514361891201975]], [[0.21514361903848087, -0.2151436190384794]], [[0.215143619162463, -0.21514361916246158]], [[0.2151436192840162, -0.21514361928401474]], [[0.215143619403188, -0.21514361940318655]], [[0.2151436195200251, -0.21514361952002362]], [[0.21514361963457318, -0.2151436196345717]], [[0.21514361974687712, -0.21514361974687563]], [[0.215143619856981, -0.21514361985697944]], [[0.2151436199649277, -0.21514361996492612]], [[0.2151436200707596, -0.21514362007075805]], [[0.2151436201745181, -0.21514362017451663]], [[0.2151436202762439, -0.2151436202762424]], [[0.21514362037597676, -0.21514362037597518]], [[0.21514362047375574, -0.2151436204737541]], [[0.21514362056961905, -0.21514362056961742]], [[0.2151436206636043, -0.21514362066360262]], [[0.21514362075574833, -0.2151436207557466]], [[0.21514362084608707, -0.21514362084608535]], [[0.21514362093465594, -0.21514362093465422]], [[0.21514362102148968, -0.21514362102148799]], [[0.21514362110662227, -0.21514362110662053]], [[0.2151436211900869, -0.21514362119008518]], [[0.21514362127191639, -0.21514362127191472]], [[0.21514362135214277, -0.21514362135214105]], [[0.21514362143079735, -0.21514362143079563]], [[0.21514362150791103, -0.21514362150790936]], [[0.21514362158351397, -0.2151436215835123]], [[0.21514362165763573, -0.2151436216576341]], [[0.21514362173030538, -0.21514362173030366]], [[0.21514362180155133, -0.2151436218015496]], [[0.21514362187140146, -0.21514362187139974]], [[0.21514362193988318, -0.21514362193988146]], [[0.21514362200702322, -0.21514362200702147]], [[0.21514362207284787, -0.21514362207284615]], [[0.21514362213738303, -0.2151436221373812]], [[0.2151436222006538, -0.21514362220065197]], [[0.21514362226268502, -0.21514362226268316]], [[0.21514362232350098, -0.2151436223234991]], [[0.21514362238312545, -0.21514362238312362]], [[0.2151436224415818, -0.21514362244157997]], [[0.2151436224988929, -0.21514362249889113]], [[0.21514362255508127, -0.2151436225550794]], [[0.21514362261016878, -0.2151436226101669]], [[0.21514362266417708, -0.2151436226641752]], [[0.21514362271712728, -0.21514362271712545]], [[0.2151436227690401, -0.2151436227690383]], [[0.2151436228199359, -0.21514362281993415]], [[0.2151436228698346, -0.2151436228698328]], [[0.21514362291875572, -0.21514362291875389]], [[0.2151436229667184, -0.21514362296671655]], [[0.21514362301374146, -0.21514362301373963]], [[0.21514362305984322, -0.21514362305984144]], [[0.21514362310504181, -0.21514362310504004]], [[0.21514362314935487, -0.21514362314935315]], [[0.21514362319279984, -0.2151436231927982]], [[0.21514362323539366, -0.215143623235392]], [[0.21514362327715297, -0.21514362327715134]], [[0.21514362331809422, -0.2151436233180926]], [[0.21514362335823342, -0.21514362335823178]], [[0.2151436233975861, -0.21514362339758453]], [[0.21514362343616794, -0.21514362343616641]], [[0.21514362347399385, -0.2151436234739923]], [[0.21514362351107874, -0.21514362351107713]], [[0.21514362354743707, -0.21514362354743546]], [[0.21514362358308312, -0.21514362358308148]], [[0.21514362361803074, -0.21514362361802913]], [[0.21514362365229378, -0.21514362365229217]], [[0.21514362368588555, -0.2151436236858839]], [[0.2151436237188192, -0.21514362371881762]], [[0.21514362375110763, -0.21514362375110613]], [[0.21514362378276353, -0.21514362378276197]], [[0.2151436238137992, -0.21514362381379765]], [[0.21514362384422686, -0.2151436238442253]], [[0.21514362387405842, -0.2151436238740568]], [[0.2151436239033055, -0.21514362390330394]], [[0.2151436239319796, -0.21514362393197806]], [[0.2151436239600919, -0.21514362396009035]], [[0.2151436239876535, -0.215143623987652]], [[0.21514362401467513, -0.21514362401467363]], [[0.2151436240411674, -0.21514362404116588]], [[0.2151436240671406, -0.2151436240671391]], [[0.21514362409260496, -0.21514362409260346]], [[0.2151436241175705, -0.215143624117569]], [[0.21514362414204688, -0.21514362414204535]], [[0.21514362416604377, -0.2151436241660422]], [[0.21514362418957053, -0.215143624189569]], [[0.21514362421263636, -0.21514362421263483]], [[0.2151436242352503, -0.2151436242352488]], [[0.21514362425742117, -0.21514362425741967]], [[0.21514362427915773, -0.21514362427915623]], [[0.21514362430046846, -0.21514362430046693]], [[0.21514362432136167, -0.21514362432136014]], [[0.21514362434184553, -0.21514362434184398]], [[0.21514362436192808, -0.21514362436192652]], [[0.2151436243816172, -0.21514362438161566]], [[0.21514362440092058, -0.21514362440091905]], [[0.21514362441984575, -0.21514362441984425]], [[0.21514362443840018, -0.21514362443839868]], [[0.21514362445659113, -0.2151436244565896]], [[0.21514362447442564, -0.21514362447442417]], [[0.21514362449191077, -0.21514362449190935]], [[0.2151436245090534, -0.21514362450905195]], [[0.2151436245258601, -0.2151436245258586]], [[0.2151436245423376, -0.21514362454233607]], [[0.21514362455849229, -0.2151436245584908]], [[0.2151436245743305, -0.215143624574329]], [[0.21514362458985836, -0.21514362458985692]], [[0.21514362460508202, -0.21514362460508063]], [[0.2151436246200074, -0.2151436246200061]], [[0.21514362463464043, -0.21514362463463915]], [[0.21514362464898681, -0.2151436246489855]], [[0.2151436246630521, -0.21514362466305076]], [[0.21514362467684178, -0.2151436246768405]], [[0.2151436246903613, -0.21514362469036008]], [[0.21514362470361603, -0.2151436247036148]], [[0.21514362471661103, -0.2151436247166098]], [[0.21514362472935147, -0.21514362472935022]], [[0.2151436247418423, -0.2151436247418411]], [[0.2151436247540884, -0.21514362475408716]], [[0.2151436247660946, -0.2151436247660934]], [[0.2151436247778656, -0.21514362477786436]], [[0.21514362478940594, -0.21514362478940474]], [[0.21514362480072013, -0.21514362480071905]], [[0.21514362481181282, -0.2151436248118117]], [[0.21514362482268806, -0.21514362482268698]], [[0.21514362483335037, -0.21514362483334926]], [[0.2151436248438037, -0.21514362484380256]], [[0.2151436248540523, -0.2151436248540512]], [[0.21514362486410005, -0.215143624864099]], [[0.21514362487395092, -0.2151436248739499]], [[0.21514362488360883, -0.21514362488360786]], [[0.21514362489307756, -0.2151436248930766]], [[0.2151436249023608, -0.21514362490235983]], [[0.2151436249114621, -0.21514362491146113]], [[0.21514362492038516, -0.21514362492038414]], [[0.2151436249291334, -0.2151436249291324]], [[0.21514362493771022, -0.21514362493770928]], [[0.215143624946119, -0.21514362494611813]], [[0.21514362495436312, -0.21514362495436223]], [[0.21514362496244568, -0.21514362496244477]], [[0.21514362497036987, -0.21514362497036899]], [[0.21514362497813877, -0.21514362497813794]], [[0.21514362498575554, -0.21514362498575468]], [[0.2151436249932231, -0.2151436249932222]], [[0.21514362500054435, -0.2151436250005435]], [[0.2151436250077222, -0.21514362500772133]], [[0.21514362501475937, -0.21514362501475853]], [[0.21514362502165874, -0.21514362502165785]], [[0.21514362502842288, -0.215143625028422]], [[0.21514362503505452, -0.21514362503505363]], [[0.21514362504155626, -0.21514362504155532]], [[0.2151436250479306, -0.2151436250479297]], [[0.21514362505418003, -0.2151436250541791]], [[0.21514362506030704, -0.2151436250603062]], [[0.21514362506631401, -0.21514362506631318]], [[0.21514362507220328, -0.2151436250722025]], [[0.21514362507797719, -0.21514362507797644]], [[0.215143625083638, -0.2151436250836372]], [[0.2151436250891879, -0.2151436250891872]], [[0.2151436250946291, -0.21514362509462834]], [[0.21514362509996365, -0.21514362509996288]], [[0.21514362510519364, -0.21514362510519291]], [[0.21514362511032126, -0.21514362511032048]], [[0.21514362511534843, -0.21514362511534763]], [[0.2151436251202771, -0.21514362512027627]], [[0.2151436251251091, -0.21514362512510837]], [[0.21514362512984653, -0.2151436251298458]], [[0.21514362513449115, -0.21514362513449045]], [[0.21514362513904478, -0.21514362513904403]], [[0.21514362514350927, -0.2151436251435084]], [[0.21514362514788618, -0.21514362514788538]], [[0.21514362515217744, -0.21514362515217655]], [[0.21514362515638458, -0.21514362515638374]], [[0.21514362516050933, -0.21514362516050847]], [[0.21514362516455318, -0.21514362516455232]], [[0.21514362516851782, -0.21514362516851698]], [[0.21514362517240482, -0.21514362517240398]], [[0.21514362517621566, -0.21514362517621485]], [[0.21514362517995184, -0.21514362517995103]], [[0.21514362518361477, -0.215143625183614]], [[0.21514362518720603, -0.2151436251872052]], [[0.2151436251907269, -0.2151436251907261]], [[0.2151436251941788, -0.21514362519417796]], [[0.21514362519756308, -0.21514362519756225]], [[0.2151436252008811, -0.21514362520088015]], [[0.21514362520413405, -0.2151436252041331]], [[0.2151436252073233, -0.2151436252073224]], [[0.21514362521045005, -0.21514362521044916]], [[0.21514362521351554, -0.21514362521351466]], [[0.21514362521652097, -0.21514362521652008]], [[0.21514362521946756, -0.21514362521946667]], [[0.21514362522235636, -0.21514362522235547]], [[0.2151436252251886, -0.2151436252251877]], [[0.21514362522796532, -0.2151436252279644]], [[0.2151436252306877, -0.21514362523068675]], [[0.21514362523335676, -0.21514362523335573]], [[0.2151436252359735, -0.21514362523597247]], [[0.21514362523853897, -0.21514362523853797]], [[0.2151436252410542, -0.2151436252410532]], [[0.21514362524352007, -0.21514362524351904]], [[0.21514362524593775, -0.21514362524593675]], [[0.215143625248308, -0.215143625248307]], [[0.21514362525063177, -0.21514362525063074]], [[0.2151436252529101, -0.21514362525290903]], [[0.2151436252551438, -0.2151436252551427]], [[0.2151436252573337, -0.2151436252573326]], [[0.21514362525948064, -0.2151436252594796]], [[0.2151436252615856, -0.21514362526158454]], [[0.21514362526364927, -0.21514362526364822]], [[0.21514362526567252, -0.21514362526567152]], [[0.21514362526765612, -0.21514362526765515]], [[0.2151436252696009, -0.21514362526959996]], [[0.2151436252715076, -0.2151436252715066]], [[0.21514362527337685, -0.21514362527337588]], [[0.21514362527520953, -0.21514362527520853]], [[0.21514362527700628, -0.2151436252770053]], [[0.2151436252787678, -0.2151436252787669]], [[0.21514362528049483, -0.21514362528049402]], [[0.215143625282188, -0.2151436252821872]], [[0.21514362528384812, -0.21514362528384728]], [[0.21514362528547568, -0.21514362528547487]], [[0.2151436252870713, -0.21514362528707048]], [[0.2151436252886357, -0.2151436252886349]], [[0.21514362529016942, -0.21514362529016864]], [[0.21514362529167308, -0.21514362529167236]], [[0.21514362529314732, -0.21514362529314657]], [[0.2151436252945927, -0.21514362529459197]], [[0.2151436252960097, -0.21514362529600894]], [[0.215143625297399, -0.21514362529739822]], [[0.21514362529876108, -0.21514362529876027]], [[0.21514362530009642, -0.21514362530009565]], [[0.2151436253014056, -0.21514362530140485]], [[0.21514362530268916, -0.2151436253026884]], [[0.21514362530394762, -0.21514362530394676]], [[0.21514362530518139, -0.21514362530518055]], [[0.21514362530639097, -0.21514362530639008]], [[0.21514362530757686, -0.21514362530757597]], [[0.2151436253087395, -0.2151436253087387]], [[0.21514362530987932, -0.21514362530987857]], [[0.21514362531099687, -0.21514362531099612]], [[0.21514362531209252, -0.21514362531209177]], [[0.21514362531316672, -0.21514362531316597]], [[0.21514362531421988, -0.21514362531421916]], [[0.21514362531525238, -0.21514362531525172]], [[0.21514362531626466, -0.215143625316264]], [[0.21514362531725717, -0.21514362531725642]], [[0.21514362531823017, -0.21514362531822942]], [[0.21514362531918413, -0.21514362531918338]], [[0.21514362532011938, -0.2151436253201186]], [[0.2151436253210363, -0.21514362532103554]], [[0.21514362532193532, -0.21514362532193454]], [[0.21514362532281672, -0.21514362532281586]], [[0.2151436253236808, -0.21514362532367998]], [[0.21514362532452797, -0.2151436253245272]], [[0.21514362532535847, -0.21514362532535772]], [[0.2151436253261727, -0.21514362532617198]], [[0.21514362532697107, -0.21514362532697034]], [[0.21514362532775377, -0.21514362532775308]], [[0.21514362532852116, -0.2151436253285205]], [[0.2151436253292735, -0.2151436253292729]], [[0.21514362533001105, -0.2151436253300104]], [[0.21514362533073422, -0.21514362533073356]], [[0.2151436253314432, -0.21514362533144252]], [[0.21514362533213832, -0.2151436253321376]], [[0.21514362533281972, -0.21514362533281906]], [[0.21514362533348785, -0.21514362533348724]], [[0.21514362533414286, -0.21514362533414227]], [[0.21514362533478507, -0.21514362533478448]], [[0.21514362533541467, -0.21514362533541412]], [[0.21514362533603193, -0.21514362533603137]], [[0.2151436253366371, -0.21514362533663656]], [[0.21514362533723042, -0.21514362533722986]], [[0.21514362533781212, -0.21514362533781156]], [[0.2151436253383825, -0.21514362533838183]], [[0.2151436253389416, -0.21514362533894094]], [[0.21514362533948977, -0.2151436253394891]], [[0.2151436253400272, -0.21514362534002657]], [[0.2151436253405541, -0.21514362534055342]], [[0.21514362534107068, -0.21514362534107004]], [[0.21514362534157716, -0.21514362534157652]], [[0.2151436253420737, -0.2151436253420731]], [[0.21514362534256054, -0.2151436253425599]], [[0.21514362534303783, -0.21514362534303716]], [[0.21514362534350576, -0.21514362534350506]], [[0.21514362534396453, -0.21514362534396386]], [[0.21514362534441434, -0.21514362534441364]], [[0.21514362534485526, -0.2151436253448546]], [[0.21514362534528758, -0.21514362534528694]], [[0.2151436253457114, -0.2151436253457108]], [[0.21514362534612697, -0.21514362534612635]], [[0.21514362534653436, -0.21514362534653378]], [[0.2151436253469338, -0.21514362534693318]], [[0.21514362534732545, -0.21514362534732484]], [[0.2151436253477094, -0.21514362534770878]], [[0.21514362534808584, -0.21514362534808518]], [[0.21514362534845488, -0.21514362534845416]], [[0.21514362534881676, -0.21514362534881598]], [[0.21514362534917147, -0.2151436253491707]], [[0.21514362534951925, -0.21514362534951853]], [[0.2151436253498602, -0.21514362534985945]], [[0.21514362535019443, -0.2151436253501937]], [[0.21514362535052217, -0.21514362535052148]], [[0.2151436253508435, -0.21514362535084275]], [[0.21514362535115852, -0.21514362535115777]], [[0.2151436253514673, -0.21514362535146658]], [[0.21514362535177012, -0.2151436253517694]], [[0.21514362535206702, -0.21514362535206621]], [[0.21514362535235804, -0.2151436253523573]], [[0.21514362535264336, -0.21514362535264264]], [[0.2151436253529231, -0.2151436253529223]], [[0.21514362535319737, -0.2151436253531966]], [[0.21514362535346626, -0.21514362535346548]], [[0.2151436253537299, -0.21514362535372913]], [[0.21514362535398834, -0.21514362535398762]], [[0.21514362535424172, -0.21514362535424103]], [[0.21514362535449016, -0.2151436253544895]], [[0.2151436253547337, -0.21514362535473305]], [[0.21514362535497253, -0.2151436253549719]], [[0.2151436253552066, -0.21514362535520606]], [[0.21514362535543613, -0.2151436253554356]], [[0.21514362535566123, -0.21514362535566067]], [[0.21514362535588183, -0.2151436253558813]], [[0.21514362535609816, -0.21514362535609766]], [[0.21514362535631024, -0.2151436253563097]], [[0.21514362535651818, -0.21514362535651763]], [[0.215143625356722, -0.21514362535672146]], [[0.21514362535692189, -0.21514362535692133]], [[0.21514362535711778, -0.21514362535711723]], [[0.2151436253573099, -0.21514362535730935]], [[0.21514362535749823, -0.21514362535749765]], [[0.21514362535768283, -0.21514362535768228]], [[0.21514362535786385, -0.2151436253578632]], [[0.21514362535804132, -0.2151436253580407]], [[0.21514362535821527, -0.21514362535821469]], [[0.21514362535838583, -0.2151436253583853]], [[0.21514362535855308, -0.21514362535855253]], [[0.21514362535871703, -0.21514362535871645]], [[0.21514362535887788, -0.21514362535887727]], [[0.21514362535903547, -0.2151436253590348]], [[0.21514362535918996, -0.2151436253591893]], [[0.2151436253593415, -0.21514362535934084]], [[0.21514362535949003, -0.21514362535948933]], [[0.21514362535963566, -0.21514362535963494]], [[0.21514362535977838, -0.2151436253597777]], [[0.21514362535991832, -0.2151436253599177]], [[0.2151436253600555, -0.21514362536005488]], [[0.21514362536019002, -0.21514362536018944]], [[0.21514362536032194, -0.21514362536032133]], [[0.21514362536045128, -0.21514362536045067]], [[0.21514362536057807, -0.21514362536057752]], [[0.21514362536070233, -0.21514362536070178]], [[0.2151436253608242, -0.21514362536082368]], [[0.21514362536094367, -0.21514362536094309]], [[0.21514362536106083, -0.21514362536106024]], [[0.21514362536117565, -0.215143625361175]], [[0.21514362536128825, -0.21514362536128762]], [[0.21514362536139864, -0.21514362536139797]], [[0.21514362536150686, -0.2151436253615061]], [[0.215143625361613, -0.21514362536161225]], [[0.21514362536171697, -0.21514362536171627]], [[0.21514362536181897, -0.21514362536181825]], [[0.21514362536191894, -0.21514362536191822]], [[0.21514362536201703, -0.21514362536201628]], [[0.21514362536211315, -0.21514362536211237]], [[0.21514362536220738, -0.21514362536220666]], [[0.21514362536229975, -0.21514362536229903]], [[0.21514362536239034, -0.21514362536238957]], [[0.21514362536247914, -0.21514362536247836]], [[0.21514362536256615, -0.21514362536256543]], [[0.21514362536265152, -0.21514362536265075]], [[0.21514362536273524, -0.21514362536273446]], [[0.21514362536281723, -0.21514362536281645]], [[0.21514362536289772, -0.21514362536289688]], [[0.21514362536297654, -0.2151436253629757]], [[0.21514362536305384, -0.21514362536305304]], [[0.21514362536312961, -0.2151436253631288]], [[0.21514362536320394, -0.2151436253632032]], [[0.2151436253632768, -0.21514362536327603]], [[0.21514362536334825, -0.21514362536334752]], [[0.21514362536341824, -0.21514362536341758]], [[0.21514362536348688, -0.2151436253634862]], [[0.2151436253635542, -0.21514362536355353]], [[0.2151436253636202, -0.21514362536361953]], [[0.21514362536368487, -0.21514362536368428]], [[0.2151436253637483, -0.21514362536374768]], [[0.2151436253638105, -0.21514362536380988]], [[0.21514362536387147, -0.21514362536387088]], [[0.21514362536393128, -0.21514362536393067]], [[0.21514362536398987, -0.2151436253639893]], [[0.2151436253640473, -0.2151436253640467]], [[0.21514362536410364, -0.21514362536410303]], [[0.21514362536415885, -0.2151436253641583]], [[0.21514362536421303, -0.21514362536421242]], [[0.21514362536426607, -0.21514362536426546]], [[0.21514362536431814, -0.21514362536431755]], [[0.21514362536436915, -0.21514362536436862]], [[0.21514362536441917, -0.21514362536441867]], [[0.21514362536446824, -0.2151436253644677]], [[0.21514362536451634, -0.21514362536451584]], [[0.21514362536456344, -0.215143625364563]], [[0.21514362536460968, -0.2151436253646092]], [[0.215143625364655, -0.21514362536465453]], [[0.21514362536469944, -0.21514362536469894]], [[0.215143625364743, -0.21514362536474252]], [[0.2151436253647857, -0.2151436253647852]], [[0.21514362536482756, -0.2151436253648271]], [[0.2151436253648686, -0.2151436253648682]], [[0.21514362536490883, -0.2151436253649084]], [[0.2151436253649483, -0.21514362536494783]], [[0.215143625364987, -0.21514362536498652]], [[0.2151436253650249, -0.21514362536502443]], [[0.21514362536506207, -0.2151436253650616]], [[0.2151436253650985, -0.21514362536509807]], [[0.21514362536513426, -0.21514362536513382]], [[0.2151436253651693, -0.21514362536516882]], [[0.2151436253652036, -0.21514362536520315]], [[0.2151436253652373, -0.21514362536523682]], [[0.21514362536527032, -0.21514362536526976]], [[0.2151436253653027, -0.2151436253653021]], [[0.21514362536533443, -0.21514362536533388]], [[0.21514362536536558, -0.21514362536536502]], [[0.21514362536539605, -0.21514362536539547]], [[0.21514362536542597, -0.21514362536542542]], [[0.21514362536545528, -0.21514362536545475]], [[0.21514362536548404, -0.21514362536548348]], [[0.21514362536551226, -0.21514362536551163]], [[0.21514362536553994, -0.21514362536553927]], [[0.21514362536556703, -0.21514362536556636]], [[0.21514362536559362, -0.21514362536559295]], [[0.21514362536561965, -0.215143625365619]], [[0.21514362536564519, -0.21514362536564458]], [[0.21514362536567014, -0.21514362536566958]], [[0.21514362536569465, -0.21514362536569412]], [[0.21514362536571874, -0.21514362536571818]], [[0.21514362536574227, -0.21514362536574183]], [[0.2151436253657654, -0.21514362536576498]], [[0.21514362536578804, -0.21514362536578766]], [[0.21514362536581025, -0.21514362536580983]], [[0.21514362536583198, -0.2151436253658316]], [[0.21514362536585335, -0.21514362536585296]], [[0.21514362536587422, -0.21514362536587386]], [[0.21514362536589476, -0.2151436253658944]], [[0.21514362536591491, -0.21514362536591455]], [[0.21514362536593462, -0.21514362536593426]], [[0.21514362536595394, -0.21514362536595352]], [[0.21514362536597298, -0.2151436253659725]], [[0.21514362536599158, -0.21514362536599113]], [[0.21514362536600978, -0.2151436253660094]], [[0.21514362536602766, -0.21514362536602727]], [[0.2151436253660452, -0.2151436253660448]], [[0.2151436253660624, -0.21514362536606202]], [[0.2151436253660792, -0.21514362536607884]], [[0.21514362536609577, -0.21514362536609535]], [[0.21514362536611192, -0.21514362536611148]], [[0.21514362536612786, -0.21514362536612736]], [[0.21514362536614345, -0.21514362536614295]], [[0.21514362536615877, -0.21514362536615816]], [[0.21514362536617376, -0.21514362536617312]], [[0.2151436253661884, -0.2151436253661878]], [[0.2151436253662028, -0.21514362536620218]], [[0.21514362536621684, -0.21514362536621628]], [[0.21514362536623066, -0.21514362536623005]], [[0.2151436253662442, -0.2151436253662436]], [[0.21514362536625747, -0.21514362536625692]], [[0.21514362536627052, -0.21514362536626994]], [[0.2151436253662833, -0.21514362536628268]], [[0.2151436253662958, -0.2151436253662951]], [[0.21514362536630804, -0.21514362536630743]], [[0.21514362536632003, -0.21514362536631948]], [[0.21514362536633191, -0.2151436253663313]], [[0.21514362536634346, -0.21514362536634285]], [[0.21514362536635484, -0.2151436253663542]], [[0.21514362536636594, -0.2151436253663653]], [[0.21514362536637693, -0.2151436253663762]], [[0.21514362536638765, -0.2151436253663869]], [[0.21514362536639814, -0.21514362536639736]], [[0.2151436253664084, -0.21514362536640763]], [[0.21514362536641848, -0.2151436253664177]], [[0.21514362536642836, -0.21514362536642762]], [[0.21514362536643805, -0.21514362536643736]], [[0.21514362536644757, -0.21514362536644688]], [[0.21514362536645684, -0.21514362536645618]], [[0.21514362536646603, -0.2151436253664653]], [[0.215143625366475, -0.21514362536647424]], [[0.21514362536648374, -0.21514362536648296]], [[0.21514362536649234, -0.21514362536649156]], [[0.21514362536650075, -0.2151436253665]], [[0.21514362536650905, -0.21514362536650833]], [[0.21514362536651715, -0.21514362536651643]], [[0.2151436253665251, -0.2151436253665244]], [[0.2151436253665329, -0.21514362536653217]], [[0.21514362536654058, -0.21514362536653986]], [[0.21514362536654807, -0.21514362536654735]], [[0.21514362536655546, -0.21514362536655474]], [[0.21514362536656265, -0.21514362536656192]], [[0.21514362536656967, -0.21514362536656892]], [[0.2151436253665766, -0.21514362536657589]], [[0.21514362536658332, -0.21514362536658266]], [[0.21514362536658993, -0.21514362536658932]], [[0.21514362536659648, -0.21514362536659581]], [[0.21514362536660286, -0.21514362536660223]], [[0.21514362536660908, -0.21514362536660853]], [[0.21514362536661522, -0.21514362536661466]], [[0.21514362536662124, -0.21514362536662068]], [[0.21514362536662712, -0.21514362536662657]], [[0.21514362536663292, -0.21514362536663242]], [[0.21514362536663859, -0.21514362536663809]], [[0.2151436253666441, -0.21514362536664366]], [[0.21514362536664955, -0.2151436253666491]], [[0.21514362536665493, -0.21514362536665443]], [[0.2151436253666602, -0.21514362536665965]], [[0.21514362536666537, -0.21514362536666481]], [[0.21514362536667037, -0.2151436253666698]], [[0.2151436253666753, -0.21514362536667478]], [[0.21514362536668016, -0.21514362536667955]], [[0.2151436253666849, -0.2151436253666843]], [[0.21514362536668957, -0.21514362536668902]], [[0.21514362536669412, -0.21514362536669357]], [[0.21514362536669862, -0.2151436253666981]], [[0.215143625366703, -0.21514362536670253]], [[0.21514362536670734, -0.21514362536670684]], [[0.2151436253667115, -0.21514362536671106]], [[0.21514362536671566, -0.21514362536671516]], [[0.21514362536671977, -0.21514362536671922]], [[0.2151436253667237, -0.21514362536672318]], [[0.2151436253667276, -0.21514362536672704]], [[0.21514362536673143, -0.21514362536673087]], [[0.2151436253667352, -0.21514362536673462]], [[0.21514362536673884, -0.2151436253667383]], [[0.21514362536674245, -0.21514362536674186]], [[0.21514362536674597, -0.21514362536674542]], [[0.21514362536674947, -0.21514362536674891]], [[0.2151436253667529, -0.2151436253667523]], [[0.21514362536675624, -0.21514362536675563]], [[0.21514362536675946, -0.21514362536675885]], [[0.21514362536676268, -0.21514362536676204]], [[0.2151436253667658, -0.21514362536676515]], [[0.21514362536676887, -0.21514362536676823]], [[0.21514362536677187, -0.21514362536677123]], [[0.21514362536677487, -0.2151436253667742]], [[0.21514362536677775, -0.2151436253667771]], [[0.21514362536678056, -0.21514362536677994]], [[0.21514362536678333, -0.21514362536678278]], [[0.21514362536678608, -0.21514362536678544]], [[0.21514362536678872, -0.21514362536678816]], [[0.21514362536679132, -0.21514362536679077]], [[0.21514362536679393, -0.21514362536679338]], [[0.21514362536679643, -0.21514362536679588]], [[0.21514362536679887, -0.21514362536679837]], [[0.2151436253668013, -0.21514362536680082]], [[0.21514362536680365, -0.21514362536680326]], [[0.21514362536680598, -0.2151436253668056]], [[0.21514362536680826, -0.21514362536680792]], [[0.2151436253668105, -0.21514362536681014]], [[0.2151436253668127, -0.2151436253668124]], [[0.2151436253668148, -0.21514362536681456]], [[0.21514362536681692, -0.21514362536681664]], [[0.21514362536681902, -0.21514362536681875]], [[0.21514362536682105, -0.21514362536682077]], [[0.21514362536682302, -0.21514362536682277]], [[0.2151436253668249, -0.2151436253668247]], [[0.2151436253668268, -0.21514362536682657]], [[0.21514362536682863, -0.21514362536682843]], [[0.2151436253668304, -0.2151436253668303]], [[0.21514362536683224, -0.21514362536683207]], [[0.21514362536683396, -0.2151436253668339]], [[0.2151436253668357, -0.21514362536683565]], [[0.21514362536683734, -0.21514362536683737]], [[0.215143625366839, -0.215143625366839]], [[0.21514362536684062, -0.2151436253668407]], [[0.21514362536684223, -0.21514362536684228]], [[0.21514362536684384, -0.21514362536684384]], [[0.2151436253668454, -0.2151436253668454]], [[0.2151436253668469, -0.2151436253668469]], [[0.21514362536684833, -0.21514362536684833]], [[0.21514362536684978, -0.2151436253668498]], [[0.2151436253668511, -0.21514362536685122]], [[0.21514362536685255, -0.21514362536685258]], [[0.21514362536685397, -0.21514362536685394]], [[0.21514362536685533, -0.2151436253668553]], [[0.21514362536685666, -0.21514362536685655]], [[0.21514362536685794, -0.21514362536685783]], [[0.21514362536685921, -0.2151436253668591]], [[0.2151436253668605, -0.21514362536686038]], [[0.21514362536686166, -0.21514362536686163]], [[0.21514362536686282, -0.21514362536686277]], [[0.215143625366864, -0.21514362536686393]], [[0.21514362536686513, -0.2151436253668651]], [[0.2151436253668662, -0.21514362536686624]], [[0.21514362536686732, -0.21514362536686737]], [[0.21514362536686837, -0.21514362536686843]], [[0.21514362536686948, -0.21514362536686954]], [[0.21514362536687054, -0.2151436253668706]], [[0.21514362536687157, -0.2151436253668716]], [[0.21514362536687254, -0.2151436253668726]], [[0.21514362536687354, -0.2151436253668736]], [[0.2151436253668745, -0.21514362536687456]], [[0.21514362536687548, -0.2151436253668755]], [[0.21514362536687637, -0.21514362536687642]], [[0.21514362536687726, -0.2151436253668773]], [[0.21514362536687812, -0.21514362536687814]], [[0.21514362536687895, -0.21514362536687898]], [[0.21514362536687978, -0.21514362536687986]], [[0.21514362536688061, -0.2151436253668807]], [[0.21514362536688145, -0.21514362536688153]], [[0.2151436253668823, -0.21514362536688236]], [[0.21514362536688308, -0.21514362536688314]], [[0.21514362536688378, -0.2151436253668839]], [[0.21514362536688453, -0.21514362536688458]], [[0.2151436253668853, -0.21514362536688533]], [[0.21514362536688597, -0.21514362536688608]], [[0.2151436253668867, -0.2151436253668868]], [[0.21514362536688741, -0.21514362536688753]], [[0.21514362536688805, -0.21514362536688816]], [[0.21514362536688875, -0.21514362536688886]], [[0.21514362536688936, -0.2151436253668894]], [[0.21514362536689002, -0.21514362536689008]], [[0.21514362536689063, -0.2151436253668907]], [[0.21514362536689124, -0.21514362536689136]], [[0.21514362536689186, -0.21514362536689194]], [[0.21514362536689244, -0.21514362536689252]], [[0.21514362536689302, -0.2151436253668931]], [[0.2151436253668936, -0.2151436253668937]], [[0.21514362536689421, -0.21514362536689424]], [[0.2151436253668948, -0.21514362536689485]], [[0.21514362536689535, -0.21514362536689538]], [[0.2151436253668959, -0.2151436253668959]], [[0.21514362536689643, -0.2151436253668964]], [[0.21514362536689696, -0.2151436253668969]], [[0.21514362536689752, -0.21514362536689746]], [[0.21514362536689796, -0.21514362536689796]], [[0.21514362536689846, -0.2151436253668984]], [[0.215143625366899, -0.2151436253668989]], [[0.21514362536689935, -0.21514362536689932]], [[0.2151436253668998, -0.2151436253668998]], [[0.2151436253669003, -0.21514362536690024]], [[0.2151436253669008, -0.21514362536690063]], [[0.21514362536690118, -0.21514362536690101]], [[0.2151436253669016, -0.21514362536690143]], [[0.21514362536690199, -0.2151436253669018]], [[0.21514362536690235, -0.21514362536690218]], [[0.2151436253669028, -0.21514362536690262]], [[0.21514362536690315, -0.21514362536690307]], [[0.21514362536690357, -0.2151436253669034]], [[0.2151436253669039, -0.21514362536690373]], [[0.21514362536690426, -0.21514362536690412]], [[0.21514362536690457, -0.21514362536690446]], [[0.2151436253669049, -0.2151436253669048]], [[0.2151436253669053, -0.21514362536690512]], [[0.21514362536690562, -0.2151436253669055]], [[0.21514362536690593, -0.2151436253669058]], [[0.21514362536690626, -0.21514362536690607]], [[0.21514362536690668, -0.21514362536690634]], [[0.21514362536690695, -0.21514362536690662]], [[0.2151436253669073, -0.2151436253669069]], [[0.2151436253669076, -0.21514362536690718]], [[0.2151436253669079, -0.2151436253669074]], [[0.21514362536690818, -0.21514362536690768]], [[0.21514362536690845, -0.215143625366908]], [[0.21514362536690873, -0.21514362536690826]], [[0.215143625366909, -0.2151436253669085]], [[0.21514362536690934, -0.21514362536690873]], [[0.21514362536690962, -0.215143625366909]], [[0.2151436253669099, -0.21514362536690929]], [[0.2151436253669101, -0.2151436253669095]], [[0.21514362536691037, -0.21514362536690976]], [[0.21514362536691062, -0.21514362536691]], [[0.21514362536691087, -0.21514362536691028]], [[0.21514362536691106, -0.21514362536691045]], [[0.21514362536691134, -0.21514362536691073]], [[0.2151436253669115, -0.21514362536691092]], [[0.21514362536691167, -0.21514362536691115]], [[0.21514362536691192, -0.2151436253669114]], [[0.21514362536691212, -0.21514362536691162]], [[0.21514362536691228, -0.2151436253669118]], [[0.21514362536691245, -0.215143625366912]], [[0.21514362536691262, -0.21514362536691217]], [[0.2151436253669128, -0.21514362536691234]], [[0.215143625366913, -0.2151436253669125]], [[0.21514362536691325, -0.2151436253669127]], [[0.21514362536691345, -0.21514362536691287]], [[0.21514362536691362, -0.215143625366913]], [[0.2151436253669138, -0.2151436253669132]], [[0.215143625366914, -0.2151436253669134]], [[0.2151436253669142, -0.21514362536691356]], [[0.21514362536691434, -0.21514362536691373]], [[0.2151436253669145, -0.2151436253669139]], [[0.21514362536691467, -0.21514362536691406]], [[0.21514362536691484, -0.2151436253669142]], [[0.21514362536691495, -0.21514362536691437]], [[0.2151436253669151, -0.21514362536691448]], [[0.21514362536691534, -0.21514362536691467]], [[0.21514362536691545, -0.21514362536691478]], [[0.21514362536691556, -0.2151436253669149]], [[0.21514362536691573, -0.21514362536691503]], [[0.2151436253669158, -0.21514362536691514]], [[0.21514362536691595, -0.21514362536691528]], [[0.2151436253669161, -0.21514362536691542]], [[0.2151436253669162, -0.2151436253669155]], [[0.21514362536691634, -0.21514362536691561]], [[0.21514362536691647, -0.2151436253669157]], [[0.2151436253669166, -0.2151436253669158]], [[0.21514362536691672, -0.21514362536691592]], [[0.21514362536691686, -0.215143625366916]], [[0.215143625366917, -0.21514362536691614]], [[0.21514362536691706, -0.21514362536691628]], [[0.2151436253669172, -0.2151436253669164]], [[0.2151436253669173, -0.21514362536691645]], [[0.2151436253669174, -0.2151436253669165]], [[0.2151436253669175, -0.21514362536691659]], [[0.2151436253669176, -0.21514362536691672]], [[0.21514362536691772, -0.21514362536691678]], [[0.21514362536691783, -0.2151436253669169]], [[0.2151436253669179, -0.215143625366917]], [[0.215143625366918, -0.21514362536691709]], [[0.2151436253669181, -0.21514362536691717]], [[0.21514362536691817, -0.21514362536691722]], [[0.21514362536691822, -0.21514362536691733]], [[0.21514362536691828, -0.2151436253669174]], [[0.2151436253669184, -0.21514362536691745]], [[0.2151436253669185, -0.21514362536691756]], [[0.21514362536691856, -0.2151436253669176]], [[0.21514362536691867, -0.21514362536691772]], [[0.21514362536691878, -0.21514362536691778]], [[0.2151436253669189, -0.21514362536691786]], [[0.21514362536691892, -0.2151436253669179]], [[0.215143625366919, -0.21514362536691795]], [[0.2151436253669191, -0.215143625366918]], [[0.21514362536691922, -0.2151436253669181]], [[0.21514362536691933, -0.21514362536691817]], [[0.2151436253669194, -0.21514362536691822]], [[0.2151436253669195, -0.21514362536691833]], [[0.2151436253669196, -0.2151436253669184]], [[0.2151436253669196, -0.21514362536691845]], [[0.21514362536691972, -0.2151436253669185]], [[0.21514362536691975, -0.2151436253669186]], [[0.21514362536691983, -0.21514362536691867]], [[0.2151436253669199, -0.21514362536691872]], [[0.21514362536691994, -0.21514362536691878]], [[0.21514362536692, -0.21514362536691878]], [[0.21514362536692003, -0.21514362536691883]], [[0.2151436253669201, -0.2151436253669189]], [[0.21514362536692017, -0.21514362536691894]], [[0.21514362536692022, -0.215143625366919]], [[0.21514362536692028, -0.21514362536691906]], [[0.2151436253669203, -0.2151436253669191]], [[0.2151436253669204, -0.21514362536691914]], [[0.21514362536692047, -0.21514362536691922]], [[0.21514362536692053, -0.21514362536691928]], [[0.21514362536692055, -0.21514362536691933]], [[0.2151436253669206, -0.2151436253669194]], [[0.21514362536692067, -0.21514362536691942]], [[0.21514362536692072, -0.21514362536691944]], [[0.21514362536692078, -0.21514362536691947]], [[0.21514362536692078, -0.2151436253669195]], [[0.21514362536692083, -0.2151436253669196]], [[0.2151436253669209, -0.2151436253669196]], [[0.215143625366921, -0.21514362536691967]], [[0.21514362536692105, -0.21514362536691972]], [[0.21514362536692105, -0.21514362536691975]], [[0.21514362536692105, -0.21514362536691978]], [[0.2151436253669211, -0.2151436253669198]], [[0.21514362536692114, -0.21514362536691983]], [[0.21514362536692117, -0.21514362536691986]], [[0.21514362536692125, -0.2151436253669199]], [[0.21514362536692128, -0.21514362536692]], [[0.21514362536692128, -0.21514362536692]], [[0.2151436253669213, -0.21514362536692003]], [[0.21514362536692133, -0.2151436253669201]], [[0.21514362536692136, -0.2151436253669201]], [[0.21514362536692144, -0.2151436253669201]], [[0.21514362536692144, -0.21514362536692022]], [[0.2151436253669215, -0.21514362536692022]], [[0.2151436253669215, -0.21514362536692033]], [[0.2151436253669215, -0.2151436253669204]], [[0.2151436253669215, -0.21514362536692044]], [[0.21514362536692155, -0.21514362536692044]], [[0.2151436253669216, -0.21514362536692044]], [[0.2151436253669216, -0.21514362536692047]], [[0.21514362536692164, -0.2151436253669205]], [[0.2151436253669216, -0.21514362536692055]], [[0.21514362536692166, -0.21514362536692055]], [[0.2151436253669217, -0.21514362536692055]], [[0.21514362536692172, -0.21514362536692067]], [[0.21514362536692172, -0.21514362536692067]], [[0.21514362536692172, -0.21514362536692067]], [[0.21514362536692175, -0.21514362536692067]], [[0.21514362536692175, -0.21514362536692067]], [[0.21514362536692175, -0.21514362536692075]], [[0.21514362536692175, -0.21514362536692078]], [[0.21514362536692172, -0.21514362536692078]], [[0.21514362536692172, -0.21514362536692083]], [[0.21514362536692172, -0.21514362536692083]], [[0.2151436253669218, -0.21514362536692092]], [[0.21514362536692183, -0.21514362536692094]], [[0.21514362536692183, -0.21514362536692097]], [[0.2151436253669218, -0.21514362536692103]], [[0.2151436253669218, -0.21514362536692105]], [[0.21514362536692178, -0.2151436253669211]], [[0.21514362536692183, -0.21514362536692117]], [[0.21514362536692183, -0.2151436253669212]], [[0.21514362536692183, -0.21514362536692117]], [[0.21514362536692183, -0.21514362536692117]], [[0.21514362536692191, -0.21514362536692122]], [[0.21514362536692194, -0.21514362536692128]], [[0.21514362536692194, -0.21514362536692128]], [[0.21514362536692197, -0.21514362536692133]], [[0.215143625366922, -0.2151436253669213]], [[0.215143625366922, -0.2151436253669213]], [[0.215143625366922, -0.21514362536692133]], [[0.21514362536692203, -0.2151436253669213]], [[0.21514362536692205, -0.21514362536692133]], [[0.21514362536692208, -0.21514362536692133]], [[0.2151436253669221, -0.21514362536692133]], [[0.2151436253669221, -0.21514362536692133]], [[0.21514362536692216, -0.21514362536692133]], [[0.21514362536692216, -0.21514362536692136]], [[0.21514362536692216, -0.21514362536692133]], [[0.21514362536692216, -0.21514362536692136]], [[0.21514362536692216, -0.2151436253669214]], [[0.21514362536692216, -0.21514362536692144]], [[0.21514362536692216, -0.21514362536692144]], [[0.21514362536692216, -0.21514362536692144]], [[0.21514362536692216, -0.21514362536692147]], [[0.21514362536692222, -0.21514362536692144]], [[0.21514362536692222, -0.21514362536692144]], [[0.21514362536692225, -0.21514362536692144]], [[0.21514362536692228, -0.2151436253669215]], [[0.21514362536692228, -0.2151436253669215]], [[0.21514362536692228, -0.21514362536692153]], [[0.21514362536692228, -0.21514362536692155]], [[0.21514362536692228, -0.21514362536692155]], [[0.21514362536692228, -0.21514362536692155]], [[0.21514362536692228, -0.2151436253669216]], [[0.2151436253669223, -0.2151436253669216]], [[0.21514362536692233, -0.21514362536692155]], [[0.21514362536692236, -0.2151436253669215]], [[0.21514362536692241, -0.2151436253669215]], [[0.2151436253669225, -0.2151436253669215]], [[0.2151436253669225, -0.21514362536692147]], [[0.2151436253669225, -0.2151436253669215]], [[0.21514362536692258, -0.2151436253669215]], [[0.21514362536692253, -0.2151436253669215]], [[0.21514362536692255, -0.21514362536692153]], [[0.21514362536692255, -0.2151436253669215]], [[0.21514362536692255, -0.21514362536692153]], [[0.21514362536692255, -0.21514362536692155]], [[0.21514362536692255, -0.21514362536692155]], [[0.21514362536692255, -0.21514362536692155]], [[0.2151436253669226, -0.21514362536692155]], [[0.2151436253669226, -0.2151436253669215]], [[0.21514362536692266, -0.2151436253669215]], [[0.21514362536692266, -0.2151436253669215]], [[0.21514362536692266, -0.2151436253669215]], [[0.21514362536692275, -0.2151436253669215]], [[0.21514362536692272, -0.2151436253669215]], [[0.21514362536692272, -0.21514362536692155]], [[0.21514362536692272, -0.21514362536692155]], [[0.21514362536692277, -0.2151436253669215]], [[0.21514362536692277, -0.21514362536692144]], [[0.21514362536692277, -0.21514362536692144]], [[0.21514362536692286, -0.21514362536692144]], [[0.21514362536692289, -0.2151436253669214]], [[0.21514362536692289, -0.2151436253669214]], [[0.21514362536692283, -0.21514362536692133]], [[0.2151436253669229, -0.21514362536692141]], [[0.215143625366923, -0.21514362536692144]], [[0.215143625366923, -0.21514362536692144]], [[0.215143625366923, -0.2151436253669214]], [[0.215143625366923, -0.21514362536692141]], [[0.21514362536692302, -0.2151436253669214]], [[0.21514362536692305, -0.21514362536692133]], [[0.21514362536692305, -0.21514362536692133]], [[0.21514362536692305, -0.21514362536692136]], [[0.21514362536692305, -0.2151436253669214]], [[0.21514362536692308, -0.2151436253669214]], [[0.2151436253669231, -0.21514362536692133]], [[0.2151436253669231, -0.21514362536692133]], [[0.2151436253669231, -0.21514362536692133]], [[0.21514362536692314, -0.21514362536692133]], [[0.21514362536692322, -0.21514362536692133]], [[0.2151436253669232, -0.21514362536692133]], [[0.21514362536692322, -0.21514362536692136]], [[0.21514362536692322, -0.21514362536692133]], [[0.21514362536692322, -0.21514362536692136]], [[0.21514362536692322, -0.21514362536692133]], [[0.21514362536692325, -0.21514362536692133]], [[0.21514362536692325, -0.21514362536692133]], [[0.21514362536692327, -0.21514362536692136]], [[0.21514362536692327, -0.2151436253669213]], [[0.2151436253669233, -0.21514362536692133]], [[0.2151436253669233, -0.21514362536692133]], [[0.21514362536692333, -0.21514362536692133]], [[0.21514362536692333, -0.21514362536692136]], [[0.21514362536692333, -0.21514362536692136]], [[0.21514362536692333, -0.21514362536692133]], [[0.21514362536692327, -0.2151436253669213]], [[0.21514362536692327, -0.21514362536692133]], [[0.21514362536692327, -0.21514362536692133]], [[0.21514362536692327, -0.21514362536692133]], [[0.21514362536692327, -0.21514362536692133]], [[0.21514362536692327, -0.21514362536692133]], [[0.21514362536692327, -0.21514362536692133]], [[0.21514362536692327, -0.2151436253669213]], [[0.21514362536692327, -0.21514362536692128]], [[0.21514362536692327, -0.2151436253669213]], [[0.21514362536692325, -0.21514362536692128]], [[0.21514362536692325, -0.21514362536692136]], [[0.21514362536692327, -0.2151436253669214]], [[0.21514362536692327, -0.21514362536692133]], [[0.21514362536692327, -0.21514362536692136]], [[0.21514362536692327, -0.2151436253669214]], [[0.21514362536692327, -0.2151436253669214]], [[0.21514362536692327, -0.21514362536692133]], [[0.21514362536692327, -0.21514362536692133]], [[0.2151436253669233, -0.21514362536692133]], [[0.21514362536692333, -0.21514362536692136]], [[0.21514362536692333, -0.2151436253669214]], [[0.21514362536692333, -0.2151436253669214]], [[0.21514362536692333, -0.21514362536692133]], [[0.21514362536692333, -0.21514362536692133]], [[0.21514362536692333, -0.21514362536692133]], [[0.21514362536692333, -0.21514362536692133]], [[0.21514362536692333, -0.21514362536692128]], [[0.21514362536692333, -0.21514362536692128]], [[0.21514362536692333, -0.21514362536692128]], [[0.21514362536692339, -0.21514362536692128]], [[0.21514362536692339, -0.21514362536692125]], [[0.21514362536692339, -0.21514362536692128]], [[0.21514362536692339, -0.21514362536692128]], [[0.21514362536692339, -0.21514362536692133]], [[0.21514362536692339, -0.21514362536692133]], [[0.21514362536692344, -0.21514362536692133]], [[0.21514362536692344, -0.21514362536692133]], [[0.21514362536692344, -0.21514362536692133]], [[0.21514362536692344, -0.21514362536692128]], [[0.2151436253669235, -0.2151436253669213]], [[0.2151436253669235, -0.21514362536692133]], [[0.2151436253669235, -0.21514362536692133]], [[0.2151436253669235, -0.21514362536692133]], [[0.2151436253669235, -0.21514362536692133]], [[0.2151436253669235, -0.21514362536692128]], [[0.2151436253669235, -0.21514362536692128]], [[0.2151436253669235, -0.2151436253669213]], [[0.2151436253669235, -0.21514362536692133]], [[0.2151436253669235, -0.21514362536692133]], [[0.2151436253669235, -0.21514362536692133]], [[0.2151436253669235, -0.21514362536692133]], [[0.2151436253669235, -0.21514362536692133]], [[0.2151436253669235, -0.21514362536692133]], [[0.21514362536692352, -0.21514362536692133]], [[0.21514362536692355, -0.21514362536692133]], [[0.21514362536692355, -0.21514362536692133]], [[0.21514362536692355, -0.2151436253669213]], [[0.21514362536692358, -0.21514362536692133]], [[0.21514362536692355, -0.21514362536692136]], [[0.21514362536692355, -0.2151436253669214]], [[0.21514362536692355, -0.2151436253669214]], [[0.21514362536692355, -0.21514362536692141]], [[0.21514362536692355, -0.2151436253669214]], [[0.21514362536692352, -0.2151436253669214]], [[0.21514362536692352, -0.21514362536692133]], [[0.21514362536692355, -0.21514362536692133]], [[0.21514362536692355, -0.21514362536692133]], [[0.21514362536692355, -0.21514362536692136]], [[0.21514362536692355, -0.2151436253669214]], [[0.21514362536692355, -0.2151436253669214]], [[0.21514362536692355, -0.2151436253669214]], [[0.21514362536692355, -0.2151436253669214]], [[0.21514362536692355, -0.21514362536692141]], [[0.21514362536692355, -0.21514362536692144]], [[0.21514362536692355, -0.21514362536692144]], [[0.21514362536692352, -0.21514362536692147]], [[0.21514362536692355, -0.21514362536692144]], [[0.21514362536692355, -0.21514362536692144]], [[0.21514362536692358, -0.21514362536692144]], [[0.2151436253669235, -0.21514362536692141]], [[0.2151436253669235, -0.21514362536692144]], [[0.2151436253669235, -0.21514362536692144]], [[0.2151436253669235, -0.21514362536692144]], [[0.2151436253669235, -0.21514362536692147]], [[0.2151436253669235, -0.21514362536692147]], [[0.2151436253669235, -0.21514362536692147]], [[0.2151436253669235, -0.2151436253669215]], [[0.2151436253669235, -0.21514362536692153]], [[0.21514362536692347, -0.21514362536692155]], [[0.2151436253669235, -0.21514362536692155]], [[0.2151436253669235, -0.21514362536692155]], [[0.2151436253669235, -0.21514362536692153]], [[0.2151436253669235, -0.21514362536692155]], [[0.2151436253669235, -0.21514362536692158]], [[0.2151436253669235, -0.2151436253669216]], [[0.2151436253669235, -0.2151436253669216]], [[0.2151436253669235, -0.2151436253669216]], [[0.21514362536692347, -0.2151436253669216]], [[0.21514362536692344, -0.2151436253669216]], [[0.21514362536692344, -0.21514362536692164]], [[0.21514362536692344, -0.21514362536692164]], [[0.21514362536692344, -0.21514362536692164]], [[0.21514362536692344, -0.21514362536692155]], [[0.21514362536692344, -0.21514362536692155]], [[0.21514362536692344, -0.21514362536692153]], [[0.21514362536692347, -0.21514362536692155]], [[0.21514362536692344, -0.21514362536692155]], [[0.21514362536692347, -0.21514362536692158]], [[0.2151436253669235, -0.2151436253669216]], [[0.2151436253669234, -0.2151436253669216]], [[0.21514362536692344, -0.2151436253669216]], [[0.21514362536692344, -0.2151436253669216]], [[0.21514362536692344, -0.2151436253669216]], [[0.21514362536692344, -0.2151436253669216]], [[0.21514362536692344, -0.2151436253669216]], [[0.2151436253669234, -0.2151436253669216]], [[0.21514362536692339, -0.21514362536692158]], [[0.21514362536692339, -0.2151436253669216]], [[0.21514362536692336, -0.2151436253669216]], [[0.21514362536692339, -0.2151436253669216]], [[0.21514362536692339, -0.2151436253669216]], [[0.21514362536692339, -0.21514362536692155]], [[0.21514362536692339, -0.21514362536692155]], [[0.21514362536692339, -0.21514362536692158]], [[0.21514362536692339, -0.2151436253669216]], [[0.21514362536692339, -0.21514362536692164]], [[0.21514362536692339, -0.21514362536692166]], [[0.21514362536692339, -0.2151436253669216]], [[0.21514362536692339, -0.2151436253669216]], [[0.21514362536692336, -0.2151436253669216]], [[0.21514362536692339, -0.2151436253669216]], [[0.21514362536692339, -0.2151436253669216]], [[0.21514362536692339, -0.2151436253669216]], [[0.21514362536692339, -0.2151436253669216]], [[0.21514362536692339, -0.2151436253669216]], [[0.2151436253669234, -0.2151436253669216]], [[0.2151436253669234, -0.2151436253669216]], [[0.21514362536692344, -0.21514362536692155]], [[0.21514362536692344, -0.21514362536692155]], [[0.21514362536692344, -0.21514362536692155]], [[0.21514362536692344, -0.21514362536692155]], [[0.21514362536692344, -0.21514362536692155]], [[0.21514362536692344, -0.21514362536692155]], [[0.21514362536692344, -0.21514362536692158]], [[0.21514362536692344, -0.2151436253669216]], [[0.21514362536692344, -0.2151436253669216]], [[0.21514362536692344, -0.2151436253669216]], [[0.21514362536692339, -0.21514362536692155]], [[0.21514362536692339, -0.21514362536692155]], [[0.21514362536692339, -0.2151436253669215]], [[0.21514362536692339, -0.21514362536692153]], [[0.21514362536692339, -0.21514362536692153]], [[0.21514362536692339, -0.2151436253669215]], [[0.21514362536692339, -0.21514362536692153]], [[0.21514362536692339, -0.2151436253669215]], [[0.21514362536692339, -0.2151436253669215]], [[0.21514362536692339, -0.21514362536692153]], [[0.21514362536692339, -0.21514362536692155]], [[0.21514362536692339, -0.21514362536692155]], [[0.21514362536692339, -0.21514362536692155]], [[0.21514362536692339, -0.21514362536692155]], [[0.21514362536692339, -0.21514362536692155]], [[0.21514362536692339, -0.21514362536692155]], [[0.21514362536692339, -0.21514362536692155]], [[0.21514362536692339, -0.21514362536692155]], [[0.21514362536692339, -0.21514362536692155]], [[0.2151436253669234, -0.21514362536692155]], [[0.21514362536692339, -0.21514362536692153]], [[0.21514362536692339, -0.21514362536692155]], [[0.21514362536692339, -0.21514362536692155]], [[0.21514362536692339, -0.21514362536692155]], [[0.21514362536692339, -0.2151436253669215]], [[0.2151436253669234, -0.2151436253669215]], [[0.21514362536692344, -0.2151436253669215]], [[0.21514362536692344, -0.2151436253669215]], [[0.21514362536692344, -0.21514362536692147]], [[0.21514362536692344, -0.2151436253669215]], [[0.2151436253669235, -0.2151436253669215]], [[0.2151436253669235, -0.21514362536692144]], [[0.21514362536692352, -0.21514362536692144]], [[0.21514362536692355, -0.21514362536692144]], [[0.21514362536692355, -0.21514362536692144]], [[0.21514362536692352, -0.21514362536692144]], [[0.2151436253669235, -0.21514362536692144]], [[0.2151436253669235, -0.21514362536692147]], [[0.2151436253669235, -0.21514362536692147]], [[0.2151436253669235, -0.2151436253669215]], [[0.2151436253669235, -0.2151436253669215]], [[0.2151436253669235, -0.2151436253669215]], [[0.2151436253669235, -0.2151436253669215]], [[0.2151436253669235, -0.2151436253669215]], [[0.2151436253669235, -0.2151436253669215]], [[0.2151436253669235, -0.2151436253669215]], [[0.2151436253669235, -0.2151436253669215]], [[0.2151436253669235, -0.2151436253669215]], [[0.2151436253669235, -0.2151436253669215]], [[0.2151436253669235, -0.2151436253669215]], [[0.2151436253669235, -0.2151436253669215]], [[0.2151436253669235, -0.2151436253669215]], [[0.2151436253669235, -0.2151436253669215]], [[0.2151436253669235, -0.2151436253669215]], [[0.2151436253669235, -0.21514362536692144]], [[0.2151436253669235, -0.21514362536692144]], [[0.2151436253669235, -0.21514362536692144]], [[0.2151436253669235, -0.21514362536692147]], [[0.2151436253669235, -0.21514362536692144]], [[0.2151436253669235, -0.2151436253669214]], [[0.2151436253669235, -0.21514362536692141]], [[0.2151436253669235, -0.2151436253669214]], [[0.2151436253669235, -0.21514362536692141]], [[0.2151436253669235, -0.2151436253669214]], [[0.2151436253669235, -0.2151436253669214]], [[0.21514362536692352, -0.2151436253669214]], [[0.21514362536692355, -0.2151436253669214]], [[0.21514362536692355, -0.2151436253669214]], [[0.21514362536692355, -0.2151436253669214]], [[0.21514362536692355, -0.21514362536692133]], [[0.21514362536692355, -0.21514362536692136]], [[0.21514362536692355, -0.21514362536692133]], [[0.21514362536692355, -0.21514362536692136]], [[0.21514362536692355, -0.21514362536692133]], [[0.21514362536692355, -0.21514362536692136]], [[0.21514362536692355, -0.2151436253669214]], [[0.21514362536692352, -0.21514362536692141]], [[0.2151436253669235, -0.2151436253669214]], [[0.2151436253669235, -0.21514362536692141]], [[0.2151436253669235, -0.21514362536692144]], [[0.21514362536692352, -0.21514362536692144]], [[0.21514362536692352, -0.2151436253669214]], [[0.21514362536692355, -0.2151436253669214]], [[0.21514362536692355, -0.21514362536692141]], [[0.21514362536692355, -0.2151436253669214]], [[0.21514362536692355, -0.21514362536692133]], [[0.21514362536692355, -0.21514362536692133]], [[0.21514362536692355, -0.21514362536692133]], [[0.21514362536692355, -0.21514362536692133]], [[0.21514362536692355, -0.21514362536692133]], [[0.21514362536692355, -0.2151436253669213]], [[0.21514362536692355, -0.21514362536692128]], [[0.21514362536692355, -0.21514362536692122]], [[0.21514362536692358, -0.2151436253669212]], [[0.2151436253669236, -0.2151436253669212]], [[0.21514362536692364, -0.21514362536692117]], [[0.2151436253669236, -0.21514362536692117]], [[0.2151436253669236, -0.2151436253669212]], [[0.2151436253669236, -0.21514362536692122]], [[0.2151436253669236, -0.21514362536692122]], [[0.2151436253669236, -0.21514362536692122]], [[0.2151436253669236, -0.21514362536692125]], [[0.2151436253669236, -0.21514362536692128]], [[0.21514362536692358, -0.21514362536692128]], [[0.21514362536692358, -0.21514362536692122]], [[0.21514362536692355, -0.21514362536692125]], [[0.21514362536692355, -0.21514362536692122]], [[0.21514362536692355, -0.2151436253669212]], [[0.21514362536692355, -0.21514362536692122]], [[0.21514362536692355, -0.21514362536692122]], [[0.21514362536692355, -0.21514362536692122]], [[0.21514362536692355, -0.21514362536692117]], [[0.21514362536692355, -0.21514362536692117]], [[0.21514362536692355, -0.21514362536692117]], [[0.21514362536692355, -0.21514362536692122]], [[0.21514362536692358, -0.21514362536692117]], [[0.2151436253669236, -0.21514362536692117]], [[0.21514362536692364, -0.21514362536692117]], [[0.2151436253669236, -0.21514362536692117]], [[0.2151436253669236, -0.21514362536692117]], [[0.21514362536692364, -0.21514362536692117]], [[0.2151436253669236, -0.21514362536692117]], [[0.2151436253669236, -0.21514362536692117]], [[0.2151436253669236, -0.21514362536692117]], [[0.2151436253669236, -0.21514362536692117]], [[0.2151436253669236, -0.21514362536692117]], [[0.21514362536692364, -0.21514362536692117]], [[0.21514362536692364, -0.21514362536692117]], [[0.21514362536692366, -0.21514362536692117]], [[0.21514362536692366, -0.21514362536692117]], [[0.21514362536692366, -0.21514362536692117]], [[0.21514362536692366, -0.21514362536692117]], [[0.2151436253669237, -0.21514362536692117]], [[0.21514362536692372, -0.21514362536692117]], [[0.21514362536692375, -0.2151436253669211]], [[0.21514362536692377, -0.2151436253669211]], [[0.21514362536692377, -0.2151436253669211]], [[0.21514362536692377, -0.2151436253669211]], [[0.21514362536692377, -0.2151436253669211]], [[0.21514362536692377, -0.21514362536692114]], [[0.21514362536692377, -0.21514362536692117]], [[0.21514362536692377, -0.21514362536692117]], [[0.21514362536692375, -0.21514362536692117]], [[0.21514362536692377, -0.21514362536692117]], [[0.21514362536692377, -0.2151436253669211]], [[0.21514362536692377, -0.2151436253669211]], [[0.21514362536692377, -0.21514362536692114]], [[0.21514362536692377, -0.21514362536692117]], [[0.21514362536692377, -0.21514362536692117]], [[0.21514362536692372, -0.21514362536692117]], [[0.21514362536692372, -0.21514362536692117]], [[0.21514362536692372, -0.2151436253669212]], [[0.21514362536692372, -0.21514362536692117]], [[0.21514362536692372, -0.21514362536692117]], [[0.21514362536692372, -0.21514362536692117]], [[0.21514362536692372, -0.21514362536692117]], [[0.21514362536692372, -0.21514362536692117]], [[0.21514362536692372, -0.21514362536692114]], [[0.21514362536692372, -0.21514362536692117]], [[0.21514362536692372, -0.21514362536692117]], [[0.21514362536692372, -0.2151436253669212]], [[0.21514362536692375, -0.21514362536692117]], [[0.21514362536692372, -0.21514362536692117]], [[0.21514362536692372, -0.21514362536692117]], [[0.21514362536692372, -0.21514362536692117]], [[0.21514362536692372, -0.2151436253669212]], [[0.21514362536692372, -0.21514362536692122]], [[0.21514362536692372, -0.2151436253669212]], [[0.21514362536692372, -0.21514362536692122]], [[0.21514362536692372, -0.21514362536692122]], [[0.21514362536692372, -0.21514362536692125]], [[0.21514362536692372, -0.21514362536692125]], [[0.21514362536692372, -0.21514362536692122]], [[0.21514362536692372, -0.21514362536692125]], [[0.21514362536692372, -0.21514362536692122]], [[0.21514362536692372, -0.21514362536692122]], [[0.21514362536692372, -0.21514362536692122]], [[0.21514362536692372, -0.21514362536692122]], [[0.21514362536692372, -0.21514362536692122]], [[0.21514362536692372, -0.21514362536692122]], [[0.21514362536692372, -0.21514362536692125]], [[0.21514362536692372, -0.21514362536692125]], [[0.21514362536692372, -0.21514362536692122]], [[0.21514362536692375, -0.21514362536692122]], [[0.21514362536692377, -0.21514362536692122]], [[0.21514362536692377, -0.21514362536692122]], [[0.21514362536692377, -0.21514362536692122]], [[0.21514362536692375, -0.21514362536692117]], [[0.21514362536692377, -0.21514362536692117]], [[0.2151436253669238, -0.21514362536692117]], [[0.21514362536692383, -0.21514362536692117]], [[0.2151436253669238, -0.2151436253669212]], [[0.21514362536692377, -0.21514362536692122]], [[0.21514362536692377, -0.21514362536692122]], [[0.21514362536692377, -0.21514362536692122]], [[0.21514362536692377, -0.21514362536692122]], [[0.21514362536692377, -0.21514362536692117]], [[0.21514362536692377, -0.2151436253669211]], [[0.21514362536692377, -0.21514362536692108]], [[0.21514362536692377, -0.2151436253669211]], [[0.21514362536692377, -0.2151436253669211]], [[0.21514362536692377, -0.21514362536692108]], [[0.21514362536692377, -0.2151436253669211]], [[0.21514362536692377, -0.2151436253669211]], [[0.21514362536692377, -0.21514362536692114]], [[0.21514362536692377, -0.21514362536692117]], [[0.21514362536692377, -0.2151436253669212]], [[0.21514362536692377, -0.21514362536692122]], [[0.21514362536692377, -0.21514362536692122]], [[0.21514362536692377, -0.21514362536692122]], [[0.21514362536692377, -0.21514362536692125]], [[0.21514362536692377, -0.21514362536692122]], [[0.21514362536692377, -0.21514362536692122]], [[0.21514362536692377, -0.21514362536692122]], [[0.21514362536692377, -0.21514362536692122]], [[0.2151436253669238, -0.21514362536692125]], [[0.21514362536692383, 