[[[-0.05560261035725873, 0.05560261035725876]], [[-0.08341684262431578, 0.08341684262431581]], [[-0.0973857538535736, 0.09738575385357363]], [[-0.1044234066635384, 0.10442340666353847]], [[-0.1079755749511709, 0.10797557495117095]], [[-0.10977522847613447, 0.10977522847613455]], [[-0.11068437788992158, 0.11068437788992158]], [[-0.1111437452619046, 0.11114374526190461]], [[-0.11138338263762927, 0.11138338263762926]], [[-0.1115043782499266, 0.11150437824992657]], [[-0.1115657786096167, 0.1115657786096166]], [[-0.1116027158610455, 0.11160271586104545]], [[-0.1116223145445484, 0.11162231454454835]], [[-0.11164012484584854, 0.11164012484584844]], [[-0.11165905186533773, 0.11165905186533759]], [[-0.11167040551819166, 0.11167040551819145]], [[-0.1116890169690783, 0.11168901696907804]], [[-0.11170142823846706, 0.1117014282384668]], [[-0.11172472394992637, 0.1117247239499261]], [[-0.11175773076954947, 0.11175773076954915]], [[-0.11177889571420688, 0.11177889571420654]], [[-0.11181692820062811, 0.11181692820062775]], [[-0.11183806875882138, 0.111838068758821]], [[-0.11188423497803439, 0.11188423497803404]], [[-0.11195186536608347, 0.11195186536608308]], [[-0.1119946681159465, 0.11199466811594608]], [[-0.11207329375896274, 0.11207329375896236]], [[-0.11212570823916536, 0.11212570823916494]], [[-0.11222676112118968, 0.11222676112118923]], [[-0.11234808614454095, 0.11234808614454052]], [[-0.11242317138384694, 0.11242317138384653]], [[-0.11257762218267961, 0.11257762218267917]], [[-0.11267580097081241, 0.11267580097081197]], [[-0.11287727847794285, 0.11287727847794246]], [[-0.11316852083187406, 0.11316852083187368]], [[-0.11333610620784075, 0.11333610620784036]], [[-0.11364529977800686, 0.11364529977800647]], [[-0.11389884664529895, 0.11389884664529856]], [[-0.11415723265915463, 0.11415723265915428]], [[-0.11465890028152427, 0.11465890028152398]], [[-0.11491741117803159, 0.11491741117803128]], [[-0.1155096772636626, 0.11550967726366233]], [[-0.11600160601776935, 0.11600160601776917]], [[-0.11634992639826142, 0.11634992639826125]], [[-0.1172237136616186, 0.11722371366161846]], [[-0.11757006273867904, 0.1175700627386789]], [[-0.11858739704368303, 0.11858739704368293]], [[-0.11946723077003386, 0.11946723077003371]], [[-0.11966047935198786, 0.11966047935198769]], [[-0.12098842381189917, 0.12098842381189899]], [[-0.1212127534053408, 0.12121275340534063]], [[-0.12272535425523223, 0.12272535425523207]], [[-0.1241481403268822, 0.12414814032688198]], [[-0.12341930514291902, 0.12341930514291874]], [[-0.12512816588149112, 0.1251281658814909]], [[-0.12710456589992092, 0.12710456589992075]], [[-0.12497728094721777, 0.12497728094721756]], [[-0.12299851055457894, 0.1229985105545787]], [[-0.12856684362003112, 0.12856684362003087]], [[-0.12629906908802838, 0.12629906908802807]], [[-0.12357596124277545, 0.12357596124277512]], [[-0.12603773575730484, 0.1260377357573045]], [[-0.11271958461450804, 0.11271958461450765]], [[-0.11504951071099526, 0.11504951071099481]], [[-0.11473754073567423, 0.11473754073567373]], [[-0.10568404356860757, 0.10568404356860713]], [[-0.11575874343468555, 0.11575874343468515]], [[-0.1046199559217503, 0.10461995592174989]], [[-0.09423457949977887, 0.09423457949977848]], [[-0.09765468306722064, 0.09765468306722026]], [[-0.09153675616795566, 0.09153675616795529]], [[-0.07891641027961471, 0.07891641027961427]], [[-0.08611891436814895, 0.08611891436814845]], [[-0.07583407339386612, 0.07583407339386561]], [[-0.0699161026687311, 0.06991610266873063]], [[-0.06144263860901103, 0.06144263860901057]], [[-0.053670075523627445, 0.05367007552362703]], [[-0.0648749920338004, 0.0648749920338]], [[-0.05570481119604673, 0.05570481119604634]], [[-0.04757759931286974, 0.04757759931286931]], [[-0.04048386032875395, 0.04048386032875352]], [[-0.03420545463999655, 0.03420545463999611]], [[-0.02856708510689887, 0.0285670851068984]], [[-0.02343483223961698, 0.02343483223961651]], [[-0.018707415153024362, 0.01870741515302389]], [[-0.014308668663467389, 0.014308668663466945]], [[-0.010181488234356356, 0.010181488234355926]], [[-0.0062830874856661945, 0.006283087485665723]], [[-0.002581348813726153, 0.0025813488137256396]], [[0.0009479501355032921, -0.0009479501355038472]], [[0.004323224670402331, -0.004323224670402914]], [[0.007558643255758779, -0.00755864325575932]], [[0.010665285246255624, -0.010665285246256206]], [[0.013651994250783978, -0.01365199425078456]], [[0.01652600276704272, -0.016526002767043232]], [[0.019293385884146447, -0.019293385884146946]], [[0.021959387935646682, -0.02195938793564718]], [[0.02452865525787666, -0.024528655257877188]], [[0.027005400001066326, -0.027005400001066854]], [[0.029393513693116838, -0.02939351369311735]], [[0.03169664451716757, -0.03169664451716808]], [[0.033918248679406765, -0.03391824867940722]], [[0.036061623538156215, -0.0360616235381567]], [[0.03812992812817485, -0.03812992812817535]], [[0.04012619518437882, -0.04012619518437935]], [[0.04205333762429386, -0.042053337624294404]], [[0.043914151595429454, -0.04391415159543001]], [[0.04571131756163874, -0.045711317561639334]], [[0.0474474004375382, -0.04744740043753881]], [[0.04912484944115837, -0.04912484944115901]], [[0.05074599809086229, -0.05074599809086289]], [[0.05231306459927161, -0.052313064599272194]], [[0.05382815279624456, -0.05382815279624517]], [[0.05529325363094112, -0.055293253630941785]], [[0.05671024724915974, -0.05671024724916032]], [[0.05808090560847816, -0.05808090560847874]], [[0.05940689557432767, -0.05940689557432824]], [[0.060689782430566344, -0.06068978243056691]], [[0.06193103373515724, -0.061931033735157806]], [[0.06313202345287194, -0.06313202345287251]], [[0.06429403630086146, -0.06429403630086207]], [[0.06541827224832265, -0.06541827224832328]], [[0.06650585111754909, -0.06650585111754972]], [[0.06755781723987418, -0.06755781723987485]], [[0.06857514412608252, -0.06857514412608319]], [[0.06955873911657419, -0.06955873911657484]], [[0.07050944798183806, -0.07050944798183874]], [[0.07142805944856671, -0.07142805944856735]], [[0.0723153096310376, -0.07231530963103831]], [[0.07329788009980748, -0.07329788009980817]], [[0.11586654071164887, -0.11586654071164956]], [[0.09099653883264618, -0.09099653883264687]], [[0.12898535661381472, -0.1289853566138154]], [[0.0999484708934784, -0.09994847089347914]], [[0.13610005508112355, -0.13610005508112433]], [[0.10544939502162562, -0.1054493950216264]], [[0.1407055376581865, -0.14070553765818722]], [[0.10940522084953783, -0.10940522084953855]], [[0.14415265086815265, -0.14415265086815343]], [[0.11255636287055314, -0.11255636287055397]], [[0.14698168148139584, -0.14698168148139668]], [[0.11520852268783419, -0.11520852268783505]], [[0.1494285938087486, -0.14942859380874954]], [[0.11750379612355176, -0.11750379612355263]], [[0.15161481584200645, -0.15161481584200737]], [[0.11952220461866854, -0.11952220461866953]], [[0.1536184720506763, -0.15361847205067722]], [[0.12131955302960482, -0.12131955302960575]], [[0.15550085056226498, -0.15550085056226592]], [[0.12294119425338254, -0.12294119425338348]], [[0.15731589152837094, -0.15731589152837183]], [[0.1244266489534132, -0.12442664895341408]], [[0.15911323349664744, -0.15911323349664833]], [[0.1258107716447196, -0.12581077164472043]], [[0.16093885052286258, -0.16093885052286339]], [[0.12712366336539896, -0.12712366336539976]], [[0.1628348589434931, -0.1628348589434939]], [[0.12839021615752952, -0.1283902161575303]], [[0.16483914803803595, -0.16483914803803668]], [[0.12962967819784166, -0.12962967819784235]], [[0.16698513613328614, -0.16698513613328675]], [[0.13085543394701316, -0.1308554339470137]], [[0.16930180787773885, -0.16930180787773935]], [[0.1320751047900569, -0.1320751047900574]], [[0.17181411085613374, -0.17181411085613424]], [[0.13329102029289855, -0.13329102029289902]], [[0.17379126748889612, -0.17379126748889656]], [[0.10599763444160969, -0.10599763444161012]], [[0.1495799833624596, -0.14957998336245998]], [[0.10301502482633478, -0.10301502482633514]], [[0.14682867047422013, -0.1468286704742205]], [[0.07281826631635203, -0.07281826631635241]], [[0.1211029937890888, -0.1211029937890892]], [[0.07074221155192388, -0.07074221155192426]], [[0.11828543949827826, -0.11828543949827859]], [[0.07125509304514999, -0.07125509304515035]], [[0.11968776990480558, -0.1196877699048059]], [[0.03800639910782497, -0.03800639910782526]], [[0.09548746598852066, -0.09548746598852095]], [[0.03797739579064696, -0.037977395790647336]], [[0.09298112980341396, -0.09298112980341432]], [[0.004301712384882736, -0.004301712384883069]], [[0.06906853681818126, -0.06906853681818156]], [[0.006149248194565693, -0.0061492481945659705]], [[0.06690117013405299, -0.06690117013405332]], [[-0.027489032668348054, 0.02748903266834772]], [[0.04434296222332798, -0.0443429622233283]], [[-0.023927513304457804, 0.023927513304457484]], [[0.04267508818691235, -0.04267508818691261]], [[-0.0570831140315452, 0.05708311403154495]], [[0.02168543146424512, -0.021685431464245397]], [[-0.051828112648876046, 0.05182811264887577]], [[0.020494324091728994, -0.020494324091729327]], [[-0.08403406794935703, 0.08403406794935672]], [[0.0010827403269545316, -0.001082740326954823]], [[-0.07715439004274735, 0.07715439004274707]], [[0.00030074921114622843, -0.0003007492111465615]], [[-0.10807536966043568, 0.10807536966043535]], [[-0.017698190130907246, 0.017698190130906954]], [[-0.09974448711802471, 0.09974448711802439]], [[-0.018177476538639853, 0.01817747653863952]], [[-0.12925109528334927, 0.129251095283349]], [[-0.03504719793016514, 0.035047197930164836]], [[-0.119753769283491, 0.11975376928349071]], [[-0.035351101886462996, 0.03535110188646273]], [[-0.14793003792966108, 0.1479300379296608]], [[-0.05141239092397, 0.051412390923969695]], [[-0.13761832109974087, 0.1376183210997406]], [[-0.05166439756112609, 0.051664397561125786]], [[-0.16470329578489715, 0.16470329578489684]], [[-0.06720336628743116, 0.0672033662874309]], [[-0.15392156746573218, 0.15392156746573193]], [[-0.06750459599681213, 0.0675045959968119]], [[-0.18022005737917696, 0.18022005737917668]], [[-0.08273050687612774, 0.08273050687612749]], [[-0.16924196219766455, 0.16924196219766421]], [[-0.08315225924777214, 0.08315225924777186]], [[-0.19504710182283505, 0.19504710182283475]], [[-0.09818597695955952, 0.09818597695955925]], [[-0.18404964782067582, 0.18404964782067554]], [[-0.0987709793773803, 0.09877097937738004]], [[-0.2095972209516608, 0.20959722095166058]], [[-0.11365373828484945, 0.11365373828484926]], [[-0.19866737806137405, 0.19866737806137383]], [[-0.11442234723772271, 0.11442234723772246]], [[-0.22411927774995324, 0.22411927774995302]], [[-0.12917528959291885, 0.12917528959291863]], [[-0.2480471605442055, 0.24804716054420525]], [[-0.1435228549538026, 0.14352285495380232]], [[-0.23331614682824545, 0.2333161468282452]], [[-0.1447470529458938, 0.14474705294589355]], [[-0.2537832791354116, 0.2537832791354113]], [[-0.16097876164696479, 0.16097876164696448]], [[-0.24071564447846255, 0.24071564447846228]], [[-0.1637495054472379, 0.16374950544723763]], [[-0.22895671555259334, 0.22895671555259312]], [[-0.16571901975717934, 0.16571901975717912]], [[-0.2596110146471333, 0.2596110146471331]], [[-0.18914297473821184, 0.18914297473821162]], [[-0.24856510911766352, 0.24856510911766336]], [[-0.18927553490141474, 0.18927553490141458]], [[-0.2429718381957431, 0.24297183819574292]], [[-0.19643277219668964, 0.19643277219668942]], [[-0.27631643861331806, 0.2763164386133178]], [[-0.21638783873725337, 0.21638783873725304]], [[-0.308444230267521, 0.30844423026752066]], [[-0.23388606614738475, 0.2338860661473844]], [[-0.3367979717562426, 0.33679797175624226]], [[-0.24782046497415838, 0.2478204649741581]], [[-0.3609438475281499, 0.36094384752814956]], [[-0.253352826142867, 0.2533528261428667]], [[-0.38488653635056763, 0.3848865363505673]], [[-0.2527491716209922, 0.2527491716209919]], [[-0.40287194850962527, 0.402871948509625]], [[-0.2442112934141753, 0.24421129341417494]], [[-0.4100209205929908, 0.41002092059299045]], [[-0.23151608416524272, 0.23151608416524233]], [[-0.39716645773028053, 0.39716645773028014]], [[-0.22385750731191228, 0.2238575073119119]], [[-0.37259617409337287, 0.3725961740933725]], [[-0.2305919240948997, 0.23059192409489934]], [[-0.32501228459791254, 0.3250122845979122]], [[-0.2511672058840343, 0.25116720588403396]], [[-0.29000481976486164, 0.29000481976486125]], [[-0.27034960820295817, 0.2703496082029578]], [[-0.2843799418182712, 0.2843799418182708]], [[-0.2802881111083276, 0.2802881111083272]], [[-0.2841942595909858, 0.28419425959098543]], [[-0.28359209629031334, 0.2835920962903129]], [[-0.28517070126032773, 0.2851707012603273]], [[-0.28534420181281195, 0.2853442018128115]], [[-0.28618334659444494, 0.28618334659444455]], [[-0.28646810550320595, 0.2864681055032056]], [[-0.286967176862043, 0.2869671768620426]], [[-0.28719100069792536, 0.2871910006979249]], [[-0.28747843518759086, 0.28747843518759036]], [[-0.287599180274135, 0.28759918027413445]], [[-0.2877290278231814, 0.2877290278231809]], [[-0.2880877550246941, 0.28808775502469364]], [[-0.33693271522614476, 0.3369327152261443]], [[-0.30565279440154275, 0.30565279440154225]], [[-0.37627554723811085, 0.3762755472381104]], [[-0.32306718449180544, 0.323067184491805]], [[-0.4091588855032864, 0.40915888550328594]], [[-0.33791845928920455, 0.3379184592892041]], [[-0.4374399017848714, 0.437439901784871]], [[-0.34935045819296884, 0.3493504581929685]], [[-0.46169145363168484, 0.4616914536316845]], [[-0.3565687382427442, 0.3565687382427439]], [[-0.48216310781594884, 0.4821631078159485]], [[-0.35811214638998357, 0.35811214638998323]], [[-0.49947540801342094, 0.49947540801342066]], [[-0.35023926961644053, 0.35023926961644025]], [[-0.5156950936256848, 0.5156950936256844]], [[-0.32308960060410963, 0.3230896006041093]], [[-0.5347603900357822, 0.5347603900357819]], [[-0.2836431396926873, 0.28364313969268695]], [[-0.45092786757302383, 0.4509278675730235]], [[-0.27775126407840367, 0.2777512640784034]], [[-0.4228611540681695, 0.4228611540681692]], [[-0.2900392184908565, 0.29003921849085623]], [[-0.38503416426130094, 0.38503416426130066]], [[-0.33875108281732347, 0.33875108281732313]], [[-0.3556923715334702, 0.3556923715334699]], [[-0.35217362268839275, 0.3521736226883925]], [[-0.3575789229706987, 0.35757892297069843]], [[-0.35853126007421665, 0.3585312600742163]], [[-0.3602590093368151, 0.36025900933681476]], [[-0.3612444671608326, 0.3612444671608323]], [[-0.3622587868384277, 0.36225878683842744]], [[-0.3630481044833779, 0.3630481044833776]], [[-0.36376616510884063, 0.3637661651088403]], [[-0.3643595175129571, 0.3643595175129567]], [[-0.364871507383766, 0.3648715073837656]], [[-0.3652910110093722, 0.36529101100937184]], [[-0.36595020604308526, 0.36595020604308487]], [[-0.40881865173927423, 0.4088186517392739]], [[-0.38583301894044986, 0.3858330189404495]], [[-0.44094471463185975, 0.44094471463185936]], [[-0.4075885017862477, 0.4075885017862474]], [[-0.4688274583130881, 0.46882745831308775]], [[-0.42861700535979996, 0.42861700535979963]], [[-0.4944768842004812, 0.49447688420048086]], [[-0.44838968797420614, 0.44838968797420586]], [[-0.5184762678461321, 0.5184762678461319]], [[-0.46677966005097676, 0.46677966005097654]], [[-0.541005415384715, 0.5410054153847148]], [[-0.4837736700550784, 0.48377367005507815]], [[-0.5621085706378666, 0.5621085706378663]], [[-0.49940861616288984, 0.4994086161628896]], [[-0.5817769594441919, 0.5817769594441917]], [[-0.5137589572109882, 0.513758957210988]], [[-0.5999819198420903, 0.5999819198420899]], [[-0.5269383058045667, 0.5269383058045664]], [[-0.6166950727326426, 0.6166950727326423]], [[-0.5391044378404345, 0.5391044378404343]], [[-0.631906302847968, 0.6319063028479678]], [[-0.5504625607584822, 0.550462560758482]], [[-0.6456427523430492, 0.645642752343049]], [[-0.5612617717765476, 0.5612617717765473]], [[-0.6579893271985716, 0.6579893271985715]], [[-0.5717778699426922, 0.5717778699426921]], [[-0.6691088438231415, 0.6691088438231414]], [[-0.5822756453955596, 0.5822756453955595]], [[-0.6792548275736234, 0.6792548275736232]], [[-0.592951688057658, 0.5929516880576576]], [[-0.6887620356094487, 0.6887620356094484]], [[-0.6038779691995609, 0.6038779691995607]], [[-0.6979984060588936, 0.6979984060588934]], [[-0.6149828680102843, 0.6149828680102841]], [[-0.7072829325916634, 0.7072829325916632]], [[-0.6260909597443436, 0.6260909597443434]], [[-0.7168090593410908, 0.7168090593410905]], [[-0.6369975972116151, 0.6369975972116146]], [[-0.7266190065575133, 0.7266190065575129]], [[-0.6475306526584965, 0.6475306526584961]], [[-0.7366346945527353, 0.7366346945527349]], [[-0.6575756505170436, 0.657575650517043]], [[-0.7467131281950895, 0.746713128195089]], [[-0.6670735574583526, 0.667073557458352]], [[-0.7566944467181476, 0.7566944467181469]], [[-0.6760094277961444, 0.6760094277961438]], [[-0.766431383097764, 0.7664313830977635]], [[-0.6844024013399959, 0.6844024013399954]], [[-0.7758033976910653, 0.7758033976910649]], [[-0.6922994029885147, 0.6922994029885142]], [[-0.7847223112799031, 0.7847223112799027]], [[-0.6997711790044469, 0.6997711790044464]], [[-0.7931345307639931, 0.7931345307639925]], [[-0.7069084189016909, 0.7069084189016903]], [[-0.801022391997865, 0.8010223919978644]], [[-0.7138158288955776, 0.713815828895577]], [[-0.808405152828341, 0.8084051528283405]], [[-0.7206025693384507, 0.7206025693384501]], [[-0.8153387337928222, 0.8153387337928216]], [[-0.7273686781662319, 0.7273686781662313]], [[-0.8219122570593413, 0.8219122570593407]], [[-0.7341892617799101, 0.7341892617799094]], [[-0.8282390976080185, 0.828239097608018]], [[-0.7411008081592969, 0.7411008081592964]], [[-0.8344413561105352, 0.8344413561105346]], [[-0.7480951471170914, 0.7480951471170908]], [[-0.8406297632534803, 0.8406297632534797]], [[-0.7551244145080169, 0.7551244145080165]], [[-0.846884540807088, 0.8468845408070875]], [[-0.7621153800159517, 0.7621153800159512]], [[-0.8532436640771914, 0.853243664077191]], [[-0.7689872619938838, 0.7689872619938833]], [[-0.8597018500422677, 0.8597018500422673]], [[-0.775666896275963, 0.7756668962759625]], [[-0.866218713083322, 0.8662187130833215]], [[-0.7820982503829543, 0.7820982503829539]], [[-0.8727315288754112, 0.8727315288754107]], [[-0.78824664962144, 0.7882466496214395]], [[-0.8791682119854382, 0.8791682119854378]], [[-0.794099628578158, 0.7940996285781576]], [[-0.8854580554174216, 0.8854580554174214]], [[-0.7996661514235409, 0.7996661514235407]], [[-0.8915396737359287, 0.8915396737359285]], [[-0.8049750757744788, 0.8049750757744786]], [[-0.8973666162869284, 0.8973666162869282]], [[-0.8100729031957863, 0.8100729031957861]], [[-0.9029113366864494, 0.9029113366864493]], [[-0.8150203216654245, 0.8150203216654244]], [[-0.9081679529612469, 0.9081679529612467]], [[-0.8198868534353685, 0.8198868534353684]], [[-0.9131537678814643, 0.9131537678814642]], [[-0.8247431485701153, 0.8247431485701153]], [[-0.9179089993727907, 0.9179089993727907]], [[-0.8296512180186925, 0.8296512180186925]], [[-0.9224937832305647, 0.9224937832305647]], [[-0.8346541222909504, 0.8346541222909504]], [[-0.9269815769318875, 0.9269815769318874]], [[-0.8397678171322733, 0.8397678171322732]], [[-0.931448956283625, 0.9314489562836249]], [[-0.8449780728589251, 0.844978072858925]], [[-0.9359633875177463, 0.9359633875177462]], [[-0.8502439546118916, 0.8502439546118915]], [[-0.9405720290290108, 0.9405720290290107]], [[-0.8555067940301648, 0.8555067940301646]], [[-0.9452947684400734, 0.9452947684400732]], [[-0.8607015380571955, 0.8607015380571953]], [[-0.9501231493008647, 0.9501231493008645]], [[-0.8657671441932542, 0.865767144193254]], [[-0.9550245828885925, 0.9550245828885924]], [[-0.8706540824499619, 0.8706540824499618]], [[-0.9599497215462492, 0.9599497215462491]], [[-0.8753287160882179, 0.8753287160882178]], [[-0.9648407003632261, 0.964840700363226]], [[-0.8797753452079075, 0.8797753452079073]], [[-0.9696387065003198, 0.9696387065003197]], [[-0.8839968465090666, 0.8839968465090665]], [[-0.9742902624123898, 0.9742902624123897]], [[-0.8880144797708311, 0.8880144797708309]], [[-0.9787522470488159, 0.9787522470488158]], [[-0.8918669240212459, 0.8918669240212458]], [[-0.9829959312315542, 0.982995931231554]], [[-0.8956081549573898, 0.8956081549573897]], [[-0.987010251158908, 0.9870102511589078]], [[-0.8993034838954023, 0.899303483895402]], [[-0.990804280434015, 0.9908042804340148]], [[-0.9030230786932708, 0.9030230786932706]], [[-0.994408449090084, 0.9944084490900837]], [[-0.9068327800129742, 0.906832780012974]], [[-0.9978736027528027, 0.9978736027528025]], [[-0.910783147588547, 0.9107831475885467]], [[-1.0012667662695076, 1.0012667662695074]], [[-0.9148991631750051, 0.9148991631750049]], [[-1.0046629157861435, 1.0046629157861433]], [[-0.9191739835163348, 0.9191739835163346]], [[-1.00813344692804, 1.0081334469280399]], [[-0.9235694522550186, 0.9235694522550184]], [[-1.011733876928336, 1.0117338769283357]], [[-0.928023559103414, 0.9280235591034139]], [[-1.0154943404063972, 1.0154943404063972]], [[-0.932462147458595, 0.9324621474585949]], [[-1.0194155925607775, 1.0194155925607775]], [[-0.936810931759775, 0.9368109317597749]], [[-1.0234709567347489, 1.0234709567347489]], [[-0.9410048850508503, 0.9410048850508503]], [[-1.0276125351668222, 1.0276125351668222]], [[-0.9449941001415018, 0.9449941001415019]], [[-1.0317792246245285, 1.0317792246245288]], [[-0.9487468058882589, 0.9487468058882591]], [[-1.0359045778411242, 1.0359045778411244]], [[-0.9522507536378282, 0.9522507536378284]], [[-1.0399235462133245, 1.0399235462133247]], [[-0.9555139497683728, 0.955513949768373]], [[-1.0437779741047186, 1.0437779741047188]], [[-0.9585651622891066, 0.9585651622891069]], [[-1.047421164884852, 1.0474211648848522]], [[-0.9614540373649385, 0.9614540373649387]], [[-1.0508219583217266, 1.0508219583217269]], [[-0.9642500860443022, 0.9642500860443024]], [[-1.0539686534072794, 1.0539686534072796]], [[-0.9670392682134336, 0.9670392682134339]], [[-1.0568728017803684, 1.0568728017803688]], [[-0.969916603503156, 0.9699166035031563]], [[-1.0595723070170815, 1.0595723070170817]], [[-0.9729736796270017, 0.9729736796270019]], [[-1.0621323563240723, 1.0621323563240725]], [[-0.9762817561771978, 0.976281756177198]], [[-1.0646418271406406, 1.0646418271406408]], [[-0.9798743694042863, 0.9798743694042864]], [[-1.0672029775009908, 1.0672029775009908]], [[-0.9837361470397457, 0.9837361470397457]], [[-1.069914597595243, 1.069914597595243]], [[-0.9878037799693534, 0.9878037799693534]], [[-1.0728528438255216, 1.0728528438255216]], [[-0.9919795967270089, 0.9919795967270089]], [[-1.0760565675253684, 1.0760565675253684]], [[-0.9961516732338342, 0.9961516732338342]], [[-1.0795221870697023, 1.0795221870697023]], [[-1.000212332737215, 1.000212332737215]], [[-1.0832082228126398, 1.0832082228126398]], [[-1.0040701694419005, 1.0040701694419005]], [[-1.0870456390311733, 1.0870456390311733]], [[-1.0076554588122928, 1.0076554588122928]], [[-1.0909494636110368, 1.0909494636110368]], [[-1.010921468950866, 1.010921468950866]], [[-1.0948288219705464, 1.0948288219705464]], [[-1.0138443848421994, 1.0138443848421992]], [[-1.09859451831809, 1.09859451831809]], [[-1.0164236279560732, 1.0164236279560732]], [[-1.102164545912427, 1.102164545912427]], [[-1.018683379745706, 1.0186833797457062]], [[-1.1054683713011504, 1.1054683713011504]], [[-1.0206754048216378, 1.0206754048216378]], [[-1.1084508824650512, 1.1084508824650512]], [[-1.022482616487038, 1.0224826164870378]], [[-1.1110768487591915, 1.1110768487591913]], [[-1.024221828089516, 1.0242218280895157]], [[-1.1133367422729643, 1.113336742272964]], [[-1.0260424348206452, 1.026042434820645]], [[-1.115254614270285, 1.1152546142702848]], [[-1.0281156320394929, 1.0281156320394926]], [[-1.1168976530927914, 1.1168976530927912]], [[-1.0306082157384848, 1.0306082157384844]], [[-1.118383887678478, 1.1183838876784775]], [[-1.0336403931466833, 1.033640393146683]], [[-1.1198794726184353, 1.1198794726184351]], [[-1.0372409851070095, 1.0372409851070092]], [[-1.1215754200061274, 1.1215754200061272]], [[-1.041326648168504, 1.0413266481685037]], [[-1.123644038040061, 1.1236440380400605]], [[-1.045723821767934, 1.0457238217679337]], [[-1.1261940587678003, 1.1261940587677999]], [[-1.0502212724534814, 1.050221272453481]], [[-1.129248799260429, 1.1292487992604285]], [[-1.0546203043266826, 1.0546203043266822]], [[-1.1327541918679467, 1.1327541918679462]], [[-1.0587609959737248, 1.0587609959737243]], [[-1.1366038646611876, 1.1366038646611873]], [[-1.062525935567036, 1.0625259355670358]], [[-1.140665146876944, 1.1406651468769438]], [[-1.065833316337725, 1.0658333163377247]], [[-1.144797814778985, 1.1447978147789848]], [[-1.0686288455000517, 1.0686288455000514]], [[-1.1488649371783444, 1.1488649371783441]], [[-1.0708805806805655, 1.0708805806805652]], [[-1.1527383178793533, 1.152738317879353]], [[-1.0725775573381313, 1.072577557338131]], [[-1.1563011720887861, 1.156301172088786]], [[-1.0737321209155317, 1.0737321209155315]], [[-1.159449788880746, 1.1594497888807458]], [[-1.0743862282329306, 1.0743862282329304]], [[-1.1620950694908758, 1.1620950694908756]], [[-1.0746228775087565, 1.0746228775087563]], [[-1.164164425039893, 1.1641644250398928]], [[-1.0745845857838783, 1.074584585783878]], [[-1.1656049669053872, 1.165604966905387]], [[-1.0744998363209053, 1.0744998363209048]], [[-1.1663911250055843, 1.1663911250055838]], [[-1.0747111679527515, 1.074711167952751]], [[-1.166545155411745, 1.1665451554117445]], [[-1.0756767515913865, 1.075676751591386]], [[-1.1661851040810987, 1.1661851040810982]], [[-1.0778822472983558, 1.0778822472983554]], [[-1.1656004166087635, 1.165600416608763]], [[-1.0816127657060448, 1.0816127657060444]], [[-1.1652827609088794, 1.165282760908879]], [[-1.0867098814356908, 1.0867098814356904]], [[-1.1657830045134605, 1.16578300451346]], [[-1.0926123043736908, 1.0926123043736904]], [[-1.167447798097014, 1.1674477980970135]], [[-1.0986882326691567, 1.0986882326691563]], [[-1.1703033934608436, 1.1703033934608431]], [[-1.104488097536108, 1.1044880975361075]], [[-1.174152539894308, 1.1741525398943076]], [[-1.1097630839961465, 1.1097630839961459]], [[-1.1787167126059233, 1.1787167126059226]], [[-1.1143853476247818, 1.1143853476247811]], [[-1.1837197633317926, 1.183719763331792]], [[-1.1182803083642006, 1.1182803083642]], [[-1.1889161347626231, 1.1889161347626225]], [[-1.121391053531246, 1.1213910535312452]], [[-1.1940920667510275, 1.1940920667510269]], [[-1.1236637002482766, 1.1236637002482759]], [[-1.1990586816767594, 1.1990586816767588]], [[-1.1250419452460942, 1.1250419452460936]], [[-1.203645445042456, 1.2036454450424552]], [[-1.1254630565911086, 1.1254630565911077]], [[-1.2076969957523858, 1.2076969957523849]], [[-1.1248493328121894, 1.1248493328121885]], [[-1.2110742333770461, 1.2110742333770452]], [[-1.1230869304098725, 1.1230869304098716]], [[-1.2136611925785867, 1.2136611925785858]], [[-1.11997299912904, 1.119972999129039]], [[-1.2153861810199103, 1.2153861810199094]], [[-1.115069185658397, 1.1150691856583963]], [[-1.216301397208679, 1.2163013972086782]], [[-1.107200442364075, 1.1072004423640744]], [[-1.2170025846435106, 1.21700258464351]], [[-1.0919888653031151, 1.0919888653031145]], [[-1.2225467580760543, 1.2225467580760536]], [[-1.037178434075243, 1.0371784340752424]], [[-1.346715513725432, 1.3467155137254314]], [[-0.9373979092138967, 0.9373979092138959]], [[-0.8895921738742923, 0.8895921738742916]], [[-0.6426894716173976, 0.6426894716173968]], [[-0.9732197591153318, 0.9732197591153309]], [[-0.6054253381166643, 0.6054253381166634]], [[-0.3539299692272595, 0.3539299692272586]], [[-0.4912580320558363, 0.4912580320558354]], [[-0.34596006060936857, 0.3459600606093677]], [[-0.4095125965309513, 0.4095125965309504]], [[-0.40981654799214207, 0.4098165479921412]], [[-0.43377616808978275, 0.43377616808978187]], [[-0.4608485948293699, 0.460848594829369]], [[-0.4676839231207692, 0.46768392312076823]], [[-0.49289688663784487, 0.4928968866378439]], [[-0.49866943412712605, 0.49866943412712517]], [[-0.5238834032697747, 0.5238834032697738]], [[-0.5284664189095528, 0.5284664189095519]], [[-0.5536196837757569, 0.553619683775756]], [[-0.5570582863538549, 0.557058286353854]], [[-0.5823006936495486, 0.5823006936495478]], [[-0.5845095113312013, 0.5845095113312005]], [[-0.6097526813003378, 0.609752681300337]], [[-0.610805340321199, 0.6108053403211983]], [[-0.6360819719500437, 0.6360819719500429]], [[-0.6360189310887523, 0.6360189310887515]], [[-0.6613590232204077, 0.661359023220407]], [[-0.6602115322146856, 0.6602115322146849]], [[-0.6856450549118693, 0.6856450549118686]], [[-0.6834360982579094, 0.6834360982579086]], [[-0.7089952381888665, 0.7089952381888656]], [[-0.7057399764385006, 0.7057399764384997]], [[-0.7314605864568927, 0.7314605864568918]], [[-0.7271664796009288, 0.7271664796009281]], [[-0.7530890455884245, 0.7530890455884237]], [[-0.747755727954583, 0.7477557279545822]], [[-0.7739260919836006, 0.7739260919835999]], [[-0.7675450480935793, 0.7675450480935786]], [[-0.7940150468606966, 0.7940150468606959]], [[-0.7865691134987111, 0.7865691134987104]], [[-0.813397234552899, 0.8133972345528984]], [[-0.8048599347923583, 0.8048599347923576]], [[-0.8321120581548092, 0.8321120581548085]], [[-0.8224467593644773, 0.8224467593644766]], [[-0.8501970318762676, 0.8501970318762669]], [[-0.839355910620558, 0.8393559106205573]], [[-0.8676877887111154, 0.8676877887111145]], [[-0.8556105800126383, 0.8556105800126375]], [[-0.8846180689536548, 0.884618068953654]], [[-0.8712305755567729, 0.8712305755567721]], [[-0.9010196859162968, 0.9010196859162959]], [[-0.8862320261276008, 0.8862320261275999]], [[-0.9169224573862995, 0.9169224573862986]], [[-0.9006270404412955, 0.9006270404412946]], [[-0.9323540831195881, 0.9323540831195871]], [[-0.9144233235725042, 0.9144233235725032]], [[-0.9473399386516361, 0.9473399386516351]], [[-0.9276237636222795, 0.9276237636222785]], [[-0.9619027429329311, 0.9619027429329302]], [[-0.9402260196407757, 0.9402260196407748]], [[-0.9760620414758733, 0.9760620414758724]], [[-0.9522221734345151, 0.9522221734345142]], [[-0.9898334291241038, 0.9898334291241028]], [[-0.9635985578801978, 0.9635985578801969]], [[-1.003227421994564, 1.0032274219945632]], [[-0.9743359477041774, 0.9743359477041765]], [[-1.0162478881427313, 1.0162478881427304]], [[-0.9844103951375492, 0.9844103951375485]], [[-1.0288899839925443, 1.0288899839925436]], [[-0.9937950973562879, 0.9937950973562872]], [[-1.0411376566602952, 1.0411376566602946]], [[-1.0024637490327581, 1.0024637490327575]], [[-1.0529610101755174, 1.0529610101755167]], [[-1.010395766426308, 1.0103957664263072]], [[-1.0643142297424333, 1.0643142297424326]], [[-1.017583425872758, 1.0175834258727574]], [[-1.0751352631653848, 1.075135263165384]], [[-1.0240402120928251, 1.0240402120928247]], [[-1.08534884049617, 1.0853488404961695]], [[-1.0298085790560048, 1.0298085790560043]], [[-1.0948742170858132, 1.0948742170858128]], [[-1.0349643483936428, 1.0349643483936424]], [[-1.1036377836413676, 1.103637783641367]], [[-1.0396149540352588, 1.0396149540352584]], [[-1.1115884686852757, 1.1115884686852753]], [[-1.0438903381781348, 1.0438903381781344]], [[-1.118711738841859, 1.1187117388418586]], [[-1.0479280682919052, 1.0479280682919048]], [[-1.1250375852899013, 1.1250375852899008]], [[-1.051856547242492, 1.0518565472424914]], [[-1.1306398196605498, 1.1306398196605494]], [[-1.0557805876455202, 1.0557805876455197]], [[-1.1356271142863368, 1.1356271142863363]], [[-1.0597722654810433, 1.0597722654810429]], [[-1.1401286226949416, 1.1401286226949412]], [[-1.0638681270770665, 1.063868127077066]], [[-1.1442778545623038, 1.1442778545623034]], [[-1.0680723349724977, 1.0680723349724972]], [[-1.1481981332884788, 1.1481981332884783]], [[-1.0723642125950612, 1.0723642125950608]], [[-1.1519920148421952, 1.1519920148421947]], [[-1.07670788143421, 1.0767078814342095]], [[-1.1557357740723881, 1.1557357740723877]], [[-1.0810615877059482, 1.0810615877059477]], [[-1.1594787321088655, 1.159478732108865]], [[-1.085384997833748, 1.0853849978337475]], [[-1.1632462030597557, 1.1632462030597552]], [[-1.089643807909959, 1.0896438079099586]], [[-1.167044454993691, 1.1670444549936905]], [[-1.0938119058063096, 1.0938119058063092]], [[-1.1708662572530075, 1.1708662572530069]], [[-1.0978717622822303, 1.0978717622822296]], [[-1.1746960486729177, 1.174696048672917]], [[-1.101813762532089, 1.1018137625320883]], [[-1.1785142378302418, 1.1785142378302411]], [[-1.1056350202080578, 1.105635020208057]], [[-1.1823004932962817, 1.1823004932962808]], [[-1.1093380106868937, 1.1093380106868929]], [[-1.1860360761473927, 1.1860360761473916]], [[-1.1129292021832886, 1.1129292021832875]], [[-1.1897053470687189, 1.1897053470687178]], [[-1.1164177689895902, 1.1164177689895889]], [[-1.193296596081843, 1.1932965960818416]], [[-1.1198144264986398, 1.1198144264986385]], [[-1.1968023320448682, 1.1968023320448669]], [[-1.1231304119179082, 1.1231304119179069]], [[-1.2002191529052986, 1.2002191529052972]], [[-1.1263766308429741, 1.1263766308429728]], [[-1.203547304705061, 1.2035473047050598]], [[-1.1295629876801536, 1.1295629876801523]], [[-1.2067900285017554, 1.206790028501754]], [[-1.1326979123798249, 1.1326979123798235]], [[-1.2099527873777207, 1.2099527873777194]], [[-1.1357880860341754, 1.135788086034174]], [[-1.2130424576819776, 1.2130424576819763]], [[-1.138838354966086, 1.138838354966085]], [[-1.21606655754776, 1.216066557547759]], [[-1.141851809536869, 1.141851809536868]], [[-1.2190325708899283, 1.2190325708899272]], [[-1.1448299927642533, 1.1448299927642522]], [[-1.2219474072267196, 1.2219474072267185]], [[-1.1477731970811007, 1.1477731970810996]], [[-1.2248170185135678, 1.224817018513567]], [[-1.1506808061501308, 1.15068080615013]], [[-1.2276461758877366, 1.2276461758877357]], [[-1.1535516422846581, 1.1535516422846572]], [[-1.2304383938008636, 1.2304383938008627]], [[-1.1563842874164352, 1.1563842874164343]], [[-1.2331959778270851, 1.2331959778270842]], [[-1.159177354919559, 1.159177354919558]], [[-1.2359201659889205, 1.2359201659889196]], [[-1.1619296992141583, 1.1619296992141575]], [[-1.238611331449365, 1.238611331449364]], [[-1.1646405586331179, 1.164640558633117]], [[-1.2412692160198016, 1.2412692160198007]], [[-1.1673096338118096, 1.1673096338118087]], [[-1.2438931680164906, 1.2438931680164897]], [[-1.1699371086490422, 1.1699371086490413]], [[-1.2464823634647058, 1.2464823634647049]], [[-1.1725236238407086, 1.1725236238407075]], [[-1.2490359955875148, 1.2490359955875137]], [[-1.1750702144361633, 1.1750702144361622]], [[-1.251553423269571, 1.25155342326957]], [[-1.1775782231749725, 1.1775782231749714]], [[-1.2540342743435708, 1.2540342743435697]], [[-1.1800492008434273, 1.1800492008434262]], [[-1.2564785038887338, 1.2564785038887325]], [[-1.1824848037849827, 1.1824848037849813]], [[-1.2588864111670153, 1.258886411167014]], [[-1.1848866971782956, 1.1848866971782943]], [[-1.2612586213413728, 1.2612586213413715]], [[-1.187256470890604, 1.1872564708906026]], [[-1.263596039752391, 1.2635960397523898]], [[-1.1895955727368035, 1.1895955727368022]], [[-1.2658997873327098, 1.2658997873327085]], [[-1.1919052619413588, 1.1919052619413575]], [[-1.268171125792935, 1.2681711257929336]], [[-1.1941865836335843, 1.194186583633583]], [[-1.2704113806211679, 1.2704113806211665]], [[-1.1964403634303789, 1.1964403634303775]], [[-1.2726218688280129, 1.2726218688280115]], [[-1.1986672196855634, 1.1986672196855621]], [[-1.274803836887877, 1.2748038368878756]], [[-1.2008675898960677, 1.2008675898960663]], [[-1.2769584126362115, 1.2769584126362103]], [[-1.2030417670980162, 1.2030417670980151]], [[-1.2790865731420493, 1.2790865731420482]], [[-1.2051899418621543, 1.2051899418621532]], [[-1.2811891289329966, 1.2811891289329953]], [[-1.2073122456685035, 1.2073122456685021]], [[-1.2832667235264497, 1.2832667235264483]], [[-1.2094087919328138, 1.2094087919328125]], [[-1.285319846101379, 1.2853198461013777]], [[-1.2114797116810638, 1.2114797116810625]], [[-1.2873488543754303, 1.287348854375429]], [[-1.2135251817258375, 1.2135251817258361]], [[-1.289354004340511, 1.2893540043405096]], [[-1.2155454440985034, 1.215545444098502]], [[-1.2913354834326611, 1.2913354834326598]], [[-1.2175408163559824, 1.217540816355981]], [[-1.2932934439213755, 1.2932934439213741]], [[-1.2195116931504995, 1.2195116931504981]], [[-1.2952280337375275, 1.2952280337375262]], [[-1.2214585400835105, 1.2214585400835092]], [[-1.29713942254909, 1.2971394225490886]], [[-1.2233818813363988, 1.2233818813363975]], [[-1.299027821571668, 1.2990278215716666]], [[-1.2252822828705012, 1.2252822828705]], [[-1.3008934963032959, 1.3008934963032945]], [[-1.2271603331194858, 1.2271603331194845]], [[-1.3027367720450547, 1.3027367720450533]], [[-1.229016623069616, 1.2290166230696147]], [[-1.304558032665965, 1.3045580326659636]], [[-1.2308517274575732, 1.2308517274575719]], [[-1.3063577135584326, 1.3063577135584312]], [[-1.2326661885371886, 1.232666188537187]], [[-1.308136290086761, 1.3081362900867595]], [[-1.234460503506467, 1.2344605035064657]], [[-1.3098942630447605, 1.3098942630447592]], [[-1.2362351162786127, 1.2362351162786112]], [[-1.31163214270907, 1.3116321427090685]], [[-1.2379904138601596, 1.237990413860158]], [[-1.313350433012368, 1.3133504330123664]], [[-1.2397267271991612, 1.2397267271991597]], [[-1.3150496171838308, 1.3150496171838293]], [[-1.241444336015915, 1.2414443360159135]], [[-1.3167301459384417, 1.3167301459384402]], [[-1.2431434768510854, 1.2431434768510838]], [[-1.3183924289719926, 1.318392428971991]], [[-1.2448243533765955, 1.244824353376594]], [[-1.3200368301665315, 1.32003683016653]], [[-1.2464871479201058, 1.2464871479201045]], [[-1.3216636665623995, 1.3216636665623982]], [[-1.2481320331526589, 1.2481320331526575]], [[-1.3232732108353455, 1.3232732108353442]], [[-1.2497591829721166, 1.2497591829721153]], [[-1.3248656967526895, 1.3248656967526882]], [[-1.2513687817675136, 1.2513687817675125]], [[-1.3264413268867963, 1.3264413268867952]], [[-1.2529610314526176, 1.2529610314526165]], [[-1.3280002817457752, 1.3280002817457741]], [[-1.2545361558901786, 1.2545361558901775]], [[-1.3295427294419269, 1.3295427294419258]], [[-1.2560944025707959, 1.2560944025707947]], [[-1.331068835053353, 1.331068835053352]], [[-1.2576360416427372, 1.2576360416427361]], [[-1.332578768933454, 1.332578768933453]], [[-1.2591613625947253, 1.2591613625947242]], [[-1.3340727133730483, 1.3340727133730472]], [[-1.2606706690594054, 1.2606706690594043]], [[-1.3355508672044105, 1.3355508672044094]], [[-1.2621642723216435, 1.2621642723216424]], [[-1.3370134481384155, 1.3370134481384144]], [[-1.263642484177879, 1.263642484177878]], [[-1.3384606928282046, 1.3384606928282035]], [[-1.2651056097995732, 1.265105609799572]], [[-1.3398928548397555, 1.3398928548397544]], [[-1.2665539412085325, 1.2665539412085312]], [[-1.3413102008681077, 1.3413102008681064]], [[-1.2679877518812996, 1.2679877518812983]], [[-1.3427130056575898, 1.3427130056575884]], [[-1.2694072928736764, 1.2694072928736753]], [[-1.3441015461585517, 1.3441015461585506]], [[-1.2708127907067681, 1.270812790706767]], [[-1.345476095479123, 1.3454760954791218]], [[-1.2722044470958815, 1.2722044470958807]], [[-1.3468369171694925, 1.3468369171694916]], [[-1.2735824404465286, 1.2735824404465275]], [[-1.3481842603128795, 1.3481842603128784]], [[-1.2749469289000765, 1.2749469289000752]], [[-1.3495183557994699, 1.3495183557994685]], [[-1.2762980545957625, 1.2762980545957612]], [[-1.3508394140372049, 1.3508394140372035]], [[-1.2776359487336852, 1.277635948733684]], [[-1.3521476242177544, 1.352147624217753]], [[-1.2789607369796951, 1.2789607369796938]], [[-1.3534431551190655, 1.3534431551190642]], [[-1.280272544749109, 1.2802725447491077]], [[-1.3547261572986637, 1.3547261572986624]], [[-1.2815715019399767, 1.2815715019399754]], [[-1.355996766424034, 1.3559967664240327]], [[-1.282857746753396, 1.2828577467533946]], [[-1.3572551074054888, 1.3572551074054875]], [[-1.284131428331039, 1.2841314283310377]], [[-1.3585012989478051, 1.3585012989478038]], [[-1.2853927080499117, 1.2853927080499106]], [[-1.3597354581217473, 1.3597354581217462]], [[-1.2866417594319375, 1.2866417594319364]], [[-1.3609577045747259, 1.3609577045747248]], [[-1.2878787667416203, 1.2878787667416192]], [[-1.3621681640480434, 1.3621681640480423]], [[-1.2891039224498546, 1.2891039224498535]], [[-1.3633669709411358, 1.3633669709411347]], [[-1.2903174238281387, 1.2903174238281376]], [[-1.3645542697539215, 1.3645542697539206]], [[-1.2915194689989924, 1.2915194689989915]], [[-1.3657302153388167, 1.3657302153388158]], [[-1.2927102528013246, 1.2927102528013237]], [[-1.3668949719957575, 1.3668949719957566]], [[-1.2938899628322107, 1.2938899628322096]], [[-1.3680487115385243, 1.3680487115385231]], [[-1.2950587759997607, 1.2950587759997596]], [[-1.3691916105414537, 1.3691916105414526]], [[-1.296216855868506, 1.296216855868505]], [[-1.3703238470362948, 1.3703238470362937]], [[-1.2973643510040516, 1.2973643510040505]], [[-1.3714455969653159, 1.3714455969653148]], [[-1.2985013944342492, 1.298501394434248]], [[-1.372557030706691, 1.3725570307066899]], [[-1.2996281042475224, 1.2996281042475215]], [[-1.3736583099716992, 1.3736583099716984]], [[-1.300744585253271, 1.3007445852532702]], [[-1.374749585332563, 1.3747495853325622]], [[-1.3018509315422893, 1.3018509315422884]], [[-1.375830994578859, 1.3758309945788583]], [[-1.3029472297137599, 1.302947229713759]], [[-1.3769026620249631, 1.3769026620249623]], [[-1.3040335624850197, 1.3040335624850188]], [[-1.3779646988075247, 1.3779646988075238]], [[-1.3051100123745407, 1.3051100123745398]], [[-1.379017204127577, 1.3790172041275761]], [[-1.306176665148894, 1.306176665148893]], [[-1.3800602673134874, 1.3800602673134865]], [[-1.3072336127502093, 1.3072336127502084]], [[-1.3810939705147987, 1.3810939705147978]], [[-1.3082809554691484, 1.3082809554691475]], [[-1.3821183917881485, 1.3821183917881477]], [[-1.3093188031952638, 1.309318803195263]], [[-1.38313360830845, 1.3831336083084491]], [[-1.310347275656096, 1.3103472756560952]], [[-1.3841396994331374, 1.3841396994331365]], [[-1.311366501641859, 1.3113665016418579]], [[-1.385136749364483, 1.385136749364482]], [[-1.3123766172971405, 1.3123766172971394]], [[-1.3861248491929148, 1.3861248491929137]], [[-1.3133777636379302, 1.3133777636379291]], [[-1.387104098159499, 1.387104098159498]], [[-1.3143700835153795, 1.3143700835153784]], [[-1.3880746040435115, 1.3880746040435104]], [[-1.3153537182920592, 1.315353718292058]], [[-1.389036482655675, 1.3890364826556738]], [[-1.316328804518618, 1.3163288045186168]], [[-1.3899898564930377, 1.3899898564930364]], [[-1.3172954708969753, 1.317295470896974]], [[-1.390934852681445, 1.3909348526814436]], [[-1.3182538357907252, 1.3182538357907239]], [[-1.391871600390475, 1.3918716003904736]], [[-1.3192040054964078, 1.3192040054964065]], [[-1.3928002279488032, 1.3928002279488019]], [[-1.320146073424619, 1.3201460734246178]], [[-1.3937208599117703, 1.393720859911769]], [[-1.321080120262922, 1.3210801202629208]], [[-1.3946336143356153, 1.394633614335614]], [[-1.3220062151095828, 1.3220062151095815]], [[-1.3955386004942203, 1.395538600494219]], [[-1.3229244174851462, 1.3229244174851449]], [[-1.3964359172359488, 1.3964359172359475]], [[-1.3238347800546046, 1.3238347800546033]], [[-1.3973256521234485, 1.3973256521234472]], [[-1.3247373518325452, 1.3247373518325438]], [[-1.3982078814327363, 1.398207881432735]], [[-1.325632181602178, 1.3256321816021768]], [[-1.3990826710150077, 1.3990826710150064]], [[-1.326519321259998, 1.3265193212599966]], [[-1.3999500779514973, 1.399950077951496]], [[-1.3273988288025855, 1.3273988288025842]], [[-1.400810152864367, 1.4008101528643657]], [[-1.3282707707003947, 1.3282707707003933]], [[-1.4016629426906193, 1.401662942690618]], [[-1.3291352234530387, 1.3291352234530374]], [[-1.4025084936859917, 1.4025084936859904]], [[-1.3299922741876349, 1.3299922741876338]], [[-1.4033468544050562, 1.4033468544050551]], [[-1.3308420202408746, 1.3308420202408737]], [[-1.4041780784040383, 1.4041780784040374]], [[-1.3316845677502926, 1.331684567750292]], [[-1.4050022264343054, 1.4050022264343047]], [[-1.3325200293639277, 1.332520029363927]], [[-1.4058193679354059, 1.4058193679354054]], [[-1.3333485212533336, 1.3333485212533331]], [[-1.4066295816938026, 1.4066295816938021]], [[-1.3341701596764315, 1.3341701596764308]], [[-1.407432955602496, 1.4074329556024954]], [[-1.3349850573786897, 1.334985057378689]], [[-1.4082295855320608, 1.4082295855320601]], [[-1.3357933201397771, 1.3357933201397763]], [[-1.4090195733990951, 1.4090195733990944]], [[-1.3365950437661085, 1.3365950437661078]], [[-1.409803024587474, 1.4098030245874733]], [[-1.33739031179764, 1.3373903117976393]], [[-1.410580044935259, 1.4105800449352583]], [[-1.3381791941419647, 1.338179194141964]], [[-1.4113507375406424, 1.4113507375406418]], [[-1.3389617467743502, 1.3389617467743498]], [[-1.4121151996601975, 1.412115199660197]], [[-1.3397380125546396, 1.3397380125546392]], [[-1.412873519969915, 1.4128735199699145]], [[-1.3405080231180146, 1.3405080231180142]], [[-1.413625776433804, 1.4136257764338036]], [[-1.3412718017042482, 1.3412718017042478]], [[-1.4143720349779456, 1.4143720349779452]], [[-1.342029366707043, 1.3420293667070426]], [[-1.4151123491033133, 1.4151123491033126]], [[-1.3427807356585395, 1.3427807356585388]], [[-1.4158467604935017, 1.415846760493501]], [[-1.3435259293199566, 1.343525929319956]], [[-1.4165753005899395, 1.4165753005899389]], [[-1.344264975531799, 1.3442649755317984]], [[-1.4172979930240701, 1.4172979930240694]], [[-1.3449979124881057, 1.3449979124881049]], [[-1.418014856720314, 1.418014856720313]], [[-1.3457247911386363, 1.3457247911386354]], [[-1.4187259094218176, 1.4187259094218168]], [[-1.3464456764881003, 1.3464456764880994]], [[-1.4194311713485048, 1.419431171348504]], [[-1.3471606476478954, 1.3471606476478946]], [[-1.4201306686777164, 1.4201306686777155]], [[-1.3478697965968598, 1.347869796596859]], [[-1.4208244365439742, 1.4208244365439733]], [[-1.348573225715446, 1.348573225715445]], [[-1.4215125212862547, 1.4215125212862538]], [[-1.3492710442638896, 1.3492710442638887]], [[-1.4221949817267712, 1.4221949817267703]], [[-1.3499633640705733, 1.3499633640705724]], [[-1.4228718893407506, 1.4228718893407497]], [[-1.3506502947735828, 1.350650294773582]], [[-1.4235433272664848, 1.423543327266484]], [[-1.351331939009313, 1.3513319390093121]], [[-1.4242093882020812, 1.4242093882020803]], [[-1.3520083879615477, 1.3520083879615468]], [[-1.4248701713320069, 1.424870171332006]], [[-1.3526797176697696, 1.352679717669769]], [[-1.4255257785146114, 1.4255257785146107]], [[-1.3533459864463113, 1.3533459864463107]], [[-1.4261763100335927, 1.426176310033592]], [[-1.3540072336710196, 1.354007233671019]], [[-1.426821860265129, 1.4268218602651284]], [[-1.3546634801249504, 1.3546634801249497]], [[-1.4274625136330856, 1.427462513633085]], [[-1.355314729899257, 1.3553147298992563]], [[-1.4280983412144455, 1.4280983412144448]], [[-1.3559609737818945, 1.3559609737818938]], [[-1.4287293983155516, 1.428729398315551]], [[-1.3566021938940678, 1.356602193894067]], [[-1.4293557232691967, 1.429355723269196]], [[-1.3572383692317538, 1.3572383692317531]], [[-1.4299773376079343, 1.4299773376079337]], [[-1.3578694816755221, 1.3578694816755215]], [[-1.430594247657339, 1.4305942476573383]], [[-1.3584955219729302, 1.3584955219729296]], [[-1.431206447473107, 1.4312064474731063]], [[-1.3591164951781711, 1.3591164951781705]], [[-1.4318139229276559, 1.4318139229276552]], [[-1.3597324250565401, 1.3597324250565395]], [[-1.4324166566452377, 1.432416656645237]], [[-1.3603433570264745, 1.3603433570264738]], [[-1.4330146333988636, 1.4330146333988627]], [[-1.360949359315833, 1.3609493593158324]], [[-1.4336078455255212, 1.4336078455255206]], [[-1.361550522144951, 1.3615505221449502]], [[-1.434196297894145, 1.434196297894144]], [[-1.362146954907258, 1.3621469549072571]], [[-1.434780011976918, 1.4347800119769172]], [[-1.3627387814870642, 1.3627387814870633]], [[-1.4353590286291746, 1.4353590286291737]], [[-1.3633261340202387, 1.3633261340202378]], [[-1.435933409273774, 1.4359334092737732]], [[-1.363909145553006, 1.363909145553005]], [[-1.4365032353067069, 1.436503235306706]], [[-1.364487942173566, 1.3644879421735652]], [[-1.4370686056834163, 1.4370686056834154]], [[-1.365062635268746, 1.3650626352687452]], [[-1.4376296327991938, 1.4376296327991929]], [[-1.3656333145842117, 1.3656333145842108]], [[-1.4381864369296953, 1.4381864369296944]], [[-1.366200042736382, 1.3662000427363812]], [[-1.438739139636154, 1.438739139636153]], [[-1.3667628517361141, 1.366762851736113]], [[-1.4392878566515093, 1.4392878566515082]], [[-1.3673217419425594, 1.3673217419425583]], [[-1.4398326908372816, 1.4398326908372805]], [[-1.3678766836794574, 1.3678766836794563]], [[-1.4403737258279476, 1.4403737258279465]], [[-1.3684276215292, 1.3684276215291986]], [[-1.4409110209547895, 1.4409110209547882]], [[-1.3689744810895264, 1.3689744810895248]], [[-1.441444607963904, 1.4414446079639025]], [[-1.3695171777529362, 1.3695171777529347]], [[-1.4419744899170865, 1.4419744899170848]], [[-1.370055626869544, 1.3700556268695423]], [[-1.4425006424979039, 1.4425006424979019]], [[-1.3705897544983674, 1.3705897544983652]], [[-1.4430230177506798, 1.4430230177506775]], [[-1.3711195078551996, 1.3711195078551974]], [[-1.4435415500724715, 1.4435415500724693]], [[-1.3716448645381718, 1.3716448645381694]], [[-1.4440561640743577, 1.4440561640743552]], [[-1.372165839660525, 1.3721658396605227]], [[-1.4445667837457459, 1.4445667837457437]], [[-1.3726824901440098, 1.3726824901440076]], [[-1.4450733422102142, 1.445073342210212]], [[-1.3731949156198626, 1.3731949156198606]], [[-1.44557579126756, 1.445575791267558]], [[-1.373703255636154, 1.373703255636152]], [[-1.4460741098848133, 1.4460741098848116]], [[-1.3742076831640266, 1.3742076831640246]], [[-1.44656831083523, 1.446568310835228]], [[-1.374708394710211, 1.374708394710209]], [[-1.447058444790075, 1.447058444790073]], [[-1.375205597655107, 1.3752055976551048]], [[-1.4475446013393742, 1.4475446013393722]], [[-1.375699495718652, 1.37569949571865]], [[-1.4480269066453213, 1.4480269066453193]], [[-1.3761902736838152, 1.3761902736838132]], [[-1.4485055177010018, 1.4485055177009998]], [[-1.37667808265555, 1.3766780826555478]], [[-1.448980613458134, 1.4489806134581318]], [[-1.3771630271814486, 1.3771630271814463]], [[-1.4494523833775608, 1.4494523833775583]], [[-1.3776451554962015, 1.377645155496199]], [[-1.4499210142200685, 1.449921014220066]], [[-1.3781244539714628, 1.3781244539714603]], [[-1.4503866761074842, 1.4503866761074817]], [[-1.3786008465628543, 1.3786008465628519]], [[-1.4508495090219418, 1.4508495090219393]], [[-1.3790741996646165, 1.379074199664614]], [[-1.451309610956606, 1.4513096109566035]], [[-1.379544332338131, 1.3795443323381285]], [[-1.4517670288730102, 1.4517670288730078]], [[-1.3800110314091958, 1.3800110314091933]], [[-1.4522217534564072, 1.4522217534564048]], [[-1.3804740704710494, 1.380474070471047]], [[-1.4526737183987668, 1.4526737183987644]], [[-1.3809332314265386, 1.3809332314265361]], [[-1.453122804596319, 1.4531228045963165]], [[-1.3813883268908844, 1.381388326890882]], [[-1.4535688492500694, 1.453568849250067]], [[-1.3818392215866502, 1.3818392215866477]], [[-1.4540116594346155, 1.454011659434613]], [[-1.3822858508160736, 1.3822858508160714]], [[-1.4544510292872235, 1.4544510292872213]], [[-1.382728234203827, 1.3827282342038247]], [[-1.4548867596001673, 1.4548867596001651]], [[-1.383166483165771, 1.3831664831657688]], [[-1.4553186783071173, 1.455318678307115]], [[-1.3836008009662768, 1.3836008009662746]], [[-1.4557466601667244, 1.4557466601667222]], [[-1.3840314747581213, 1.384031474758119]], [[-1.4561706438850075, 1.4561706438850053]], [[-1.3844588596249863, 1.384458859624984]], [[-1.4565906449966135, 1.4565906449966113]], [[-1.3848833553279092, 1.384883355327907]], [[-1.4570067630486276, 1.4570067630486254]], [[-1.3853053771451918, 1.3853053771451895]], [[-1.4574191819946443, 1.457419181994642]], [[-1.3857253228340045, 1.3857253228340023]], [[-1.4578281631955923, 1.45782816319559]], [[-1.3861435382700158, 1.3861435382700136]], [[-1.458234031010012, 1.4582340310100097]], [[-1.3865602846774092, 1.386560284677407]], [[-1.4586371516007421, 1.45863715160074]], [[-1.3869757104910747, 1.3869757104910725]], [[-1.4590379062371863, 1.459037906237184]], [[-1.387389830755978, 1.3873898307559758]], [[-1.459436660974148, 1.4594366609741458]], [[-1.387802516549318, 1.3878025165493157]], [[-1.459833735078103, 1.4598337350781008]], [[-1.3882134962219694, 1.3882134962219672]], [[-1.4602293708913272, 1.460229370891325]], [[-1.3886223693413569, 1.3886223693413546]], [[-1.460623707926079, 1.4606237079260769]], [[-1.389028633151562, 1.38902863315156]], [[-1.4610167638357248, 1.461016763835723]], [[-1.38943172024221, 1.3894317202422082]], [[-1.4614084245116805, 1.4614084245116787]], [[-1.389831045038699, 1.3898310450386973]], [[-1.4617984449246952, 1.4617984449246935]], [[-1.3902260557920327, 1.390226055792031]], [[-1.4621864615112328, 1.462186461511231]], [[-1.390616288041027, 1.3906162880410253]], [[-1.4625720159648092, 1.4625720159648075]], [[-1.3910014151047083, 1.3910014151047065]], [[-1.4629545893043212, 1.4629545893043194]], [[-1.3913812910751413, 1.3913812910751395]], [[-1.4633336441363178, 1.463333644136316]], [[-1.3917559820352303, 1.3917559820352285]], [[-1.4637086721817905, 1.4637086721817887]], [[-1.392125781819066, 1.3921257818190642]], [[-1.4640792434674674, 1.4640792434674657]], [[-1.3924912095481257, 1.3924912095481239]], [[-1.4644450531427748, 1.464445053142773]], [[-1.3928529873878708, 1.392852987387869]], [[-1.4648059617211708, 1.464805961721169]], [[-1.3932119984348046, 1.3932119984348026]], [[-1.4651620246922734, 1.4651620246922714]], [[-1.3935692263013835, 1.3935692263013815]], [[-1.465513507931734, 1.465513507931732]], [[-1.3939256797219233, 1.3939256797219213]], [[-1.4658608861576914, 1.4658608861576894]], [[-1.3942823072247568, 1.394282307224755]], [[-1.4662048228341988, 1.466204822834197]], [[-1.3946399084329129, 1.394639908432911]], [[-1.466546131362466, 1.4665461313624641]], [[-1.394999049667926, 1.3949990496679243]], [[-1.4668857190510578, 1.466885719051056]], [[-1.3953599920371746, 1.3953599920371729]], [[-1.467224517093353, 1.4672245170933513]], [[-1.39572263991825, 1.3957226399182483]], [[-1.4675634014397902, 1.4675634014397885]], [[-1.3960865166269398, 1.396086516626938]], [[-1.4679031108408698, 1.4679031108408682]], [[-1.396450772095022, 1.3964507720950208]], [[-1.4682441692592392, 1.4682441692592378]], [[-1.3968142247454058, 1.3968142247454045]], [[-1.4685868201417445, 1.4685868201417434]], [[-1.3971754367035725, 1.3971754367035714]], [[-1.4689309796074579, 1.4689309796074568]], [[-1.3975328183624192, 1.397532818362418]], [[-1.469276214438464, 1.4692762144384628]], [[-1.3978847554634242, 1.397884755463423]], [[-1.4696217489472192, 1.469621748947218]], [[-1.3982297495518472, 1.398229749551846]], [[-1.4699665025106288, 1.4699665025106277]], [[-1.3985665610845377, 1.3985665610845366]], [[-1.470309157029369, 1.4703091570293678]], [[-1.3988943436771961, 1.398894343677195]], [[-1.4706482510227654, 1.4706482510227643]], [[-1.3992127579424625, 1.3992127579424614]], [[-1.4709822947074758, 1.4709822947074747]], [[-1.3995220540156574, 1.3995220540156563]], [[-1.471309898383647, 1.471309898383646]], [[-1.3998231131281242, 1.3998231131281234]], [[-1.4716299048617603, 1.4716299048617594]], [[-1.4001174404623165, 1.4001174404623156]], [[-1.471941515564581, 1.47194151556458]], [[-1.4004071040742372, 1.4004071040742363]], [[-1.4722443993782501, 1.4722443993782492]], [[-1.4006946180130881, 1.4006946180130873]], [[-1.472538773371729, 1.4725387733717281]], [[-1.4009827720033723, 1.4009827720033714]], [[-1.4728254452643592, 1.472825445264358]], [[-1.401274415160475, 1.4012744151604737]], [[-1.4731058091505993, 1.473105809150598]], [[-1.4015722069320435, 1.4015722069320422]], [[-1.473381788654369, 1.4733817886543676]], [[-1.4018783542170146, 1.4018783542170132]], [[-1.473655725491585, 1.4736557254915836]], [[-1.4021943585040058, 1.4021943585040044]], [[-1.473930216322647, 1.4739302163226458]], [[-1.4025207997725193, 1.402520799772518]], [[-1.4742079064767835, 1.4742079064767821]], [[-1.4028571837474935, 1.4028571837474921]], [[-1.4744912550167144, 1.474491255016713]], [[-1.403201875230346, 1.4032018752303446]], [[-1.4747822908015271, 1.4747822908015258]], [[-1.403552132719094, 1.4035521327190927]], [[-1.475082382700646, 1.4750823827006447]], [[-1.4039042493184366, 1.403904249318435]], [[-1.4753920480589073, 1.4753920480589058]], [[-1.4042537936838186, 1.404253793683817]], [[-1.4757108214760546, 1.4757108214760528]], [[-1.4045959343701904, 1.4045959343701886]], [[-1.4760372011011114, 1.4760372011011096]], [[-1.4049258230952353, 1.4049258230952337]], [[-1.476368682694245, 1.4763686826942435]], [[-1.4052390079337944, 1.4052390079337929]], [[-1.4767018837944106, 1.476701883794409]], [[-1.4055318462312782, 1.4055318462312765]], [[-1.477032752621514, 1.4770327526215121]], [[-1.4058018881506795, 1.4058018881506777]], [[-1.4773568497450795, 1.4773568497450777]], [[-1.4060482039408047, 1.4060482039408029]], [[-1.477669685514567, 1.4776696855145652]], [[-1.4062716300083955, 1.4062716300083935]], [[-1.4779670927223165, 1.4779670927223145]], [[-1.4064749099814056, 1.4064749099814036]], [[-1.4782456115270588, 1.4782456115270568]], [[-1.406662707258243, 1.406662707258241]], [[-1.4785028616864568, 1.4785028616864548]], [[-1.4068414660977469, 1.4068414660977449]], [[-1.4787378750665003, 1.4787378750664981]], [[-1.4070191011109416, 1.4070191011109394]], [[-1.4789513589616199, 1.4789513589616177]], [[-1.4072045027497864, 1.4072045027497841]], [[-1.4791458583084398, 1.4791458583084376]], [[-1.4074068617565278, 1.4074068617565256]], [[-1.4793257835880556, 1.4793257835880531]], [[-1.4076348400619034, 1.407634840061901]], [[-1.4794972732158373, 1.479497273215835]], [[-1.40789564798773, 1.4078956479877276]], [[-1.4796678673056884, 1.479667867305686]], [[-1.4081941221940233, 1.4081941221940208]], [[-1.4798459863792017, 1.4798459863791993]], [[-1.4085319255607638, 1.4085319255607613]], [[-1.4800402344889854, 1.4800402344889831]], [[-1.4089069971054315, 1.4089069971054293]], [[-1.4802585783558542, 1.480258578355852]], [[-1.409313358315466, 1.4093133583154638]], [[-1.4805074852853335, 1.4805074852853313]], [[-1.4097413321018337, 1.4097413321018315]], [[-1.480791123101101, 1.4807911231010988]], [[-1.410178163685356, 1.4101781636853539]], [[-1.4811107268062575, 1.4811107268062553]], [[-1.4106089688703958, 1.4106089688703936]], [[-1.4814642166179388, 1.4814642166179366]], [[-1.4110178935036943, 1.4110178935036921]], [[-1.4818461155498879, 1.4818461155498857]], [[-1.4113893582906811, 1.411389358290679]], [[-1.4822477725811307, 1.4822477725811285]], [[-1.4117092825646864, 1.4117092825646842]], [[-1.4826578611407752, 1.482657861140773]], [[-1.4119662165259868, 1.4119662165259845]], [[-1.4830630997819436, 1.4830630997819414]], [[-1.4121523486051626, 1.4121523486051604]], [[-1.4834491343131326, 1.4834491343131302]], [[-1.4122643807281872, 1.4122643807281847]], [[-1.4838015252961954, 1.483801525296193]], [[-1.4123042723161805, 1.412304272316178]], [[-1.484106796375726, 1.4841067963757235]], [[-1.4122798408984492, 1.4122798408984467]], [[-1.484353511858902, 1.4843535118588993]], [[-1.4122051724381524, 1.4122051724381497]], [[-1.4845333613843585, 1.4845333613843559]], [[-1.4121007387674374, 1.4121007387674347]], [[-1.4846422304215148, 1.484642230421512]], [[-1.4119930485788617, 1.411993048578859]], [[-1.4846812214220206, 1.4846812214220177]], [[-1.4119135899859954, 1.4119135899859925]], [[-1.4846575536977016, 1.4846575536976987]], [[-1.4118967961613922, 1.4118967961613893]], [[-1.4845852040268261, 1.484585204026823]], [[-1.411976845370444, 1.4119768453704409]], [[-1.484485059731539, 1.484485059731536]], [[-1.4121833617764976, 1.4121833617764945]], [[-1.484384275296659, 1.4843842752966558]], [[-1.4125365259037628, 1.4125365259037597]], [[-1.4843145262403141, 1.484314526240311]], [[-1.4130426037796875, 1.4130426037796844]], [[-1.4843090296426649, 1.4843090296426618]], [[-1.4136911676328767, 1.4136911676328736]], [[-1.4843985749829745, 1.4843985749829713]], [[-1.414455005108893, 1.41445500510889]], [[-1.4846072531176537, 1.4846072531176506]], [[-1.4152928795070865, 1.4152928795070834]], [[-1.4849488254370133, 1.4849488254370102]], [[-1.4161543198443856, 1.4161543198443822]], [[-1.4854245383125744, 1.485424538312571]], [[-1.4169850578365548, 1.4169850578365515]], [[-1.4860227126749637, 1.4860227126749603]], [[-1.417731851611912, 1.4177318516119086]], [[-1.4867199021646242, 1.486719902164621]], [[-1.4183460261054581, 1.4183460261054548]], [[-1.487483084701001, 1.4874830847009977]], [[-1.4187856921930773, 1.418785692193074]], [[-1.4882723101011335, 1.4882723101011304]], [[-1.4190169993212596, 1.4190169993212562]], [[-1.4890433755951107, 1.4890433755951074]], [[-1.4190148996506662, 1.4190148996506629]], [[-1.4897503006111585, 1.4897503006111552]], [[-1.4187638700979026, 1.4187638700978993]], [[-1.4903475297925475, 1.4903475297925441]], [[-1.4182589782511719, 1.4182589782511685]], [[-1.4907918843482832, 1.49079188434828]], [[-1.4175076643660187, 1.4175076643660152]], [[-1.4910443267319191, 1.4910443267319156]], [[-1.416532661593358, 1.4165326615933544]], [[-1.4910716424784483, 1.4910716424784447]], [[-1.4153765449651237, 1.4153765449651203]], [[-1.4908482275703152, 1.4908482275703119]], [[-1.4141083318482257, 1.4141083318482224]], [[-1.4903583726014558, 1.4903583726014524]], [[-1.412831959128201, 1.4128319591281977]], [[-1.4895998576544307, 1.4895998576544274]], [[-1.4116945121697526, 1.4116945121697493]], [[-1.4885903543003587, 1.4885903543003554]], [[-1.4108876464519713, 1.410887646451968]], [[-1.4873785718712509, 1.4873785718712476]], [[-1.4106291011258087, 1.4106291011258054]], [[-1.486060097745801, 1.4860600977457976]], [[-1.4111097339362169, 1.4111097339362133]], [[-1.4847896604076334, 1.4847896604076298]], [[-1.41241179753477, 1.4124117975347665]], [[-1.48376972903313, 1.4837697290331264]], [[-1.4144480115120182, 1.4144480115120146]], [[-1.4832012004390722, 1.4832012004390687]], [[-1.416982861912751, 1.4169828619127474]], [[-1.4832190351698484, 1.4832190351698449]], [[-1.419726540926532, 1.4197265409265285]], [[-1.4838589786997438, 1.4838589786997403]], [[-1.4224229292049224, 1.4224229292049186]], [[-1.485069910645005, 1.4850699106450012]], [[-1.4248826620677806, 1.4248826620677768]], [[-1.4867475283857012, 1.4867475283856975]], [[-1.4269745679751291, 1.4269745679751253]], [[-1.4887640406021574, 1.4887640406021536]], [[-1.4286048623074836, 1.4286048623074799]], [[-1.490985630226515, 1.4909856302265112]], [[-1.4296994930536588, 1.429699493053655]], [[-1.493280093894167, 1.493280093894163]], [[-1.430192361892295, 1.430192361892291]], [[-1.4955192743233008, 1.4955192743232968]], [[-1.430017020406817, 1.430017020406813]], [[-1.4975798057435148, 1.497579805743511]], [[-1.42909789074441, 1.4290978907444063]], [[-1.499344299617597, 1.4993442996175932]], [[-1.4273354303845067, 1.427335430384503]], [[-1.5007044973642771, 1.5007044973642734]], [[-1.4245744294481955, 1.4245744294481917]], [[-1.5015694964167772, 1.5015694964167734]], [[-1.4205261997990084, 1.4205261997990046]], [[-1.501892446189933, 1.5018924461899292]], [[-1.4145404388493987, 1.414540438849395]], [[-1.5017903106702462, 1.5017903106702424]], [[-1.4047146663448795, 1.4047146663448757]], [[-1.5023760699407542, 1.5023760699407505]], [[-1.3819513478401457, 1.381951347840142]], [[-1.5209365043404377, 1.5209365043404341]], [[-1.243959719975275, 1.2439597199752714]], [[-1.641948226160868, 1.6419482261608644]], [[-1.2136431062552284, 1.213643106255225]], [[-0.9093658089103324, 0.9093658089103291]], [[-0.6869929541834217, 0.6869929541834184]], [[-0.6235919348932148, 0.6235919348932115]], [[-0.6361107863443939, 0.6361107863443906]], [[-0.6471743554976006, 0.6471743554975974]], [[-0.6665557356007099, 0.6665557356007068]], [[-0.6726473454960009, 0.6726473454959978]], [[-0.6926871475004506, 0.6926871475004475]], [[-0.6985633072815656, 0.6985633072815625]], [[-0.7183602004646666, 0.7183602004646635]], [[-0.7238331700842415, 0.7238331700842384]], [[-0.7432271315981707, 0.7432271315981676]], [[-0.7482381779839916, 0.7482381779839885]], [[-0.767193271253253, 0.7671932712532498]], [[-0.7717339449221281, 0.7717339449221249]], [[-0.7905102745174039, 0.7905102745174006]], [[-0.8074409472167552, 0.8074409472167519]], [[-0.8114798933343121, 0.8114798933343088]], [[-0.8298305300818786, 0.8298305300818752]], [[-0.8458363584153501, 0.8458363584153468]], [[-0.8491410591985217, 0.8491410591985183]], [[-0.8670891770616664, 0.8670891770616631]], [[-0.8820861000005514, 0.8820861000005481]], [[-0.8847692242007245, 0.8847692242007211]], [[-0.9023350792330671, 0.9023350792330639]], [[-0.9163742693978252, 0.9163742693978219]], [[-0.9311604457029343, 0.9311604457029309]], [[-0.932692814951489, 0.9326928149514855]], [[-0.9500245980353734, 0.9500245980353699]], [[-0.9500581030005625, 0.9500581030005589]], [[-0.9673996785048729, 0.9673996785048693]], [[-0.9794637587862266, 0.9794637587862229]], [[-0.9929082340157981, 0.9929082340157945]], [[-0.993454874044682, 0.9934548740446785]], [[-1.010167066391925, 1.0101670663919216]], [[-1.0087817956201541, 1.0087817956201506]], [[-1.0259219833643847, 1.025921983364381]], [[-1.0361649013882495, 1.0361649013882457]], [[-1.0487082835345538, 1.04870828353455]], [[-1.060131226992429, 1.0601312269924252]], [[-1.071828995508296, 1.0718289955082922]], [[-1.0713961798262075, 1.0713961798262037]], [[-1.0875592117069504, 1.0875592117069466]], [[-1.0843221662002536, 1.0843221662002498]], [[-1.1014497095900762, 1.1014497095900726]], [[-1.097209910732112, 1.0972099107321085]], [[-1.11469451635864, 1.1146945163586364]], [[-1.1217571675647435, 1.12175716756474]], [[-1.1336374881779387, 1.1336374881779352]], [[-1.1429709303660185, 1.142970930366015]], [[-1.153328888932951, 1.1533288889329474]], [[-1.1629407660098687, 1.1629407660098652]], [[-1.172703300073823, 1.1727033000738194]], [[-1.1712515173103972, 1.1712515173103937]], [[-1.1866863052835552, 1.1866863052835517]], [[-1.1811455966188156, 1.181145596618812]], [[-1.198776034090673, 1.1987760340906695]], [[-1.1913048074253785, 1.1913048074253751]], [[-1.2100360816416245, 1.2100360816416211]], [[-1.2013626151753332, 1.2013626151753298]], [[-1.220860473025457, 1.2208604730254538]], [[-1.222791282337351, 1.2227912823373477]], [[-1.2356492754785038, 1.2356492754785005]], [[-1.2414320189647021, 1.2414320189646988]], [[-1.2515656529280461, 1.2515656529280428]], [[-1.2586906340388981, 1.2586906340388948]], [[-1.2675986013510938, 1.2675986013510905]], [[-1.2751286772587704, 1.2751286772587673]], [[-1.283396346495484, 1.283396346495481]], [[-1.2909725841494943, 1.2909725841494915]], [[-1.298841859643248, 1.2988418596432452]], [[-1.306324563772272, 1.3063245637722691]], [[-1.313903508085753, 1.3139035080857502]], [[-1.321239273532789, 1.3212392735327863]], [[-1.328581270578058, 1.3285812705780553]], [[-1.335758560576625, 1.335758560576622]], [[-1.3332128936904664, 1.3332128936904635]], [[-1.3477855518256145, 1.3477855518256117]], [[-1.3384616240896638, 1.338461624089661]], [[-1.3584614051477524, 1.3584614051477495]], [[-1.3438036213934876, 1.3438036213934847]], [[-1.3683178476857558, 1.368317847685753]], [[-1.3489683009779605, 1.3489683009779578]], [[-1.377624664306709, 1.3776246643067063]], [[-1.3537692133972152, 1.3537692133972126]], [[-1.3865212149423798, 1.3865212149423771]], [[-1.3580497013112944, 1.3580497013112918]], [[-1.3950683386890481, 1.3950683386890455]], [[-1.361664283796721, 1.3616642837967183]], [[-1.4032675567139736, 1.403267556713971]], [[-1.3644743269596846, 1.364474326959682]], [[-1.4110657491101597, 1.411065749110157]], [[-1.3663531792359644, 1.3663531792359618]], [[-1.4183551199930344, 1.4183551199930318]], [[-1.3671987990144494, 1.3671987990144467]], [[-1.4249771070115471, 1.4249771070115445]], [[-1.366949067912331, 1.3669490679123284]], [[-1.4307384842287558, 1.4307384842287532]], [[-1.365589962286945, 1.3655899622869423]], [[-1.4354428705200717, 1.435442870520069]], [[-1.3631450442701416, 1.363145044270139]], [[-1.4389294926459404, 1.4389294926459377]], [[-1.359641740294743, 1.3596417402947403]], [[-1.4411014902083066, 1.441101490208304]], [[-1.3550604582112231, 1.3550604582112205]], [[-1.441931784730679, 1.4419317847306763]], [[-1.349266367680273, 1.3492663676802705]], [[-1.4414574173283778, 1.4414574173283752]], [[-1.3418706720901463, 1.3418706720901437]], [[-1.4398133178197385, 1.4398133178197359]], [[-1.3317600288640312, 1.3317600288640286]], [[-1.4375525528457747, 1.437552552845772]], [[-1.3146906523321584, 1.3146906523321558]], [[-1.439186834900224, 1.4391868349002213]], [[-1.2568815668592395, 1.2568815668592368]], [[-1.577004895601379, 1.5770048956013762]], [[-1.155141303732007, 1.1551413037320044]], [[-0.94502153758052, 0.9450215375805173]], [[-0.9793465006953014, 0.9793465006952987]], [[-0.9090498615665755, 0.9090498615665729]], [[-0.939327472076461, 0.9393274720764583]], [[-0.9373364314028234, 0.9373364314028207]], [[-0.9451463498698638, 0.9451463498698612]], [[-0.948983324699587, 0.9489833246995845]], [[-0.9537011183259662, 0.9537011183259636]], [[-0.9576156867453733, 0.9576156867453708]], [[-0.9614550016444201, 0.9614550016444177]], [[-0.9649899059154581, 0.9649899059154555]], [[-0.9683706693709181, 0.9683706693709155]], [[-0.9718764368219337, 0.9718764368219311]], [[-0.988824653460325, 0.9888246534603224]], [[-0.9862980630471281, 0.9862980630471255]], [[-1.0052843713250976, 1.0052843713250952]], [[-1.0015051623681102, 1.0015051623681077]], [[-1.0207792175131867, 1.0207792175131842]], [[-1.0164733083261566, 1.0164733083261541]], [[-1.035763473821846, 1.0357634738218435]], [[-1.031025945453238, 1.0310259454532356]], [[-1.0503139985035341, 1.0503139985035317]], [[-1.0451358734713807, 1.0451358734713785]], [[-1.0644544359997985, 1.0644544359997963]], [[-1.0588072298368771, 1.058807229836875]], [[-1.0782026157333768, 1.0782026157333746]], [[-1.07205165249946, 1.0720516524994579]], [[-1.0915765414970826, 1.0915765414970804]], [[-1.08488220848021, 1.0848822084802079]], [[-1.1047117742940071, 1.104711774294005]], [[-1.1106232230922977, 1.1106232230922954]], [[-1.123588288095029, 1.1235882880950268]], [[-1.1325791049168286, 1.1325791049168263]], [[-1.1434400467856172, 1.143440046785615]], [[-1.1530245402209485, 1.1530245402209462]], [[-1.1630521620994505, 1.1630521620994483]], [[-1.1725732317154147, 1.1725732317154125]], [[-1.1821275375620608, 1.1821275375620586]], [[-1.1914538277435456, 1.1914538277435434]], [[-1.189035331706936, 1.1890353317069338]], [[-1.205544484599381, 1.2055444845993788]], [[-1.1974962902220547, 1.1974962902220523]], [[-1.2176255757258585, 1.217625575725856]], [[-1.2063400251259533, 1.2063400251259508]], [[-1.2287146714125334, 1.228714671412531]], [[-1.21515847358072, 1.2151584735807175]], [[-1.2392363522303667, 1.2392363522303642]], [[-1.2237801179264218, 1.2237801179264194]], [[-1.2493858127927495, 1.249385812792747]], [[-1.2321157682520893, 1.232115768252087]], [[-1.2592601315264604, 1.259260131526458]], [[-1.240106942491165, 1.2401069424911626]], [[-1.2689106359585707, 1.2689106359585682]], [[-1.2477055315953645, 1.247705531595362]], [[-1.2783649064257476, 1.2783649064257452]], [[-1.2548644727247482, 1.2548644727247458]], [[-1.2876357489239982, 1.2876357489239958]], [[-1.2615331237120118, 1.2615331237120093]], [[-1.2967238426060923, 1.2967238426060899]], [[-1.2676553760512375, 1.2676553760512348]], [[-1.3056167781504981, 1.3056167781504955]], [[-1.2731702236895068, 1.2731702236895042]], [[-1.314285718074773, 1.3142857180747702]], [[-1.278015326215503, 1.2780153262155003]], [[-1.3226806472776274, 1.3226806472776247]], [[-1.282134411035222, 1.2821344110352193]], [[-1.3307257729620785, 1.3307257729620758]], [[-1.2854889164754266, 1.285488916475424]], [[-1.338317836485995, 1.3383178364859922]], [[-1.288072656832879, 1.2880726568328764]], [[-1.3453311854769459, 1.3453311854769432]], [[-1.2899255342908744, 1.2899255342908718]], [[-1.3516328376211435, 1.3516328376211408]], [[-1.2911399440138507, 1.291139944013848]], [[-1.357106828863874, 1.3571068288638712]], [[-1.2918545072215, 1.2918545072214973]], [[-1.3616807899055825, 1.3616807899055798]], [[-1.2922356893884044, 1.2922356893884017]], [[-1.3653439676385006, 1.365343967638498]], [[-1.2924549356276918, 1.292454935627689]], [[-1.368149719782822, 1.3681497197828194]], [[-1.2926701825489797, 1.292670182548977]], [[-1.3702044173519974, 1.3702044173519947]], [[-1.2930146300451582, 1.2930146300451555]], [[-1.3716503394351576, 1.371650339435155]], [[-1.2935895294339965, 1.293589529433994]], [[-1.3726486272054896, 1.3726486272054872]], [[-1.2944577530422285, 1.294457753042226]], [[-1.3733638630005838, 1.3733638630005813]], [[-1.295639282436777, 1.2956392824367746]], [[-1.3739496804960964, 1.373949680496094]], [[-1.2971125086508974, 1.297112508650895]], [[-1.3745358606217013, 1.3745358606216989]], [[-1.298823330068929, 1.2988233300689265]], [[-1.3752190718194803, 1.375219071819478]], [[-1.3006996096758479, 1.3006996096758454]], [[-1.3760593467589526, 1.3760593467589501]], [[-1.302665896940975, 1.3026658969409723]], [[-1.3770824869514016, 1.377082486951399]], [[-1.3046542782233086, 1.3046542782233062]], [[-1.3782865928114858, 1.3782865928114834]], [[-1.306610079706268, 1.3066100797062656]], [[-1.37965020840839, 1.3796502084083875]], [[-1.3084934034924587, 1.3084934034924562]], [[-1.3811400996839145, 1.381140099683912]], [[-1.3102782106744226, 1.3102782106744202]], [[-1.3827176498557918, 1.3827176498557894]], [[-1.3119503646129245, 1.311950364612922]], [[-1.3843436326721128, 1.3843436326721104]], [[-1.3135054569597333, 1.3135054569597309]], [[-1.3859815336801908, 1.3859815336801884]], [[-1.3149467656057703, 1.3149467656057678]], [[-1.387599714803877, 1.3875997148038746]], [[-1.316283427216127, 1.3162834272161246]], [[-1.3891726965328677, 1.389172696532865]], [[-1.3175287983589954, 1.3175287983589927]], [[-1.3906817653229484, 1.3906817653229457]], [[-1.3186989584056836, 1.318698958405681]], [[-1.392115051803329, 1.3921150518033263]], [[-1.3198113242642378, 1.319811324264235]], [[-1.3934671843525712, 1.3934671843525686]], [[-1.320883374482725, 1.3208833744827224]], [[-1.3947386019312047, 1.394738601931202]], [[-1.3219315061234984, 1.3219315061234955]], [[-1.3959346036230516, 1.3959346036230487]], [[-1.3229700667060538, 1.3229700667060509]], [[-1.397064213961586, 1.3970642139615832]], [[-1.3240106120588169, 1.324010612058814]], [[-1.3981389480089157, 1.3981389480089128]], [[-1.3250614364038156, 1.3250614364038127]], [[-1.3991715644087557, 1.3991715644087528]], [[-1.3261274025757153, 1.3261274025757124]], [[-1.4001748945977264, 1.4001748945977237]], [[-1.327210070687548, 1.3272100706875454]], [[-1.4011608288616815, 1.4011608288616788]], [[-1.328308089483497, 1.3283080894834944]], [[-1.4021395233470713, 1.4021395233470686]], [[-1.329417784841265, 1.3294177848412623]], [[-1.4031188674675936, 1.403118867467591]], [[-1.3305338619893705, 1.3305338619893676]], [[-1.4041042220686482, 1.4041042220686453]], [[-1.3316501355056465, 1.3316501355056436]], [[-1.4050984104484676, 1.4050984104484647]], [[-1.3327602126101687, 1.3327602126101659]], [[-1.406101921786764, 1.4061019217867612]], [[-1.3338580755696547, 1.333858075569652]], [[-1.4071132727026372, 1.4071132727026345]], [[-1.3349385319857268, 1.334938531985724]], [[-1.40812946806006, 1.4081294680600573]], [[-1.335997522298553, 1.3359975222985503]], [[-1.4091465052047898, 1.4091465052047871]], [[-1.337032289241383, 1.3370322892413802]], [[-1.4101598739360455, 1.4101598739360428]], [[-1.3380414237003277, 1.338041423700325]], [[-1.4111650150233646, 1.411165015023362]], [[-1.3390248064097634, 1.3390248064097607]], [[-1.4121577109046548, 1.4121577109046521]], [[-1.3399834666773454, 1.3399834666773427]], [[-1.4131343920921475, 1.4131343920921449]], [[-1.3409193793413665, 1.340919379341364]], [[-1.4140923512373909, 1.4140923512373884]], [[-1.3418352204598865, 1.341835220459884]], [[-1.415029863719751, 1.4150298637197485]], [[-1.3427341013601621, 1.3427341013601595]], [[-1.41594621922049, 1.4159462192204872]], [[-1.343619299753748, 1.3436192997537453]], [[-1.4168416732719418, 1.416841673271939]], [[-1.344494005471642, 1.3444940054716394]], [[-1.4177173314076539, 1.4177173314076512]], [[-1.3453610966862117, 1.345361096686209]], [[-1.418574981346005, 1.4185749813460025]], [[-1.346222959972627, 1.3462229599726245]], [[-1.4194168905612126, 1.4194168905612101]], [[-1.3470813640793744, 1.347081364079372]], [[-1.420245587499143, 1.4202455874991406]], [[-1.3479373929116572, 1.3479373929116547]], [[-1.4210636444374318, 1.4210636444374294]], [[-1.3487914383159822, 1.3487914383159798]], [[-1.4218734784914389, 1.4218734784914364]], [[-1.3496432483115046, 1.3496432483115022]], [[-1.4226771845800104, 1.422677184580008]], [[-1.3504920220393286, 1.3504920220393264]], [[-1.4234764104991826, 1.4234764104991804]], [[-1.3513365394220118, 1.3513365394220096]], [[-1.4242722799668028, 1.4242722799668006]], [[-1.3521753116798558, 1.3521753116798536]], [[-1.4250653650469252, 1.425065365046923]], [[-1.353006738523904, 1.3530067385239017]], [[-1.4258557052000698, 1.4258557052000675]], [[-1.3538292588811405, 1.3538292588811383]], [[-1.4266428667224256, 1.4266428667224234]], [[-1.3546414840751513, 1.354641484075149]], [[-1.4274260337922675, 1.4274260337922653]], [[-1.3554423050806006, 1.3554423050805984]], [[-1.4282041208418017, 1.4282041208417995]], [[-1.3562309684056284, 1.3562309684056262]], [[-1.4289758954856882, 1.428975895485686]], [[-1.357007118027701, 1.3570071180276988]], [[-1.4297401016317304, 1.4297401016317282]], [[-1.3577708034169442, 1.357770803416942]], [[-1.430495573488975, 1.4304955734889728]], [[-1.3585224559256845, 1.3585224559256823]], [[-1.431241332775942, 1.4312413327759397]], [[-1.359262837671342, 1.3592628376713398]], [[-1.4319766633352646, 1.4319766633352624]], [[-1.3599929684925731, 1.359992968492571]], [[-1.4327011594283254, 1.4327011594283232]], [[-1.3607140376193667, 1.3607140376193645]], [[-1.433414746091591, 1.4334147460915885]], [[-1.3614273073559946, 1.3614273073559922]], [[-1.4341176719839943, 1.4341176719839919]], [[-1.362134016303365, 1.3621340163033628]], [[-1.4348104770517431, 1.434810477051741]], [[-1.3628352894096292, 1.362835289409627]], [[-1.4354939389960928, 1.4354939389960906]], [[-1.3635320614123503, 1.363532061412348]], [[-1.4361690038637842, 1.4361690038637822]], [[-1.3642250190336989, 1.3642250190336969]], [[-1.4368367070059584, 1.4368367070059564]], [[-1.364914565674356, 1.364914565674354]], [[-1.4374980911007897, 1.4374980911007877]], [[-1.3656008104415098, 1.3656008104415078]], [[-1.4381541278673085, 1.4381541278673065]], [[-1.366283581309647, 1.366283581309645]], [[-1.4388056495135282, 1.4388056495135262]], [[-1.36696246024489, 1.366962460244888]], [[-1.4394532949107597, 1.4394532949107577]], [[-1.367636836416315, 1.367636836416313]], [[-1.4400974740661365, 1.4400974740661345]], [[-1.368305972328668, 1.368305972328666]], [[-1.4407383528136661, 1.4407383528136641]], [[-1.3689690769401373, 1.3689690769401355]], [[-1.4413758579182454, 1.4413758579182436]], [[-1.3696253796080766, 1.3696253796080748]], [[-1.4420097011443032, 1.4420097011443014]], [[-1.37027419900217, 1.370274199002168]], [[-1.4426394194179033, 1.4426394194179013]], [[-1.370915001856973, 1.370915001856971]], [[-1.4432644271102057, 1.4432644271102038]], [[-1.3715474474947986, 1.3715474474947966]], [[-1.4438840757513736, 1.4438840757513716]], [[-1.3721714153194406, 1.3721714153194386]], [[-1.4444977161667847, 1.4444977161667827]], [[-1.372787013853579, 1.3727870138535772]], [[-1.4451047580971474, 1.4451047580971457]], [[-1.3733945712766318, 1.37339457127663]], [[-1.445704722781472, 1.4457047227814703]], [[-1.3739946087407418, 1.37399460874074]], [[-1.4462972846921496, 1.4462972846921478]], [[-1.3745877989383568, 1.374587798938355]], [[-1.446882299551749, 1.4468822995517472]], [[-1.3751749134096027, 1.375174913409601]], [[-1.4474598168645394, 1.4474598168645376]], [[-1.3757567628572283, 1.3757567628572265]], [[-1.4480300763923755, 1.4480300763923737]], [[-1.376334135228594, 1.3763341352285923]], [[-1.4485934892214594, 1.4485934892214576]], [[-1.376907736480943, 1.3769077364809412]], [[-1.449150605227143, 1.4491506052271412]], [[-1.377478138735479, 1.3774781387354773]], [[-1.4497020697696374, 1.4497020697696357]], [[-1.3780457399401764, 1.3780457399401747]], [[-1.4502485732671515, 1.4502485732671497]], [[-1.3786107382278052, 1.3786107382278034]], [[-1.4507907978259116, 1.4507907978259098]], [[-1.3791731229406758, 1.379173122940674]], [[-1.4513293653071917, 1.45132936530719]], [[-1.3797326828998304, 1.3797326828998286]], [[-1.4518647910544222, 1.4518647910544205]], [[-1.380289031052599, 1.3802890310525973]], [[-1.4523974469958634, 1.4523974469958614]], [[-1.3808416432764339, 1.3808416432764319]], [[-1.4529275370224644, 1.4529275370224624]], [[-1.3813899079762149, 1.3813899079762129]], [[-1.4534550864904003, 1.4534550864903983]], [[-1.3819331822863723, 1.38193318228637]], [[-1.4539799465105407, 1.4539799465105385]], [[-1.382470850238212, 1.3824708502382097]], [[-1.4545018124708964, 1.4545018124708942]], [[-1.3830023781937368, 1.3830023781937346]], [[-1.4550202550985512, 1.455020255098549]], [[-1.3835273631582607, 1.3835273631582585]], [[-1.4555347613961933, 1.455534761396191]], [[-1.3840455702146592, 1.384045570214657]], [[-1.4560447820544231, 1.456044782054421]], [[-1.3845569562048896, 1.3845569562048874]], [[-1.4565497814880948, 1.4565497814880926]], [[-1.3850616778460398, 1.3850616778460376]], [[-1.4570492864916536, 1.4570492864916513]], [[-1.3855600836362096, 1.3855600836362074]], [[-1.4575429296518194, 1.4575429296518172]], [[-1.3860526901109869, 1.3860526901109846]], [[-1.458030484076231, 1.4580304840762288]], [[-1.3865401441874325, 1.3865401441874303]], [[-1.4585118866610973, 1.458511886661095]], [[-1.3870231744118844, 1.3870231744118822]], [[-1.4589872479865342, 1.458987247986532]], [[-1.3875025348401637, 1.3875025348401615]], [[-1.4594568479426326, 1.4594568479426304]], [[-1.3879789459513632, 1.3879789459513612]], [[-1.4599211172901596, 1.4599211172901576]], [[-1.3884530373597035, 1.3884530373597017]], [[-1.4603806064748588, 1.460380606474857]], [[-1.3889252970857744, 1.3889252970857726]], [[-1.4608359440625038, 1.460835944062502]], [[-1.3893960317463558, 1.389396031746354]], [[-1.4612877880572916, 1.4612877880572899]], [[-1.3898653412249002, 1.3898653412248985]], [[-1.461736774025358, 1.4617367740253562]], [[-1.390333110240942, 1.3903331102409402]], [[-1.4621834642970368, 1.462183464297035]], [[-1.3907990178391376, 1.3907990178391356]], [[-1.462628302518144, 1.462628302518142]], [[-1.3912625642963359, 1.3912625642963337]], [[-1.4630715774470229, 1.4630715774470207]], [[-1.3917231134465202, 1.391723113446518]], [[-1.4635133991734883, 1.463513399173486]], [[-1.3921799470952523, 1.39217994709525]], [[-1.4639536899289225, 1.4639536899289203]], [[-1.3926323271611967, 1.3926323271611944]], [[-1.4643921904550938, 1.4643921904550916]], [[-1.3930795605277515, 1.3930795605277493]], [[-1.464828481612964, 1.4648284816129618]], [[-1.3935210613525963, 1.3935210613525941]], [[-1.465262019656332, 1.4652620196563297]], [[-1.3939564057636054, 1.3939564057636031]], [[-1.4656921824738067, 1.4656921824738045]], [[-1.3943853744287078, 1.3943853744287056]], [[-1.4661183232019075, 1.4661183232019053]], [[-1.3948079793664294, 1.3948079793664272]], [[-1.4665398269927665, 1.4665398269927643]], [[-1.3952244724953, 1.3952244724952978]], [[-1.4669561664172694, 1.4669561664172672]], [[-1.3956353347347856, 1.3956353347347834]], [[-1.4673669510114902, 1.467366951011488]], [[-1.396041245898984, 1.3960412458989817]], [[-1.4677719668260143, 1.467771966826012]], [[-1.396443037095111, 1.3964430370951089]], [[-1.4681712024952172, 1.4681712024952147]], [[-1.396841628770995, 1.3968416287709926]], [[-1.4685648592753833, 1.4685648592753808]], [[-1.3972379588542059, 1.3972379588542034]], [[-1.4689533436618665, 1.468953343661864]], [[-1.397632906479953, 1.3976329064799504]], [[-1.4693372425249531, 1.4693372425249505]], [[-1.3980272174969686, 1.398027217496966]], [[-1.4697172821204436, 1.469717282120441]], [[-1.3984214381586928, 1.3984214381586901]], [[-1.4700942737318414, 1.4700942737318388]], [[-1.3988158630681413, 1.3988158630681387]], [[-1.470469049966373, 1.4704690499663704]], [[-1.3992105025180013, 1.3992105025179986]], [[-1.4708423967288142, 1.4708423967288116]], [[-1.3996050728924123, 1.3996050728924097]], [[-1.4712149865149697, 1.471214986514967]], [[-1.399999011890197, 1.3999990118901944]], [[-1.4715873188075794, 1.4715873188075768]], [[-1.4003915181746855, 1.4003915181746829]], [[-1.471959672974284, 1.4719596729742814]], [[-1.4007816128774544, 1.4007816128774517]], [[-1.4723320781716918, 1.472332078171689]], [[-1.401168218411515, 1.4011682184115124]], [[-1.4727043034245897, 1.472704303424587]], [[-1.401550248480017, 1.4015502484800144]], [[-1.4730758694002517, 1.473075869400249]], [[-1.4019267021341617, 1.401926702134159]], [[-1.473446081593256, 1.4734460815932533]], [[-1.402296754299641, 1.4022967542996383]], [[-1.4738140828440718, 1.4738140828440691]], [[-1.4026598353469493, 1.4026598353469466]], [[-1.4741789214888608, 1.474178921488858]], [[-1.4030156929706106, 1.4030156929706077]], [[-1.4745396301018627, 1.4745396301018598]], [[-1.4033644307851187, 1.4033644307851159]], [[-1.4748953088308414, 1.4748953088308385]], [[-1.4037065195592442, 1.4037065195592413]], [[-1.4752452067897466, 1.4752452067897437]], [[-1.404042778824535, 1.4040427788245322]], [[-1.475588794882531, 1.4755887948825281]], [[-1.4043743286479209, 1.404374328647918]], [[-1.4759258237921498, 1.4759258237921469]], [[-1.4047025135885844, 1.4047025135885818]], [[-1.4762563616738191, 1.4762563616738165]], [[-1.4050288031770242, 1.4050288031770215]], [[-1.476580807328846, 1.4765808073288433]], [[-1.405354675524029, 1.4053546755240263]], [[-1.4768998762786212, 1.4768998762786185]], [[-1.4056814926944325, 1.4056814926944299]], [[-1.4772145591554506, 1.477214559155448]], [[-1.4060103780173254, 1.406010378017323]], [[-1.4775260540831634, 1.477526054083161]], [[-1.406342106280857, 1.4063421062808545]], [[-1.4778356770856815, 1.477835677085679]], [[-1.4066770175371002, 1.4066770175370977]], [[-1.4781447568271724, 1.47814475682717]], [[-1.4070149638793787, 1.4070149638793763]], [[-1.478454521900124, 1.4784545219001215]], [[-1.407355296066486, 1.4073552960664835]], [[-1.4787659901743255, 1.478765990174323]], [[-1.4076968934580747, 1.407696893458072]], [[-1.4790798701754382, 1.4790798701754355]], [[-1.408038236767172, 1.4080382367671693]], [[-1.4793964839420792, 1.4793964839420766]], [[-1.4083775191101493, 1.4083775191101466]], [[-1.4797157193100448, 1.479715719310042]], [[-1.4087127872315708, 1.4087127872315681]], [[-1.4800370172274788, 1.480037017227476]], [[-1.4090421019992103, 1.4090421019992074]], [[-1.4803593967707114, 1.4803593967707085]], [[-1.4093637055367576, 1.4093637055367547]], [[-1.4806815173315253, 1.4806815173315224]], [[-1.4096761817356676, 1.409676181735665]], [[-1.4810017743130075, 1.4810017743130048]], [[-1.4099785972559382, 1.4099785972559356]], [[-1.4813184218819255, 1.4813184218819229]], [[-1.410270611296346, 1.4102706112963432]], [[-1.4816297140729853, 1.4816297140729826]], [[-1.4105525441928306, 1.410552544192828]], [[-1.4819340539233852, 1.4819340539233825]], [[-1.410825397158274, 1.4108253971582714]], [[-1.482230139360066, 1.4822301393600634]], [[-1.4110908181731376, 1.411090818173135]], [[-1.4825170942548787, 1.482517094254876]], [[-1.4113510122246014, 1.4113510122245987]], [[-1.4827945733948134, 1.4827945733948107]], [[-1.411608597852869, 1.4116085978528663]], [[-1.483062831108688, 1.4830628311086853]], [[-1.4118664163211347, 1.411866416321132]], [[-1.4833227450147368, 1.4833227450147342]], [[-1.4121273045458869, 1.4121273045458842]], [[-1.483575788897305, 1.4835757888973022]], [[-1.4123938478289615, 1.4123938478289588]], [[-1.4838239521539114, 1.4838239521539087]], [[-1.41266813277117, 1.4126681327711674]], [[-1.4840696075476794, 1.4840696075476767]], [[-1.4129515236596102, 1.4129515236596075]], [[-1.4843153339480313, 1.4843153339480286]], [[-1.413244486214112, 1.4132444862141094]], [[-1.4845637059048233, 1.4845637059048207]], [[-1.4135464801909001, 1.4135464801908975]], [[-1.4848170666118137, 1.484817066611811]], [[-1.4138559368171375, 1.4138559368171348]], [[-1.4850773042791396, 1.485077304279137]], [[-1.4141703288896237, 1.414170328889621]], [[-1.4853456534070426, 1.48534565340704]], [[-1.414486331780465, 1.4144863317804623]], [[-1.485622541457104, 1.4856225414571014]], [[-1.4148000640982752, 1.4148000640982725]], [[-1.4859074979133904, 1.4859074979133877]], [[-1.4151073888611703, 1.4151073888611676]], [[-1.4861991371618712, 1.4861991371618686]], [[-1.415404250794804, 1.4154042507948013]], [[-1.4864952198228274, 1.4864952198228247]], [[-1.4156870231117122, 1.4156870231117096]], [[-1.4867927901375189, 1.4867927901375162]], [[-1.4159528374861956, 1.415952837486193]], [[-1.4870883806285278, 1.487088380628525]], [[-1.41619987306517, 1.4161998730651673]], [[-1.4873782701172704, 1.4873782701172678]], [[-1.416427583279795, 1.4164275832797923]], [[-1.487658777508487, 1.4876587775084844]], [[-1.4166368421938622, 1.4166368421938595]], [[-1.4879265714209935, 1.4879265714209908]], [[-1.4168299948492244, 1.4168299948492218]], [[-1.4881789744328557, 1.488178974432853]], [[-1.4170107988094895, 1.4170107988094869]], [[-1.4884142400582534, 1.4884142400582507]], [[-1.4171842476403513, 1.4171842476403487]], [[-1.488631780355582, 1.4886317803555793]], [[-1.417356272514528, 1.4173562725145252]], [[-1.488832322326652, 1.4888323223266493]], [[-1.4175333266143508, 1.4175333266143482]], [[-1.4890179724124717, 1.489017972412469]], [[-1.4177218691678397, 1.417721869167837]], [[-1.4891921711967564, 1.4891921711967537]], [[-1.4179277813653772, 1.4179277813653746]], [[-1.4893595258982841, 1.4893595258982815]], [[-1.418155763051824, 1.4181557630518213]], [[-1.4895255172650852, 1.4895255172650823]], [[-1.4184087732717061, 1.418408773271703]], [[-1.4896960903405359, 1.4896960903405327]], [[-1.418687584724133, 1.4186875847241298]], [[-1.4898771543109934, 1.4898771543109903]], [[-1.4189905177093536, 1.4189905177093505]], [[-1.490074032809329, 1.4900740328093258]], [[-1.4193134014537145, 1.4193134014537114]], [[-1.4902909189732, 1.490290918973197]], [[-1.4196497820060676, 1.4196497820060645]], [[-1.4905303954258062, 1.4905303954258031]], [[-1.419991362378369, 1.419991362378366]], [[-1.4907930756906467, 1.4907930756906436]], [[-1.4203286304153588, 1.4203286304153557]], [[-1.491077410454416, 1.4910774104544129]], [[-1.4206516100600552, 1.4206516100600521]], [[-1.4913796823875778, 1.4913796823875747]], [[-1.4209506654840933, 1.4209506654840902]], [[-1.4916941914914543, 1.4916941914914512]], [[-1.421217293576674, 1.421217293576671]], [[-1.492013613761207, 1.492013613761204]], [[-1.4214448536548068, 1.4214448536548037]], [[-1.4923295024281718, 1.4923295024281686]], [[-1.4216291978962883, 1.4216291978962852]], [[-1.492632894067433, 1.4926328940674298]], [[-1.421769176763033, 1.4217691767630298]], [[-1.49291498036112, 1.4929149803611168]], [[-1.4218669975555134, 1.4218669975555103]], [[-1.4931678080498456, 1.4931678080498425]], [[-1.421928410581202, 1.421928410581199]], [[-1.493384971988193, 1.49338497198819]], [[-1.421962687828227, 1.4219626878282239]], [[-1.4935622668713153, 1.4935622668713122]], [[-1.4219823473322704, 1.4219823473322672]], [[-1.493698260293156, 1.493698260293153]], [[-1.4220025689450588, 1.4220025689450557]], [[-1.4937947423857578, 1.4937947423857547]], [[-1.4220402529268164, 1.4220402529268132]], [[-1.4938569959611014, 1.4938569959610983]], [[-1.4221127021238935, 1.4221127021238904]], [[-1.4938938190696527, 1.4938938190696496]], [[-1.4222359694511892, 1.4222359694511861]], [[-1.4939172262408296, 1.4939172262408265]], [[-1.4224230034086045, 1.4224230034086014]], [[-1.493941766072286, 1.493941766072283]], [[-1.4226818264009544, 1.4226818264009513]], [[-1.4939834322494192, 1.493983432249416]], [[-1.42301405527693, 1.4230140552769268]], [[-1.4940582162556773, 1.494058216255674]], [[-1.4234140748970336, 1.4234140748970303]], [[-1.4941804409469286, 1.4941804409469253]], [[-1.4238690767980706, 1.4238690767980673]], [[-1.4943610948999877, 1.4943610948999844]], [[-1.4243599942089418, 1.4243599942089382]], [[-1.4946064214132249, 1.4946064214132213]], [[-1.4248631664883256, 1.424863166488322]], [[-1.4949169812794794, 1.4949169812794758]], [[-1.4253524293582227, 1.425352429358219]], [[-1.495287313938427, 1.495287313938423]], [[-1.4258012991767397, 1.4258012991767357]], [[-1.4957062039054836, 1.4957062039054796]], [[-1.4261849915603046, 1.4261849915603007]], [[-1.4961574612140067, 1.4961574612140027]], [[-1.4264821375342842, 1.4264821375342802]], [[-1.4966210724304552, 1.4966210724304512]], [[-1.4266761787155606, 1.4266761787155566]], [[-1.4970745745520164, 1.4970745745520124]], [[-1.4267565023138953, 1.4267565023138913]], [[-1.497494532505904, 1.4974945325059]], [[-1.426719408288073, 1.426719408288069]], [[-1.4978580425792094, 1.4978580425792054]], [[-1.4265689910938717, 1.4265689910938677]], [[-1.4981442245704846, 1.4981442245704806]], [[-1.4263179744397096, 1.4263179744397056]], [[-1.4983356979258038, 1.4983356979257998]], [[-1.4259884589178455, 1.4259884589178415]], [[-1.498420059335521, 1.498420059335517]], [[-1.4256124204344183, 1.4256124204344145]], [[-1.4983913878594153, 1.4983913878594115]], [[-1.4252316239645078, 1.425231623964504]], [[-1.4982517874145553, 1.4982517874145516]], [[-1.4248964087492586, 1.4248964087492548]], [[-1.4980129106788336, 1.4980129106788298]], [[-1.4246626393979291, 1.4246626393979254]], [[-1.4976972574914624, 1.4976972574914584]], [[-1.4245861900080374, 1.4245861900080334]], [[-1.4973387861245817, 1.4973387861245777]], [[-1.4247149000500252, 1.4247149000500212]], [[-1.496982086426706, 1.496982086426702]], [[-1.4250791430278724, 1.4250791430278684]], [[-1.4966792759594203, 1.4966792759594163]], [[-1.4256835935995418, 1.4256835935995378]], [[-1.496484238081796, 1.4964842380817918]], [[-1.4265033997164966, 1.4265033997164924]], [[-1.4964449264359463, 1.496444926435942]], [[-1.4274867307953907, 1.4274867307953865]], [[-1.4965956683592543, 1.4965956683592503]], [[-1.4285629051906086, 1.4285629051906046]], [[-1.496951745476971, 1.4969517454769672]], [[-1.429652900036152, 1.4296529000361482]], [[-1.4975075953916623, 1.4975075953916586]], [[-1.4306787151991163, 1.4306787151991123]], [[-1.4982384403052489, 1.498238440305245]], [[-1.4315696086372205, 1.4315696086372165]], [[-1.4991040731257799, 1.4991040731257759]], [[-1.4322651140131155, 1.4322651140131117]], [[-1.500053367695847, 1.5000533676958432]], [[-1.432715834367142, 1.4327158343671382]], [[-1.5010285310969422, 1.5010285310969385]], [[-1.432883170780037, 1.4328831707800331]], [[-1.5019686828139163, 1.5019686828139125]], [[-1.432738846616175, 1.4327388466161712]], [[-1.502812734954751, 1.5028127349547473]], [[-1.4322647483361806, 1.4322647483361768]], [[-1.5035017118782859, 1.503501711878282]], [[-1.4314534229772717, 1.431453422977268]], [[-1.5039806593375444, 1.5039806593375407]], [[-1.4303095949519526, 1.4303095949519489]], [[-1.504200244656531, 1.5042002446565272]], [[-1.428853280496799, 1.4288532804967953]], [[-1.5041181134169705, 1.5041181134169668]], [[-1.4271254657153867, 1.427125465715383]], [[-1.50370010515721, 1.5037001051572063]], [[-1.425197795488988, 1.4251977954889843]], [[-1.5029216372950467, 1.502921637295043]], [[-1.4231879197126496, 1.423187919712646]], [[-1.5017701932552219, 1.5017701932552183]], [[-1.4212806876794164, 1.4212806876794128]], [[-1.5002514691107904, 1.5002514691107869]], [[-1.419748585068533, 1.4197485850685292]], [[-1.498404894611065, 1.498404894611061]], [[-1.4189469644623445, 1.4189469644623405]], [[-1.496336172458547, 1.4963361724585431]], [[-1.419235938454492, 1.419235938454488]], [[-1.4942608086413742, 1.4942608086413702]], [[-1.4208029280177012, 1.4208029280176973]], [[-1.492508259497304, 1.4925082594973]], [[-1.4234962935277231, 1.4234962935277191]], [[-1.4914220147078694, 1.4914220147078654]], [[-1.4268767135219402, 1.4268767135219362]], [[-1.4912097341162522, 1.4912097341162482]], [[-1.4304603778450071, 1.4304603778450031]], [[-1.491888223342666, 1.491888223342662]], [[-1.4338937973800756, 1.4338937973800716]], [[-1.4933407199192081, 1.4933407199192041]], [[-1.4369675891403382, 1.4369675891403342]], [[-1.4953952448896932, 1.4953952448896892]], [[-1.4395625490207238, 1.4395625490207198]], [[-1.4978720786916733, 1.4978720786916693]], [[-1.4416015673086777, 1.4416015673086737]], [[-1.500601587105488, 1.500601587105484]], [[-1.4430222773514108, 1.4430222773514068]], [[-1.5034266326907864, 1.5034266326907824]], [[-1.4437640302049024, 1.4437640302048984]], [[-1.5061997440971946, 1.5061997440971906]], [[-1.4437611748822485, 1.4437611748822445]], [[-1.5087802376324873, 1.5087802376324833]], [[-1.442936202261542, 1.442936202261538]], [[-1.5110336542771936, 1.5110336542771896]], [[-1.4411859581598878, 1.4411859581598836]], [[-1.5128348088655497, 1.5128348088655454]], [[-1.4383490361352904, 1.4383490361352862]], [[-1.5140771500856647, 1.5140771500856607]], [[-1.4341229497368686, 1.4341229497368646]], [[-1.514701918751567, 1.514701918751563]], [[-1.427818437167881, 1.427818437167877]], [[-1.5148274431495823, 1.5148274431495783]], [[-1.4173853932272318, 1.4173853932272278]], [[-1.515676722293283, 1.515676722293279]], [[-1.392656032093194, 1.39265603209319]], [[-1.538066982524274, 1.53806698252427]], [[-1.2450774379000507, 1.2450774379000464]], [[-1.6433741594932116, 1.6433741594932074]], [[-1.2150861424726773, 1.215086142472673]], [[-0.9121872780308543, 0.91218727803085]], [[-0.6919581285801868, 0.6919581285801826]], [[-0.6317718456796123, 0.6317718456796081]], [[-0.6448831840531084, 0.6448831840531042]], [[-0.6560093654217499, 0.6560093654217457]], [[-0.6750918579716506, 0.6750918579716464]], [[-0.6811893997032473, 0.6811893997032432]], [[-0.7009553347585576, 0.7009553347585536]], [[-0.7068462477732823, 0.7068462477732783]], [[-0.7263686229084566, 0.7263686229084526]], [[-0.7318740649758434, 0.7318740649758393]], [[-0.7509943536543411, 0.750994353654337]], [[-0.7560545280731406, 0.7560545280731366]], [[-0.7748583617913128, 0.7748583617913088]], [[-0.7923628404824649, 0.7923628404824608]], [[-0.7967965460460738, 0.7967965460460696]], [[-0.8152010978709118, 0.8152010978709077]], [[-0.8188186604189321, 0.818818660418928]], [[-0.837052492424153, 0.8370524924241489]], [[-0.8528052988623614, 0.8528052988623572]], [[-0.8688869335748561, 0.8688869335748519]], [[-0.87177192829039, 0.8717719282903857]], [[-0.8894925791833875, 0.8894925791833833]], [[-0.8912895855099714, 0.8912895855099672]], [[-0.908883718377867, 0.9088837183778627]], [[-0.9227012808889972, 0.922701280888993]], [[-0.9372082066532759, 0.9372082066532716]], [[-0.9388929650115432, 0.9388929650115391]], [[-0.9559114861197998, 0.9559114861197957]], [[-0.956128964126754, 0.9561289641267499]], [[-0.9732971079452902, 0.9732971079452861]], [[-0.9852602282496492, 0.9852602282496451]], [[-0.9985232883855841, 0.99852328838558]], [[-1.0111811538428832, 1.0111811538428792]], [[-1.011850157290255, 1.011850157290251]], [[-1.0282242706690383, 1.0282242706690343]], [[-1.02674176397721, 1.026741763977206]], [[-1.043603661941274, 1.04360366194127]], [[-1.0534512449859061, 1.0534512449859021]], [[-1.0657233053125736, 1.0657233053125696]], [[-1.0768132594774604, 1.0768132594774564]], [[-1.0882136866244556, 1.0882136866244516]], [[-1.0877583726092754, 1.0877583726092717]], [[-1.1036229048166926, 1.1036229048166888]], 