[[[-0.055317371977878185, 0.05531737197787825]], [[-0.08269013286421359, 0.08269013286421362]], [[-0.09626356738339975, 0.09626356738339975]], [[-0.10304724041966151, 0.10304724041966154]], [[-0.10637198594900375, 0.1063719859490038]], [[-0.10800282813030262, 0.10800282813030267]], [[-0.10870471294788064, 0.10870471294788073]], [[-0.10900137751941047, 0.10900137751941052]], [[-0.10899762640609492, 0.108997626406095]], [[-0.10888316586238947, 0.10888316586238952]], [[-0.10861580472611596, 0.10861580472611601]], [[-0.10833457379010784, 0.10833457379010789]], [[-0.10799028016292822, 0.1079902801629282]], [[-0.10729115052756422, 0.10729115052756422]], [[-0.10648624073163826, 0.1064862407316382]], [[-0.10575121772758062, 0.10575121772758062]], [[-0.10479528995860143, 0.10479528995860143]], [[-0.10334776894294392, 0.1033477689429439]], [[-0.10166288929065094, 0.1016628892906509]], [[-0.09955969157020263, 0.09955969157020253]], [[-0.09738121514074885, 0.09738121514074882]], [[-0.09422718036730961, 0.09422718036730973]], [[-0.09044675844696995, 0.09044675844697009]], [[-0.0868436038032995, 0.08684360380329964]], [[-0.08211120374242778, 0.08211120374242799]], [[-0.07695211827794962, 0.07695211827794984]], [[-0.06990523793372722, 0.06990523793372744]], [[-0.06227252411918012, 0.06227252411918029]], [[-0.05419075023822706, 0.05419075023822723]], [[-0.045758054425728605, 0.045758054425728764]], [[-0.03755210394741718, 0.03755210394741733]], [[-0.027855790568049238, 0.027855790568049384]], [[-0.013084803474231237, 0.013084803474231327]], [[-0.010144749815439225, 0.01014474981543926]], [[0.0068500321134606565, -0.0068500321134606496]], [[0.012973696391100756, -0.012973696391100839]], [[0.026934847253488353, -0.026934847253488464]], [[0.032288743553501156, -0.032288743553501226]], [[0.04064132258710869, -0.0406413225871087]], [[0.05595944465593668, -0.055959444655936705]], [[0.05762294013484827, -0.05762294013484838]], [[0.06735156897269419, -0.06735156897269423]], [[0.07389838602063767, -0.07389838602063768]], [[0.08453884091992728, -0.08453884091992728]], [[0.09422266005172888, -0.0942226600517289]], [[0.0991356636104107, -0.0991356636104108]], [[0.10630097455906568, -0.10630097455906579]], [[0.10871943988962285, -0.10871943988962299]], [[0.11462932818529294, -0.11462932818529308]], [[0.11751380850808293, -0.11751380850808311]], [[0.1224998676226513, -0.12249986762265151]], [[0.12704880844186123, -0.1270488084418614]], [[0.1310013920137241, -0.13100139201372424]], [[0.13447203888617515, -0.13447203888617526]], [[0.13754658119172025, -0.13754658119172042]], [[0.14026412626520857, -0.14026412626520873]], [[0.1427255084356585, -0.1427255084356587]], [[0.14497242529656237, -0.1449724252965625]], [[0.14702255030618794, -0.14702255030618816]], [[0.14889500051479576, -0.14889500051479593]], [[0.1506349282144595, -0.15063492821445956]], [[0.15225815390362968, -0.1522581539036297]], [[0.15371519257913613, -0.15371519257913613]], [[0.15512355796295058, -0.15512355796295058]], [[0.15644084755305623, -0.15644084755305626]], [[0.15768845446959295, -0.157688454469593]], [[0.1587950101129678, -0.15879501011296787]], [[0.15989759804511458, -0.15989759804511472]], [[0.16093034377071863, -0.1609303437707188]], [[0.16189449142565446, -0.16189449142565465]], [[0.16282177031561684, -0.162821770315617]], [[0.16368372485162005, -0.16368372485162022]], [[0.16449566107732455, -0.16449566107732477]], [[0.16522693516735712, -0.16522693516735734]], [[0.16602786307496234, -0.16602786307496248]], [[0.1667246149080776, -0.16672461490807772]], [[0.16736381748863818, -0.16736381748863827]], [[0.16864647578477115, -0.16864647578477124]], [[0.16900197807280193, -0.16900197807280204]], [[0.1696602247354284, -0.16966022473542852]], [[0.1701625193956814, -0.17016251939568156]], [[0.17067298420831356, -0.1706729842083137]], [[0.17218817119973773, -0.1721881711997379]], [[0.17219982236606804, -0.17219982236606826]], [[0.17500752011043252, -0.17500752011043272]], [[0.17633610681636128, -0.17633610681636153]], [[0.19077421036760905, -0.1907742103676093]], [[0.18582106781492974, -0.18582106781492996]], [[0.19960658922847757, -0.1996065892284778]], [[0.1901211739368385, -0.19012117393683872]], [[0.1980332047452503, -0.19803320474525055]], [[0.1906542185235694, -0.19065421852356967]], [[0.20742866135615157, -0.20742866135615182]], [[0.19688565332012517, -0.19688565332012545]], [[0.21394820730133046, -0.21394820730133074]], [[0.20045563430954277, -0.20045563430954305]], [[0.22004761810836634, -0.22004761810836665]], [[0.20577682763125513, -0.20577682763125554]], [[0.2200023978535543, -0.2200023978535547]], [[0.20680777221381136, -0.20680777221381177]], [[0.22557028085829517, -0.22557028085829556]], [[0.21082106524425892, -0.2108210652442593]], [[0.22614523965240296, -0.22614523965240335]], [[0.21282715108461964, -0.21282715108462005]], [[0.23454074367477168, -0.234540743674772]], [[0.2178439429103022, -0.21784394291030257]], [[0.24167263495261046, -0.24167263495261088]], [[0.22287480505104665, -0.22287480505104706]], [[0.24481198161284978, -0.24481198161285023]], [[0.22733123729359125, -0.22733123729359173]], [[0.24668399566592053, -0.24668399566592097]], [[0.22933956792997146, -0.22933956792997193]], [[0.25338348834468494, -0.2533834883446854]], [[0.23430224823189888, -0.23430224823189927]], [[0.26191225247886857, -0.2619122524788689]], [[0.24055846930237235, -0.24055846930237268]], [[0.26299622840517084, -0.2629962284051712]], [[0.24329820027284327, -0.24329820027284355]], [[0.2668919176186163, -0.2668919176186166]], [[0.24684620889979147, -0.2468462088997917]], [[0.2700630243015309, -0.2700630243015311]], [[0.2514165289579987, -0.25141652895799893]], [[0.27183724238711116, -0.27183724238711143]], [[0.2567856196585514, -0.25678561965855173]], [[0.2830655027089819, -0.2830655027089823]], [[0.2633120548815384, -0.2633120548815388]], [[0.29302103344760955, -0.2930210334476099]], [[0.27168560198006936, -0.2716856019800697]], [[0.3001157695175269, -0.3001157695175273]], [[0.2766203026550766, -0.276620302655077]], [[0.306353570318315, -0.30635357031831534]], [[0.2841604517609885, -0.2841604517609888]], [[0.31234754791093955, -0.3123475479109399]], [[0.2900096726745962, -0.29000967267459654]], [[0.3221094786082768, -0.3221094786082771]], [[0.28961168988675867, -0.289611689886759]], [[0.3212805255244065, -0.3212805255244069]], [[0.29564256195006, -0.2956425619500604]], [[0.32626581312322855, -0.326265813123229]], [[0.3003348968645404, -0.3003348968645409]], [[0.3317786780708527, -0.33177867807085315]], [[0.30412216082892385, -0.3041221608289243]], [[0.3369130819972015, -0.33691308199720194]], [[0.3129816952564042, -0.3129816952564046]], [[0.34127999775633544, -0.3412799977563359]], [[0.32036299886106295, -0.32036299886106345]], [[0.35297668642150054, -0.35297668642150104]], [[0.32798035732923686, -0.32798035732923736]], [[0.35853491909801416, -0.3585349190980147]], [[0.3389960132050787, -0.3389960132050792]], [[0.36748702951149315, -0.3674870295114937]], [[0.34731434679545325, -0.3473143467954538]], [[0.3789525977225533, -0.37895259772255385]], [[0.35479955365209986, -0.3547995536521005]], [[0.3858853469961583, -0.3858853469961589]], [[0.36467744509507344, -0.36467744509507394]], [[0.39236414236636186, -0.39236414236636236]], [[0.372060028232014, -0.3720600282320145]], [[0.39631406520008367, -0.39631406520008416]], [[0.3767470914304047, -0.3767470914304052]], [[0.40669035378825763, -0.4066903537882582]], [[0.3814482296642874, -0.38144822966428793]], [[0.4130893478684029, -0.41308934786840346]], [[0.3907093793396778, -0.39070937933967836]], [[0.41723489973484656, -0.4172348997348471]], [[0.39500642998131447, -0.395006429981315]], [[0.4184862263192759, -0.41848622631927646]], [[0.40012462302191887, -0.4001246230219194]], [[0.4240528010301158, -0.42405280103011633]], [[0.4022289565581065, -0.40222895655810703]], [[0.42843092130405147, -0.428430921304052]], [[0.40128923200980054, -0.4012892320098011]], [[0.4359014246635888, -0.4359014246635894]], [[0.406083888384006, -0.4060838883840066]], [[0.43805443698152513, -0.43805443698152574]], [[0.4096063431571166, -0.4096063431571172]], [[0.4404165714440915, -0.4404165714440922]], [[0.4091603045059507, -0.40916030450595137]], [[0.43876813219695465, -0.4387681321969553]], [[0.4098696214494477, -0.4098696214494484]], [[0.44585091773340724, -0.4458509177334079]], [[0.4043201390951723, -0.40432013909517295]], [[0.4594636832633622, -0.4594636832633628]], [[0.3906332021504046, -0.39063320215040515]], [[0.47773250117837585, -0.47773250117837635]], [[0.38015382005712856, -0.38015382005712905]], [[0.4981309418821557, -0.4981309418821561]], [[0.36870782434026567, -0.36870782434026617]], [[0.5137586332739146, -0.513758633273915]], [[0.37706215584369573, -0.3770621558436962]], [[0.5170667697433784, -0.5170667697433788]], [[0.38869114471277594, -0.3886911447127764]], [[0.5231911097713009, -0.5231911097713013]], [[0.39169069883751206, -0.3916906988375125]], [[0.5314987527887467, -0.5314987527887471]], [[0.39614350454422975, -0.39614350454423014]], [[0.5366527560976118, -0.5366527560976122]], [[0.40524920381897334, -0.4052492038189737]], [[0.5409115271144129, -0.5409115271144134]], [[0.40934530794896706, -0.4093453079489675]], [[0.5499984408893079, -0.5499984408893084]], [[0.4318214377568421, -0.43182143775684256]], [[0.5427229143836416, -0.5427229143836421]], [[0.44612451573922535, -0.44612451573922585]], [[0.5425916127619608, -0.5425916127619613]], [[0.4465563573761772, -0.4465563573761778]], [[0.551064573778743, -0.5510645737787436]], [[0.4469490382414577, -0.4469490382414583]], [[0.5557694870800844, -0.555769487080085]], [[0.4606080089570116, -0.46060800895701215]], [[0.549848641956321, -0.5498486419563215]], [[0.45959520429392725, -0.4595952042939278]], [[0.5577097865327627, -0.5577097865327634]], [[0.45700500751047807, -0.45700500751047873]], [[0.5652701440264989, -0.5652701440264996]], [[0.4758857907181065, -0.47588579071810716]], [[0.5545715382815336, -0.5545715382815343]], [[0.47032090590168507, -0.47032090590168574]], [[0.5662773942678674, -0.566277394267868]], [[0.47383701212975987, -0.47383701212976054]], [[0.5590214145647674, -0.5590214145647682]], [[0.47245835244665024, -0.4724583524466511]], [[0.5761063948510023, -0.5761063948510032]], [[0.4712632098470251, -0.47126320984702597]], [[0.579552242897369, -0.5795522428973698]], [[0.46677451160193095, -0.46677451160193184]], [[0.6053356283780087, -0.6053356283780096]], [[0.4895296522511775, -0.4895296522511784]], [[0.5870225359176501, -0.587022535917651]], [[0.4985604114801416, -0.4985604114801424]], [[0.5797160750614834, -0.5797160750614841]], [[0.49377908377768226, -0.49377908377768304]], [[0.5997211004953651, -0.5997211004953659]], [[0.4835778018408159, -0.48357780184081667]], [[0.6250696508175012, -0.625069650817502]], [[0.5093652345103717, -0.5093652345103725]], [[0.5883791506989202, -0.588379150698921]], [[0.5144761836156811, -0.5144761836156819]], [[0.6068335147826627, -0.6068335147826635]], [[0.5014731320113158, -0.5014731320113166]], [[0.6270627001812099, -0.6270627001812107]], [[0.5233009213326286, -0.5233009213326294]], [[0.5919107833671335, -0.5919107833671343]], [[0.527089915394518, -0.5270899153945188]], [[0.6125633672019763, -0.6125633672019771]], [[0.5102990876157157, -0.5102990876157165]], [[0.6355677510620193, -0.6355677510620201]], [[0.5314945011367141, -0.5314945011367149]], [[0.5990005428923963, -0.5990005428923971]], [[0.5339389704948254, -0.5339389704948262]], [[0.6210168045141876, -0.6210168045141884]], [[0.5146619201930007, -0.5146619201930016]], [[0.6563246752083545, -0.6563246752083554]], [[0.5417119857424271, -0.541711985742428]], [[0.6100288186730427, -0.6100288186730437]], [[0.5155137760827466, -0.5155137760827476]], [[0.6493428895729771, -0.6493428895729783]], [[0.5060003092592189, -0.50600030925922]], [[0.6793484684940471, -0.6793484684940482]], [[0.5393550658062356, -0.5393550658062368]], [[0.6275396711637309, -0.6275396711637322]], [[0.5197622020773306, -0.5197622020773319]], [[0.6568311425332981, -0.6568311425332994]], [[0.5201691553519849, -0.5201691553519863]], [[0.6744314309917308, -0.6744314309917321]], [[0.5583141227269496, -0.5583141227269509]], [[0.623609535393874, -0.6236095353938752]], [[0.5376072231142645, -0.5376072231142657]], [[0.648788518183533, -0.6487885181835342]], [[0.5308350052560311, -0.5308350052560323]], [[0.6769755500470429, -0.676975550047044]], [[0.5769659425479295, -0.5769659425479307]], [[0.6155915447159963, -0.6155915447159974]], [[0.5807170939138901, -0.5807170939138914]], [[0.6222859166207898, -0.6222859166207911]], [[0.5561900221179007, -0.556190022117902]], [[0.6472283956770676, -0.6472283956770688]], [[0.5413657389192912, -0.5413657389192923]], [[0.6762279681667207, -0.6762279681667218]], [[0.5755529290158695, -0.5755529290158706]], [[0.6298518805012487, -0.6298518805012499]], [[0.5792209319021471, -0.5792209319021482]], [[0.6328269439619141, -0.6328269439619152]], [[0.5556822774839247, -0.5556822774839258]], [[0.6605421782156593, -0.6605421782156605]], [[0.5429257000819383, -0.5429257000819396]], [[0.6934374585235394, -0.6934374585235408]], [[0.5867399116834068, -0.5867399116834081]], [[0.6299414712975347, -0.6299414712975361]], [[0.5578499756097918, -0.5578499756097931]], [[0.6583053409824966, -0.6583053409824979]], [[0.5415480256831345, -0.5415480256831359]], [[0.7036186440476687, -0.7036186440476702]], [[0.5889072167402263, -0.5889072167402277]], [[0.6327072887982715, -0.632707288798273]], [[0.5615615571303157, -0.5615615571303172]], [[0.660806233284241, -0.6608062332842426]], [[0.5491998606757618, -0.5491998606757634]], [[0.692622786490157, -0.6926227864901586]], [[0.5544306166996453, -0.5544306166996471]], [[0.7060082719993959, -0.7060082719993976]], [[0.6023758767991189, -0.6023758767991206]], [[0.642113284805557, -0.6421132848055587]], [[0.5793262744348568, -0.5793262744348586]], [[0.6572335676564509, -0.6572335676564526]], [[0.5680736579806199, -0.5680736579806216]], [[0.6766034774503812, -0.6766034774503829]], [[0.5658073837203922, -0.5658073837203939]], [[0.6925282908126391, -0.6925282908126408]], [[0.615775860446165, -0.6157758604461666]], [[0.6362379777090665, -0.6362379777090682]], [[0.5841546089739522, -0.5841546089739539]], [[0.6554363854821186, -0.6554363854821204]], [[0.5684880668178852, -0.568488066817887]], [[0.6776153559765105, -0.6776153559765122]], [[0.5652131899145963, -0.5652131899145982]], [[0.6947439816284654, -0.6947439816284673]], [[0.5734788934356185, -0.5734788934356203]], [[0.6993780742224673, -0.6993780742224691]], [[0.6186047445677709, -0.6186047445677727]], [[0.6439586115648048, -0.6439586115648066]], [[0.5918711615244167, -0.5918711615244184]], [[0.6563825807860078, -0.6563825807860095]], [[0.5770930674543416, -0.5770930674543434]], [[0.6723638166105063, -0.6723638166105079]], [[0.5725069713356832, -0.5725069713356848]], [[0.6876287251187464, -0.6876287251187481]], [[0.5754967369918642, -0.575496736991866]], [[0.6980447921066262, -0.698044792106628]], [[0.6243481666671775, -0.6243481666671793]], [[0.6451714000070625, -0.6451714000070643]], [[0.5963213099282283, -0.5963213099282301]], [[0.6556034567305655, -0.6556034567305673]], [[0.5804665778381419, -0.5804665778381437]], [[0.6692518317531069, -0.6692518317531087]], [[0.5724855162509807, -0.5724855162509824]], [[0.683460242013518, -0.6834602420135197]], [[0.5754731157883762, -0.575473115788378]], [[0.6915803969405475, -0.6915803969405493]], [[0.5883506662481097, -0.5883506662481115]], [[0.6843368421517365, -0.6843368421517382]], [[0.5925143043689217, -0.5925143043689234]], [[0.6852754536907095, -0.6852754536907111]], [[0.5968970992372392, -0.5968970992372409]], [[0.6792264669887028, -0.6792264669887045]], [[0.597276260396542, -0.5972762603965437]], [[0.6769699903444074, -0.6769699903444091]], [[0.5973904831264013, -0.597390483126403]], [[0.6731137359279453, -0.6731137359279469]], [[0.5971755873093417, -0.5971755873093433]], [[0.6585347455595869, -0.6585347455595884]], [[0.591161902812702, -0.5911619028127034]], [[0.6560122822245674, -0.6560122822245689]], [[0.5821367671224297, -0.5821367671224311]], [[0.6662294990314518, -0.6662294990314532]], [[0.5814132467442203, -0.5814132467442218]], [[0.6631985845650537, -0.6631985845650551]], [[0.5819847929460417, -0.5819847929460431]], [[0.655866419246334, -0.6558664192463355]], [[0.5817218984952308, -0.5817218984952323]], [[0.6512119717781462, -0.6512119717781476]], [[0.5765569714267272, -0.5765569714267287]], [[0.6555446323599252, -0.6555446323599267]], [[0.574334384391632, -0.5743343843916334]], [[0.6565800704345105, -0.6565800704345119]], [[0.5756132409262719, -0.5756132409262733]], [[0.6494177130653886, -0.6494177130653901]], [[0.575674830443337, -0.5756748304433386]], [[0.6431957033513573, -0.6431957033513589]], [[0.5700938905325419, -0.5700938905325434]], [[0.6501392963148822, -0.6501392963148838]], [[0.5702572161574362, -0.5702572161574377]], [[0.6444636332263093, -0.6444636332263108]], [[0.5698360920796859, -0.5698360920796876]], [[0.6370644548812222, -0.637064454881224]], [[0.5644805472478419, -0.5644805472478437]], [[0.6439848023522496, -0.6439848023522514]], [[0.5648631652390446, -0.5648631652390463]], [[0.6380386701936603, -0.6380386701936621]], [[0.5644752105028176, -0.5644752105028193]], [[0.6305989058779979, -0.6305989058779997]], [[0.5598697703671486, -0.5598697703671505]], [[0.635317402763325, -0.6353174027633269]], [[0.5592030841988528, -0.5592030841988547]], [[0.6299114365154423, -0.6299114365154441]], [[0.5579658185599536, -0.5579658185599554]], [[0.6231243478237639, -0.6231243478237657]], [[0.5527404725315725, -0.5527404725315743]], [[0.6288754637565481, -0.6288754637565499]], [[0.5523814368105797, -0.5523814368105815]], [[0.623593256413213, -0.6235932564132148]], [[0.5515293212606865, -0.5515293212606884]], [[0.6166772023209341, -0.616677202320936]], [[0.5467768797043325, -0.5467768797043344]], [[0.622367830737103, -0.6223678307371049]], [[0.5464906375496208, -0.5464906375496227]], [[0.6171279833817815, -0.6171279833817834]], [[0.5457232800042658, -0.5457232800042677]], [[0.6103064923357424, -0.6103064923357443]], [[0.5416505041230458, -0.5416505041230477]], [[0.6155468743300893, -0.6155468743300911]], [[0.5409763798411181, -0.54097637984112]], [[0.6105946446412167, -0.6105946446412185]], [[0.5400425648569614, -0.5400425648569632]], [[0.6039629984457536, -0.6039629984457553]], [[0.5367251887553675, -0.5367251887553691]], [[0.6041023295352671, -0.6041023295352688]], [[0.5346184336085157, -0.5346184336085174]], [[0.6003855061481868, -0.6003855061481884]], [[0.5322716139582236, -0.5322716139582253]], [[0.5962374431851616, -0.5962374431851634]], [[0.529060487367756, -0.5290604873677578]], [[0.5923949085643161, -0.5923949085643179]], [[0.5230033540137683, -0.5230033540137701]], [[0.6012881528414776, -0.6012881528414794]], [[0.5239120904674888, -0.5239120904674905]], [[0.5965096849799785, -0.5965096849799801]], [[0.5245649218895116, -0.5245649218895133]], [[0.5897779607646746, -0.5897779607646763]], [[0.5225643321359741, -0.5225643321359756]], [[0.5831566338088219, -0.5831566338088234]], [[0.5194353365805136, -0.519435336580515]], [[0.5804952777478082, -0.5804952777478096]], [[0.5127988507455725, -0.512798850745574]], [[0.5903751355683173, -0.5903751355683188]], [[0.5138671191815732, -0.5138671191815747]], [[0.5859269819780785, -0.5859269819780799]], [[0.5148230456687697, -0.5148230456687711]], [[0.5793516434397354, -0.5793516434397369]], [[0.5130419250969962, -0.5130419250969976]], [[0.5731978924577511, -0.5731978924577525]], [[0.5101014985247012, -0.5101014985247028]], [[0.5703854513704864, -0.5703854513704879]], [[0.5041587242027151, -0.5041587242027167]], [[0.5798851245869601, -0.5798851245869617]], [[0.5051001003130675, -0.5051001003130691]], [[0.5755943029554561, -0.5755943029554577]], [[0.5059452076197323, -0.5059452076197338]], [[0.5692997550836889, -0.5692997550836905]], [[0.5041234750419005, -0.5041234750419019]], [[0.5635644881541351, -0.5635644881541364]], [[0.4979508857853651, -0.49795088578536645]], [[0.5719037997033568, -0.5719037997033581]], [[0.49917520431643864, -0.49917520431643997]], [[0.5671032127038657, -0.567103212703867]], [[0.4995459350770045, -0.49954593507700584]], [[0.560955460892134, -0.5609554608921353]], [[0.49728073765525477, -0.49728073765525604]], [[0.5554509669935602, -0.5554509669935614]], [[0.49160547258075415, -0.4916054725807554]], [[0.5632267043014908, -0.563226704301492]], [[0.492187450147185, -0.49218745014718623]], [[0.5589794766795558, -0.558979476679557]], [[0.492314011219471, -0.4923140112194722]], [[0.5531922808079315, -0.5531922808079327]], [[0.49004436875227847, -0.4900443687522797]], [[0.5478886901266955, -0.5478886901266968]], [[0.4854525654687119, -0.48545256546871324]], [[0.5548948351653539, -0.5548948351653552]], [[0.48537143787660253, -0.48537143787660386]], [[0.5511152059847091, -0.5511152059847104]], [[0.48522312346037844, -0.48522312346037977]], [[0.5456765653168912, -0.5456765653168926]], [[0.48294280154079566, -0.48294280154079694]], [[0.5405614266820663, -0.5405614266820676]], [[0.479100140188946, -0.4791001401889473]], [[0.5359817579220736, -0.5359817579220749]], [[0.4751498048551431, -0.4751498048551444]], [[0.5343243442369651, -0.5343243442369664]], [[0.47032439773942414, -0.47032439773942547]], [[0.5436874467117491, -0.5436874467117504]], [[0.47168705685897333, -0.4716870568589746]], [[0.5401737538932806, -0.5401737538932819]], [[0.47286230174404964, -0.472862301744051]], [[0.534742028124908, -0.5347420281249093]], [[0.47141433180051584, -0.4714143318005172]], [[0.5301250896913313, -0.5301250896913327]], [[0.4684969734790897, -0.46849697347909103]], [[0.52571639629946, -0.5257163962994613]], [[0.4640400167449268, -0.4640400167449281]], [[0.5265844495325154, -0.5265844495325167]], [[0.461128800541798, -0.46112880054179933]], [[0.5317310749106252, -0.5317310749106265]], [[0.4627122990350259, -0.4627122990350273]], [[0.5278446638134924, -0.5278446638134937]], [[0.4629084888163878, -0.46290848881638913]], [[0.5234066270876246, -0.523406627087626]], [[0.4612837604984721, -0.4612837604984734]], [[0.5219966969116137, -0.521996696911615]], [[0.45963601751833993, -0.45963601751834127]], [[0.5183100641739369, -0.5183100641739382]], [[0.4553745048876251, -0.45537450488762643]], [[0.521941377910593, -0.5219413779105944]], [[0.4561082286647171, -0.45610822866471845]], [[0.5181126202872163, -0.5181126202872176]], [[0.4553584801364735, -0.4553584801364748]], [[0.514012708282507, -0.5140127082825083]], [[0.4531678319849144, -0.4531678319849157]], [[0.5128915776804271, -0.5128915776804285]], [[0.45132694754061903, -0.45132694754062036]], [[0.5095019889247948, -0.5095019889247961]], [[0.44763861633467306, -0.44763861633467444]], [[0.512849423302875, -0.5128494233028764]], [[0.44802240507980506, -0.4480224050798065]], [[0.5094315621105706, -0.5094315621105722]], [[0.4472654714878208, -0.44726547148782236]], [[0.505550900660919, -0.5055509006609206]], [[0.4451960284971127, -0.4451960284971142]], [[0.501318259197019, -0.5013182591970206]], [[0.4422194649888358, -0.44221946498883735]], [[0.498011701756725, -0.4980117017567265]], [[0.43832645932891, -0.4383264593289115]], [[0.497642286913177, -0.4976422869131786]], [[0.4344589153902245, -0.4344589153902261]], [[0.5034827632060662, -0.5034827632060678]], [[0.43638492189933237, -0.4363849218993339]], [[0.5002465164291394, -0.500246516429141]], [[0.43682064200230836, -0.4368206420023099]], [[0.4963427557838746, -0.4963427557838762]], [[0.4357099425101734, -0.43570994251017503]], [[0.49203712402291877, -0.49203712402292044]], [[0.4330312818698979, -0.4330312818698996]], [[0.48805403108399914, -0.4880540310840008]], [[0.42971533933889183, -0.42971533933889355]], [[0.4849296741905318, -0.48492967419053346]], [[0.4251094571046116, -0.42510945710461323]], [[0.48762219918768923, -0.4876221991876908]], [[0.42488914101245245, -0.424889141012454]], [[0.49058802069236945, -0.490588020692371]], [[0.4259331365518379, -0.42593313655183945]], [[0.4884578637003345, -0.488457863700336]], [[0.4263061331189349, -0.4263061331189364]], [[0.4844950703536751, -0.48449507035367667]], [[0.42492411014425713, -0.42492411014425874]], [[0.4804152024793514, -0.480415202479353]], [[0.42218930665040594, -0.42218930665040755]], [[0.47653742128229404, -0.47653742128229565]], [[0.4190570011268501, -0.41905700112685174]], [[0.4738788855945062, -0.4738788855945078]], [[0.41552646429763207, -0.4155264642976337]], [[0.47625693835921995, -0.4762569383592216]], [[0.4133038158975141, -0.41330381589751575]], [[0.47997156063002866, -0.4799715606300303]], [[0.4150401143987882, -0.41504011439878985]], [[0.4777675881303942, -0.4777675881303959]], [[0.4158797317472531, -0.4158797317472548]], [[0.473748210897443, -0.4737482108974446]], [[0.41475929372010756, -0.41475929372010917]], [[0.4696746960328846, -0.4696746960328862]], [[0.4121970469839676, -0.41219704698396925]], [[0.46592689888706956, -0.46592689888707123]], [[0.40846685920877535, -0.408466859208777]], [[0.46770480061552405, -0.4677048006155257]], [[0.40705174150531326, -0.4070517415053149]], [[0.4703309911882937, -0.4703309911882954]], [[0.4080931042997751, -0.40809310429977674]], [[0.46827753882442713, -0.4682775388244288]], [[0.408217289952805, -0.4082172899528067]], [[0.4646124438096388, -0.46461244380964045]], [[0.4067551757504611, -0.40675517575046277]], [[0.4607828153072915, -0.46078281530729315]], [[0.40409614143194544, -0.4040961414319471]], [[0.4571834650855757, -0.4571834650855774]], [[0.4007509477441783, -0.40075094774418]], [[0.4587525798478318, -0.45875257984783346]], [[0.39970656066895877, -0.39970656066896043]], [[0.4569544018087112, -0.4569544018087129]], [[0.39862909488000475, -0.3986290948800064]], [[0.4546043372643428, -0.45460433726434446]], [[0.3957030829824773, -0.39570308298247897]], [[0.45549195908184625, -0.4554919590818479]], [[0.39566197316216734, -0.395661973162169]], [[0.4530563051527249, -0.45305630515272655]], [[0.39463193223085447, -0.3946319322308562]], [[0.44994855893877866, -0.4499485589387804]], [[0.39250964400374183, -0.39250964400374355]], [[0.4471598030259205, -0.44715980302592223]], [[0.38921062478254187, -0.38921062478254354]], [[0.45025933125421574, -0.4502593312542174]], [[0.3897791280437247, -0.3897791280437264]], [[0.4483994568398174, -0.4483994568398191]], [[0.3894618507904505, -0.3894618507904522]], [[0.4452439285373801, -0.4452439285373818]], [[0.38817088240666087, -0.38817088240666264]], [[0.44234711335858856, -0.4423471133585904]], [[0.3855328133703105, -0.3855328133703123]], [[0.44232715940455747, -0.44232715940455936]], [[0.3845853401082039, -0.3845853401082058]], [[0.44015886953860967, -0.44015886953861155]], [[0.38292326381270675, -0.38292326381270864]], [[0.43780427468912053, -0.4378042746891224]], [[0.3801807252361692, -0.3801807252361711]], [[0.4413301369781361, -0.441330136978138]], [[0.38120959140396765, -0.38120959140396954]], [[0.43953376045694514, -0.439533760456947]], [[0.38118014443528264, -0.3811801444352845]], [[0.43638061870242484, -0.43638061870242667]], [[0.37987915279613343, -0.37987915279613527]], [[0.432986211117405, -0.4329862111174068]], [[0.3770164971287919, -0.3770164971287937]], [[0.4327050779551864, -0.43270507795518826]], [[0.37602234455591804, -0.3760223445559199]], [[0.4304613475140099, -0.43046134751401177]], [[0.37428240811573515, -0.374282408115737]], [[0.4281038276679445, -0.42810382766794636]], [[0.37196769435479954, -0.37196769435480137]], [[0.431110117167916, -0.4311101171679178]], [[0.3725672271771794, -0.3725672271771812]], [[0.42960896413437305, -0.4296089641343749]], [[0.37229366995895175, -0.3722936699589536]], [[0.42671137878558973, -0.42671137878559157]], [[0.3709316317074569, -0.37093163170745874]], [[0.4234954916798742, -0.423495491679876]], [[0.3683870438669023, -0.368387043866904]], [[0.42310558688801386, -0.4231055868880156]], [[0.36729846589146226, -0.367298465891464]], [[0.4210366532513671, -0.42103665325136885]], [[0.3656132597771752, -0.36561325977717696]], [[0.418765595806926, -0.4187655958069278]], [[0.36364920874076856, -0.3636492087407704]], [[0.4160749889185263, -0.4160749889185281]], [[0.36151887187570825, -0.3615188718757101]], [[0.41396096984150665, -0.41396096984150843]], [[0.358837099383909, -0.3588370993839108]], [[0.41680637689618877, -0.41680637689619054]], [[0.3591078927712625, -0.3591078927712643]], [[0.4158433163443821, -0.41584331634438393]], [[0.35875628454823494, -0.35875628454823677]], [[0.4134501968680866, -0.4134501968680885]], [[0.3568024938505792, -0.35680249385058116]], [[0.414039921650628, -0.4140399216506299]], [[0.35701413925596104, -0.357014139255963]], [[0.41197752039474894, -0.4119775203947509]], [[0.3560853548363124, -0.3560853548363143]], [[0.4096517822062101, -0.409651782206212]], [[0.3547631132438731, -0.354763113243875]], [[0.40682806281046224, -0.40682806281046413]], [[0.35273436431318983, -0.3527343643131917]], [[0.403958378380005, -0.4039583783800069]], [[0.34897927719598837, -0.3489792771959903]], [[0.40681713786372214, -0.4068171378637241]], [[0.3496418881058385, -0.34964188810584046]], [[0.4055585179243827, -0.4055585179243847]], [[0.3493806073825532, -0.3493806073825552]], [[0.4030701920934924, -0.4030701920934943]], [[0.34760734639495583, -0.34760734639495783]], [[0.40341907181304454, -0.4034190718130466]], [[0.3477114980651161, -0.34771149806511814]], [[0.40144498296134506, -0.4014449829613471]], [[0.34674649425747645, -0.3467464942574785]], [[0.39919998599682804, -0.39919998599683015]], [[0.3454002722576914, -0.3454002722576935]], [[0.39648317034133235, -0.3964831703413345]], [[0.3433989921909741, -0.34339899219097625]], [[0.3937019280365114, -0.39370192803651355]], [[0.3399235534393225, -0.3399235534393247]], [[0.39634215490608427, -0.39634215490608643]], [[0.3404679320203283, -0.3404679320203305]], [[0.39524973916046263, -0.3952497391604648]], [[0.3401299568710275, -0.34012995687102965]], [[0.3929209585436366, -0.3929209585436388]], [[0.3386893449372405, -0.3386893449372427]], [[0.39307331124872197, -0.39307331124872413]], [[0.3386222369447177, -0.33862223694471993]], [[0.39128702466620213, -0.3912870246662044]], [[0.3376351860010207, -0.337635186001023]], [[0.38915950626423346, -0.38915950626423573]], [[0.33627046210348766, -0.33627046210348993]], [[0.3865741442201983, -0.38657414422020064]], [[0.3343130586465866, -0.33431305864658895]], [[0.3838894131613252, -0.3838894131613275]], [[0.3312424535511737, -0.331242453551176]], [[0.3862355403566625, -0.3862355403566648]], [[0.331628116787356, -0.33162811678735826]], [[0.3853170370576116, -0.3853170370576139]], [[0.3311879371000216, -0.3311879371000239]], [[0.38315413853913566, -0.38315413853913793]], [[0.3300241893412016, -0.33002418934120387]], [[0.38048664330642734, -0.3804866433064296]], [[0.32837928898466284, -0.32837928898466506]], [[0.37810504776302856, -0.37810504776303083]], [[0.3261038307702924, -0.3261038307702947]], [[0.378030547367107, -0.3780305473671092]], [[0.32521915842692295, -0.32521915842692517]], [[0.3770866929838893, -0.3770866929838915]], [[0.3241982294299871, -0.32419822942998927]], [[0.37520692911423503, -0.37520692911423714]], [[0.32270446449714335, -0.32270446449714546]], [[0.3729018734457173, -0.37290187344571935]], [[0.3210376350078629, -0.321037635007865]], [[0.37098329951951914, -0.3709832995195212]], [[0.3202781711200462, -0.32027817112004825]], [[0.3731737964496295, -0.37317379644963156]], [[0.32979041509577717, -0.3297904150957792]], [[0.37263268744156597, -0.372632687441568]], [[0.3385245434096428, -0.3385245434096449]], [[0.37104908747544113, -0.37104908747544324]], [[0.34521904872027287, -0.345219048720275]], [[0.3677058727320353, -0.3677058727320374]], [[0.3497770144043419, -0.349777014404344]], [[0.3661726637425618, -0.3661726637425639]], [[0.3537454113311391, -0.35374541133114124]], [[0.3650891644878651, -0.3650891644878672]], [[0.35637027476754163, -0.3563702747675438]], [[0.36444909473034476, -0.3644490947303469]], [[0.3582702046230737, -0.35827020462307585]], [[0.36397000028874027, -0.3639700002887424]], [[0.3595391680540411, -0.35953916805404323]], [[0.36361188166299513, -0.36361188166299724]], [[0.3603778960803504, -0.36037789608035253]], [[0.3633266927122252, -0.3633266927122273]], [[0.36091991244246374, -0.36091991244246585]], [[0.36308279767595725, -0.36308279767595936]], [[0.3612546412320767, -0.3612546412320788]], [[0.3628607399178431, -0.36286073991784523]], [[0.36144276374669293, -0.36144276374669504]], [[0.3626491930705331, -0.3626491930705352]], [[0.3615261040355981, -0.3615261040356002]], [[0.36235207717439466, -0.3623520771743968]], [[0.3621714378300876, -0.36217143783008976]], [[0.3628601966614471, -0.36286019666144925]], [[0.36258927242566036, -0.3625892724256625]], [[0.3636667080037619, -0.36366670800376405]], [[0.36347957449252805, -0.3634795744925302]], [[0.3643210389568622, -0.36432103895686435]], [[0.3641089079518664, -0.36410890795186857]], [[0.36475760158634735, -0.3647576015863495]], [[0.36453284788118573, -0.3645328478811879]], [[0.36503612054666873, -0.3650361205466709]], [[0.3648053913749438, -0.36480539137494594]], [[0.3651975025913312, -0.3651975025913333]], [[0.3649644675036345, -0.3649644675036366]], [[0.36524621624326903, -0.36524621624327114]], [[0.3656048492088786, -0.36560484920888064]], [[0.3659371273459103, -0.3659371273459123]], [[0.36614364161530844, -0.3661436416153105]], [[0.3667940581772699, -0.36679405817727195]], [[0.36704629964632757, -0.3670462996463296]], [[0.3675386416189171, -0.36753864161891914]], [[0.36767223703214, -0.36767223703214214]], [[0.3680378696279746, -0.3680378696279767]], [[0.36808740242724886, -0.36808740242725096]], [[0.36835927291115816, -0.36835927291116033]], [[0.36834759729708455, -0.36834759729708666]], [[0.36854878974438404, -0.3685487897443861]], [[0.3684578052541296, -0.36845780525413163]], [[0.36919892967660456, -0.3691989296766066]], [[0.3691744037791142, -0.36917440377911626]], [[0.3697191232235499, -0.36971912322355194]], [[0.3700342194774949, -0.37003421947749693]], [[0.3705919107908055, -0.37059191079080755]], [[0.37076371910150335, -0.3707637191015054]], [[0.3711828555163126, -0.37118285551631464]], [[0.37124481981315705, -0.3712448198131591]], [[0.37156421683573954, -0.3715642168357416]], [[0.3715455289056631, -0.37154552890566517]], [[0.37179171546987005, -0.3717917154698721]], [[0.37171204637247873, -0.3717120463724808]], [[0.3717143058085694, -0.37171430580857145]], [[0.3724761752919603, -0.37247617529196236]], [[0.37236210810294856, -0.3723621081029507]], [[0.37283223418643346, -0.37283223418643563]], [[0.37326066262308455, -0.37326066262308677]], [[0.37365460489039265, -0.3736546048903948]], [[0.3739240522496964, -0.3739240522496985]], [[0.37419011582973627, -0.3741901158297384]], [[0.3743494885256466, -0.37434948852564875]], [[0.3745235568819462, -0.3745235568819483]], [[0.374601693395269, -0.37460169339527105]], [[0.3747080810498357, -0.37470808104983777]], [[0.37456693358629845, -0.3745669335863005]], [[0.37543461979138487, -0.3754346197913869]], [[0.3751896641003618, -0.3751896641003639]], [[0.37577272764496034, -0.37577272764496245]], [[0.37615089816719877, -0.3761508981672009]], [[0.3765461098883938, -0.37654610988839593]], [[0.3767685501209506, -0.3767685501209527]], [[0.3770408437515143, -0.3770408437515165]], [[0.3771510386635555, -0.37715103866355765]], [[0.37733640006640035, -0.3773364000664025]], [[0.37736229013292155, -0.37736229013292377]], [[0.3774844677275202, -0.3774844677275225]], [[0.37790900942632266, -0.37790900942632494]], [[0.37811361310716357, -0.37811361310716585]], [[0.3782698452401064, -0.3782698452401087]], [[0.37893881031209375, -0.3789388103120961]], [[0.3790104472286759, -0.3790104472286782]], [[0.379556656194918, -0.37955665619492035]], [[0.37946473430655986, -0.3794647343065622]], [[0.3799372698674899, -0.37993726986749216]], [[0.37971235051253766, -0.37971235051253993]], [[0.38014747014067174, -0.380147470140674]], [[0.3797958781259409, -0.3797958781259432]], [[0.38070019999286864, -0.3807001999928709]], [[0.3803520282423238, -0.380352028242326]], [[0.3810739174172817, -0.38107391741728386]], [[0.3810702317807215, -0.3810702317807237]], [[0.38181130876950053, -0.3818113087695027]], [[0.38158830411629846, -0.3815883041163006]], [[0.3822727351262565, -0.38227273512625864]], [[0.38186381062165775, -0.38186381062165997]], [[0.3825420855436195, -0.38254208554362173]], [[0.38196018208631305, -0.38196018208631527]], [[0.3826302626487487, -0.38263026264875094]], [[0.3823933286800336, -0.38239332868003584]], [[0.3831948985307365, -0.38319489853073874]], [[0.3830295023424904, -0.3830295023424926]], [[0.3839590352391718, -0.383959035239174]], [[0.3835460527950751, -0.3835460527950773]], [[0.38445948413253184, -0.38445948413253406]], [[0.38379843942947584, -0.38379843942947806]], [[0.38476249164324733, -0.38476249164324955]], [[0.3838539740465905, -0.38385397404659277]], [[0.3849293103982397, -0.38492931039824196]], [[0.3835302327874827, -0.38353023278748494]], [[0.3857116847429288, -0.385711684742931]], [[0.38369577578727604, -0.38369577578727826]], [[0.3866299682780011, -0.38662996827800333]], [[0.36364872870604875, -0.36364872870605097]], [[0.38918279052825244, -0.38918279052825466]], [[0.34307246382427076, -0.343072463824273]], [[0.40912794292332305, -0.4091279429233252]], [[0.28412829268387824, -0.2841282926838804]], [[0.5155641106117538, -0.5155641106117559]], [[0.262480319484896, -0.2624803194848981]], [[0.5207983616187735, -0.5207983616187757]], [[0.5026272170767313, -0.5026272170767335]], [[0.39867209302711365, -0.39867209302711587]], [[0.5428076787217733, -0.5428076787217756]], [[0.36992536208689064, -0.3699253620868931]], [[0.5382988923443137, -0.5382988923443162]], [[0.42011250510912856, -0.420112505109131]], [[0.5570440761851121, -0.5570440761851145]], [[0.4237616402796484, -0.42376164027965085]], [[0.5604310544933455, -0.5604310544933478]], [[0.3129208093939452, -0.3129208093939475]], [[0.5493746158967634, -0.5493746158967657]], [[0.5119983632194712, -0.5119983632194736]], [[0.49020601708866496, -0.49020601708866735]], [[0.47025923359522864, -0.4702592335952311]], [[0.4495560154010002, -0.44955601540100265]], [[0.4586851828905874, -0.4586851828905898]], [[0.43250618748592584, -0.43250618748592823]], [[0.44917600735453805, -0.44917600735454044]], [[0.41990324608294727, -0.41990324608294965]], [[0.44123633464333784, -0.4412363346433402]], [[0.4097179082998636, -0.409717908299866]], [[0.43616533667517654, -0.4361653366751789]], [[0.40220175156581844, -0.40220175156582083]], [[0.431415986965876, -0.43141598696587846]], [[0.39580720678729664, -0.3958072067872991]], [[0.4270677247640863, -0.42706772476408866]], [[0.3901144344238254, -0.39011443442382776]], [[0.422808402523271, -0.4228084025232734]], [[0.3985863747604696, -0.398586374760472]], [[0.4199116903749274, -0.4199116903749298]], [[0.40404097799708133, -0.4040409779970837]], [[0.41665839645001107, -0.41665839645001346]], [[0.4072223570374554, -0.4072223570374578]], [[0.41484290686834085, -0.4148429068683432]], [[0.40921013280925006, -0.40921013280925234]], [[0.4139317686725667, -0.413931768672569]], [[0.41053411527550593, -0.4105341152755082]], [[0.41354464981012173, -0.41354464981012395]], [[0.4114821811744504, -0.4114821811744526]], [[0.41346351041282897, -0.4134635104128312]], [[0.41221272773281126, -0.41221272773281353]], [[0.41356281188290595, -0.4135628118829082]], [[0.41281405713270874, -0.4128140571327111]], [[0.4137693320833301, -0.41376933208333244]], [[0.4133362116659306, -0.4133362116659329]], [[0.4140396860501617, -0.41403968605016406]], [[0.4138080375114819, -0.41380803751148426]], [[0.4143477271157549, -0.4143477271157573]], [[0.4142464685198414, -0.4142464685198438]], [[0.41467748336434695, -0.41467748336434934]], [[0.4146616227412011, -0.4146616227412035]], [[0.41501903723486455, -0.41501903723486694]], [[0.4150596552418083, -0.4150596552418107]], [[0.4153661523265635, -0.4153661523265659]], [[0.41544438388589333, -0.4154443838858957]], [[0.41571486323462736, -0.41571486323462975]], [[0.4158182274257791, -0.4158182274257815]], [[0.4160626261613362, -0.4160626261613386]], [[0.41618275461294096, -0.41618275461294335]], [[0.41640779981376436, -0.41640779981376674]], [[0.4165390100095793, -0.4165390100095817]], [[0.41674932329447223, -0.4167493232944746]], [[0.41688771035278593, -0.4168877103527883]], [[0.41708651313737855, -0.4170865131373809]], [[0.4172293640170316, -0.4172293640170339]], [[0.4174189344117074, -0.41741893441170974]], [[0.4175643447106788, -0.41756434471068116]], [[0.4177463170959384, -0.4177463170959408]], [[0.41789293790012627, -0.41789293790012866]], [[0.4180685090689545, -0.4180685090689569]], [[0.41821535416803207, -0.4182153541680344]], [[0.41838540905691085, -0.4183854090569132]], [[0.41853178731090596, -0.41853178731090823]], [[0.41869697750772406, -0.41869697750772633]], [[0.41884240559233454, -0.4188424055923369]], [[0.4190032034417145, -0.4190032034417168]], [[0.4191473303500287, -0.41914733035003104]], [[0.41930412278577145, -0.4193041227857738]], [[0.41944667647373846, -0.41944667647374084]], [[0.4195998156760553, -0.41959981567605764]], [[0.4197405127912745, -0.41974051279127683]], [[0.41989021137324695, -0.4198902113732493]], [[0.420029054441688, -0.4200290544416903]], [[0.4201754775484305, -0.42017547754843276]], [[0.42030946886382625, -0.42030946886382853]], [[0.42045751505901113, -0.4204575150590134]], [[0.42058814363420755, -0.4205881436342098]], [[0.42073260907991206, -0.42073260907991433]], [[0.42086154518483515, -0.4208615451848375]], [[0.42100255618273125, -0.4210025561827336]], [[0.42112998648759253, -0.42112998648759487]], [[0.4212676583646945, -0.4212676583646968]], [[0.4213932999446138, -0.4213932999446161]], [[0.4215279771796496, -0.421527977179652]], [[0.4216517379458977, -0.4216517379459001]], [[0.42178285542591076, -0.42178285542591315]], [[0.4219060303380813, -0.42190603033808366]], [[0.4220340689025584, -0.4220340689025608]], [[0.42215510218985136, -0.42215510218985375]], [[0.4222804350939893, -0.42228043509399177]], [[0.4223993261134417, -0.42239932611344416]], [[0.4225213763877323, -0.4225213763877348]], [[0.4226398719455895, -0.42263987194559194]], [[0.42275904049136265, -0.42275904049136515]], [[0.42287534353059175, -0.42287534353059425]], [[0.4229921872127509, -0.4229921872127534]], [[0.4231063606403912, -0.4231063606403937]], [[0.4232203682010907, -0.4232203682010932]], [[0.42333320264807694, -0.42333320264807944]], [[0.423444862522703, -0.4234448625227055]], [[0.4235556128233152, -0.4235556128233177]], [[0.4236649707783044, -0.4236649707783069]], [[0.42377375779903764, -0.42377375779904014]], [[0.4238809755027707, -0.42388097550277315]], [[0.42398798604028526, -0.4239879860402877]], [[0.4240930460664926, -0.424093046066495]], [[0.4241976696270205, -0.4241976696270229]], [[0.4243009501416573, -0.4243009501416597]], [[0.4244036690057919, -0.4244036690057943]], [[0.42450503588265276, -0.42450503588265515]], [[0.4246023631462584, -0.4246023631462608]], [[0.42470736793893726, -0.42470736793893976]], [[0.4248007156166908, -0.42480071561669336]], [[0.4249038699847408, -0.4249038699847434]], [[0.42499490844658544, -0.42499490844658805]], [[0.425096122708033, -0.4250961227080356]], [[0.42518363717980445, -0.42518363717980706]], [[0.42528612695068196, -0.4252861269506846]], [[0.4253703887110317, -0.42537038871103433]], [[0.4254710119808199, -0.4254710119808225]], [[0.425531689404435, -0.4255316894044376]], [[0.40087653416093866, -0.4008765341609413]], [[0.42609523975058416, -0.42609523975058683]], [[0.38466953297047973, -0.38466953297048245]], [[0.4395881029586078, -0.4395881029586105]], [[0.3610486523111905, -0.3610486523111932]], [[0.491384125063229, -0.4913841250632317]], [[0.2755993507421922, -0.27559935074219494]], [[0.5103877870838996, -0.5103877870839024]], [[0.47381210778239363, -0.47381210778239646]], [[0.4620166573837898, -0.46201665738379266]], [[0.4447917098476935, -0.4447917098476964]], [[0.4250497490088673, -0.42504974900887016]], [[0.4398226104458689, -0.43982261044587173]], [[0.41109172746460715, -0.41109172746461]], [[0.43583455120515846, -0.43583455120516135]], [[0.40051757395095466, -0.40051757395095755]], [[0.4328942670586831, -0.432894267058686]], [[0.39137109384843843, -0.3913710938484414]], [[0.433433405117772, -0.43343340511777495]], [[0.3825674621717617, -0.3825674621717646]], [[0.4363022074542986, -0.4363022074543015]], [[0.3728239342186017, -0.3728239342186046]], [[0.4431315153769189, -0.44313151537692175]], [[0.36020260215747024, -0.36020260215747313]], [[0.45695613739538626, -0.4569561373953892]], [[0.33824104674290645, -0.3382410467429094]], [[0.4952998955441543, -0.4952998955441573]], [[0.2569095137222689, -0.2569095137222719]], [[0.5065272525744008, -0.5065272525744038]], [[0.4799817374720509, -0.4799817374720539]], [[0.45949864251645395, -0.45949864251645695]], [[0.44261660930332003, -0.442616609303323]], [[0.42170833260051405, -0.4217083326005171]], [[0.4322293410275907, -0.4322293410275937]], [[0.4076038887205344, -0.4076038887205374]], [[0.42397320864263127, -0.4239732086426342]], [[0.39693998316171386, -0.3969399831617168]], [[0.4172163333260409, -0.4172163333260438]], [[0.38825626980958416, -0.388256269809587]], [[0.4128961344589619, -0.4128961344589648]], [[0.3816851293975763, -0.3816851293975792]], [[0.4090681402285173, -0.40906814022852017]], [[0.37625073762087513, -0.376250737620878]], [[0.40579872833187514, -0.40579872833187797]], [[0.37156957964596743, -0.37156957964597026]], [[0.4028951877018611, -0.4028951877018639]], [[0.3789554600637373, -0.37895546006374004]], [[0.4004855567120367, -0.40048555671203945]], [[0.3843493483423291, -0.3843493483423318]], [[0.39741562002527453, -0.39741562002527725]], [[0.38775379712256003, -0.38775379712256275]], [[0.3956171246919032, -0.3956171246919059]], [[0.3898706086644826, -0.3898706086644853]], [[0.3946355690579638, -0.39463556905796654]], [[0.3912131688338813, -0.391213168833884]], [[0.3941418887399162, -0.3941418887399189]], [[0.3920982775557263, -0.392098277555729]], [[0.3939318654947284, -0.39393186549473114]], [[0.3927115762491884, -0.3927115762491911]], [[0.39388513806546016, -0.3938851380654629]], [[0.3931609130096256, -0.3931609130096283]], [[0.39393183109439855, -0.3939318310944013]], [[0.39348988768729776, -0.39348988768730053]], [[0.3949340550517412, -0.39493405505174395]], [[0.3946997756606703, -0.39469977566067305]], [[0.39645035972575726, -0.39645035972576004]], [[0.396312617000566, -0.3963126170005688]], [[0.3974410716663545, -0.3974410716663573]], [[0.39732455576606085, -0.3973245557660636]], [[0.3980734111484002, -0.398073411148403]], [[0.39800167821776417, -0.39800167821776694]], [[0.39852653724774206, -0.3985265372477449]], [[0.3985131302107355, -0.39851313021073836]], [[0.3988943103982155, -0.3988943103982184]], [[0.39891564757431763, -0.3989156475743205]], [[0.3992003532607205, -0.3992003532607234]], [[0.39924211462445064, -0.3992421146244535]], [[0.3994612973186426, -0.3994612973186455]], [[0.39951480448534854, -0.3995148044853514]], [[0.3996889375064171, -0.39968893750642]], [[0.39974893047394766, -0.39974893047395055]], [[0.39989167182907276, -0.39989167182907565]], [[0.3999549571320804, -0.3999549571320833]], [[0.4000754930186852, -0.4000754930186881]], [[0.4001401261891275, -0.4001401261891304]], [[0.4002435940637796, -0.4002435940637825]], [[0.4003101047424496, -0.4003101047424525]], [[0.4004015970903224, -0.4004015970903253]], [[0.40046702270662426, -0.40046702270662715]], [[0.4005500821066259, -0.4005500821066288]], [[0.4006140969022232, -0.4006140969022261]], [[0.4006907361833911, -0.400690736183394]], [[0.4007531976466626, -0.40075319764666556]], [[0.4008246554205749, -0.4008246554205778]], [[0.4008854981170261, -0.40088549811702906]], [[0.400952727842006, -0.4009527278420089]], [[0.4010102607536179, -0.40101026075362084]], [[0.40107656481223375, -0.4010765648122367]], [[0.40113189854701137, -0.4011318985470143]], [[0.40119444339485677, -0.40119444339485966]], [[0.40124855080700667, -0.40124855080700955]], [[0.4013079017226856, -0.4013079017226885]], [[0.4013577705029747, -0.40135777050297766]], [[0.40141903123211153, -0.4014190312321145]], [[0.40146649644017535, -0.4014664964401783]], [[0.40152408727583744, -0.4015240872758404]], [[0.4015708970314257, -0.4015708970314286]], [[0.4016245494804336, -0.4016245494804365]], [[0.4016718329860178, -0.4016718329860207]], [[0.401722442888166, -0.40172244288816894]], [[0.4017683637463901, -0.401768363746393]], [[0.4018167380229276, -0.4018167380229305]], [[0.4018612559939592, -0.40186125599396205]], [[0.4019060547053703, -0.40190605470537305]], [[0.4019516351679215, -0.40195163516792426]], [[0.4019938762506848, -0.40199387625068755]], [[0.40203746432260085, -0.4020374643226036]], [[0.40207823905197854, -0.40207823905198137]], [[0.4021199645844559, -0.40211996458445876]], [[0.40215739053351574, -0.4021573905335186]], [[0.40220051465642054, -0.4022005146564234]], [[0.402235653216211, -0.4022356532162139]], [[0.4022764499496038, -0.4022764499496067]], [[0.402310586652126, -0.4023105866521289]], [[0.40234927038956864, -0.40234927038957147]], [[0.40238034663456346, -0.4023803466345663]], [[0.4024204441362286, -0.40242044413623146]], [[0.4024494479382223, -0.4024494479382252]], [[0.4024870959197482, -0.40248709591975107]], [[0.4025153632558487, -0.4025153632558516]], [[0.4025508025845369, -0.4025508025845398]], [[0.4025764151250836, -0.40257641512508646]], [[0.40261293596777153, -0.4026129359677744]], [[0.40263670424179315, -0.4026367042417961]], [[0.4026708190268282, -0.40267081902683116]], [[0.4026939650829199, -0.4026939650829228]], [[0.4027258826205132, -0.40272588262051606]], [[0.4007298611879511, -0.40072986118795395]], [[0.3823375784092516, -0.3823375784092544]], [[0.39929161689640114, -0.39929161689640397]], [[0.36943963229255505, -0.3694396322925579]], [[0.40259814743532457, -0.4025981474353274]], [[0.35773424704181955, -0.3577342470418224]], [[0.41951519094193856, -0.41951519094194134]], [[0.33710937305574873, -0.3371093730557515]], [[0.46538288642986847, -0.46538288642987125]], [[0.23080768503938148, -0.2308076850393843]], [[0.48621123629912344, -0.48621123629912627]], [[0.5275408348327049, -0.5275408348327075]], [[0.5524892568623125, -0.5524892568623152]], [[0.58140288938857, -0.5814028893885725]], [[0.6003409857048336, -0.6003409857048362]], [[0.6216363813750397, -0.6216363813750423]], [[0.6440376001895729, -0.6440376001895756]], [[0.6656938993503804, -0.665693899350383]], [[0.686894454376527, -0.6868944543765297]], [[0.707550121117432, -0.7075501211174348]], [[0.7281978989116759, -0.7281978989116786]], [[0.7415712139893651, -0.7415712139893679]], [[0.7598294943406332, -0.759829494340636]], [[0.7772239507565624, -0.7772239507565651]], [[0.7946487564419035, -0.7946487564419062]], [[0.8117457405465724, -0.8117457405465752]], [[0.829400815608485, -0.8294008156084878]], [[0.8395869755938722, -0.839586975593875]], [[0.8556666716802992, -0.855666671680302]], [[0.8702392841066717, -0.8702392841066745]], [[0.8852224823442505, -0.8852224823442533]], [[0.9005473382383036, -0.9005473382383063]], [[0.9098286512463251, -0.9098286512463278]], [[0.9238303982799098, -0.9238303982799125]], [[0.9367163963449009, -0.9367163963449037]], [[0.9500565781663102, -0.950056578166313]], [[0.9646944939436114, -0.9646944939436141]], [[0.9729103132691472, -0.9729103132691499]], [[0.9853157966045281, -0.9853157966045307]], [[0.9967993543459505, -0.9967993543459531]], [[1.0092716673453999, -1.0092716673454023]], [[1.01720613683569, -1.0172061368356924]], [[1.0284685053280755, -1.028468505328078]], [[1.0390776063256784, -1.0390776063256808]], [[1.0510300333445033, -1.0510300333445057]], [[1.0583502920146637, -1.0583502920146661]], [[1.0687507277580703, -1.0687507277580728]], [[1.0785637457312582, -1.0785637457312607]], [[1.090197787857547, -1.0901977878575495]], [[1.0969190017929806, -1.0969190017929833]], [[1.1065855006862564, -1.106585500686259]], [[1.1157226091673027, -1.1157226091673051]], [[1.1253869252302187, -1.125386925230221]], [[1.132769802084015, -1.1327698020840176]], [[1.1416796474883086, -1.1416796474883113]], [[1.1513260239177203, -1.151326023917723]], [[1.1575099769233146, -1.1575099769233173]], [[1.1659539442836773, -1.16595394428368]], [[1.1745941003620417, -1.1745941003620441]], [[1.1806401691173554, -1.1806401691173578]], [[1.188611012221609, -1.1886110122216114]], [[1.1970232512892056, -1.197023251289208]], [[1.2027898734935387, -1.2027898734935412]], [[1.2104130565289233, -1.2104130565289257]], [[1.2186217342823236, -1.218621734282326]], [[1.2241387457691235, -1.224138745769126]], [[1.2314328702136395, -1.231432870213642]], [[1.2394838390409257, -1.2394838390409282]], [[1.2447574469284661, -1.2447574469284686]], [[1.2517308844579385, -1.251730884457941]], [[1.2596568090644005, -1.259656809064403]], [[1.264678900361063, -1.2646789003610652]], [[1.2713929589317998, -1.271392958931802]], [[1.278276115940657, -1.2782761159406593]], [[1.2836515280142375, -1.2836515280142398]], [[1.2903309743947373, -1.2903309743947395]], [[1.2967793270798498, -1.296779327079852]], [[1.3023550970002475, -1.3023550970002498]], [[1.309109702254279, -1.3091097022542812]], [[1.3134886793191136, -1.3134886793191158]], [[1.3199241476278172, -1.3199241476278194]], [[1.3255254136988883, -1.3255254136988905]], [[1.3309420343939837, -1.330942034393986]], [[1.337092354930555, -1.3370923549305573]], [[1.3415327174265776, -1.34153271742658]], [[1.3473654816563625, -1.347365481656365]], [[1.352829689729829, -1.3528296897298315]], [[1.3578023719540253, -1.3578023719540278]], [[1.3630099419777408, -1.3630099419777433]], [[1.3675387566029709, -1.3675387566029733]], [[1.3733271616226188, -1.3733271616226213]], [[1.3775996527624605, -1.377599652762463]], [[1.3830590013664725, -1.3830590013664752]], [[1.3880022639158216, -1.3880022639158243]], [[1.3926737672840535, -1.3926737672840561]], [[1.397576594766006, -1.3975765947660086]], [[1.4019815085045482, -1.4019815085045508]], [[1.4065482305605785, -1.4065482305605812]], [[1.4107991296735805, -1.4107991296735831]], [[1.4153131133737533, -1.415313113373756]], [[1.4191947828689164, -1.419194782868919]], [[1.423793745018904, -1.4237937450189067]], [[1.4278973265377954, -1.427897326537798]], [[1.4322346495209286, -1.4322346495209313]], [[1.43664873217619, -1.4366487321761927]], [[1.4406079457087617, -1.4406079457087644]], [[1.4453150701506097, -1.4453150701506123]], [[1.449452018352801, -1.4494520183528037]], [[1.453787452867371, -1.4537874528673738]], [[1.4576022037893084, -1.457602203789311]], [[1.4617653825296038, -1.4617653825296064]], [[1.4654053767548119, -1.4654053767548145]], [[1.4695069626442137, -1.4695069626442163]], [[1.4730190184676903, -1.473019018467693]], [[1.4771068315405211, -1.4771068315405238]], [[1.480503304760001, -1.4805033047600036]], [[1.484607936706181, -1.4846079367061837]], [[1.4878848304825203, -1.487884830482523]], [[1.4920311819730863, -1.492031181973089]], [[1.4951747346368138, -1.4951747346368165]], [[1.499392293636315, -1.4993922936363178]], [[1.5023798330802733, -1.502379833080276]], [[1.5066559651988738, -1.5066559651988765]], [[1.508914465959835, -1.5089144659598377]], [[1.5136990164966884, -1.513699016496691]], [[1.5155495550221878, -1.5155495550221905]], [[1.5208512244571069, -1.5208512244571095]], [[1.5218358381158354, -1.5218358381158383]], [[1.5279426785059782, -1.527942678505981]], [[1.5279957589034987, -1.5279957589035016]], [[1.5347146097119462, -1.534714609711949]], [[1.5338096997087298, -1.5338096997087327]], [[1.5412588751588026, -1.5412588751588054]], [[1.5392429292868235, -1.5392429292868262]], [[1.5486661962674957, -1.5486661962674984]], [[1.5441373014209598, -1.5441373014209625]], [[1.5560625869330047, -1.5560625869330074]], [[1.5480504039197236, -1.5480504039197263]], [[1.5643425610294655, -1.5643425610294681]], [[1.5507331577064178, -1.5507331577064207]], [[1.5741572752277377, -1.5741572752277406]], [[1.5512068193022857, -1.5512068193022885]], [[1.5855105606691928, -1.585510560669196]], [[1.5493678461191829, -1.549367846119186]], [[1.598734796426736, -1.598734796426739]], [[1.5438081916025734, -1.5438081916025765]], [[1.6754082765410563, -1.6754082765410594]], [[1.4831528802302252, -1.4831528802302283]], [[1.5398161908922767, -1.5398161908922798]], [[1.4197325074815559, -1.419732507481559]], [[1.5516303056562497, -1.551630305656253]], [[1.3818884933187268, -1.38188849331873]], [[1.3528987611858938, -1.3528987611858971]], [[1.3732269769242813, -1.3732269769242846]], [[1.323810903215051, -1.3238109032150542]], [[1.3978505071718776, -1.397850507171881]], [[1.310873363941834, -1.310873363941837]], [[1.4463070444726707, -1.4463070444726738]], [[1.3100003678154388, -1.310000367815442]], [[1.2226502836761948, -1.2226502836761979]], [[1.3016682397648365, -1.3016682397648396]], [[1.2314394964171869, -1.23143949641719]], [[1.2913907248445768, -1.29139072484458]], [[1.2481250569842468, -1.24812505698425]], [[1.292651685293094, -1.2926516852930972]], [[1.2648832486262462, -1.2648832486262493]], [[1.3151959417236554, -1.3151959417236585]], [[1.2710020972474378, -1.271002097247441]], [[1.3177804701191966, -1.3177804701191997]], [[1.2846558046739136, -1.2846558046739167]], [[1.3213487982321985, -1.3213487982322016]], [[1.3002563142740942, -1.3002563142740973]], [[1.3280291255785202, -1.3280291255785233]], [[1.314591484629211, -1.3145914846292142]], [[1.3361662320288432, -1.3361662320288463]], [[1.3281617447611667, -1.3281617447611698]], [[1.345123776858253, -1.345123776858256]], [[1.3405059145315597, -1.3405059145315628]], [[1.3548491577714374, -1.3548491577714405]], [[1.351527876925025, -1.351527876925028]], [[1.3734636869678527, -1.3734636869678558]], [[1.3581038588458572, -1.3581038588458603]], [[1.3819525054330037, -1.3819525054330069]], [[1.366835469691972, -1.3668354696919751]], [[1.3894911100900011, -1.3894911100900043]], [[1.3764082452184516, -1.3764082452184547]], [[1.3973576974075586, -1.3973576974075617]], [[1.386318510299807, -1.3863185102998101]], [[1.405335196338539, -1.405335196338542]], [[1.3957791454696173, -1.3957791454696205]], [[1.4134918286708216, -1.4134918286708247]], [[1.40510478074658, -1.405104780746583]], [[1.4214204432559256, -1.4214204432559288]], [[1.4135344937290772, -1.4135344937290804]], [[1.4401309610177517, -1.4401309610177548]], [[1.414540206359147, -1.4145402063591501]], [[1.448600356288675, -1.448600356288678]], [[1.4189837851880875, -1.4189837851880907]], [[1.455058226649735, -1.455058226649738]], [[1.4252527858964783, -1.4252527858964814]], [[1.4612940298345842, -1.4612940298345873]], [[1.4326046918761994, -1.4326046918762025]], [[1.4671812364988563, -1.4671812364988595]], [[1.4398296102849892, -1.4398296102849923]], [[1.4730581492669446, -1.4730581492669477]], [[1.4459310669458263, -1.4459310669458294]], [[1.4977420297526907, -1.4977420297526938]], [[1.439751488532127, -1.43975148853213]], [[1.500255974920444, -1.5002559749204472]], [[1.4436126801720404, -1.4436126801720435]], [[1.497826610785096, -1.497826610785099]], [[1.451331136649174, -1.451331136649177]], [[1.4974609273670654, -1.4974609273670685]], [[1.4602910580552473, -1.4602910580552504]], [[1.4995068988244908, -1.499506898824494]], [[1.467880528423868, -1.4678805284238712]], [[1.502785535527616, -1.5027855355276192]], [[1.4756663570302662, -1.4756663570302693]], [[1.5072825274860402, -1.5072825274860433]], [[1.4832873881363065, -1.4832873881363096]], [[1.5125424102265665, -1.5125424102265697]], [[1.4900876539314853, -1.4900876539314885]], [[1.5328745293535124, -1.5328745293535155]], [[1.4854526872654525, -1.4854526872654557]], [[1.537510407894467, -1.5375104078944701]], [[1.4877549519857256, -1.4877549519857287]], [[1.5369731581523731, -1.5369731581523762]], [[1.4940278640587883, -1.4940278640587914]], [[1.537774600314458, -1.537774600314461]], [[1.5009948086214557, -1.5009948086214588]], [[1.5398741933876308, -1.5398741933876336]], [[1.5083891146942423, -1.508389114694245]], [[1.5422399466777426, -1.5422399466777452]], [[1.5155974446607636, -1.5155974446607663]], [[1.5454638619783627, -1.5454638619783654]], [[1.5214627561025087, -1.5214627561025114]], [[1.5499221178877034, -1.549922117887706]], [[1.5271551218627584, -1.527155121862761]], [[1.5538760128478812, -1.553876012847884]], [[1.5322215821596117, -1.5322215821596143]], [[1.5733762107670906, -1.5733762107670932]], [[1.5249466615660814, -1.524946661566084]], [[1.5779446592326405, -1.5779446592326432]], [[1.525193147261442, -1.5251931472614446]], [[1.5766428566475403, -1.576642856647543]], [[1.5301385923574917, -1.5301385923574944]], [[1.5759845074093783, -1.575984507409381]], [[1.5365828726237618, -1.5365828726237645]], [[1.5762242579265133, -1.576224257926516]], [[1.542712163926696, -1.5427121639266987]], [[1.5781115311327496, -1.5781115311327523]], [[1.5485508378833905, -1.5485508378833932]], [[1.5802325728637752, -1.5802325728637778]], [[1.5538781903908858, -1.5538781903908885]], [[1.5835471641548828, -1.5835471641548855]], [[1.5589700366062131, -1.5589700366062158]], [[1.5867905227490964, -1.586790522749099]], [[1.563278800644067, -1.5632788006440697]], [[1.6078304211534244, -1.6078304211534271]], [[1.5537717308270294, -1.553771730827032]], [[1.6103913828948857, -1.6103913828948884]], [[1.55396372023055, -1.5539637202305527]], [[1.6073565265134424, -1.607356526513445]], [[1.5585137349709512, -1.558513734970954]], [[1.6054663213374538, -1.6054663213374567]], [[1.5645898945212269, -1.5645898945212298]], [[1.6050551355611136, -1.6050551355611162]], [[1.5703267937542829, -1.5703267937542855]], [[1.606082402276158, -1.6060824022761606]], [[1.575940758217416, -1.5759407582174187]], [[1.6080385751770383, -1.608038575177041]], [[1.5810083069797911, -1.5810083069797938]], [[1.6105855851229756, -1.6105855851229782]], [[1.58562886827317, -1.5856288682731727]], [[1.613214967447662, -1.6132149674476646]], [[1.589440887263805, -1.5894408872638077]], [[1.6162822177300553, -1.616282217730058]], [[1.592926140965948, -1.5929261409659508]], [[1.6366822096557838, -1.6366822096557865]], [[1.5820837753062083, -1.582083775306211]], [[1.6387509163135638, -1.6387509163135665]], [[1.5810441354813016, -1.5810441354813043]], [[1.6346996475882076, -1.6346996475882103]], [[1.5847630736873168, -1.5847630736873195]], [[1.6318235553139944, -1.631823555313997]], [[1.589933002858825, -1.5899330028588277]], [[1.6310868483338095, -1.6310868483338121]], [[1.5955687654306616, -1.5955687654306643]], [[1.6313997143107435, -1.6313997143107462]], [[1.6003850937057018, -1.6003850937057045]], [[1.6323901703671921, -1.6323901703671948]], [[1.6044987127289523, -1.604498712728955]], [[1.6346309424503154, -1.634630942450318]], [[1.6089993741118676, -1.6089993741118702]], [[1.6366982111502422, -1.6366982111502448]], [[1.6120848743762144, -1.612084874376217]], [[1.6395303506139665, -1.6395303506139691]], [[1.6154590664986974, -1.6154590664987]], [[1.6602849686501324, -1.660284968650135]], [[1.6026092797209113, -1.602609279720914]], [[1.660667952276631, -1.6606679522766337]], [[1.6013397228887607, -1.6013397228887634]], [[1.6553421498390415, -1.6553421498390442]], [[1.6051585898193004, -1.605158589819303]], [[1.652189569065938, -1.6521895690659407]], [[1.6107420246800466, -1.6107420246800492]], [[1.6505713917851788, -1.6505713917851814]], [[1.6155014062734798, -1.6155014062734825]], [[1.6505867735677824, -1.650586773567785]], [[1.6201858017632442, -1.620185801763247]], [[1.6511898489914798, -1.6511898489914825]], [[1.6238456423881686, -1.6238456423881713]], [[1.6528592025253148, -1.6528592025253175]], [[1.6277626109207353, -1.627762610920738]], [[1.6550591713460656, -1.6550591713460683]], [[1.6310579790850466, -1.6310579790850492]], [[1.657134668719105, -1.6571346687191078]], [[1.6334880612251619, -1.6334880612251645]], [[1.6597990752893614, -1.6597990752893639]], [[1.6356198483259687, -1.6356198483259712]], [[1.6823188409994283, -1.6823188409994307]], [[1.6213853116695294, -1.6213853116695318]], [[1.6818572711926285, -1.681857271192631]], [[1.6201928672257129, -1.6201928672257153]], [[1.6757395289605581, -1.6757395289605606]], [[1.6243217915691663, -1.6243217915691688]], [[1.671721012918043, -1.6717210129180455]], [[1.6293488489643464, -1.6293488489643488]], [[1.6701221610325443, -1.6701221610325467]], [[1.634463079294455, -1.6344630792944574]], [[1.6696475783088545, -1.669647578308857]], [[1.6385270586531897, -1.6385270586531921]], [[1.669914335504191, -1.6699143355041934]], [[1.6419348577487531, -1.6419348577487556]], [[1.6708240236004681, -1.6708240236004706]], [[1.6448733239957938, -1.6448733239957962]], [[1.672215609297379, -1.6722156092973814]], [[1.6473960525730464, -1.6473960525730489]], [[1.6739960017040705, -1.673996001704073]], [[1.6494397511054246, -1.649439751105427]], [[1.6957261952350307, -1.695726195235033]], [[1.6342349022566312, -1.6342349022566336]], [[1.6938932187095046, -1.693893218709507]], [[1.6330792515012678, -1.6330792515012702]], [[1.6875704691592681, -1.6875704691592706]], [[1.6376428120026953, -1.6376428120026978]], [[1.6833181614575343, -1.6833181614575368]], [[1.6423428440496828, -1.6423428440496852]], [[1.6814953433896256, -1.681495343389628]], [[1.6472247550375934, -1.6472247550375958]], [[1.6811158797623065, -1.681115879762309]], [[1.6513670491738162, -1.6513670491738186]], [[1.6816260877694762, -1.6816260877694786]], [[1.654939836535362, -1.6549398365353645]], [[1.6826634765275479, -1.6826634765275503]], [[1.6578925785965504, -1.6578925785965528]], [[1.6841163732665334, -1.684116373266536]], [[1.660421503402644, -1.6604215034026466]], [[1.6858967698695102, -1.6858967698695129]], [[1.6625425193606345, -1.6625425193606371]], [[1.6879552180480348, -1.6879552180480377]], [[1.664103523745767, -1.66410352374577]], [[1.7106123330359086, -1.7106123330359115]], [[1.6476269632703875, -1.6476269632703904]], [[1.708612049693205, -1.7086120496932078]], [[1.6464330609929456, -1.6464330609929485]], [[1.701708096373869, -1.701708096373872]], [[1.6505749310380156, -1.6505749310380184]], [[1.6972210485513322, -1.697221048551335]], [[1.6552504314896062, -1.655250431489609]], [[1.6950729021769768, -1.6950729021769797]], [[1.659762630052544, -1.659762630052547]], [[1.6943689078863575, -1.6943689078863604]], [[1.6635820855834904, -1.6635820855834933]], [[1.6945772346557373, -1.6945772346557402]], [[1.6668334179883644, -1.6668334179883673]], [[1.6954518344132958, -1.6954518344132987]], [[1.669616547034556, -1.669616547034559]], [[1.696803933617987, -1.6968039336179899]], [[1.6719983152597537, -1.6719983152597566]], [[1.6985222755764489, -1.6985222755764517]], [[1.6740018496597189, -1.6740018496597218]], [[1.7005325881762412, -1.700532588176244]], [[1.6750178689201527, -1.6750178689201556]], [[1.7258172149988267, -1.7258172149988296]], [[1.6570291089381062, -1.657029108938109]], [[1.7200512186485808, -1.7200512186485837]], [[1.6571013862855322, -1.657101386285535]], [[1.7119010744781755, -1.7119010744781784]], [[1.661481998043995, -1.6614819980439979]], [[1.707070941474137, -1.7070709414741398]], [[1.6662464429159463, -1.6662464429159491]], [[1.7047183699636879, -1.7047183699636907]], [[1.670548741445996, -1.670548741445999]], [[1.7039600749390185, -1.7039600749390211]], [[1.6742737076177638, -1.6742737076177665]], [[1.7041971412945436, -1.7041971412945462]], [[1.677464936815121, -1.6774649368151238]], [[1.705085180736325, -1.7050851807363276]], [[1.6801874302460071, -1.6801874302460098]], [[1.7064387856625824, -1.7064387856625851]], [[1.682502496375665, -1.6825024963756676]], [[1.7081688801778323, -1.708168880177835]], [[1.6844466005211627, -1.6844466005211653]], [[1.7101594087410241, -1.7101594087410268]], [[1.6856282161571257, -1.6856282161571283]], [[1.7351303730002534, -1.735130373000256]], [[1.667011395944167, -1.6670113959441697]], [[1.7302179839801215, -1.7302179839801242]], [[1.665828424691971, -1.6658284246919737]], [[1.7214636928907268, -1.7214636928907294]], [[1.6704287301356961, -1.6704287301356988]], [[1.7164113623161452, -1.7164113623161479]], [[1.6753407877926425, -1.6753407877926454]], [[1.7139230583587295, -1.7139230583587324]], [[1.6797214040832704, -1.6797214040832733]], [[1.7130397033388833, -1.7130397033388862]], [[1.6834777187025778, -1.6834777187025807]], [[1.7131966807749353, -1.7131966807749381]], [[1.6866755014253136, -1.6866755014253165]], [[1.7140182582694028, -1.7140182582694057]], [[1.689392527488306, -1.6893925274883088]], [[1.7153300926988992, -1.7153300926989021]], [[1.6916936906598543, -1.6916936906598572]], [[1.7169781728848355, -1.7169781728848383]], [[1.6936059082776103, -1.6936059082776131]], [[1.718918932363538, -1.7189189323635408]], [[1.6951651855742262, -1.695165185574229]], [[1.7211125140111616, -1.7211125140111643]], [[1.6955474227193121, -1.6955474227193148]], [[1.7490483248363924, -1.749048324836395]], [[1.6749721171455052, -1.6749721171455079]], [[1.740374485874381, -1.7403744858743837]], [[1.6743863860418782, -1.6743863860418808]], [[1.7307832149763938, -1.7307832149763964]], [[1.679504087858311, -1.6795040878583136]], [[1.7256009741141867, -1.7256009741141893]], [[1.6846395314234608, -1.6846395314234635]], [[1.7231318521479277, -1.7231318521479304]], [[1.6890859483225935, -1.6890859483225962]], [[1.7222885396983998, -1.7222885396984025]], [[1.692839421461977, -1.6928394214619797]], [[1.7224513104055337, -1.7224513104055363]], [[1.6959975609562343, -1.695997560956237]], [[1.7232725426184967, -1.7232725426184994]], [[1.6986548953060832, -1.6986548953060858]], [[1.724568217501187, -1.7245682175011896]], [[1.700879882485962, -1.7008798824859646]], [[1.7262046420551862, -1.7262046420551889]], [[1.7027212570601162, -1.702721257060119]], [[1.7281311682250697, -1.7281311682250724]], [[1.7041918416279935, -1.7041918416279962]], [[1.7302993057999165, -1.7302993057999192]], [[1.704448821502279, -1.7044488215022817]], [[1.759491038895715, -1.7594910388957177]], [[1.6827529872890958, -1.6827529872890985]], [[1.749054399417021, -1.7490543994170236]], [[1.683422163770273, -1.6834221637702758]], [[1.7393304979684565, -1.7393304979684592]], [[1.688697900046949, -1.6886979000469517]], [[1.734192382051156, -1.7341923820511587]], [[1.693886922110514, -1.6938869221105166]], [[1.7317991452200832, -1.7317991452200858]], [[1.6983242220680823, -1.698324222068085]], [[1.730994232184339, -1.7309942321843417]], [[1.7020401353437826, -1.7020401353437855]], [[1.7311618232695716, -1.7311618232695745]], [[1.7051439335582284, -1.705143933558231]], [[1.7319923355683293, -1.731992335568332]], [[1.7077423785387538, -1.7077423785387564]], [[1.7332595118858207, -1.7332595118858234]], [[1.7099050635805804, -1.709905063580583]], [[1.7348782788163484, -1.734878278816351]], [[1.7116822468567496, -1.7116822468567523]], [[1.7367680517936204, -1.736768051793623]], [[1.713088087286446, -1.7130880872864487]], [[1.7389034603308848, -1.7389034603308875]], [[1.7135314001081807, -1.7135314001081834]], [[1.7681144414674916, -1.7681144414674943]], [[1.6909901753833372, -1.6909901753833398]], [[1.756943363560644, -1.7569433635606466]], [[1.6913310542928544, -1.6913310542928572]], [[1.7470721414979404, -1.747072141497943]], [[1.696592912901187, -1.6965929129011896]], [[1.7420134944322507, -1.7420134944322534]], [[1.7017876450248473, -1.70178764502485]], [[1.7396172754772925, -1.739617275477295]], [[1.7062055911695075, -1.70620559116951]], [[1.7387893242035661, -1.7387893242035686]], [[1.7098833696117344, -1.7098833696117368]], [[1.7389564550555465, -1.738956455055549]], [[1.71294499159594, -1.7129449915959425]], [[1.7397397786740263, -1.7397397786740287]], [[1.7154791771681537, -1.7154791771681561]], [[1.7409804739938535, -1.740980473993856]], [[1.7175885339077874, -1.7175885339077899]], [[1.7425518610732937, -1.7425518610732962]], [[1.7193036112344404, -1.7193036112344429]], [[1.7444033231389966, -1.744403323138999]], [[1.7206641817009551, -1.7206641817009576]], [[1.7464954836391873, -1.7464954836391897]], [[1.7212762148779317, -1.7212762148779341]], [[1.7759113239428779, -1.7759113239428803]], [[1.697918709891186, -1.6979187098911885]], [[1.7639365429163194, -1.7639365429163218]], [[1.698649420072148, -1.6986494200721505]], [[1.7541345718910257, -1.7541345718910282]], [[1.704104099974349, -1.7041040999743515]], [[1.749184412689044, -1.7491844126890463]], [[1.7093443362974858, -1.7093443362974883]], [[1.7469130014299403, -1.7469130014299428]], [[1.7137607950837994, -1.7137607950838019]], [[1.746099886940969, -1.7460998869409714]], [[1.7174204107059796, -1.717420410705982]], [[1.7462327348702107, -1.7462327348702131]], [[1.7204503609794015, -1.720450360979404]], [[1.747000011012099, -1.7470000110121013]], [[1.7229620480847205, -1.722962048084723]], [[1.7481973734429985, -1.748197373443001]], [[1.7250235104716372, -1.7250235104716396]], [[1.7497254672208895, -1.749725467220892]], [[1.7267062212434199, -1.7267062212434223]], [[1.751527769665772, -1.7515277696657745]], [[1.7280284189530493, -1.7280284189530517]], [[1.7535691964945956, -1.753569196494598]], [[1.7290030020001466, -1.729003002000149]], [[1.7758278829337981, -1.7758278829338006]], [[1.706346852167145, -1.7063468521671474]], [[1.7849530038041856, -1.784953003804188]], [[1.697899927133266, -1.6978999271332684]], [[1.8456300395869674, -1.84563003958697]], [[1.636250469899654, -1.6362504698996567]], [[1.6858054792884343, -1.685805479288437]], [[1.5920947930818616, -1.5920947930818643]], [[1.674630326273914, -1.6746303262739166]], [[1.5382429410121898, -1.5382429410121925]], [[1.681144514696219, -1.6811445146962216]], [[1.5214724434035007, -1.5214724434035034]], [[1.4520968867874384, -1.452096886787441]], [[1.5028231239054937, -1.5028231239054963]], [[1.414452871158396, -1.4144528711583986]], [[1.515969847554716, -1.5159698475547188]], [[1.4022884400788391, -1.4022884400788418]], [[1.496129788931585, -1.4961297889315877]], [[1.3956513947564952, -1.395651394756498]], [[1.4637734125923174, -1.46377341259232]], [[1.3834385806994094, -1.3834385806994123]], [[1.42349883207713, -1.423498832077133]], [[1.3748788153721216, -1.3748788153721245]], [[1.4357332498208175, -1.4357332498208204]], [[1.3723055787556662, -1.372305578755669]], [[1.4365395912259293, -1.4365395912259322]], [[1.373831582098958, -1.3738315820989608]], [[1.4050417031375604, -1.4050417031375633]], [[1.376454866612574, -1.3764548666125767]], [[1.4147818225763564, -1.414781822576359]], [[1.3799037216502725, -1.3799037216502752]], [[1.4033381004056822, -1.4033381004056849]], [[1.3815420751089516, -1.3815420751089542]], [[1.4187809200668067, -1.4187809200668096]], [[1.387633194350411, -1.3876331943504139]], [[1.409159713876525, -1.409159713876528]], [[1.3910058932207194, -1.3910058932207223]], [[1.4230931380549998, -1.4230931380550027]], [[1.3941157831880122, -1.394115783188015]], [[1.4160842844211134, -1.4160842844211163]], [[1.40138094234489, -1.4013809423448929]], [[1.4268931914274412, -1.426893191427444]], [[1.4032558342182297, -1.4032558342182326]], [[1.422354297614008, -1.4223542976140109]], [[1.4115637490415833, -1.4115637490415862]], [[1.4222675236104025, -1.4222675236104054]], [[1.4211728844057687, -1.4211728844057716]], [[1.4236601305785337, -1.4236601305785366]], [[1.4247977030702317, -1.4247977030702346]], [[1.4270353371245148, -1.4270353371245177]], [[1.4284672621850925, -1.4284672621850953]], [[1.4394893770313868, -1.4394893770313897]], [[1.432656326032609, -1.432656326032612]], [[1.4355178295697302, -1.435517829569733]], [[1.4366024479403716, -1.4366024479403745]], [[1.4390324648306354, -1.4390324648306383]], [[1.4397010890458488, -1.4397010890458517]], [[1.4516425395514037, -1.4516425395514065]], [[1.4430036073704025, -1.4430036073704053]], [[1.453029110928584, -1.4530291109285869]], [[1.443162309553283, -1.443162309553286]], [[1.4545620932528038, -1.4545620932528067]], [[1.4476565105655657, -1.4476565105655685]], [[1.4656311545879854, -1.4656311545879883]], [[1.4502158494760606, -1.4502158494760633]], [[1.4653934250423868, -1.4653934250423895]], [[1.4506590598425317, -1.4506590598425344]], [[1.4660836448247225, -1.4660836448247252]], [[1.4557502709414711, -1.4557502709414736]], [[1.4668933401599438, -1.4668933401599462]], [[1.4660531645017596, -1.466053164501762]], [[1.4685865391108528, -1.4685865391108552]], [[1.4686453825203385, -1.468645382520341]], [[1.4715615618308042, -1.4715615618308069]], [[1.4668091349247887, -1.4668091349247914]], [[1.4734130305911164, -1.473413030591119]], [[1.4688572118258838, -1.4688572118258865]], [[1.484492195810662, -1.4844921958106647]], [[1.4690228844100364, -1.469022884410039]], [[1.4732447762648457, -1.4732447762648484]], [[1.455419055117367, -1.4554190551173696]], [[1.4484713572882186, -1.4484713572882213]], [[1.4565205959078211, -1.4565205959078238]], [[1.4336966572920298, -1.4336966572920324]], [[1.4637605282816342, -1.4637605282816368]], [[1.4128371625063125, -1.4128371625063152]], [[1.5069838593737734, -1.506983859373776]], [[1.4003693078427948, -1.4003693078427975]], [[1.4950090225047363, -1.495009022504739]], [[1.4045765424412362, -1.4045765424412389]], [[1.523246601544292, -1.5232466015442947]], [[1.4136330424550347, -1.4136330424550374]], [[1.468992305597788, -1.468992305597791]], [[1.4426025326697005, -1.4426025326697034]], [[1.4583503914619749, -1.4583503914619778]], [[1.4458791915254392, -1.445879191525442]], [[1.455511457539088, -1.4555114575390908]], [[1.4503077522391488, -1.4503077522391516]], [[1.4573163950820918, -1.4573163950820947]], [[1.4544035072362067, -1.4544035072362096]], [[1.4598396038102444, -1.4598396038102472]], [[1.4582566238214008, -1.4582566238214036]], [[1.4624334215423447, -1.4624334215423476]], [[1.4617377280616795, -1.4617377280616823]], [[1.4648796498104124, -1.4648796498104153]], [[1.4647495159369677, -1.4647495159369706]], [[1.4672131067959362, -1.4672131067959393]], [[1.4647790520907116, -1.4647790520907147]], [[1.4682615011481663, -1.4682615011481694]], [[1.4625221672422763, -1.4625221672422792]], [[1.469359013586838, -1.4693590135868408]], [[1.4507452625553268, -1.4507452625553297]], [[1.455730107336961, -1.455730107336964]], [[1.4289550752091327, -1.4289550752091356]], [[1.4615716204072542, -1.461571620407257]], [[1.4095022223260532, -1.409502222326056]], [[1.499615593917945, -1.4996155939179479]], [[1.396965707968583, -1.396965707968586]], [[1.492169850911173, -1.4921698509111758]], [[1.4007617402419965, -1.4007617402419992]], [[1.4829322871097113, -1.482932287109714]], [[1.4004704886034032, -1.4004704886034058]], [[1.5098886195210548, -1.5098886195210575]], [[1.4035158700792527, -1.4035158700792554]], [[1.4741302648276366, -1.4741302648276393]], [[1.4433840299290404, -1.443384029929043]], [[1.4623863347531687, -1.4623863347531714]], [[1.4479132757144986, -1.4479132757145012]], [[1.449303718567753, -1.4493037185677557]], [[1.4507279763497012, -1.4507279763497039]], [[1.4520338948202334, -1.452033894820236]], [[1.4534133347246163, -1.453413334724619]], [[1.4546307142423882, -1.454630714242391]], [[1.456024837986336, -1.456024837986339]], [[1.4573091312001563, -1.4573091312001591]], [[1.458667345636171, -1.4586673456361738]], [[1.4596479320127818, -1.4596479320127846]], [[1.4476890145740464, -1.4476890145740493]], [[1.44599780962861, -1.4459978096286128]], [[1.429661634923985, -1.429661634923988]], [[1.443511839168219, -1.4435118391682218]], [[1.4153531624775721, -1.415353162477575]], [[1.4609824218190663, -1.4609824218190692]], [[1.396524749068187, -1.3965247490681898]], [[1.4722620119256284, -1.4722620119256313]], [[1.389737833078417, -1.3897378330784198]], [[1.4732128085352725, -1.4732128085352754]], [[1.3869400810366688, -1.3869400810366717]], [[1.5140554041315477, -1.5140554041315506]], [[1.394710904121792, -1.3947109041217949]], [[1.467668638311559, -1.4676686383115618]], [[1.442226617796198, -1.4422266177962009]], [[1.4440200125369067, -1.4440200125369096]], [[1.4301107484604914, -1.4301107484604942]], [[1.4188716333756877, -1.4188716333756906]], [[1.43070012019824, -1.430700120198243]], [[1.4205409010069634, -1.4205409010069663]], [[1.4324299461681629, -1.4324299461681658]], [[1.4201475571863005, -1.4201475571863034]], [[1.4305930037146684, -1.4305930037146712]], [[1.4011305782297274, -1.4011305782297303]], [[1.434384644556577, -1.43438464455658]], [[1.389632572001258, -1.3896325720012608]], [[1.4388636148203007, -1.4388636148203036]], [[1.37806996128759, -1.3780699612875928]], [[1.4728404292929127, -1.4728404292929156]], [[1.3731953308723321, -1.373195330872335]], [[1.4548648189729696, -1.4548648189729725]], [[1.3806003717565392, -1.380600371756542]], [[1.4443805367788938, -1.4443805367788967]], [[1.3822390781786547, -1.3822390781786575]], [[1.4372587904302905, -1.4372587904302934]], [[1.3804562473859532, -1.380456247385956]], [[1.4325167621828367, -1.4325167621828396]], [[1.3767980922721184, -1.3767980922721212]], [[1.4296894432089993, -1.4296894432090022]], [[1.3725685512172563, -1.3725685512172592]], [[1.4278960921605486, -1.4278960921605515]], [[1.3669097735846847, -1.3669097735846876]], [[1.4529217554226264, -1.4529217554226292]], [[1.3633522927498125, -1.3633522927498154]], [[1.4379967823212543, -1.4379967823212572]], [[1.3701140379117311, -1.370114037911734]], [[1.4277974685001638, -1.4277974685001666]], [[1.3712961952182448, -1.3712961952182476]], [[1.4208997736717806, -1.4208997736717834]], [[1.3689142761024833, -1.3689142761024862]], [[1.4164026226650517, -1.4164026226650546]], [[1.3648793344252759, -1.3648793344252788]], [[1.413413220937001, -1.4134132209370038]], [[1.3604659524092593, -1.3604659524092622]], [[1.4115046514432923, -1.4115046514432952]], [[1.3562397654198486, -1.3562397654198515]], [[1.410117818313813, -1.4101178183138157]], [[1.351600056467805, -1.3516000564678077]], [[1.4335409123596745, -1.4335409123596772]], [[1.3477304223568016, -1.3477304223568043]], [[1.4205455463556222, -1.420545546355625]], [[1.3543624546363975, -1.3543624546364001]], [[1.4111157923453568, -1.4111157923453594]], [[1.35566352900539, -1.3556635290053927]], [[1.4046956687403427, -1.4046956687403453]], [[1.353519769536575, -1.3535197695365777]], [[1.4004244386151, -1.4004244386151026]], [[1.3498884591698281, -1.3498884591698308]], [[1.3974807420403887, -1.3974807420403914]], [[1.345800536086004, -1.3458005360860068]], [[1.395463237269221, -1.3954632372692237]], [[1.3499285870095574, -1.3499285870095603]], [[1.3941321866779866, -1.3941321866779894]], [[1.3442120251011695, -1.3442120251011724]], [[1.3932267488897252, -1.393226748889728]], [[1.3467021759444178, -1.3467021759444207]], [[1.4079669693017534, -1.4079669693017562]], [[1.3415486615189687, -1.3415486615189716]], [[1.4045529030417105, -1.4045529030417134]], [[1.342574073227738, -1.342574073227741]], [[1.399024310920292, -1.399024310920295]], [[1.3423896213924225, -1.3423896213924253]], [[1.3941911813767203, -1.3941911813767232]], [[1.3405111582507605, -1.3405111582507634]], [[1.3904094557806153, -1.3904094557806181]], [[1.337582297353222, -1.337582297353225]], [[1.3874733598592341, -1.387473359859237]], [[1.3343089940022257, -1.3343089940022286]], [[1.3853598379344698, -1.385359837934473]], [[1.3309728068952418, -1.330972806895245]], [[1.3837301466370153, -1.3837301466370187]], [[1.3278836657338566, -1.32788366573386]], [[1.3823008008657571, -1.3823008008657602]], [[1.330834712747151, -1.330834712747154]], [[1.4002765654650287, -1.4002765654650318]], [[1.3274686940818763, -1.3274686940818794]], [[1.3937856962847706, -1.3937856962847737]], [[1.3309957908769265, -1.3309957908769297]], [[1.3867738664169738, -1.3867738664169769]], [[1.3316140529588558, -1.331614052958859]], [[1.3812884664916487, -1.3812884664916518]], [[1.3297852390884044, -1.3297852390884075]], [[1.3772652153979568, -1.3772652153979599]], [[1.3266506713587147, -1.3266506713587178]], [[1.37427316647303, -1.3742731664730332]], [[1.3232024617538212, -1.3232024617538243]], [[1.3721138575644956, -1.3721138575644987]], [[1.3196621173297514, -1.3196621173297545]], [[1.3703533608522358, -1.370353360852239]], [[1.3239854335595935, -1.3239854335595966]], [[1.3689699906525041, -1.3689699906525072]], [[1.320553694000766, -1.3205536940007692]], [[1.3678363005828107, -1.3678363005828138]], [[1.323557858045637, -1.3235578580456402]], [[1.3814142275803556, -1.3814142275803587]], [[1.3268200380230544, -1.3268200380230575]], [[1.3785777825608287, -1.3785777825608319]], [[1.3240235212697258, -1.3240235212697289]], [[1.3721678243681732, -1.3721678243681763]], [[1.3200345296807772, -1.3200345296807803]], [[1.3697608843643294, -1.3697608843643325]], [[1.3164535965245598, -1.316453596524563]], [[1.3673896679079935, -1.3673896679079967]], [[1.3131064902297034, -1.3131064902297063]], [[1.3651414400714872, -1.36514144007149]], [[1.3099259877668343, -1.3099259877668372]], [[1.363272601633301, -1.3632726016333039]], [[1.306895167810659, -1.3068951678106622]], [[1.3617125076678929, -1.361712507667896]], [[1.3041044279564, -1.3041044279564031]], [[1.360337746092967, -1.3603377460929702]], [[1.301604478371171, -1.3016044783711744]], [[1.3590547127342067, -1.3590547127342099]], [[1.298092088963755, -1.2980920889637582]], [[1.3850546590461166, -1.3850546590461197]], [[1.2967191086522485, -1.2967191086522516]], [[1.3735966191084263, -1.3735966191084297]], [[1.303860124601971, -1.3038601246019743]], [[1.3635296650524462, -1.3635296650524495]], [[1.3067504057565227, -1.306750405756526]], [[1.355754378561267, -1.3557543785612702]], [[1.3060157294528205, -1.3060157294528238]], [[1.3501746224636633, -1.3501746224636666]], [[1.3031206161296682, -1.3031206161296716]], [[1.3462294257598437, -1.346229425759847]], [[1.2993904662639986, -1.299390466264002]], [[1.3433515354669552, -1.3433515354669585]], [[1.2967738294626534, -1.2967738294626567]], [[1.3413290519781955, -1.3413290519781988]], [[1.2932665254962172, -1.2932665254962206]], [[1.3399161134708484, -1.3399161134708515]], [[1.2967116014616453, -1.2967116014616484]], [[1.3386469681387665, -1.3386469681387696]], [[1.2935318898883312, -1.2935318898883341]], [[1.3376719215807436, -1.3376719215807464]], [[1.2963142482134424, -1.2963142482134453]], [[1.3369827950644062, -1.336982795064409]], [[1.2918703712556374, -1.2918703712556403]], [[1.3517758248147194, -1.3517758248147222]], [[1.2936018997056484, -1.2936018997056513]], [[1.3497621663923767, -1.3497621663923796]], [[1.2930855984875425, -1.2930855984875453]], [[1.34596005795375, -1.345960057953753]], [[1.2919775107681528, -1.2919775107681557]], [[1.3420731159519708, -1.3420731159519736]], [[1.2900833466379453, -1.2900833466379482]], [[1.3386135184076098, -1.3386135184076127]], [[1.2875758932564618, -1.2875758932564647]], [[1.3356743118147227, -1.3356743118147256]], [[1.2847447786635342, -1.284744778663537]], [[1.3334130840594174, -1.3334130840594203]], [[1.2817208857390363, -1.2817208857390392]], [[1.3316692643035384, -1.3316692643035413]], [[1.2788134709402483, -1.2788134709402512]], [[1.3302788437355935, -1.3302788437355964]], [[1.2761395112988185, -1.2761395112988214]], [[1.329112898349426, -1.329112898349429]], [[1.2733886295118793, -1.2733886295118821]], [[1.3507755103623122, -1.3507755103623151]], [[1.2708109521581707, -1.2708109521581736]], [[1.3442437076070504, -1.3442437076070533]], [[1.27597284434891, -1.275972844348913]], [[1.336336417963321, -1.336336417963324]], [[1.2787920315640553, -1.2787920315640582]], [[1.3293298284021153, -1.3293298284021182]], [[1.2789053457713433, -1.2789053457713462]], [[1.3238210710175915, -1.3238210710175944]], [[1.277004812690634, -1.2770048126906366]], [[1.319679238768447, -1.3196792387684497]], [[1.2740194135425833, -1.274019413542586]], [[1.3165566406270737, -1.3165566406270763]], [[1.27055734765753, -1.2705573476575327]], [[1.3143209130380946, -1.3143209130380973]], [[1.2683694804690429, -1.2683694804690455]], [[1.3125470216450923, -1.312547021645095]], [[1.2726415789585726, -1.2726415789585752]], [[1.3110064724883348, -1.3110064724883375]], [[1.277513406155023, -1.2775134061550257]], [[1.3096478208153148, -1.3096478208153175]], [[1.2819112032525473, -1.28191120325255]], [[1.3085756522773737, -1.3085756522773766]], [[1.2857349184010864, -1.2857349184010893]], [[1.3078342786294233, -1.3078342786294261]], [[1.2890467341795253, -1.2890467341795282]], [[1.3074170335591102, -1.307417033559113]], [[1.2919252629966165, -1.2919252629966194]], [[1.3072897014072906, -1.3072897014072935]], [[1.2943635369141084, -1.2943635369141113]], [[1.310616681407935, -1.3106166814079379]], [[1.2980646661994641, -1.2980646661994668]], [[1.312328345366681, -1.3123283453666836]], [[1.301262951691005, -1.3012629516910077]], [[1.3135279705440712, -1.313527970544074]], [[1.3037959598707167, -1.3037959598707196]], [[1.3144252214539964, -1.3144252214539993]], [[1.304634233057043, -1.304634233057046]], [[1.3145827329541633, -1.3145827329541662]], [[1.2920688251826353, -1.2920688251826382]], [[1.3146046341785427, -1.3146046341785456]], [[1.2921532415307428, -1.2921532415307457]], [[1.3144678043671751, -1.314467804367178]], [[1.2815033522947847, -1.2815033522947876]], [[1.3151017808294492, -1.315101780829452]], [[1.2726501499438758, -1.2726501499438787]], [[1.3167157401522653, -1.3167157401522682]], [[1.2654540278592368, -1.2654540278592397]], [[1.3193455821841882, -1.319345582184191]], [[1.2574732326674345, -1.2574732326674374]], [[1.3548695939869344, -1.3548695939869373]], [[1.2536524607309638, -1.2536524607309667]], [[1.3524483422520126, -1.3524483422520155]], [[1.2492722772208547, -1.2492722772208575]], [[1.354155860802141, -1.3541558608021438]], [[1.244467908340731, -1.244467908340734]], [[1.355883725358109, -1.355883725358112]], [[1.2400821055523452, -1.240082105552348]], [[1.35732215575109, -1.3573221557510928]], [[1.2365016337822141, -1.236501633782217]], [[1.3584213589244416, -1.3584213589244445]], [[1.236574804299837, -1.23657480429984]], [[1.352831302833595, -1.3528313028335979]], [[1.2479751599460127, -1.2479751599460156]], [[1.3317674491477411, -1.331767449147744]], [[1.2683842973538517, -1.2683842973538546]], [[1.313283947666864, -1.313283947666867]], [[1.2753256679232359, -1.2753256679232388]], [[1.3031800654990593, -1.3031800654990622]], [[1.273289637714535, -1.2732896377145382]], [[1.2971703001347172, -1.2971703001347203]], [[1.2785962555631198, -1.278596255563123]], [[1.2938240994062684, -1.2938240994062715]], [[1.2834604315915232, -1.2834604315915263]], [[1.2924245624463875, -1.2924245624463906]], [[1.2867126264964313, -1.2867126264964344]], [[1.2921411288883369, -1.29214112888834]], [[1.2890428023667844, -1.2890428023667875]], [[1.2924759766754241, -1.2924759766754272]], [[1.2908547494365554, -1.2908547494365585]], [[1.293149704083283, -1.293149704083286]], [[1.2923720694460288, -1.292372069446032]], [[1.2940084211465126, -1.2940084211465157]], [[1.2937180827058872, -1.2937180827058903]], [[1.2949175719355424, -1.2949175719355455]], [[1.2949502462874658, -1.294950246287469]], [[1.2958896583846609, -1.295889658384664]], [[1.2958073701460149, -1.295807370146018]], [[1.2968263542855973, -1.2968263542856004]], [[1.2966685376011877, -1.2966685376011908]], [[1.2974244349483477, -1.2974244349483508]], [[1.2974621866436573, -1.2974621866436604]], [[1.2980352984744208, -1.2980352984744241]], [[1.2968106874136234, -1.2968106874136265]], [[1.2984114812648426, -1.2984114812648457]], [[1.2977654361570825, -1.2977654361570854]], [[1.2989100252662031, -1.298910025266206]], [[1.2985491959529336, -1.2985491959529365]], [[1.301308695768338, -1.3013086957683409]], [[1.2849057358136502, -1.284905735813653]], [[1.3008503618423877, -1.3008503618423906]], [[1.2863601632994441, -1.286360163299447]], [[1.2999111477738716, -1.2999111477738745]], [[1.2779329748379098, -1.2779329748379127]], [[1.2986190623894005, -1.2986190623894034]], [[1.2799482148063344, -1.2799482148063372]], [[1.2974717397805071, -1.29747173978051]], [[1.272776448302967, -1.27277644830297]], [[1.2962235401859943, -1.296223540185997]], [[1.2746087364835792, -1.2746087364835819]], [[1.301193730174544, -1.3011937301745466]], [[1.2694977130821892, -1.2694977130821918]], [[1.3009733122839007, -1.3009733122839033]], [[1.2644952537529894, -1.264495253752992]], [[1.2995590364986118, -1.2995590364986145]], [[1.260436325130834, -1.2604363251308366]], [[1.2979224557179823, -1.297922455717985]], [[1.256716246163751, -1.2567162461637538]], [[1.2964365976379875, -1.2964365976379901]], [[1.2532182938799346, -1.2532182938799372]], [[1.295209869642963, -1.2952098696429657]], [[1.2484103523660306, -1.2484103523660333]], [[1.3149853412910288, -1.3149853412910315]], [[1.2446274646366167, -1.2446274646366193]], [[1.3138135316711763, -1.313813531671179]], [[1.2458308043418387, -1.2458308043418413]], [[1.3092895888137945, -1.309289588813797]], [[1.2473596979863748, -1.2473596979863772]], [[1.3035500321604654, -1.3035500321604678]], [[1.2484598035016423, -1.2484598035016448]], [[1.2975835110053309, -1.2975835110053333]], [[1.2486772816906548, -1.2486772816906573]], [[1.2920411618444183, -1.2920411618444207]], [[1.2477924481514384, -1.2477924481514409]], [[1.2873067684609767, -1.2873067684609794]], [[1.2458940345221938, -1.2458940345221965]], [[1.2834805562916858, -1.2834805562916884]], [[1.2433140356029593, -1.243314035602962]], [[1.28047897883486, -1.2804789788348627]], [[1.2403473768433129, -1.2403473768433155]], [[1.2781602139783366, -1.2781602139783395]], [[1.2359294712540843, -1.2359294712540871]], [[1.2926239930551047, -1.2926239930551076]], [[1.232936665288465, -1.232936665288468]], [[1.2916227079449571, -1.29162270794496]], [[1.2338732525042648, -1.2338732525042677]], [[1.2877279636953256, -1.2877279636953285]], [[1.2346821342806316, -1.2346821342806344]], [[1.2827972383179302, -1.2827972383179331]], [[1.2347888119855273, -1.2347888119855301]], [[1.2780161186323782, -1.2780161186323808]], [[1.2340039904134161, -1.2340039904134188]], [[1.2737956345685233, -1.273795634568526]], [[1.2323671445960163, -1.232367144596019]], [[1.2702731683661308, -1.2702731683661335]], [[1.230123597060648, -1.2301235970606508]], [[1.2674230583449462, -1.2674230583449488]], [[1.227526389185837, -1.2275263891858397]], [[1.2651530600786671, -1.2651530600786698]], [[1.224526306087388, -1.2245263060873908]], [[1.2770873577947417, -1.2770873577947444]], [[1.2217015335206696, -1.2217015335206722]], [[1.2765345230920364, -1.276534523092039]], [[1.2222240617973852, -1.2222240617973879]], [[1.2732930407449385, -1.273293040744941]], [[1.2226221464098188, -1.2226221464098213]], [[1.2690522249171552, -1.2690522249171576]], [[1.2224868805259808, -1.2224868805259832]], [[1.2648147180307845, -1.264814718030787]], [[1.2215999073387296, -1.221599907338732]], [[1.2610031441605476, -1.26100314416055]], [[1.2200109881230023, -1.2200109881230048]], [[1.2577634755879168, -1.2577634755879192]], [[1.2179010750438928, -1.2179010750438952]], [[1.255090244705183, -1.2550902447051855]], [[1.2154749252098065, -1.215474925209809]], [[1.2529187497009528, -1.2529187497009553]], [[1.2129109005573468, -1.2129109005573493]], [[1.2511746677390598, -1.2511746677390623]], [[1.2097510604658277, -1.2097510604658301]], [[1.2645009595865466, -1.264500959586549]], [[1.2071990533456802, -1.2071990533456827]], [[1.2646297440799066, -1.2646297440799088]], [[1.2076534234093672, -1.2076534234093694]], [[1.2620069828149947, -1.262006982814997]], [[1.2082139689568234, -1.2082139689568256]], [[1.2581235273267857, -1.258123527326788]], [[1.2085529675097244, -1.2085529675097266]], [[1.2539177210738501, -1.2539177210738524]], [[1.2083781910326423, -1.2083781910326445]], [[1.2498701516459856, -1.2498701516459878]], [[1.2075579961447482, -1.2075579961447505]], [[1.246250512155576, -1.2462505121555782]], [[1.2061028158504676, -1.2061028158504699]], [[1.2431615721420286, -1.2431615721420308]], [[1.2041883598618317, -1.204188359861834]], [[1.2405938884014986, -1.2405938884015009]], [[1.2019576053633574, -1.2019576053633596]], [[1.2384867343201253, -1.2384867343201276]], [[1.1995815197701332, -1.1995815197701354]], [[1.2366822242539857, -1.2366822242539879]], [[1.2029528463143793, -1.2029528463143815]], [[1.24428255360323, -1.2442825536032323]], [[1.2091653378699274, -1.2091653378699296]], [[1.2427087166656587, -1.242708716665661]], [[1.2068518967199167, -1.2068518967199189]], [[1.240244423729207, -1.2402444237292092]], [[1.2044051328303746, -1.2044051328303769]], [[1.237623318435921, -1.2376233184359233]], [[1.2017413590775632, -1.2017413590775654]], [[1.2351144993952734, -1.2351144993952756]], [[1.1989455243208142, -1.1989455243208165]], [[1.232969296383929, -1.2329692963839312]], [[1.1960842088063626, -1.1960842088063648]], [[1.231184553822895, -1.2311845538228972]], [[1.193260023115235, -1.1932600231152373]], [[1.2297285616385285, -1.2297285616385307]], [[1.190538522377085, -1.1905385223770872]], [[1.2285774308919168, -1.228577430891919]], [[1.1879279883852694, -1.1879279883852716]], [[1.2277202052860332, -1.2277202052860354]], [[1.1846189963283074, -1.1846189963283096]], [[1.243340422344007, -1.2433404223440092]], [[1.181919838261502, -1.1819198382615042]], [[1.245838451144184, -1.2458384511441865]], [[1.1804859221310253, -1.1804859221310278]], [[1.2463593906239072, -1.2463593906239097]], [[1.1792493724820703, -1.1792493724820727]], [[1.2457826990140888, -1.2457826990140912]], [[1.1783829826362522, -1.1783829826362546]], [[1.2445338364906036, -1.244533836490606]], [[1.1781652480271818, -1.1781652480271843]], [[1.242396649446482, -1.2423966494464844]], [[1.1787045984006668, -1.1787045984006692]], [[1.2391773880260508, -1.2391773880260533]], [[1.1799575496780252, -1.1799575496780277]], [[1.2348679792644277, -1.2348679792644301]], [[1.1816274213227895, -1.181627421322792]], [[1.2297490294117688, -1.2297490294117712]], [[1.1831770719615329, -1.1831770719615353]], [[1.2243948967290939, -1.2243948967290963]], [[1.1839842568817258, -1.1839842568817283]], [[1.219453481188678, -1.2194534811886804]], [[1.183686970094684, -1.1836869700946864]], [[1.2153230233316026, -1.215323023331605]], [[1.1822408151976764, -1.1822408151976789]], [[1.211862540268628, -1.2118625402686305]], [[1.1883801712000637, -1.1883801712000661]], [[1.2086961563625602, -1.2086961563625627]], [[1.1932505183288746, -1.1932505183288769]], [[1.2064602649227107, -1.206460264922713]], [[1.1966966225308344, -1.1966966225308366]], [[1.2051768635585667, -1.205176863558569]], [[1.1992815341050773, -1.1992815341050793]], [[1.2045857770093504, -1.2045857770093524]], [[1.200929095661525, -1.200929095661527]], [[1.2063874568074626, -1.2063874568074646]], [[1.2037920799130373, -1.2037920799130393]], [[1.2073550989148016, -1.2073550989148039]], [[1.2058920248231242, -1.2058920248231264]], [[1.2082253018278855, -1.2082253018278875]], [[1.2072920122481272, -1.2072920122481292]], [[1.2090241002496636, -1.2090241002496656]], [[1.2083990512269946, -1.2083990512269966]], [[1.2095391410472511, -1.2095391410472531]], [[1.2092627602143255, -1.2092627602143275]], [[1.2100423102120377, -1.2100423102120397]], [[1.2099665357864116, -1.2099665357864136]], [[1.2105239823430387, -1.2105239823430407]], [[1.2105384683494143, -1.2105384683494163]], [[1.2109521045975837, -1.2109521045975857]], [[1.2110340144614897, -1.2110340144614917]], [[1.211356895465563, -1.211356895465565]], [[1.2114754217797017, -1.2114754217797037]], [[1.211739937988435, -1.211739937988437]], [[1.2118773930376727, -1.2118773930376747]], [[1.212103442047808, -1.21210344204781]], [[1.2122461887966955, -1.2122461887966975]], [[1.2112522867856879, -1.2112522867856899]], [[1.212391803015637, -1.212391803015639]], [[1.2118280899420473, -1.2118280899420493]], [[1.2126116313800277, -1.2126116313800297]], [[1.2123145871480738, -1.2123145871480758]], [[1.2128725632934805, 