[[[-0.002497067766586314, 0.002497067766586328]], [[0.00787653132932839, -0.007876531329328376]], [[0.02029723851071817, -0.02029723851071813]], [[0.032279924205843025, -0.032279924205842955]], [[0.04334090654492779, -0.043340906544927685]], [[0.05346138262633511, -0.053461382626334965]], [[0.0627249665286353, -0.0627249665286352]], [[0.0712305746784742, -0.07123057467847412]], [[0.07907104925429934, -0.07907104925429925]], [[0.08632840232819654, -0.0863284023281965]], [[0.09307357003413344, -0.09307357003413338]], [[0.09936742385929967, -0.09936742385929964]], [[0.10526207041409955, -0.1052620704140995]], [[0.11080212547699972, -0.1108021254769997]], [[0.11602586002724777, -0.11602586002724771]], [[0.12096619267567843, -0.12096619267567837]], [[0.12565153245594401, -0.1256515324559439]], [[0.1301064869690891, -0.13010648696908894]], [[0.1343524540236195, -0.13435245402361934]], [[0.13840811463213576, -0.13840811463213562]], [[0.14228984353478671, -0.14228984353478658]], [[0.14601205127222, -0.14601205127221986]], [[0.14958746967249803, -0.1495874696724979]], [[0.1530273906428713, -0.15302739064287116]], [[0.15634186643825476, -0.15634186643825462]], [[0.15953987812237944, -0.15953987812237932]], [[0.16262947772556113, -0.162629477725561]], [[0.1656179086047087, -0.16561790860470854]], [[0.16851170769428864, -0.16851170769428847]], [[0.17131679267105335, -0.17131679267105318]], [[0.17403853651357154, -0.1740385365135714]], [[0.176681831497084, -0.17668183149708383]], [[0.1792511443058915, -0.17925114430589134]], [[0.18175056365370665, -0.18175056365370645]], [[0.18418384156442913, -0.18418384156442894]], [[0.18655442927132532, -0.18655442927132515]], [[0.18886550853329873, -0.1888655085332986]], [[0.19112001903613232, -0.19112001903613218]], [[0.1933206824388972, -0.19332068243889702]], [[0.19547002353681664, -0.1954700235368165]], [[0.19757038893827558, -0.19757038893827547]], [[0.19962396359255935, -0.19962396359255924]], [[0.2016327854540294, -0.2016327854540293]], [[0.20359875852596182, -0.20359875852596174]], [[0.20552366449169918, -0.20552366449169912]], [[0.2074091731108931, -0.2074091731108931]], [[0.20925685153345722, -0.2092568515334572]], [[0.21106817266260353, -0.2110681726626035]], [[0.21284452268034795, -0.21284452268034795]], [[0.2145872078335943, -0.2145872078335943]], [[0.21629746056590357, -0.21629746056590352]], [[0.21797644506895722, -0.21797644506895714]], [[0.21962526231822666, -0.2196252623182266]], [[0.22124495464921332, -0.2212449546492132]], [[0.22283650992362009, -0.22283650992361995]], [[0.22440086532877523, -0.22440086532877512]], [[0.22593891084841333, -0.22593891084841322]], [[0.22745149243839918, -0.22745149243839907]], [[0.22893941493706074, -0.22893941493706066]], [[0.23040344473638474, -0.2304034447363847]], [[0.23184431223735752, -0.2318443122373575]], [[0.23326271411013502, -0.23326271411013505]], [[0.2346593153774544, -0.23465931537745446]], [[0.23603475133770524, -0.23603475133770524]], [[0.237389629342327, -0.23738962934232694]], [[0.2387245304406577, -0.23872453044065764]], [[0.24004001090399749, -0.2400400109039974]], [[0.24133660363944945, -0.24133660363944937]], [[0.24261481950303593, -0.24261481950303587]], [[0.2438751485206453, -0.24387514852064524]], [[0.2451180610245251, -0.24511806102452507]], [[0.24634400871229326, -0.24634400871229317]], [[0.24755342563477337, -0.2475534256347733]], [[0.24874672911836765, -0.2487467291183676]], [[0.24992432062715061, -0.24992432062715053]], [[0.25108658656939226, -0.25108658656939215]], [[0.2522338990527931, -0.2522338990527929]], [[0.2533666165923326, -0.2533666165923325]], [[0.2544850847742876, -0.2544850847742875]], [[0.25558963687966846, -0.2555896368796684]], [[0.2566805944700423, -0.2566805944700423]], [[0.2577582679384599, -0.25775826793845996]], [[0.2588229570279754, -0.25882295702797553]], [[0.25987495132004285, -0.25987495132004296]], [[0.26091453069488524, -0.26091453069488535]], [[0.26194196576576395, -0.26194196576576406]], [[0.2629575182889216, -0.2629575182889217]], [[0.26396144155083134, -0.26396144155083145]], [[0.2649539807342589, -0.264953980734259]], [[0.26593537326452704, -0.26593537326452715]], [[0.2669058491372658, -0.26690584913726595]], [[0.26786563122883633, -0.2678656312288365]], [[0.26881493559052605, -0.2688149355905262]], [[0.26975397172753285, -0.269753971727533]], [[0.27068294286368194, -0.2706829428636821]], [[0.2716020461927499, -0.27160204619275014]], [[0.2725114731172097, -0.2725114731172099]], [[0.2734114094751504, -0.27341140947515064]], [[0.274302035756076, -0.2743020357560762]], [[0.2751835273062358, -0.27518352730623596]], [[0.27605605452409626, -0.27605605452409643]], [[0.2769197830465223, -0.2769197830465225]], [[0.2777748739261972, -0.2777748739261974]], [[0.27862148380077617, -0.27862148380077634]], [[0.27945976505423603, -0.2794597650542362]], [[0.28028986597085215, -0.28028986597085237]], [[0.2811119308822075, -0.2811119308822077]], [[0.2819261003076116, -0.28192610030761184]], [[0.28273251108828445, -0.2827325110882847]], [[0.2835312965156368, -0.283531296515637]], [[0.28432258645395914, -0.2843225864539593]], [[0.28510650745781113, -0.2851065074578113]], [[0.2858831828843865, -0.2858831828843867]], [[0.2866527330011116, -0.28665273300111177]], [[0.2874152750887191, -0.2874152750887192]], [[0.28817092354002666, -0.2881709235400267]], [[0.28891978995463374, -0.28891978995463374]], [[0.2896619832297401, -0.2896619832297402]], [[0.2903976096472758, -0.29039760964727585]], [[0.29112677295752226, -0.2911267729575223]], [[0.29184957445939463, -0.29184957445939463]], [[0.29256611307754443, -0.2925661130775445]], [[0.2932764854364345, -0.29327648543643453]], [[0.2939807859315276, -0.29398078593152766]], [[0.29467910679772485, -0.2946791067977249]], [[0.29537153817518036, -0.29537153817518036]], [[0.29605816817261316, -0.29605816817261316]], [[0.29673908292823076, -0.2967390829282308]], [[0.2974143666683717, -0.29741436666837173]], [[0.29808410176397, -0.29808410176397004]], [[0.2987483687849386, -0.29874836878493866]], [[0.299407246552563, -0.29940724655256307]], [[0.3000608121899935, -0.30006081218999353]], [[0.3007091411709174, -0.30070914117091746]], [[0.3013523073664915, -0.30135230736649155]], [[0.3019903830906074, -0.30199038309060744]], [[0.3026234391435625, -0.30262343914356254]], [[0.3032515448542027, -0.30325154485420275]], [[0.30387476812060155, -0.30387476812060166]], [[0.30449317544933663, -0.30449317544933674]], [[0.3051068319934208, -0.30510683199342087]], [[0.30571580158894407, -0.3057158015889442]], [[0.3063201467904783, -0.3063201467904784]], [[0.30691992890529474, -0.3069199289052949]], [[0.30751520802644217, -0.3075152080264423]], [[0.30810604306473116, -0.30810604306473127]], [[0.30869249177966795, -0.3086924917796681]], [[0.30927461080937874, -0.3092746108093789]], [[0.3098524556995642, -0.30985245569956443]], [[0.31042608093152246, -0.3104260809315227]], [[0.31099553994927487, -0.3109955399492751]], [[0.31156088518583086, -0.31156088518583114]], [[0.31212216808862325, -0.3121221680886235]], [[0.3126794391441457, -0.3126794391441459]], [[0.3132327479018229, -0.3132327479018232]], [[0.3137821429971416, -0.31378214299714186]], [[0.314327672174069, -0.31432767217406926]], [[0.3148693823067873, -0.3148693823067875]], [[0.31540731942076644, -0.31540731942076666]], [[0.31594152871320136, -0.31594152871320164]], [[0.31647205457283556, -0.31647205457283584]], [[0.3169989405991934, -0.3169989405991937]], [[0.3175222296212424, -0.31752222962124266]], [[0.3180419637155053, -0.3180419637155055]], [[0.31855818422364196, -0.3185581842236422]], [[0.31907093176951923, -0.31907093176951945]], [[0.31958024627578646, -0.3195802462757867]], [[0.3200861669799744, -0.3200861669799746]], [[0.3205887324501333, -0.3205887324501335]], [[0.3210879806000266, -0.32108798060002675]], [[0.32158394870389456, -0.32158394870389473]], [[0.3220766734108033, -0.3220766734108034]], [[0.32256619075859233, -0.32256619075859244]], [[0.32305253618743446, -0.3230525361874346]], [[0.3235357445530213, -0.3235357445530215]], [[0.3240158501393859, -0.324015850139386]], [[0.32449288667137505, -0.3244928866713751]], [[0.32496688732678275, -0.3249668873267828]], [[0.3254378847481556, -0.32543788474815566]], [[0.3259059110542809, -0.3259059110542809]], [[0.32637099785136725, -0.3263709978513672]], [[0.3268331762439283, -0.32683317624392827]], [[0.32729247684537854, -0.3272924768453785]], [[0.32774892978834985, -0.3277489297883498]], [[0.3282025647347388, -0.3282025647347387]], [[0.3286534108854919, -0.32865341088549177]], [[0.3291014969901376, -0.3291014969901375]], [[0.32954685135607303, -0.32954685135607303]], [[0.32998950185761233, -0.32998950185761233]], [[0.3304294759448046, -0.33042947594480465]], [[0.3308668006520282, -0.3308668006520283]], [[0.3313015026063682, -0.33130150260636826]], [[0.3317336080357834, -0.33173360803578344]], [[0.33216314277706943, -0.3321631427770695]], [[0.3325901322836242, -0.3325901322836243]], [[0.33301460163302105, -0.3330146016330211]], [[0.33343657553439554, -0.3334365755343956]], [[0.3338560783356518, -0.3338560783356519]], [[0.3342731340304928, -0.3342731340304929]], [[0.33468776626528063, -0.3346877662652807]]]