[[[-0.003695261362873445, 0.003695261362873445]], [[0.006474895800238287, -0.006474895800238245]], [[0.018929249016969324, -0.018929249016969227]], [[0.03099299698930598, -0.030992996989305827]], [[0.042138167191486685, -0.042138167191486504]], [[0.05233619555435336, -0.052336195554353135]], [[0.06166911035258215, -0.061669110352581887]], [[0.0702362214413329, -0.07023622144133262]], [[0.07813121791876604, -0.07813121791876575]], [[0.0854370053109452, -0.08543700531094489]], [[0.0922253443040866, -0.09222534430408623]], [[0.09855783219862485, -0.09855783219862455]], [[0.10448720110697288, -0.10448720110697257]], [[0.11005860025618729, -0.110058600256187]], [[0.11531075328973892, -0.11531075328973862]], [[0.12027696221582969, -0.12027696221582937]], [[0.12498596083752747, -0.12498596083752714]], [[0.12946263225751586, -0.12946263225751556]], [[0.13372860853473634, -0.13372860853473603]], [[0.13780277043936373, -0.1378027704393634]], [[0.14170166362077907, -0.14170166362077874]], [[0.14543984536966664, -0.14543984536966637]], [[0.14903017398993756, -0.14903017398993731]], [[0.15248405080644536, -0.1524840508064451]], [[0.15581162309660113, -0.15581162309660085]], [[0.1590219547597332, -0.15902195475973294]], [[0.16212317030939402, -0.16212317030939377]], [[0.16512257676112713, -0.16512257676112693]], [[0.16802676715918352, -0.16802676715918335]], [[0.17084170880971605, -0.17084170880971583]], [[0.17357281873795724, -0.173572818737957]], [[0.17622502843963628, -0.176225028439636]], [[0.17880283963310287, -0.17880283963310262]], [[0.1813103724224104, -0.18131037242241016]], [[0.18375140704004378, -0.18375140704004347]], [[0.18612942014058198, -0.18612942014058173]], [[0.1884476164549265, -0.18844761645492625]], [[0.1907089564819997, -0.19070895648199945]], [[0.19291618078556694, -0.19291618078556663]], [[0.195071831373655, -0.19507183137365464]], [[0.19717827056339857, -0.1971782705633982]], [[0.1992376976721856, -0.19923769767218522]], [[0.20125216382439376, -0.20125216382439337]], [[0.203223585119951, -0.20322358511995064]], [[0.2051537543748995, -0.20515375437489913]], [[0.2070443516138739, -0.20704435161387355]], [[0.20889695346891776, -0.2088969534689174]], [[0.21071304161754328, -0.21071304161754292]], [[0.21249401037472077, -0.2124940103747204]], [[0.21424117353801925, -0.21424117353801886]], [[0.2159557705719546, -0.21595577057195417]], [[0.21763897220636838, -0.217638972206368]], [[0.21929188551405024, -0.21929188551404988]], [[0.22091555852457143, -0.22091555852457107]], [[0.22251098442421183, -0.22251098442421138]], [[0.22407910538575307, -0.22407910538575262]], [[0.22562081606663448, -0.22562081606663403]], [[0.22713696680939863, -0.2271369668093982]], [[0.22862836657438956, -0.22862836657438917]], [[0.23009578563121838, -0.230095785631218]], [[0.23153995803250454, -0.23153995803250416]], [[0.2329615838907786, -0.2329615838907782]], [[0.23436133147713248, -0.23436133147713206]], [[0.23573983915819163, -0.2357398391581912]], [[0.23709771718621142, -0.237097717186211]], [[0.23843554935554387, -0.23843554935554342]], [[0.23975389453734533, -0.2397538945373449]], [[0.24105328810318297, -0.24105328810318255]], [[0.2423342432471224, -0.242334243247122]], [[0.24359725221492673, -0.24359725221492634]], [[0.2448427874481506, -0.2448427874481502]], [[0.24607130265016047, -0.24607130265016006]], [[0.24728323378044129, -0.24728323378044087]], [[0.2484789999829512, -0.24847899998295078]], [[0.24965900445375064, -0.24965900445375025]], [[0.2508236352526534, -0.250823635252653]], [[0.2519732660632175, -0.2519732660632171]], [[0.25310825690500904, -0.2531082569050086]], [[0.2542289548017227, -0.2542289548017222]], [[0.2553356944084353, -0.25533569440843484]], [[0.2564287986009827, -0.2564287986009823]], [[0.25750857903019864, -0.2575085790301982]], [[0.2585753366435242, -0.2585753366435237]], [[0.25962936217628907, -0.25962936217628857]], [[0.26067093661477647, -0.26067093661477597]], [[0.2617003316330139, -0.2617003316330135]], [[0.26271781000507627, -0.2627178100050758]], [[0.26372362599454574, -0.2637236259945453]], [[0.26471802572264697, -0.2647180257226466]], [[0.2657012475164565, -0.26570124751645613]], [[0.26667352223847923, -0.26667352223847884]], [[0.267635073598788, -0.26763507359878763]], [[0.26858611845083286, -0.26858611845083247]], [[0.2695268670719433, -0.26952686707194284]], [[0.27045752342947493, -0.27045752342947443]], [[0.27137828543348114, -0.27137828543348064]], [[0.27228934517672776, -0.27228934517672726]], [[0.2731908891628119, -0.2731908891628114]], [[0.27408309852309176, -0.2740830985230913]], [[0.27496614922308604, -0.2749661492230856]], [[0.2758402122589561, -0.27584021225895566]], [[0.2767054538446424, -0.27670545384464196]], [[0.27756203559018877, -0.2775620355901883]], [[0.2784101146717522, -0.27841011467175175]], [[0.2792498439937633, -0.27924984399376285]], [[0.280081372343672, -0.28008137234367153]], [[0.28090484453968556, -0.2809048445396851]], [[0.2817204015718797, -0.2817204015718793]], [[0.2825281807370387, -0.2825281807370382]], [[0.2833283157675596, -0.2833283157675591]], [[0.28412093695473406, -0.2841209369547335]], [[0.284906171266701, -0.2849061712667004]], [[0.2856841424613478, -0.28568414246134727]], [[0.2864549711944186, -0.28645497119441804]], [[0.28721877512307387, -0.2872187751230733]], [[0.28797566900513133, -0.2879756690051308]], [[0.2887257647942037, -0.2887257647942032]], [[0.28946917173093706, -0.2894691717309366]], [[0.29020599643054157, -0.2902059964305411]], [[0.29093634296679477, -0.2909363429667943]], [[0.29166031295268885, -0.2916603129526884]], [[0.2923780056178817, -0.2923780056178812]], [[0.2930895178831041, -0.2930895178831036]], [[0.29379494443166704, -0.2937949444316665]], [[0.2944943777782034, -0.29449437777820286]], [[0.2951879083347736, -0.29518790833477304]], [[0.2958756244744556, -0.29587562447445503]], [[0.29655761259253427, -0.2965576125925337]], [[0.2972339571653989, -0.2972339571653983]], [[0.29790474080725143, -0.2979047408072508]], [[0.29857004432472356, -0.29857004432472295]], [[0.2992299467694945, -0.2992299467694939]], [[0.2998845254889975, -0.2998845254889969]], [[0.3005338561752984, -0.30053385617529776]], [[0.30117801291222474, -0.3011780129122241]], [[0.3018170682208215, -0.3018170682208209]], [[0.30245109310320323, -0.30245109310320256]], [[0.3030801570848714, -0.30308015708487074]], [[0.3037043282555616, -0.3037043282555609]], [[0.3043236733086804, -0.30432367330867965]], [[0.3049382575793918, -0.304938257579391]], [[0.3055481450814079, -0.30554814508140704]], [[0.3061533985425361, -0.3061533985425353]], [[0.306754079439035, -0.3067540794390342]], [[0.30735024802882427, -0.3073502480288235]], [[0.30794196338359664, -0.30794196338359586]], [[0.30852928341987407, -0.3085292834198733]], [[0.30911226492905025, -0.3091122649290494]], [[0.3096909636064588, -0.309690963606458]], [[0.3102654340795056, -0.31026543407950474]], [[0.3108357299349002, -0.3108357299348994]], [[0.3114019037450224, -0.3114019037450215]], [[0.3119640070934553, -0.3119640070934544]], [[0.31252209059971753, -0.31252209059971664]], [[0.31307620394322466, -0.3130762039432237]], [[0.3136263958865076, -0.31362639588650665]], [[0.3141727142977168, -0.31417271429771587]], [[0.31471520617243776, -0.31471520617243687]], [[0.31525391765484356, -0.3152539176548427]], [[0.31578889405820787, -0.315788894058207]], [[0.3163201798848026, -0.31632017988480166]], [[0.3168478188452012, -0.3168478188452003]], [[0.31737185387701, -0.31737185387700917]], [[0.3178923271630467, -0.3178923271630459]], [[0.3184092801489865, -0.3184092801489857]], [[0.31892275356049393, -0.3189227535604931]], [[0.31943278741985875, -0.3194327874198579]], [[0.3199394210621529, -0.31993942106215206]], [[0.32044269315092483, -0.32044269315092405]], [[0.3209426416934475, -0.3209426416934467]], [[0.32143930405553484, -0.32143930405553406]], [[0.32193271697594145, -0.3219327169759406]], [[0.3224229165803597, -0.3224229165803589]], [[0.3229099383950276, -0.3229099383950268]], [[0.3233938173599601, -0.3233938173599593]], [[0.32387458784181694, -0.32387458784181616]], [[0.3243522836464183, -0.3243522836464175]], [[0.3248269380309203, -0.3248269380309194]], [[0.32529858371566095, -0.3252985837156601]], [[0.3257672528956882, -0.32576725289568736]], [[0.32623297725197875, -0.3262329772519779]], [[0.3266957879623589, -0.32669578796235804]], [[0.32715571571213614, -0.32715571571213525]], [[0.32761279070445126, -0.3276127907044504]], [[0.3280670426703591, -0.3280670426703582]], [[0.32851850087864676, -0.32851850087864587]], [[0.32896719414539793, -0.32896719414539705]], [[0.32941315084331013, -0.32941315084330924]], [[0.3298563989107734, -0.32985639891077256]], [[0.3302969658607176, -0.3302969658607168]], [[0.3307348787892349, -0.3307348787892341]], [[0.33117016438398483, -0.33117016438398394]], [[0.3316028489323881, -0.3316028489323872]], [[0.3320329583296159, -0.33203295832961494]], [[0.3324605180863802, -0.33246051808637933]], [[0.332885553336532, -0.33288555333653114]], [[0.3333080888444717, -0.3333080888444708]], [[0.33372814901237857, -0.3337281490123776]], [[0.3341457578872638, -0.33414575788726286]], [[0.33456093916785273, -0.33456093916785173]], [[0.3349737162113006, -0.3349737162112996]], [[0.33538411203974755, -0.33538411203974655]], [[0.33579214934671614, -0.33579214934671514]], [[0.3361978505033577, -0.33619785050335665]], [[0.33660123756454996, -0.33660123756454885]], [[0.33700233227485155, -0.3370023322748504]], [[0.3374011560743166, -0.3374011560743154]], [[0.33779773010417385, -0.33779773010417274]], [[0.3381920752123737, -0.3381920752123726]], [[0.3385842119590069, -0.33858421195900584]], [[0.3389741606215989, -0.3389741606215979]], [[0.3393619412002827, -0.3393619412002817]], [[0.33974757342285355, -0.3397475734228525]], [[0.3401310767497094, -0.3401310767497083]], [[0.34051247037867927, -0.3405124703786782]], [[0.3408917732497434, -0.34089177324974235]], [[0.3412690040496475, -0.3412690040496464]], [[0.341644181216414, -0.34164418121641293]], [[0.34201732294375364, -0.3420173229437526]], [[0.3423884471853793, -0.3423884471853783]], [[0.34275757165922494, -0.34275757165922394]], [[0.3431247138515722, -0.3431247138515712]], [[0.3434898910210872, -0.3434898910210861]], [[0.34385312020276937, -0.34385312020276837]], [[0.34421441821181553, -0.34421441821181453]], [[0.3445738016474001, -0.3445738016473991]], [[0.3449312868963748, -0.3449312868963738]], [[0.34528689013688935, -0.3452868901368884]], [[0.3456406273419352, -0.34564062734193424]], [[0.3459925142828142, -0.3459925142828132]], [[0.3463425665325344, -0.3463425665325334]], [[0.34669079946913484, -0.34669079946913384]], [[0.34703722827894, -0.34703722827893896]], [[0.3473818679597478, -0.34738186795974674]], [[0.3477247333239506, -0.34772473332394954]], [[0.3480658390015923, -0.34806583900159127]], [[0.34840519944336257, -0.3484051994433615]], [[0.3487428289235297, -0.34874282892352865]], [[0.34907874154281376, -0.34907874154281276]], [[0.3494129512312017, -0.34941295123120064]], [[0.34974547175070503, -0.349745471750704]], [[0.35007631669806266, -0.3500763166980616]], [[0.35040549950738903, -0.350405499507388]], [[0.35073303345276957, -0.3507330334527685]], [[0.3510589316508046, -0.35105893165080354]], [[0.3513832070631029, -0.35138320706310183]], [[0.3517058724987257, -0.35170587249872465]], [[0.35202694061658324, -0.35202694061658213]], [[0.3523464239277838, -0.3523464239277827]], [[0.35266433479793763, -0.3526643347979365]], [[0.3529806854494153, -0.35298068544941413]], [[0.3532954879635631, -0.3532954879635619]], [[0.35360875428287536, -0.3536087542828742]], [[0.3539204962131253, -0.3539204962131242]], [[0.35423072542545486, -0.35423072542545375]], [[0.3545394534584248, -0.3545394534584237]], [[0.3548466917200261, -0.3548466917200249]], [[0.3551524514896531, -0.3551524514896519]], [[0.3554567439200395, -0.3554567439200384]], [[0.3557595800391584, -0.35575958003915736]], [[0.3560609707520862, -0.3560609707520851]], [[0.35636092684283205, -0.35636092684283094]], [[0.35665945897613377, -0.35665945897613266]], [[0.35695657769921996, -0.3569565776992188]], [[0.35725229344353987, -0.3572522934435387]], [[0.3575466165264617, -0.3575466165264605]], [[0.35783955715293964, -0.35783955715293847]], [[0.3581311254171507, -0.35813112541714953]], [[0.35842133130410164, -0.3584213313041005]], [[0.3587101846912071, -0.3587101846912059]], [[0.3589976953498389, -0.3589976953498377]], [[0.359283872946848, -0.3592838729468468]], [[0.3595687270460589, -0.35956872704605775]], [[0.3598522671097375, -0.35985226710973633]], [[0.3601345025000329, -0.3601345025000317]], [[0.36041544248039376, -0.3604154424803925]], [[0.3606950962169592, -0.36069509621695794]], [[0.3609734727799263, -0.36097347277992503]], [[0.36125058114489234, -0.36125058114489106]], [[0.36152643019417463, -0.3615264301941734]], [[0.361801028718107, -0.36180102871810577]], [[0.3620743854163136, -0.3620743854163124]], [[0.36234650889896125, -0.3623465088989601]], [[0.3626174076879897, -0.36261740768798856]], [[0.3628870902183211, -0.36288709021832]], [[0.36315556483904865, -0.3631555648390476]], [[0.36342283981460516, -0.36342283981460405]], [[0.3636889233259114, -0.3636889233259103]], [[0.3639538234715056, -0.36395382347150457]], [[0.3642175482686535, -0.36421754826865244]], [[0.36448010565443956, -0.3644801056544385]], [[0.36474150348684053, -0.3647415034868395]], [[0.36500174954578046, -0.36500174954577935]], [[0.3652608515341685, -0.3652608515341674]], [[0.3655188170789195, -0.3655188170789183]], [[0.3657756537319573, -0.3657756537319562]], [[0.3660313689712024, -0.3660313689712013]], [[0.3662859702015424, -0.3662859702015413]], [[0.366539464755787, -0.3665394647557859]], [[0.3667918598956077, -0.3667918598956066]], [[0.3670431628124617, -0.3670431628124606]], [[0.3672933806285012, -0.3672933806285001]], [[0.3675425203974678, -0.3675425203974667]], [[0.36779058910557266, -0.36779058910557155]], [[0.3680375936723623, -0.3680375936723611]], [[0.36828354095157073, -0.36828354095156957]], [[0.36852843773195804, -0.3685284377319569]], [[0.36877229073813556, -0.36877229073813445]], [[0.3690151066313779, -0.36901510663137677]], [[0.369256892010422, -0.3692568920104209]], [[0.3694976534122542, -0.3694976534122531]], [[0.3697373973128843, -0.36973739731288324]], [[0.3699761301281078, -0.36997613012810676]], [[0.37021385821425623, -0.3702138582142552]], [[0.37045058786893575, -0.3704505878689347]], [[0.37068632533175444, -0.3706863253317534]], [[0.37092107678503805, -0.370921076785037]], [[0.37115484835453516, -0.3711548483545341]], [[0.371387646110111, -0.37138764611010994]], [[0.3716194760664312, -0.3716194760664301]], [[0.37185034418363444, -0.37185034418363333]], [[0.3720802563679956, -0.37208025636799447]], [[0.37230921847257814, -0.3723092184725771]], [[0.3725372362978773, -0.3725372362978762]], [[0.37276431559245293, -0.37276431559245177]], [[0.3729904620535532, -0.372990462053552]], [[0.37321568132772887, -0.37321568132772764]], [[0.37343997901143844, -0.3734399790114372]], [[0.37366336065164424, -0.373663360651643]], [[0.37388583174639944, -0.3738858317463982]], [[0.3741073977454268, -0.37410739774542556]], [[0.37432806405068847, -0.37432806405068725]], [[0.37454783601694763, -0.37454783601694647]], [[0.3747667189523219, -0.37476671895232067]], [[0.3749847181188282, -0.374984718118827]], [[0.37520183873292057, -0.37520183873291935]], [[0.3754180859660191, -0.3754180859660179]], [[0.37563346494503197, -0.37563346494503075]], [[0.3758479807528695, -0.3758479807528683]], [[0.37606163842895113, -0.3760616384289499]], [[0.3762744429697047, -0.37627444296970347]], [[0.37648639932905875, -0.37648639932905753]], [[0.37669751241892807, -0.3766975124189269]], [[0.3769077871096918, -0.3769077871096906]], [[0.37711722823066507, -0.3771172282306638]], [[0.3773258405705638, -0.3773258405705625]], [[0.3775336288779631, -0.3775336288779618]], [[0.3777405978617489, -0.37774059786174763]], [[0.3779467521915637, -0.37794675219156243]], [[0.37815209649824544, -0.3781520964982442]], [[0.3783566353742609, -0.37835663537425973]], [[0.3785603733741325, -0.3785603733741314]], [[0.37876331501485955, -0.37876331501485844]], [[0.37896546477633325, -0.37896546477633214]], [[0.3791668271017465, -0.3791668271017454]], [[0.37936740639799754, -0.3793674063979965]], [[0.3795672070360884, -0.37956720703608743]], [[0.37976623335151777, -0.3797662333515167]], [[0.3799644896446681, -0.37996448964466706]], [[0.38016198018118824, -0.38016198018118713]], [[0.3803587091923701, -0.38035870919236897]], [[0.38055468087552063, -0.3805546808755195]], [[0.3807498993943288, -0.3807498993943277]], [[0.3809443688792271, -0.380944368879226]], [[0.3811380934277489, -0.3811380934277478]], [[0.38133107710488046, -0.3813310771048794]], [[0.3815233239434086, -0.3815233239434076]], [[0.38171483794426336, -0.3817148379442623]], [[0.3819056230768564, -0.3819056230768553]], [[0.38209568327941473, -0.3820956832794137]], [[0.3822850224593103, -0.38228502245930923]], [[0.3824736444933847, -0.38247364449338367]], [[0.3826615532282702, -0.38266155322826917]], [[0.38284875248070616, -0.3828487524807051]], [[0.3830352460378512, -0.38303524603785016]], [[0.383221037657592, -0.38322103765759097]], [[0.3834061310688471, -0.383406131068846]], [[0.3835905299718673, -0.38359052997186627]], [[0.38377423803853244, -0.38377423803853145]], [[0.3839572589126436, -0.3839572589126426]], [[0.384139596210212, -0.384139596210211]], [[0.3843212535197441, -0.38432125351974317]], [[0.38450223440252335, -0.38450223440252235]], [[0.3846825423928874, -0.3846825423928864]], [[0.384862180998503, -0.38486218099850195]], [[0.38504115370063635, -0.3850411537006353]], [[0.38521946395442075, -0.3852194639544197]], [[0.3853971151891204, -0.3853971151891193]], [[0.385574110808391, -0.3855741108083899]], [[0.3857504541905372, -0.3857504541905361]], [[0.38592614868876673, -0.3859261486887656]], [[0.3861011976314411, -0.38610119763143996]], [[0.3862756043223235, -0.3862756043223224]], [[0.3864493720408236, -0.38644937204082247]], [[0.38662250404223897, -0.3866225040422379]], [[0.38679500355799384, -0.38679500355799284]], [[0.3869668737958748, -0.3869668737958738]], [[0.38713811794026337, -0.3871381179402624]], [[0.3873087391523661, -0.38730873915236513]], [[0.38747874057044146, -0.3874787405704405]], [[0.3876481253100244, -0.3876481253100234]], [[0.38781689646414746, -0.38781689646414647]], [[0.38798505710355996, -0.38798505710355896]], [[0.388152610276944, -0.3881526102769429]], [[0.3883195590111279, -0.38831955901112686]], [[0.38848590631129754, -0.3884859063112965]], [[0.3886516551612042, -0.38865165516120315]], [[0.3888168085233709, -0.38881680852336986]], [[0.38898136933929567, -0.38898136933929456]], [[0.3891453405296523, -0.38914534052965116]], [[0.38930872499448915, -0.38930872499448804]], [[0.38947152561342535, -0.38947152561342424]], [[0.38963374524584443, -0.3896337452458433]], [[0.3897953867310861, -0.389795386731085]], [[0.38995645288863534, -0.38995645288863423]], [[0.39011694651830947, -0.3901169465183084]], [[0.3902768704004432, -0.3902768704004421]], [[0.39043622729607075, -0.3904362272960697]], [[0.39059501994710705, -0.390595019947106]], [[0.39075325107652553, -0.3907532510765245]], [[0.39091092338853467, -0.3909109233885336]], [[0.3910680395687523, -0.3910680395687512]], [[0.39122460228437766, -0.3912246022843765]], [[0.3913806141843617, -0.39138061418436054]], [[0.39153607789957534, -0.3915360778995742]], [[0.39169099604297575, -0.3916909960429746]], [[0.39184537120977064, -0.3918453712097695]], [[0.3919992059775809, -0.39199920597757976]], [[0.3921525029066012, -0.39215250290660003]], [[0.3923052645397586, -0.39230526453975745]], [[0.39245749340286973, -0.39245749340286856]], [[0.39260919200479577, -0.39260919200479466]], [[0.39276036283759624, -0.3927603628375951]], [[0.3929110083766801, -0.3929110083766789]], [[0.39306113108095625, -0.39306113108095503]], [[0.39321073339298146, -0.3932107333929802]], [[0.39335981773910705, -0.3933598177391058]], [[0.39350838652962394, -0.39350838652962267]], [[0.3936564421589059, -0.39365644215890455]], [[0.3938039870055511, -0.3938039870055497]], [[0.3939510234325224, -0.39395102343252103]], [[0.3940975537872861, -0.3940975537872847]], [[0.3942435804019487, -0.39424358040194724]], [[0.39438910559339224, -0.3943891055933908]], [[0.39453413166340884, -0.3945341316634074]], [[0.39467866089883274, -0.3946786608988313]], [[0.3948226955716717, -0.39482269557167027]], [[0.39496623793923635, -0.3949662379392349]], [[0.39510929024426866, -0.3951092902442672]], [[0.3952518547150686, -0.39525185471506713]], [[0.39539393356561936, -0.3953939335656179]], [[0.3955355289957118, -0.3955355289957104]], [[0.3956766431910669, -0.39567664319106544]], [[0.39581727832345714, -0.3958172783234557]], [[0.3959574365508266, -0.39595743655082516]], [[0.39609712001740965, -0.3960971200174082]], [[0.3962363308538485, -0.3962363308538471]], [[0.39637507117730947, -0.396375071177308]], [[0.3965133430915977, -0.39651334309159625]], [[0.39665114868727114, -0.3966511486872697]], [[0.39678849004175293, -0.3967884900417515]], [[0.39692536921944277, -0.3969253692194413]], [[0.39706178827182703, -0.39706178827182564]], [[0.39719774923758777, -0.3971977492375864]], [[0.3973332541427103, -0.3973332541427089]], [[0.39746830500059027, -0.3974683050005889]], [[0.3976029038121388, -0.3976029038121374]], [[0.39773705256588715, -0.39773705256588576]], [[0.39787075323808996, -0.39787075323808857]], [[0.39800400779282746, -0.3980040077928261]], [[0.39813681818210683, -0.39813681818210545]], [[0.3982691863459621, -0.39826918634596065]], [[0.3984011142125533, -0.39840111421255187]], [[0.3985326036982646, -0.39853260369826315]], [[0.3986636567078012, -0.3986636567077998]], [[0.39879427513428545, -0.39879427513428406]], [[0.39892446085935185, -0.3989244608593504]], [[0.399054215753241, -0.3990542157532396]], [[0.39918354167489295, -0.39918354167489156]], [[0.39931244047203907, -0.3993124404720377]], [[0.39944091398129333, -0.3994409139812919]], [[0.39956896402824255, -0.3995689640282411]], [[0.3996965924275357, -0.39969659242753425]], [[0.3998238009829723, -0.3998238009829709]], [[0.39995059148759016, -0.3999505914875887]], [[0.4000769657237517, -0.4000769657237502]], [[0.4002029254632298, -0.4002029254632283]], [[0.40032847246729275, -0.40032847246729125]], [[0.4004536084867884, -0.40045360848678685]], [[0.400578335262227, -0.4005783352622255]], [[0.40070265452386405, -0.40070265452386256]], [[0.40082656799178124, -0.40082656799177974]], [[0.4009500773759676, -0.40095007737596605]], [[0.40107318437639927, -0.4010731843763977]], [[0.40119589068311856, -0.401195890683117]], [[0.40131819797631235, -0.4013181979763108]], [[0.4014401079263896, -0.401440107926388]], [[0.40156162219405817, -0.4015616221940565]], [[0.40168274243040064, -0.401682742430399]], [[0.40180347027694996, -0.4018034702769483]], [[0.40192380736576366, -0.401923807365762]], [[0.4020437553194977, -0.4020437553194961]], [[0.40216331575147973, -0.40216331575147807]], [[0.4022824902657811, -0.40228249026577945]], [[0.4024012804572889, -0.40240128045728724]], [[0.4025196879117766, -0.40251968791177495]], [[0.4026377142059746, -0.402637714205973]], [[0.40275536090763947, -0.4027553609076379]], [[0.4028726295756232, -0.40287262957562164]], [[0.4029895217599412, -0.40298952175993963]], [[0.4031060390018399, -0.40310603900183833]], [[0.4032221828338638, -0.40322218283386224]], [[0.4033379547799218, -0.4033379547799202]], [[0.40345335635535257, -0.40345335635535096]], [[0.40356838906698983, -0.4035683890669882]], [[0.40368305441322666, -0.40368305441322505]], [[0.40379735388407934, -0.4037973538840778]], [[0.4039112889612504, -0.40391128896124884]], [[0.40402486111819136, -0.40402486111818975]], [[0.40413807182016454, -0.4041380718201629]], [[0.4042509225243046, -0.40425092252430295]], [[0.40436341467967934, -0.4043634146796777]], [[0.4044755497273499, -0.4044755497273482]], [[0.4045873291004303, -0.4045873291004287]], [[0.404698754224147, -0.40469875422414536]], [[0.4048098265158968, -0.40480982651589525]], [[0.4049205473853056, -0.4049205473853041]], [[0.4050309182342851, -0.40503091823428367]], [[0.4051409404570905, -0.40514094045708904]], [[0.40525061544037616, -0.4052506154403747]], [[0.40535994456325214, -0.4053599445632507]], [[0.405468929197339, -0.40546892919733757]], [[0.4055775707068232, -0.40557757070682177]], [[0.4056858704485109, -0.40568587044850946]], [[0.4057938297718823, -0.40579382977188083]], [[0.4059014500191445, -0.4059014500191431]], [[0.40600873252528485, -0.4060087325252834]], [[0.4061156786181229, -0.4061156786181215]], [[0.40622228961836254, -0.40622228961836115]], [[0.40632856683964336, -0.40632856683964197]], [[0.4064345115885915, -0.4064345115885901]], [[0.40654012516487037, -0.406540125164869]], [[0.40664540886123035, -0.40664540886122896]], [[0.4067503639635586, -0.40675036396355724]], [[0.40685499175092826, -0.4068549917509268]], [[0.40695929349564675, -0.4069592934956453]], [[0.4070632704633044, -0.407063270463303]], [[0.4071669239128222, -0.4071669239128208]], [[0.4072702550964989, -0.40727025509649745]], [[0.4073732652600582, -0.40737326526005674]], [[0.40747595564269523, -0.4074759556426938]], [[0.40757832747712275, -0.4075783274771213]], [[0.4076803819896167, -0.4076803819896152]], [[0.4077821204000615, -0.40778212040006]], [[0.4078835439219951, -0.40788354392199366]], [[0.4079846537626534, -0.40798465376265197]], [[0.4080854511230142, -0.4080854511230128]], [[0.4081859371978412, -0.4081859371978398]], [[0.40828611317572705, -0.40828611317572566]], [[0.40838598023913647, -0.4083859802391351]], [[0.4084855395644487, -0.40848553956444733]], [[0.4085847923219999, -0.40858479232199846]], [[0.40868373967612465, -0.4086837396761232]], [[0.40878238278519763, -0.4087823827851962]], [[0.4088807228016747, -0.40888072280167326]], [[0.4089787608721336, -0.40897876087213214]], [[0.4090764981373142, -0.4090764981373128]], [[0.40917393573215893, -0.40917393573215743]], [[0.4092710747858519, -0.4092710747858504]], [[0.4093679164218586, -0.4093679164218571]], [[0.40946446175796497, -0.40946446175796347]], [[0.4095607119063158, -0.40956071190631427]], [[0.40965666797345324, -0.40965666797345174]], [[0.40975233106035464, -0.4097523310603532]], [[0.4098477022624705, -0.4098477022624691]], [[0.40994278266976153, -0.4099427826697601]], [[0.41003757336673574, -0.41003757336673435]], [[0.41013207543248537, -0.410132075432484]], [[0.410226289940723, -0.41022628994072163]], [[0.4103202179598179, -0.4103202179598165]], [[0.4104138605528315, -0.41041386055283013]], [[0.41050721877755336, -0.410507218777552]], [[0.41060029368653583, -0.4106002936865344]], [[0.4106930863271292, -0.41069308632712775]], [[0.41078559774151635, -0.4107855977415149]], [[0.4108778289667469, -0.41087782896674546]], [[0.4109697810347712, -0.41096978103476983]], [[0.4110614549724743, -0.41106145497247293]], [[0.41115285180170913, -0.41115285180170774]], [[0.4112439725393297, -0.4112439725393283]], [[0.4113348181972241, -0.41133481819722273]], [[0.41142538978234705, -0.41142538978234566]], [[0.4115156882967523, -0.41151568829675095]], [[0.4116057147376246, -0.41160571473762325]], [[0.4116954700973115, -0.41169547009731017]], [[0.41178495536335497, -0.4117849553633537]], [[0.4118741715185228, -0.4118741715185215]], [[0.4119631195408393, -0.41196311954083803]], [[0.4120518004036163, -0.412051800403615]], [[0.4121402150754836, -0.41214021507548226]], [[0.4122283645204193, -0.412228364520418]], [[0.4123162496977797, -0.4123162496977784]], [[0.41240387156232916, -0.4124038715623279]], [[0.4124912310642696, -0.4124912310642684]], [[0.4125783291492698, -0.41257832914926856]], [[0.4126651667584944, -0.41266516675849313]], [[0.41275174482863275, -0.4127517448286315]], [[0.41283806429192743, -0.4128380642919262]], [[0.41292412607620277, -0.41292412607620155]], [[0.41300993110489276, -0.41300993110489154]], [[0.41309548029706905, -0.4130954802970678]], [[0.4131807745674685, -0.41318077456746716]], [[0.4132658148265207, -0.4132658148265194]], [[0.4133506019803754, -0.4133506019803741]], [[0.4134351369309291, -0.4134351369309278]], [[0.4135194205758521, -0.4135194205758509]], [[0.41360345380861513, -0.4136034538086139]], [[0.41368723751851544, -0.4136872375185142]], [[0.41377077259070316, -0.41377077259070194]], [[0.4138540599062072, -0.413854059906206]], [[0.413937100341961, -0.4139371003419598]], [[0.41401989477082796, -0.41401989477082674]], [[0.4141024440616269, -0.4141024440616256]], [[0.41418474907915703, -0.41418474907915576]], [[0.41426681068422316, -0.41426681068422183]], [[0.4143486297336601, -0.41434862973365877]], [[0.41443020708035744, -0.41443020708035605]], [[0.4145115435732837, -0.4145115435732823]], [[0.4145926400575107, -0.4145926400575093]], [[0.4146734973742373, -0.4146734973742359]], [[0.4147541163608135, -0.4147541163608121]], [[0.41483449785076365, -0.4148344978507622]], [[0.41491464267381, -0.41491464267380856]], [[0.41499455165589616, -0.4149945516558947]], [[0.41507422561920976, -0.4150742256192083]], [[0.41515366538220555, -0.4151536653822041]], [[0.41523287175962814, -0.41523287175962664]], [[0.41531184556253425, -0.41531184556253276]], [[0.4153905875983154, -0.4153905875983138]], [[0.4154690986707197, -0.4154690986707181]], [[0.41554737957987414, -0.41554737957987253]], [[0.41562543112230643, -0.4156254311223048]], [[0.41570325409096637, -0.41570325409096476]], [[0.4157808492752476, -0.41578084927524595]], [[0.4158582174610089, -0.41585821746100726]], [[0.4159353594305953, -0.4159353594305937]], [[0.41601227596285895, -0.4160122759628574]], [[0.4160889678331803, -0.4160889678331788]], [[0.4161654358134885, -0.41616543581348703]], [[0.4162416806722822, -0.4162416806722807]], [[0.41631770317464944, -0.41631770317464795]], [[0.4163935040822885, -0.416393504082287]], [[0.41646908415352746, -0.4164690841535259]], [[0.41654444414334435, -0.41654444414334285]], [[0.416619584803387, -0.4166195848033855]], [[0.4166945068819924, -0.4166945068819909]], [[0.4167692111242063, -0.4167692111242048]], [[0.4168436982718026, -0.4168436982718011]], [[0.41691796906330253, -0.41691796906330103]], [[0.4169920242339935, -0.416992024233992]], [[0.4170658645159482, -0.4170658645159467]], [[0.4171394906380432, -0.4171394906380417]], [[0.41721290332597766, -0.41721290332597616]], [[0.4172861033022919, -0.4172861033022903]], [[0.41735909128638543, -0.4173590912863839]], [[0.4174318679945355, -0.41743186799453397]], [[0.4175044341399149, -0.41750443413991334]], [[0.41757679043261003, -0.41757679043260854]], [[0.4176489375796388, -0.4176489375796373]], [[0.41772087628496796, -0.4177208762849664]], [[0.41779260724953104, -0.4177926072495295]], [[0.41786413117124555, -0.41786413117124405]], [[0.4179354487450302, -0.4179354487450287]], [[0.41800656066282227, -0.41800656066282077]], [[0.4180774676135945, -0.418077467613593]], [[0.4181481702833719, -0.4181481702833705]], [[0.418218669355249, -0.41821866935524754]], [[0.41828896550940575, -0.4182889655094043]], [[0.4183590594231248, -0.4183590594231233]], [[0.41842895177080736, -0.41842895177080586]], [[0.41849864322399005, -0.4184986432239885]], [[0.41856813445136054, -0.418568134451359]], [[0.41863742611877397, -0.41863742611877247]], [[0.41870651888926885, -0.41870651888926735]], [[0.4187754134230828, -0.4187754134230813]], [[0.4188441103776682, -0.4188441103776667]], [[0.4189126104077082, -0.4189126104077067]], [[0.4189809141651318, -0.4189809141651302]], [[0.4190490222991292, -0.41904902229912766]], [[0.41911693545616757, -0.419116935456166]], [[0.41918465428000573, -0.41918465428000423]], [[0.4192521794117095, -0.419252179411708]], [[0.41931951148966645, -0.41931951148966495]], [[0.4193866511496009, -0.4193866511495994]], [[0.41945359902458856, -0.41945359902458706]], [[0.4195203557450713, -0.41952035574506974]], [[0.4195869219388715, -0.41958692193886993]], [[0.4196532982312066, -0.41965329823120506]], [[0.41971948524470354, -0.419719485244702]], [[0.4197854835994127, -0.41978548359941115]], [[0.41985129391282233, -0.4198512939128207]], [[0.4199169167998723, -0.41991691679987064]], [[0.41998235287296826, -0.4199823528729666]], [[0.4200476027419954, -0.4200476027419937]], [[0.4201126670143321, -0.4201126670143304]], [[0.42017754629486376, -0.42017754629486215]], [[0.4202422411859962, -0.42024224118599457]], [[0.42030675228766906, -0.4203067522876674]], [[0.4203710801973694, -0.42037108019736774]], [[0.4204352255101447, -0.42043522551014295]], [[0.420499188818616, -0.4204991888186143]], [[0.4205629707129914, -0.4205629707129898]], [[0.4206265717810788, -0.4206265717810772]], [[0.42068999260829854, -0.420689992608297]], [[0.42075323377769663, -0.4207532337776951]], [[0.4208162958699572, -0.4208162958699557]], [[0.4208791794634154, -0.4208791794634139]], [[0.4209418851340696, -0.42094188513406816]], [[0.4210044134555942, -0.42100441345559275]], [[0.4210667649993518, -0.4210667649993503]], [[0.42112894033440557, -0.42112894033440407]], [[0.4211909400275314, -0.4211909400275299]], [[0.4212527646432301, -0.42125276464322864]], [[0.42131441474373954, -0.4213144147437381]], [[0.42137589088904637, -0.4213758908890449]], [[0.4214371936368981, -0.4214371936368966]], [[0.4214983235428147, -0.4214983235428132]], [[0.4215592811601006, -0.4215592811600991]], [[0.4216200670398562, -0.4216200670398547]], [[0.4216806817309894, -0.4216806817309879]], [[0.42174112578022704, -0.4217411257802255]], [[0.4218013997321265, -0.4218013997321249]], [[0.4218615041290868, -0.4218615041290852]], [[0.42192143951136, -0.4219214395113584]], [[0.4219812064170625, -0.4219812064170609]], [[0.42204080538218586, -0.42204080538218425]], [[0.422100236940608, -0.42210023694060644]], [[0.4221595016241042, -0.4221595016241027]], [[0.42221859996235794, -0.4222185999623564]], [[0.4222775324829715, -0.42227753248297]], [[0.4223362997114772, -0.4223362997114757]], [[0.4223949021713475, -0.422394902171346]], [[0.4224533403840061, -0.4224533403840046]], [[0.42251161486883815, -0.4225116148688366]], [[0.4225697261432007, -0.42256972614319915]], [[0.4226276747224334, -0.42262767472243185]], [[0.4226854611198685, -0.4226854611198669]], [[0.42274308584684117, -0.42274308584683956]], [[0.4228005494126999, -0.4228005494126983]], [[0.42285785232481643, -0.42285785232481476]], [[0.42291499508859576, -0.4229149950885941]], [[0.4229719782074863, -0.42297197820748456]], [[0.4230288021829896, -0.42302880218298783]], [[0.4230854675146704, -0.4230854675146687]], [[0.42314197470016646, -0.42314197470016474]], [[0.42319832423519804, -0.4231983242351963]], [[0.42325451661357777, -0.42325451661357605]], [[0.42331055232722015, -0.4233105523272184]], [[0.4233664318661512, -0.42336643186614953]], [[0.4234221557185179, -0.4234221557185162]], [[0.42347772437059744, -0.4234777243705958]], [[0.4235331383068069, -0.4235331383068053]], [[0.4235883980097124, -0.42358839800971076]], [[0.42364350396003814, -0.4236435039600365]], [[0.42369845663667594, -0.4236984566366743]], [[0.42375325651669404, -0.42375325651669243]], [[0.42380790407534646, -0.42380790407534485]], [[0.4238623997860817, -0.42386239978608015]], [[0.42391674412055197, -0.42391674412055047]], [[0.4239709375486219, -0.4239709375486204]], [[0.42402498053837745, -0.42402498053837595]], [[0.4240788735561346, -0.42407887355613305]], [[0.42413261706644817, -0.4241326170664466]], [[0.42418621153212044, -0.42418621153211883]], [[0.42423965741420977, -0.4242396574142082]], [[0.42429295517203924, -0.4242929551720377]], [[0.424346105263205, -0.42434610526320343]], [[0.4243991081435847, -0.42439910814358317]], [[0.4244519642673462, -0.42445196426734466]], [[0.4245046740869555, -0.424504674086954]], [[0.42455723805318535, -0.42455723805318385]], [[0.42460965661512323, -0.4246096566151218]], [[0.42466193022017984, -0.4246619302201784]], [[0.4247140593140969, -0.42471405931409545]], [[0.42476604434095555, -0.4247660443409541]], [[0.4248178857431841, -0.4248178857431827]], [[0.4248695839615662, -0.4248695839615648]], [[0.4249211394352489, -0.42492113943524745]], [[0.42497255260175004, -0.42497255260174854]], [[0.42502382389696663, -0.4250238238969651]], [[0.42507495375518234, -0.4250749537551808]], [[0.4251259426090754, -0.4251259426090738]], [[0.42517679088972604, -0.4251767908897245]], [[0.4252274990266245, -0.42522749902662293]], [[0.42527806744767827, -0.42527806744767677]], [[0.42532849657921995, -0.42532849657921845]], [[0.4253787868460145, -0.425378786846013]], [[0.42542893867126685, -0.4254289386712653]], [[0.4254789524766292, -0.42547895247662765]], [[0.42552882868220854, -0.425528828682207]], [[0.4255785677065739, -0.4255785677065723]], [[0.42562816996676345, -0.42562816996676195]], [[0.42567763587829216, -0.42567763587829066]], [[0.4257269658551585, -0.425726965855157]], [[0.4257761603098519, -0.4257761603098504]], [[0.4258252196533598, -0.42582521965335823]], [[0.4258741442951745, -0.42587414429517295]], [[0.4259229346433006, -0.42592293464329906]], [[0.4259715911042616, -0.42597159110426]], [[0.42602011408310675, -0.4260201140831052]], [[0.42606850398341856, -0.426068503983417]], [[0.4261167612073189, -0.4261167612073173]], [[0.42616488615547626, -0.42616488615547465]], [[0.4262128792271124, -0.42621287922711076]], [[0.4262607408200089, -0.4262607408200073]], [[0.42630847133051436, -0.42630847133051275]], [[0.42635607115355034, -0.42635607115354873]], [[0.4264035406826185, -0.4264035406826169]], [[0.42645088030980693, -0.4264508803098053]], [[0.4264980904257968, -0.4264980904257952]], [[0.4265451714198687, -0.4265451714198671]], [[0.4265921236799092, -0.42659212367990756]], [[0.4266389475924172, -0.42663894759241566]], [[0.4266856435425105, -0.42668564354250893]], [[0.42673221191393174, -0.4267322119139302]], [[0.42677865308905505, -0.4267786530890535]], [[0.4268249674488922, -0.4268249674488906]], [[0.4268711553730987, -0.4268711553730971]], [[0.4269172172399803, -0.42691721723997866]], [[0.42696315342649865, -0.42696315342649704]], [[0.42700896430827795, -0.42700896430827634]], [[0.42705465025961065, -0.42705465025960904]], [[0.4271002116534637, -0.42710021165346207]], [[0.42714564886148443, -0.4271456488614827]], [[0.4271909622540065, -0.42719096225400477]], [[0.42723615220005606, -0.4272361522000543]], [[0.4272812190673574, -0.4272812190673556]], [[0.4273261632223389, -0.42732616322233713]], [[0.42737098503013904, -0.42737098503013726]], [[0.42741568485461184, -0.42741568485461007]], [[0.42746026305833296, -0.4274602630583312]], [[0.42750472000260525, -0.4275047200026035]], [[0.4275490560474645, -0.42754905604746274]], [[0.4275932715516852, -0.4275932715516834]], [[0.4276373668727859, -0.42763736687278414]], [[0.4276813423670352, -0.4276813423670334]], [[0.427725198389457, -0.4277251983894552]], [[0.42776893529383614, -0.42776893529383436]], [[0.427812553432724, -0.42781255343272223]], [[0.4278560531574438, -0.427856053157442]], [[0.4278994348180962, -0.42789943481809445]], [[0.4279426987635647, -0.42794269876356295]], [[0.4279858453415209, -0.42798584534151907]], [[0.42802887489842983, -0.428028874898428]], [[0.4280717877795555, -0.4280717877795537]], [[0.42811458432896604, -0.4281145843289642]], [[0.42815726488953887, -0.42815726488953704]], [[0.4281998298029661, -0.42819982980296434]], [[0.42824227940975973, -0.4282422794097579]], [[0.4282846140492566, -0.4282846140492548]], [[0.42832683405962374, -0.4283268340596219]], [[0.42836893977786344, -0.4283689397778616]], [[0.4284109315398183, -0.42841093153981646]], [[0.4284528096801763, -0.42845280968017446]], [[0.42849457453247586, -0.42849457453247397]], [[0.4285362264291107, -0.4285362264291089]], [[0.42857776570133505, -0.4285777657013332]], [[0.4286191926792684, -0.4286191926792665]], [[0.42866050769190045, -0.42866050769189856]], [[0.42870171106709604, -0.42870171106709415]], [[0.42874280313159996, -0.42874280313159807]], [[0.4287837842110419, -0.42878378421104]], [[0.42882465462994107, -0.4288246546299392]], [[0.42886541471171113, -0.42886541471170925]], [[0.4289060647786649, -0.428906064778663]], [[0.428946605152019, -0.4289466051520171]], [[0.4289870361518987, -0.4289870361518968]], [[0.42902735809734255, -0.4290273580973406]], [[0.4290675713063069, -0.42906757130630496]], [[0.42910767609567074, -0.4291076760956688]], [[0.42914767278124005, -0.4291476727812381]], [[0.42918756167775257, -0.42918756167775063]], [[0.42922734309888233, -0.42922734309888033]], [[0.429267017357244, -0.42926701735724204]], [[0.42930658476439765, -0.42930658476439565]], [[0.42934604563085293, -0.42934604563085094]], [[0.42938540026607375, -0.42938540026607175]], [[0.42942464897848265, -0.42942464897848065]], [[0.42946379207546515, -0.42946379207546315]], [[0.4295028298633741, -0.4295028298633721]], [[0.42954176264753424, -0.4295417626475322]], [[0.42958059073224614, -0.429580590732244]], [[0.4296193144207908, -0.4296193144207887]], [[0.429657934015434, -0.42965793401543195]], [[0.4296964498174303, -0.42969644981742827]], [[0.4297348621270275, -0.42973486212702544]], [[0.42977317124347053, -0.4297731712434685]], [[0.42981137746500614, -0.4298113774650041]], [[0.42984948108888665, -0.42984948108888454]], [[0.4298874824113742, -0.4298874824113721]], [[0.42992538172774497, -0.42992538172774286]], [[0.4299631793322932, -0.4299631793322911]], [[0.4300008755183353, -0.4300008755183332]], [[0.4300384705782139, -0.4300384705782118]], [[0.43007596480330185, -0.43007596480329974]], [[0.43011335848400617, -0.4301133584840041]], [[0.4301506519097723, -0.43015065190977025]], [[0.4301878453690879, -0.4301878453690859]], [[0.4302249391494867, -0.4302249391494847]], [[0.4302619335375525, -0.4302619335375505]], [[0.43029882881892323, -0.43029882881892123]], [[0.43033562527829466, -0.43033562527829267]], [[0.4303723231994243, -0.4303723231994223]], [[0.4304089228651354, -0.43040892286513344]], [[0.4304454245573205, -0.43044542455731855]], [[0.4304818285569454, -0.43048182855694345]], [[0.430518135144053, -0.4305181351440511]], [[0.430554344597767, -0.43055434459776504]], [[0.43059045719629546, -0.4305904571962935]], [[0.430626473216935, -0.43062647321693304]], [[0.43066239293607395, -0.430662392936072]], [[0.43069821662919644, -0.43069821662919455]], [[0.43073394457088593, -0.43073394457088404]], [[0.4307695770348289, -0.430769577034827]], [[0.43080511429381824, -0.43080511429381635]], [[0.4308405566197573, -0.43084055661975534]], [[0.43087590428366307, -0.4308759042836612]], [[0.43091115755567005, -0.4309111575556681]], [[0.43094631670503364, -0.43094631670503164]], [[0.43098138200013364, -0.43098138200013164]], [[0.43101635370847796, -0.43101635370847596]], [[0.431051232096706, -0.43105123209670393]], [[0.43108601743059205, -0.43108601743059005]], [[0.431120709975049, -0.431120709975047]], [[0.4311553099941315, -0.43115530999412943]], [[0.43118981775103954, -0.4311898177510375]], [[0.4312242335081219, -0.4312242335081199]], [[0.43125855752687947, -0.4312585575268775]], [[0.43129279006796867, -0.43129279006796667]], [[0.4313269313912047, -0.4313269313912027]], [[0.4313609817555651, -0.43136098175556303]], [[0.4313949414191927, -0.4313949414191907]], [[0.43142881063939953, -0.43142881063939753]], [[0.4314625896726695, -0.43146258967266743]], [[0.43149627877466185, -0.4314962787746598]], [[0.4315298782002147, -0.4315298782002127]], [[0.43156338820334805, -0.43156338820334605]], [[0.43159680903726694, -0.43159680903726494]], [[0.4316301409543647, -0.43163014095436275]], [[0.4316633842062263, -0.43166338420622435]], [[0.4316965390436315, -0.43169653904362953]], [[0.4317296057165577, -0.4317296057165558]], [[0.4317625844741836, -0.4317625844741816]], [[0.4317954755648917, -0.4317954755648896]], [[0.43182827923627193, -0.4318282792362699]], [[0.4318609957351247, -0.4318609957351226]], [[0.43189362530746367, -0.43189362530746156]], [[0.43192616819851903, -0.4319261681985169]], [[0.43195862465274065, -0.4319586246527385]], [[0.4319909949138008, -0.4319909949137986]], [[0.4320232792245975, -0.43202327922459527]], [[0.43205547782725734, -0.4320554778272551]], [[0.43208759096313853, -0.4320875909631363]], [[0.4321196188728339, -0.4321196188728317]], [[0.4321515617961737, -0.4321515617961715]], [[0.4321834199722288, -0.4321834199722266]], [[0.43221519363931343, -0.43221519363931127]], [[0.4322468830349882, -0.43224688303498604]], [[0.4322784883960629, -0.43227848839606076]], [[0.4323100099585996, -0.4323100099585974]], [[0.4323414479579151, -0.43234144795791296]], [[0.43237280262858446, -0.4323728026285823]], [[0.4324040742044431, -0.43240407420444094]], [[0.43243526291859014, -0.43243526291858797]], [[0.432466369003391, -0.43246636900338886]], [[0.4324973926904805, -0.4324973926904783]], [[0.4325283342107651, -0.4325283342107629]], [[0.4325591937944262, -0.432559193794424]], [[0.43258997167092267, -0.4325899716709204]], [[0.43262066806899363, -0.43262066806899135]], [[0.43265128321666113, -0.43265128321665886]], [[0.432681817341233, -0.4326818173412308]], [[0.43271227066930557, -0.43271227066930334]], [[0.43274264342676616, -0.43274264342676394]], [[0.432772935838796, -0.43277293583879367]], [[0.4328031481298727, -0.43280314812987036]], [[0.43283328052377307, -0.4328332805237707]], [[0.43286333324357573, -0.43286333324357334]], [[0.43289330651166374, -0.4328933065116613]], [[0.43292320054972705, -0.4329232005497246]], [[0.4329530155787654, -0.43295301557876303]], [[0.4329827518190908, -0.43298275181908846]], [[0.43301240949032993, -0.43301240949032765]], [[0.4330419888114271, -0.4330419888114248]], [[0.4330714900006463, -0.4330714900006441]], [[0.43310091327557426, -0.43310091327557204]], [[0.4331302588531226, -0.4331302588531204]], [[0.43315952694953064, -0.4331595269495284]], [[0.43318871778036755, -0.4331887177803654]], [[0.4332178315605353, -0.4332178315605331]], [[0.43324686850427063, -0.4332468685042686]], [[0.4332758288251482, -0.4332758288251461]], [[0.43330471273608234, -0.43330471273608023]], [[0.4333335204493299, -0.43333352044932777]], [[0.43336225217649266, -0.43336225217649055]], [[0.43339090812851966, -0.43339090812851755]], [[0.43341948851570966, -0.43341948851570755]], [[0.4334479935477136, -0.4334479935477115]], [[0.4334764234335369, -0.4334764234335348]], [[0.43350477838154194, -0.4335047783815399]], [[0.4335330585994504, -0.43353305859944835]], [[0.43356126429434544, -0.4335612642943434]], [[0.43358939567267435, -0.43358939567267224]], [[0.43361745294025067, -0.4336174529402485]], [[0.43364543630225666, -0.43364543630225444]], [[0.43367334596324547, -0.43367334596324325]], [[0.4337011821271436, -0.43370118212714137]], [[0.4337289449972531, -0.4337289449972509]], [[0.4337566347762539, -0.43375663477625165]], [[0.433784251666206, -0.4337842516662037]], [[0.43381179586855173, -0.43381179586854945]], [[0.4338392675841183, -0.433839267584116]], [[0.4338666670131196, -0.43386666701311727]], [[0.4338939943551587, -0.4338939943551564]], [[0.43392124980923, -0.43392124980922775]], [[0.43394843357372154, -0.43394843357371926]], [[0.43397554584641695, -0.4339755458464146]], [[0.43400258682449794, -0.4340025868244956]], [[0.4340295567045463, -0.43402955670454396]], [[0.4340564556825461, -0.4340564556825438]], [[0.4340832839538859, -0.4340832839538836]], [[0.4341100417133609, -0.4341100417133586]], [[0.4341367291551749, -0.4341367291551727]], [[0.4341633464729429, -0.4341633464729407]], [[0.4341898938596926, -0.4341898938596903]], [[0.43421637150786685, -0.4342163715078646]], [[0.4342427796093259, -0.4342427796093236]], [[0.43426911835534915, -0.43426911835534693]], [[0.4342953879366375, -0.4342953879366353]], [[0.43432158854331526, -0.43432158854331304]], [[0.4343477203649323, -0.4343477203649301]], [[0.43437378359046613, -0.4343737835904639]], [[0.4343997784083238, -0.43439977840832156]], [[0.43442570500634403, -0.4344257050063418]], [[0.4344515635717994, -0.4344515635717972]], [[0.4344773542913981, -0.4344773542913959]], [[0.434503077351286, -0.4345030773512838]], [[0.4345287329370489, -0.4345287329370467]], [[0.4345543212337141, -0.4345543212337119]], [[0.43457984242575276, -0.43457984242575054]], [[0.43460529669708164, -0.4346052966970794]], [[0.43463068423106516, -0.434630684231063]], [[0.4346560052105174, -0.4346560052105153]], [[0.43468125981770395, -0.43468125981770184]], [[0.43470644823434385, -0.4347064482343418]], [[0.43473157064161166, -0.43473157064160967]], [[0.43475662722013925, -0.4347566272201373]], [[0.4347816181500177, -0.43478161815001576]], [[0.4348065436107993, -0.43480654361079735]], [[0.4348314037814993, -0.43483140378149737]], [[0.43485619884059806, -0.4348561988405961]], [[0.4348809289660426, -0.4348809289660407]], [[0.4349055943352487, -0.43490559433524684]], [[0.43493019512510284, -0.43493019512510095]], [[0.4349547315119637, -0.4349547315119618]], [[0.43497920367166426, -0.4349792036716624]], [[0.43500361177951374, -0.4350036117795118]], [[0.43502795601029914, -0.4350279560102972]], [[0.4350522365382873, -0.43505223653828534]], [[0.4350764535372265, -0.4350764535372246]], [[0.4351006071803486, -0.43510060718034665]], [[0.4351246976403705, -0.4351246976403686]], [[0.43514872508949604, -0.4351487250894942]], [[0.4351726896994179, -0.4351726896994161]], [[0.43519659164131924, -0.4351965916413174]], [[0.43522043108587544, -0.43522043108587366]], [[0.4352442082032561, -0.4352442082032544]], [[0.43526792316312646, -0.4352679231631248]], [[0.4352915761346494, -0.43529157613464775]], [[0.43531516728648706, -0.4353151672864854]], [[0.4353386967868026, -0.4353386967868009]], [[0.4353621648032618, -0.4353621648032602]], [[0.43538557150303503, -0.4353855715030335]], [[0.4354089170527988, -0.4354089170527973]], [[0.4354322016187375, -0.435432201618736]], [[0.435455425366545, -0.4354554253665435]], [[0.43547858846142645, -0.43547858846142495]], [[0.4355016910680999, -0.43550169106809833]], [[0.43552473335079794, -0.43552473335079633]], [[0.4355477154732695, -0.43554771547326787]], [[0.43557063759878134, -0.4355706375987798]], [[0.43559349989011986, -0.4355934998901183]], [[0.4356163025095926, -0.43561630250959105]], [[0.43563904561903, -0.43563904561902844]], [[0.4356617293797868, -0.43566172937978526]], [[0.4356843539527441, -0.4356843539527425]], [[0.43570691949831036, -0.43570691949830875]], [[0.43572942617642363, -0.43572942617642196]], [[0.43575187414655275, -0.4357518741465511]], [[0.4357742635676991, -0.4357742635676974]], [[0.43579659459839815, -0.4357965945983964]], [[0.43581886739672093, -0.43581886739671927]], [[0.43584108212027595, -0.4358410821202743]], [[0.4358632389262103, -0.4358632389262087]], [[0.43588533797121165, -0.43588533797121004]], [[0.4359073794115095, -0.43590737941150787]], [[0.43592936340287675, -0.43592936340287514]], [[0.4359512901006315, -0.43595129010062983]], [[0.43597315965963823, -0.43597315965963657]], [[0.4359949722343097, -0.435994972234308]], [[0.43601672797860813, -0.4360167279786064]], [[0.43603842704604684, -0.4360384270460451]], [[0.4360600695896919, -0.4360600695896902]], [[0.43608165576216346, -0.43608165576216174]], [[0.43610318571563733, -0.43610318571563556]], [[0.4361246596018464, -0.43612465960184466]], [[0.4361460775720822, -0.43614607757208046]], [[0.43616743977719635, -0.43616743977719463]], [[0.4361887463676021, -0.4361887463676003]], [[0.4362099974932755, -0.43620999749327366]], [[0.43623119330375737, -0.4362311933037555]], [[0.43625233394815427, -0.4362523339481524]], [[0.4362734195751402, -0.4362734195751383]], [[0.4362944503329581, -0.4362944503329562]], [[0.43631542636942106, -0.43631542636941917]], [[0.43633634783191394, -0.43633634783191205]], [[0.4363572148673947, -0.43635721486739276]], [[0.43637802762239575, -0.4363780276223938]], [[0.4363987862430256, -0.43639878624302364]], [[0.43641949087497006, -0.43641949087496806]], [[0.4364401416634937, -0.4364401416634917]], [[0.43646073875344127, -0.43646073875343927]], [[0.43648128228923905, -0.43648128228923705]], [[0.4365017724148963, -0.4365017724148943]], [[0.43652220927400653, -0.43652220927400454]], [[0.43654259300974896, -0.4365425930097469]], [[0.43656292376488987, -0.43656292376488776]], [[0.4365832016817839, -0.43658320168178183]], [[0.4366034269023756, -0.4366034269023735]], [[0.43662359956820046, -0.43662359956819846]], [[0.4366437198203867, -0.43664371982038463]], [[0.43666378779965603, -0.436663787799654]], [[0.43668380364632553, -0.4366838036463235]], [[0.4367037675003087, -0.4367037675003066]], [[0.4367236795011168, -0.4367236795011147]], [[0.4367435397878602, -0.43674353978785807]], [[0.4367633484992497, -0.4367633484992476]], [[0.43678310577359786, -0.43678310577359575]], [[0.4368028117488203, -0.43680281174881824]], [[0.436822466562437, -0.43682246656243495]], [[0.43684207035157346, -0.43684207035157147]], [[0.43686162325296224, -0.43686162325296024]], [[0.43688112540294394, -0.4368811254029419]], [[0.43690057693746875, -0.4369005769374666]], [[0.4369199779920975, -0.43691997799209537]], [[0.43693932870200314, -0.436939328702001]], [[0.43695862920197187, -0.4369586292019697]], [[0.4369778796264044, -0.4369778796264023]], [[0.4369970801093172, -0.4369970801093151]], [[0.4370162307843439, -0.43701623078434176]], [[0.4370353317847362, -0.4370353317847341]], [[0.43705438324336543, -0.4370543832433633]], [[0.43707338529272366, -0.43707338529272155]], [[0.4370923380649249, -0.4370923380649228]], [[0.43711124169170645, -0.43711124169170434]], [[0.43713009630442984, -0.43713009630442773]], [[0.4371489020340823, -0.4371489020340802]], [[0.4371676590112779, -0.43716765901127586]], [[0.4371863673662588, -0.43718636736625677]], [[0.43720502722889637, -0.43720502722889426]], [[0.43722363872869224, -0.43722363872869013]], [[0.43724220199477987, -0.43724220199477776]], [[0.43726071715592535, -0.4372607171559232]], [[0.43727918434052887, -0.4372791843405267]], [[0.4372976036766257, -0.4372976036766235]], [[0.4373159752918875, -0.4373159752918853]], [[0.43733429931362333, -0.43733429931362117]], [[0.437352575868781, -0.4373525758687788]], [[0.43737080508394804, -0.43737080508394577]], [[0.43738898708535295, -0.4373889870853506]], [[0.4374071219988664, -0.437407121998864]], [[0.43742520995000217, -0.4374252099499998]], [[0.4374432510639186, -0.43744325106391624]], [[0.43746124546541953, -0.43746124546541715]], [[0.4374791932789554, -0.43747919327895296]], [[0.43749709462862435, -0.43749709462862196]], [[0.4375149496381736, -0.4375149496381712]], [[0.43753275843100037, -0.4375327584309979]], [[0.4375505211301528, -0.43755052113015036]], [[0.4375682378583315, -0.43756823785832905]], [[0.4375859087378904, -0.4375859087378879]], [[0.4376035338908377, -0.43760353389083523]], [[0.4376211134388374, -0.4376211134388349]], [[0.43763864750320997, -0.4376386475032074]], [[0.43765613620493354, -0.437656136204931]], [[0.4376735796646452, -0.4376735796646427]], [[0.4376909780026419, -0.4376909780026394]], [[0.4377083313388815, -0.437708331338879]], [[0.4377256397929839, -0.4377256397929814]], [[0.4377429034842321, -0.4377429034842296]], [[0.4377601225315733, -0.4377601225315708]], [[0.43777729705361984, -0.4377772970536174]], [[0.4377944271686504, -0.43779442716864797]], [[0.4378115129946111, -0.4378115129946086]], [[0.4378285546491161, -0.4378285546491135]], [[0.4378455522494492, -0.43784555224944666]], [[0.43786250591256476, -0.4378625059125622]], [[0.43787941575508843, -0.4378794157550859]], [[0.4378962818933185, -0.43789628189331586]], [[0.4379131044432266, -0.437913104443224]], [[0.4379298835204593, -0.4379298835204567]], [[0.43794661924033845, -0.43794661924033584]], [[0.4379633117178626, -0.43796331171786]], [[0.43797996106770803, -0.4379799610677054]], [[0.4379965674042295, -0.4379965674042269]], [[0.4380131308414614, -0.4380131308414587]], [[0.4380296514931188, -0.4380296514931162]], [[0.43804612947259847, -0.43804612947259586]], [[0.4380625648929797, -0.43806256489297707]], [[0.43807895786702544, -0.4380789578670228]], [[0.4380953085071832, -0.43809530850718054]], [[0.4381116169255861, -0.4381116169255834]], [[0.4381278832340538, -0.43812788323405116]], [[0.4381441075440936, -0.43814410754409094]], [[0.4381602899669011, -0.43816028996689843]], [[0.4381764306133615, -0.43817643061335887]], [[0.43819252959405036, -0.43819252959404775]], [[0.43820858701923476, -0.43820858701923215]], [[0.438224602998874, -0.43822460299887145]], [[0.4382405776426208, -0.4382405776426183]], [[0.43825651105982205, -0.43825651105981955]], [[0.4382724033595199, -0.4382724033595174]], [[0.4382882546504526, -0.4382882546504501]], [[0.4383040650410555, -0.438304065041053]], [[0.438319834639462, -0.4383198346394595]], [[0.43833556355350434, -0.43833556355350184]], [[0.4383512518907147, -0.4383512518907123]], [[0.4383668997583262, -0.4383668997583237]], [[0.4383825072632735, -0.438382507263271]], [[0.4383980745121939, -0.4383980745121914]], [[0.4384136016114285, -0.43841360161142606]], [[0.4384290886670226, -0.43842908866702024]], [[0.4384445357847271, -0.43844453578472475]], [[0.438459943069999, -0.43845994306999664]], [[0.43847531062800266, -0.43847531062800027]], [[0.4384906385636103, -0.43849063856360787]], [[0.43850592698140334, -0.4385059269814009]], [[0.438521175985673, -0.4385211759856706]], [[0.43853638568042125, -0.43853638568041886]], [[0.4385515561693618, -0.43855155616935937]], [[0.4385666875559207, -0.43856668755591827]], [[0.43858177994323766, -0.4385817799432352]], [[0.4385968334341665, -0.4385968334341641]], [[0.4386118481312763, -0.43861184813127385]], [[0.43862682413685206, -0.43862682413684967]], [[0.4386417615528958, -0.4386417615528934]], [[0.4386566604811272, -0.43865666048112484]], [[0.43867152102298473, -0.43867152102298235]], [[0.4386863432796262, -0.4386863432796238]], [[0.4387011273519297, -0.4387011273519273]], [[0.43871587334049456, -0.43871587334049217]], [[0.43873058134564225, -0.43873058134563986]], [[0.43874525146741705, -0.43874525146741467]], [[0.43875988380558695, -0.43875988380558445]], [[0.4387744784596444, -0.43877447845964196]], [[0.43878903552880744, -0.43878903552880505]], [[0.4388035551120202, -0.4388035551120178]], [[0.4388180373079539, -0.43881803730795155]], [[0.43883248221500765, -0.43883248221500537]], [[0.4388468899313094, -0.4388468899313071]], [[0.4388612605547164, -0.43886126055471414]], [[0.4388755941828164, -0.43887559418281413]], [[0.4388898909129283, -0.438889890912926]], [[0.4389041508421029, -0.4389041508421006]], [[0.43891837406712386, -0.43891837406712164]], [[0.4389325606845085, -0.43893256068450626]], [[0.4389467107905083, -0.43894671079050607]], [[0.4389608244811102, -0.438960824481108]], [[0.438974901852037, -0.4389749018520348]], [[0.43898894299874835, -0.4389889429987462]], [[0.4390029480164414, -0.4390029480164393]], [[0.43901691700005185, -0.43901691700004974]], [[0.4390308500442543, -0.43903085004425224]], [[0.4390447472434636, -0.4390447472434615]], [[0.43905860869183505, -0.43905860869183294]], [[0.4390724344832656, -0.4390724344832635]], [[0.43908622471139447, -0.43908622471139236]], [[0.4390999794696039, -0.43909997946960183]], [[0.43911369885102, -0.4391136988510179]], [[0.4391273829485134, -0.43912738294851134]], [[0.4391410318547002, -0.43914103185469816]], [[0.43915464566194257, -0.4391546456619405]], [[0.43916822446234954, -0.4391682244623475]], [[0.4391817683477778, -0.43918176834777567]], [[0.4391952774098324, -0.4391952774098302]], [[0.43920875173986745, -0.4392087517398653]], [[0.4392221914289872, -0.43922219142898505]], [[0.4392355965680464, -0.43923559656804423]], [[0.4392489672476511, -0.43924896724764895]], [[0.43926230355815965, -0.4392623035581575]], [[0.43927560558968315, -0.43927560558968093]], [[0.4392888734320863, -0.43928887343208406]], [[0.4393021071749881, -0.4393021071749859]], [[0.43931530690776277, -0.43931530690776055]], [[0.4393284727195402, -0.439328472719538]], [[0.4393416046992068, -0.43934160469920464]], [[0.4393547029354063, -0.43935470293540413]], [[0.4393677675165403, -0.43936776751653817]], [[0.4393807985307691, -0.439380798530767]], [[0.4393937960660125, -0.4393937960660104]], [[0.4394067602099503, -0.4394067602099482]], [[0.4394196910500232, -0.43941969105002104]], [[0.4394325886734334, -0.4394325886734312]], [[0.4394454531671453, -0.43944545316714306]], [[0.4394582846178862, -0.439458284617884]], [[0.43947108311214733, -0.4394710831121451]], [[0.4394838487361839, -0.4394838487361817]], [[0.4394965815760164, -0.4394965815760142]], [[0.439509281717431, -0.43950928171742876]], [[0.43952194924598015, -0.4395219492459779]], [[0.43953458424698366, -0.43953458424698144]], [[0.43954718680552896, -0.43954718680552674]], [[0.43955975700647204, -0.4395597570064698]], [[0.43957229493443806, -0.43957229493443584]], [[0.43958480067382205, -0.43958480067381983]], [[0.43959727430878953, -0.43959727430878726]], [[0.43960971592327724, -0.43960971592327497]], [[0.43962212560099384, -0.43962212560099156]], [[0.4396345034254204, -0.4396345034254181]], [[0.43964684947981136, -0.43964684947980903]], [[0.439659163847195, -0.43965916384719267]], [[0.43967144661037405, -0.4396714466103717]], [[0.4396836978519266, -0.4396836978519243]], [[0.4396959176542066, -0.4396959176542043]], [[0.4397081060993444, -0.43970810609934213]], [[0.4397202632692477, -0.43972026326924535]], [[0.4397323892456018, -0.4397323892455995]], [[0.4397444841098707, -0.4397444841098684]], [[0.4397565479432975, -0.43975654794329516]], [[0.439768580826905, -0.4397685808269026]], [[0.43978058284149646, -0.4397805828414941]], [[0.4397925540676562, -0.43979255406765394]], [[0.4398044945857504, -0.4398044945857481]], [[0.4398164044759273, -0.439816404475925]], [[0.43982828381811834, -0.439828283818116]], [[0.4398401326920385, -0.43984013269203615]], [[0.439851951177187, -0.4398519511771847]], [[0.439863739352848, -0.4398637393528456]], [[0.43987549729809106, -0.43987549729808867]], [[0.4398872250917719, -0.43988722509176953]], [[0.43989892281253307, -0.43989892281253073]], [[0.43991059053880444, -0.4399105905388021]], [[0.43992222834880385, -0.4399222283488015]], [[0.43993383632053773, -0.43993383632053545]], [[0.4399454145318018, -0.43994541453179953]], [[0.43995696306018156, -0.4399569630601793]], [[0.439968481983053, -0.43996848198305066]], [[0.4399799713775831, -0.43997997137758077]], [[0.4399914313207306, -0.43999143132072827]], [[0.44000286188924637, -0.44000286188924403]], [[0.44001426315967423, -0.4400142631596719]], [[0.44002563520835153, -0.4400256352083492]], [[0.44003697811140957, -0.44003697811140724]], [[0.44004829194477435, -0.4400482919447721]], [[0.4400595767841672, -0.4400595767841649]], [[0.44007083270510516, -0.4400708327051029]], [[0.4400820597829019, -0.44008205978289966]], [[0.4400932580926679, -0.4400932580926657]], [[0.44010442770931146, -0.44010442770930924]], [[0.44011556870753893, -0.4401155687075367]], [[0.44012668116185555, -0.44012668116185333]], [[0.44013776514656583, -0.44013776514656366]], [[0.4401488207357743, -0.44014882073577216]], [[0.4401598480033861, -0.4401598480033839]], [[0.4401708470231072, -0.4401708470231051]], [[0.4401818178684455, -0.44018181786844346]], [[0.44019276061271106, -0.440192760612709]], [[0.4402036753290167, -0.44020367532901467]], [[0.4402145620902787, -0.4402145620902766]], [[0.44022542096921713, -0.4402254209692151]], [[0.4402362520383568, -0.44023625203835476]], [[0.44024705537002745, -0.4402470553700254]], [[0.44025783103636446, -0.44025783103636246]], [[0.44026857910930944, -0.44026857910930745]], [[0.44027929966061075, -0.4402792996606088]], [[0.44028999276182407, -0.4402899927618221]], [[0.4403006584843128, -0.44030065848431094]], [[0.44031129689924897, -0.44031129689924714]], [[0.4403219080776134, -0.44032190807761157]], [[0.4403324920901965, -0.44033249209019465]], [[0.4403430490075987, -0.44034304900759685]], [[0.4403535789002309, -0.44035357890022914]], [[0.4403640818383155, -0.4403640818383137]], [[0.4403745578918862, -0.44037455789188445]], [[0.440385007130789, -0.4403850071307873]], [[0.44039542962468287, -0.44039542962468115]], [[0.44040582544303986, -0.44040582544303813]], [[0.4404161946551459, -0.4404161946551442]], [[0.44042653733010134, -0.44042653733009957]], [[0.44043685353682127, -0.4404368535368195]], [[0.44044714334403634, -0.44044714334403456]], [[0.4404574068202931, -0.4404574068202913]], [[0.4404676440339545, -0.44046764403395267]], [[0.4404778550532006, -0.44047785505319875]], [[0.44048803994602886, -0.440488039946027]], [[0.4404981987802549, -0.44049819878025304]], [[0.44050833162351277, -0.4405083316235109]], [[0.4405184385432557, -0.4405184385432538]], [[0.4405285196067563, -0.44052851960675443]], [[0.4405385748811076, -0.4405385748811057]], [[0.44054860443322297, -0.44054860443322114]], [[0.44055860832983706, -0.4405586083298352]], [[0.44056858663750603, -0.44056858663750414]], [[0.4405785394226083, -0.4405785394226064]], [[0.44058846675134467, -0.4405884667513428]], [[0.44059836868973945, -0.44059836868973756]], [[0.4406082453036404, -0.44060824530363846]], [[0.4406180966587194, -0.4406180966587175]], [[0.44062792282047314, -0.44062792282047114]], [[0.4406377238542232, -0.4406377238542212]], [[0.440647499825117, -0.440647499825115]], [[0.44065725079812795, -0.440657250798126]], [[0.4406669768380563, -0.44066697683805434]], [[0.44067667800952925, -0.44067667800952726]], [[0.44068635437700165, -0.44068635437699966]], [[0.44069600600475645, -0.44069600600475445]], [[0.4407056329569051, -0.4407056329569031]], [[0.4407152352973884, -0.4407152352973863]], [[0.4407248130899762, -0.44072481308997413]], [[0.44073436639826885, -0.4407343663982668]], [[0.440743895285697, -0.44074389528569496]], [[0.44075339981552236, -0.44075339981552036]], [[0.44076288005083797, -0.44076288005083597]], [[0.440772336054569, -0.440772336054567]], [[0.440781767889473, -0.440781767889471]], [[0.4407911756181403, -0.44079117561813824]], [[0.44080055930299467, -0.44080055930299256]], [[0.4408099190062937, -0.4408099190062916]], [[0.44081925479012923, -0.4408192547901271]], [[0.440828566716428, -0.4408285667164259]], [[0.44083785484695187, -0.44083785484694976]], [[0.44084711924329845, -0.44084711924329634]], [[0.4408563599669014, -0.44085635996689937]], [[0.44086557707903123, -0.4408655770790292]], [[0.4408747706407953, -0.4408747706407932]], [[0.44088394071313863, -0.4408839407131365]], [[0.4408930873568442, -0.440893087356842]], [[0.4409022106325334, -0.44090221063253116]], [[0.4409113106006666, -0.4409113106006643]], [[0.44092038732154337, -0.4409203873215411]], [[0.44092944085530333, -0.44092944085530106]], [[0.4409384712619262, -0.4409384712619239]], [[0.44094747860123246, -0.4409474786012301]], [[0.44095646293288365, -0.4409564629328813]], [[0.440965424316383, -0.44096542431638075]], [[0.4409743628110758, -0.4409743628110735]], [[0.44098327847614976, -0.44098327847614743]], [[0.4409921713706355, -0.4409921713706331]], [[0.4410010415534071, -0.4410010415534047]], [[0.4410098890831822, -0.4410098890831799]], [[0.44101871401852305, -0.4410187140185208]], [[0.44102751641783633, -0.44102751641783405]], [[0.4410362963393739, -0.4410362963393716]], [[0.4410450538412331, -0.4410450538412308]], [[0.44105378898135733, -0.44105378898135505]], [[0.44106250181753637, -0.44106250181753415]], [[0.44107119240740683, -0.44107119240740456]], [[0.4410798608084526, -0.4410798608084503]], [[0.4410885070780051, -0.44108850707800284]], [[0.4410971312732442, -0.4410971312732419]], [[0.44110573345119797, -0.4411057334511957]], [[0.44111431366874365, -0.4411143136687414]], [[0.4411228719826078, -0.44112287198260547]], [[0.4411314084493667, -0.4411314084493644]], [[0.44113992312544703, -0.44113992312544464]], [[0.4411484160671259, -0.44114841606712346]], [[0.4411568873305316, -0.44115688733052916]], [[0.4411653369716439, -0.4411653369716414]], [[0.4411737650462944, -0.4411737650462919]], [[0.441182171610167, -0.4411821716101645]], [[0.44119055671879825, -0.4411905567187958]], [[0.441198920427578, -0.4411989204275756]], [[0.4412072627917495, -0.44120726279174705]], [[0.4412155838664098, -0.44121558386640736]], [[0.44122388370651056, -0.44122388370650806]], [[0.44123216236685797, -0.4412321623668555]], [[0.44124041990211343, -0.44124041990211094]], [[0.4412486563667939, -0.44124865636679145]], [[0.4412568718152723, -0.44125687181526985]], [[0.4412650663017778, -0.44126506630177537]], [[0.4412732398803965, -0.441273239880394]], [[0.4412813926050715, -0.44128139260506893]], [[0.4412895245296034, -0.4412895245296008]], [[0.44129763570765085, -0.4412976357076483]], [[0.44130572619273084, -0.44130572619272823]], [[0.44131379603821896, -0.4413137960382163]], [[0.44132184529734997, -0.4413218452973473]], [[0.44132987402321816, -0.4413298740232155]], [[0.4413378822687777, -0.441337882268775]], [[0.44134587008684295, -0.44134587008684034]], [[0.4413538375300891, -0.44135383753008656]], [[0.4413617846510523, -0.4413617846510498]], [[0.4413697115021301, -0.44136971150212767]], [[0.44137761813558196, -0.4413776181355795]], [[0.44138550460352943, -0.441385504603527]], [[0.4413933709579567, -0.4413933709579543]], [[0.4414012172507109, -0.4414012172507085]], [[0.4414090435335025, -0.4414090435335002]], [[0.44141684985790575, -0.44141684985790347]], [[0.44142463627535894, -0.44142463627535666]], [[0.4414324028371648, -0.4414324028371625]], [[0.44144014959449085, -0.44144014959448863]], [[0.44144787659837004, -0.4414478765983678]], [[0.4414555838997007, -0.44145558389969847]], [[0.4414632715492472, -0.4414632715492449]], [[0.44147093959764017, -0.4414709395976379]], [[0.441478588095377, -0.44147858809537466]], [[0.4414862170928221, -0.44148621709281977]], [[0.44149382664020737, -0.44149382664020503]], [[0.44150141678763244, -0.44150141678763005]], [[0.44150898758506507, -0.44150898758506274]], [[0.4415165390823416, -0.4415165390823393]], [[0.4415240713291672, -0.44152407132916494]], [[0.4415315843751164, -0.44153158437511414]], [[0.4415390782696332, -0.4415390782696309]], [[0.44154655306203155, -0.4415465530620292]], [[0.44155400880149576, -0.4415540088014935]], [[0.4415614455370808, -0.4415614455370786]], [[0.4415688633177127, -0.44156886331771056]], [[0.441576262192189, -0.4415762621921868]], [[0.4415836422091786, -0.44158364220917645]], [[0.44159100341722285, -0.4415910034172207]], [[0.4415983458647353, -0.4415983458647331]], [[0.44160566960000247, -0.44160566960000025]], [[0.44161297467118393, -0.4416129746711817]], [[0.4416202611263127, -0.4416202611263105]], [[0.44162752901329566, -0.4416275290132934]], [[0.4416347783799139, -0.4416347783799116]], [[0.44164200927382297, -0.4416420092738207]], [[0.44164922174255333, -0.44164922174255106]], [[0.4416564158335107, -0.4416564158335084]], [[0.4416635915939762, -0.4416635915939739]], [[0.44167074907110704, -0.4416707490711047]], [[0.4416778883119364, -0.44167788831193405]], [[0.4416850093633742, -0.4416850093633719]], [[0.4416921122722073, -0.441692112272205]], [[0.44169919708509975, -0.4416991970850975]], [[0.44170626384859313, -0.44170626384859085]], [[0.441713312609107, -0.44171331260910474]], [[0.4417203434129392, -0.4417203434129369]], [[0.441727356306266, -0.4417273563062637]], [[0.44173435133514266, -0.4417343513351404]], [[0.44174132854550374, -0.44174132854550147]], [[0.4417482879831633, -0.44174828798316107]], [[0.4417552296938153, -0.44175522969381315]], [[0.44176215372303407, -0.44176215372303185]], [[0.44176906011627426, -0.44176906011627204]], [[0.44177594891887156, -0.4417759489188693]], [[0.4417828201760428, -0.44178282017604054]], [[0.4417896739328864, -0.4417896739328841]], [[0.44179651023438254, -0.4417965102343802]], [[0.44180332912539366, -0.44180332912539133]], [[0.4418101306506647, -0.4418101306506623]], [[0.44181691485482333, -0.44181691485482094]], [[0.44182368178238035, -0.441823681782378]], [[0.44183043147773016, -0.44183043147772777]], [[0.44183716398515077, -0.4418371639851484]], [[0.44184387934880437, -0.441843879348802]], [[0.4418505776127375, -0.4418505776127351]], [[0.44185725882088145, -0.44185725882087906]], [[0.4418639230170525, -0.44186392301705013]], [[0.44187057024495235, -0.44187057024494997]], [[0.4418772005481683, -0.4418772005481659]], [[0.4418838139701736, -0.44188381397017124]], [[0.44189041055432776, -0.44189041055432543]], [[0.4418969903438769, -0.44189699034387464]], [[0.4419035533819542, -0.4419035533819519]], [[0.44191009971157974, -0.4419100997115774]], [[0.44191662937566123, -0.4419166293756589]], [[0.4419231424169942, -0.4419231424169919]], [[0.44192963887826237, -0.44192963887826003]], [[0.44193611880203776, -0.4419361188020354]], [[0.44194258223078114, -0.4419425822307788]], [[0.44194902920684237, -0.44194902920684004]], [[0.4419554597724606, -0.44195545977245826]], [[0.4419618739697645, -0.44196187396976216]], [[0.44196827184077286, -0.44196827184077053]], [[0.4419746534273945, -0.44197465342739223]], [[0.4419810187714289, -0.44198101877142665]], [[0.4419873679145664, -0.4419873679145641]], [[0.44199370089838813, -0.4419937008983859]], [[0.442000017764367, -0.4420000177643648]], [[0.44200631855386746, -0.44200631855386524]], [[0.4420126033081459, -0.44201260330814374]], [[0.4420188720683511, -0.44201887206834894]], [[0.4420251248755244, -0.4420251248755222]], [[0.4420313617706, -0.44203136177059776]], [[0.44203758279440514, -0.4420375827944029]], [[0.4420437879876607, -0.4420437879876585]], [[0.4420499773909812, -0.44204997739097895]], [[0.44205615104487506, -0.4420561510448729]], [[0.4420623089897453, -0.4420623089897432]], [[0.44206845126588934, -0.44206845126588723]], [[0.44207457791349947, -0.4420745779134974]], [[0.4420806889726632, -0.4420806889726612]], [[0.4420867844833635, -0.4420867844833615]], [[0.44209286448547896, -0.44209286448547697]], [[0.44209892901878434, -0.44209892901878234]], [[0.4421049781229505, -0.4421049781229485]], [[0.44211101183754503, -0.44211101183754303]], [[0.44211703020203236, -0.44211703020203036]], [[0.44212303325577396, -0.4421230332557719]], [[0.4421290210380287, -0.44212902103802665]], [[0.44213499358795316, -0.44213499358795116]], [[0.442140950944602, -0.4421409509446]], [[0.4421468931469279, -0.4421468931469259]], [[0.4421528202337822, -0.4421528202337802]], [[0.44215873224391505, -0.44215873224391306]], [[0.44216462921597544, -0.44216462921597344]], [[0.44217051118851186, -0.4421705111885099]], [[0.4421763781999724, -0.4421763781999704]], [[0.4421822302887049, -0.44218223028870296]], [[0.44218806749295747, -0.4421880674929555]], [[0.44219388985087854, -0.4421938898508766]], [[0.44219969740051723, -0.4421996974005153]], [[0.4422054901798236, -0.44220549017982164]], [[0.44221126822664886, -0.44221126822664686]], [[0.4422170315787458, -0.4422170315787438]], [[0.4422227802737689, -0.4422227802737669]], [[0.44222851434927457, -0.4422285143492726]], [[0.4422342338427216, -0.4422342338427196]], [[0.4422399387914713, -0.4422399387914692]], [[0.4422456292327876, -0.44224562923278554]], [[0.44225130520383765, -0.4422513052038356]], [[0.4422569667416919, -0.44225696674168985]], [[0.44226261388332433, -0.4422626138833222]], [[0.44226824666561265, -0.44226824666561054]], [[0.4422738651253389, -0.4422738651253368]], [[0.44227946929918927, -0.4422794692991871]], [[0.44228505922375455, -0.4422850592237524]], [[0.44229063493553045, -0.4422906349355283]], [[0.4422961964709178, -0.44229619647091556]], [[0.4423017438662227, -0.4423017438662205]], [[0.442307277157657, -0.44230727715765483]], [[0.44231279638133836, -0.4423127963813362]], [[0.4423183015732906, -0.44231830157328844]], [[0.4423237927694439, -0.44232379276944167]], [[0.442329270005635, -0.44232927000563277]], [[0.44233473331760753, -0.44233473331760537]], [[0.44234018274101244, -0.4423401827410103]], [[0.4423456183114078, -0.4423456183114057]], [[0.44235104006425946, -0.44235104006425735]], [[0.44235644803494106, -0.44235644803493895]], [[0.44236184225873443, -0.4423618422587323]], [[0.4423672227708297, -0.4423672227708276]], [[0.44237258960632564, -0.44237258960632353]], [[0.4423779428002299, -0.4423779428002278]], [[0.44238328238745916, -0.44238328238745706]], [[0.44238860840283944, -0.44238860840283734]], [[0.44239392088110646, -0.44239392088110435]], [[0.4423992198569056, -0.44239921985690356]], [[0.44240450536479253, -0.4424045053647904]], [[0.44240977743923293, -0.4424097774392309]], [[0.4424150361146033, -0.44241503611460126]], [[0.44242028142519074, -0.4424202814251887]], [[0.4424255134051934, -0.44242551340519143]], [[0.4424307320887209, -0.4424307320887189]], [[0.4424359375097941, -0.4424359375097921]], [[0.44244112970234567, -0.44244112970234367]], [[0.44244630870022034, -0.4424463087002182]], [[0.44245147453717487, -0.44245147453717276]], [[0.4424566272468786, -0.4424566272468765]], [[0.44246176686291355, -0.44246176686291144]], [[0.4424668934187746, -0.44246689341877243]], [[0.4424720069478697, -0.4424720069478675]], [[0.44247710748352026, -0.44247710748351804]], [[0.4424821950589613, -0.4424821950589591]], [[0.44248726970734165, -0.4424872697073394]], [[0.44249233146172423, -0.442492331461722]], [[0.4424973803550861, -0.4424973803550839]], [[0.4425024164203191, -0.4425024164203169]], [[0.4425074396902296, -0.4425074396902274]], [[0.442512450197539, -0.44251245019753677]], [[0.44251744797488396, -0.4425174479748817]], [[0.4425224330548165, -0.4425224330548142]], [[0.44252740546980424, -0.442527405469802]], [[0.4425323652522309, -0.4425323652522286]], [[0.44253731243439604, -0.44253731243439376]], [[0.44254224704851564, -0.4425422470485134]], [[0.4425471691267223, -0.4425471691267201]], [[0.44255207870106533, -0.44255207870106317]], [[0.44255697580351105, -0.4425569758035089]], [[0.442561860465943, -0.4425618604659408]], [[0.442566732720162, -0.44256673272015984]], [[0.4425715925978867, -0.44257159259788453]], [[0.4425764401307536, -0.4425764401307514]], [[0.44258127535031716, -0.442581275350315]], [[0.4425860982880503, -0.4425860982880481]], [[0.44259090897534437, -0.4425909089753422]], [[0.4425957074435095, -0.44259570744350735]], [[0.44260049372377475, -0.4426004937237726]], [[0.44260526784728843, -0.44260526784728627]], [[0.4426100298451181, -0.4426100298451159]], [[0.442614779748251, -0.44261477974824875]], [[0.44261951758759416, -0.4426195175875919]], [[0.44262424339397466, -0.4426242433939724]], [[0.44262895719813977, -0.4426289571981375]], [[0.44263365903075724, -0.44263365903075497]], [[0.44263834892241555, -0.44263834892241327]], [[0.44264302690362395, -0.4426430269036217]], [[0.4426476930048128, -0.44264769300481055]], [[0.4426523472563338, -0.44265234725633157]], [[0.44265698968846007, -0.44265698968845785]], [[0.4426616203313865, -0.4426616203313843]], [[0.4426662392152299, -0.44266623921522763]], [[0.44267084637002907, -0.4426708463700268]], [[0.44267544182574536, -0.44267544182574303]], [[0.44268002561226244, -0.4426800256122601]], [[0.4426845977593869, -0.44268459775938457]], [[0.4426891582968482, -0.4426891582968458]], [[0.44269370725429885, -0.44269370725429646]], [[0.44269824466131485, -0.44269824466131247]], [[0.44270277054739576, -0.4427027705473934]], [[0.4427072849419649, -0.44270728494196243]], [[0.44271178787436927, -0.4427117878743668]], [[0.44271627937388053, -0.44271627937387803]], [[0.4427207594696943, -0.4427207594696918]], [[0.44272522819093096, -0.44272522819092847]], [[0.44272968556663556, -0.442729685566633]], [[0.4427341316257781, -0.4427341316257756]], [[0.4427385663972539, -0.4427385663972513]], [[0.44274298990988337, -0.44274298990988076]], [[0.44274740219241276, -0.44274740219241016]], [[0.4427518032735139, -0.44275180327351127]], [[0.44275619318178455, -0.442756193181782]], [[0.44276057194574875, -0.4427605719457462]], [[0.44276493959385677, -0.4427649395938542]], [[0.44276929615448546, -0.4427692961544829]], [[0.4427736416559384, -0.44277364165593586]], [[0.4427779761264461, -0.4427779761264435]], [[0.4427822995941661, -0.4427822995941635]], [[0.4427866120871834, -0.44278661208718073]], [[0.4427909136335103, -0.4427909136335077]], [[0.44279520426108704, -0.4427952042610844]], [[0.4427994839977815, -0.44279948399777885]], [[0.44280375287138984, -0.4428037528713871]], [[0.44280801090963634, -0.4428080109096336]], [[0.4428122581401738, -0.44281225814017106]], [[0.4428164945905836, -0.44281649459058087]], [[0.44282072028837605, -0.44282072028837327]], [[0.44282493526099037, -0.4428249352609876]], [[0.44282913953579506, -0.4428291395357923]], [[0.44283333314008794, -0.44283333314008516]], [[0.4428375161010965, -0.44283751610109373]], [[0.442841688445978, -0.4428416884459752]], [[0.44284585020181955, -0.44284585020181677]], [[0.44285000139563846, -0.4428500013956357]], [[0.4428541420543823, -0.4428541420543795]], [[0.4428582722049292, -0.44285827220492646]], [[0.442862391874088, -0.44286239187408527]], [[0.4428665010885984, -0.4428665010885956]], [[0.442870599875131, -0.4428705998751282]], [[0.44287468826028786, -0.4428746882602851]], [[0.4428787662706023, -0.4428787662705995]], [[0.4428828339325393, -0.4428828339325365]], [[0.4428868912724956, -0.44288689127249276]], [[0.4428909383167998, -0.442890938316797]], [[0.4428949750917129, -0.44289497509171005]], [[0.4428990016234278, -0.442899001623425]], [[0.44290301793807035, -0.4429030179380675]], [[0.44290702406169874, -0.44290702406169585]], [[0.4429110200203041, -0.44291102002030114]], [[0.4429150058398105, -0.44291500583980764]], [[0.44291898154607545, -0.4429189815460726]], [[0.4429229471648896, -0.4429229471648868]], [[0.44292690272197727, -0.44292690272197444]], [[0.44293084824299644, -0.4429308482429936]], [[0.442934783753539, -0.44293478375353623]], [[0.442938709279131, -0.4429387092791282]], [[0.4429426248452326, -0.44294262484522984]], [[0.4429465304772384, -0.4429465304772357]], [[0.44295042620047775, -0.44295042620047503]], [[0.44295431204021457, -0.44295431204021185]], [[0.4429581880216478, -0.4429581880216451]], [[0.4429620541699115, -0.44296205416990886]], [[0.442965910510075, -0.44296591051007234]], [[0.44296975706714303, -0.4429697570671403]], [[0.44297359386605595, -0.44297359386605323]], [[0.44297742093168996, -0.44297742093168724]], [[0.44298123828885716, -0.4429812382888544]], [[0.44298504596230576, -0.442985045962303]], [[0.44298884397672034, -0.4429888439767175]], [[0.4429926323567218, -0.44299263235671904]], [[0.4429964111268679, -0.44299641112686516]], [[0.44300018031165295, -0.4430001803116502]], [[0.4430039399355083, -0.44300393993550563]], [[0.44300769002280244, -0.4430076900227998]], [[0.44301143059784115, -0.44301143059783854]], [[0.44301516168486765, -0.4430151616848651]], [[0.4430188833080628, -0.4430188833080602]], [[0.4430225954915452, -0.4430225954915426]], [[0.44302629825937145, -0.44302629825936884]], [[0.44302999163553614, -0.4430299916355335]], [[0.4430336756439722, -0.44303367564396967]], [[0.44303735030855107, -0.44303735030854857]], [[0.44304101565308274, -0.44304101565308024]], [[0.44304467170131584, -0.44304467170131334]], [[0.443048318476938, -0.44304831847693554]], [[0.4430519560035759, -0.4430519560035735]], [[0.4430555843047955, -0.44305558430479314]], [[0.4430592034041022, -0.4430592034040998]], [[0.44306281332494074, -0.4430628133249384]], [[0.4430664140906958, -0.4430664140906934]], [[0.4430700057246918, -0.4430700057246894]], [[0.4430735882501932, -0.44307358825019083]], [[0.44307716169040473, -0.44307716169040234]], [[0.44308072606847126, -0.4430807260684689]], [[0.4430842814074784, -0.443084281407476]], [[0.4430878277304523, -0.4430878277304499]], [[0.44309136506035984, -0.44309136506035746]], [[0.44309489342010905, -0.4430948934201066]], [[0.44309841283254886, -0.44309841283254636]], [[0.44310192332046955, -0.4431019233204671]], [[0.44310542490660293, -0.44310542490660054]], [[0.44310891761362226, -0.4431089176136199]], [[0.44311240146414266, -0.4431124014641403]], [[0.443115876480721, -0.44311587648071865]], [[0.4431193426858562, -0.44311934268585385]], [[0.4431228001019894, -0.44312280010198707]], [[0.44312624875150414, -0.4431262487515018]], [[0.44312968865672636, -0.44312968865672403]], [[0.4431331198399247, -0.4431331198399223]], [[0.4431365423233105, -0.4431365423233081]], [[0.44313995612903817, -0.4431399561290358]], [[0.44314336127920506, -0.4431433612792027]], [[0.4431467577958519, -0.4431467577958495]], [[0.44315014570096267, -0.4431501457009603]], [[0.44315352501646504, -0.44315352501646266]], [[0.44315689576423023, -0.44315689576422784]], [[0.44316025796607333, -0.44316025796607095]], [[0.44316361164375345, -0.44316361164375107]], [[0.4431669568189737, -0.44316695681897134]], [[0.44317029351338166, -0.4431702935133793]], [[0.4431736217485691, -0.4431736217485667]], [[0.44317694154607246, -0.4431769415460701]], [[0.4431802529273729, -0.44318025292737057]], [[0.4431835559138964, -0.4431835559138941]], [[0.443186850527014, -0.4431868505270116]], [[0.4431901367880417, -0.44319013678803937]], [[0.443193414718241, -0.4431934147182386]], [[0.4431966843388186, -0.44319668433881615]], [[0.44319994567092696, -0.44319994567092447]], [[0.4432031987356641, -0.4432031987356616]], [[0.44320644355407396, -0.4432064435540715]], [[0.4432096801471465, -0.44320968014714407]], [[0.44321290853581774, -0.44321290853581535]], [[0.44321612874097005, -0.4432161287409676]], [[0.44321934078343217, -0.44321934078342967]], [[0.4432225446839793, -0.44322254468397676]], [[0.44322574046333346, -0.4432257404633309]], [[0.44322892814216347, -0.44322892814216086]], [[0.44323210774108507, -0.44323210774108246]], [[0.44323527928066114, -0.44323527928065853]], [[0.44323844278140184, -0.4432384427813992]], [[0.44324159826376464, -0.44324159826376197]], [[0.4432447457481546, -0.4432447457481519]], [[0.4432478852549243, -0.4432478852549217]], [[0.44325101680437434, -0.44325101680437173]], [[0.4432541404167531, -0.4432541404167505]], [[0.443257256112257, -0.44325725611225436]], [[0.4432603639110308, -0.4432603639110281]], [[0.4432634638331674, -0.4432634638331647]], [[0.4432665558987083, -0.44326655589870556]], [[0.4432696401276435, -0.4432696401276408]], [[0.443272716539912, -0.4432727165399093]], [[0.44327578515540134, -0.44327578515539867]], [[0.4432788459939483, -0.44327884599394557]], [[0.44328189907533866, -0.4432818990753359]], [[0.4432849444193075, -0.44328494441930477]], [[0.4432879820455394, -0.44328798204553665]], [[0.44329101197366827, -0.44329101197366555]], [[0.44329403422327796, -0.4432940342232752]], [[0.4432970488139018, -0.44329704881389903]], [[0.4433000557650233, -0.4433000557650206]], [[0.443303055096076, -0.44330305509607326]], [[0.4433060468264434, -0.44330604682644076]], [[0.4433090309754597, -0.443309030975457]], [[0.4433120075624092, -0.4433120075624064]], [[0.44331497660652686, -0.44331497660652414]], [[0.4433179381269985, -0.44331793812699577]], [[0.4433208921429606, -0.4433208921429579]], [[0.44332383867350067, -0.44332383867349795]], [[0.44332677773765733, -0.4433267777376546]], [[0.44332970935442034, -0.4433297093544176]], [[0.4433326335427309, -0.4433326335427282]], [[0.4433355503214816, -0.4433355503214789]], [[0.44333845970951663, -0.443338459709514]], [[0.443341361725632, -0.4433413617256293]], [[0.44334425638857533, -0.44334425638857267]], [[0.4433471437170465, -0.44334714371704387]], [[0.44335002372969734, -0.4433500237296947]], [[0.44335289644513187, -0.4433528964451292]], [[0.44335576188190656, -0.44335576188190384]], [[0.4433586200585302, -0.4433586200585275]], [[0.44336147099346435, -0.4433614709934616]], [[0.4433643147051231, -0.4433643147051204]], [[0.4433671512118736, -0.44336715121187087]], [[0.44336998053203575, -0.4433699805320331]], [[0.4433728026838826, -0.44337280268388]], [[0.44337561768564054, -0.443375617685638]], [[0.44337842555548906, -0.4433784255554865]], [[0.4433812263115613, -0.44338122631155874]], [[0.4433840199719438, -0.4433840199719412]], [[0.44338680655467694, -0.44338680655467433]], [[0.4433895860777548, -0.44338958607775214]], [[0.44339235855912534, -0.44339235855912273]], [[0.4433951240166908, -0.4433951240166882]], [[0.44339788246830736, -0.4433978824683048]], [[0.44340063393178564, -0.44340063393178314]], [[0.4434033784248906, -0.4434033784248881]], [[0.44340611596534163, -0.44340611596533913]], [[0.443408846570813, -0.4434088465708104]], [[0.4434115702589334, -0.4434115702589309]], [[0.44341428704728675, -0.4434142870472843]], [[0.4434169969534118, -0.44341699695340936]], [[0.4434196999948024, -0.4434196999947999]], [[0.44342239618890766, -0.44342239618890517]], [[0.44342508555313204, -0.4434250855531295]], [[0.4434277681048354, -0.44342776810483286]], [[0.4434304438613333, -0.44343044386133074]], [[0.4434331128398968, -0.44343311283989423]], [[0.44343577505775295, -0.4434357750577504]], [[0.44343843053208465, -0.4434384305320821]], [[0.4434410792800308, -0.44344107928002824]], [[0.44344372131868653, -0.443443721318684]], [[0.4434463566651032, -0.4434463566651006]], [[0.44344898533628846, -0.4434489853362859]], [[0.4434516073492066, -0.443451607349204]], [[0.4434542227207784, -0.44345422272077584]], [[0.4434568314678814, -0.4434568314678788]], [[0.4434594336073499, -0.4434594336073473]], [[0.4434620291559753, -0.44346202915597266]], [[0.4434646181305059, -0.44346461813050325]], [[0.44346720054764716, -0.44346720054764455]], [[0.4434697764240619, -0.44346977642405927]], [[0.4434723457763703, -0.4434723457763677]], [[0.44347490862114997, -0.4434749086211474]], [[0.4434774649749362, -0.4434774649749336]], [[0.44348001485422195, -0.4434800148542194]], [[0.44348255827545807, -0.4434825582754555]], [[0.44348509525505325, -0.4434850952550507]], [[0.44348762580937423, -0.44348762580937173]], [[0.44349014995474595, -0.4434901499547435]], [[0.44349266770745166, -0.44349266770744916]], [[0.44349517908373287, -0.4434951790837304]], [[0.44349768409978957, -0.44349768409978707]], [[0.4435001827717804, -0.4435001827717779]], [[0.44350267511582264, -0.44350267511582014]], [[0.4435051611479924, -0.4435051611479899]], [[0.4435076408843246, -0.4435076408843221]], [[0.44351011434081333, -0.44351011434081083]], [[0.44351258153341167, -0.44351258153340917]], [[0.443515042478032, -0.4435150424780295]], [[0.4435174971905459, -0.4435174971905434]], [[0.44351994568678454, -0.443519945686782]], [[0.44352238798253857, -0.44352238798253596]], [[0.4435248240935582, -0.4435248240935556]], [[0.4435272540355535, -0.4435272540355509]], [[0.44352967782419433, -0.44352967782419167]], [[0.44353209547511047, -0.44353209547510786]], [[0.44353450700389185, -0.4435345070038893]], [[0.44353691242608856, -0.443536912426086]], [[0.4435393117572109, -0.44353931175720834]], [[0.4435417050127295, -0.44354170501272694]], [[0.4435440922080755, -0.44354409220807295]], [[0.44354647335864067, -0.4435464733586381]], [[0.4435488484797774, -0.4435488484797748]], [[0.4435512175867988, -0.4435512175867962]], [[0.4435535806949789, -0.44355358069497636]], [[0.4435559378195529, -0.44355593781955027]], [[0.4435582889757167, -0.4435582889757141]], [[0.4435606341786277, -0.44356063417862507]], [[0.4435629734434044, -0.4435629734434018]], [[0.44356530678512673, -0.4435653067851241]], [[0.44356763421883616, -0.4435676342188336]], [[0.4435699557595357, -0.4435699557595331]], [[0.4435722714221899, -0.44357227142218736]], [[0.4435745812217254, -0.44357458122172283]], [[0.44357688517303046, -0.44357688517302785]], [[0.4435791832909553, -0.44357918329095275]], [[0.44358147559031247, -0.4435814755903099]], [[0.44358376208587635, -0.4435837620858738]], [[0.4435860427923839, -0.4435860427923813]], [[0.4435883177245342, -0.4435883177245316]], [[0.443590586896989, -0.4435905868969864]], [[0.44359285032437246, -0.4435928503243698]], [[0.4435951080212714, -0.4435951080212687]], [[0.4435973600022355, -0.44359736000223277]], [[0.4435996062817772, -0.4435996062817745]], [[0.44360184687437193, -0.4436018468743692]], [[0.44360408179445815, -0.4436040817944554]], [[0.44360631105643744, -0.4436063110564347]], [[0.4436085346746747, -0.44360853467467193]], [[0.443610752663498, -0.44361075266349526]], [[0.44361296503719894, -0.4436129650371962]], [[0.4436151718100326, -0.44361517181002985]], [[0.44361737299621773, -0.44361737299621495]], [[0.4436195686099367, -0.44361956860993396]], [[0.4436217586653357, -0.443621758665333]], [[0.44362394317652487, -0.4436239431765221]], [[0.44362612215757824, -0.4436261221575754]], [[0.443628295622534, -0.44362829562253114]], [[0.4436304635853944, -0.4436304635853916]], [[0.4436326260601261, -0.4436326260601233]], [[0.44363478306066007, -0.44363478306065735]], [[0.4436369346008917, -0.44363693460088893]], [[0.4436390806946809, -0.4436390806946781]], [[0.44364122135585216, -0.4436412213558494]], [[0.44364335659819487, -0.4436433565981921]], [[0.4436454864354631, -0.44364548643546026]], [[0.4436476108813758, -0.44364761088137294]], [[0.44364972994961693, -0.4436497299496141]], [[0.44365184365383564, -0.4436518436538328]], [[0.4436539520076461, -0.44365395200764335]], [[0.44365605502462796, -0.4436560550246252]], [[0.443658152718326, -0.4436581527183232]], [[0.44366024510225044, -0.44366024510224766]], [[0.4436623321898773, -0.44366233218987444]], [[0.44366441399464784, -0.443664413994645]], [[0.4436664905299693, -0.4436664905299665]], [[0.4436685618092147, -0.4436685618092119]], [[0.44367062784572286, -0.44367062784572]], [[0.4436726886527986, -0.44367268865279563]], [[0.4436747442437127, -0.4436747442437098]], [[0.44367679463170234, -0.44367679463169946]], [[0.44367883982997075, -0.44367883982996786]], [[0.44368087985168747, -0.44368087985168464]], [[0.4436829147099886, -0.4436829147099857]], [[0.44368494441797657, -0.4436849444179737]], [[0.4436869689887205, -0.44368696898871757]], [[0.4436889884352561, -0.4436889884352531]], [[0.4436910027705859, -0.4436910027705829]], [[0.4436930120076792, -0.4436930120076762]], [[0.44369501615947227, -0.44369501615946927]], [[0.4436970152388684, -0.4436970152388654]], [[0.443699009258738, -0.443699009258735]], [[0.4437009982319186, -0.4437009982319156]], [[0.443702982171215, -0.443702982171212]], [[0.44370496108939944, -0.44370496108939644]], [[0.4437069349992115, -0.4437069349992085]], [[0.44370890391335827, -0.44370890391335527]], [[0.44371086784451447, -0.44371086784451147]], [[0.44371282680532254, -0.44371282680531954]], [[0.4437147808083926, -0.44371478080838966]], [[0.4437167298663028, -0.4437167298662998]], [[0.4437186739915989, -0.4437186739915959]], [[0.44372061319679507, -0.44372061319679207]], [[0.4437225474943733, -0.44372254749437023]], [[0.4437244768967838, -0.44372447689678074]], [[0.44372640141644515, -0.4437264014164421]], [[0.44372832106574417, -0.4437283210657411]], [[0.44373023585703614, -0.44373023585703314]], [[0.44373214580264486, -0.44373214580264186]], [[0.4437340509148627, -0.44373405091485973]], [[0.4437359512059507, -0.4437359512059478]], [[0.44373784668813876, -0.4437378466881358]], [[0.4437397373736254, -0.4437397373736225]], [[0.44374162327457817, -0.4437416232745753]], [[0.44374350440313365, -0.4437435044031307]], [[0.4437453807713973, -0.4437453807713944]], [[0.44374725239144397, -0.44374725239144114]], [[0.4437491192753176, -0.4437491192753148]], [[0.4437509814350315, -0.4437509814350287]], [[0.44375283888256833, -0.44375283888256556]], [[0.44375469162988024, -0.4437546916298774]], [[0.4437565396888888, -0.443756539688886]], [[0.4437583830714854, -0.4437583830714826]], [[0.443760221789531, -0.44376022178952823]], [[0.4437620558548564, -0.4437620558548536]], [[0.44376388527926225, -0.4437638852792595]], [[0.44376571007451904, -0.44376571007451626]], [[0.44376753025236737, -0.4437675302523646]], [[0.44376934582451794, -0.44376934582451516]], [[0.44377115680265156, -0.4437711568026488]], [[0.4437729631984193, -0.4437729631984165]], [[0.44377476502344254, -0.44377476502343977]], [[0.44377656228931306, -0.4437765622893103]], [[0.4437783550075931, -0.44377835500759033]], [[0.4437801431898155, -0.44378014318981274]], [[0.44378192684748363, -0.4437819268474809]], [[0.4437837059920716, -0.4437837059920689]], [[0.4437854806350243, -0.44378548063502166]], [[0.44378725078775755, -0.4437872507877549]], [[0.4437890164616579, -0.44378901646165525]], [[0.4437907776680831, -0.4437907776680804]], [[0.4437925344183618, -0.4437925344183591]], [[0.44379428672379395, -0.44379428672379123]], [[0.44379603459565053, -0.44379603459564787]], [[0.44379777804517406, -0.44379777804517134]], [[0.44379951708357823, -0.4437995170835755]], [[0.44380125172204826, -0.44380125172204554]], [[0.44380298197174084, -0.4438029819717381]], [[0.44380470784378434, -0.44380470784378157]], [[0.4438064293492786, -0.4438064293492758]], [[0.4438081464992954, -0.44380814649929257]], [[0.4438098593048782, -0.4438098593048754]], [[0.4438115677770424, -0.4438115677770396]], [[0.44381327192677533, -0.4438132719267726]], [[0.44381497176503637, -0.44381497176503365]], [[0.443816667302757, -0.44381666730275426]], [[0.44381835855084073, -0.44381835855083807]], [[0.4438200455201635, -0.44382004552016086]], [[0.44382172822157345, -0.44382172822157084]], [[0.44382340666589115, -0.44382340666588854]], [[0.4438250808639096, -0.44382508086390704]], [[0.4438267508263943, -0.4438267508263917]], [[0.44382841656408334, -0.4438284165640808]], [[0.44383007808768754, -0.443830078087685]], [[0.44383173540789034, -0.44383173540788784]], [[0.44383338853534815, -0.44383338853534565]], [[0.4438350374806901, -0.4438350374806876]], [[0.4438366822545183, -0.4438366822545158]], [[0.44383832286740793, -0.4438383228674054]], [[0.44383995932990716, -0.4438399593299046]], [[0.4438415916525374, -0.4438415916525349]], [[0.4438432198457932, -0.4438432198457907]], [[0.4438448439201425, -0.44384484392014]], [[0.4438464638860265, -0.443846463886024]], [[0.44384807975385987, -0.44384807975385737]], [[0.4438496915340307, -0.44384969153402826]], [[0.44385129923690075, -0.44385129923689837]], [[0.44385290287280543, -0.44385290287280305]], [[0.4438545024520537, -0.4438545024520513]], [[0.44385609798492837, -0.44385609798492603]], [[0.4438576894816861, -0.44385768948168375]], [[0.4438592769525574, -0.44385927695255506]], [[0.44386086040774675, -0.4438608604077444]], [[0.4438624398574327, -0.44386243985743035]], [[0.4438640153117679, -0.4438640153117655]], [[0.44386558678087906, -0.4438655867808767]], [[0.4438671542748673, -0.44386715427486495]], [[0.4438687178038079, -0.4438687178038056]], [[0.44387027737775053, -0.44387027737774826]], [[0.44387183300671934, -0.44387183300671706]], [[0.44387338470071297, -0.4438733847007107]], [[0.44387493246970455, -0.4438749324697023]], [[0.44387647632364186, -0.4438764763236396]], [[0.4438780162724474, -0.44387801627244516]], [[0.4438795523260184, -0.44387955232601617]], [[0.4438810844942269, -0.44388108449422475]], [[0.44388261278691993, -0.4438826127869177]], [[0.44388413721391934, -0.4438841372139171]], [[0.443885657785022, -0.44388565778501976]], [[0.4438871745099999, -0.4438871745099977]], [[0.4438886873986002, -0.443888687398598]], [[0.4438901964605452, -0.443890196460543]], [[0.44389170170553255, -0.44389170170553033]], [[0.4438932031432351, -0.4438932031432329]], [[0.44389470078330123, -0.443894700783299]], [[0.44389619463535473, -0.44389619463535257]], [[0.44389768470899493, -0.4438976847089927]], [[0.44389917101379667, -0.44389917101379445]], [[0.44390065355931047, -0.4439006535593083]], [[0.4439021323550626, -0.44390213235506043]], [[0.44390360741055507, -0.44390360741055296]], [[0.44390507873526575, -0.44390507873526364]], [[0.44390654633864834, -0.44390654633864624]], [[0.4439080102301326, -0.44390801023013043]], [[0.44390947041912415, -0.443909470419122]], [[0.4439109269150048, -0.44391092691500267]], [[0.44391237972713254, -0.4439123797271304]], [[0.4439138288648415, -0.4439138288648393]], [[0.44391527433744205, -0.4439152743374399]], [[0.4439167161542209, -0.44391671615421874]], [[0.4439181543244412, -0.44391815432443904]], [[0.4439195888573425, -0.44391958885734034]], [[0.4439210197621409, -0.44392101976213866]], [[0.4439224470480289, -0.4439224470480267]], [[0.4439238707241759, -0.44392387072417366]], [[0.4439252907997277, -0.4439252907997255]], [[0.44392670728380706, -0.44392670728380484]], [[0.4439281201855134, -0.4439281201855112]], [[0.44392952951392317,