[[[0.0019629210833025795, -0.0019629210833024824]], [[0.013282614692299285, -0.013282614692299202]], [[0.025816420105008536, -0.02581642010500855]], [[0.03771871322831093, -0.03771871322831097]], [[0.048657078309733884, -0.04865707830973388]], [[0.05864945280869634, -0.05864945280869639]], [[0.06778863420640599, -0.0677886342064061]], [[0.07617574312623551, -0.07617574312623564]], [[0.08390394443946786, -0.08390394443946804]], [[0.09105503859154918, -0.09105503859154934]], [[0.09769960013966382, -0.09769960013966396]], [[0.10389810808708352, -0.10389810808708369]], [[0.10970228534595923, -0.10970228534595935]], [[0.1151563864549009, -0.11515638645490103]], [[0.12029834787263566, -0.12029834787263577]], [[0.12516078094006092, -0.12516078094006106]], [[0.1297718136302398, -0.1297718136302399]], [[0.13415579698931865, -0.13415579698931876]], [[0.1383338948313458, -0.1383338948313459]], [[0.14232457475532947, -0.14232457475532953]], [[0.14614401675925953, -0.1461440167592596]], [[0.14980645352481076, -0.1498064535248108]], [[0.15332445425905675, -0.1533244542590568]], [[0.15670916198965623, -0.15670916198965631]], [[0.1599704924818897, -0.15997049248188977]], [[0.16311730148524262, -0.16311730148524267]], [[0.16615752580289708, -0.16615752580289714]], [[0.16909830267835554, -0.1690983026783556]], [[0.17194607117655922, -0.1719460711765593]], [[0.1747066585714852, -0.17470665857148532]], [[0.17738535421121457, -0.1773853542112147]], [[0.17998697289183402, -0.17998697289183413]], [[0.18251590941412182, -0.1825159094141219]], [[0.18497618570606986, -0.18497618570606994]], [[0.18737149165714084, -0.18737149165714095]], [[0.18970522061643239, -0.18970522061643252]], [[0.19198050034830158, -0.19198050034830166]], [[0.1942002201088069, -0.19420022010880703]], [[0.19636705439917262, -0.19636705439917276]], [[0.19848348386405132, -0.19848348386405143]], [[0.20055181372917966, -0.20055181372917977]], [[0.20257419011228292, -0.20257419011228303]], [[0.20455261449052964, -0.20455261449052975]], [[0.20648895656563776, -0.20648895656563784]], [[0.208384965732406, -0.2083849657324061]], [[0.21024228132678724, -0.2102422813267874]], [[0.21206244180465197, -0.21206244180465217]], [[0.21384689298131193, -0.21384689298131213]], [[0.21559699544402944, -0.21559699544402963]], [[0.21731403123459292, -0.21731403123459309]], [[0.21899920988614768, -0.2189992098861479]], [[0.22065367388747312, -0.22065367388747337]], [[0.22227850363848725, -0.22227850363848753]], [[0.22387472195269112, -0.22387472195269134]], [[0.2254432981553283, -0.22544329815532851]], [[0.22698515182005657, -0.22698515182005682]], [[0.2285011561817657, -0.22850115618176595]], [[0.22999214125870368, -0.2299921412587039]], [[0.23145889671319675, -0.23145889671319697]], [[0.23290217447687364, -0.2329021744768739]], [[0.23432269116336601, -0.23432269116336626]], [[0.23572113028888936, -0.2357211302888896]], [[0.23709814431886328, -0.23709814431886359]], [[0.23845435655675942, -0.23845435655675978]], [[0.23979036288963573, -0.23979036288963607]], [[0.24110673340329208, -0.24110673340329242]], [[0.2424040138786402, -0.24240401387864052]], [[0.24368272717969286, -0.2436827271796932]], [[0.24494337454252837, -0.2449433745425287]], [[0.24618643677365512, -0.24618643677365545]], [[0.24741237536537367, -0.24741237536537394]], [[0.24862163353499894, -0.2486216335349992]], [[0.24981463719415, -0.24981463719415029]], [[0.2509917958537295, -0.25099179585372966]], [[0.2521535034696922, -0.2521535034696924]], [[0.25330013923423594, -0.25330013923423617]], [[0.2544320683166259, -0.2544320683166261]], [[0.25554964255748935, -0.25554964255748963]], [[0.25665320112007883, -0.2566532011200791]], [[0.25774307110169575, -0.25774307110169603]], [[0.25881956810819373, -0.25881956810819406]], [[0.25988299679423144, -0.25988299679423177]], [[0.26093365137172153, -0.2609336513717218]], [[0.26197181608871917, -0.2619718160887195]], [[0.2629977656808102, -0.2629977656808105]], [[0.2640117657968914, -0.2640117657968918]], [[0.26501407340108557, -0.26501407340108596]], [[0.2660049371523945, -0.26600493715239487]], [[0.2669845977635692, -0.2669845977635696]], [[0.26795328834056237, -0.26795328834056276]], [[0.26891123470382217, -0.2689112347038226]], [[0.2698586556925943, -0.26985865569259476]], [[0.270795763453309, -0.27079576345330947]], [[0.2717227637130529, -0.2717227637130534]], [[0.27263985603905055, -0.27263985603905105]], [[0.2735472340850153, -0.2735472340850158]], [[0.27444508582516625, -0.27444508582516675]], [[0.27533359377665284, -0.2753335937766534]], [[0.27621293521107637, -0.27621293521107687]], [[0.27708328235574925, -0.27708328235574975]], [[0.2779448025852907, -0.2779448025852912]], [[0.27879765860411504, -0.2787976586041155]], [[0.2796420086203323, -0.2796420086203327]], [[0.2804780065115466, -0.28047800651154703]], [[0.28130580198300525, -0.28130580198300575]], [[0.28212554071852214, -0.2821255407185227]], [[0.28293736452457147, -0.2829373645245721]], [[0.2837414114679236, -0.2837414114679242]], [[0.28453781600716926, -0.2845378160071699]], [[0.2853267091184592, -0.28532670911845986]], [[0.2861082184157635, -0.2861082184157641]], [[0.2868824682659376, -0.2868824682659382]], [[0.28764957989886497, -0.2876495798988656]], [[0.28840967151292785, -0.28840967151292846]], [[0.2891628583760452, -0.28916285837604583]], [[0.2899092529225008, -0.28990925292250147]], [[0.29064896484577196, -0.29064896484577263]], [[0.2913821011875575, -0.29138210118755814]], [[0.2921087664231912, -0.2921087664231919]], [[0.29282906254361774, -0.2928290625436184]], [[0.2935430891340957, -0.2935430891340963]], [[0.29425094344978586, -0.2942509434497865]], [[0.29495272048837184, -0.29495272048837246]], [[0.2956485130598532, -0.29564851305985373]], [[0.2963384118536427, -0.29633841185364324]], [[0.29702250550309367, -0.2970225055030942]], [[0.29770088064757383, -0.29770088064757444]], [[0.2983736219921996, -0.29837362199220013]], [[0.29904081236533436, -0.2990408123653349]], [[0.2997025327739536, -0.29970253277395414]], [[0.3003588624569692, -0.3003588624569698]], [[0.3010098789366056, -0.3010098789366062]], [[0.301655658067911, -0.3016556580679116]], [[0.30229627408648674, -0.30229627408648735]], [[0.30293179965451006, -0.30293179965451067]], [[0.30356230590512473, -0.30356230590512534]], [[0.3041878624852682, -0.3041878624852688]], [[0.3048085375970013, -0.3048085375970019]], [[0.3054243980374039, -0.30542439803740457]], [[0.30603550923709566, -0.3060355092370963]], [[0.30664193529743844, -0.3066419352974391]], [[0.3072437390264752, -0.3072437390264759]], [[0.3078409819736564, -0.3078409819736571]], [[0.3084337244634027, -0.3084337244634034]], [[0.3090220256275513, -0.309022025627552]], [[0.30960594343673, -0.3096059434367307]], [[0.3101855347307014, -0.3101855347307021]], [[0.3107608552477182, -0.3107608552477189]], [[0.31133195965292787, -0.31133195965292854]], [[0.31189890156586336, -0.3118989015658641]], [[0.312461733587056, -0.31246173358705664]], [[0.3130205073238027, -0.3130205073238034]], [[0.3135752734151216, -0.31357527341512226]], [[0.3141260815559247, -0.3141260815559254]], [[0.3146729805204387, -0.3146729805204394]], [[0.31521601818490064, -0.31521601818490136]], [[0.31575524154955653, -0.31575524154955725]], [[0.31629069675998744, -0.31629069675998817]], [[0.3168224291277886, -0.31682242912778935]], [[0.31735048315062436, -0.3173504831506251]], [[0.31787490253168216, -0.3178749025316829]], [[0.3183957301985464, -0.31839573019854717]], [[0.3189130083215138, -0.3189130083215146]], [[0.3194267783313691, -0.31942677833136995]], [[0.3199370809366408, -0.31993708093664164]], [[0.32044395614035504, -0.32044395614035587]], [[0.3209474432563049, -0.3209474432563057]], [[0.3214475809248521, -0.32144758092485287]], [[0.3219444071282769, -0.32194440712827765]], [[0.32243795920569235, -0.3224379592056931]], [[0.32292827386753686, -0.32292827386753764]], [[0.3234153872096597, -0.32341538720966057]], [[0.3238993347270136, -0.32389933472701443]], [[0.32438015132696657, -0.32438015132696735]], [[0.3248578713422466, -0.3248578713422473]], [[0.3253325285435307, -0.3253325285435314]], [[0.3258041561516905, -0.3258041561516912]], [[0.32627278684970523, -0.3262727868497059]], [[0.3267384527942526, -0.32673845279425323]], [[0.3272011856269893, -0.3272011856269899]], [[0.3276610164855292, -0.3276610164855298]], [[0.32811797601413095, -0.32811797601413156]], [[0.32857209437410234, -0.328572094374103]], [[0.32902340125393176, -0.3290234012539324]], [[0.3294719258791544, -0.32947192587915514]], [[0.3299176970219626, -0.32991769702196333]], [[0.3303607430105666, -0.3303607430105674]], [[0.3308010917383156, -0.33080109173831634]], [[0.3312387706725843, -0.33123877067258495]], [[0.3316738068634338, -0.33167380686343445]], [[0.33210622695205305, -0.3321062269520537]], [[0.33253605717898727, -0.3325360571789879]], [[0.3329633233921601, -0.3329633233921607]], [[0.33338805105469604, -0.3333880510546966]], [[0.3338102652525479, -0.3338102652525484]], [[0.33422999070193676, -0.33422999070193726]], [[0.3346472517566085, -0.3346472517566089]], [[0.33506207241491287, -0.3350620724149133]], [[0.33547447632671085, -0.33547447632671135]], [[0.3358844868001142, -0.3358844868001147]], [[0.3362921268080627, -0.3362921268080632]], [[0.336697418994744, -0.3366974189947445]], [[0.3371003856818598, -0.3371003856818603]], [[0.33750104887474386, -0.33750104887474436]], [[0.33789943026833463, -0.33789943026833513]], [[0.3382955512530081, -0.3382955512530086]], [[0.3386894329202735, -0.3386894329202739]], [[0.33908109606833675, -0.3390810960683372]], [[0.33947056120753466, -0.33947056120753516]], [[0.3398578485656439, -0.3398578485656443]], [[0.34024297809306747, -0.3402429780930679]], [[0.34062596946790324, -0.3406259694679037]], [[0.34100684210089655, -0.341006842100897]], [[0.341385615140281, -0.34138561514028143]], [[0.34176230747650954, -0.34176230747651]], [[0.34213693774688003, -0.34213693774688053]], [[0.3425095243400567, -0.3425095243400572]], [[0.34288008540049136, -0.34288008540049186]], [[0.34324863883274653, -0.34324863883274703]], [[0.3436152023057234, -0.3436152023057239]], [[0.34397979325679673, -0.34397979325679723]], [[0.3443424288958594, -0.3443424288958599]], [[0.34470312620927906, -0.34470312620927956]], [[0.34506190196376885, -0.34506190196376935]], [[0.3454187727101748, -0.34541877271017535]], [[0.3457737547871817, -0.34577375478718225]], [[0.3461268643249398, -0.34612686432494033]], [[0.34647811724861405, -0.34647811724861466]], [[0.3468275292818586, -0.3468275292818592]], [[0.3471751159502172, -0.3471751159502178]], [[0.3475208925844527, -0.34752089258445323]], [[0.3478648743238063, -0.34786487432380686]], [[0.34820707611918955, -0.3482070761191901]], [[0.34854751273630935, -0.34854751273630985]], [[0.34888619875872856, -0.348886198758729]], [[0.3492231485908639, -0.34922314859086434]], [[0.34955837646092186, -0.3495583764609223]], [[0.3498918964237752, -0.34989189642377566]], [[0.3502237223637803, -0.35022372236378074]], [[0.3505538679975379, -0.35055386799753835]], [[0.35088234687659814, -0.35088234687659864]], [[0.351209172390111, -0.35120917239011146]], [[0.3515343577674238, -0.3515343577674243]], [[0.351857916080627, -0.3518579160806275]], [[0.3521798602470493, -0.3521798602470498]], [[0.35250020303170354, -0.35250020303170404]], [[0.35281895704968447, -0.35281895704968497]], [[0.35313613476851924, -0.3531361347685197]], [[0.3534517485104721, -0.3534517485104726]], [[0.35376581045480443, -0.353765810454805]], [[0.35407833263999045, -0.354078332639991]], [[0.3543893269658907, -0.35438932696589126]], [[0.3546988051958833, -0.35469880519588387]], [[0.35500677895895455, -0.3550067789589551]], [[0.3553132597517494, -0.35531325975175]], [[0.35561825894058335, -0.35561825894058396]], [[0.3559217877634158, -0.35592178776341643]], [[0.3562238573317864, -0.35622385733178696]], [[0.35652447863271464, -0.3565244786327152]], [[0.35682366253056447, -0.356823662530565]], [[0.35712141976887346, -0.35712141976887407]], [[0.35741776097214856, -0.35741776097214917]], [[0.3577126966476279, -0.35771269664762856]], [[0.3580062371870107, -0.35800623718701136]], [[0.358298392868155, -0.3582983928681557]], [[0.35858917385674455, -0.3585891738567452]], [[0.35887859020792495, -0.3588785902079256]], [[0.35916665186791036, -0.35916665186791097]], [[0.35945336867556066, -0.3594533686755613]], [[0.3597387503639308, -0.35973875036393155]], [[0.36002280656179164, -0.3600228065617924]], [[0.36030554679512383, -0.3603055467951246]], [[0.3605869804885849, -0.3605869804885857]], [[0.36086711696695034, -0.3608671169669511]], [[0.36114596545652905, -0.36114596545652977]], [[0.3614235350865538, -0.36142353508655445]], [[0.3616998348905471, -0.36169983489054774]], [[0.3619748738076633, -0.36197487380766397]], [[0.36224866068400724, -0.3622486606840079]], [[0.36252120427392953, -0.3625212042739302]], [[0.3627925132412997, -0.36279251324130035]], [[0.36306259616075726, -0.3630625961607579]], [[0.36333146151894113, -0.3633314615189418]], [[0.363599117715698, -0.36359911771569864]], [[0.36386557306526973, -0.3638655730652704]], [[0.36413083579746114, -0.3641308357974618]], [[0.364394914058787, -0.3643949140587876]], [[0.36465781591360036, -0.36465781591360097]], [[0.3649195493452015, -0.3649195493452021]], [[0.36518012225692814, -0.36518012225692875]], [[0.3654395424732276, -0.3654395424732282]], [[0.36569781774071064, -0.36569781774071125]], [[0.3659549557291883, -0.3659549557291889]], [[0.3662109640326909, -0.3662109640326915]], [[0.3664658501704704, -0.366465850170471]], [[0.3667196215879867, -0.36671962158798727]], [[0.36697228565787676, -0.3669722856578774]], [[0.3672238496809086, -0.3672238496809092]], [[0.3674743208869195, -0.3674743208869201]], [[0.36772370643573865, -0.3677237064357393]], [[0.3679720134180954, -0.36797201341809604]], [[0.36821924885651197, -0.3682192488565126]], [[0.36846541970618274, -0.36846541970618335]], [[0.3687105328558386, -0.3687105328558392]], [[0.3689545951285978, -0.3689545951285984]], [[0.3691976132828032, -0.3691976132828038]], [[0.36943959401284615, -0.3694395940128467]], [[0.3696805439499771, -0.3696805439499777]], [[0.36992046966310393, -0.36992046966310443]], [[0.3701593776595769, -0.3701593776595774]], [[0.370397274385962, -0.3703972743859625]], [[0.3706341662288016, -0.3706341662288021]], [[0.3708700595153636, -0.3708700595153641]], [[0.371104960514379, -0.37110496051437947]], [[0.37133887543676725, -0.3713388754367677]], [[0.3715718104363512, -0.3715718104363517]], [[0.3718037716105609, -0.37180377161056133]], [[0.3720347650011261, -0.37203476500112653]], [[0.3722647965947586, -0.372264796594759]], [[0.3724938723238238, -0.3724938723238242]], [[0.37272199806700246, -0.3727219980670029]], [[0.3729491796499419, -0.37294917964994234]], [[0.3731754228458978, -0.3731754228458982]], [[0.3734007333763657, -0.37340073337636615]], [[0.37362511691170386, -0.3736251169117043]], [[0.37384857907174585, -0.3738485790717463]], [[0.37407112542640464, -0.3740711254264051]], [[0.37429276149626717, -0.37429276149626767]], [[0.3745134927531807, -0.3745134927531812]], [[0.3747333246208297, -0.37473332462083014]], [[0.3749522624753048, -0.3749522624753053]], [[0.37517031164566306, -0.37517031164566356]], [[0.3753874774144801, -0.37538747741448064]], [[0.3756037650183941, -0.37560376501839465]], [[0.37581917964864187, -0.37581917964864237]], [[0.37603372645158695, -0.37603372645158745]], [[0.3762474105292404, -0.3762474105292409]], [[0.37646023693977365, -0.3764602369397741]], [[0.37667221069802415, -0.3766722106980246]], [[0.3768833367759936, -0.37688333677599406]], [[0.3770936201033393, -0.37709362010333974]], [[0.3773030655678581, -0.37730306556785853]], [[0.3775116780159635, -0.3775116780159639]], [[0.37771946225315645, -0.37771946225315683]], [[0.37792642304448854, -0.37792642304448887]], [[0.3781325651150196, -0.3781325651150199]], [[0.37833789315026806, -0.3783378931502684]], [[0.3785424117966556, -0.3785424117966559]], [[0.37874612566194493, -0.3787461256619452]], [[0.37894903931567203, -0.3789490393156723]], [[0.3791511572895719, -0.3791511572895722]], [[0.37935248407799865, -0.37935248407799904]], [[0.37955302413833975, -0.3795530241383402]], [[0.37975278189142414, -0.37975278189142464]], [[0.3799517617219254, -0.3799517617219259]], [[0.3801499679787587, -0.3801499679787592]], [[0.3803474049754728, -0.3803474049754733]], [[0.3805440769906363, -0.3805440769906368]], [[0.38073998826821887, -0.38073998826821936]], [[0.3809351430179671, -0.38093514301796766]], [[0.38112954541577554, -0.3811295454157761]], [[0.3813231996040523, -0.3813231996040528]], [[0.3815161096920799, -0.38151610969208044]], [[0.38170827975637145, -0.38170827975637206]], [[0.38189971384102184, -0.38189971384102245]], [[0.38209041595805404, -0.38209041595805465]], [[0.38228039008776127, -0.3822803900877619]], [[0.38246964017904406, -0.3824696401790446]], [[0.3826581701497432, -0.3826581701497438]], [[0.3828459838869682, -0.38284598388696883]], [[0.38303308524742147, -0.383033085247422]], [[0.38321947805771767, -0.38321947805771817]], [[0.3834051661146998, -0.3834051661147003]], [[0.38359015318575046, -0.38359015318575096]], [[0.38377444300909913, -0.38377444300909963]], [[0.38395803929412575, -0.38395803929412625]], [[0.38414094572165985, -0.38414094572166035]], [[0.38432316594427635, -0.3843231659442768]], [[0.38450470358658706, -0.3845047035865875]], [[0.3846855622455287, -0.38468556224552913]], [[0.38486574549064706, -0.38486574549064756]], [[0.38504525686437774, -0.38504525686437824]], [[0.38522409988232287, -0.3852240998823233]], [[0.38540227803352456, -0.385402278033525]], [[0.38557979478073506, -0.38557979478073556]], [[0.3857566535606831, -0.38575665356068367]], [[0.3859328577843371, -0.38593285778433767]], [[0.3861084108371648, -0.3861084108371653]], [[0.3862833160793898, -0.3862833160793903]], [[0.3864575768462452, -0.38645757684624565]], [[0.38663119644822314, -0.3866311964482236]], [[0.3868041781713222, -0.3868041781713226]], [[0.38697652527729104, -0.3869765252772915]], [[0.3871482410038694, -0.3871482410038698]], [[0.3873193285650259, -0.38731932856502627]], [[0.38748979115119275, -0.3874897911511931]], [[0.3876596319294981, -0.38765963192949837]], [[0.38782885404399475, -0.38782885404399503]], [[0.38799746061588686, -0.38799746061588714]], [[0.3881654547437532, -0.38816545474375347]], [[0.388332839503768, -0.38833283950376823]], [[0.3884996179499191, -0.38849961794991933]], [[0.3886657931142232, -0.38866579311422345]], [[0.38883136800693896, -0.3888313680069392]], [[0.3889963456167769, -0.38899634561677715]], [[0.38916072891110737, -0.38916072891110765]], [[0.3893245208361656, -0.3893245208361658]], [[0.3894877243172542, -0.3894877243172545]], [[0.3896503422589439, -0.3896503422589442]], [[0.389812377545271, -0.38981237754527126]], [[0.3899738330399329, -0.38997383303993316]], [[0.3901347115864815, -0.3901347115864818]], [[0.39029501600851396, -0.39029501600851424]], [[0.39045474910986117, -0.39045474910986144]], [[0.3906139136747744, -0.39061391367477466]], [[0.3907725124681091, -0.3907725124681094]], [[0.3909305482355072, -0.39093054823550755]], [[0.3910880237035769, -0.39108802370357726]], [[0.39124494158007034, -0.39124494158007067]], [[0.39140130455405914, -0.3914013045540594]], [[0.3915571152961083, -0.39155711529610854]], [[0.3917123764584477, -0.3917123764584479]], [[0.39186709067514147, -0.39186709067514175]], [[0.392021260562256, -0.3920212605622563]], [[0.39217488871802536, -0.39217488871802564]], [[0.39232797772301503, -0.3923279777230153]], [[0.39248053014028406, -0.39248053014028433]], [[0.3926325485155448, -0.3926325485155451]], [[0.3927840353773213, -0.3927840353773216]], [[0.3929349932371057, -0.39293499323710596]], [[0.3930854245895126, -0.39308542458951284]], [[0.3932353319124322, -0.39323533191243243]], [[0.39338471766718125, -0.3933847176671814]], [[0.39353358429865243, -0.3935335842986526]], [[0.393681934235462, -0.3936819342354622]], [[0.39382976989009616, -0.3938297698900964]], [[0.3939770936590551, -0.3939770936590553]], [[0.3941239079229958, -0.394123907922996]], [[0.3942702150468734, -0.39427021504687354]], [[0.39441601738008053, -0.3944160173800807]], [[0.3945613172565857, -0.3945613172565859]], [[0.39470611699506947, -0.3947061169950697]], [[0.39485041889905964, -0.39485041889905986]], [[0.3949942252570646, -0.39499422525706485]], [[0.3951375383427055, -0.3951375383427057]], [[0.39528036041484654, -0.39528036041484677]], [[0.3954226937177244, -0.39542269371772465]], [[0.39556454048107587, -0.3955645404810761]], [[0.39570590292026386, -0.3957059029202641]], [[0.3958467832364028, -0.39584678323640304]], [[0.3959871836164819, -0.3959871836164821]], [[0.39612710623348724, -0.39612710623348746]], [[0.3962665532465231, -0.3962665532465233]], [[0.39640552680093105, -0.3964055268009313]], [[0.3965440290284086, -0.39654402902840885]], [[0.39668206204712597, -0.39668206204712625]], [[0.396819627961842, -0.3968196279618423]], [[0.39695672886401856, -0.39695672886401884]], [[0.39709336683193375, -0.397093366831934]], [[0.3972295439307942, -0.39722954393079446]], [[0.3973652622128457, -0.3973652622128459]], [[0.397500523717483, -0.39750052371748323]], [[0.39763533047135835, -0.3976353304713586]], [[0.39776968448848876, -0.397769684488489]], [[0.3979035877703624, -0.39790358777036267]], [[0.39803704230604353, -0.3980370423060438]], [[0.3981700500722767, -0.3981700500722769]], [[0.3983026130335893, -0.39830261303358955]], [[0.3984347331423939, -0.39843473314239414]], [[0.3985664123390886, -0.3985664123390888]], [[0.39869765255215694, -0.39869765255215706]], [[0.3988284556982664, -0.3988284556982665]], [[0.3989588236823663, -0.3989588236823664]], [[0.39908875839778424, -0.39908875839778435]], [[0.3992182617263217, -0.3992182617263218]], [[0.3993473355383488, -0.3993473355383489]], [[0.3994759816928979, -0.399475981692898]], [[0.3996042020377563, -0.39960420203775643]], [[0.399731998409558, -0.39973199840955814]], [[0.3998593726338744, -0.3998593726338746]], [[0.39998632652530436, -0.39998632652530464]], [[0.40011286188756306, -0.40011286188756334]], [[0.40023898051357, -0.40023898051357026]], [[0.4003646841855361, -0.4003646841855364]], [[0.4004899746750503, -0.4004899746750506]], [[0.40061485374316447, -0.40061485374316474]], [[0.4007393231404783, -0.40073932314047855]], [[0.4008633846072228, -0.4008633846072231]], [[0.4009870398733433, -0.40098703987334355]], [[0.4011102906585812, -0.4011102906585815]], [[0.4012331386725555, -0.4012331386725558]], [[0.4013555856148427, -0.40135558561484297]], [[0.4014776331750568, -0.4014776331750571]], [[0.4015992830329279, -0.40159928303292813]], [[0.40172053685838005, -0.40172053685838033]], [[0.4018413963116088, -0.40184139631160903]], [[0.4019618630431573, -0.4019618630431575]], [[0.40208193869399206, -0.4020819386939923]], [[0.4022016248955782, -0.4022016248955784]], [[0.4023209232699533, -0.4023209232699535]], [[0.4024398354298009, -0.4024398354298011]], [[0.4025583629785235, -0.4025583629785237]], [[0.4026765075103145, -0.4026765075103147]], [[0.4027942706102293, -0.4027942706102295]], [[0.4029116538542564, -0.40291165385425654]], [[0.4030286588093868, -0.40302865880938693]], [[0.40314528703368385, -0.40314528703368396]], [[0.40326154007635145, -0.40326154007635157]], [[0.4033774194778021, -0.40337741947780226]], [[0.4034929267697243, -0.4034929267697245]], [[0.40360806347514905, -0.4036080634751492]], [[0.4037228311085158, -0.403722831108516]], [[0.403837231175738, -0.4038372311757382]], [[0.4039512651742677, -0.40395126517426794]], [[0.40406493459315973, -0.4040649345931599]], [[0.40417824091313503, -0.40417824091313515]], [[0.4042911856066438, -0.40429118560664395]], [[0.4044037701379277, -0.4044037701379279]], [[0.4045159959630815, -0.4045159959630817]], [[0.4046278645301143, -0.40462786453011446]], [[0.4047393772790098, -0.40473937727901005]], [[0.4048505356417869, -0.4048505356417872]], [[0.4049613410425584, -0.40496134104255865]], [[0.4050717948975902, -0.4050717948975905]], [[0.40518189861535964, -0.4051818986153599]], [[0.40529165359661307, -0.40529165359661334]], [[0.4054010612344232, -0.40540106123442354]], [[0.4055101229142458, -0.40551012291424615]], [[0.4056188400139757, -0.405618840013976]], [[0.40572721390400246, -0.40572721390400285]], [[0.4058352459472657, -0.4058352459472661]], [[0.40594293749930943, -0.4059429374993098]], [[0.4060502899083362, -0.4060502899083365]], [[0.40615730451526083, -0.4061573045152611]], [[0.40626398265376334, -0.40626398265376357]], [[0.4063703256503417, -0.4063703256503419]], [[0.4064763348243639, -0.4064763348243642]], [[0.40658201148811973, -0.40658201148811995]], [[0.4066873569468717, -0.4066873569468719]], [[0.406792372498906, -0.4067923724989062]], [[0.4068970594355826, -0.4068970594355828]], [[0.4070014190413852, -0.40700141904138537]], [[0.40710545259397046, -0.40710545259397063]], [[0.40720916136421687, -0.40720916136421703]], [[0.4073125466162733, -0.4073125466162734]], [[0.407415609607607, -0.4074156096076071]], [[0.4075183515890511, -0.40751835158905125]], [[0.40762077380485195, -0.4076207738048521]], [[0.4077228774927157, -0.40772287749271585]], [[0.4078246638838546, -0.40782466388385474]], [[0.407926134203033, -0.4079261342030331]], [[0.40802728966861274, -0.4080272896686128]], [[0.4081281314925984, -0.4081281314925984]], [[0.4082286608806818, -0.4082286608806818]], [[0.40832887903228643, -0.40832887903228643]], [[0.40842878714061126, -0.4084287871406112]], [[0.4085283863926742, -0.4085283863926742]], [[0.40862767796935545, -0.4086276779693554]], [[0.4087266630454399, -0.4087266630454399]], [[0.4088253427896599, -0.4088253427896599]], [[0.40892371836473684, -0.40892371836473684]], [[0.4090217909274232, -0.4090217909274232]], [[0.4091195616285433, -0.40911956162854335]], [[0.40921703161303474, -0.40921703161303485]], [[0.4093142020199886, -0.40931420201998875]], [[0.40941107398268967, -0.40941107398268983]], [[0.4095076486286565, -0.4095076486286567]], [[0.4096039270796806, -0.4096039270796808]], [[0.40969991045186577, -0.40969991045186593]], [[0.4097955998556669, -0.40979559985566705]], [[0.4098909963959284, -0.4098909963959286]], [[0.40998610117192247, -0.40998610117192263]], [[0.41008091527738677, -0.41008091527738694]], [[0.410175439800562, -0.41017543980056215]], [[0.4102696758242289, -0.41026967582422913]], [[0.4103636244257456, -0.4103636244257458]], [[0.4104572866770834, -0.41045728667708364]], [[0.4105506636448638, -0.4105506636448641]], [[0.4106437563903938, -0.4106437563903941]], [[0.4107365659697018, -0.4107365659697021]], [[0.410829093433573, -0.4108290934335732]], [[0.410921339827584, -0.4109213398275842]], [[0.4110133061921381, -0.41101330619213833]], [[0.41110499356249924, -0.4111049935624995]], [[0.4111964029688265, -0.41119640296882676]], [[0.4112875354362075, -0.4112875354362078]], [[0.4113783919846925, -0.4113783919846927]], [[0.4114689736293273, -0.41146897362932744]], [[0.41155928138018627, -0.4115592813801864]], [[0.41164931624240536, -0.4116493162424054]], [[0.4117390792162143, -0.4117390792162143]], [[0.41182857129696865, -0.41182857129696865]], [[0.4119177934751822, -0.4119177934751822]], [[0.41200674673655824, -0.4120067467365582]], [[0.412095432062021, -0.4120954320620209]], [[0.4121838504277468, -0.41218385042774675]], [[0.4122720028051951, -0.412272002805195]], [[0.41235989016113883, -0.4123598901611387]], [[0.4124475134576949, -0.4124475134576948]], [[0.4125348736523544, -0.41253487365235436]], [[0.4126219716980124, -0.41262197169801235]], [[0.4127088085429974, -0.41270880854299735]], [[0.41279538513110103, -0.412795385131101]], [[0.412881702401607, -0.4128817024016069]], [[0.41296776128931995, -0.41296776128931983]], [[0.4130535627245943, -0.41305356272459426]], [[0.41313910763336265, -0.4131391076333626]], [[0.4132243969371639, -0.4132243969371638]], [[0.4133094315531712, -0.41330943155317107]], [[0.4133942123942198, -0.4133942123942197]], [[0.41347874036883464, -0.41347874036883453]], [[0.4135630163812574, -0.4135630163812573]], [[0.41364704133147395, -0.4136470413314739]], [[0.4137308161152409, -0.4137308161152409]], [[0.4138143416241124, -0.41381434162411235]], [[0.4138976187454666, -0.41389761874546654]], [[0.4139806483625318, -0.41398064836253173]], [[0.41406343135441254, -0.4140634313544125]], [[0.4141459685961153, -0.41414596859611524]], [[0.41422826095857435, -0.4142282609585743]], [[0.4143103093086769, -0.41431030930867685]], [[0.4143921145092884, -0.41439211450928837]], [[0.41447367741927765, -0.4144736774192776]], [[0.41455499889354136, -0.4145549988935413]], [[0.4146360797830291, -0.41463607978302897]], [[0.41471692093476714, -0.4147169209347671]], [[0.41479752319188357, -0.4147975231918835]], [[0.41487788739363146, -0.4148778873936314]], [[0.41495801437541313, -0.41495801437541313]], [[0.4150379049688039, -0.41503790496880394]], [[0.4151175600015753, -0.41511756000157535]], [[0.4151969802977185, -0.41519698029771857]], [[0.4152761666774674, -0.4152761666774675]], [[0.4153551199573216, -0.41535511995732166]], [[0.41543384095006897, -0.415433840950069]], [[0.41551233046480857, -0.41551233046480857]], [[0.4155905893069727, -0.4155905893069727]], [[0.41566861827834933, -0.41566861827834933]], [[0.4157464181771041, -0.4157464181771041]], [[0.41582398979780233, -0.41582398979780233]], [[0.4159013339314305, -0.4159013339314305]], [[0.4159784513654179, -0.41597845136541783]], [[0.4160553428836581, -0.4160553428836581]], [[0.41613200926653016, -0.4161320092665301]], [[0.4162084512909196, -0.41620845129091955]], [[0.41628466973023937, -0.4162846697302393]], [[0.41636066535445054, -0.4163606653544505]], [[0.4164364389300829, -0.4164364389300829]], [[0.41651199122025556, -0.41651199122025556]], [[0.41658732298469686, -0.41658732298469686]], [[0.4166624349797648, -0.41666243497976485]], [[0.4167373279584669, -0.4167373279584669]], [[0.41681200267048, -0.41681200267048]], [[0.41688645986216993, -0.41688645986216993]], [[0.4169607002766111, -0.41696070027661114]], [[0.41703472465360575, -0.41703472465360575]], [[0.41710853372970325, -0.41710853372970325]], [[0.4171821282382192, -0.41718212823821915]], [[0.41725550890925434, -0.4172555089092543]], [[0.41732867646971333, -0.4173286764697133]], [[0.4174016316433235, -0.41740163164332345]], [[0.4174743751506533, -0.41747437515065317]], [[0.4175469077091305, -0.4175469077091304]], [[0.41761923003306084, -0.41761923003306073]], [[0.41769134283364584, -0.41769134283364573]], [[0.41776324681900084, -0.41776324681900073]], [[0.41783494269417293, -0.41783494269417276]], [[0.4179064311611584, -0.4179064311611582]], [[0.4179777129189208, -0.41797771291892055]], [[0.41804878866340783, -0.41804878866340767]], [[0.41811965908756915, -0.418119659087569]], [[0.41819032488137325, -0.4181903248813731]], [[0.4182607867318246, -0.41826078673182454]], [[0.4183310453229808, -0.4183310453229807]], [[0.41840110133596914, -0.41840110133596903]], [[0.4184709554490033, -0.4184709554490032]], [[0.4185406083374002, -0.4185406083374001]], [[0.41861006067359613, -0.41861006067359596]], [[0.4186793131271633, -0.41867931312716317]], [[0.418748366364826, -0.41874836636482593]], [[0.41881722105047675, -0.41881722105047675]], [[0.41888587784519227, -0.41888587784519227]], [[0.41895433740724913, -0.4189543374072492]], [[0.4190226003921399, -0.41902260039213995]], [[0.41909066745258844, -0.41909066745258855]], [[0.4191585392385658, -0.4191585392385659]], [[0.4192262163973051, -0.4192262163973052]], [[0.41929369957331747, -0.4192936995733175]], [[0.4193609894084067, -0.41936098940840677]], [[0.4194280865416848, -0.41942808654168484]], [[0.41949499160958653, -0.4194949916095866]], [[0.4195617052458847, -0.4195617052458847]], [[0.41962822808170464, -0.41962822808170464]], [[0.41969456074553896, -0.41969456074553896]], [[0.4197607038632622, -0.4197607038632622]], [[0.41982665805814523, -0.4198266580581452]], [[0.41989242395086945, -0.4198924239508694]], [[0.4199580021595413, -0.4199580021595413]], [[0.42002339329970634, -0.42002339329970645]], [[0.4200885979843632, -0.4200885979843633]], [[0.4201536168239776, -0.4201536168239778]], [[0.42021845042649636, -0.4202184504264966]], [[0.42028309939736086, -0.4202830993973611]], [[0.4203475643395209, -0.4203475643395211]], [[0.4204118458534483, -0.42041184585344843]], [[0.4204759445371502, -0.42047594453715037]], [[0.42053986098618273, -0.4205398609861829]], [[0.42060359579366396, -0.4206035957936642]], [[0.42066714955028744, -0.42066714955028767]], [[0.420730522844335, -0.4207305228443352]], [[0.4207937162616899, -0.42079371626169004]], [[0.42085673038584975, -0.42085673038585]], [[0.4209195657979395, -0.42091956579793965]], [[0.42098222307672384, -0.420982223076724]], [[0.4210447027986201, -0.4210447027986202]], [[0.42110700553771085, -0.4211070055377109]], [[0.4211691318657562, -0.4211691318657563]], [[0.42123108235220647, -0.4212310823522065]], [[0.42129285756421414, -0.4212928575642142]], [[0.42135445806664645, -0.4213544580666465]], [[0.42141588442209743, -0.42141588442209743]], [[0.4214771371908998, -0.4214771371908998]], [[0.4215382169311371, -0.4215382169311371]], [[0.4215991241986556, -0.42159912419865553]], [[0.421659859547076, -0.42165985954707597]], [[0.4217204235278055, -0.42172042352780537]], [[0.4217808166900489, -0.4217808166900488]], [[0.42184103958082075, -0.42184103958082064]], [[0.4219010927449566, -0.4219010927449564]], [[0.4219609767251242, -0.42196097672512406]], [[0.4220206920618354, -0.42202069206183523]], [[0.42208023929345695, -0.4220802392934568]], [[0.4221396189562218, -0.42213961895622165]], [[0.4221988315842405, -0.42219883158424026]], [[0.42225787770951173, -0.4222578777095115]], [[0.4223167578619338, -0.4223167578619336]], [[0.4223754725693153, -0.42237547256931507]], [[0.4224340223573859, -0.4224340223573857]], [[0.42249240774980723, -0.422492407749807]], [[0.42255062926818343, -0.4225506292681832]], [[0.42260868743207186, -0.42260868743207164]], [[0.42266658275899366, -0.4226665827589935]], [[0.42272431576444425, -0.4227243157644441]], [[0.4227818869619035, -0.42278188696190333]], [[0.4228392968628463, -0.42283929686284616]], [[0.42289654597675286, -0.4228965459767527]], [[0.42295363481111864, -0.4229536348111185]], [[0.42301056387146485, -0.4230105638714647]], [[0.42306733366134824, -0.4230673336613481]], [[0.42312394468237124, -0.423123944682371]], [[0.4231803974341917, -0.42318039743419156]], [[0.42323669241453316, -0.42323669241453304]], [[0.42329283011919416, -0.4232928301191941]], [[0.4233488110420584, -0.4233488110420584]], [[0.4234046356751042, -0.4234046356751042]], [[0.42346030450841415, -0.4234603045084142]], [[0.4235158180301847, -0.42351581803018473]], [[0.42357117672673555, -0.4235711767267356]], [[0.4236263810825193, -0.42362638108251943]], [[0.4236814315801307, -0.42368143158013083]], [[0.4237363287003158, -0.4237363287003159]], [[0.4237910729219814, -0.42379107292198154]], [[0.42384566472220425, -0.4238456647222044]], [[0.4239001045762401, -0.4239001045762403]], [[0.4239543929575327, -0.4239543929575329]], [[0.42400853033772296, -0.42400853033772323]], [[0.42406251718665794, -0.4240625171866582]], [[0.42411635397239955, -0.42411635397239983]], [[0.4241700411612336, -0.42417004116123386]], [[0.4242235792176783, -0.4242235792176786]], [[0.42427696860449343, -0.42427696860449376]], [[0.42433020978268865, -0.4243302097826889]], [[0.4243833032115321, -0.4243833032115324]], [[0.42443624934855934, -0.4244362493485596]], [[0.42448904864958154, -0.4244890486495818]], [[0.4245417015686939, -0.4245417015686942]], [[0.4245942085582844, -0.42459420855828467]], [[0.42464657006904166, -0.424646570069042]], [[0.42469878654996374, -0.4246987865499641]], [[0.424750858448366, -0.4247508584483664]], [[0.4248027862098896, -0.42480278620989]], [[0.42485457027850926, -0.42485457027850965]], [[0.4249062110965418, -0.42490621109654214]], [[0.4249577091046538, -0.42495770910465414]], [[0.4250090647418699, -0.42500906474187017]], [[0.4250602784455804, -0.4250602784455807]], [[0.42511135065154954, -0.4251113506515498]], [[0.42516228179392307, -0.42516228179392335]], [[0.42521307230523614, -0.4252130723052364]], [[0.425263722616421, -0.42526372261642126]], [[0.4253142331568147, -0.425314233156815]], [[0.4253646043541669, -0.4253646043541672]], [[0.42541483663464724, -0.4254148366346475]], [[0.42546493042285294, -0.4254649304228532]], [[0.4255148861418165, -0.42551488614181676]], [[0.4255647042130129, -0.42556470421301323]], [[0.42561438505636734, -0.4256143850563677]], [[0.4256639290902622, -0.4256639290902625]], [[0.42571333673154466, -0.425713336731545]], [[0.425762608395534, -0.42576260839553437]], [[0.42581174449602865, -0.42581174449602904]], [[0.42586074544531355, -0.42586074544531394]], [[0.42590961165416713, -0.4259096116541676]], [[0.4259583435318686, -0.42595834353186907]], [[0.426006941486205, -0.42600694148620544]], [[0.4260554059234779, -0.42605540592347835]], [[0.42610373724851086, -0.42610373724851136]], [[0.42615193586465605, -0.42615193586465655]], [[0.4262000021738012, -0.4262000021738017]], [[0.42624793657637655, -0.42624793657637705]], [[0.4262957394713615, -0.426295739471362]], [[0.42634341125629155, -0.426343411256292]], [[0.4263909523272648, -0.42639095232726526]], [[0.42643836307894895, -0.42643836307894945]], [[0.4264856439045877, -0.4264856439045882]], [[0.4265327951960075, -0.426532795196008]], [[0.426579817343624, -0.42657981734362443]], [[0.42662671073644853, -0.42662671073644903]], [[0.4266734757620949, -0.4266734757620954]], [[0.4267201128067856, -0.42672011280678607]], [[0.42676662225535816, -0.4267666222553586]], [[0.4268130044912717, -0.42681300449127213]], [[0.4268592598966131, -0.4268592598966136]], [[0.42690538885210366, -0.4269053888521042]], [[0.42695139173710484, -0.4269513917371054]], [[0.4269972689296248, -0.4269972689296254]], [[0.4270430208063246, -0.4270430208063252]], [[0.42708864774252425, -0.42708864774252486]], [[0.42713415011220884, -0.42713415011220945]], [[0.4271795282880347, -0.42717952828803524]], [[0.42722478264133523, -0.4272247826413358]], [[0.42726991354212723, -0.4272699135421278]], [[0.4273149213591167, -0.42731492135911725]], [[0.42735980645970467, -0.42735980645970517]], [[0.42740456920999337, -0.42740456920999387]], [[0.4274492099747918, -0.42744920997479224]], [[0.42749372911762185, -0.42749372911762223]], [[0.42753812700072386, -0.42753812700072424]], [[0.42758240398506253, -0.427582403985063]], [[0.42762656043033265, -0.42762656043033315]], [[0.4276705966949648, -0.4276705966949653]], [[0.427714513136131, -0.42771451313613146]], [[0.4277583101097502, -0.42775831010975063]], [[0.42780198797049407, -0.4278019879704945]], [[0.4278455470717926, -0.42784554707179306]], [[0.4278889877658395, -0.42788898776583995]], [[0.42793231040359775, -0.42793231040359825]], [[0.42797551533480516, -0.4279755153348057]], [[0.42801860290797966, -0.4280186029079802]], [[0.42806157347042484, -0.42806157347042545]], [[0.4281044273682353, -0.4281044273682359]], [[0.4281471649463019, -0.4281471649463025]], [[0.42818978654831724, -0.42818978654831785]], [[0.4282322925167809, -0.42823229251678147]], [[0.4282746831930046, -0.4282746831930051]], [[0.4283169589171175, -0.428316958917118]], [[0.4283591200280715, -0.4283591200280721]], [[0.4284011668636463, -0.4284011668636469]], [[0.4284430997604545, -0.428443099760455]], [[0.4284849190539468, -0.4284849190539473]], [[0.42852662507841704, -0.42852662507841754]], [[0.4285682181670073, -0.4285682181670078]], [[0.42860969865171283, -0.4286096986517133]], [[0.4286510668633872, -0.42865106686338766]], [[0.4286923231317471, -0.4286923231317476]], [[0.4287334677853774, -0.4287334677853779]], [[0.42877450115173604, -0.4287745011517366]], [[0.42881542355715896, -0.42881542355715946]], [[0.4288562353268647, -0.42885623532686523]], [[0.42889693678495966, -0.42889693678496027]], [[0.42893752825444265, -0.42893752825444326]], [[0.4289780100572096, -0.4289780100572102]], [[0.4290183825140585, -0.4290183825140591]], [[0.429058645944694, -0.4290586459446946]], [[0.42909880066773215, -0.42909880066773276]], [[0.42913884700070504, -0.4291388470007057]], [[0.42917878526006553, -0.42917878526006625]], [[0.4292186157611919, -0.42921861576119263]], [[0.4292583388183922, -0.4292583388183929]], [[0.42929795474490906, -0.4292979547449098]], [[0.4293374638529242, -0.4293374638529249]], [[0.4293768664535629, -0.4293768664535636]], [[0.4294161628568985, -0.4294161628568992]], [[0.4294553533719568, -0.4294553533719575]], [[0.42949443830672074, -0.42949443830672146]], [[0.42953341796813466, -0.4295334179681353]], [[0.4295722926621086, -0.4295722926621093]], [[0.4296110626935229, -0.42961106269352356]], [[0.4296497283662323, -0.429649728366233]], [[0.4296882899830705, -0.42968828998307124]], [[0.42972674784585446, -0.42972674784585513]], [[0.4297651022553884, -0.42976510225538905]], [[0.42980335351146826, -0.4298033535114689]], [[0.4298415019128861, -0.4298415019128867]], [[0.429879547757434, -0.4298795477574346]], [[0.4299174913419083, -0.42991749134190893]], [[0.4299553329621141, -0.4299553329621147]], [[0.42999307291286876, -0.42999307291286937]], [[0.4300307114880068, -0.43003071148800737]], [[0.43006824898038337, -0.4300682489803839]], [[0.4301056856818786, -0.4301056856818792]], [[0.43014302188340175, -0.4301430218834023]], [[0.43018025787489483, -0.43018025787489544]], [[0.4302173939453372, -0.4302173939453378]], [[0.4302544303827491, -0.43025443038274963]], [[0.43029136747419566, -0.4302913674741962]], [[0.4303282055057912, -0.43032820550579176]], [[0.4303649447627028, -0.43036494476270337]], [[0.43040158552915436, -0.4304015855291549]], [[0.43043812808843035, -0.43043812808843085]], [[0.4304745727228798, -0.4304745727228803]], [[0.4305109197139202, -0.4305109197139207]], [[0.4305471693420412, -0.4305471693420417]], [[0.4305833218868084, -0.4305833218868089]], [[0.4306193776268673, -0.4306193776268678]], [[0.43065533683994683, -0.4306553368399474]], [[0.4306911998028633, -0.43069119980286386]], [[0.43072696679152395, -0.43072696679152456]], [[0.4307626380809309, -0.4307626380809315]], [[0.4307982139451845, -0.4307982139451851]], [[0.43083369465748733, -0.4308336946574879]], [[0.43086908049014755, -0.43086908049014805]], [[0.43090437171458273, -0.43090437171458323]], [[0.43093956860132343, -0.43093956860132393]], [[0.4309746714200167, -0.4309746714200172]], [[0.4310096804394298, -0.4310096804394303]], [[0.43104459592745353, -0.431044595927454]], [[0.43107941815110606, -0.4310794181511065]], [[0.4311141473765362, -0.4311141473765366]], [[0.4311487838690269, -0.4311487838690273]], [[0.43118332789299896, -0.4311833278929993]], [[0.43121777971201425, -0.4312177797120146]], [[0.4312521395887793, -0.4312521395887796]], [[0.4312864077851486, -0.43128640778514893]], [[0.4313205845621282, -0.4313205845621285]], [[0.4313546701798789, -0.43135467017987916]], [[0.4313886648977197, -0.43138866489772]], [[0.4314225689741312, -0.43142256897413145]], [[0.4314563826667589, -0.4314563826667592]], [[0.4314901062324165, -0.43149010623241674]], [[0.43152373992708926, -0.4315237399270895]], [[0.4315572840059373, -0.4315572840059375]], [[0.43159073872329873, -0.43159073872329895]], [[0.43162410433269305, -0.4316241043326933]], [[0.43165738108682444, -0.4316573810868247]], [[0.43169056923758475, -0.43169056923758503]], [[0.43172366903605686, -0.4317236690360572]], [[0.431756680732518, -0.43175668073251827]], [[0.4317896045764426, -0.4317896045764429]], [[0.4318224408165057, -0.431822440816506]], [[0.43185518970058606, -0.43185518970058634]], [[0.43188785147576914, -0.43188785147576936]], [[0.4319204263883503, -0.4319204263883506]], [[0.4319529146838381, -0.4319529146838384]], [[0.431985316606957, -0.4319853166069573]], [[0.4320176324016507, -0.432017632401651]], [[0.432049862311085, -0.43204986231108533]], [[0.43208200657765106, -0.4320820065776514]], [[0.4321140654429682, -0.43211406544296854]], [[0.4321460391478871, -0.43214603914788735]], [[0.43217792793249243, -0.4321779279324927]], [[0.4322097320361063, -0.4322097320361066]], [[0.43224145169729095, -0.4322414516972912]], [[0.43227308715385165, -0.43227308715385193]], [[0.4323046386428398, -0.4323046386428401]], [[0.43233610640055575, -0.432336106400556]], [[0.43236749066255165, -0.43236749066255187]], [[0.43239879166363443, -0.43239879166363465]], [[0.4324300096378686, -0.4324300096378689]], [[0.43246114481857917, -0.43246114481857945]], [[0.4324921974383545, -0.43249219743835476]], [[0.43252316772904903, -0.43252316772904925]], [[0.43255405592178614, -0.4325540559217863]], [[0.432584862246961, -0.4325848622469612]], [[0.4326155869342434, -0.43261558693424357]], [[0.43264623021258036, -0.43264623021258053]], [[0.432676792310199, -0.4326767923101992]], [[0.43270727345460935, -0.4327072734546095]], [[0.4327376738726069, -0.4327376738726071]], [[0.4327679937902755, -0.43276799379027564]], [[0.4327982334329899, -0.43279823343299]], [[0.4328283930254186, -0.4328283930254187]], [[0.43285847279152645, -0.4328584727915266]], [[0.4328884729545774, -0.43288847295457755]], [[0.432918393737137, -0.43291839373713714]], [[0.43294823536107513, -0.4329482353610753]], [[0.43297799804756876, -0.4329779980475689]], [[0.4330076820171043, -0.4330076820171045]], [[0.43303728748948045, -0.43303728748948067]], [[0.4330668146838106, -0.4330668146838108]], [[0.4330962638185255, -0.4330962638185258]], [[0.433125635111376, -0.4331256351113762]], [[0.4331549287794351, -0.43315492877943534]], [[0.43318414503910113, -0.43318414503910135]], [[0.43321328410609977, -0.4332132841061]], [[0.4332423461954869, -0.4332423461954871]], [[0.43327133152165087, -0.4332713315216511]], [[0.4333002402983152, -0.4333002402983154]], [[0.4333290727385409, -0.43332907273854104]], [[0.43335782905472897, -0.4333578290547291]], [[0.43338650945862306, -0.4333865094586231]], [[0.4334151141613115, -0.43341511416131157]], [[0.43344364337323016, -0.43344364337323027]], [[0.4334720973041647, -0.4334720973041648]], [[0.4335004761632529, -0.433500476163253]], [[0.4335287801589872, -0.43352878015898727]], [[0.43355700949921705, -0.43355700949921705]], [[0.4335851643911512, -0.4335851643911512]], [[0.4336132450413602, -0.4336132450413602]], [[0.4336412516557786, -0.4336412516557786]], [[0.4336691844397076, -0.4336691844397076]], [[0.433697043597817, -0.433697043597817]], [[0.43372482933414785, -0.4337248293341478]], [[0.4337525418521144, -0.43375254185211437]], [[0.4337801813545068, -0.43378018135450674]], [[0.4338077480434932, -0.4338077480434931]], [[0.4338352421206219, -0.4338352421206218]], [[0.4338626637868239, -0.4338626637868238]], [[0.433890013242415, -0.4338900132424149]], [[0.4339172906870979, -0.43391729068709783]], [[0.43394449631996485, -0.43394449631996485]], [[0.4339716303394996, -0.43397163033949954]], [[0.43399869294357946, -0.4339986929435794]], [[0.43402568432947786, -0.4340256843294778]], [[0.4340526046938663, -0.4340526046938663]], [[0.43407945423281674, -0.4340794542328168]], [[0.4341062331418036, -0.43410623314180363]], [[0.434132941615706, -0.43413294161570604]], [[0.4341595798488098, -0.43415957984880993]], [[0.4341861480348101, -0.4341861480348102]], [[0.4342126463668129, -0.434212646366813]], [[0.4342390750373376, -0.43423907503733766]], [[0.43426543423831887, -0.434265434238319]], [[0.43429172416110895, -0.43429172416110906]], [[0.4343179449964797, -0.4343179449964798]], [[0.4343440969346245, -0.43434409693462467]], [[0.43437018016516066, -0.4343701801651609]], [[0.43439619487713127, -0.43439619487713144]], [[0.43442214125900724, -0.4344221412590074]], [[0.43444801949868944, -0.4344480194986896]], [[0.4344738297835108, -0.43447382978351096]], [[0.43449957230023817, -0.43449957230023833]], [[0.4345252472350745, -0.4345252472350747]], [[0.4345508547736608, -0.43455085477366096]], [[0.43457639510107804, -0.4345763951010782]], [[0.43460186840184944, -0.43460186840184956]], [[0.43462727485994207, -0.4346272748599422]], [[0.43465261465876914, -0.4346526146587692]], [[0.4346778879811918, -0.4346778879811919]], [[0.4347030950095212, -0.43470309500952126]], [[0.43472823592552035, -0.4347282359255204]], [[0.43475331091040614, -0.4347533109104062]], [[0.43477832014485124, -0.43477832014485135]], [[0.4348032638089861, -0.4348032638089862]], [[0.4348281420824006, -0.4348281420824008]], [[0.43485295514414646, -0.4348529551441466]], [[0.4348777031727386, -0.43487770317273877]], [[0.43490238634615735, -0.4349023863461575]], [[0.4349270048418503, -0.4349270048418505]], [[0.4349515588367341, -0.4349515588367343]], [[0.43497604850719634, -0.43497604850719657]], [[0.43500047402909753, -0.4350004740290977]], [[0.43502483557777266, -0.4350248355777729]], [[0.4350491333280334, -0.43504913332803363]], [[0.43507336745416975, -0.43507336745417]], [[0.43509753812995183, -0.43509753812995206]], [[0.43512164552863175, -0.43512164552863203]], [[0.43514568982294555, -0.4351456898229458]], [[0.4351696711851147, -0.435169671185115]], [[0.4351935897868482, -0.43519358978684847]], [[0.4352174457993442, -0.43521744579934446]], [[0.4352412393932918, -0.43524123939329207]], [[0.4352649707388729, -0.4352649707388731]], [[0.4352886400057638, -0.435288640005764]], [[0.4353122473631371, -0.4353122473631374]], [[0.4353357929796636, -0.4353357929796639]], [[0.43535927702351357, -0.4353592770235139]], [[0.4353826996623589, -0.4353826996623592]], [[0.43540606106337465, -0.435406061063375]], [[0.43542936139324084, -0.4354293613932412]], [[0.43545260081814413, -0.4354526008181445]], [[0.4354757795037795, -0.4354757795037799]], [[0.43549889761535204, -0.43549889761535243]], [[0.4355219553175785, -0.4355219553175788]], [[0.4355449527746889, -0.43554495277468924]], [[0.4355678901504286, -0.43556789015042896]], [[0.43559076760805965, -0.4355907676080599]], [[0.4356135853103624, -0.4356135853103626]], [[0.43563634341963725, -0.4356363434196375]], [[0.43565904209770645, -0.4356590420977067]], [[0.4356816815059155, -0.43568168150591574]], [[0.43570426180513505, -0.4357042618051352]], [[0.435726783155762, -0.43572678315576224]], [[0.4357492457177219, -0.4357492457177221]], [[0.4357716496504697, -0.43577164965046994]], [[0.4357939951129922, -0.43579399511299244]], [[0.435816282263809, -0.4358162822638092]], [[0.4358385112609743, -0.4358385112609745]], [[0.4358606822620787, -0.43586068226207886]], [[0.4358827954242504, -0.4358827954242505]], [[0.43590485090415704, -0.43590485090415715]], [[0.4359268488580072, -0.43592684885800725]], [[0.43594878944155185, -0.4359487894415519]], [[0.4359706728100861, -0.43597067281008617]], [[0.4359924991184506, -0.43599249911845067]], [[0.4360142685210331, -0.43601426852103314]], [[0.43603598117176995, -0.43603598117177]], [[0.43605763722414775, -0.4360576372241478]], [[0.43607923683120475, -0.4360792368312048]], [[0.4361007801455324, -0.4361007801455325]], [[0.4361222673192769, -0.43612226731927695]], [[0.43614369850414053, -0.4361436985041406]], [[0.4361650738513834, -0.4361650738513835]], [[0.43618639351182475, -0.4361863935118248]], [[0.4362076576358445, -0.43620765763584457]], [[0.4362288663733847, -0.43622886637338476]], [[0.43625001987395096, -0.43625001987395096]], [[0.436271118286614, -0.4362711182866141]], [[0.4362921617600112, -0.43629216176001123]], [[0.4363131504423477, -0.43631315044234775]], [[0.4363340844813982, -0.4363340844813982]], [[0.4363549640245082, -0.43635496402450824]], [[0.4363757892185955, -0.43637578921859554]], [[0.43639656021015166, -0.4363965602101517]], [[0.43641727714524337, -0.4364172771452434]], [[0.43643794016951387, -0.4364379401695139]], [[0.43645854942818435, -0.4364585494281844]], [[0.4364791050660554, -0.4364791050660555]], [[0.4364996072275084, -0.4364996072275084]], [[0.4365200560565068, -0.43652005605650673]], [[0.4365404516965976, -0.43654045169659755]], [[0.4365607942909128, -0.43656079429091277]], [[0.4365810839821707, -0.43658108398217066]], [[0.4366013209126772, -0.43660132091267717]], [[0.43662150522432736, -0.43662150522432724]], [[0.4366416370586064, -0.43664163705860626]], [[0.43666171655659153, -0.43666171655659136]], [[0.43668174385895286, -0.4366817438589527]], [[0.43670171910595507, -0.43670171910595496]], [[0.43672164243745853, -0.4367216424374585]], [[0.4367415139929208, -0.4367415139929207]], [[0.4367613339113978, -0.43676133391139765]], [[0.4367811023315451, -0.436781102331545]], [[0.4368008193916195, -0.4368008193916194]], [[0.43682048522948014, -0.43682048522948]], [[0.4368400999825897, -0.4368400999825896]], [[0.436859663788016, -0.4368596637880159]], [[0.436879176782433, -0.4368791767824328]], [[0.43689863910212223, -0.43689863910212207]], [[0.4369180508829742, -0.436918050882974]], [[0.4369374122604893, -0.43693741226048916]], [[0.4369567233697796, -0.4369567233697794]], [[0.4369759843455695, -0.43697598434556933]], [[0.43699519532219766, -0.43699519532219744]], [[0.4370143564336176, -0.43701435643361736]], [[0.43703346781339947, -0.4370334678133993]], [[0.43705252959473107, -0.43705252959473084]], [[0.4370715419104191, -0.43707154191041886]], [[0.4370905048928904, -0.4370905048928902]], [[0.4371094186741933, -0.437109418674193]], [[0.4371282833859985, -0.43712828338599824]], [[0.4371470991596009, -0.43714709915960065]], [[0.4371658661259203, -0.43716586612592]], [[0.4371845844155026, -0.43718458441550234]], [[0.4372032541585215, -0.43720325415852124]], [[0.43722187548477914, -0.4372218754847789]], [[0.4372404485237077, -0.4372404485237075]], [[0.4372589734043705, -0.4372589734043703]], [[0.4372774502554629, -0.4372774502554627]], [[0.4372958792053139, -0.4372958792053137]], [[0.4373142603818871, -0.4373142603818869]], [[0.43733259391278195, -0.4373325939127818]], [[0.4373508799252348, -0.4373508799252347]], [[0.43736911854612026, -0.4373691185461201]], [[0.4373873099019522, -0.437387309901952]], [[0.4374054541188849, -0.43740545411888476]], [[0.43742355132271443, -0.4374235513227143]], [[0.4374416016388796, -0.43744160163887946]], [[0.43745960519246296, -0.43745960519246285]], [[0.43747756210819233, -0.4374775621081922]], [[0.4374954725104417, -0.4374954725104415]], [[0.43751333652323227, -0.4375133365232321]], [[0.4375311542702338, -0.43753115427023365]], [[0.4375489258747656, -0.4375489258747654]], [[0.43756665145979773, -0.4375666514597975]], [[0.43758433114795187, -0.43758433114795164]], [[0.43760196506150284, -0.4376019650615027]], [[0.43761955332237945, -0.4376195533223793]], [[0.4376370960521655, -0.43763709605216533]], [[0.43765459337210116, -0.437654593372101]], [[0.4376720454030838, -0.43767204540308363]], [[0.43768945226566924, -0.4376894522656691]], [[0.43770681408007284, -0.43770681408007267]], [[0.4377241309661704, -0.43772413096617024]], [[0.4377414030434995, -0.4377414030434994]], [[0.4377586304312604, -0.4377586304312603]], [[0.43777581324831705, -0.437775813248317]], [[0.43779295161319837, -0.4377929516131983]], [[0.4378100456440991, -0.437810045644099]], [[0.43782709545888093, -0.4378270954588808]], [[0.4378441011750736, -0.4378441011750735]], [[0.4378610629098759, -0.4378610629098758]], [[0.4378779807801567, -0.43787798078015666]], [[0.4378948549024561, -0.43789485490245605]], [[0.43791168539298625, -0.4379116853929862]], [[0.4379284723676326, -0.43792847236763255]], [[0.4379452159419548, -0.43794521594195474]], [[0.43796191623118774, -0.43796191623118763]], [[0.4379785733502426, -0.4379785733502425]], [[0.43799518741370785, -0.43799518741370774]], [[0.4380117585358504, -0.4380117585358502]], [[0.43802828683061623, -0.43802828683061606]], [[0.4380447724116318, -0.43804477241163164]], [[0.4380612153922049, -0.4380612153922048]], [[0.4380776158853255, -0.43807761588532546]], [[0.4380939740036672, -0.4380939740036671]], [[0.43811028985958744, -0.4381102898595874]], [[0.4381265635651293, -0.43812656356512925]], [[0.43814279523202204, -0.438142795232022]], [[0.4381589849716821, -0.4381589849716821]], [[0.4381751328952142, -0.43817513289521426]], [[0.43819123911341223, -0.43819123911341235]], [[0.4382073037367603, -0.4382073037367604]], [[0.43822332687543364, -0.4382233268754337]], [[0.43823930863929944, -0.4382393086392995]], [[0.4382552491379181, -0.43825524913791813]], [[0.4382711484805438, -0.4382711484805439]], [[0.438287006776126, -0.43828700677612603]], [[0.43830282413330973, -0.4383028241333098]], [[0.438318600660437, -0.43831860066043704]], [[0.4383343364655476, -0.43833433646554765]], [[0.43835003165638003, -0.4383500316563801]], [[0.4383656863403724, -0.4383656863403725]], [[0.43838130062466335, -0.4383813006246635]], [[0.4383968746160931, -0.43839687461609333]], [[0.4384124084212043, -0.4384124084212046]], [[0.4384279021462429, -0.43842790214624316]], [[0.4384433558971591, -0.4384433558971593]], [[0.43845876977960824, -0.4384587697796085]], [[0.4384741438989518, -0.4384741438989521]], [[0.43848947836025814, -0.4384894783602585]], [[0.43850477326830367, -0.438504773268304]], [[0.4385200287275734, -0.43852002872757373]], [[0.4385352448422621, -0.4385352448422624]], [[0.4385504217162751, -0.4385504217162754]], [[0.4385655594532292, -0.4385655594532295]], [[0.43858065815645353, -0.4385806581564538]], [[0.43859571792899044, -0.4385957179289907]], [[0.43861073887359636, -0.43861073887359664]], [[0.4386257210927428, -0.43862572109274306]], [[0.43864066468861695, -0.43864066468861723]], [[0.4386555697631229, -0.43865556976312314]], [[0.4386704364178823, -0.4386704364178825]], [[0.438685264754235, -0.43868526475423525]], [[0.43870005487324054, -0.4387000548732409]], [[0.43871480687567843, -0.4387148068756788]], [[0.43872952086204925, -0.43872952086204964]], [[0.4387441969325754, -0.43874419693257577]], [[0.43875883518720205, -0.43875883518720243]], [[0.43877343572559796, -0.43877343572559835]], [[0.43878799864715623, -0.4387879986471566]], [[0.43880252405099524, -0.4388025240509956]], [[0.43881701203595946, -0.43881701203595985]], [[0.43883146270062034, -0.43883146270062073]], [[0.4388458761432769, -0.4388458761432773]], [[0.438860252461957, -0.43886025246195737]], [[0.4388745917544176, -0.43887459175441795]], [[0.43888889411814613, -0.4388888941181464]], [[0.43890315965036086, -0.4389031596503611]], [[0.43891738844801204, -0.43891738844801226]], [[0.43893158060778253, -0.43893158060778276]], [[0.4389457362260887, -0.4389457362260889]], [[0.43895985539908117, -0.43895985539908133]], [[0.4389739382226457, -0.43897393822264585]], [[0.43898798479240375, -0.438987984792404]], [[0.43900199520371375, -0.43900199520371397]], [[0.4390159695516713, -0.4390159695516716]], [[0.43902990793111063, -0.43902990793111085]], [[0.4390438104366046, -0.43904381043660484]], [[0.43905767716246624, -0.43905767716246646]], [[0.4390715082027491, -0.4390715082027493]], [[0.4390853036512481, -0.43908530365124826]], [[0.43909906360150036, -0.4390990636015005]], [[0.439112788146786, -0.4391127881467862]], [[0.43912647738012894, -0.4391264773801291]], [[0.4391401313942975, -0.4391401313942976]], [[0.4391537502818052, -0.4391537502818053]], [[0.43916733413491177, -0.43916733413491194]], [[0.4391808830456237, -0.43918088304562386]], [[0.439194397105695, -0.4391943971056952]], [[0.43920787640662806, -0.43920787640662823]], [[0.4392213210396742, -0.4392213210396744]], [[0.4392347310958347, -0.43923473109583483]], [[0.43924810666586134, -0.43924810666586145]], [[0.43926144784025717, -0.4392614478402573]], [[0.4392747547092774, -0.4392747547092775]], [[0.43928802736293004, -0.4392880273629301]], [[0.43930126589097657, -0.4393012658909766]], [[0.43931447038293275, -0.4393144703829328]], [[0.4393276409280694, -0.4393276409280694]], [[0.43934077761541307, -0.439340777615413]], [[0.4393538805337467, -0.43935388053374663]], [[0.43936694977161045, -0.4393669497716104]], [[0.43937998541730255, -0.4393799854173025]], [[0.4393929875588797, -0.43939298755887957]], [[0.4394059562841579, -0.43940595628415774]], [[0.43941889168071335, -0.43941889168071324]], [[0.43943179383588304, -0.43943179383588293]], [[0.4394446628367654, -0.4394446628367653]], [[0.43945749877022106, -0.43945749877022094]], [[0.43947030172287355, -0.4394703017228734]], [[0.43948307178111, -0.43948307178110985]], [[0.4394958090310819, -0.4394958090310817]], [[0.4395085135587057, -0.43950851355870557]], [[0.43952118544966357, -0.43952118544966345]], [[0.4395338247894042, -0.43953382478940406]], [[0.4395464316631432, -0.43954643166314306]], [[0.439559006155864, -0.43955900615586385]], [[0.43957154835231854, -0.4395715483523184]], [[0.4395840583370279, -0.43958405833702774]], [[0.4395965361942829, -0.43959653619428274]], [[0.439608982008145, -0.43960898200814486]], [[0.43962139586244686, -0.43962139586244664]], [[0.4396337778407928, -0.43963377784079266]], [[0.43964612802656, -0.43964612802655983]], [[0.4396584465028986, -0.4396584465028984]], [[0.4396707333527326, -0.43967073335273243]], [[0.4396829886587607, -0.43968298865876054]], [[0.4396952125034567, -0.43969521250345656]], [[0.43970740496907035, -0.4397074049690702]], [[0.4397195661376278, -0.43971956613762764]], [[0.4397316960909325, -0.4397316960909324]], [[0.43974379491056564, -0.43974379491056553]], [[0.43975586267788697, -0.43975586267788686]], [[0.4397678994740354, -0.4397678994740352]], [[0.4397799053799295, -0.43977990537992934]], [[0.4397918804762684, -0.43979188047626827]], [[0.4398038248435322, -0.43980382484353214]], [[0.43981573856198286, -0.4398157385619828]], [[0.43982762171166456, -0.4398276217116645]], [[0.43983947437240456, -0.4398394743724045]], [[0.43985129662381367, -0.4398512966238136]], [[0.4398630885452871, -0.439863088545287]], [[0.43987485021600475, -0.43987485021600464]], [[0.43988658171493217, -0.43988658171493206]], [[0.4398982831208211, -0.4398982831208209]], [[0.4399099545122099, -0.4399099545122097]], [[0.4399215959674244, -0.43992159596742425]], [[0.43993320756457854, -0.4399332075645784]], [[0.4399447893815747, -0.43994478938157455]], [[0.43995634149610474, -0.4399563414961046]], [[0.4399678639856502, -0.43996786398565]], [[0.43997935692748313, -0.43997935692748297]], [[0.4399908203986667, -0.43999082039866655]], [[0.4400022544760558, -0.4400022544760556]], [[0.4400136592362975, -0.4400136592362973]], [[0.44002503475583177, -0.44002503475583166]], [[0.4400363811108923, -0.4400363811108922]], [[0.44004769837750674, -0.4400476983775067]], [[0.44005898663149734, -0.44005898663149734]], [[0.4400702459484818, -0.4400702459484819]], [[0.44008147640387374, -0.4400814764038738]], [[0.44009267807288305, -0.4400926780728831]], [[0.4401038510305169, -0.44010385103051697]], [[0.44011499535158005, -0.4401149953515801]], [[0.44012611111067546, -0.44012611111067546]], [[0.44013719838220494, -0.44013719838220494]], [[0.44014825724036977, -0.44014825724036977]], [[0.4401592877591712, -0.44015928775917124]], [[0.440170290012411, -0.44017029001241104]], [[0.4401812640736921, -0.4401812640736922]], [[0.44019221001641934, -0.44019221001641934]], [[0.4402031279137995, -0.4402031279137995]], [[0.44021401783884245, -0.4402140178388425]], [[0.44022487986436154, -0.44022487986436154]], [[0.440235714062974, -0.440235714062974]], [[0.44024652050710167, -0.44024652050710167]], [[0.4402572992689715, -0.4402572992689715]], [[0.44026805042061623, -0.4402680504206162]], [[0.44027877403387466, -0.4402787740338746]], [[0.4402894701803926, -0.4402894701803925]], [[0.4403001389316231, -0.44030013893162306]], [[0.4403107803588272, -0.44031078035882715]], [[0.4403213945330744, -0.4403213945330744]], [[0.44033198152524317, -0.4403319815252431]], [[0.4403425414060215, -0.44034254140602147]], [[0.44035307424590775, -0.4403530742459077]], [[0.44036358011521065, -0.4403635801152106]], [[0.44037405908405025, -0.44037405908405025]], [[0.4403845112223584, -0.4403845112223584]], [[0.4403949365998792, -0.4403949365998792]], [[0.4404053352861696, -0.4404053352861696]], [[0.4404157073505998, -0.4404157073505998]], [[0.44042605286235403, -0.4404260528623541]], [[0.44043637189043094, -0.440436371890431]], [[0.44044666450364406, -0.4404466645036441]], [[0.4404569307706225, -0.4404569307706225]], [[0.44046717075981123, -0.44046717075981123]], [[0.44047738453947194, -0.440477384539472]], [[0.44048757217768336, -0.4404875721776834]], [[0.4404977337423418, -0.44049773374234186]], [[0.44050786930116165, -0.44050786930116165]], [[0.4405179789216759, -0.4405179789216759]], [[0.44052806267123673, -0.44052806267123673]], [[0.440538120617016, -0.440538120617016]], [[0.4405481528260058, -0.4405481528260058]], [[0.4405581593650188, -0.4405581593650188]], [[0.4405681403006889, -0.4405681403006889]], [[0.4405780956994718, -0.44057809569947187]], [[0.4405880256276453, -0.44058802562764543]], [[0.4405979301513101, -0.4405979301513102]], [[0.44060780933638993, -0.44060780933639004]], [[0.44061766324863233, -0.4406176632486325]], [[0.4406274919536092, -0.44062749195360934]], [[0.44063729551671693, -0.4406372955167171]], [[0.4406470740031774, -0.44064707400317754]], [[0.4406568274780379, -0.44065682747803814]], [[0.4406665560061724, -0.4406665560061726]], [[0.4406762596522812, -0.4406762596522814]], [[0.44068593848089194, -0.44068593848089216]], [[0.44069559255636, -0.4406955925563602]], [[0.4407052219428689, -0.4407052219428691]], [[0.4407148267044308, -0.440714826704431]], [[0.4407244069048871, -0.44072440690488734]], [[0.44073396260790887, -0.4407339626079091]], [[0.4407434938769972, -0.4407434938769974]], [[0.44075300077548385, -0.44075300077548407]], [[0.4407624833665316, -0.4407624833665319]], [[0.44077194171313494, -0.4407719417131352]], [[0.4407813758781203, -0.4407813758781206]], [[0.44079078592414667, -0.44079078592414694]], [[0.44080017191370596, -0.4408001719137062]], [[0.4408095339091236, -0.4408095339091238]], [[0.44081887197255887, -0.44081887197255915]], [[0.44082818616600566, -0.44082818616600594]], [[0.4408374765512925, -0.4408374765512928]], [[0.4408467431900834, -0.4408467431900837]], [[0.44085598614387805, -0.44085598614387844]], [[0.4408652054740126, -0.4408652054740129]], [[0.44087440124165966, -0.44087440124166]], [[0.4408835735078292, -0.44088357350782953]], [[0.4408927223333688, -0.4408927223333691]], [[0.44090184777896413, -0.44090184777896446]], [[0.4409109499051394, -0.4409109499051398]], [[0.4409200287722579, -0.4409200287722583]], [[0.4409290844405223, -0.44092908444052265]], [[0.4409381169699752, -0.44093811696997554]], [[0.4409471264204996, -0.44094712642049994]], [[0.4409561128518193, -0.44095611285181957]], [[0.4409650763234993, -0.44096507632349957]], [[0.4409740168949464, -0.4409740168949467]], [[0.44098293462540955, -0.4409829346254099]], [[0.4409918295739802, -0.4409918295739806]], [[0.441000701799593, -0.4410007017995934]], [[0.4410095513610258, -0.4410095513610262]], [[0.4410183783169007, -0.44101837831690105]], [[0.4410271827256839, -0.44102718272568425]], [[0.44103596464568645, -0.4410359646456868]], [[0.4410447241350647, -0.44104472413506507]], [[0.4410534612518206, -0.44105346125182093]], [[0.4410621760538022, -0.44106217605380255]], [[0.44107086859870404, -0.44107086859870437]], [[0.4410795389440677, -0.441079538944068]], [[0.44108818714728204, -0.4410881871472823]], [[0.44109681326558375, -0.44109681326558403]], [[0.44110541735605774, -0.441105417356058]], [[0.4411139994756376, -0.4411139994756379]], [[0.44112255968110603, -0.4411225596811063]], [[0.44113109802909517, -0.4411310980290955]], [[0.44113961457608714, -0.44113961457608747]], [[0.44114810937841437, -0.4411481093784147]], [[0.44115658249226, -0.4411565824922603]], [[0.44116503397365836, -0.4411650339736587]], [[0.44117346387849543, -0.44117346387849576]], [[0.4411818722625091, -0.4411818722625095]], [[0.4411902591812898, -0.4411902591812902]], [[0.44119862469028065, -0.44119862469028104]], [[0.4412069688447781, -0.44120696884477845]], [[0.4412152916999322, -0.44121529169993257]], [[0.441223593310747, -0.4412235933107474]], [[0.4412318737320811, -0.4412318737320815]], [[0.441240133018648, -0.4412401330186484]], [[0.4412483712250163, -0.4412483712250167]], [[0.44125658840561044, -0.44125658840561083]], [[0.4412647846147108, -0.44126478461471125]], [[0.4412729599064543, -0.44127295990645476]], [[0.44128111433483475, -0.44128111433483524]], [[0.44128924795370317, -0.44128924795370367]], [[0.4412973608167683, -0.4412973608167688]], [[0.4413054529775968, -0.4413054529775973]], [[0.4413135244896141, -0.4413135244896146]], [[0.44132157540610406, -0.44132157540610456]], [[0.4413296057802101, -0.44132960578021063]], [[0.441337615664935, -0.44133761566493557]], [[0.44134560511314186, -0.4413456051131424]], [[0.44135357417755394, -0.4413535741775545]], [[0.4413615229107554, -0.4413615229107559]], [[0.44136945136519157, -0.4413694513651921]], [[0.4413773595931693, -0.44137735959316987]], [[0.4413852476468575, -0.44138524764685805]], [[0.4413931155782872, -0.44139311557828775]], [[0.4414009634393523, -0.44140096343935287]], [[0.44140879128180976, -0.4414087912818103]], [[0.44141659915728, -0.44141659915728054]], [[0.4414243871172473, -0.4414243871172478]], [[0.44143215521306006, -0.44143215521306056]], [[0.4414399034959314, -0.44143990349593193]], [[0.4414476320169393, -0.4414476320169399]], [[0.44145534082702725, -0.4414553408270278]], [[0.44146302997700426, -0.4414630299770048]], [[0.44147069951754553, -0.4414706995175461]], [[0.44147834949919273, -0.4414783494991933]], [[0.4414859799723543, -0.4414859799723549]], [[0.4414935909873059, -0.44149359098730645]], [[0.4415011825941907, -0.44150118259419124]], [[0.4415087548430198, -0.4415087548430204]], [[0.44151630778367273, -0.4415163077836733]], [[0.44152384146589746, -0.44152384146589807]], [[0.4415313559393111, -0.4415313559393117]], [[0.4415388512534001, -0.4415388512534007]], [[0.4415463274575206, -0.44154632745752115]], [[0.44155378460089884, -0.44155378460089945]], [[0.4415612227326316, -0.4415612227326322]], [[0.4415686419016864, -0.441568641901687]], [[0.4415760421569018, -0.44157604215690244]], [[0.44158342354698815, -0.44158342354698876]], [[0.4415907861205274, -0.44159078612052804]], [[0.44159812992597386, -0.4415981299259745]], [[0.4416054550116544, -0.44160545501165505]], [[0.4416127614257688, -0.4416127614257694]], [[0.44162004921639, -0.4416200492163906]], [[0.4416273184314647, -0.4416273184314653]], [[0.4416345691188135, -0.4416345691188141]], [[0.44164180132613134, -0.44164180132613196]], [[0.4416490151009878, -0.4416490151009884]], [[0.4416562104908275, -0.4416562104908281]], [[0.44166338754297024, -0.4416633875429709]], [[0.4416705463046117, -0.44167054630461244]], [[0.4416776868228236, -0.4416776868228242]], [[0.44168480914455377, -0.4416848091445544]], [[0.441691913316627, -0.4416919133166276]], [[0.4416989993857449, -0.4416989993857456]], [[0.4417060673984868, -0.44170606739848745]], [[0.4417131174013093, -0.44171311740131]], [[0.4417201494405474, -0.4417201494405481]], [[0.4417271635624143, -0.441727163562415]], [[0.441734159813002, -0.4417341598130027]], [[0.44174113823828154, -0.44174113823828215]], [[0.4417480988841032, -0.4417480988841038]], [[0.4417550417961972, -0.44175504179619773]], [[0.44176196702017356, -0.4417619670201741]], [[0.44176887460152275, -0.44176887460152336]], [[0.44177576458561607, -0.4417757645856167]], [[0.44178263701770565, -0.4417826370177063]], [[0.44178949194292505, -0.4417894919429257]], [[0.4417963294062895, -0.44179632940629016]], [[0.4418031494526961, -0.4418031494526967]], [[0.4418099521269244, -0.44180995212692503]], [[0.4418167374736366, -0.4418167374736372]], [[0.44182350553737765, -0.4418235055373782]], [[0.44183025636257595, -0.44183025636257656]], [[0.4418369899935435, -0.44183698999354404]], [[0.4418437064744761, -0.4418437064744766]], [[0.44185040584945373, -0.44185040584945434]], [[0.4418570881624412, -0.4418570881624418]], [[0.4418637534572878, -0.4418637534572884]], [[0.44187040177772824, -0.44187040177772885]], [[0.4418770331673826, -0.44187703316738314]], [[0.4418836476697567, -0.44188364766975724]], [[0.4418902453282426, -0.44189024532824317]], [[0.44189682618611875, -0.44189682618611925]], [[0.4419033902865502, -0.4419033902865507]], [[0.44190993767258907, -0.44190993767258957]], [[0.4419164683871749, -0.44191646838717547]], [[0.4419229824731349, -0.44192298247313544]], [[0.441929479973184, -0.4419294799731846]], [[0.4419359609299256, -0.44193596092992626]], [[0.4419424253858516, -0.44194242538585227]], [[0.4419488733833427, -0.4419488733833433]], [[0.44195530496466884, -0.44195530496466945]], [[0.44196172017198937, -0.44196172017199]], [[0.44196811904735345, -0.44196811904735406]], [[0.44197450163270013, -0.4419745016327008]], [[0.4419808679698591, -0.44198086796985975]], [[0.4419872181005504, -0.4419872181005511]], [[0.44199355206638535, -0.441993552066386]], [[0.44199986990886625, -0.4419998699088669]], [[0.44200617166938705, -0.4420061716693877]], [[0.44201245738923356, -0.44201245738923417]], [[0.4420187271095836, -0.44201872710958423]], [[0.4420249808715076, -0.4420249808715082]], [[0.44203121871596857, -0.4420312187159692]], [[0.44203744068382256, -0.4420374406838231]], [[0.4420436468158189, -0.4420436468158195]], [[0.44204983715260054, -0.4420498371526011]], [[0.4420560117347042, -0.44205601173470477]], [[0.4420621706025609, -0.4420621706025614]], [[0.442068313796496, -0.4420683137964965]], [[0.4420744413567297, -0.4420744413567302]], [[0.44208055332337703, -0.44208055332337753]], [[0.4420866497364485, -0.442086649736449]], [[0.44209273063585014, -0.4420927306358507]], [[0.4420987960613838, -0.4420987960613844]], [[0.44210484605274764, -0.4421048460527482]], [[0.44211088064953596, -0.4421108806495366]], [[0.44211689989124003, -0.4421168998912406]], [[0.44212290381724795, -0.44212290381724856]], [[0.44212889246684517, -0.4421288924668458]], [[0.4421348658792146, -0.4421348658792152]], [[0.442140824093437, -0.44214082409343763]], [[0.4421467671484914, -0.44214676714849194]], [[0.44215269508325483, -0.44215269508325544]], [[0.44215860793650325, -0.4421586079365039]], [[0.4421645057469114, -0.44216450574691213]], [[0.44217038855305335, -0.4421703885530541]], [[0.4421762563934026, -0.44217625639340324]], [[0.4421821093063321, -0.44218210930633284]], [[0.44218794733011524, -0.44218794733011596]], [[0.44219377050292535, -0.4421937705029261]], [[0.44219957886283645, -0.4421995788628372]], [[0.44220537244782326, -0.442205372447824]], [[0.4422111512957617, -0.44221115129576244]], [[0.442216915444429, -0.44221691544442976]], [[0.4422226649315039, -0.4422226649315047]], [[0.4422283997945672, -0.44222839979456796]], [[0.4422341200711016, -0.44223412007110235]], [[0.4422398257984923, -0.4422398257984931]], [[0.4422455170140273, -0.4422455170140281]], [[0.44225119375489735, -0.44225119375489813]], [[0.44225685605819637, -0.44225685605819715]], [[0.44226250396092187, -0.44226250396092265]], [[0.44226813749997496, -0.44226813749997573]], [[0.44227375671216074, -0.44227375671216146]], [[0.4422793616341885, -0.4422793616341892]], [[0.44228495230267206, -0.44228495230267273]], [[0.44229052875413, -0.4422905287541306]], [[0.44229609102498574, -0.44229609102498635]], [[0.4423016391515681, -0.4423016391515687]], [[0.44230717317011137, -0.442307173170112]], [[0.44231269311675553, -0.44231269311675614]], [[0.44231819902754665, -0.4423181990275472]], [[0.44232369093843693, -0.44232369093843754]], [[0.44232916888528523, -0.4423291688852859]], [[0.44233463290385716, -0.4423346329038578]], [[0.44234008302982525, -0.4423400830298259]], [[0.44234551929876936, -0.44234551929877003]], [[0.4423509417461768, -0.44235094174617745]], [[0.44235635040744264, -0.4423563504074433]], [[0.44236174531787004, -0.4423617453178707]], [[0.44236712651267035, -0.442367126512671]], [[0.4423724940269634, -0.4423724940269641]], [[0.4423778478957778, -0.44237784789577844]], [[0.4423831881540511, -0.4423831881540518]], [[0.44238851483663016, -0.4423885148366309]], [[0.44239382797827126, -0.442393827978272]], [[0.44239912761364036, -0.4423991276136411]], [[0.4424044137773135, -0.44240441377731426]], [[0.44240968650377677, -0.44240968650377754]], [[0.44241494582742674, -0.4424149458274275]], [[0.4424201917825708, -0.4424201917825715]], [[0.4424254244034271, -0.4424254244034278]], [[0.4424306437241249, -0.44243064372412566]], [[0.44243584977870504, -0.44243584977870576]], [[0.4424410426011199, -0.4424410426011206]], [[0.4424462222252336, -0.44244622222523433]], [[0.4424513886848226, -0.44245138868482325]], [[0.4424565420135755, -0.44245654201357615]], [[0.4424616822450935, -0.44246168224509425]], [[0.44246680941289085, -0.44246680941289157]], [[0.4424719235503945, -0.4424719235503952]], [[0.4424770246909448, -0.4424770246909456]], [[0.44248211286779565, -0.44248211286779643]], [[0.44248718811411464, -0.44248718811411547]], [[0.4424922504629833, -0.4424922504629842]], [[0.4424972999473974, -0.4424972999473983]], [[0.4425023366002671, -0.442502336600268]], [[0.44250736045441724, -0.4425073604544181]], [[0.44251237154258743, -0.44251237154258827]], [[0.44251736989743257, -0.4425173698974334]], [[0.4425223555515227, -0.4425223555515235]], [[0.44252732853734356, -0.4425273285373444]], [[0.4425322888872965, -0.44253228888729734]], [[0.44253723663369915, -0.4425372366337]], [[0.44254217180878513, -0.442542171808786]], [[0.44254709444470464, -0.44254709444470547]], [[0.4425520045735244, -0.4425520045735252]], [[0.4425569022272282, -0.442556902227229]], [[0.4425617874377169, -0.4425617874377177]], [[0.4425666602368087, -0.44256666023680946]], [[0.4425715206562393, -0.44257152065624]], [[0.4425763687276622, -0.44257636872766287]], [[0.4425812044826489, -0.44258120448264965]], [[0.44258602795268925, -0.44258602795269]], [[0.44259083916919134, -0.44259083916919206]], [[0.442595638163482, -0.4425956381634827]], [[0.44260042496680696, -0.4426004249668076]], [[0.44260519961033096, -0.44260519961033157]], [[0.442609962125138, -0.4426099621251386]], [[0.44261471254223167, -0.4426147125422323]], [[0.44261945089253535, -0.44261945089253596]], [[0.44262417720689223, -0.44262417720689284]], [[0.4426288915160657, -0.4426288915160663]], [[0.4426335938507396, -0.4426335938507402]], [[0.44263828424151824, -0.4426382842415188]], [[0.4426429627189267, -0.4426429627189273]], [[0.4426476293134112, -0.44264762931341173]], [[0.4426522840553389, -0.4426522840553395]], [[0.4426569269749987, -0.44265692697499937]], [[0.44266155810260094, -0.4426615581026016]], [[0.44266617746827785, -0.4426661774682785]], [[0.44267078510208363, -0.44267078510208435]], [[0.44267538103399484, -0.44267538103399556]], [[0.4426799652939104, -0.4426799652939112]], [[0.44268453791165197, -0.4426845379116527]], [[0.442689098916964, -0.4426890989169647]], [[0.442693648339514, -0.44269364833951463]], [[0.44269818620889284, -0.44269818620889345]], [[0.4427027125546148, -0.4427027125546154]], [[0.44270722740611784, -0.44270722740611845]], [[0.4427117307927639, -0.4427117307927645]], [[0.44271622274383887, -0.4427162227438395]], [[0.442720703288553, -0.4427207032885537]], [[0.44272517245604104, -0.4427251724560417]], [[0.4427296302753624, -0.44272963027536305]], [[0.4427340767755013, -0.442734076775502]], [[0.44273851198536723, -0.44273851198536784]], [[0.44274293593379477, -0.44274293593379543]], [[0.44274734864954407, -0.44274734864954474]], [[0.442751750161301, -0.44275175016130164]], [[0.4427561404976773, -0.4427561404976779]], [[0.4427605196872106, -0.4427605196872112]], [[0.442764887758365, -0.4427648877583656]], [[0.442769244739531, -0.4427692447395316]], [[0.4427735906590258, -0.4427735906590264]], [[0.4427779255450933, -0.44277792554509393]], [[0.4427822494259047, -0.4427822494259053]], [[0.44278656232955826, -0.4427865623295588]], [[0.4427908642840796, -0.44279086428408015]], [[0.44279515531742214, -0.4427951553174227]], [[0.442799435457467, -0.4427994354574676]], [[0.4428037047320234, -0.4428037047320239]], [[0.44280796316882864, -0.44280796316882914]], [[0.44281221079554844, -0.44281221079554894]], [[0.4428164476397772, -0.4428164476397776]], [[0.44282067372903783, -0.4428206737290383]], [[0.4428248890907825, -0.442824889090783]], [[0.4428290937523923, -0.4428290937523928]], [[0.4428332877411778, -0.4428332877411783]], [[0.44283747108437893, -0.44283747108437943]], [[0.4428416438091654, -0.4428416438091659]], [[0.4428458059426368, -0.44284580594263734]], [[0.44284995751182277, -0.4428499575118233]], [[0.44285409854368324, -0.44285409854368374]], [[0.4428582290651085, -0.442858229065109]], [[0.4428623491029196, -0.44286234910292005]], [[0.44286645868386815, -0.44286645868386865]], [[0.442870557834637, -0.4428705578346375]], [[0.4428746465818401, -0.4428746465818406]], [[0.4428787249520227, -0.4428787249520232]], [[0.4428827929716616, -0.44288279297166205]], [[0.4428868506671653, -0.44288685066716577]], [[0.44289089806487425, -0.4428908980648747]], [[0.4428949351910608, -0.44289493519106127]], [[0.44289896207192986, -0.4428989620719303]], [[0.44290297873361845, -0.44290297873361895]], [[0.44290698520219635, -0.4429069852021969]], [[0.4429109815036662, -0.44291098150366676]], [[0.4429149676639635, -0.442914967663964]], [[0.44291894370895674, -0.4429189437089573]], [[0.44292290966444803, -0.4429229096644486]], [[0.4429268655561728, -0.4429268655561734]], [[0.4429308114098002, -0.4429308114098008]], [[0.4429347472509331, -0.4429347472509337]], [[0.4429386731051086, -0.44293867310510915]], [[0.44294258899779776, -0.4429425889977983]], [[0.44294649495440613, -0.44294649495440663]], [[0.4429503910002738, -0.4429503910002743]], [[0.4429542771606754, -0.4429542771606759]], [[0.4429581534608208, -0.44295815346082135]], [[0.4429620199258545, -0.4429620199258551]], [[0.44296587658085657, -0.4429658765808571]], [[0.4429697234508422, -0.4429697234508428]], [[0.44297356056076226, -0.44297356056076287]], [[0.4429773879355034, -0.442977387935504]], [[0.4429812055998881, -0.4429812055998887]], [[0.44298501357867487, -0.4429850135786755]], [[0.4429888118965586, -0.4429888118965592]], [[0.4429926005781704, -0.442992600578171]], [[0.4429963796480781, -0.44299637964807875]], [[0.4430001491307861, -0.44300014913078684]], [[0.443003909050736, -0.44300390905073667]], [[0.44300765943230613, -0.4430076594323068]], [[0.4430114002998123, -0.44301140029981295]], [[0.44301513167750756, -0.4430151316775082]], [[0.44301885358958265, -0.4430188535895833]], [[0.44302256606016593, -0.4430225660601666]], [[0.4430262691133237, -0.4430262691133244]], [[0.44302996277306034, -0.44302996277306106]], [[0.4430336470633184, -0.44303364706331916]], [[0.44303732200797885, -0.4430373220079797]], [[0.44304098763086125, -0.443040987630862]], [[0.4430446439557236, -0.44304464395572446]], [[0.4430482910062632, -0.44304829100626403]], [[0.44305192880611594, -0.44305192880611677]], [[0.44305555737885716, -0.44305555737885804]], [[0.4430591767480015, -0.4430591767480024]], [[0.443062786937003, -0.44306278693700396]], [[0.4430663879692555, -0.44306638796925646]], [[0.44306997986809254, -0.44306997986809354]], [[0.44307356265678777, -0.44307356265678877]], [[0.44307713635855484, -0.44307713635855583]], [[0.4430807009965478, -0.4430807009965488]], [[0.443084256593861, -0.44308425659386197]], [[0.4430878031735296, -0.4430878031735305]], [[0.4430913407585293, -0.44309134075853024]], [[0.4430948693717769, -0.44309486937177783]], [[0.44309838903613014, -0.44309838903613114]], [[0.4431018997743881, -0.4431018997743891]], [[0.44310540160929107, -0.44310540160929207]], [[0.4431088945635211, -0.4431088945635221]], [[0.44311237865970177, -0.4431123786597027]], [[0.44311585392039854, -0.4431158539203995]], [[0.44311932036811885, -0.4431193203681198]], [[0.44312277802531225, -0.44312277802531325]], [[0.44312622691437065, -0.4431262269143717]], [[0.4431296670576284, -0.44312966705762946]], [[0.4431330984773624, -0.44313309847736343]], [[0.4431365211957922, -0.44313652119579333]], [[0.4431399352350806, -0.4431399352350817]], [[0.443143340617333, -0.4431433406173341]], [[0.4431467373645983, -0.4431467373645994]], [[0.4431501254988686, -0.44315012549886973]], [[0.4431535050420796, -0.44315350504208073]], [[0.44315687601611053, -0.44315687601611164]], [[0.4431602384427844, -0.4431602384427855]], [[0.44316359234386826, -0.44316359234386943]], [[0.4431669377410732, -0.4431669377410744]], [[0.44317027465605446, -0.44317027465605574]], [[0.44317360311041176, -0.4431736031104131]], [[0.4431769231256893, -0.4431769231256906]], [[0.4431802347233759, -0.44318023472337725]], [[0.4431835379249052, -0.44318353792490656]], [[0.4431868327516559, -0.4431868327516572]], [[0.4431901192249516, -0.443190119224953]], [[0.44319339736606134, -0.4431933973660627]], [[0.4431966671961993, -0.4431966671962007]], [[0.4431999287365255, -0.44319992873652686]], [[0.44320318200814535, -0.4432031820081467]], [[0.4432064270321102, -0.4432064270321115]], [[0.44320966382941734, -0.4432096638294186]], [[0.44321289242101014, -0.44321289242101136]], [[0.44321611282777823, -0.4432161128277794]], [[0.4432193250705575, -0.44321932507055867]], [[0.44322252917013044, -0.44322252917013166]], [[0.4432257251472263, -0.44322572514722747]], [[0.44322891302252093, -0.4432289130225221]], [[0.4432320928166372, -0.4432320928166384]], [[0.4432352645501451, -0.4432352645501462]], [[0.44323842824356174, -0.44323842824356285]], [[0.4432415839173515, -0.44324158391735263]], [[0.4432447315919265, -0.4432447315919276]], [[0.44324787128764626, -0.44324787128764737]], [[0.4432510030248181, -0.44325100302481923]], [[0.4432541268236973, -0.4432541268236984]], [[0.4432572427044871, -0.4432572427044882]], [[0.4432603506873389, -0.44326035068734]], [[0.4432634507923524, -0.4432634507923535]], [[0.44326654303957586, -0.443266543039577]], [[0.443269627449006, -0.4432696274490071]], [[0.44327270404058816, -0.4432727040405893]], [[0.4432757728342167, -0.4432757728342178]], [[0.4432788338497348, -0.44327883384973593]], [[0.44328188710693484, -0.44328188710693595]], [[0.44328493262555835, -0.44328493262555946]], [[0.44328797042529633, -0.44328797042529744]], [[0.4432910005257892, -0.4432910005257903]], [[0.44329402294662695, -0.4432940229466281]], [[0.4432970377073496, -0.44329703770735074]], [[0.4433000448274467, -0.4433000448274479]], [[0.4433030443263582, -0.4433030443263593]], [[0.44330603622347386, -0.443306036223475]], [[0.4433090205381339, -0.44330902053813503]], [[0.44331199728962895, -0.4433119972896301]], [[0.4433149664972001, -0.4433149664972013]], [[0.44331792818003923, -0.44331792818004045]], [[0.443320882357289, -0.44332088235729017]], [[0.4433238290480429, -0.44332382904804407]], [[0.44332676827134554, -0.4433267682713467]], [[0.4433297000461927, -0.4433297000461939]], [[0.4433326243915315, -0.4433326243915327]], [[0.44333554132626046, -0.44333554132626163]], [[0.44333845086922974, -0.44333845086923085]], [[0.44334135303924105, -0.4433413530392421]], [[0.443344247855048, -0.44334424785504906]], [[0.4433471353353562, -0.4433471353353572]], [[0.44335001549882314, -0.4433500154988242]], [[0.4433528883640587, -0.4433528883640598]], [[0.44335575394962495, -0.44335575394962606]], [[0.44335861227403656, -0.4433586122740376]], [[0.44336146335576054, -0.44336146335576154]], [[0.4433643072132167, -0.4433643072132177]], [[0.44336714386477766, -0.4433671438647786]], [[0.443369973328769, -0.44336997332876993]], [[0.44337279562346926, -0.44337279562347015]], [[0.44337561076711024, -0.44337561076711113]], [[0.443378418777877, -0.44337841877787787]], [[0.443381219673908, -0.44338121967390887]], [[0.44338401347329526, -0.44338401347329615]], [[0.44338680019408455, -0.4433868001940854]], [[0.4433895798542753, -0.4433895798542761]], [[0.44339235247182085, -0.4433923524718216]], [[0.4433951180646286, -0.4433951180646294]], [[0.4433978766505601, -0.4433978766505609]], [[0.4434006282474311, -0.4434006282474319]], [[0.44340337287301185, -0.4434033728730127]], [[0.443406110545027, -0.44340611054502777]], [[0.44340884128115576, -0.44340884128115654]], [[0.44341156509903223, -0.44341156509903307]], [[0.4434142820162453, -0.4434142820162461]], [[0.4434169920503387, -0.4434169920503396]], [[0.44341969521881136, -0.4434196952188123]], [[0.4434223915391175, -0.4434223915391185]], [[0.44342508102866657, -0.4434250810286675]], [[0.4434277637048234, -0.4434277637048243]], [[0.44343043958490835, -0.44343043958490924]], [[0.4434331086861975, -0.44343310868619845]], [[0.44343577102592285, -0.44343577102592374]], [[0.4434384266212721, -0.443438426621273]], [[0.44344107548938894, -0.4434410754893898]], [[0.4434437176473734, -0.4434437176473743]], [[0.44344635311228153, -0.4434463531122824]], [[0.44344898190112586, -0.44344898190112675]], [[0.4434516040308753, -0.4434516040308762]], [[0.44345421951845543, -0.4434542195184563]], [[0.44345682838074835, -0.44345682838074924]], [[0.4434594306345932, -0.4434594306345941]], [[0.4434620262967858, -0.4434620262967867]], [[0.4434646153840792, -0.44346461538408016]], [[0.44346719791318345, -0.4434671979131844]], [[0.4434697739007659, -0.44346977390076686]], [[0.44347234336345126, -0.44347234336345215]], [[0.4434749063178216, -0.44347490631782255]], [[0.4434774627804168, -0.4434774627804178]], [[0.44348001276773424, -0.44348001276773524]], [[0.44348255629622924, -0.44348255629623023]], [[0.44348509338231484, -0.44348509338231584]], [[0.4434876240423623, -0.44348762404236325]], [[0.44349014829270084, -0.4434901482927018]], [[0.443492666149618, -0.44349266614961896]], [[0.4434951776293597, -0.4434951776293607]], [[0.44349768274813023, -0.44349768274813123]], [[0.4435001815220925, -0.4435001815220935]], [[0.443502673967368, -0.443502673967369]], [[0.4435051601000371, -0.4435051601000381]], [[0.443507639936139, -0.44350763993614]], [[0.4435101134916719, -0.4435101134916729]], [[0.44351258078259304, -0.4435125807825941]], [[0.44351504182481893, -0.44351504182482]], [[0.4435174966342254, -0.44351749663422646]], [[0.4435199452266476, -0.4435199452266486]], [[0.4435223876178802, -0.44352238761788126]], [[0.44352482382367764, -0.4435248238236787]], [[0.4435272538597539, -0.44352725385975494]], [[0.44352967774178287, -0.4435296777417839]], [[0.44353209548539846, -0.44353209548539946]], [[0.4435345071061944, -0.4435345071061954]], [[0.4435369126197248, -0.4435369126197258]], [[0.4435393120415038, -0.44353931204150476]], [[0.4435417053870061, -0.443541705387007]], [[0.4435440926716666, -0.4435440926716675]], [[0.443546473910881, -0.44354647391088187]], [[0.4435488491200054, -0.44354884912000636]], [[0.4435512183143569, -0.44355121831435784]], [[0.4435535815092133, -0.44355358150921426]], [[0.44355593871981347, -0.4435559387198144]], [[0.4435582899613572, -0.4435582899613582]], [[0.44356063524900563, -0.4435606352490066]], [[0.4435629745978809, -0.44356297459788185]], [[0.44356530802306676, -0.4435653080230677]], [[0.44356763553960826, -0.44356763553960915]], [[0.4435699571625121, -0.44356995716251296]], [[0.4435722729067465, -0.44357227290674744]], [[0.44357458278724166, -0.44357458278724265]], [[0.44357688681888946, -0.4435768868188905]], [[0.4435791850165438, -0.4435791850165449]], [[0.4435814773950207, -0.4435814773950218]], [[0.4435837639690981, -0.44358376396909927]], [[0.44358604475351654, -0.44358604475351765]], [[0.44358831976297863, -0.4435883197629797]], [[0.4435905890121494, -0.44359058901215054]], [[0.4435928525156567, -0.44359285251565783]], [[0.4435951102880908, -0.44359511028809195]], [[0.4435973623440047, -0.44359736234400593]], [[0.44359960869791437, -0.44359960869791565]], [[0.4436018493642986, -0.44360184936429986]], [[0.44360408435759924, -0.4436040843576005]], [[0.4436063136922212, -0.4436063136922225]], [[0.4436085373825327, -0.443608537382534]], [[0.4436107554428652, -0.4436107554428665]], [[0.4436129678875136, -0.44361296788751486]], [[0.4436151747307362, -0.4436151747307375]], [[0.4436173759867551, -0.44361737598675643]], [[0.4436195716697559, -0.4436195716697572]], [[0.44362176179388807, -0.4436217617938893]], [[0.44362394637326485, -0.44362394637326613]], [[0.4436261254219636, -0.4436261254219649]], [[0.44362829895402567, -0.443628298954027]], [[0.4436304669834565, -0.44363046698345787]], [[0.44363262952422583, -0.4436326295242273]], [[0.44363478659026784, -0.4436347865902692]], [[0.4436369381954809, -0.44363693819548233]], [[0.4436390843537281, -0.44363908435372956]], [[0.4436412250788372, -0.44364122507883863]], [[0.4436433603846004, -0.4436433603846018]], [[0.4436454902847749, -0.4436454902847763]], [[0.44364761479308273, -0.4436476147930842]], [[0.4436497339232109, -0.44364973392321233]], [[0.44365184768881144, -0.4436518476888129]], [[0.44365395610350167, -0.4436539561035031]], [[0.443656059180864, -0.4436560591808654]], [[0.44365815693444627, -0.4436581569344477]], [[0.4436602493777617, -0.44366024937776316]], [[0.4436623365242891, -0.4436623365242906]], [[0.44366441838747284, -0.4436644183874743]], [[0.4436664949807229, -0.44366649498072436]], [[0.44366856631741525, -0.4436685663174167]], [[0.4436706324108915, -0.44367063241089294]], [[0.4436726932744593, -0.44367269327446074]], [[0.4436747489213924, -0.44367474892139386]], [[0.4436767993649307, -0.44367679936493215]], [[0.44367884461828017, -0.44367884461828166]], [[0.44368088469461325, -0.44368088469461475]], [[0.44368291960706874, -0.44368291960707024]], [[0.4436849493687518, -0.44368494936875336]], [[0.4436869739927343, -0.4436869739927359]], [[0.44368899349205476, -0.44368899349205637]], [[0.4436910078797183, -0.44369100787972]], [[0.4436930171686971, -0.44369301716869874]], [[0.44369502137192995, -0.4436950213719316]], [[0.4436970205023229, -0.44369702050232457]], [[0.44369901457274896, -0.4436990145727506]], [[0.4437010035960483, -0.44370100359604997]], [[0.44370298758502835, -0.4437029875850301]], [[0.44370496655246394, -0.44370496655246566]], [[0.4437069405110973, -0.44370694051109894]], [[0.44370890947363806, -0.44370890947363967]], [[0.4437108734527635, -0.44371087345276516]], [[0.44371283246111864, -0.4437128324611203]], [[0.4437147865113162, -0.4437147865113178]], [[0.44371673561593666, -0.4437167356159383]], [[0.4437186797875285, -0.4437186797875301]], [[0.44372061903860827, -0.4437206190386099]], [[0.44372255338166045, -0.4437225533816621]], [[0.44372448282913785, -0.4437244828291395]], [[0.44372640739346136, -0.44372640739346303]], [[0.44372832708702037, -0.443728327087022]], [[0.4437302419221725, -0.44373024192217414]], [[0.443732151911244, -0.44373215191124565]], [[0.4437340570665297, -0.4437340570665313]], [[0.4437359574002929, -0.44373595740029453]], [[0.4437378529247659, -0.44373785292476753]], [[0.4437397436521497, -0.4437397436521513]], [[0.4437416295946141, -0.44374162959461577]], [[0.4437435107642981, -0.44374351076429974]], [[0.44374538717330947, -0.44374538717331113]], [[0.44374725883372534, -0.44374725883372707]], [[0.443749125757592, -0.4437491257575938]], [[0.4437509879569251, -0.4437509879569268]], [[0.4437528454437094, -0.44375284544371113]], [[0.4437546982298994, -0.44375469822990116]], [[0.443756546327419, -0.4437565463274208]], [[0.4437583897481618, -0.44375838974816356]], [[0.443760228503991, -0.44376022850399277]], [[0.4437620626067395, -0.44376206260674134]], [[0.44376389206821026, -0.4437638920682121]], [[0.443765716900176, -0.4437657169001779]], [[0.4437675371143795, -0.4437675371143814]], [[0.44376935272253354, -0.4437693527225354]], [[0.4437711637363211, -0.44377116373632297]], [[0.4437729701673954, -0.4437729701673973]], [[0.44377477202738, -0.4437747720273819]], [[0.44377656932786885, -0.4437765693278707]], [[0.4437783620804262, -0.44377836208042803]], [[0.443780150296587, -0.44378015029658885]], [[0.44378193398785676, -0.4437819339878586]], [[0.4437837131657117, -0.44378371316571347]], [[0.44378548784159866, -0.4437854878416005]], [[0.4437872580269355, -0.44378725802693736]], [[0.44378902373311097, -0.44378902373311285]], [[0.4437907849714847, -0.4437907849714866]], [[0.4437925417533875, -0.4437925417533894]], [[0.4437942940901212, -0.4437942940901231]], [[0.44379604199295897, -0.44379604199296085]], [[0.4437977854731451, -0.44379778547314697]], [[0.44379952454189536, -0.4437995245418973]], [[0.4438012592103969, -0.44380125921039887]], [[0.44380298948980845, -0.4438029894898104]], [[0.44380471539126015, -0.44380471539126215]], [[0.44380643692585403, -0.443806436925856]], [[0.4438081541046636, -0.44380815410466556]], [[0.44380986693873437, -0.44380986693873636]], [[0.4438115754390835, -0.44381157543908556]], [[0.4438132796167003, -0.44381327961670236]], [[0.443814979482546, -0.44381497948254806]], [[0.44381667504755395, -0.443816675047556]], [[0.44381836632262966, -0.44381836632263166]], [[0.4438200533186507, -0.4438200533186527]], [[0.44382173604646713, -0.4438217360464692]], [[0.4438234145169014, -0.4438234145169035]], [[0.4438250887407483, -0.44382508874075033]], [[0.4438267587287751, -0.44382675872877714]], [[0.4438284244917218, -0.4438284244917238]], [[0.44383008604030083, -0.4438300860403029]], [[0.44383174338519765, -0.4438317433851997]], [[0.44383339653707027, -0.4438333965370723]], [[0.4438350455065496, -0.4438350455065517]], [[0.44383669030423956, -0.4438366903042416]], [[0.443838330940717, -0.44383833094071906]], [[0.443839967426532, -0.443839967426534]], [[0.44384159977220744, -0.4438415997722095]], [[0.4438432279882398, -0.44384322798824183]], [[0.44384485208509855, -0.4438448520851006]], [[0.4438464720732267, -0.44384647207322875]], [[0.4438480879630406, -0.44384808796304265]], [[0.44384969976493, -0.4438496997649321]], [[0.44385130748925833, -0.44385130748926044]], [[0.44385291114636255, -0.4438529111463647]], [[0.4438545107465534, -0.44385451074655563]], [[0.44385610630011535, -0.4438561063001176]], [[0.4438576978173066, -0.44385769781730894]], [[0.4438592853083594, -0.4438592853083617]], [[0.44386086878347975, -0.4438608687834821]], [[0.4438624482528479, -0.44386244825285015]], [[0.44386402372661793, -0.4438640237266202]], [[0.4438655952149183, -0.4438655952149206]], [[0.44386716272785165, -0.44386716272785387]], [[0.4438687262754948, -0.44386872627549706]], [[0.443870285867899, -0.4438702858679012]], [[0.44387184151508996, -0.4438718415150922]], [[0.4438733932270678, -0.44387339322707003]], [[0.44387494101380726, -0.4438749410138095]], [[0.4438764848852576, -0.4438764848852598]], [[0.4438780248513429, -0.4438780248513451]], [[0.4438795609219619, -0.44387956092196407]], [[0.44388109310698814, -0.4438810931069903]], [[0.44388262141627005, -0.4438826214162722]], [[0.44388414585963104, -0.4438841458596332]], [[0.44388566644686944, -0.4438856664468716]], [[0.4438871831877587, -0.4438871831877609]], [[0.44388869609204745, -0.4438886960920496]], [[0.44389020516945954, -0.44389020516946165]], [[0.44389171042969394, -0.443891710429696]], [[0.443893211882425, -0.44389321188242703]], [[0.4438947095373025, -0.44389470953730453]], [[0.4438962034039516, -0.44389620340395364]], [[0.44389769349197306, -0.4438976934919751]], [[0.4438991798109432, -0.44389917981094523]], [[0.44390066237041387, -0.443900662370416]], [[0.4439021411799128, -0.4439021411799149]], [[0.4439036162489433, -0.4439036162489454]], [[0.44390508758698466, -0.44390508758698677]], [[0.4439065552034919, -0.44390655520349404]], [[0.4439080191078962, -0.4439080191078983]], [[0.4439094793096045, -0.44390947930960656]], [[0.443910935818, -0.44391093581800206]], [[0.4439123886424419, -0.44391238864244403]], [[0.44391383779226584, -0.44391383779226795]], [[0.44391528327678337, -0.4439152832767855]], [[0.44391672510528263, -0.44391672510528474]], [[0.443918163287028, -0.4439181632870301]], [[0.4439195978312603, -0.44391959783126245]], [[0.4439210287471969, -0.4439210287471991]], [[0.44392245604403174, -0.44392245604403396]], [[0.44392387973093533, -0.4439238797309376]], [[0.44392529981705486, -0.44392529981705714]], [[0.44392671631151426, -0.4439267163115166]], [[0.44392812922341435, -0.4439281292234167]], [[0.44392953856183265, -0.443929538561835]], [[0.44393094433582375, -0.443930944335826]], [[0.44393234655441904, -0.44393234655442126]], [[0.4439337452266271, -0.4439337452266293]], [[0.4439351403614335, -0.4439351403614357]], [[0.4439365319678011, -0.44393653196780325]], [[0.44393792005466975, -0.443937920054672]], [[0.44393930463095677, 