[[[0.001884816907565312, -0.0018848169075653676]], [[0.2781020908113981, -0.2781020908113982]], [[0.3363978571051949, -0.33639785710519526]], [[0.3680486306792581, -0.36804863067925847]], [[0.38839017706424306, -0.38839017706424345]], [[0.4024834442247284, -0.4024834442247286]], [[0.4126554326784591, -0.4126554326784587]], [[0.42017942084518645, -0.4201794208451866]], [[0.4258317023078943, -0.4258317023078946]], [[0.4301211487115802, -0.4301211487115804]], [[0.4333985024195661, -0.4333985024195664]], [[0.4359141582556545, -0.4359141582556546]], [[0.43785132694733725, -0.4378513269473375]], [[0.4393463885478843, -0.4393463885478848]], [[0.4405020912569975, -0.44050209125699763]], [[0.44139649990310564, -0.44139649990310564]], [[0.44208927831255695, -0.4420892783125567]], [[0.44262621883302083, -0.442626218833021]], [[0.44304257337949815, -0.44304257337949843]], [[0.44336553887762586, -0.44336553887762686]], [[0.4436161313718539, -0.4436161313718549]], [[0.44381060996424204, -0.4438106099642439]], [[0.44396156470860343, -0.4439615647086049]], [[0.44407875112291784, -0.4440787511229199]], [[0.4441697322372567, -0.4441697322372584]], [[0.4442403736552624, -0.4442403736552641]], [[0.44429522591066967, -0.4442952259106713]], [[0.4443378201466602, -0.44433782014666134]], [[0.4443708969854083, -0.44437089698540977]], [[0.4443965838137896, -0.44439658381379055]], [[0.4444165321895282, -0.444416532189529]], [[0.4444320243855656, -0.4444320243855662]], [[0.44444405603283205, -0.4444440560328326]], [[0.44445340024077157, -0.44445340024077157]], [[0.4444606573574974, -0.4444606573574974]], [[0.44446629359223366, -0.44446629359223366]], [[0.44447067099694554, -0.4444706709969455]], [[0.4444740707427856, -0.44447407074278555]], [[0.4444767111924287, -0.4444767111924287]], [[0.4444787619327564, -0.4444787619327568]], [[0.4444803546714268, -0.4444803546714271]], [[0.4444815916985715, -0.44448159169857193]], [[0.4444825524579074, -0.4444825524579076]], [[0.4444832986498197, -0.44448329864982006]], [[0.44448387819445967, -0.44448387819446017]], [[0.44448432830956874, -0.44448432830956974]], [[0.44448467790082574, -0.4444846779008268]], [[0.4444849494182794, -0.44448494941828043]], [[0.4444851602981452, -0.4444851602981461]], [[0.44448532408257563, -0.44448532408257635]], [[0.44448545128934475, -0.4444854512893453]], [[0.4444855500872927, -0.44448555008729307]], [[0.4444856268209131, -0.44448562682091364]], [[0.44448568641779235, -0.4444856864177938]], [[0.44448573270504355, -0.4444857327050449]], [[0.4444857686550765, -0.4444857686550775]], [[0.4444857965764791, -0.4444857965764798]], [[0.4444858182622656, -0.44448581826226685]], [[0.44448583510502226, -0.4444858351050236]], [[0.44448584818632975, -0.444485848186331]], [[0.44448585834622384, -0.4444858583462251]], [[0.4444858662371345, -0.4444858662371358]], [[0.44448587236578957, -0.444485872365791]], [[0.44448587712574833, -0.44448587712574944]], [[0.4444858808226781, -0.44448588082267954]], [[0.4444858836939823, -0.44448588369398395]], [[0.4444858859240452, -0.4444858859240471]], [[0.4444858876560739, -0.4444858876560758]], [[0.44448588900129377, -0.44448588900129604]], [[0.4444858900460895, -0.4444858900460913]], [[0.44448589085755424, -0.44448589085755524]], [[0.44448589148779627, -0.44448589148779744]], [[0.4444858919772876, -0.4444858919772889]], [[0.44448589235746305, -0.4444858923574642]], [[0.44448589265273514, -0.4444858926527362]], [[0.44448589288206514, -0.44448589288206625]], [[0.44448589306017855, -0.4444858930601797]], [[0.4444858931985147, -0.44448589319851567]], [[0.4444858933059574, -0.44448589330595795]], [[0.44448589338940475, -0.4444858933894053]], [[0.44448589345421574, -0.4444858934542165]], [[0.44448589350455187, -0.4444858935045527]], [[0.4444858935436464, -0.4444858935436478]], [[0.444485893574011, -0.44448589357401214]], [[0.4444858935975935, -0.444485893597595]], [[0.44448589361591007, -0.44448589361591123]], [[0.4444858936301362, -0.4444858936301372]], [[0.4444858936411855, -0.4444858936411864]], [[0.444485893649768, -0.4444858936497688]], [[0.44448589365643343, -0.44448589365643404]], [[0.4444858936616098, -0.4444858936616098]], [[0.44448589366562985, -0.44448589366562985]], [[0.44448589366875185, -0.44448589366875146]], [[0.44448589367117664, -0.44448589367117597]], [[0.4444858936730609, -0.4444858936730604]], [[0.44448589367452385, -0.4444858936745233]], [[0.4444858936756601, -0.4444858936756598]], [[0.44448589367654234, -0.44448589367654234]], [[0.4444858936772275, -0.4444858936772275]], [[0.44448589367775954, -0.4444858936777596]], [[0.4444858936781731, -0.4444858936781734]], [[0.44448589367849434, -0.44448589367849445]], [[0.4444858936787428, -0.44448589367874325]], [[0.4444858936789368, -0.44448589367893737]], [[0.4444858936790875, -0.44448589367908825]], [[0.4444858936792046, -0.44448589367920543]], [[0.4444858936792957, -0.44448589367929625]], [[0.4444858936793661, -0.44448589367936703]], [[0.4444858936794199, -0.444485893679421]], [[0.4444858936794625, -0.44448589367946373]], [[0.4444858936794964, -0.44448589367949715]], [[0.44448589367952274, -0.4444858936795228]], [[0.4444858936795429, -0.44448589367954283]], [[0.444485893679559, -0.44448589367955893]], [[0.4444858936795706, -0.44448589367957025]], [[0.44448589367957964, -0.44448589367957914]], [[0.4444858936795868, -0.444485893679586]], [[0.4444858936795916, -0.4444858936795907]], [[0.44448589367959596, -0.44448589367959523]], [[0.4444858936795997, -0.44448589367959906]], [[0.44448589367960095, -0.4444858936796011]], [[0.444485893679603, -0.44448589367960345]], [[0.4444858936796045, -0.4444858936796049]], [[0.444485893679606, -0.4444858936796063]], [[0.4444858936796075, -0.44448589367960745]], [[0.4444858936796089, -0.4444858936796089]], [[0.4444858936796097, -0.44448589367960945]], [[0.44448589367961094, -0.4444858936796102]], [[0.4444858936796111, -0.4444858936796107]], [[0.4444858936796116, -0.4444858936796104]], [[0.44448589367961183, -0.44448589367961044]], [[0.4444858936796121, -0.4444858936796109]], [[0.4444858936796122, -0.444485893679611]], [[0.44448589367961217, -0.4444858936796109]], [[0.4444858936796122, -0.4444858936796107]], [[0.4444858936796119, -0.44448589367961033]], [[0.444485893679612, -0.4444858936796103]], [[0.4444858936796121, -0.4444858936796105]], [[0.44448589367961205, -0.4444858936796112]], [[0.444485893679612, -0.4444858936796112]], [[0.4444858936796116, -0.4444858936796112]], [[0.4444858936796114, -0.4444858936796113]], [[0.44448589367961117, -0.44448589367961167]], [[0.4444858936796112, -0.44448589367961183]], [[0.4444858936796115, -0.4444858936796118]], [[0.4444858936796114, -0.4444858936796121]], [[0.44448589367961144, -0.4444858936796122]], [[0.4444858936796113, -0.44448589367961205]], [[0.44448589367961117, -0.4444858936796121]], [[0.44448589367961094, -0.44448589367961155]], [[0.4444858936796107, -0.44448589367961117]], [[0.44448589367961017, -0.44448589367961155]], [[0.44448589367961, -0.44448589367961194]], [[0.44448589367960983, -0.44448589367961205]], [[0.44448589367961, -0.4444858936796126]], [[0.44448589367960994, -0.44448589367961217]], [[0.4444858936796103, -0.44448589367961233]], [[0.4444858936796099, -0.4444858936796128]], [[0.4444858936796098, -0.4444858936796129]], [[0.44448589367960945, -0.4444858936796131]], [[0.4444858936796095, -0.44448589367961366]], [[0.4444858936796099, -0.4444858936796139]], [[0.44448589367960983, -0.4444858936796139]], [[0.4444858936796095, -0.4444858936796137]], [[0.4444858936796092, -0.44448589367961405]], [[0.44448589367960917, -0.444485893679614]], [[0.4444858936796097, -0.4444858936796137]], [[0.4444858936796095, -0.44448589367961344]], [[0.444485893679609, -0.44448589367961333]], [[0.44448589367960945, -0.444485893679614]], [[0.44448589367960917, -0.44448589367961344]], [[0.44448589367960994, -0.4444858936796134]], [[0.4444858936796103, -0.44448589367961355]], [[0.44448589367961067, -0.44448589367961333]], [[0.44448589367961067, -0.4444858936796131]], [[0.4444858936796102, -0.44448589367961305]], [[0.44448589367961017, -0.44448589367961266]], [[0.44448589367960983, -0.4444858936796129]], [[0.4444858936796092, -0.44448589367961294]], [[0.44448589367960933, -0.4444858936796132]], [[0.44448589367960906, -0.4444858936796131]], [[0.44448589367960883, -0.4444858936796131]], [[0.4444858936796087, -0.4444858936796136]], [[0.4444858936796086, -0.44448589367961383]], [[0.44448589367960856, -0.444485893679614]], [[0.4444858936796082, -0.4444858936796141]], [[0.44448589367960784, -0.44448589367961405]], [[0.44448589367960734, -0.4444858936796141]], [[0.4444858936796077, -0.4444858936796145]], [[0.4444858936796077, -0.44448589367961455]], [[0.44448589367960817, -0.44448589367961505]], [[0.44448589367960833, -0.4444858936796153]], [[0.44448589367960867, -0.44448589367961505]], [[0.44448589367960867, -0.4444858936796152]], [[0.4444858936796086, -0.4444858936796151]], [[0.44448589367960856, -0.4444858936796149]], [[0.4444858936796085, -0.44448589367961444]], [[0.44448589367960895, -0.4444858936796148]], [[0.44448589367960933, -0.4444858936796144]], [[0.4444858936796097, -0.44448589367961466]]]