[[[0.00026402999932496896, -0.0002640299993249412]], [[0.0003781153162137063, -0.00037811531621360916]], [[0.00046078688802431156, -0.00046078688802424217]], [[0.000638660301989058, -0.0006386603019889608]], [[0.000730544406710304, -0.0007305444067101097]], [[0.0009378728275369064, -0.000937872827536726]], [[0.0016793528830271187, -0.0016793528830268967]], [[0.002994862490892869, -0.0029948624908925914]], [[0.004077282294790499, -0.00407728229479018]], [[0.008435478879407515, -0.008435478879407154]], [[0.013829581793104756, -0.013829581793104409]], [[0.019655749374985904, -0.019655749374985557]], [[0.03242598175953497, -0.03242598175953468]], [[0.04785331126065354, -0.04785331126065328]], [[0.051080439426214416, -0.051080439426214125]], [[0.07252775381907142, -0.07252775381907109]], [[0.07758934635363829, -0.07758934635363791]], [[0.10208979864565881, -0.10208979864565847]], [[0.08940929088718776, -0.08940929088718738]], [[0.11031376054548252, -0.11031376054548216]], [[0.10382933311305645, -0.10382933311305609]], [[0.12123541465665354, -0.12123541465665316]], [[0.11838230053607478, -0.1183823005360744]], [[0.12830789275748397, -0.1283078927574836]], [[0.12886622185584218, -0.12886622185584184]], [[0.13553678763473032, -0.13553678763473]], [[0.13775827457919637, -0.13775827457919607]], [[0.14191804067776148, -0.1419180406777612]], [[0.143563599410445, -0.1435635994104447]], [[0.14709766625727996, -0.14709766625727969]], [[0.14880258667342666, -0.14880258667342636]], [[0.1514749083732474, -0.1514749083732471]], [[0.15309856630599164, -0.1530985663059913]], [[0.15535486822456243, -0.15535486822456215]], [[0.1569709662055769, -0.15697096620557666]], [[0.1589197084174251, -0.15891970841742484]], [[0.16037770475243154, -0.16037770475243132]], [[0.16199198308295618, -0.16199198308295598]], [[0.16340391398492812, -0.16340391398492793]], [[0.16482357590829344, -0.16482357590829327]], [[0.166210894302517, -0.1662108943025168]], [[0.1673704536011994, -0.16737045360119915]], [[0.16857291552002301, -0.16857291552002276]], [[0.16963929125857904, -0.16963929125857885]], [[0.1708176461079928, -0.1708176461079926]], [[0.17179605953482688, -0.17179605953482668]], [[0.1727884407010026, -0.17278844070100238]], [[0.17373961801550783, -0.1737396180155076]], [[0.17473088754928945, -0.17473088754928923]], [[0.17559579734966194, -0.1755957973496617]], [[0.1764460962599299, -0.17644609625992966]], [[0.17725895046161014, -0.17725895046160986]], [[0.17809603731005252, -0.17809603731005225]], [[0.17887336461097494, -0.1788733646109747]], [[0.1795869361024741, -0.17958693610247387]], [[0.18032444568658315, -0.1803244456865829]], [[0.1810302964156937, -0.1810302964156935]], [[0.1816969355028566, -0.18169693550285637]], [[0.18235518703878414, -0.1823551870387839]], [[0.1830090040552519, -0.18300900405525164]], [[0.183641866660635, -0.18364186666063473]], [[0.18424832534707242, -0.18424832534707217]], [[0.18484580681350662, -0.18484580681350637]], [[0.18543782911815765, -0.1854378291181574]], [[0.1859921161826845, -0.18599211618268421]], [[0.18653068280812107, -0.1865306828081208]], [[0.1870781805620359, -0.18707818056203562]], [[0.1876049492706213, -0.18760494927062102]], [[0.18809892728716723, -0.18809892728716698]], [[0.18861021818093734, -0.1886102181809371]], [[0.1890987970935015, -0.1890987970935012]], [[0.1895793165373007, -0.1895793165373004]], [[0.19004269306498808, -0.19004269306498775]], [[0.19050782185211632, -0.19050782185211595]], [[0.19095093983566563, -0.19095093983566527]], [[0.1913904073240516, -0.19139040732405121]], [[0.1918219663899707, -0.19182196638997034]], [[0.19224173044056347, -0.19224173044056314]], [[0.1926559344720309, -0.19265593447203053]], [[0.19305262594711672, -0.1930526259471164]], [[0.1934452447521398, -0.19344524475213942]], [[0.1938391433800709, -0.19383914338007052]], [[0.19421265945451294, -0.19421265945451258]], [[0.1945802961682567, -0.19458029616825634]], [[0.19496526126686506, -0.1949652612668647]], [[0.1953206059939897, -0.19532060599398934]], [[0.19567999811673656, -0.19567999811673617]], [[0.19603179486824582, -0.19603179486824546]], [[0.1963727293759835, -0.19637272937598313]], [[0.19671263318577206, -0.19671263318577165]], [[0.19703816788866393, -0.1970381678886635]], [[0.19736163184628058, -0.19736163184628017]], [[0.19768577302128218, -0.19768577302128176]], [[0.19800233211624738, -0.198002332116247]], [[0.19831880897898324, -0.1983188089789829]], [[0.19861639344739546, -0.19861639344739512]], [[0.19891824823712237, -0.19891824823712206]], [[0.19921856545512262, -0.19921856545512232]], [[0.19951347205509656, -0.19951347205509629]], [[0.19980506947700286, -0.19980506947700255]], [[0.2000869204313814, -0.2000869204313811]], [[0.2003674217199468, -0.20036742171994648]], [[0.20064764377890298, -0.20064764377890262]], [[0.20091678245191213, -0.20091678245191177]], [[0.20118937829531142, -0.20118937829531106]], [[0.2014552006678845, -0.2014552006678841]], [[0.20171953512147583, -0.20171953512147547]], [[0.20197338712536164, -0.20197338712536125]], [[0.20222958848250988, -0.2022295884825095]], [[0.2024819358648623, -0.20248193586486193]], [[0.20272521443266855, -0.2027252144326682]], [[0.20297399491918608, -0.2029739949191857]], [[0.20321114991465383, -0.20321114991465347]], [[0.20345073078495673, -0.2034507307849564]], [[0.2036901299855989, -0.20369012998559857]], [[0.20392518047406327, -0.20392518047406294]], [[0.2041561283739133, -0.204156128373913]], [[0.20438773738632954, -0.2043877373863292]], [[0.20461172718966747, -0.20461172718966714]], [[0.20483144408094395, -0.20483144408094364]], [[0.2050535789631373, -0.205053578963137]], [[0.20526779147654173, -0.20526779147654142]], [[0.20548015536893718, -0.2054801553689369]], [[0.205695486385486, -0.20569548638548574]], [[0.20590312450923698, -0.20590312450923676]], [[0.20610869851491084, -0.20610869851491062]], [[0.20631614748349467, -0.20631614748349447]], [[0.20651793282598035, -0.2065179328259802]], [[0.20671940188192559, -0.20671940188192542]], [[0.20692144532026602, -0.20692144532026585]], [[0.20711370188211972, -0.20711370188211953]], [[0.20731382921069721, -0.20731382921069702]], [[0.20750591697472054, -0.20750591697472034]], [[0.20769570714715196, -0.20769570714715177]], [[0.20788472436505195, -0.2078847243650518]], [[0.20806665158955429, -0.20806665158955412]], [[0.20825529016595326, -0.2082552901659531]], [[0.20843631215998562, -0.20843631215998545]], [[0.20861852224542923, -0.20861852224542907]], [[0.20879916454718314, -0.20879916454718297]], [[0.2089800425578861, -0.20898004255788594]], [[0.20915484445522078, -0.20915484445522065]], [[0.2093306970977851, -0.20933069709778498]], [[0.20950514142938545, -0.2095051414293853]], [[0.20967281117256653, -0.2096728111725664]], [[0.20984785715580803, -0.20984785715580787]], [[0.2100142867822514, -0.21001428678225123]], [[0.2101859670072542, -0.21018596700725403]], [[0.2103529751335579, -0.21035297513355772]], [[0.21051864004928272, -0.2105186400492825]], [[0.21068038133468078, -0.21068038133468056]], [[0.21084368819673815, -0.21084368819673793]], [[0.21100181719568264, -0.2110018171956824]], [[0.21115519123916052, -0.21115519123916027]], [[0.2113194643284856, -0.2113194643284853]], [[0.21147361849612348, -0.21147361849612314]], [[0.2116286609376928, -0.21162866093769248]], [[0.21178501446368678, -0.21178501446368647]], [[0.21194033901608292, -0.2119403390160826]], [[0.21208895670040834, -0.212088956700408]], [[0.21223600528459044, -0.21223600528459013]], [[0.212388075922253, -0.2123880759222527]], [[0.212531872672113, -0.21253187267211265]], [[0.21268196578208703, -0.2126819657820867]], [[0.21282410083744266, -0.21282410083744233]], [[0.2129674947369515, -0.21296749473695117]], [[0.21311276355281347, -0.21311276355281314]], [[0.21325254380579603, -0.21325254380579567]], [[0.2133936002401968, -0.2133936002401964]], [[0.21352980762749385, -0.2135298076274935]], [[0.21367259125838753, -0.21367259125838717]], [[0.213811481585496, -0.21381148158549565]], [[0.21394438756266887, -0.2139443875626685]], [[0.2140791908208014, -0.21407919082080107]], [[0.21421456856483603, -0.21421456856483567]], [[0.21435167805250152, -0.2143516780525012]], [[0.21448052887358987, -0.2144805288735895]], [[0.21461487314130384, -0.21461487314130342]], [[0.2147434617390939, -0.21474346173909348]], [[0.2148749047338594, -0.214874904733859]], [[0.21500981034265537, -0.215009810342655]], [[0.21513631075321354, -0.2151363107532132]], [[0.2152611465057703, -0.2152611465057699]], [[0.21538663027322053, -0.21538663027322014]], [[0.21551417655211502, -0.21551417655211463]], [[0.21564273448386176, -0.21564273448386137]], [[0.2157650369674254, -0.21576503696742505]], [[0.21588466154781774, -0.2158846615478174]], [[0.2160101697323663, -0.216010169732366]], [[0.21613016957708212, -0.21613016957708184]], [[0.21624912269390953, -0.21624912269390925]], [[0.21636723759740173, -0.21636723759740148]], [[0.21648783999418403, -0.21648783999418375]], [[0.2166084054592974, -0.2166084054592971]], [[0.21672513564502938, -0.21672513564502904]], [[0.2168387690967746, -0.21683876909677424]], [[0.2169556828442081, -0.21695568284420771]], [[0.21706837283529865, -0.21706837283529828]], [[0.21718434284458665, -0.21718434284458624]], [[0.21730250429406708, -0.2173025042940667]], [[0.21741589601168892, -0.2174158960116885]], [[0.21752985471653913, -0.21752985471653868]], [[0.21764567222626377, -0.21764567222626333]], [[0.21776017109198473, -0.21776017109198428]], [[0.21786985638071749, -0.21786985638071704]], [[0.21797683116778474, -0.21797683116778432]], [[0.2180891823977931, -0.21808918239779268]], [[0.21819770660063964, -0.2181977066006392]], [[0.21830465807143867, -0.21830465807143823]], [[0.2184117362529325, -0.21841173625293206]], [[0.2185213670422976, -0.2185213670422972]], [[0.21862840026944091, -0.21862840026944053]], [[0.21873546275787467, -0.21873546275787428]], [[0.2188395384527236, -0.21883953845272322]], [[0.2189432148482495, -0.21894321484824913]], [[0.2190499422776908, -0.2190499422776905]], [[0.21915466206906348, -0.2191546620690632]], [[0.21925640017566114, -0.21925640017566086]], [[0.2193592812134405, -0.21935928121344023]], [[0.21946226466869306, -0.21946226466869276]], [[0.2195635401314978, -0.21956354013149748]], [[0.21966727882831869, -0.2196672788283184]], [[0.21977025466910124, -0.21977025466910097]], [[0.21986990947356608, -0.2198699094735658]], [[0.21997056074166355, -0.21997056074166324]], [[0.22007092946814208, -0.22007092946814175]], [[0.2201678842258916, -0.22016788422589123]], [[0.22026768646765002, -0.22026768646764966]], [[0.22036471832057877, -0.22036471832057844]], [[0.22046423705130044, -0.2204642370513001]], [[0.2205624117027638, -0.2205624117027635]], [[0.2206590354160199, -0.22065903541601958]], [[0.22075341973816007, -0.22075341973815976]], [[0.22084933375630267, -0.22084933375630236]], [[0.22094536186399638, -0.22094536186399602]], [[0.2210391313714035, -0.22103913137140316]], [[0.22113298348686025, -0.2211329834868599]], [[0.22122726316705282, -0.22122726316705243]], [[0.2213201097353028, -0.22132010973530242]], [[0.2214137472452008, -0.22141374724520044]], [[0.22150641065402893, -0.22150641065402857]], [[0.22159854136481816, -0.2215985413648178]], [[0.22169026839042458, -0.22169026839042424]], [[0.2217815394396255, -0.22178153943962517]], [[0.2218726600498295, -0.22187266004982917]], [[0.22196368272413447, -0.22196368272413414]], [[0.2220533234188998, -0.22205332341889947]], [[0.22214270184389814, -0.2221427018438978]], [[0.2222322751826205, -0.22223227518262023]], [[0.22232251808203282, -0.22232251808203257]], [[0.22241144835063895, -0.2224114483506387]], [[0.22249867765739645, -0.22249867765739625]], [[0.22258571576141387, -0.22258571576141367]], [[0.2226735948610395, -0.2226735948610393]], [[0.22276146162633703, -0.22276146162633684]], [[0.22284790648916786, -0.22284790648916766]], [[0.2229342537193777, -0.22293425371937753]], [[0.2230197750616215, -0.22301977506162135]], [[0.22310574003277053, -0.22310574003277037]], [[0.22319240624207173, -0.2231924062420716]], [[0.2232775410939136, -0.22327754109391346]], [[0.22336136748633562, -0.22336136748633548]], [[0.22344634193294144, -0.22344634193294127]], [[0.2235310562670806, -0.22353105626708045]], [[0.22361518242322245, -0.2236151824232223]], [[0.22369865273112555, -0.22369865273112535]], [[0.22378153317297142, -0.22378153317297123]], [[0.22386365820697537, -0.2238636582069752]], [[0.22394554296114522, -0.22394554296114505]], [[0.22402699975925713, -0.22402699975925697]], [[0.22410849799955382, -0.22410849799955368]], [[0.224189271960883, -0.22418927196088287]], [[0.22427055334347484, -0.22427055334347473]], [[0.22435131168648909, -0.224351311686489]], [[0.22443131004498312, -0.224431310044983]], [[0.22451068515463488, -0.2245106851546348]], [[0.22459018374193557, -0.2245901837419355]], [[0.22466881820838974, -0.22466881820838966]], [[0.22474690513499812, -0.22474690513499804]], [[0.2248247098697654, -0.22482470986976533]], [[0.22490238879558322, -0.22490238879558314]], [[0.22498073395810445, -0.2249807339581044]], [[0.22505867520194953, -0.22505867520194947]], [[0.22513653770685127, -0.22513653770685127]], [[0.22521418688620287, -0.22521418688620287]], [[0.22529063327542295, -0.22529063327542295]], [[0.22536739328074165, -0.22536739328074165]], [[0.22544342879782495, -0.22544342879782495]], [[0.22551947683861753, -0.22551947683861756]], [[0.2255943223474346, -0.2255943223474346]], [[0.22567008463622013, -0.2256700846362201]], [[0.22574494473249218, -0.22574494473249218]], [[0.22581955749760435, -0.22581955749760435]], [[0.22589344924531993, -0.22589344924531998]], [[0.22596785729141328, -0.22596785729141333]], [[0.22604152639876424, -0.22604152639876426]], [[0.22611489297592996, -0.22611489297592996]], [[0.22618808485394348, -0.22618808485394348]], [[0.22626145581034698, -0.22626145581034698]], [[0.22633422231613423, -0.2263342223161342]], [[0.22640673649331985, -0.22640673649331985]], [[0.22647908280408013, -0.22647908280408013]], [[0.226551612381616, -0.22655161238161603]], [[0.22662305622643, -0.22662305622643003]], [[0.2266943498478458, -0.22669434984784587]], [[0.22676647164585625, -0.22676647164585628]], [[0.22683827250282793, -0.22683827250282795]], [[0.22690900213071344, -0.2269090021307135]], [[0.22697826782108296, -0.226978267821083]], [[0.22704819742376514, -0.22704819742376517]], [[0.22711799393551238, -0.22711799393551244]], [[0.22718708259790277, -0.22718708259790282]], [[0.22725664240037285, -0.2272566424003729]], [[0.22732569262628718, -0.22732569262628718]], [[0.22739476926687355, -0.22739476926687352]], [[0.2274636725249109, -0.22746367252491087]], [[0.22753308282373905, -0.22753308282373907]], [[0.22760167347156135, -0.2276016734715614]], [[0.2276696545651505, -0.22766965456515056]], [[0.22773685209671754, -0.2277368520967176]], [[0.2278048145464212, -0.22780481454642126]], [[0.22787197873203446, -0.2278719787320345]], [[0.22793813059083837, -0.22793813059083842]], [[0.2280047690696903, -0.22800476906969036]], [[0.2280710669003434, -0.22807106690034348]], [[0.2281381724835318, -0.22813817248353185]], [[0.22820418231590672, -0.2282041823159068]], [[0.22827052992121702, -0.2282705299212171]], [[0.22833559538876091, -0.22833559538876097]], [[0.22840134058374809, -0.2284013405837482]], [[0.22846642498895334, -0.22846642498895345]], [[0.2285320525661036, -0.22853205256610373]], [[0.22859684422804682, -0.228596844228047]], [[0.22866197124849882, -0.228661971248499]], [[0.2287262808762461, -0.2287262808762463]], [[0.2287915966173245, -0.22879159661732468]], [[0.22885554911947276, -0.2288555491194729]], [[0.22891895180415367, -0.2289189518041538]], [[0.22898308137917606, -0.22898308137917617]], [[0.22904714929914766, -0.22904714929914777]], [[0.22911141813820105, -0.22911141813820118]], [[0.2291738602794249, -0.22917386027942505]], [[0.22923704255124938, -0.2292370425512495]], [[0.22929978503757784, -0.22929978503757795]], [[0.22936216610193175, -0.22936216610193186]], [[0.22942396483782693, -0.229423964837827]], [[0.22948687425299405, -0.22948687425299413]], [[0.22954872229286966, -0.22954872229286977]], [[0.22961022471259063, -0.22961022471259074]], [[0.2296727439843067, -0.22967274398430684]], [[0.22973458051514606, -0.22973458051514623]], [[0.22979563541986062, -0.22979563541986078]], [[0.2298563603462791, -0.22985636034627924]], [[0.22991734344232984, -0.22991734344232997]], [[0.22997776119039035, -0.22997776119039048]], [[0.23003876882733182, -0.23003876882733196]], [[0.23009893238024323, -0.23009893238024337]], [[0.23015885462421648, -0.23015885462421665]], [[0.23021970101146544, -0.2302197010114656]], [[0.23027863522635408, -0.23027863522635428]], [[0.23033841192653037, -0.23033841192653057]], [[0.2303979140178787, -0.23039791401787893]], [[0.23045747976884726, -0.23045747976884748]], [[0.23051622349389872, -0.23051622349389891]], [[0.23057500196956598, -0.23057500196956615]], [[0.2306342201378797, -0.23063422013787982]], [[0.23069291683417253, -0.23069291683417267]], [[0.23075222754115887, -0.230752227541159]], [[0.2308101912946242, -0.23081019129462435]], [[0.23086907423592729, -0.2308690742359274]], [[0.23092663910614275, -0.23092663910614283]], [[0.23098530202273748, -0.23098530202273754]], [[0.231042718771659, -0.2310427187716591]], [[0.23110026237718378, -0.2311002623771839]], [[0.23115841612977528, -0.23115841612977536]], [[0.2312150072494445, -0.2312150072494446]], [[0.23127238384030316, -0.23127238384030324]], [[0.23132869970385436, -0.23132869970385447]], [[0.2313861319055821, -0.23138613190558222]], [[0.2314424359670567, -0.23144243596705683]], [[0.2314986846451268, -0.23149868464512696]], [[0.23155579954215694, -0.23155579954215713]], [[0.23161128698363967, -0.23161128698363984]], [[0.23166773161643797, -0.23166773161643814]], [[0.23172316373580906, -0.23172316373580923]], [[0.2317784662010625, -0.23177846620106263]], [[0.2318340160158389, -0.23183401601583908]], [[0.23188952205389116, -0.2318895220538913]], [[0.23194542981065613, -0.23194542981065627]], [[0.23200015385863856, -0.2320001538586387]], [[0.2320550771355335, -0.23205507713553367]], [[0.2321092959053571, -0.23210929590535725]], [[0.23216404126762105, -0.23216404126762122]], [[0.23221898758362167, -0.2322189875836218]], [[0.23227248877260256, -0.2322724887726027]], [[0.2323268330786445, -0.23232683307864463]], [[0.23238031759790914, -0.2323803175979093]], [[0.23243480197872085, -0.23243480197872105]], [[0.23248837550759835, -0.23248837550759852]], [[0.23254224480197863, -0.2325422448019788]], [[0.23259634361367554, -0.23259634361367573]], [[0.2326492726049094, -0.23264927260490956]], [[0.23270239135750662, -0.23270239135750678]], [[0.23275483213080755, -0.23275483213080772]], [[0.2328080616834068, -0.23280806168340692]], [[0.23286124621263965, -0.2328612462126398]], [[0.23291329923430568, -0.23291329923430576]], [[0.23296537331366474, -0.23296537331366485]], [[0.23301730371303256, -0.23301730371303267]], [[0.23306950226156464, -0.23306950226156473]], [[0.23312204987609003, -0.23312204987609011]], [[0.23317359165325896, -0.23317359165325907]], [[0.23322476354942462, -0.23322476354942473]], [[0.23327581538656283, -0.23327581538656295]], [[0.23332718874797184, -0.23332718874797195]], [[0.23337896226484817, -0.23337896226484828]], [[0.23342973810250128, -0.23342973810250142]], [[0.2334811163282272, -0.23348111632822732]], [[0.23353169861283077, -0.2335316986128309]], [[0.23358239816931958, -0.23358239816931972]], [[0.23363342120444072, -0.2336334212044409]], [[0.23368360277956665, -0.2336836027795668]], [[0.23373425386171365, -0.23373425386171381]], [[0.23378425199426991, -0.23378425199427005]], [[0.23383428483619143, -0.2338342848361916]], [[0.23388467401387233, -0.2338846740138725]], [[0.23393428105625205, -0.23393428105625222]], [[0.23398355717738328, -0.23398355717738348]], [[0.23403279788138362, -0.23403279788138381]], [[0.23408242050539224, -0.23408242050539244]], [[0.23413238359032987, -0.23413238359033003]], [[0.23418147923503335, -0.23418147923503352]], [[0.23423045079017454, -0.2342304507901747]], [[0.23427908608654155, -0.23427908608654174]], [[0.23432831154537528, -0.2343283115453755]], [[0.23437764970242783, -0.23437764970242805]], [[0.23442650882401073, -0.23442650882401095]], [[0.23447511445741698, -0.2344751144574172]], [[0.23452316943567317, -0.23452316943567342]], [[0.23457204260923942, -0.2345720426092397]], [[0.23462102191796586, -0.2346210219179661]], [[0.23466949506896195, -0.2346694950689622]], [[0.23471769323523223, -0.23471769323523245]], [[0.23476537072617837, -0.2347653707261786]], [[0.23481386353529607, -0.23481386353529626]], [[0.23486148445125338, -0.23486148445125354]], [[0.23490923178834294, -0.2349092317883431]], [[0.2349560940605299, -0.23495609406053009]], [[0.23500366563724934, -0.2350036656372495]], [[0.23505036687409495, -0.23505036687409506]], [[0.23509684945627154, -0.23509684945627166]], [[0.23514357949413828, -0.23514357949413842]], [[0.2351906416781139, -0.23519064167811404]], [[0.2352381002692518, -0.23523810026925193]], [[0.23528481874648735, -0.23528481874648752]], [[0.23533137265839343, -0.2353313726583936]], [[0.2353775592728052, -0.2353775592728053]], [[0.23542465986097622, -0.2354246598609763]], [[0.23547082102384032, -0.2354708210238404]], [[0.2355167358200636, -0.2355167358200637]], [[0.23556228922088604, -0.23556228922088618]], [[0.23560870009541685, -0.23560870009541698]], [[0.23565419873495994, -0.23565419873496007]], [[0.2356994928356649, -0.23569949283566505]], [[0.2357448443122661, -0.2357448443122663]], [[0.23579073155116728, -0.23579073155116748]], [[0.23583716628111254, -0.23583716628111273]], [[0.2358826026010133, -0.23588260260101349]], [[0.23592705514592274, -0.2359270551459229]], [[0.2359723105552376, -0.23597231055523776]], [[0.2360171676528348, -0.23601716765283495]], [[0.23606150867117678, -0.23606150867117695]], [[0.23610601805718154, -0.2361060180571817]], [[0.23615107600740448, -0.23615107600740462]], [[0.23619659944682028, -0.23619659944682045]], [[0.23624117804849815, -0.23624117804849828]], [[0.23628487604936527, -0.23628487604936543]], [[0.23632960963728325, -0.23632960963728342]], [[0.23637383923214633, -0.23637383923214647]], [[0.23641745211382234, -0.23641745211382245]], [[0.23646122526974522, -0.2364612252697453]], [[0.23650548581797756, -0.23650548581797762]], [[0.23655031423986464, -0.23655031423986472]], [[0.2365937650737959, -0.23659376507379598]], [[0.236636797738018, -0.2366367977380181]], [[0.23668093722064934, -0.23668093722064948]], [[0.2367240615963473, -0.23672406159634737]], [[0.23676716854189683, -0.23676716854189692]], [[0.23681050700282616, -0.23681050700282624]], [[0.23685432844171841, -0.23685432844171853]], [[0.23689675988950512, -0.23689675988950518]], [[0.23693915739423674, -0.2369391573942368]], [[0.23698200769946773, -0.23698200769946778]], [[0.23702569250098404, -0.2370256925009841]], [[0.237068300519537, -0.23706830051953706]], [[0.23711001448581964, -0.2371100144858197]], [[0.23715313987028955, -0.23715313987028958]], [[0.23719553638356147, -0.23719553638356153]], [[0.2372376930938413, -0.23723769309384138]], [[0.23727984191057447, -0.23727984191057455]], [[0.23732251017564204, -0.23732251017564213]], [[0.23736394161457844, -0.2373639416145785]], [[0.23740554307791273, -0.23740554307791278]], [[0.23744743595868423, -0.23744743595868428]], [[0.23749015621455008, -0.2374901562145501]], [[0.23753182546821577, -0.23753182546821583]], [[0.23757263758040895, -0.23757263758040897]], [[0.2376150149426775, -0.23761501494267753]], [[0.2376565523165807, -0.23765655231658075]], [[0.23769787010826635, -0.23769787010826637]], [[0.2377391625097802, -0.23773916250978022]], [[0.23778105991901854, -0.23778105991901857]], [[0.23782186684078535, -0.23782186684078538]], [[0.23786229931792868, -0.23786229931792877]], [[0.23790342500068265, -0.23790342500068276]], [[0.23794533721794017, -0.2379453372179403]], [[0.23798533480756284, -0.23798533480756295]], [[0.2380256409363684, -0.23802564093636855]], [[0.23806719825881303, -0.23806719825881315]], [[0.23810748509516402, -0.23810748509516413]], [[0.23814714045353544, -0.23814714045353552]], [[0.23818807388295699, -0.238188073882957]], [[0.23822840305883974, -0.23822840305883977]], [[0.23826850569384947, -0.2382685056938495]], [[0.23830868307090078, -0.23830868307090083]], [[0.23834831978335438, -0.23834831978335447]], [[0.23838813228864536, -0.23838813228864544]], [[0.23842766476594465, -0.2384276647659447]], [[0.23846790423687628, -0.23846790423687633]], [[0.2385082192064502, -0.23850821920645027]], [[0.23854722922387778, -0.23854722922387783]], [[0.23858669630236978, -0.23858669630236984]], [[0.23862742176885238, -0.23862742176885246]], [[0.2386663342495091, -0.23866633424950914]], [[0.2387053135782892, -0.23870531357828925]], [[0.23874535753082957, -0.23874535753082965]], [[0.23878420826851288, -0.238784208268513]], [[0.23882259108757997, -0.2388225910875801]], [[0.23886215228721092, -0.23886215228721105]], [[0.23890120311522428, -0.23890120311522448]], [[0.23894029614127943, -0.23894029614127962]], [[0.23897933218635986, -0.23897933218636008]], [[0.23901778791491432, -0.23901778791491457]], [[0.2390565581748729, -0.23905655817487312]], [[0.23909504064537038, -0.2390950406453706]], [[0.23913292121061838, -0.2391329212106186]], [[0.23917131225818075, -0.23917131225818095]], [[0.23920952338646653, -0.23920952338646673]], [[0.23924827712756086, -0.23924827712756108]], [[0.23928631015765706, -0.23928631015765725]], [[0.2393239349530721, -0.23932393495307228]], [[0.23936236373606282, -0.23936236373606298]], [[0.2394011010691551, -0.23940110106915527]], [[0.23943830397899266, -0.23943830397899285]], [[0.23947625399220332, -0.2394762539922035]], [[0.23951451194994486, -0.23951451194994502]], [[0.2395511833143134, -0.2395511833143136]], [[0.2395888505480444, -0.23958885054804463]], [[0.2396275528962551, -0.23962755289625534]], [[0.239663928343843, -0.23966392834384326]], [[0.23970119127694656, -0.23970119127694683]], [[0.23973940989350953, -0.2397394098935098]], [[0.23977566036095266, -0.23977566036095294]], [[0.23981267794514108, -0.23981267794514138]], [[0.23985058155562022, -0.2398505815556205]], [[0.2398871960299551, -0.2398871960299554]], [[0.2399237641065784, -0.23992376410657867]], [[0.23996125033659998, -0.23996125033660023]], [[0.23999815710813427, -0.2399981571081345]], [[0.24003439934564655, -0.2400343993456468]], [[0.2400715781365824, -0.24007157813658267]], [[0.24010810548014702, -0.2401081054801473]], [[0.24014413683103553, -0.24014413683103575]], [[0.2401809965866467, -0.24018099658664693]], [[0.2402172971792591, -0.24021729717925935]], [[0.2402531097114133, -0.24025310971141356]], [[0.24028975667894265, -0.24028975667894287]], [[0.24032573745285946, -0.24032573745285968]], [[0.24036122584035444, -0.24036122584035463]], [[0.24039766602791532, -0.24039766602791554]], [[0.24043346919051165, -0.2404334691905119]], [[0.240468972128404, -0.24046897212840423]], [[0.24050515252679552, -0.24050515252679575]], [[0.24054080324500843, -0.2405408032450087]], [[0.24057606028465692, -0.24057606028465717]], [[0.24061208663544517, -0.24061208663544545]], [[0.24064782060772588, -0.24064782060772613]], [[0.24068292775825428, -0.2406829277582545]], [[0.2407187126395631, -0.24071871263956326]], [[0.24075421924323465, -0.24075421924323484]], [[0.24078921161974856, -0.24078921161974878]], [[0.2408248784055272, -0.24082487840552735]], [[0.24086026292446608, -0.24086026292446622]], [[0.24089503324014697, -0.24089503324014716]], [[0.24093047029405246, -0.24093047029405268]], [[0.2409657398240632, -0.24096573982406347]], [[0.24100039346116686, -0.24100039346116714]], [[0.24103573382957733, -0.2410357338295776]], [[0.24107005088959937, -0.24107005088959965]], [[0.2411045929026559, -0.2411045929026562]], [[0.24113982441057635, -0.24113982441057666]], [[0.24117408395856418, -0.2411740839585645]], [[0.24120856331814186, -0.24120856331814217]], [[0.24124373721458947, -0.2412437372145898]], [[0.24127751764180333, -0.24127751764180363]], [[0.24131190607972966, -0.24131190607972994]], [[0.24134623004028055, -0.24134623004028083]], [[0.24137976332479122, -0.24137976332479147]], [[0.24141409260408658, -0.24141409260408686]], [[0.2414485124686656, -0.24144851246866592]], [[0.24148160077220754, -0.24148160077220787]], [[0.24151591671683914, -0.24151591671683947]], [[0.24155041464181146, -0.24155041464181182]], [[0.24158346912607426, -0.2415834691260746]], [[0.24161785136137007, -0.2416178513613704]], [[0.24165233870402306, -0.24165233870402342]], [[0.24168532844685925, -0.2416853284468596]], [[0.24171955613093973, -0.24171955613094012]], [[0.24175303356584987, -0.24175303356585023]], [[0.2417861559061984, -0.24178615590619879]], [[0.24181930594631285, -0.24181930594631323]], [[0.24185281222313165, -0.24185281222313204]], [[0.24188603531544922, -0.24188603531544958]], [[0.24191921003458597, -0.24191921003458633]], [[0.24195287202901367, -0.241952872029014]], [[0.24198594756913333, -0.24198594756913364]], [[0.2420191234482866, -0.2420191234482869]], [[0.24205169897557013, -0.2420516989755704]], [[0.24208488898697517, -0.24208488898697547]], [[0.24211779451793386, -0.2421177945179342]], [[0.2421505144029456, -0.2421505144029459]], [[0.24218376738270378, -0.24218376738270406]], [[0.24221583115066958, -0.24221583115066983]], [[0.24224845916333065, -0.24224845916333093]], [[0.24228110401004788, -0.24228110401004815]], [[0.24231336627659447, -0.24231336627659472]], [[0.24234627298271336, -0.24234627298271363]], [[0.24237915618081227, -0.24237915618081252]], [[0.24241100301663257, -0.24241100301663285]], [[0.2424439519165875, -0.24244395191658774]], [[0.2424758831371751, -0.24247588313717536]], [[0.24250804009787166, -0.2425080400978719]], [[0.24253991664857943, -0.24253991664857968]], [[0.2425721234516244, -0.24257212345162465]], [[0.2426040858996749, -0.2426040858996751]], [[0.24263619664392688, -0.24263619664392708]], [[0.24266762341986692, -0.2426676234198671]], [[0.24269973450413582, -0.24269973450413598]], [[0.24273108609679261, -0.24273108609679273]], [[0.2427627397973626, -0.24276273979736274]], [[0.24279435967064256, -0.2427943596706427]], [[0.24282539664351804, -0.24282539664351813]], [[0.24285724017765045, -0.24285724017765056]], [[0.24288914699283715, -0.24288914699283723]], [[0.24292046011879653, -0.24292046011879662]], [[0.2429524525923207, -0.2429524525923208]], [[0.2429845334211169, -0.24298453342111698]], [[0.24301561488472906, -0.2430156148847292]], [[0.24304672405694047, -0.24304672405694064]], [[0.24307805756086082, -0.24307805756086096]], [[0.24310935433708059, -0.24310935433708067]], [[0.24314035167302248, -0.2431403516730225]], [[0.24317092447606087, -0.24317092447606087]], [[0.2432022024724949, -0.24320220247249488]], [[0.24323245031134494, -0.2432324503113449]], [[0.24326348992303962, -0.2432634899230396]], [[0.2432943811354968, -0.24329438113549678]], [[0.24332490685011293, -0.24332490685011293]], [[0.24335608120279856, -0.24335608120279856]], [[0.24338732859936943, -0.24338732859936943]], [[0.2434177558209545, -0.24341775582095454]], [[0.24344807815103353, -0.24344807815103361]], [[0.24347866049424577, -0.24347866049424585]], [[0.24350927417726073, -0.24350927417726081]], [[0.24353971561754129, -0.24353971561754137]], [[0.2435696058680803, -0.24356960586808035]], [[0.24360004755875803, -0.24360004755875808]], [[0.24362969891628566, -0.24362969891628575]], [[0.2436601826081604, -0.24366018260816052]], [[0.2436905719287665, -0.24369057192876661]], [[0.24372060707944815, -0.24372060707944823]], [[0.24374996032296178, -0.24374996032296184]], [[0.243779830315439, -0.24377983031543907]], [[0.24380993083304286, -0.24380993083304295]], [[0.24383994417761629, -0.24383994417761642]], [[0.24386914840328475, -0.24386914840328489]], [[0.24389959264323371, -0.24389959264323383]], [[0.24392862376077962, -0.24392862376077978]], [[0.24395845882639278, -0.24395845882639294]], [[0.24398856212528558, -0.24398856212528575]], [[0.24401798872988234, -0.24401798872988248]], [[0.2440479779509256, -0.24404797795092575]], [[0.2440782398544883, -0.24407823985448848]], [[0.2441076581384148, -0.24410765813841498]], [[0.2441369849548298, -0.24413698495482994]], [[0.24416562794415358, -0.24416562794415372]], [[0.2441954614841811, -0.2441954614841812]], [[0.24422392191882056, -0.24422392191882064]], [[0.24425315213494408, -0.24425315213494417]], [[0.24428280311963213, -0.24428280311963224]], [[0.24431158853233556, -0.24431158853233564]], [[0.244341067632157, -0.24434106763215702]], [[0.2443708447288562, -0.24437084472885623]], [[0.2443997989932869, -0.24439979899328693]], [[0.2444286036654787, -0.24442860366547875]], [[0.24445672837083673, -0.24445672837083676]], [[0.24448532370372328, -0.24448532370372328]], [[0.24451349015154616, -0.24451349015154622]], [[0.2445424728715398, -0.24454247287153993]], [[0.24457188959091775, -0.24457188959091786]], [[0.24460043260772119, -0.2446004326077213]], [[0.24462847780016797, -0.24462847780016808]], [[0.2446568927526044, -0.24465689275260452]], [[0.2446856496899949, -0.24468564968999498]], [[0.2447140043912939, -0.24471400439129398]], [[0.2447421431832513, -0.24474214318325138]], [[0.24477072321811383, -0.24477072321811388]], [[0.24479874803944732, -0.2447987480394474]], [[0.24482746725022259, -0.2448274672502227]], [[0.24485667621817733, -0.24485667621817742]], [[0.24488510106780745, -0.24488510106780756]], [[0.24491304935864872, -0.2449130493586488]], [[0.24494028755443537, -0.24494028755443542]], [[0.24496814300585223, -0.24496814300585232]], [[0.24499545776537307, -0.24499545776537315]], [[0.2450235380648288, -0.2450235380648289]], [[0.24505219147885804, -0.24505219147885812]], [[0.2450801746111471, -0.24508017461114717]], [[0.24510750897649647, -0.24510750897649655]], [[0.2451343609456054, -0.2451343609456055]], [[0.24516245410659251, -0.24516245410659263]], [[0.24518922361675352, -0.24518922361675363]], [[0.24521689015628306, -0.24521689015628317]], [[0.2452450576699959, -0.245245057669996]], [[0.24527267817550893, -0.24527267817550902]], [[0.24529958040928806, -0.24529958040928815]], [[0.24532622052087383, -0.2453262205208739]], [[0.24535389314616868, -0.24535389314616876]], [[0.245380684879706, -0.24538068487970607]], [[0.24540800183169192, -0.24540800183169198]], [[0.24543584596309392, -0.245435845963094]], [[0.24546315380146363, -0.24546315380146372]], [[0.24548975703680062, -0.2454897570368007]], [[0.2455173059504889, -0.24551730595048898]], [[0.24554466614931492, -0.245544666149315]], [[0.24557108037841852, -0.2455710803784186]], [[0.24559812076499823, -0.2455981207649983]], [[0.24562566714122033, -0.24562566714122036]], [[0.24565254840348102, -0.24565254840348105]], [[0.2456787198642014, -0.24567871986420142]], [[0.24570606372579948, -0.24570606372579953]], [[0.24573310707506985, -0.2457331070750699]], [[0.24575920685840538, -0.24575920685840544]], [[0.24578602089868987, -0.24578602089868992]], [[0.2458133479472512, -0.2458133479472513]], [[0.2458399215690793, -0.24583992156907936]], [[0.2458659018607114, -0.24586590186071147]], [[0.24589194787187876, -0.24589194787187885]], [[0.24591886315023725, -0.2459188631502374]], [[0.2459444161178565, -0.24594441611785664]], [[0.24597107939291749, -0.24597107939291762]], [[0.24599831274084233, -0.2459983127408425]], [[0.24602476912933374, -0.24602476912933385]], [[0.24605067082447277, -0.24605067082447288]], [[0.24607643867965256, -0.2460764386796527]], [[0.24610253229540666, -0.24610253229540682]], [[0.24612813397009287, -0.24612813397009303]], [[0.24615475806662368, -0.2461547580666239]], [[0.24618193838065433, -0.24618193838065455]], [[0.2462083916864439, -0.2462083916864441]], [[0.24623421129705605, -0.2462342112970563]], [[0.24625988632547707, -0.24625988632547732]], [[0.2462859471984663, -0.24628594719846653]], [[0.24631144085136206, -0.24631144085136225]], [[0.24633786289492826, -0.2463378628949284]], [[0.2463649435396932, -0.24636494353969335]], [[0.24639102352726508, -0.24639102352726516]], [[0.2464162486378302, -0.2464162486378303]], [[0.2464418873274654, -0.24644188732746547]], [[0.24646783723236293, -0.24646783723236299]], [[0.24649312502483942, -0.24649312502483944]], [[0.2465184056795751, -0.2465184056795751]], [[0.24654346712319844, -0.24654346712319844]], [[0.2465690682762935, -0.2465690682762935]], [[0.24659356781640143, -0.24659356781640143]], [[0.24661949956880724, -0.24661949956880722]], [[0.24664575647235623, -0.24664575647235618]], [[0.2466712727527929, -0.24667127275279288]], [[0.24669651834491493, -0.2466965183449149]], [[0.2467215217160404, -0.24672152171604034]], [[0.2467469005101236, -0.24674690051012352]], [[0.24677163941148444, -0.24677163941148433]], [[0.2467974196895357, -0.2467974196895356]], [[0.24682383663889607, -0.24682383663889598]], [[0.24684933043004686, -0.24684933043004678]], [[0.24687342848612612, -0.24687342848612603]], [[0.24689848360056907, -0.246898483600569]], [[0.2469239478920774, -0.24692394789207733]], [[0.246948723310686, -0.24694872331068596]], [[0.24697347212721693, -0.24697347212721685]], [[0.2469979593032571, -0.246997959303257]], [[0.24702272378908033, -0.24702272378908016]], [[0.24704689697973384, -0.24704689697973373]], [[0.24707224995225535, -0.24707224995225524]], [[0.24709811384312097, -0.24709811384312083]], [[0.24712302455272459, -0.24712302455272442]], [[0.2471467781518866, -0.24714677815188643]], [[0.24717156232719648, -0.2471715623271963]], [[0.24719668083909144, -0.24719668083909127]], [[0.2472210356567435, -0.24722103565674336]], [[0.24724538030757495, -0.2472453803075748]], [[0.24726948098632717, -0.24726948098632703]], [[0.24729380558498082, -0.24729380558498065]], [[0.24731756228813273, -0.24731756228813254]], [[0.2473426277055199, -0.24734262770551974]], [[0.24736707925380452, -0.24736707925380436]], [[0.24739108675844632, -0.24739108675844618]], [[0.24741432494439639, -0.24741432494439625]], [[0.24743891601388485, -0.24743891601388474]], [[0.24746389755036666, -0.24746389755036655]], [[0.2474879655773871, -0.247487965577387]], [[0.24751148291356004, -0.24751148291355995]], [[0.2475354789797817, -0.24753547897978165]], [[0.24755986140562344, -0.2475598614056234]], [[0.24758346174646564, -0.2475834617464656]], [[0.2476072769103511, -0.24760727691035106]], [[0.24763063956917666, -0.24763063956917664]], [[0.2476548154537474, -0.24765481545374735]], [[0.24767812078250498, -0.24767812078250495]], [[0.24770251974656562, -0.24770251974656557]], [[0.24772745002240606, -0.247727450022406]], [[0.2477507727095592, -0.24775077270955911]], [[0.24777331206452874, -0.24777331206452866]], [[0.24779736539198635, -0.24779736539198627]], [[0.24782184921804407, -0.247821849218044]], [[0.2478453138792295, -0.2478453138792294]], [[0.2478685239964084, -0.24786852399640824]], [[0.24789198604977472, -0.24789198604977458]], [[0.24791579741957245, -0.24791579741957226]], [[0.24793904898259655, -0.24793904898259636]], [[0.24796221734035737, -0.2479622173403572]], [[0.24798521957649666, -0.2479852195764965]], [[0.2480085201289554, -0.24800852012895522]], [[0.24803144297437132, -0.24803144297437107]], [[0.24805448275022826, -0.248054482750228]], [[0.24807713096510345, -0.24807713096510323]], [[0.2481004260732456, -0.24810042607324537]], [[0.24812296214968657, -0.24812296214968638]], [[0.24814677611465308, -0.24814677611465288]], [[0.24817013977754543, -0.24817013977754526]], [[0.2481929436239064, -0.24819294362390626]], [[0.24821519565068545, -0.24821519565068526]], [[0.24823858708395588, -0.24823858708395566]], [[0.24826259369950096, -0.2482625936995007]], [[0.24828559622877677, -0.24828559622877652]], [[0.24830759279091316, -0.24830759279091288]], [[0.24833073451102075, -0.24833073451102047]], [[0.24835419820070262, -0.24835419820070234]], [[0.24837688746563266, -0.24837688746563238]], [[0.24839937072076357, -0.24839937072076337]], [[0.24842200844393567, -0.24842200844393544]], [[0.2484449704296246, -0.24844497042962438]], [[0.2484674098820028, -0.24846740988200258]], [[0.24849001583051034, -0.24849001583051006]], [[0.24851227713111793, -0.24851227713111765]], [[0.24853526922041813, -0.24853526922041785]], [[0.24855734418772515, -0.24855734418772488]], [[0.2485796085804306, -0.24857960858043032]], [[0.24860170099009657, -0.2486017009900963]], [[0.24862437534710533, -0.24862437534710508]], [[0.24864622469958153, -0.24864622469958128]], [[0.24866839829956264, -0.24866839829956233]], [[0.24869031035285535, -0.24869031035285505]], [[0.24871273990218504, -0.24871273990218476]], [[0.24873471888296314, -0.24873471888296286]], [[0.24875663321130126, -0.24875663321130098]], [[0.24877932728285748, -0.24877932728285718]], [[0.24880166475159793, -0.24880166475159762]], [[0.24882330370000033, -0.24882330370000003]], [[0.24884490418050725, -0.24884490418050695]], [[0.24886737238017337, -0.24886737238017306]], [[0.24888943882533104, -0.2488894388253308]], [[0.24891085004893704, -0.24891085004893682]], [[0.24893338682962488, -0.24893338682962463]], [[0.2489555253805782, -0.24895552538057794]], [[0.24897731460114234, -0.24897731460114209]], [[0.24899847782569254, -0.2489984778256923]], [[0.24902095694166249, -0.24902095694166218]], [[0.24904284634099164, -0.24904284634099133]], [[0.24906444770655056, -0.24906444770655023]], [[0.2490855013151197, -0.24908550131511933]], [[0.24910773367361516, -0.2491077336736148]], [[0.24912939426277514, -0.24912939426277475]], [[0.24915082060354243, -0.24915082060354202]], [[0.24917177384947387, -0.24917177384947348]], [[0.24919384720694274, -0.24919384720694232]], [[0.24921536592888177, -0.24921536592888133]], [[0.2492366558759259, -0.24923665587592544]], [[0.2492574798710562, -0.24925747987105573]], [[0.24927943074500597, -0.2492794307450055]], [[0.24930081244148303, -0.24930081244148256]], [[0.24932203519625923, -0.24932203519625878]], [[0.2493427295214402, -0.24934272952143974]], [[0.24936455853614914, -0.2493645585361486]], [[0.2493858559732581, -0.24938585597325758]], [[0.2494069889937439, -0.24940698899374336]], [[0.2494275954900907, -0.24942759549009016]], [[0.24944934410881048, -0.24944934410880998]], [[0.24947061600811563, -0.24947061600811515]], [[0.24949165440346185, -0.2494916544034614]], [[0.24951214123511548, -0.2495121412351151]], [[0.24953379699214326, -0.24953379699214287]], [[0.24955506308880904, -0.24955506308880862]], [[0.24957602316514854, -0.24957602316514813]], [[0.24959643321065036, -0.24959643321064995]], [[0.24961692686021347, -0.24961692686021308]], [[0.24963823919259243, -0.249638239192592]], [[0.249659231591102, -0.24965923159110154]], [[0.24967966325665447, -0.24967966325665397]], [[0.24970017684819548, -0.24970017684819495]], [[0.2497214576122599, -0.24972145761225933]], [[0.2497424187333884, -0.24974241873338784]], [[0.2497628193979543, -0.24976281939795378]], [[0.24978309616978267, -0.24978309616978217]], [[0.24980335744388998, -0.24980335744388948]], [[0.24982442250628412, -0.24982442250628362]], [[0.2498448836855525, -0.24984488368555202]], [[0.24986511838336906, -0.24986511838336853]], [[0.24988538016314601, -0.24988538016314546]], [[0.24990652776169137, -0.24990652776169084]], [[0.2499270573505478, -0.24992705735054727]], [[0.2499473466442584, -0.24994734664425788]], [[0.24996764885706832, -0.2499676488570678]], [[0.24998888180776602, -0.2499888818077655]], [[0.2500092201276724, -0.25000922012767185]], [[0.2500292615049761, -0.25002926150497556]], [[0.25004960500876394, -0.2500496050087634]], [[0.25007087099085923, -0.25007087099085873]], [[0.25009123931828264, -0.2500912393182822]], [[0.2501105964152554, -0.25011059641525496]], [[0.2501309713627596, -0.2501309713627592]], [[0.25015191922631624, -0.25015191922631586]], [[0.25017167471045565, -0.2501716747104553]], [[0.25019090080289025, -0.25019090080288997]], [[0.25021144071845963, -0.2502114407184594]], [[0.2502315083067216, -0.25023150830672136]], [[0.25025134665552196, -0.25025134665552173]], [[0.2502707480309144, -0.2502707480309142]], [[0.25029141647838965, -0.25029141647838943]], [[0.2503116489696582, -0.25031164896965796]], [[0.2503316493443421, -0.2503316493443418]], [[0.25035100390956155, -0.2503510039095613]], [[0.25037047641988336, -0.2503704764198831]], [[0.25038991589102977, -0.2503899158910295]], [[0.2504102217515118, -0.2504102217515115]], [[0.2504297556771884, -0.2504297556771881]], [[0.250449469033326, -0.25044946903332566]], [[0.25046906477141007, -0.25046906477140973]], [[0.2504893791941347, -0.2504893791941344]], [[0.25050892775154915, -0.2505089277515488]], [[0.2505275871005037, -0.2505275871005034]], [[0.2505472143687764, -0.25054721436877614]], [[0.25056789395617135, -0.2505678939561711]], [[0.25058696728526164, -0.25058696728526136]], [[0.2506055945633737, -0.2506055945633734]], [[0.2506254942579478, -0.2506254942579474]], [[0.25064500800098716, -0.25064500800098677]], [[0.2506644746652763, -0.25066447466527597]], [[0.25068344224549155, -0.2506834422454912]], [[0.2507022594843106, -0.25070225948431024]], [[0.2507221634149392, -0.25072216341493886]], [[0.25074183488762136, -0.250741834887621]], [[0.2507607870064945, -0.2507607870064941]], [[0.250779914310021, -0.2507799143100206]], [[0.2507990003187811, -0.2507990003187807]], [[0.2508190525415085, -0.2508190525415081]], [[0.25083813826477586, -0.25083813826477547]], [[0.2508565115823, -0.25085651158229955]], [[0.2508758923121001, -0.25087589231209967]], [[0.2508960821322292, -0.25089608213222875]], [[0.2509147661533164, -0.2509147661533159]], [[0.25093301478250124, -0.25093301478250074]], [[0.2509525028518788, -0.25095250285187826]], [[0.25097161422515196, -0.25097161422515135]], [[0.25099077102970435, -0.25099077102970374]], [[0.2510094324324774, -0.25100943243247675]], [[0.2510279561803569, -0.2510279561803562]], [[0.2510464689820233, -0.25104646898202265]], [[0.2510661145553567, -0.25106611455535605]], [[0.25108466490549614, -0.25108466490549547]], [[0.251102641225819, -0.2511026412258184]], [[0.25112149109489584, -0.2511214910948952]], [[0.2511415337377239, -0.2511415337377232]], [[0.2511597904434636, -0.2511597904434629]], [[0.25117760809218637, -0.25117760809218576]], [[0.2511968787339987, -0.25119687873399804]], [[0.25121568202165234, -0.2512156820216517]], [[0.251234472422547, -0.2512344724225463]], [[0.25125265115200884, -0.2512526511520082]], [[0.2512708040317798, -0.25127080403177915]], [[0.25128905500625454, -0.25128905500625387]], [[0.25130846432735954, -0.25130846432735887]], [[0.2513260105413231, -0.25132601054132236]], [[0.2513434971308282, -0.2513434971308275]], [[0.2513622548389063, -0.2513622548389056]], [[0.25138110562015886, -0.25138110562015814]], [[0.2513993227305999, -0.2513993227305991]], [[0.25141707810082786, -0.25141707810082714]], [[0.2514349759986676, -0.2514349759986669]], [[0.25145385056133224, -0.2514538505613315]], [[0.25147270639518715, -0.25147270639518643]], [[0.25149053645614583, -0.2514905364561451]], [[0.2515083844207831, -0.2515083844207824]], [[0.25152661651146924, -0.2515266165114685]], [[0.2515460815856148, -0.2515460815856141]], [[0.2515637281809687, -0.25156372818096795]], [[0.25158112019460016, -0.2515811201945994]], [[0.2515987736897973, -0.2515987736897965]], [[0.25161731052735437, -0.25161731052735353]], [[0.25163570863712265, -0.2516357086371218]], [[0.25165350635019873, -0.25165350635019784]], [[0.25167118162358654, -0.25167118162358565]], [[0.25168888221852964, -0.25168888221852875]], [[0.25170793507442996, -0.2517079350744291]], [[0.25172512748196224, -0.2517251274819614]], [[0.2517421118447598, -0.2517421118447589]], [[0.25176052843748487, -0.251760528437484]], [[0.2517786648949914, -0.2517786648949905]], [[0.251796623872706, -0.2517966238727051]], [[0.25181404531072415, -0.25181404531072327]], [[0.25183170753217793, -0.25183170753217704]], [[0.2518491554969016, -0.25184915549690073]], [[0.25186789977502616, -0.2518678997750253]], [[0.2518848317520384, -0.2518848317520375]], [[0.2519017491274548, -0.2519017491274539]], [[0.25191996620917106, -0.2519199662091702]], [[0.2519379833401075, -0.25193798334010653]], [[0.2519556892306447, -0.25195568923064376]], [[0.251973028198451, -0.2519730281984501]], [[0.2519902424177686, -0.2519902424177676]], [[0.2520074874126346, -0.2520074874126336]], [[0.25202604148206836, -0.25202604148206736]], [[0.2520427945320088, -0.25204279453200784]], [[0.2520597774292456, -0.2520597774292447]], [[0.2520764858847781, -0.25207648588477716]], [[0.25209446674894426, -0.25209446674894337]], [[0.25211211274966516, -0.2521121127496643]], [[0.2521293109233048, -0.25212931092330393]], [[0.2521457636681142, -0.25214576366811337]], [[0.25216301174192607, -0.2521630117419252]], [[0.25218051914907674, -0.25218051914907585]], [[0.25219743431536085, -0.2521974343153599]], [[0.2522143669591103, -0.2522143669591094]], [[0.2522310820574618, -0.25223108205746086]], [[0.2522481123961583, -0.25224811239615735]], [[0.25226601356994394, -0.25226601356994305]], [[0.2522822225410923, -0.2522822225410914]], [[0.25229858135902056, -0.25229858135901967]], [[0.2523160642948944, -0.2523160642948935]], [[0.25233379801178313, -0.25233379801178224]], [[0.2523509104881205, -0.2523509104881196]], [[0.2523676812289027, -0.25236768122890174]], [[0.2523842334885259, -0.252384233488525]], [[0.2524012657314464, -0.25240126573144556]], [[0.25241927521858587, -0.25241927521858504]], [[0.2524355722628185, -0.2524355722628177]], [[0.252451990794228, -0.25245199079422725]], [[0.2524682295070318, -0.2524682295070311]], [[0.25248576799600436, -0.25248576799600364]], [[0.2525031011333222, -0.2525031011333214]], [[0.25251913142092675, -0.25251913142092597]], [[0.25253497384950735, -0.25253497384950657]], [[0.2525521861499734, -0.2525521861499726]], [[0.2525694278590724, -0.25256942785907166]], [[0.25258607327965077, -0.25258607327965005]], [[0.25260264115281267, -0.252602641152812]], [[0.25261882556960064, -0.25261882556959997]], [[0.2526354491673418, -0.2526354491673411]], [[0.25265314457089927, -0.25265314457089855]], [[0.25266914272511715, -0.25266914272511637]], [[0.2526852812446947, -0.25268528124469397]], [[0.25270113294326974, -0.252701132943269]], [[0.25271836935634207, -0.25271836935634134]], [[0.2527354900160231, -0.2527354900160223]], [[0.2527513082688998, -0.252751308268899]], [[0.25276687892632976, -0.252766878926329]], [[0.2527838371274386, -0.2527838371274378]], [[0.2528009952993879, -0.25280099529938704]], [[0.2528174779246689, -0.252817477924668]], [[0.25283382802106075, -0.2528338280210599]], [[0.2528490723577478, -0.2528490723577469]], [[0.25286563374064136, -0.25286563374064047]], [[0.2528822373486912, -0.2528822373486903]], [[0.25289821754755154, -0.25289821754755065]], [[0.25291431958851, -0.25291431958850913]], [[0.25293018645010706, -0.25293018645010623]], [[0.25294642075987583, -0.252946420759875]], [[0.25296357355688276, -0.2529635735568819]], [[0.2529791291268019, -0.25297912912680115]], [[0.25299475636117796, -0.2529947563611772]], [[0.25301040570637867, -0.2530104057063779]], [[0.25302724646442226, -0.2530272464644215]], [[0.25304383347310316, -0.25304383347310233]], [[0.2530593393308118, -0.25305933933081104]], [[0.2530744991955958, -0.25307449919559505]], [[0.2530899671258981, -0.25308996712589726]], [[0.2531068208815799, -0.25310682088157904]], [[0.25312301789357766, -0.25312301789357683]], [[0.2531382248955765, -0.2531382248955757]], [[0.25315306465163123, -0.2531530646516304]], [[0.2531695718468097, -0.2531695718468089]], [[0.253186000798999, -0.25318600079899817]], [[0.2532018755958992, -0.25320187559589835]], [[0.25321745568935256, -0.2532174556893517]], [[0.25323226794295145, -0.2532322679429506]], [[0.2532483774808142, -0.2532483774808133]], [[0.25326452015292644, -0.25326452015292555]], [[0.2532803940713446, -0.25328039407134373]], [[0.253295975467179, -0.25329597546717814]], [[0.253311023320435, -0.2533110233204341]], [[0.25332682807237283, -0.25332682807237195]], [[0.2533426317171109, -0.25334263171710997]], [[0.2533581986344823, -0.25335819863448134]], [[0.2533735847124629, -0.253373584712462]], [[0.2533891411442747, -0.25338914114427386]], [[0.25340470646782465, -0.2534047064678238]], [[0.2534202073354451, -0.2534202073354443]], [[0.25343549986490754, -0.2534354998649067]], [[0.25345070643461237, -0.2534507064346116]], [[0.25346610987847296, -0.2534661098784721]], [[0.253481436617016, -0.2534814366170152]], [[0.253497745449478, -0.25349774544947723]], [[0.25351273537813257, -0.2535127353781318]], [[0.25352772529282475, -0.25352772529282397]], [[0.2535428651107634, -0.2535428651107626]], [[0.2535583746349273, -0.25355837463492653]], [[0.25357443572650906, -0.25357443572650823]], [[0.2535894464879494, -0.25358944648794857]], [[0.25360420599965017, -0.25360420599964933]], [[0.25361919283281087, -0.25361919283281]], [[0.2536354750442382, -0.25363547504423734]], [[0.2536512233933541, -0.2536512233933532]], [[0.25366607658821855, -0.2536660765882177]], [[0.25368055895068015, -0.2536805589506793]], [[0.2536953260360006, -0.2536953260359998]], [[0.25371149142656435, -0.25371149142656363]], [[0.2537271041029787, -0.253727104102978]], [[0.2537417693364618, -0.25374176933646103]], [[0.2537560809523663, -0.2537560809523655]], [[0.2537706914700159, -0.2537706914700152]], [[0.25378678051751236, -0.25378678051751163]], [[0.25380259175709713, -0.25380259175709635]], [[0.25381709933054136, -0.2538170993305406]], [[0.25383128644081443, -0.25383128644081365]], [[0.25384576204319476, -0.253845762043194]], [[0.2538616474025797, -0.253861647402579]], [[0.25387735520109656, -0.25387735520109583]], [[0.253891759651441, -0.2538917596514403]], [[0.25390585108117836, -0.25390585108117764]], [[0.25392029708150454, -0.2539202970815039]], [[0.2539360911914165, -0.25393609119141586]], [[0.2539517628218813, -0.25395176282188064]], [[0.25396606442073705, -0.25396606442073644]], [[0.25398006061617834, -0.2539800606161778]], [[0.2539944156654448, -0.25399441566544434]], [[0.2540101286347546, -0.25401012863475414]], [[0.25402574134063394, -0.2540257413406335]], [[0.25403998643708875, -0.2540399864370883]], [[0.2540539856378108, -0.25405398563781034]], [[0.2540681969219149, -0.25406819692191446]], [[0.25408285232648614, -0.2540828523264857]], [[0.25409749974120976, -0.2540974997412093]], [[0.2541117240569104, -0.25411172405690996]], [[0.2541258849731459, -0.2541258849731455]], [[0.2541398327771547, -0.25413983277715424]], [[0.25415425102831385, -0.2541542510283134]], [[0.2541690854547449, -0.25416908545474454]], [[0.2541834617275539, -0.25418346172755346]], [[0.2541976815898164, -0.25419768158981604]], [[0.2542111654032227, -0.2542111654032223]], [[0.2542256726666309, -0.2542256726666305]], [[0.25424056776346365, -0.2542405677634633]], [[0.25425508897809984, -0.2542550889780995]], [[0.2542685082519759, -0.2542685082519755]], [[0.2542819053176484, -0.254281905317648]], [[0.2542964137274334, -0.254296413727433]], [[0.2543113145856178, -0.25431131458561734]], [[0.2543260140165382, -0.25432601401653776]], [[0.25433958561285114, -0.2543395856128507]], [[0.25435311223774304, -0.2543531122377426]], [[0.2543666886814997, -0.25436668868149925]], [[0.2543818240521051, -0.2543818240521047]], [[0.2543967208663067, -0.2543967208663063]], [[0.2544104694657853, -0.25441046946578494]], [[0.2544241422208984, -0.254424142220898]], [[0.2544378427567355, -0.25443784275673514]], [[0.25445300290769224, -0.2544530029076919]], [[0.2544670029240598, -0.2544670029240595]], [[0.2544808318127416, -0.25448083181274134]], [[0.25449477166254836, -0.254494771662548]], [[0.25450815239781305, -0.25450815239781266]], [[0.2545225084501271, -0.25452250845012675]], [[0.2545367929018331, -0.2545367929018328]], [[0.2545506325147902, -0.2545506325147899]], [[0.2545638135511917, -0.25456381355119134]], [[0.2545766284652025, -0.2545766284652022]], [[0.254590704820853, -0.25459070482085266]], [[0.2546054006181323, -0.25460540061813197]], [[0.254619645858917, -0.2546196458589166]], [[0.25463293724475866, -0.25463293724475833]], [[0.25464604717595446, -0.25464604717595407]], [[0.2546592444035067, -0.25465924440350624]], [[0.25467405380422614, -0.2546740538042257]], [[0.25468863788504886, -0.2546886378850485]], [[0.25470207538093925, -0.25470207538093886]], [[0.2547154594479683, -0.2547154594479679]], [[0.2547288917367898, -0.2547288917367894]], [[0.254742901515849, -0.2547429015158486]], [[0.25475676158396865, -0.25475676158396826]], [[0.2547704365313069, -0.2547704365313065]], [[0.2547834361327087, -0.2547834361327083]], [[0.25479616009742956, -0.25479616009742917]], [[0.25480984333193263, -0.25480984333193224]], [[0.25482418479956576, -0.25482418479956537]], [[0.25483804799060644, -0.2548380479906061]], [[0.2548511702874181, -0.25485117028741777]], [[0.25486396190466937, -0.25486396190466903]], [[0.25487685822170725, -0.2548768582217069]], [[0.2548915516447268, -0.2548915516447265]], [[0.254905816980082, -0.2549058169800817]], [[0.25491907793049656, -0.25491907793049623]], [[0.25493228265084034, -0.25493228265084]], [[0.2549453404861399, -0.25494534048613954]], [[0.25495915034896227, -0.25495915034896194]], [[0.2549727476025638, -0.2549727476025634]], [[0.2549861510656359, -0.25498615106563544]], [[0.2549987398946014, -0.254998739894601]], [[0.2550110012069021, -0.2550110012069017]], [[0.25502450646973934, -0.2550245064697389]], [[0.25503866682148846, -0.255038666821488]], [[0.255052364226448, -0.2550523642264475]], [[0.255065446276544, -0.2550654462765435]], [[0.25507814967181486, -0.2550781496718143]], [[0.25509090167309517, -0.2550909016730946]], [[0.2551054401203367, -0.25510544012033615]], [[0.2551185416145568, -0.2551185416145563]], [[0.2551319072005899, -0.2551319072005894]], [[0.2551442585596815, -0.255144258559681]], [[0.2551561138275811, -0.2551561138275805]], [[0.25516981136332983, -0.2551698113633292]], [[0.255183640402266, -0.25518364040226543]], [[0.2551970838486113, -0.2551970838486108]], [[0.25520980045899533, -0.2552098004589948]], [[0.2552221823255086, -0.25522218232550803]], [[0.2552346317086256, -0.25523463170862504]], [[0.2552489518144293, -0.25524895181442875]], [[0.2552618521080561, -0.25526185210805546]], [[0.2552751726748068, -0.2552751726748062]], [[0.25528708417510276, -0.2552870841751021]], [[0.25529873125107194, -0.2552987312510713]], [[0.2553122874760428, -0.2553122874760421]], [[0.25532590197730004, -0.2553259019772994]], [[0.2553391479768267, -0.2553391479768261]], [[0.2553516909571047, -0.2553516909571041]], [[0.25536390023801836, -0.2553639002380178]], [[0.2553763954172624, -0.2553763954172619]], [[0.25539054168419956, -0.25539054168419906]], [[0.2554033475433271, -0.2554033475433266]], [[0.25541652137455684, -0.25541652137455634]], [[0.2554283445115463, -0.25542834451154584]], [[0.2554399024457036, -0.25543990244570314]], [[0.25545332099274226, -0.25545332099274176]], [[0.2554667365017048, -0.2554667365017043]], [[0.2554798895009351, -0.2554798895009346]], [[0.25549239928658624, -0.25549239928658574]], [[0.25550457125321524, -0.25550457125321474]], [[0.25551685544453906, -0.25551685544453856]], [[0.25552993329718965, -0.25552993329718915]], [[0.2555427659018647, -0.2555427659018642]], [[0.255555888637784, -0.25555588863778356]], [[0.2555677148496229, -0.25556771484962243]], [[0.2555792766028633, -0.25557927660286284]], [[0.2555911536982523, -0.2555911536982518]], [[0.2556048001030812, -0.25560480010308073]], [[0.25561712667874814, -0.2556171266787477]], [[0.255629845755847, -0.2556298457558466]], [[0.2556412753420869, -0.25564127534208647]], [[0.25565239337060663, -0.2556523933706062]], [[0.2556655817731344, -0.2556655817731339]], [[0.2556787124116812, -0.2556787124116808]], [[0.2556916683475139, -0.25569166834751345]], [[0.25570378229622914, -0.2557037822962287]], [[0.25571559141642586, -0.2557155914164254]], [[0.2557272767018955, -0.25572727670189505]], [[0.2557400316943764, -0.2557400316943759]], [[0.2557526784938157, -0.2557526784938152]], [[0.25576568180958953, -0.2557656818095891]], [[0.25577726095436965, -0.2557772609543692]], [[0.2557885927323094, -0.25578859273230903]], [[0.25580035883633134, -0.2558003588363309]], [[0.2558138435985102, -0.2558138435985098]], [[0.2558259448307595, -0.25582594483075904]], [[0.25583845459471255, -0.2558384545947121]], [[0.25584959542373864, -0.2558495954237382]], [[0.25586076727964385, -0.2558607672796434]], [[0.255872759427169, -0.2558727594271686]], [[0.2558858450784789, -0.25588584507847845]], [[0.25589773025974516, -0.2558977302597447]], [[0.2559099009886368, -0.25590990098863636]], [[0.2559210792341988, -0.25592107923419843]], [[0.25593204772382405, -0.25593204772382366]], [[0.25594488637291324, -0.2559448863729128]], [[0.2559575868181871, -0.2559575868181867]], [[0.2559703506729845, -0.2559703506729841]], [[0.2559821357835555, -0.2559821357835551]], [[0.25599364368075167, -0.2559936436807513]], [[0.25600509557650986, -0.25600509557650947]], [[0.25601751971361103, -0.2560175197136106]], [[0.25602985101004794, -0.25602985101004755]], [[0.2560426244320454, -0.256042624432045]], [[0.2560539876105961, -0.25605398761059567]], [[0.25606536288370846, -0.256065362883708]], [[0.25607690704825803, -0.2560769070482576]], [[0.25608895333447296, -0.2560889533344725]], [[0.2561011350943864, -0.256101135094386]], [[0.25611356799476803, -0.25611356799476764]], [[0.2561246274540329, -0.2561246274540325]], [[0.25613572849708033, -0.25613572849707994]], [[0.2561471373113003, -0.2561471373112999]], [[0.2561601865127878, -0.25616018651278744]], [[0.25617202161555797, -0.2561720216155575]], [[0.25618414282097013, -0.2561841428209697]], [[0.2561949957644794, -0.25619499576447896]], [[0.2562058548100293, -0.2562058548100289]], [[0.256217485364545, -0.2562174853645446]], [[0.2562302622948956, -0.2562302622948952]], [[0.2562420559808963, -0.25624205598089583]], [[0.25625393238338334, -0.25625393238338284]], [[0.25626456586680973, -0.25626456586680924]], [[0.25627526713625576, -0.25627526713625526]], [[0.2562866922351117, -0.25628669223511114]], [[0.2562992842374229, -0.2562992842374223]], [[0.25631091356128366, -0.25631091356128316]], [[0.25632264402258403, -0.25632264402258353]], [[0.2563331978476721, -0.25633319784767156]], [[0.2563437841863784, -0.2563437841863778]], [[0.25635510284588975, -0.2563551028458892]], [[0.256367596581795, -0.2563675965817944]], [[0.25637913253867917, -0.25637913253867856]], [[0.2563909056625732, -0.2563909056625726]], [[0.2564013648005143, -0.25640136480051373]], [[0.2564118566452714, -0.25641185664527094]], [[0.25642305191748144, -0.25642305191748094]], [[0.2564354365553826, -0.2564354365553821]], [[0.25644694025914194, -0.2564469402591414]], [[0.2564586122639687, -0.25645861226396816]], [[0.2564691513918412, -0.2564691513918406]], [[0.25647954376279647, -0.2564795437627959]], [[0.2564906818618748, -0.2564906818618743]], [[0.25650301482303417, -0.2565030148230337]], [[0.25651446815727824, -0.25651446815727785]], [[0.25652608983215613, -0.25652608983215575]], [[0.25653660032469805, -0.25653660032469766]], [[0.2565469434900413, -0.25654694349004087]], [[0.256558037658821, -0.2565580376588206]], [[0.2565702111786202, -0.25657021117861983]], [[0.256581632883173, -0.25658163288317254]], [[0.2565932279067377, -0.2565932279067372]], [[0.2566037102083907, -0.25660371020839023]], [[0.25661402491977586, -0.2566140249197754]], [[0.25662504315264434, -0.2566250431526439]], [[0.2566372020039052, -0.2566372020039048]], [[0.25664866646861256, -0.2566486664686121]], [[0.25666022973127905, -0.25666022973127856]], [[0.25667068026406525, -0.25667068026406475]], [[0.25668101607127297, -0.2566810160712724]], [[0.2566919927824416, -0.2566919927824411]], [[0.25670311300440857, -0.25670311300440807]], [[0.2567146481096334, -0.2567146481096329]], [[0.25672627374422047, -0.25672627374421997]], [[0.2567367752070586, -0.2567367752070581]], [[0.2567471550956663, -0.2567471550956658]], [[0.25675734189565086, -0.25675734189565036]], [[0.25676856117328034, -0.2567685611732798]], [[0.2567800953484611, -0.2567800953484605]], [[0.25679180657346895, -0.2567918065734684]], [[0.2568024407001988, -0.25680244070019825]], [[0.25681215393527057, -0.25681215393527]], [[0.2568217466475619, -0.25682174664756136]], [[0.2568330726279427, -0.25683307262794214]], [[0.2568447937496329, -0.2568447937496324]], [[0.2568557105250239, -0.2568557105250234]], [[0.25686642310979274, -0.2568664231097922]], [[0.25687608981098975, -0.2568760898109892]], [[0.256885860083818, -0.2568858600838174]], [[0.2568962391662282, -0.25689623916622767]], [[0.25690827982172265, -0.25690827982172204]], [[0.25691910389523415, -0.25691910389523354]], [[0.2569301056201571, -0.25693010562015645]], [[0.2569400234121551, -0.25694002341215444]], [[0.25694997260053554, -0.2569499726005348]], [[0.25696043888059655, -0.25696043888059583]], [[0.2569723475349346, -0.2569723475349339]], [[0.2569833652307638, -0.25698336523076315]], [[0.2569945349428712, -0.2569945349428705]], [[0.2570045967648416, -0.2570045967648409]], [[0.257014670346859, -0.25701467034685826]], [[0.2570248980382677, -0.25702489803826695]], [[0.2570359411271387, -0.2570359411271379]], [[0.25704709792635877, -0.25704709792635805]], [[0.2570574464185542, -0.25705744641855344]], [[0.25706781131982087, -0.25706781131982015]], [[0.25707707840862526, -0.25707707840862454]], [[0.2570865119515784, -0.25708651195157767]], [[0.2570965936275746, -0.25709659362757387]], [[0.25710829107780325, -0.2571082910778025]], [[0.2571188658345436, -0.2571188658345428]], [[0.25712967769349426, -0.2571296776934935]], [[0.25713931323621086, -0.2571393132362101]], [[0.2571489944745533, -0.25714899447455253]], [[0.2571592799411976, -0.2571592799411968]], [[0.2571710982141635, -0.25717109821416273]], [[0.2571817365132918, -0.257181736513291]], [[0.2571926498207032, -0.25719264982070245]], [[0.2572025421816806, -0.25720254218167987]], [[0.2572116924023471, -0.25721169240234637]], [[0.2572210709369215, -0.25722107093692076]], [[0.2572320245912288, -0.2572320245912281]], [[0.2572430951006409, -0.25724309510064025]], [[0.25725342244556987, -0.2572534224455692]], [[0.25726374214184955, -0.2572637421418489]], [[0.25727286433403795, -0.2572728643340373]], [[0.2572821815166949, -0.25728218151669424]], [[0.2572921796305656, -0.25729217963056494]], [[0.25730359004052233, -0.25730359004052167]], [[0.25731400856013104, -0.2573140085601304]], [[0.25732481358900733, -0.25732481358900666]], [[0.2573343620314052, -0.25733436203140453]], [[0.25734330389810833, -0.25734330389810767]], [[0.2573524264874149, -0.25735242648741424]], [[0.257363345700415, -0.2573633457004143]], [[0.257374236688497, -0.2573742366884963]], [[0.25738435652246977, -0.25738435652246905]], [[0.2573944856616939, -0.25739448566169315]], [[0.2574036573067253, -0.2574036573067246]], [[0.2574127943161514, -0.25741279431615066]], [[0.25742268031362076, -0.25742268031362003]], [[0.25743398510962257, -0.2574339851096218]], [[0.25744418415765374, -0.25744418415765297]], [[0.2574548458940659, -0.2574548458940651]], [[0.25746432958296267, -0.25746432958296184]], [[0.25747314289407874, -0.25747314289407797]], [[0.25748220291125623, -0.2574822029112554]], [[0.25749181725303516, -0.2574918172530343]], [[0.2575027297169371, -0.2575027297169363]], [[0.25751285393950446, -0.2575128539395036]], [[0.2575229839107244, -0.2575229839107236]], [[0.2575321518263658, -0.2575321518263649]], [[0.25754133667320167, -0.2575413366732008]], [[0.25755088898394457, -0.2575508889839437]], [[0.25756121294298323, -0.2575612129429823]], [[0.2575715195640583, -0.2575715195640574]], [[0.2575812565415548, -0.25758125654155384]], [[0.25759099383298806, -0.2575909938329871]], [[0.2575998159956223, -0.25759981599562143]], [[0.25760854942299677, -0.2576085494229959]], [[0.25761832645373145, -0.25761832645373056]], [[0.25762923112609454, -0.25762923112609365]], [[0.25763925472991406, -0.2576392547299131]], [[0.2576496680105839, -0.257649668010583]], [[0.25765885440849534, -0.2576588544084944]], [[0.2576673908205416, -0.2576673908205407]], [[0.2576762707396553, -0.25767627073965443]], [[0.25768558572620964, -0.25768558572620875]], [[0.25769606082542623, -0.25769606082542523]], [[0.2577061798103669, -0.25770617981036587]], [[0.25771618897442833, -0.2577161889744272]], [[0.2577251679487756, -0.2577251679487744]], [[0.2577340920215065, -0.25773409202150527]], [[0.25774333728422594, -0.2577433372842247]], [[0.2577534680226493, -0.25775346802264804]], [[0.2577636400437158, -0.2577636400437146]], [[0.25777331775157114, -0.2577733177515699]], [[0.2577828632179836, -0.2577828632179824]], [[0.25779142803984184, -0.25779142803984056]], [[0.257800013875614, -0.2578000138756128]], [[0.2578095941007971, -0.25780959410079596]], [[0.25782042701052316, -0.25782042701052205]], [[0.2578303616590129, -0.2578303616590118]], [[0.2578396253820725, -0.2578396253820714]], [[0.25784879727461163, -0.2578487972746105]], [[0.25785711586797755, -0.25785711586797644]], [[0.25786564609830503, -0.2578656460983039]], [[0.25787491943875085, -0.2578749194387498]], [[0.2578854758009855, -0.25788547580098437]], [[0.25789533154247907, -0.2578953315424779]], [[0.2579053651932705, -0.25790536519326934]], [[0.2579143648515407, -0.25791436485153957]], [[0.2579224321187076, -0.2579224321187065]], [[0.2579310723109672, -0.2579310723109661]], [[0.2579401834651765, -0.25794018346517544]], [[0.25795051763795285, -0.2579505176379518]], [[0.2579603473366644, -0.25796034733666334]], [[0.2579701123064161, -0.25797011230641503]], [[0.25797893055621274, -0.2579789305562117]], [[0.25798697236560225, -0.2579869723656012]], [[0.25799538879339784, -0.2579953887933968]], [[0.2580042955222294, -0.2580042955222284]], [[0.2580144430891087, -0.2580144430891077]], [[0.2580241892394105, -0.2580241892394095]], [[0.2580338601668037, -0.2580338601668027]], [[0.25804252279700607, -0.2580425227970051]], [[0.25805042430941594, -0.258050424309415]], [[0.2580589188175039, -0.258058918817503]], [[0.2580677570145398, -0.25806775701453893]], [[0.2580777727445085, -0.2580777727445076]], [[0.25808742313695765, -0.25808742313695676]], [[0.2580969444603399, -0.25809694446033904]], [[0.2581054714235853, -0.2581054714235845]], [[0.2581133915278166, -0.25811339152781576]], [[0.25812177830425104, -0.2581217783042502]], [[0.2581304975452671, -0.2581304975452663]], [[0.25814046571086546, -0.2581404657108646]], [[0.2581499645303693, -0.2581499645303684]], [[0.2581594266320431, -0.2581594266320422]], [[0.25816789826212583, -0.25816789826212494]], [[0.25817556749403336, -0.2581755674940324]], [[0.25818392640281757, -0.2581839264028166]], [[0.2581926783038021, -0.25819267830380116]], [[0.258202786115662, -0.25820278611566105]], [[0.2582122356755163, -0.2582122356755154]], [[0.25822165224000554, -0.2582216522400046]], [[0.2582300842758587, -0.25823008427585775]], [[0.25823771178715055, -0.2582377117871496]], [[0.2582461530333894, -0.2582461530333884]], [[0.25825473850898445, -0.25825473850898345]], [[0.2582648119574334, -0.2582648119574324]], [[0.258274219678346, -0.258274219678345]], [[0.2582835976573692, -0.2582835976573682]], [[0.2582919705647458, -0.25829197056474484]], [[0.25829960252097806, -0.2582996025209771]], [[0.2583079900021754, -0.2583079900021744]], [[0.2583165236150199, -0.2583165236150189]], [[0.25832654983389935, -0.25832654983389836]], [[0.2583359131840538, -0.2583359131840528]], [[0.2583442366145964, -0.2583442366145953]], [[0.2583527643970592, -0.2583527643970581]], [[0.25836038623944657, -0.25836038623944546]], [[0.25836878831496163, -0.2583687883149606]], [[0.2583770754365864, -0.25837707543658534]], [[0.2583871938161165, -0.25838719381611547]], [[0.25839639561471006, -0.258396395614709]], [[0.2584048730124171, -0.25840487301241605]], [[0.25841347683953353, -0.2584134768395325]], [[0.2584211617065054, -0.25842116170650437]], [[0.2584292204233317, -0.25842922042333066]], [[0.25843704116760285, -0.25843704116760174]], [[0.2584462693269155, -0.2584462693269144]], [[0.25845553041691044, -0.25845553041690933]], [[0.2584642270315784, -0.25846422703157723]], [[0.2584730270863388, -0.2584730270863377]], [[0.2584807449075419, -0.2584807449075408]], [[0.2584882486176997, -0.2584882486176986]], [[0.2584959989764164, -0.2584959989764153]], [[0.25850415157803774, -0.2585041515780367]], [[0.2585136901312603, -0.25851369013125924]], [[0.2585226111203675, -0.25852261112036645]], [[0.25853169867794124, -0.2585316986779402]], [[0.2585396695276688, -0.25853966952766777]], [[0.25854696791557746, -0.2585469679155764]], [[0.2585549575182935, -0.2585549575182924]], [[0.25856317864656003, -0.2585631786465589]], [[0.25857292089754563, -0.2585729208975445]], [[0.2585820184517417, -0.2585820184517406]], [[0.25859009013926365, -0.25859009013926254]], [[0.2585983928454912, -0.2585983928454901]], [[0.2586058297910773, -0.2586058297910762]], [[0.2586140299923687, -0.2586140299923676]], [[0.25862157022983195, -0.2586215702298308]], [[0.2586305399285619, -0.2586305399285608]], [[0.2586395587397514, -0.2586395587397503]], [[0.25864797148190466, -0.25864797148190355]], [[0.25865658022093463, -0.2586565802209335]], [[0.25866428613909137, -0.25866428613909026]], [[0.25867140767379593, -0.25867140767379476]], [[0.2586790024763265, -0.25867900247632536]], [[0.25868698078686037, -0.2586869807868592]], [[0.2586963203589028, -0.25869632035890167]], [[0.25870505663678217, -0.25870505663678106]], [[0.25871302477537284, -0.2587130247753718]], [[0.25872107661679633, -0.2587210766167953]], [[0.25872827635038165, -0.2587282763503806]], [[0.2587362001804934, -0.25873620018049237]], [[0.25874349660874746, -0.2587434966087464]], [[0.258752233247274, -0.2587522332472729]], [[0.2587610388557185, -0.2587610388557174]], [[0.25876925776512405, -0.2587692577651229]], [[0.2587777571542162, -0.2587777571542151]], [[0.25878535264614877, -0.25878535264614766]], [[0.2587923128102166, -0.2587923128102155]], [[0.25879975586036574, -0.25879975586036463]], [[0.25880759248561663, -0.2588075924856155]], [[0.2588168020375755, -0.2588168020375744]], [[0.25882547983473664, -0.2588254798347355]], [[0.25883339699885743, -0.25883339699885627]], [[0.2588414886879294, -0.2588414886879282]], [[0.25884876928778533, -0.25884876928778416]], [[0.2588558165603053, -0.25885581656030415]], [[0.25886292040639275, -0.2588629204063916]], [[0.2588705333660941, -0.25887053336609295]], [[0.2588794630681077, -0.2588794630681066]], [[0.2588877750241799, -0.25888777502417876]], [[0.2588963046012257, -0.25889630460122454]], [[0.25890392558000913, -0.25890392558000797]], [[0.25891086613502057, -0.2589108661350194]], [[0.25891831835279183, -0.2589183183527906]], [[0.25892590716013814, -0.2589259071601369]], [[0.25893517788176196, -0.25893517788176074]], [[0.25894377232654114, -0.2589437723265399]], [[0.2589517080486084, -0.25895170804860723]], [[0.25895981775084903, -0.2589598177508478]], [[0.25896689590642824, -0.25896689590642696]], [[0.25897404130591795, -0.25897404130591667]], [[0.25898121970170523, -0.25898121970170396]], [[0.25898872369802245, -0.2589887236980212]], [[0.25899774834931205, -0.25899774834931083]], [[0.2590060616380729, -0.25900606163807177]], [[0.259013574972881, -0.2590135749728799]], [[0.2590213000132967, -0.25902130001329565]], [[0.259028304522921, -0.25902830452291997]], [[0.25903511835002857, -0.25903511835002746]], [[0.25904200848713205, -0.259042008487131]], [[0.25904936084411023, -0.2590493608441092]], [[0.2590581285351354, -0.2590581285351343]], [[0.25906621651239037, -0.25906621651238937]], [[0.2590735452137004, -0.2590735452136994]], [[0.25908114235814605, -0.259081142358145]], [[0.2590879697468994, -0.25908796974689835]], [[0.25909468012599757, -0.2590946801259965]], [[0.25910142737298614, -0.259101427372985]], [[0.2591087108010531, -0.259108710801052]], [[0.2591173481753946, -0.25911734817539356]], [[0.2591254680027309, -0.25912546800272984]], [[0.2591338830579987, -0.25913388305799767]], [[0.259141231931078, -0.25914123193107697]], [[0.25914791606015725, -0.25914791606015625]], [[0.25915530357424094, -0.25915530357423994]], [[0.2591625001390526, -0.2591625001390516]], [[0.25917158215636765, -0.25917158215636665]], [[0.2591799844381492, -0.25917998443814827]], [[0.2591876722690403, -0.2591876722690394]], [[0.2591956164834548, -0.25919561648345385]], [[0.25920274629683304, -0.25920274629683204]], [[0.25920906717792963, -0.2592090671779286]], [[0.25921610336067463, -0.2592161033606736]], [[0.25922314606189395, -0.2592231460618929]], [[0.25923194306821645, -0.2592319430682154]], [[0.2592400280850332, -0.25924002808503216]], [[0.2592475175155593, -0.2592475175155583]], [[0.25925519613807363, -0.2592551961380726]], [[0.259262086974403, -0.25926208697440195]], [[0.25926859859680185, -0.2592685985968008]], [[0.259275465345676, -0.25927546534567497]], [[0.25928261212116677, -0.2592826121211657]], [[0.259291334872863, -0.2592913348728619]], [[0.2592992233051447, -0.2592992233051436]], [[0.2593065349214571, -0.25930653492145606]], [[0.2593140529324187, -0.25931405293241766]], [[0.2593207989280536, -0.2593207989280526]], [[0.2593272405543103, -0.25932724055430934]], [[0.2593340450030419, -0.25933404500304097]], [[0.25934080511175966, -0.2593408051117587]], [[0.2593494480255127, -0.25934944802551174]], [[0.25935726317028424, -0.2593572631702833]], [[0.2593644212965317, -0.25936442129653076]], [[0.2593718865167754, -0.2593718865167745]], [[0.25937865154018974, -0.2593786515401888]], [[0.25938504231219667, -0.25938504231219567]], [[0.2593917959631286, -0.2593917959631276]], [[0.25939841105834877, -0.2593984110583477]], [[0.25940701114375464, -0.2594070111437536]], [[0.2594148149606833, -0.2594148149606822]], [[0.25942193988812606, -0.25942193988812495]], [[0.25942944343597624, -0.2594294434359751]], [[0.25943616861789026, -0.25943616861788915]], [[0.25944219088547, -0.2594421908854689]], [[0.2594482265035845, -0.2594482265035834]], [[0.25945447049286646, -0.2594544704928653]], [[0.25946093067659326, -0.25946093067659204]], [[0.2594688371106178, -0.2594688371106165]], [[0.25947633312008916, -0.2594763331200879]], [[0.2594830890782536, -0.2594830890782523]], [[0.25949016848904055, -0.2594901684890392]], [[0.2594963853209987, -0.25949638532099734]], [[0.2595026492499518, -0.2595026492499504]], [[0.2595088562706434, -0.259508856270642]], [[0.2595154641105991, -0.25951546411059767]], [[0.25952364659105753, -0.2595236465910561]], [[0.2595311977874004, -0.25953119778739897]], [[0.25953817341022384, -0.2595381734102224]], [[0.25954544966006127, -0.2595454496600599]], [[0.2595518380082836, -0.25955183800828213]], [[0.25955805437728446, -0.2595580543772831]], [[0.25956441368707783, -0.25956441368707645]], [[0.25957102178941516, -0.25957102178941377]], [[0.25957932631726927, -0.2595793263172679]], [[0.25958699317517187, -0.2595869931751705]], [[0.25959398511249615, -0.25959398511249476]], [[0.2596013592700706, -0.25960135927006917]], [[0.2596078319116122, -0.2596078319116108]], [[0.25961411991690564, -0.2596141199169043]], [[0.25961981619231683, -0.2596198161923155]], [[0.2596258117390845, -0.25962581173908317]], [[0.2596321724681552, -0.2596321724681539]], [[0.25964025641592836, -0.2596402564159271]], [[0.2596476088736973, -0.25964760887369603]], [[0.2596540857695192, -0.259654085769518]], [[0.2596609738615749, -0.2596609738615736]], [[0.2596671194333789, -0.2596671194333776]], [[0.259673200104761, -0.25967320010475975]], [[0.25967923730530246, -0.2596792373053012]], [[0.25968568593223407, -0.2596856859322328]], [[0.25969365949842504, -0.25969365949842377]], [[0.25970103013392853, -0.25970103013392726]], [[0.2597078267424687, -0.25970782674246745]], [[0.2597150029625938, -0.2597150029625926]], [[0.2597212891197595, -0.2597212891197582]], [[0.2597274057412024, -0.2597274057412011]], [[0.2597336608274312, -0.2597336608274299]], [[0.2597393744430695, -0.25973937444306816]], [[0.259746505413337, -0.2597465054133357]], [[0.25975424811633535, -0.2597542481163341]], [[0.259761289156405, -0.25976128915640373]], [[0.2597678153734929, -0.25976781537349164]], [[0.2597744732326914, -0.2597744732326901]], [[0.259780408840105, -0.2597804088401036]], [[0.2597862367504861, -0.2597862367504847]], [[0.25979204385371113, -0.2597920438537097]], [[0.25979831394977937, -0.2597983139497779]], [[0.25980609707954605, -0.2598060970795446]], [[0.25981342861588597, -0.25981342861588447]], [[0.2598200935242624, -0.2598200935242609]], [[0.2598271671503367, -0.2598271671503352]], [[0.25983346929792717, -0.2598334692979256]], [[0.25983942303638946, -0.25983942303638785]], [[0.25984481940079884, -0.2598448194007972]], [[0.25985019998156145, -0.25985019998155984]], [[0.25985629512394187, -0.25985629512394026]], [[0.2598641426586029, -0.2598641426586013]], [[0.259871192568819, -0.2598711925688174]], [[0.2598777661479623, -0.2598777661479607]], [[0.2598844649631482, -0.25988446496314654]], [[0.2598904319029757, -0.25989043190297406]], [[0.2598960845647307, -0.25989608456472907]], [[0.2599019400825447, -0.2599019400825431]], [[0.2599078075615269, -0.2599078075615253]], [[0.2599145944032132, -0.2599145944032116]], [[0.25992222795351433, -0.25992222795351266]], [[0.2599290283108033, -0.25992902831080167]], [[0.2599352040427768, -0.25993520404277526]], [[0.2599417168410851, -0.25994171684108347]], [[0.2599473440131589, -0.2599473440131572]], [[0.25995270417532096, -0.25995270417531924]], [[0.2599583659350682, -0.2599583659350665]], [[0.25996442279749743, -0.2599644227974957]], [[0.25997221016168875, -0.25997221016168703]], [[0.25997945212187173, -0.25997945212186996]], [[0.2599859019678673, -0.25998590196786553]], [[0.25999176198833646, -0.2599917619883347]], [[0.25999798977264105, -0.2599979897726393]], [[0.26000386138113935, -0.2600038613811376]], [[0.26000925166890754, -0.2600092516689058]], [[0.2600146245975635, -0.2600146245975618]], [[0.2600205968090645, -0.26002059680906275]], [[0.26002819816510814, -0.2600281981651064]], [[0.2600352043656919, -0.2600352043656902]], [[0.26004164463681856, -0.2600416446368169]], [[0.2600483086083306, -0.26004830860832895]], [[0.26005430910716093, -0.26005430910715926]], [[0.26005990363085, -0.26005990363084835]], [[0.2600650653716452, -0.26006506537164353]], [[0.2600702130785782, -0.26007021307857653]], [[0.2600760506848993, -0.26007605068489764]], [[0.2600834605965112, -0.2600834605965095]], [[0.26009029419628765, -0.26009029419628593]], [[0.2600966399843143, -0.2600966399843126]], [[0.26010322830200333, -0.2601032283020016]], [[0.2601090874783634, -0.2601090874783617]], [[0.2601146355333478, -0.2601146355333461]], [[0.2601196718870827, -0.26011967188708096]], [[0.2601247033886081, -0.2601247033886064]], [[0.2601304350445861, -0.2601304350445844]], [[0.2601378858943605, -0.26013788589435877]], [[0.26014467752605763, -0.26014467752605597]], [[0.26015093360701685, -0.2601509336070152]], [[0.26015760171104085, -0.2601576017110392]], [[0.26016335736824986, -0.2601633573682482]], [[0.2601687294535022, -0.26016872945350056]], [[0.26017368871968183, -0.2601736887196802]], [[0.26017871925756536, -0.26017871925756375]], [[0.26018438040354214, -0.2601843804035405]], [[0.26019182769540866, -0.2601918276954071]], [[0.2601985534274091, -0.26019855342740755]], [[0.26020474831437085, -0.26020474831436935]], [[0.26021034672334403, -0.26021034672334253]], [[0.26021616024362443, -0.26021616024362293]], [[0.26022158195579737, -0.26022158195579587]], [[0.2602265633332568, -0.26022656333325533]], [[0.26023167201695063, -0.2602316720169492]], [[0.2602373541154178, -0.2602373541154164]], [[0.2602448049720285, -0.26024480497202707]], [[0.2602515429223975, -0.26025154292239605]], [[0.26025773590671364, -0.2602577359067122]], [[0.26026332926835855, -0.26026332926835716]], [[0.26026913469014673, -0.26026913469014534]], [[0.26027454783736004, -0.26027454783735865]], [[0.2602794130611785, -0.2602794130611771]], [[0.260284541008416, -0.26028454100841464]], [[0.2602898775123365, -0.26028987751233507]], [[0.2602962572474116, -0.2602962572474102]], [[0.2603031265556581, -0.2603031265556567]], [[0.2603092956719568, -0.2603092956719554]], [[0.26031503848638754, -0.2603150384863861]], [[0.26032097996286363, -0.2603209799628622]], [[0.2603261456155008, -0.26032614561549944]], [[0.26033115437931265, -0.26033115437931126]], [[0.26033569184220434, -0.2603356918422029]], [[0.26034026552689604, -0.2603402655268946]], [[0.26034581590140315, -0.2603458159014017]], [[0.2603530424412336, -0.2603530424412322]], [[0.26035952753755714, -0.26035952753755576]], [[0.2603652898417744, -0.26036528984177304]], [[0.2603715693968886, -0.2603715693968872]], [[0.26037697225285955, -0.26037697225285816]], [[0.26038210929110894, -0.26038210929110756]], [[0.2603868394719825, -0.2603868394719811]], [[0.26039158446506244, -0.26039158446506105]], [[0.2603970940545669, -0.2603970940545655]], [[0.26040423080528374, -0.26040423080528236]], [[0.2604106371985142, -0.2604106371985128]], [[0.2604164511371089, -0.26041645113710754]], [[0.260421873689557, -0.26042187368955566]], [[0.2604275253947277, -0.26042752539472636]], [[0.2604328833149731, -0.2604328833149718]], [[0.26043754375123784, -0.2604375437512365]], [[0.26044177085650067, -0.2604417708564993]], [[0.26044635389623966, -0.26044635389623827]], [[0.26045261027548744, -0.26045261027548605]], [[0.2604595275690454, -0.260459527569044]], [[0.2604657331871211, -0.2604657331871197]], [[0.2604714149957396, -0.2604714149957382]], [[0.26047738535986803, -0.26047738535986664]], [[0.26048259700335147, -0.2604825970033501]], [[0.26048747498676444, -0.26048747498676306]], [[0.2604919781784652, -0.2604919781784638]], [[0.26049651409168073, -0.2604965140916794]], [[0.26050202576993386, -0.26050202576993253]], [[0.26050789893729986, -0.26050789893729853]], [[0.2605145022414481, -0.2605145022414468]], [[0.26052022481547177, -0.2605202248154705]], [[0.2605255609035449, -0.26052556090354356]], [[0.26053122052245764, -0.26053122052245625]], [[0.26053646628380117, -0.2605364662837998]], [[0.2605410591561382, -0.2605410591561368]], [[0.26054527897536794, -0.2605452789753665]], [[0.26054984319253727, -0.2605498431925358]], [[0.2605550825029635, -0.26055508250296205]], [[0.2605620264881834, -0.26056202648818194]], [[0.2605682432387012, -0.26056824323869976]], [[0.26057393970070786, -0.2605739397007064]], [[0.260578973365939, -0.2605789733659375]], [[0.2605842957157015, -0.26058429571569997]], [[0.2605892738327792, -0.26058927383277763]], [[0.26059365121445394, -0.2605936512144524]], [[0.26059761726685915, -0.2605976172668576]], [[0.2606020908620621, -0.26060209086206054]], [[0.2606081053866271, -0.26060810538662554]], [[0.26061474131540097, -0.2606147413153994]], [[0.2606206910051226, -0.26062069100512103]], [[0.2606262055766746, -0.260626205576673]], [[0.26063103249082714, -0.26063103249082553]], [[0.2606362128706177, -0.2606362128706161]], [[0.2606410539724382, -0.26064105397243653]], [[0.2606453122192573, -0.26064531221925563]], [[0.26064910616179277, -0.2606491061617911]], [[0.26065379991323184, -0.2606537999132302]], [[0.26065963297569966, -0.260659632975698]], [[0.2606663058858218, -0.2606663058858201]], [[0.260672254968762, -0.26067225496876034]], [[0.2606776587044659, -0.2606776587044642]], [[0.2606834017117221, -0.26068340171172044]], [[0.2606883160105112, -0.2606883160105095]], [[0.2606929176469975, -0.2606929176469958]], [[0.2606969610199948, -0.2606969610199931]], [[0.26070143071575247, -0.2607014307157508]], [[0.26070585745807373, -0.26070585745807207]], [[0.2607114501814513, -0.2607114501814497]], [[0.26071790644986, -0.2607179064498583]], [[0.2607237943242916, -0.26072379432428994]], [[0.26072903782538104, -0.2607290378253794]], [[0.260734607926276, -0.26073460792627434]], [[0.2607393666279255, -0.26073936662792385]], [[0.260743827576756, -0.26074382757675435]], [[0.26074774379465226, -0.2607477437946506]], [[0.2607520984109484, -0.26075209841094676]], [[0.2607564203570556, -0.260756420357054]], [[0.26076197867918083, -0.2607619786791793]], [[0.26076840617565933, -0.26076840617565783]], [[0.2607741934333785, -0.260774193433377]], [[0.2607793537987446, -0.2607793537987431]], [[0.2607838358089994, -0.26078383580899783]], [[0.2607886348346324, -0.2607886348346309]], [[0.2607931301092644, -0.26079313010926297]], [[0.2607970750736731, -0.2607970750736716]], [[0.2608008749281975, -0.2608008749281959]], [[0.2608050421920854, -0.2608050421920838]], [[0.2608106960997321, -0.2608106960997305]], [[0.260817273233032, -0.2608172732330304]], [[0.2608231320256237, -0.2608231320256221]], [[0.2608283469051897, -0.260828346905188]], [[0.26083287433903707, -0.2608328743390354]], [[0.26083771341578915, -0.2608377134157875]], [[0.2608422430893516, -0.2608422430893499]], [[0.2608462124649502, -0.26084621246494843]], [[0.26085009630746636, -0.2608500963074646]], [[0.26085419771723917, -0.2608541977172374]], [[0.2608588763297282, -0.2608588763297264]], [[0.26086557865608306, -0.2608655786560812]], [[0.2608715205414107, -0.26087152054140883]], [[0.26087665984600883, -0.2608766598460069]], [[0.2608812908179616, -0.26088129081795963]], [[0.2608862222670152, -0.26088622226701325]], [[0.260890893875459, -0.260890893875457]], [[0.26089492663443303, -0.2608949266344311]], [[0.2608987269370485, -0.2608987269370466]], [[0.2609028889383764, -0.26090288893837443]], [[0.2609072818071673, -0.2609072818071654]], [[0.2609129498550508, -0.26091294985504887]], [[0.260919086329837, -0.260919086329835]], [[0.2609243881550676, -0.2609243881550656]], [[0.2609290838709409, -0.2609290838709389]], [[0.26093421903773806, -0.2609342190377361]], [[0.260938979423532, -0.26093897942353006]], [[0.2609430358963193, -0.2609430358963173]], [[0.2609465890943571, -0.2609465890943551]], [[0.2609501606623263, -0.2609501606623243]], [[0.2609540090669424, -0.26095400906694044]], [[0.2609595710922499, -0.2609595710922479]], [[0.2609659636914817, -0.2609659636914797]], [[0.2609714654877359, -0.2609714654877339]], [[0.26097624983498596, -0.26097624983498396]], [[0.26098056167223477, -0.2609805616722328]], [[0.26098520422446936, -0.2609852042244674]], [[0.2609895534149179, -0.2609895534149159]], [[0.26099329975616775, -0.26099329975616575]], [[0.2609969779532475, -0.2609969779532455]], [[0.2610009620533612, -0.2610009620533592]], [[0.2610051255717463, -0.2610051255717443]], [[0.2610105772772536, -0.26101057727725163]], [[0.26101659811313704, -0.2610165981131351]], [[0.26102177326111703, -0.26102177326111514]], [[0.261026351620846, -0.26102635162084403]], [[0.26103030656535575, -0.2610303065653538]], [[0.2610350267443957, -0.26103502674439377]], [[0.26103904669472017, -0.2610390466947182]], [[0.2610427139328081, -0.26104271393280615]], [[0.26104630443430493, -0.261046304434303]], [[0.2610500066758372, -0.2610500066758352]], [[0.26105453978072996, -0.261054539780728]], [[0.2610610524825065, -0.2610610524825045]], [[0.26106665744084934, -0.26106665744084734]], [[0.26107146931944236, -0.26107146931944036]], [[0.2610757151679415, -0.2610757151679395]], [[0.2610803834350886, -0.2610803834350866]], [[0.2610847530560232, -0.2610847530560212]], [[0.2610884288682731, -0.2610884288682711]], [[0.2610920602874442, -0.2610920602874422]], [[0.26109540535125214, -0.26109540535125014]], [[0.26109897221201, -0.26109897221200806]], [[0.26110451701309456, -0.2611045170130926]], [[0.26111066779983444, -0.26111066779983255]], [[0.2611159284692095, -0.26111592846920767]], [[0.2611204321051979, -0.2611204321051961]], [[0.2611244912188706, -0.2611244912188687]], [[0.2611289046382033, -0.2611289046382014]], [[0.2611330453748272, -0.2611330453748252]], [[0.26113673374624874, -0.26113673374624674]], [[0.26114015610682745, -0.26114015610682545]], [[0.2611433134119274, -0.26114331341192537]], [[0.2611469145832762, -0.26114691458327416]], [[0.26115245760040834, -0.2611524576004063]], [[0.2611584314276704, -0.26115843142766837]], [[0.2611635327712611, -0.261163532771259]], [[0.2611678962095267, -0.2611678962095246]], [[0.2611718257501531, -0.26117182575015097]], [[0.2611761824176406, -0.2611761824176385]], [[0.2611802782947599, -0.2611802782947578]], [[0.26118414685456476, -0.2611841468545627]], [[0.2611874377982364, -0.26118743779823433]], [[0.26119047639112836, -0.26119047639112636]], [[0.2611939700397419, -0.2611939700397399]], [[0.26119943469751333, -0.26119943469751133]], [[0.26120531716700174, -0.26120531716699974]], [[0.2612103362862522, -0.2612103362862502]], [[0.2612146821414698, -0.2612146821414678]], [[0.2612185937370437, -0.2612185937370417]], [[0.2612228809765051, -0.26122288097650315]], [[0.26122697273765805, -0.26122697273765616]], [[0.2612307683168138, -0.2612307683168119]], [[0.26123399249763735, -0.26123399249763546]], [[0.26123696937188934, -0.26123696937188745]], [[0.2612404053344102, -0.26124040533440823]], [[0.26124581699594984, -0.26124581699594784]], [[0.26125165551175095, -0.26125165551174895]], [[0.26125669365394527, -0.2612566936539433]], [[0.26126098508753226, -0.26126098508753026]], [[0.2612647769544328, -0.2612647769544308]], [[0.26126910172577344, -0.26126910172577145]], [[0.2612731580431281, -0.2612731580431262]], [[0.26127683855678807, -0.2612768385567862]], [[0.2612800401399059, -0.2612800401399041]], [[0.2612829947421127, -0.26128299474211086]], [[0.2612864075813245, -0.26128640758132265]], [[0.26129181756611203, -0.26129181756611025]], [[0.26129657172637066, -0.2612965717263689]], [[0.26130170436183037, -0.2613017043618286]], [[0.2613060858493034, -0.2613060858493017]], [[0.26130994725139634, -0.2613099472513946]], [[0.2613133216464633, -0.26131332164646154]], [[0.2613175100198639, -0.2613175100198621]], [[0.2613211847850466, -0.2613211847850448]], [[0.2613245323267304, -0.26132453232672853]], [[0.26132767510212324, -0.2613276751021213]], [[0.2613311733483173, -0.2613311733483153]], [[0.2613350846278633, -0.2613350846278613]], [[0.2613399833239823, -0.2613399833239803]], [[0.2613453539132065, -0.2613453539132045]], [[0.2613499189314615, -0.2613499189314595]], [[0.26135379488470295, -0.26135379488470095]], [[0.2613573512681791, -0.2613573512681771]], [[0.2613617039100371, -0.2613617039100351]], [[0.2613653862964635, -0.26136538629646155]], [[0.2613688810099309, -0.2613688810099289]], [[0.2613719541604151, -0.2613719541604131]], [[0.2613748663265819, -0.2613748663265799]], [[0.261378229458857, -0.261378229458855]], [[0.26138337710203224, -0.2613833771020303]], [[0.26138898027474516, -0.2613889802747432]], [[0.2613937433717047, -0.26139374337170274]], [[0.26139778513775264, -0.2613977851377507]], [[0.2614014080864878, -0.2614014080864859]], [[0.2614055112071826, -0.26140551120718064]], [[0.26140942665521444, -0.26140942665521255]], [[0.26141297605154484, -0.261412976051543]], [[0.2614160592561005, -0.2614160592560986]], [[0.26141890247718735, -0.26141890247718547]], [[0.26142231922071957, -0.2614223192207177]], [[0.2614259613348678, -0.2614259613348659]], [[0.2614306263321728, -0.26143062633217085]], [[0.26143578614640745, -0.2614357861464055]], [[0.2614401530308241, -0.26144015303082213]], [[0.2614439077205394, -0.2614439077205374]], [[0.26144726827216547, -0.26144726827216347]], [[0.2614515301134553, -0.2614515301134533]], [[0.2614552688758952, -0.2614552688758932]], [[0.2614585308895362, -0.2614585308895342]], [[0.26146147188297114, -0.2614614718829691]], [[0.26146428229218327, -0.2614642822921812]], [[0.26146752863540595, -0.2614675286354039]], [[0.26147144602716477, -0.26147144602716266]], [[0.261475840167953, -0.2614758401679509]], [[0.26148075594396625, -0.2614807559439641]], [[0.2614850311019797, -0.2614850311019775]], [[0.2614886351042255, -0.2614886351042234]], [[0.2614918853905969, -0.2614918853905948]], [[0.2614959644385103, -0.2614959644385082]], [[0.26149968783985883, -0.2614996878398567]], [[0.2615028635026547, -0.2615028635026526]], [[0.2615056445341719, -0.2615056445341698]], [[0.26150831855790657, -0.2615083185579044]], [[0.2615114414507042, -0.261511441450702]], [[0.26151632786232337, -0.2615163278623211]], [[0.26152055964544696, -0.26152055964544463]], [[0.2615253949443386, -0.26152539494433624]], [[0.26152946903339436, -0.261529469033392]], [[0.2615328923505296, -0.26153289235052724]], [[0.2615359838841193, -0.2615359838841169]], [[0.2615399161919298, -0.2615399161919274]], [[0.26154350655857, -0.2615435065585676]], [[0.2615465622227204, -0.261546562222718]], [[0.26154926315545646, -0.26154926315545407]], [[0.26155200818190855, -0.26155200818190616]], [[0.2615550810016512, -0.2615550810016488]], [[0.26155883271731883, -0.26155883271731645]], [[0.2615631457517235, -0.2615631457517211]], [[0.26156798545401266, -0.2615679854540103]], [[0.26157206228546737, -0.26157206228546503]], [[0.2615754893857068, -0.26157548938570446]], [[0.26157849321983645, -0.2615784932198341]], [[0.2615825692709162, -0.2615825692709139]], [[0.2615861492180247, -0.26158614921802237]], [[0.2615891203446219, -0.2615891203446196]], [[0.26159187904708364, -0.2615918790470814]], [[0.2615946727579347, -0.2615946727579325]], [[0.2615977268398113, -0.26159772683980914]], [[0.26160119652195085, -0.2616011965219487]], [[0.26160551653858766, -0.2616055165385855]], [[0.2616103626416957, -0.2616103626416936]], [[0.2616144471181615, -0.2616144471181594]], [[0.2616178759209338, -0.26161787592093166]], [[0.26162087808899565, -0.2616208780889936]], [[0.2616249532181159, -0.26162495321811385]], [[0.2616285917499119, -0.2616285917499098]], [[0.2616316130212638, -0.2616316130212618]], [[0.26163435440813904, -0.2616343544081371]], [[0.2616371309168472, -0.26163713091684526]], [[0.2616393697919107, -0.26163936979190877]], [[0.26164223954173466, -0.26164223954173266]], [[0.26164669306288696, -0.26164669306288496]], [[0.26165166312260707, -0.26165166312260507]], [[0.26165585319937984, -0.2616558531993779]], [[0.26165937453161797, -0.261659374531616]], [[0.26166234310818454, -0.2616623431081826]], [[0.2616650152096968, -0.2616650152096949]], [[0.2616688638886697, -0.26166886388866784]], [[0.26167208472352643, -0.26167208472352455]], [[0.261674827912796, -0.2616748279127941]], [[0.26167759156715964, -0.26167759156715775]], [[0.261680012572293, -0.26168001257229107]], [[0.2616827990553387, -0.2616827990553367]], [[0.26168702275981776, -0.26168702275981576]], [[0.26169095420792127, -0.26169095420791927]], [[0.2616954500203178, -0.26169545002031586]], [[0.2616992762618747, -0.2616992762618728]], [[0.2617024719318576, -0.2617024719318556]], [[0.2617052720288545, -0.26170527202885246]], [[0.26170916284255513, -0.2617091628425531]], [[0.261712573026223, -0.261712573026221]], [[0.2617154008071547, -0.26171540080715266]], [[0.26171814826237383, -0.2617181482623717]], [[0.26172079249731994, -0.26172079249731783]], [[0.26172291314571705, -0.26172291314571494]], [[0.2617256057999042, -0.2617256057999021]], [[0.26172985472709737, -0.26172985472709526]], [[0.2617335113879712, -0.26173351138796913]], [[0.261737754794036, -0.26173775479403394]], [[0.26174129390369755, -0.2617412939036955]], [[0.2617442401173562, -0.26174424011735414]], [[0.2617469480551442, -0.26174694805514215]], [[0.26175076834681843, -0.2617507683468164]], [[0.2617539813573311, -0.261753981357329]], [[0.26175661277887496, -0.26175661277887285]], [[0.2617594227932282, -0.26175942279322617]], [[0.26176188455133625, -0.26176188455133415]], [[0.2617638992319652, -0.2617638992319631]], [[0.2617664965262434, -0.2617664965262413]], [[0.2617707018594928, -0.2617707018594907]], [[0.2617743194963314, -0.2617743194963293]], [[0.2617784220662755, -0.2617784220662734]], [[0.26178184183968783, -0.2617818418396857]], [[0.2617846728044045, -0.26178467280440243]], [[0.2617873621196709, -0.26178736211966885]], [[0.26179107864039985, -0.2617910786403978]], [[0.2617941972879417, -0.2617941972879397]], [[0.26179674445296036, -0.26179674445295836]], [[0.2617995407802138, -0.26179954078021184]], [[0.2618019853270136, -0.26180198532701165]], [[0.2618039223887923, -0.26180392238879036]], [[0.2618064489765583, -0.26180644897655636]], [[0.2618105447608299, -0.26181054476082793]], [[0.26181400125941484, 