[[[-0.14856159199383148, 0.15354130943405547], [0.14435721990245892, -0.14221099841915905]], [[-0.2721409931314043, 0.27711573085418806], [0.2755989625605176, -0.27345488729870104]], [[-0.3843419824942467, 0.38931174547930775], [0.39654056400865456, -0.39439863282209986]], [[-0.4874246059887272, 0.49238939921080316], [0.5075756556364013, -0.5054358663810331]], [[-0.582663051897895, 0.5876228803267489], [0.6096720523133984, -0.6075344028472855]], [[-0.6710157275173352, 0.6759705961177601], [0.7038390399172553, -0.7017035281006085]], [[-0.7532829117191697, 0.7582328254509942], [0.7910001330351283, -0.7888667567302983]], [[-0.830150698991779, 0.8350956628098717], [0.8719685786958402, -0.869837335767315]], [[-0.9022104391759118, 0.9071504580301865], [0.9474505132305633, -0.9453214015449667]], [[-0.9699724944352075, 0.9749075732706279], [1.0180557886232344, -1.0159288060493235]], [[-1.0338779492337298, 1.0388080929903147], [1.0843103894934432, -1.082185533902106]], [[-1.0943088552465199, 1.0992340688593483], [1.1466683492756895, -1.1445456185399436]], [[-1.1515971012352646, 1.1565173896344803], [1.2055224378920015, -1.2034018298869913]], [[-1.2060319891230062, 1.2109473572338227], [1.2612134346963322, -1.259094947299327]], [[-1.2578666411390749, 1.2627770938817806], [1.314038029780692, -1.3119216608710838]], [[-1.307323385947255, 1.3122289282372182], [1.36425548917456, -1.3621412366338614]], [[-1.3545982731067154, 1.3594989098543886], [1.4120932477149346, -1.4099811094267767]], [[-1.3998648540666587, 1.4047605901775841], [1.4577515915815913, -1.4556415654317214]], [[-1.443277351327371, 1.4481681917021854], [1.501407577705432, -1.499299661581712]], [[-1.484973319656176, 1.4898592691906158], [1.5432183180223913, -1.5411125098147949]], [[-1.525075886485201, 1.5299569500701062], [1.583323737030694, -1.5812200346313052]], [[-1.5636956437580656, 1.568571826279386], [1.621848893189911, -1.6197472944929217]], [[-1.600932250785156, 1.605803557123955], [1.6589059390665808, -1.6568064419682884]], [[-1.6368757970323344, 1.6417422320647945], [1.6945957818851296, -1.6924983842839354]], [[-1.671607964984053, 1.6764695335814805], [1.7290094951154842, -1.7269141949118914]], [[-1.7052030260236215, 1.7100597330524516], [1.7622295226461384, -1.7601363177427491]], [[-1.7377286964005965, 1.7425805467223976], [1.794330709657731, -1.7922395979592451]], [[-1.769246875573796, 1.7740938740452752], [1.825381188248973, -1.8232921676621856]], [[-1.7998142853272783, 1.804656436800286], [1.855443140928613, -1.8533562093624123]], [[-1.829483024887805, 1.8343203342093397], [1.884573461065646, -1.8824886164310115]], [[-1.8583010546879009, 1.8631335267001141], [1.9128243261120896, -1.9107415663220897]], [[-1.8863126193064699, 1.891140258846671], [1.9402436967366263, -1.9381630197064164]], [[-1.9135586183884654, 1.9183814302891262], [1.9668757528181748, -1.964797156464995]], [[-1.9400769329234513, 1.9448949220122114], [1.9927612754530806, -1.990684757696254]], [[-1.9659027130914755, 1.9707158841911467], [2.0179379826532706, -2.015863541414201]], [[-1.9910686329164875, 1.995876990845059], [2.0424408251952393, -2.040368458397409]], [[-2.015605116164792, 2.020408665735435], [2.066302248072732, -2.0642319536416993]], [[-2.0395405372583424, 2.044339283279415], [2.089552422170555, -2.087484198033953]], [[-2.062901400415556, 2.0676953476906075], [2.1122194500816955, -2.1101532941692307]], [[-2.085712499765971, 2.0905016530937477], [2.1343295494095766, -2.132265459653024]], [[-2.1079970627934856, 2.112781426967935], [2.155907216411321, -2.1538451907445246]], [[-2.1297768791330642, 2.134556458943339], [2.1769753724297773, -2.1749154087886478]], [[-2.151072416467129, 2.155847216697593], [2.1975554952182437, -2.195497591540755]], [[-2.17190292503171, 2.1766729504619438], [2.217667736971353, -2.2156118911975415]], [[-2.1922865320417295, 2.197051787446533], [2.2373310306294525, -2.235277240701415]], [[-2.212240327173736, 2.2170008173231346], [2.2565631858146635, -2.2545114496765546]], [[-2.2317804400982246, 2.236536169757474], [2.275380975578577, -2.2733312911766066]], [[-2.250922110928371, 2.255673084857961], [2.2938002149892838, -2.2917525802717154]], [[-2.2696797543443576, 2.2744259773000177], [2.311835832454964, -2.3097902453721133]], [[-2.288067018059723, 2.2928084947924274], [2.3295019345692305, -2.3274583930734627]], [[-2.306096836216059, 2.310833571472031], [2.346811865166919, -2.344770367212647]], [[-2.3237814782230366, 2.3285134767437525], [2.363778259195743, -2.361738802739425]], [[-2.3411325935005505, 2.345859860022746], [2.3804130919371613, -2.3783756749372995]], [[-2.358161252527441, 2.3628837917831143], [2.396727724047308, -2.3946923444644463]], [[-2.374877984555596, 2.3795958012720133], [2.4127329428344972, -2.4106995986312185]], [[-2.3912928123083783, 2.3960059112080794], [2.428439000142484, -2.4264076892834083]], [[-2.4074152839474148, 2.4121236697482162], [2.443855647167344, -2.4418263676191274]], [[-2.423254502561145, 2.427958179976146], [2.4589921664996686, -2.456964916231]], [[-2.4388191534016226, 2.443518127139208], [2.4738574016520833, -2.471832178633684]], [[-2.454117529072324, 2.4588118038361717], [2.4884597843042493, -2.486436586508868]], [[-2.4691575528488143, 2.473847133337898], [2.502807359473, -2.5007861848754143]], [[-2.483946800295595, 2.48863169120419], [2.5169078087936643, -2.514888655370676]], [[-2.498492519326083, 2.5031727253437692], [2.530768472079523, -2.528751337809958]], [[-2.5128016488381206, 2.5174771746497893], [2.544396367309466, -2.54238125017417]], [[-2.5268808360445005, 2.5315516863303573], [2.5577982091789253, -2.5557851071607645]], [[-2.5407364526064717, 2.545402632042043], [2.5709804263358746, -2.568969337419732]], [[-2.554374609667943, 2.5590361229240783], [2.583949177411838, -2.581940099584612]], [[-2.5678011718789295, 2.5724580236218086], [2.596710365947321, -2.5947032971979223]], [[-2.5810217704886003, 2.5856739653797365], [2.609269654301667, -2.6072645926210174]], [[-2.594041815580929, 2.598689358277174], [2.621632476628937, -2.6196294200099683]], [[-2.606866507519378, 2.611509402672927], [2.6338040509938874, -2.6318029974315373]], [[-2.6195008476611186, 2.6241390999195136], [2.6457893906953687, -2.643790338186581]], [[-2.6319496483959646, 2.636583262402101], [2.657593314858429, -2.65559626140215]], [[-2.6442175425604115, 2.648846522952542], [2.6692204583509502, -2.667225401948128]], [[-2.6563089922728365, 2.6609333436845746], [2.680675281075754, -2.6786822197293345]], [[-2.668228297232007, 2.672848024292333], [2.6919620766847014, -2.6899710083996284]], [[-2.679979602517523, 2.684594709850789], [2.7030849807573203, -2.701095903540532]], [[-2.6915669059276044, 2.6961773981535373], [2.7140479784829012, -2.71206089034333]], [[-2.7029940648867434, 2.7075999466204506], [2.7248549118817436, -2.7228698108303115]], [[-2.7142648029531053, 2.718866078805079], [2.735509486598281, -2.7335263706479007]], [[-2.7253827159531703, 2.729979390529292], [2.746015278296148, -2.744034145461718]], [[-2.736351277768932, 2.7409433556704776], [2.756375738682808, -2.754396586981212]], [[-2.7471738458009876, 2.751761331624632], [2.7665942011891715, -2.764617028639277]], [[-2.7578536661290496, 2.7624365644668702], [2.7766738863276137, -2.774698690950269]], [[-2.7683938783897517, 2.7729721938292347], [2.7866179067499703, -2.7846446865680026]], [[-2.7787975203901323, 2.7833712575141756], [2.7964292720254322, -2.7944580250636464]], [[-2.7890675324737826, 2.7936366958607017], [2.8061108931567262, -2.804141617441902]], [[-2.7992067616554004, 2.8037713558789323], [2.815665586851582, -2.813698280412473]], [[-2.8092179655383287, 2.813777995167637], [2.825096079565215, -2.8231307404325454]], [[-2.8191038160286004, 2.8236592856282794], [2.8344050113283847, -2.832441637534848]], [[-2.8288669028580395, 2.833417816988119], [2.843594939374523, -2.8416335289547794]], [[-2.838509736928074, 2.8430561001440227], [2.8526683415784517, -2.850708892569128]], [[-2.8480347534850945, 2.852576570337827], [2.861627619718301, -2.8596701301579865]], [[-2.857444315137443, 2.861981590173323], [2.87047510257142, -2.868519570500666]], [[-2.8667407147234067, 2.8712734524842514], [2.879213048854313, -2.8772594723156293]], [[-2.8759261780389638, 2.8804543830620477], [2.8878436500159266, -2.8858920270537816]], [[-2.8850028664334277, 2.8895265432514883], [2.896369032892983, -2.8944193615538003]], [[-2.8939728792805917, 2.898492032421834], [2.904791262235445, -2.902843540567601]], [[-2.9028382563324717, 2.9073528903205728], [2.91311234310966, -2.9111665691634845]], [[-2.9116009799622753, 2.9161110993163883], [2.921334223186228, -2.9193903950139988]], [[-2.9202629773027957, 2.9247685865375543], [2.9294587949191526, -2.9275169105750956]], [[-2.928826122286023, 2.9333272259115466], [2.937487897622427, -2.935547955162714]], [[-2.937292237589403, 2.9417888401113013], [2.9454233194497843, -2.943485316932531]], [[-2.945663096493823, 2.950155202413199], [2.953266799282984, -2.9513307347682476]], [[-2.953940424658079, 2.9584280384715362], [2.9610200285336568, -2.9590859000834353]], [[-2.9621259018143036, 2.966609028013947], [2.9686846528634154, -2.9667524585416443]], [[-2.9702211633885223, 2.9746998064619663], [2.9762622738266353, -2.974332011699186]], [[-2.978227802050293, 2.982701966480663], [2.983754450440047, -2.981826118574725]], [[-2.9861473691951006, 2.9906170594610404], [2.9911627006830104, -2.989236297149554]], [[-2.993981376362995, 2.9984465969386687], [2.998488502932122, -2.9965640258021993]], [[-3.0017312965967227, 3.0061920519518206], [3.005733297333566, -3.003810744680773]], [[-3.00939856574243, 3.013854860342173], [3.0128984871164275, -3.0109778570162877]], [[-3.0169845836958267, 3.02143642200097], [3.0199854398499943, -3.0180667303799544]], [[-3.0244907155965306, 3.028938102063369], [3.026995488647881, -3.0250786978873117]], [[-3.0319182929731574, 3.0363612320535287], [3.0339299333216627, -3.032015059351854]], [[-3.039268614841576, 3.0437071109828673], [3.040790041486529, -3.03887708239069]], [[-3.04654294875861, 3.05097700640376], [3.0475770496213426, -3.0456660034845995]], [[-3.0537425318333318, 3.0581721554208365], [3.054292164085333, -3.0523830289947265]], [[-3.060868571697991, 3.065293765661908], [3.060936562093546, -3.0590293361380296]], [[-3.0679222474404857, 3.072343016210439], [3.067511392653032, -3.065606073923471]], [[-3.0749047105001988, 3.079321058501382], [3.0740177774616666, -3.0721143640508353]], [[-3.0818170855289084, 3.0862290171820908], [3.0804568117713673, -3.078555301773947]], [[-3.0886604712183963, 3.0930679909399252], [3.086829565217397, -3.084929956729974]], [[-3.0954359410962877, 3.099839053298095], [3.093137082615336, -3.0912393737364003]], [[-3.1021445442915776, 3.1065432533811834], [3.0993803847272225, -3.097484573557166]], [[-3.1087873062712164, 3.1131816166517323], [3.1055604689982927, -3.103666553639406]], [[-3.1153652295490586, 3.119755145619194], [3.111678310265649, -3.109786288822121]], [[-3.1218792943684135, 3.1262648205224792], [3.1177348614401477, -3.115844732018063]], [[-3.1283304593593644, 3.132711599987276], [3.1237310541626986, -3.121842814870036]], [[-3.1347196621719706, 3.1390964216592545], [3.129667799436131, -3.1277814483827613]], [[-3.141047820086408, 3.1454202028142046], [3.135545988233705, -3.133661523531389]], [[-3.1473158306010443, 3.1516838409461134], [3.141366492085298, -3.139483911847684]], [[-3.1535245719994074, 3.1578882143341316], [3.147130163642242, -3.1452494659848655]], [[-3.1596749038969425, 3.1640341825893317], [3.1528378372217447, -3.1509590202620257]], [[-3.1657676677684217, 3.1701225871821186], [3.158490329331765, -3.1566133911890057]], [[-3.171803687456822, 3.176154251951105], [3.1640884391771866, -3.16221337797257]], [[-3.177783769664443, 3.182129983594232], [3.169632949148083, -3.1677597630046708]], [[-3.183708704427014, 3.188050572142873], [3.1751246252908256, -3.173253312333557]], [[-3.189579265571478, 3.193916791419621], [3.1805642177627633, -3.1786947761184523]], [[-3.1953962111581378, 3.199729399480433], [3.185952461271144, -3.184084889068477]], [[-3.2011602839077926, 3.2054891390417652], [3.19129007549694, -3.189424370866476]], [[-3.2068722116144723, 3.211196737893311], [3.196577765504195, -3.1947139265783613]], [[-3.212532707544356, 3.216852909296916], [3.2018162221354762, -3.1999542470485682]], [[-3.218142470821416, 3.222458352372223], [3.207006122394003, -3.205146009282182]], [[-3.223702186800325, 3.228013752469581], [3.212148129812983, -3.2102898768142736]], [[-3.2292125274271184, 3.2335197815307057], [3.217242894812666, -3.215386500066955]], [[-3.2346741515881012, 3.238977098437585], [3.222291055045606, -3.220436516694641]], [[-3.2400877054474466, 3.244386349350081], [3.227293235730597, -3.2254405519179827]], [[-3.2454538227739307, 3.2497481680326623], [3.2322500499757174, -3.230399218846916]], [[-3.250773125257219, 3.2550631761706916], [3.2371620990909222, -3.2353131187932496]], [[-3.2560462228141014, 3.2603319836766604], [3.2420299728905717, -3.2401828415731964]], [[-3.261273713885059, 3.2655551889867556], [3.246854249986291, -3.245008965800233]], [[-3.266456185721526, 3.2707333793481204], [3.251635498070531, -3.2497920591686587]], [[-3.271594214664194, 3.275867131097162], [3.2563742741911765, -3.2545326787282063]], [[-3.276688366412696, 3.280957009929231], [3.2610711250175477, -3.2592313711500402]], [[-3.281739196286984, 3.286003571160003], [3.2657265870981065, -3.2638886729844665]], [[-3.2867472494807095, 3.291007359978855], [3.270341187110189, -3.268505110910662]], [[-3.291713061306895, 3.2959689116945423], [3.274915442102046, -3.273081201978719]], [[-3.29663715743618, 3.30088875197344], [3.279449859727488, -3.277617453844284]], [[-3.301520054127912, 3.3057673970706345], [3.2839449384733896, -3.282114364996069]], [[-3.3063622584543273, 3.3106053540541067], [3.288401167880327, -3.2865724249764834]], [[-3.3111642685180835, 3.315403121022263], [3.292819028756586, -3.2909921145956464]], [[-3.315926573663369, 3.3201611873150445], [3.2971989933857864, -3.295373906139008]], [[-3.3206496546808193, 3.324880033718843], [3.3015415257283407, -3.2997182635688094]], [[-3.3253339840064564, 3.3295601326654425], [3.3058470816169776, -3.3040256427196057]], [[-3.3299800259148618, 3.334201948425189], [3.310116108946527, -3.308296491488053]], [[-3.334588236706777, 3.3388059372945937], [3.3143490478581805, -3.3125312500171646]], [[-3.3391590648913314, 3.3433725477785603], [3.3185463309184065, -3.3167303508752313]], [[-3.343692951363075, 3.3479022207674163], [3.3227083832927153, -3.3208942192295834]], [[-3.3481903295739945, 3.3523953897089314], [3.326835622914448, -3.325023273015379]], [[-3.352651625700686, 3.356852480775488], [3.330928460648757, -3.329117923099587]], [[-3.3570772588068416, 3.3612739130265683], [3.3349873004519455, -3.3331785734403248]], [[-3.36146764100121, 3.365660098566717], [3.3390125395263217, -3.3372056212417127]], [[-3.3658231775911847, 3.370011442699126], [3.3430045684707186, -3.341199457104394]], [[-3.370144267232155, 3.3743283440749883], [3.346963771426822, -3.345160465171864]], [[-3.374431302072772, 3.3786111948387627], [3.3508905262214532, -3.34908902327275]], [[-3.3786846678962528, 3.3828603807694777], [3.354785204504931, -3.3529855030591764]], [[-3.382904744257857, 3.3870762814182087], [3.3586481718856485, -3.3568502701413396]], [[-3.387091904618658, 3.391259270241849], [3.362479788060988, -3.3606836842184236]], [[-3.3912465164757295, 3.3954097147332973], [3.36628040694469, -3.364486099205968]], [[-3.3953689414888606, 3.3995279765481707], [3.3700503767907937, -3.3682578633598106]], [[-3.399459535603911, 3.4036144116281615], [3.373790040314258, -3.371999319396706]], [[-3.403518649172913, 3.407669370321139], [3.3774997348083726, -3.375710804611738]], [[-3.4075466270710217, 3.4116931974980997], [3.3811797922590547, -3.3793926509926164]], [[-3.4115438088104146, 3.4156862326670656], [3.384830539456138, -3.383045185330966]], [[-3.415510528651232, 3.419648810084026], [3.388452298101743, -3.386668729330696]], [[-3.4194471157096533, 3.4235812588610144], [3.3920453849158214, -3.3902635997135455]], [[-3.4233538940631973, 3.427483903071407], [3.3956101117389665, -3.393830108321893]], [[-3.427231182853331, 3.4313570618525326], [3.399146785632567, -3.3973685622189107]], [[-3.431079296385467, 3.4352010495056695], [3.402655708976394, -3.4008792637861514]], [[-3.434898544226434, 3.4390161755935167], [3.4061371795636943, -3.404362510818642]], [[-3.438689231299493, 3.4428027450352086], [3.4095914906938702, -3.407818596617563]], [[-3.4424516579769726, 3.4465610581989528], [3.413018931262816, -3.411247810080585]], [[-3.4461861201705988, 3.450291410992357], [3.416419785850983, -3.4146504357899348]], [[-3.4498929094195825, 3.453994094950519], [3.4197943348092443, -3.4180267540982574]], [[-3.4535723129765366, 3.4576693973219417], [3.42314285434262, -3.4213770412123443]], [[-3.457224613891282, 3.4613176011523414], [3.4264656165919307, -3.4247015692747853]], [[-3.4608500910926083, 3.4649389853664068], [3.4297628897134373, -3.428000606443609]], [[-3.464449019468047, 3.4685338248475714], [3.433034937956532, -3.431274416969974]], [[-3.468021669941714, 3.4721023905158592], [3.436282021739531, -3.4345232612739593]], [[-3.471568309550281, 3.475644949403852], [3.439504397723628, -3.4377473960185223]], [[-3.475089201517124, 3.4791617647308413], [3.4427023188850634, -3.4409470741816626]], [[-3.4785846053247074, 3.482653095975211], [3.445876034585555, -3.4441225451268576]], [[-3.4820547767852497, 3.4861191989451026], [3.4490257906410484, -3.4472740546718095]], [[-3.48549996810972, 3.489560325847413], [3.452151829388827, -3.4504018451555574]], [[-3.4889204279752155, 3.4929767253551707], [3.4552543897530357, -3.453506155503999]], [[-3.4923164015907613, 3.4963686426733362], [3.4583337073086557, -3.456587221293868]], [[-3.4956881307615792, 3.4997363196030715], [3.4613900143439826, -3.45964527481521]], [[-3.499035853951869, 3.5030799946045197], [3.464423539921642, -3.462680545132398]], [[-3.50235980634614, 3.506399902858138], [3.4674345099381894, -3.4656932581437347]], [[-3.505660219909137, 3.509696276324623], [3.470423147182329, -3.468683636639669]], [[-3.508937323444395, 3.5129693438034653], [3.4733896713917947, -3.4716519003596775]], [[-3.512191342651464, 3.5162193309901757], [3.4763342993089252, -3.4745982660478405]], [[-3.51542250018184, 3.5194464605322127], [3.4792572447349737, -3.47752294750715]], [[-3.518631015693631, 3.522650952083653], [3.4821587185831815, -3.4804261556525855]], [[-3.5218171059050007, 3.5258330223586327], [3.485038928930655, -3.4833080985629894]], [[-3.52498098464642, 3.5289928851835985], [3.4878980810690736, -3.486168981531776]], [[-3.528122862911752, 3.5321307515483933], [3.490736377554264, -3.4890090071165036]], [[-3.5312429489082113, 3.535246829656216], [3.493554018254666, -3.4918283751873433]], [[-3.5343414481052204, 3.538341324972477], [3.4963512003987263, -3.4946272829744713]], [[-3.5374185632821953, 3.5414144402725842], [3.499128118621244, -3.4974059251144136]], [[-3.5404744945752875, 3.544466375688686], [3.5018849650086956, -3.500164493695372]], [[-3.5435094395231106, 3.5474973287553957], [3.504621929143568, -3.502903178301558]], [[-3.546523593111476, 3.550507494454529], [3.507339198147727, -3.5056221660565585]], [[-3.549517147817166, 3.5534970652588758], [3.510036956724842, -3.5083216416657645]], [[-3.5524902936507656, 3.556466231175034], [3.5127153872018955, -3.5110017874578774]], [[-3.555443218198583, 3.5594151797853275], [3.5153746695698, -3.5136627834255263]], [[-3.558376106663675, 3.562344096288833], [3.518014981523144, -3.5163048072650143]], [[-3.5612891419060047, 3.5652531635415374], [3.5206364984990897, -3.518928034415218]], [[-3.5641825044817526, 3.56814256209565], [3.5232393937154476, -3.5215326380956595]], [[-3.567056372681803, 3.5710124702380868], [3.525823838207943, -3.5241187893437744]], [[-3.5699109225694245, 3.573863064028152], [3.5283900008667, -3.5266866570513957]], [[-3.572746328017166, 3.576694517334434], [3.5309380484719606, -3.5292364080004717]], [[-3.575562760742988, 3.579507001870939], [3.5334681457290573, -3.53176820689804]], [[-3.578360390345649, 3.5823006872324723], [3.53598045530266, -3.5342822164104737]], [[-3.581139384339364, 3.5850757409293004], [3.5384751378503134, -3.5367785971970194]], [[-3.583899908187751, 3.5878323284210976], [3.5409523520552835, -3.5392575079426427]], [[-3.586642125337088, 3.5905706131502013], [3.5434122546587306, -3.5417191053902024]], [[-3.5893661972488955, 3.593290756574196], [3.5458550004912235, -3.5441635443719637]], [[-3.5920722834318566, 3.5959929181978314], [3.5482807425036142, -3.5465909778404736]], [[-3.5947605414730974, 3.598677255604306], [3.5506896317972854, -3.549001556898808]], [[-3.5974311270688384, 3.601343924485916], [3.553081817653788, -3.5513954308302087]], [[-3.600084194054435, 3.6039930786740952], [3.5554574475638825, -3.5537727471271268]], [[-3.6027198944338186, 3.6066248701688592], [3.5578166672560005, -3.5561336515196813]], [[-3.605338378408356, 3.6092394491676614], [3.5601596207241366, -3.558478288003554]], [[-3.6079397944051377, 3.611836964093684], [3.5624864502551885, -3.5608067988673264]], [[-3.6105242891047125, 3.6144175616235703], [3.5647972964557555, -3.563119324719281]], [[-3.6130920074682766, 3.6169813867146154], [3.5670922982784083, -3.5654160045136702]], [[-3.6156430927643335, 3.619528582631426], [3.5693715930474457, -3.5676969755764723]], [[-3.6181776865948363, 3.6220592909720617], [3.5716353164841466, -3.569962373630644]], [[-3.620695928920825, 3.624573651693673], [3.57388360273153, -3.572212332820881]], [[-3.623197958087568, 3.627071803137643], [3.576116584378637, -3.5744469857378984]], [[-3.625683910849222, 3.6295538820542466], [3.5783343924843423, -3.5766664634422445]], [[-3.62815392239302, 3.63202002362684], [3.5805371566007085, -3.578870895487653]], [[-3.6306081263630006, 3.6344703614955867], [3.582725004795894, -3.5810604099439516]], [[-3.6330466548832834, 3.636905027780737], [3.5848980636766203, -3.58323513341953]], [[-3.6354696385809078, 3.639324153105464], [3.587056458410218, -3.5853951910833843]], [[-3.63787720660824, 3.6417278666182717], [3.5892003127462493, -3.5875407066867426]], [[-3.6402694866649603, 3.644116296014982], [3.5913297490377287, -3.5896718025842813]], [[-3.6426466050196407, 3.6464895675603124], [3.5934448882619385, -3.5917885997549446]], [[-3.6450086865309177, 3.648847806109049], [3.5955458500408612, -3.5938912178223745]], [[-3.6473558546682767, 3.6511911351268296], [3.597632752661227, -3.5959797750749587]], [[-3.6496882315324495, 3.653519676710544], [3.5997057130941896, -3.5980543884855076]], [[-3.652005937875437, 3.655833551608353], [3.601764847014639, -3.6001151737305657]], [[-3.654309093120166, 3.658132879239349], [3.6038102688201574, -3.6021622452093682]], [[-3.6565978153797856, 3.6604177777128495], [3.605842091649628, -3.6041957160624496]], [[-3.6588722214766127, 3.6626883638473435], [3.607860427401502, -3.606215698189911]], [[-3.6611324269607346, 3.6649447531890944], [3.6098653867517343, -3.608222302269355]], [[-3.663378546128275, 3.667187060030406], [3.6118570791713926, -3.6102156377734955]], [[-3.665610692039331, 3.66941539742756], [3.6138356129439475, -3.6121958129874483]], [[-3.667828976535591, 3.671629877218432], [3.615801095182252, -3.614162935025709]], [[-3.670033510257633, 3.673830610039791], [3.6177536318452166, -3.61611710984883]], [[-3.6722244026619193, 3.676017705344295], [3.6196933277541836, -3.6180584422797932]], [[-3.674401762037488, 3.6781912714171807], [3.6216202866090126, -3.6199870360200967]], [[-3.676565695522349, 3.680351415392662], [3.6235346110038784, -3.6219029936655516]], [[-3.678716309119594, 3.6824982432700364], [3.6254364024427903, -3.6238064167218016]], [[-3.6808537077132195, 3.684631859929511], [3.6273257613548364, -3.6256974056195688]], [[-3.682977995083677, 3.686752369147752], [3.6292027871091626, -3.6275760597296305]], [[-3.68508927392315, 3.6888598736131613], [3.6310675780296866, -3.629442477377534]], [[-3.6871876458505675, 3.6909544749408885], [3.6329202314095577, -3.6312967558580573]], [[-3.6892732114263564, 3.693036273687587], [3.6347608435253633, -3.6331389914494148]], [[-3.69134607016694, 3.6951053693659093], [3.6365895096510914, -3.6349692794272186]], [[-3.693406320558988, 3.697161860458759], [3.63840632407185, -3.636787714078201]], [[-3.6954540600734234, 3.699205844433294], [3.640211380097353, -3.6385943887136976]], [[-3.697489385179186, 3.701237417754697], [3.6420047700751725, -3.6403893956829005]], [[-3.6995123913567687, 3.7032566758997043], [3.643786585403767, -3.6421728263858877]], [[-3.70152317311152, 3.705263713369913], [3.6455569165452877, -3.643944771286426]], [[-3.7035218239867236, 3.707258623704858], [3.6473158530381653, -3.645705319924563]], [[-3.7055084365764555, 3.7092414994948713], [3.649063483509488, -3.647454560928999]], [[-3.7074831025382298, 3.711212432393727], [3.6507998956871677, -3.6491925820292592]], [[-3.7094459126054304, 3.713171513131072], [3.652525176411904, -3.6509194700676533]], [[-3.711396956599536, 3.7151188315246517], [3.654239411648948, -3.6526353110110414]], [[-3.7133363234421433, 3.7170544764923337], [3.6559426864996682, -3.6543401899624]], [[-3.7152641011667895, 3.7189785360639296], [3.6576350852129287, -3.6560341911721976]], [[-3.7171803769305827, 3.7208910973928258], [3.6593166911962736, -3.6577173980495834]], [[-3.719085237025639, 3.72279224676742], [3.660987587026931, -3.6593898931733877]], [[-3.7209787668903327, 3.724682069622372], [3.662647854462635, -3.6610517583029454]], [[-3.7228610511203644, 3.7265606505496716], [3.6642975744522692, -3.662703074388739]], [[-3.724732173479647, 3.7284280733095247], [3.6659368271463384, -3.664343921582872]], [[-3.7265922169110173, 3.7302844208410653], [3.6675656919072686, -3.6659743792493655]], [[-3.728441263546774, 3.7321297752728917], [3.669184247319541, -3.667594525974296]], [[-3.730279394719044, 3.733964217933436], [3.6707925711996605, -3.669204439575761]], [[-3.7321066909699865, 3.7357878293611644], [3.672390740605966, -3.67080419711369]], [[-3.7339232320618296, 3.7376006893146165], [3.673978831848281, -3.6723938748994973]], [[-3.7357290969867503, 3.7394028767822842], [3.6755569204974115, -3.6739735485055767]], [[-3.7375243639765943, 3.7411944699923327], [3.6771250813944913, -3.6755432927746483]], [[-3.7393091105124454, 3.7429755464221683], [3.678683388660179, -3.677103181828956]], [[-3.741083413334042, 3.7447461828078548], [3.68023191570371, -3.6786532890793184]], [[-3.7428473484490428, 3.746506455153382], [3.681770735231805, -3.6801936872340373]], [[-3.7446009911421543, 3.7482564387397894], [3.6832999192574363, -3.6817244483076665]], [[-3.7463444159841077, 3.749996208134145], [3.684819539108462, -3.683245643629642]], [[-3.7480776968405007, 3.751725837198388], [3.6863296654361184, -3.684757343852777]], [[-3.749800906880501, 3.75344539909803], [3.687830368223386, -3.686259618961628]], [[-3.7515141185854133, 3.755154966310725], [3.689321716793221, -3.6877525382807246]], [[-3.7532174037571178, 3.756854610634704], [3.6908037798166613, -3.6892361704826775]], [[-3.7549108335263743, 3.758544403197083], [3.692276625320809, -3.690710583596159]], [[-3.7565944783610026, 3.7602244144620407], [3.6937403206966866, -3.692175845013761]], [[-3.758268408073936, 3.7618947142388732], [3.695194932706974, -3.6936320214997314]], [[-3.7599326918311524, 3.763555371689925], [3.6966405274936296, -3.695079179197594]], [[-3.761587398159485, 3.7652064553383986], [3.698077170585391, -3.6965173836376515]], [[-3.7632325949543146, 3.7668480330760494], [3.699504926905166, -3.697946699744374]], [[-3.7648683494871467, 3.7684801721707597], [3.7009238607773076, -3.6993671918436766]], [[-3.7664947284130723, 3.7701029392740018], [3.702334035934783, -3.700778923670086]], [[-3.7681117977781193, 3.7717164004281876], [3.703735515526232, -3.7021819583737994]], [[-3.769719623026492, 3.7733206210739105], [3.7051283621229194, -3.703576358527639]], [[-3.7713182690077045, 3.7749156660570757], [3.706512637725586, -3.7049621861339013]], [[-3.772907799983606, 3.7765015996359277], [3.7078884037711957, -3.7063395026311023]], [[-3.774488279635303, 3.7780784854879728], [3.7092557211395802, -3.707708368900627]], [[-3.7760597710699804, 3.7796463867167973], [3.710614650159991, -3.7090688452732765]], [[-3.7776223368276187, 3.7812053658587885], [3.711965250617547, -3.7104209915357194]], [[-3.7791760388876168, 3.7827554848897553], [3.713307581759594, -3.7117648669368486]], [[-3.7807209386753144, 3.784296805231451], [3.7146417023019684, -3.7131005301940454]], [[-3.782257097068422, 3.7858293877580027], [3.715967670435165, -3.7144280394993503]], [[-3.7837845744033545, 3.7873532928022455], [3.7172855438304238, -3.7157474525255445]], [[-3.7853034304814743, 3.788868580161967], [3.7185953796457176, -3.7170588264321434]], [[-3.7868137245752456, 3.7903753091060577], [3.719897234531663, -3.7183622178713023]], [[-3.7883155154342965, 3.7918735383805777], [3.7211911646373372, -3.719657682993637]], [[-3.7898088612913967, 3.793363326214732], [3.7224772256160175, -3.720945277453961]], [[-3.7912938198683492, 3.794844730326761], [3.723755472630834, -3.72222505641694]], [[-3.7927704483817957, 3.796317807929749], [3.7250259603603437, -3.723497074562663]], [[-3.7942388035489416, 3.797782615737347], [3.726288743004023, -3.72476138609214]], [[-3.795698941593199, 3.799239209969416], [3.727543874287684, -3.726018044732713]], [[-3.7971509182497494, 3.80068764635759], [3.7287914074688127, -3.727267103743397]], [[-3.7985947887710267, 3.8021279801507593], [3.730031395341832, -3.7285086159201417]], [[-3.800030607932126, 3.803560266120479], [3.7312638902432895, -3.729742633601021]], [[-3.8014584300361336, 3.8049845585662982], [3.7324889440569735, -3.730969208671347]], [[-3.802878308919383, 3.8064009113210178], [3.733706608218956, -3.732188392568715]], [[-3.8042902979566393, 3.807809377755872], [3.734916933722566, -3.733400236287976]], [[-3.8056944500662073, 3.809210010785641], [3.736119971123294, -3.734604790386139]], [[-3.807090817714975, 3.810602862873689], [3.7373157705436264, -3.735802104987208]], [[-3.80847945292338, 3.8119879860369354], [3.7385043816778123, -3.7369922297869502]], [[-3.8098604072703126, 3.813365431850755], [3.739685853796569, -3.738175214057598]], [[-3.811233731897951, 3.8147352514538126], [3.7408602357517178, -3.7393511066524856]], [[-3.812599477516526, 3.8160974955528317], [3.7420275759807566, -3.7405199560106235]], [[-3.8139576944090257, 3.8174522144272953], [3.7431879225113724, -3.7416818101612095]], [[-3.8153084324358324, 3.818799457934084], [3.74434132296589, -3.742836716728077]], [[-3.8166517410392986, 3.8201392755120516], [3.74548782456566, -3.743984722934085]], [[-3.8179876692482586, 3.821471716186539], [3.746627474135388, -3.7451258756054444]], [[-3.8193162656824815, 3.8227968285738236], [3.7477603181074053, -3.7462602211759917]], [[-3.8206375785570628, 3.8241146608855137], [3.7488864025258803, -3.7473878056913983]], [[-3.8219516556867563, 3.825425260932879], [3.7500057730509746, -3.748508674813327]], [[-3.8232585444902503, 3.8267286761311268], [3.751118474962943, -3.749622873823533]], [[-3.824558291994382, 3.828024953503618], [3.7522245531661778, -3.750730447627907]], [[-3.8258509448383022, 3.829314139686029], [3.753324052193199, -3.751831440760467]], [[-3.8271365492775784, 3.8305962809304575], [3.7544170162085937, -3.752925897387294]], [[-3.828415151188246, 3.8318714231094724], [3.755503489012898, -3.75401386131042]], [[-3.829686796070807, 3.8331396117201124], [3.7565835140464348, -3.7550953759716585]], [[-3.8309515290541754, 3.834400891887831], [3.757657134393092, -3.7561704844563906]], [[-3.8322093948995666, 3.835655308370389], [3.758724392784059, -3.7572392294972943]], [[-3.8334604380043436, 3.8369029055616948], [3.75978533160151, -3.758301653478032]], [[-3.834704702405805, 3.838143727495599], [3.760839992882239, -3.7593577984368842]], [[-3.835942231784929, 3.8393778178496336], [3.7618884183212478, -3.760407706070338]], [[-3.837173069470066, 3.840605219948706], [3.7629306492752876, -3.7614514177366285]], [[-3.838397258440583, 3.8418259767687446], [3.7639667267663546, -3.762488974459234]], [[-3.839614841330464, 3.843040130940297], [3.7649966914851394, -3.763520416930326]], [[-3.8408258604318584, 3.844247724752081], [3.766020583794433, -3.764545785514174]], [[-3.842030357698589, 3.8454488001544918], [3.7670384437324866, -3.7655651202505083]], [[-3.8432283747496125, 3.8466433987630597], [3.7680503110163324, -3.766578460857836]], [[-3.8444199528724368, 3.84783156186187], [3.7690562250450568, -3.7675858467367185]], [[-3.845605133026491, 3.849013330406935], [3.7700562249030347, -3.768587316973005]], [[-3.8467839558464587, 3.850188745029522], [3.7710503493631227, -3.7695829103410228]], [[-3.8479564616455626, 3.8513578460394426], [3.7720386368898096, -3.770572665306732]], [[-3.8491226904188127, 3.8525206734282986], [3.77302112564233, -3.771556620030835]], [[-3.8502826818462093, 3.853677266872686], [3.773997853477734, -3.7725348123718505]], [[-3.8514364752959085, 3.854827665737359], [3.7749688579539233, -3.773507279889146]], [[-3.8525841098273466, 3.8559719090783555], [3.7759341763326457, -3.774474059845933]], [[-3.8537256241943254, 3.857110035646083], [3.776893845582453, -3.775435189212227]], [[-3.8548610568480584, 3.8582420838883644], [3.7778479023816205, -3.776390704667765]], [[-3.8559904459401806, 3.8593680919534465], [3.778796383121034, -3.7773406426048926]], [[-3.8571138293257197, 3.860488097692972], [3.7797393239070347, -3.7782850391314096]], [[-3.8582312445660296, 3.8616021386649146], [3.7806767605642357, -3.7792239300733863]], [[-3.8593427289316895, 3.862710252136476], [3.7816087286382976, -3.7801573509779387]], [[-3.8604483194053665, 3.863812475086948], [3.7825352633986724, -3.781085337115974]], [[-3.861548052684641, 3.864908844210541], [3.783456399841315, -3.782007923484899]], [[-3.8626419651848014, 3.865999395919175], [3.784372172691358, -3.782925144811298]], [[-3.8637300930416, 3.867084166345239], [3.7852826164057567, -3.7838370355535766]], [[-3.864812472113979, 3.868163191344314], [3.7861877651759, -3.784743629904572]], [[-3.8658891379867613, 3.8692365064978658], [3.7870876529301896, -3.785644961794133]], [[-3.866960125973308, 3.870304147115901], [3.7879823133365895, -3.786541064891669]], [[-3.868025471118146, 3.8713661482395967], [3.7888717798051426, -3.7874319726086667]], [[-3.8690852081995626, 3.8724225446438916], [3.7897560854904557, -3.7883177181011765]], [[-3.870139371732167, 3.8734733708400517], [3.79063526329416, -3.7891983342722697]], [[-3.8711879959694238, 3.8745186610782008], [3.7915093458673335, -3.7900738537744654]], [[-3.872231114906155, 3.8755584493498234], [3.792378365612904, -3.790944309012129]], [[-3.8732687622810116, 3.8765927693902364], [3.7932423546880147, -3.7918097321438404]], [[-3.8743009715789154, 3.877621654681031], [3.7941013450063665, -3.7926701550847364]], [[-3.8753277760334734, 3.8786451384524874], [3.7949553682405313, -3.793525609508823]], [[-3.876349208629362, 3.879663253685957], [3.795804455824236, -3.7943761268512595]], [[-3.8773653021046828, 3.880676033116221], [3.7966486389546237, -3.79522173831062]], [[-3.8783760889532917, 3.8816835092338184], [3.7974879485944824, -3.7960624748511225]], [[-3.879381601427099, 3.8826857142873457], [3.7983224154744515, -3.796898367204835]], [[-3.8803818715383454, 3.8836826802857316], [3.7991520700952024, -3.7977294458738555]], [[-3.881376931061846, 3.8846744390004844], [3.79997694272959, -3.7985557411324646]], [[-3.882366811537213, 3.885661021967913], [3.8007970634247834, -3.799377283029255]], [[-3.883351544271052, 3.8866424604913212], [3.8016124620043676, -3.800194101389235]], [[-3.8843311603391286, 3.8876187856431774], [3.802423168070425, -3.801006225815907]], [[-3.885305690588514, 3.888590028267259], [3.8032292110055868, -3.8018136856933236]], [[-3.886275165639704, 3.88955621898077], [3.804030619975068, -3.8026165101881175]], [[-3.887239615888714, 3.890517388176439], [3.804827423928674, -3.80341472825151]], [[-3.888199071509149, 3.8914735660245863], [3.805619651602782, -3.804208368621295]], [[-3.889153562454251, 3.8924247824751728], [3.8064073315223066, -3.804997459823801]], [[-3.890103118458921, 3.8933710672598223], [3.807190492002637, -3.80578203017583]], [[-3.8910477690417213, 3.8943124498938215], [3.8079691611515543, -3.806562107786574]], [[-3.8919875435068496, 3.895248959678098], [3.8087433668711257, -3.8073377205595103]], [[-3.8929224709460963, 3.8961806257011733], [3.8095131368595787, -3.808108896194275]], [[-3.8938525802407753, 3.8971074768410974], [3.8102784986131533, -3.8088756621885147]], [[-3.8947779000636356, 3.8980295417673574], [3.8110394794279316, -3.809638045839718]], [[-3.8956984588807484, 3.8989468489427668], [3.81179610640165, -3.810396074247024]], [[-3.896614284953377, 3.899859426625333], [3.8125484064354866, -3.8111497743130154]], [[-3.897525406339821, 3.9007673028701046], [3.813296406235834, -3.8118991727454854]], [[-3.8984318508972424, 3.9016705055309964], [3.814040132316047, -3.8126442960591884]], [[-3.8993336462834733, 3.9025690622625935], [3.8147796109981718, -3.81338517057757]], [[-3.900230819958797, 3.903463000521938], [3.81551486841466, -3.814121822434479]], [[-3.9011233991877154, 3.9043523475702937], [3.816245930510058, -3.814854277575857]], [[-3.902011411040695, 3.905237130474891], [3.8169728230426796, -3.815582561761413]], [[-3.9028948823958913, 3.906117376110653], [3.8176955715862624, -3.816306700566277]], [[-3.903773839940856, 3.9069931111619027], [3.818414201531602, -3.8170267193826364]], [[-3.904648310174226, 3.9078643621240516], [3.8191287380881698, -3.817742643421353]], [[-3.905518319407393, 3.908731155305268], [3.8198392062857147, -3.818454497713565]], [[-3.9063838937661512, 3.909593516828129], [3.8205456309758445, -3.819162307112267]], [[-3.907245059192336, 3.9104514726312516], [3.8212480368335906, -3.819866096293877]], [[-3.9081018414454336, 3.9113050484709104], [3.821946448358957, -3.8205658897597834]], [[-3.908954266104182, 3.912154269922633], [3.8226408898784503, -3.821261711837876]], [[-3.909802358568148, 3.9129991623827807], [3.8233313855465947, -3.821953586684061]], [[-3.910646144059293, 3.913839751070111], [3.8240179593474304, -3.8226415382837593]], [[-3.911485647623516, 3.9146760610273232], [3.8247006350959936, -3.8233255904533863]], [[-3.912320894132185, 3.9155081171225885], [3.8253794364397837, -3.824005766841819]], [[-3.913151908283648, 3.916335944051061], [3.826054386860213, -3.8246820909318457]], [[-3.9139787146047293, 3.917159566336375], [3.826725509674039, -3.8253545860416005]], [[-3.9148013374522104, 3.9179790083321246], [3.827392828034786, -3.82602327532598]], [[-3.915619801014294, 3.918794294223328], [3.828056364934147, -3.82668818177805]], [[-3.9164341293120515, 3.919605448027877], [3.828716143203372, -3.8273493282304307]], [[-3.917244346200858, 3.9204124935979676], [3.829372185514642, -3.828006737356674]], [[-3.9180504753718086, 3.9212154546215214], [3.8300245143824294, -3.8286604316726196]], [[-3.918852540353122, 3.922014354623585], [3.8306731521648403, -3.82931043353774]], [[-3.919650564511527, 3.92280921696772], [3.831318121064946, -3.829956765156473]], [[-3.9204445710536375, 3.923600064857374], [3.8319594431321007, -3.830599448579536]], [[-3.92123458302731, 3.9243869213372427], [3.8325971402632413, -3.831238505705229]], [[-3.922020623322988, 3.925169809294611], [3.833231234204178, -3.831873958280724]], [[-3.9228027146750324, 3.9259487514606835], [3.833861746550869, -3.832505827903338]], [[-3.9235808796630374, 3.9267237704119027], [3.8344886987506817, -3.8331341360217985]], [[-3.9243551407131334, 3.92749488857125], [3.8351121121036424, -3.833758903937488]], [[-3.925125520099276, 3.9282621282095347], [3.8357320077636707, -3.8343801528056827]], [[-3.9258920399445207, 3.9290255114466692], [3.8363484067398037, -3.8349979036367734]], [[-3.926654722222285, 3.9297850602529314], [3.836961329897404, -3.835612177297477]], [[-3.9274135887575983, 3.930540796450214], [3.837570797959359, -3.836222994512032]], [[-3.928168661228337, 3.93129274171326], [3.838176831507265, -3.8368303758633853]], [[-3.9289199611664483, 3.932040917570887], [3.8387794509826008, -3.837434341794365]], [[-3.929667509959162, 3.932785345407196], [3.839378676687887, -3.8380349126088396]], [[-3.9304113288501856, 3.933526046462772], [3.839974528787837, -3.8386321084728685]], [[-3.931151438940894, 3.9342630418358677], [3.840567027310492, -3.8392259494158387]], [[-3.931887861191501, 3.9349963524835796], [3.841156192148348, -3.8398164553315897]], [[-3.9326206164222213, 3.935725999223008], [3.8417420430594693, -3.8404036459795274]], [[-3.933349725314421, 3.9364520027324073], [3.84232459966859, -3.8409875409857284]], [[-3.9340752084117567, 3.9371743835523247], [3.8429038814682075, -3.8415681598440288]], [[-3.9347970861212995, 3.937893162086727], [3.8434799078196606, -3.8421455219171063]], [[-3.935515378714653, 3.938608358604115], [3.844052697954201, -3.8427196464375495]], [[-3.9362301063290563, 3.939319993238629], [3.844622270974051, -3.843290552508916]], [[-3.936941288968476, 3.940028085991139], [3.8451886458534505, -3.8438582591067805]], [[-3.937648946504689, 3.9407326567303294], [3.845751841439696, -3.8444227850797725]], [[-3.938353098678354, 3.941433725193769], [3.8463118764541666, -3.844984149150603]], [[-3.9390537651000708, 3.94213131098897], [3.8468687694933412, -3.8455423699170814]], [[-3.939750965251429, 3.9428254335944395], [3.847422539029805, -3.8460974658531217]], [[-3.94044471848605, 3.9435161123607174], [3.8479732034132463, -3.84664945530974]], [[-3.941135044030613, 3.944203366511406], [3.8485207808714423, -3.8471983565160395]], [[-3.9418219609858753, 3.9448872151441874], [3.849065289511237, -3.8477441875801897]], [[-3.9425054883276798, 3.9455676772318333], [3.8496067473195077, -3.8482869664903916]], [[-3.9431856449079534, 3.9462447716232028], [3.850145172164123, -3.848826711115836]], [[-3.943862449455697, 3.946918517044231], [3.85068058179489, -3.849363439207651]], [[-3.9445359205779624, 3.947588932098908], [3.851212993844495, -3.8498971683998433]], [[-3.9452060767608232, 3.948256035270248], [3.8517424258294315, -3.8504279162102244]], [[-3.945872936370334, 3.948919844921249], [3.8522688951509214, -3.8509557000413333]], [[-3.94653651765348, 3.949580379295844], [3.8527924190958265, -3.851480537181348]], [[-3.947196838739119, 3.9502376565198407], [3.8533130148375507, -3.8520024448049868]], [[-3.9478539176389127, 3.9508916946018537], [3.853830699436935, -3.8525214399744034]], [[-3.9485077722482496, 3.9515425114342277], [3.854345489843141, -3.8530375396400722]], [[-3.9491584203471586, 3.952190124793951], [3.8548574028945293, -3.8535507606416637]], [[-3.949805879601215, 3.952834552343561], [3.8553664553195257, -3.854061119708913]], [[-3.950450167562435, 3.9534758116320385], [3.8558726637374825, -3.8545686334624807]], [[-3.9510913016701648, 3.9541139200956987], [3.856376044659529, -3.8550733184148025]], [[-3.951729299251958, 3.9547488950590663], [3.8568766144894155, -3.8555751909709337]], [[-3.9523641775244482, 3.9553807537357493], [3.857374389524347, -3.856074267429384]], [[-3.9529959535942085, 3.9560095132292985], [3.8578693859558126, -3.856570563982945]], [[-3.9536246444586083, 3.956635190534063], [3.858361619870403, -3.8570640967195082]], [[-3.954250267006657, 3.957257802536036], [3.858851107250622, -3.8575548816228786]], [[-3.954872838019842, 3.9578773660136917], [3.859337863975692, -3.858042934573576]], [[-3.9554923741729593, 3.958493897638815], [3.859821905822347, -3.8585282713496336]], [[-3.9561088920349343, 3.9591074139773244], [3.860303248465625, -3.859010907627384]], [[-3.956722408069637, 3.9597179314900846], [3.8607819074796454, -3.8594908589822423]], [[-3.9573329386366867, 3.960325466533714], [3.8612578983383847, -3.859968140889479]], [[-3.9579404999922523, 3.9609300353613826], [3.861731236416443, -3.8604427687249863]], [[-3.958545108289843, 3.9615316541236036], [3.862201936989803, -3.860914757766037]], [[-3.9591467795810904, 3.9621303388690174], [3.8626700152365805, -3.8613841231920385]], [[-3.9597455298165283, 3.9627261055451672], [3.8631354862377725, -3.8618508800852753]], [[-3.9603413748463585, 3.9633189699992686], [3.863598364977993, -3.862315043431648]], [[-3.9609343304212143, 3.9639089479789713], [3.8640586663462044, -3.862776628121406]], [[-3.961524412192915, 3.9644960551331145], [3.8645164051364436, -3.8632356489498703]], [[-3.9621116357152144, 3.9650803070124736], [3.8649715960485374, -3.8636921206181505]], [[-3.96269601644454, 3.965661719070502], [3.8654242536888144, -3.864146057733858]], [[-3.963277569740729, 3.966240306664065], [3.8658743925708103, -3.8645974748118093]], [[-3.963856310867753, 3.9668160850541656], [3.8663220271159653, -3.8650463862747233]], [[-3.964432254994441, 3.9673890694066674], [3.866767171654315, -3.8654928064539145]], [[-3.9650054171951914, 3.9679592747930057], [3.8672098404251765, -3.8659367495899764]], [[-3.96557581245068, 3.9685267161908966], [3.8676500475778264, -3.8663782298334617]], [[-3.9661434556485604, 3.9690914084850366], [3.868087807172174, -3.866817261245554]], [[-3.9667083615841583, 3.969653366467798], [3.868523133179428, -3.8672538577987345]], [[-3.9672705449611603, 3.970212604839916], [3.8689560394827565, -3.8676880333774437]], [[-3.967830020392294, 3.9707691382111707], [3.869386539877941, -3.8681198017787337]], [[-3.9683868024000044, 3.9713229811010624], [3.869814648074026, -3.868549176712918]], [[-3.9689409054171234, 3.9718741479394803], [3.8702403776939605, -3.8689761718042135]], [[-3.969492343787533, 3.9724226530673676], [3.8706637422752355, -3.8694008005913783]], [[-3.970041131766821, 3.9729685107373762], [3.8710847552705148, -3.8698230765283417]], [[-3.9705872835229354, 3.9735117351145197], [3.8715034300482603, -3.870243012984829]], [[-3.971130813136826, 3.9740523402768186], [3.871919779893351, -3.8706606232469833]], [[-3.9716717346030865, 3.9745903402159395], [3.8723338180076983, -3.871075920517977]], [[-3.9722100618305882, 3.9751257488378284], [3.872745557510854, -3.8714889179186227]], [[-3.972745808643107, 3.97565857996334], [3.873155011440614, -3.871899628487975]], [[-3.9732789887799465, 3.9761888473288596], [3.8735621927536146, -3.8723080651839283]], [[-3.9738096158965552, 3.9767165645869196], [3.873967114325927, -3.8727142408838104]], [[-3.9743377035651375, 3.9772417453068116], [3.874369788953643, -3.8731181683849685]], [[-3.97486326527526, 3.9777644029751924], [3.8747702293534574, -3.8735198604053513]], [[-3.9753863144344512, 3.9782845509966838], [3.875168448163245, -3.873919329584087]], [[-3.975906864368798, 3.9788022026944683], [3.8755644579426325, -3.8743165884820536]], [[-3.976424928323535, 3.97931737131088], [3.8759582711735643, -3.874711649582446]], [[-3.97694051946363, 3.979830070007987], [3.8763499002608652, -3.875104525291338]], [[-3.9774536508743616, 3.980340311868175], [3.8767393575327964, -3.8754952279382384]], [[-3.9779643355618965, 3.980848109894716], [3.8771266552416077, -3.875883769776644]], [[-3.978472586453857, 3.9813534770123438], [3.877511805564084, -3.8762701629845857]], [[-3.978978416399886, 3.981856426067814], [3.877894820602089, -3.87665441966517]], [[-3.9794818381722057, 3.982356969830466], [3.8782757123831004, -3.877036551847118]], [[-3.9799828644661743, 3.982855120992776], [3.8786544928607447, -3.8774165714852984]], [[-3.9804815079008335, 3.9833508921709084], [3.8790311739153243, -3.877794490461253]], [[-3.9809777810194547, 3.9838442959052593], [3.879405767354341, -3.878170320583724]], [[-3.981471696290079, 3.9843353446609977], [3.8797782849130167, -3.87854407358917]], [[-3.9819632661060527, 3.9848240508286], [3.880148738254805, -3.8789157611422826]], [[-3.982452502786558, 3.9853104267243826], [3.8805171389719044, -3.879285394836495]], [[-3.9829394185771396, 3.9857944845910263], [3.8808834985857623, -3.8796529861944884]], [[-3.9834240256502262, 3.986276236598099], [3.8812478285475764, -3.8800185466686936]], [[-3.9839063361056484, 3.9867556948425733], [3.8816101402387924, -3.880382087641788]], [[-3.9843863619711506, 3.9872328713493386], [3.881970444971596, -3.8807436204271886]], [[-3.9848641152029, 3.9877077780717096], [3.8823287539894022, -3.8811031562695395]], [[-3.9853396076859906, 3.988180426891931], [3.88268507846734, -3.881460706345197]], [[-3.9858128512349422, 3.988650829621677], [3.8830394295127317, -3.881816281762711]], [[-3.9862838575941977, 3.9891189980025454], [3.8833918181655696, -3.882169893563299]], [[-3.9867526384386123, 3.989584943706552], [3.8837422553989884, -3.8825215527213204]], [[-3.9872192053739415, 3.9900486783366134], [3.884090752119733, -3.8828712701447428]], [[-3.9876835699373245, 3.990510213427034], [3.884437319168623, -3.8832190566756077]], [[-3.9881457435977623, 3.9909695604439817], [3.884781967321012, -3.88356492309049]], [[-3.988605737756592, 3.991426730785965], [3.885124707287246, -3.8839088801009547]], [[-3.9890635637479592, 3.991881735784303], [3.885465549713114, -3.884250938354009]], [[-3.989519232839284, 3.992334586703591], [3.885804505180298, -3.8845911084325517]], [[-3.9899727562317224, 3.9927852947421654], [3.8861415842068165, -3.884929400855818]], [[-3.990424145060628, 3.9932338710325603], [3.886476797247468, -3.8852658260798205]], [[-3.9908734103960044, 3.993680326641965], [3.886810154694267, -3.885600394497787]], [[-3.9913205632429594, 3.994124672572674], [3.887141666876877, -3.8859331164405937]], [[-3.9917656145421496, 3.9945669197625344], [3.8874713440630444, -3.8862640021771973]], [[-3.9922085751702268, 3.9950070790853913], [3.887799196459021, -3.8865930619150597]], [[-3.992649455940276, 3.995445161351525], [3.8881252342099897, -3.886920305800573]], [[-3.9930882676022526, 3.9958811773080907], [3.8884494674004846, -3.8872457439194767]], [[-3.9935250208434163, 3.9963151376395483], [3.8887719060548047, -3.8875693862972778]], [[-3.9939597262887587, 3.9967470529680944], [3.889092560137429, -3.8878912428996597]], [[-3.9943923945014297, 3.997176933854086], [3.889411439553425, -3.8882113236328935]], [[-3.99482303598316, 3.9976047907964634], [3.8897285541488555, -3.8885296383442443]], [[-3.9952516611746787, 3.9980306342331686], [3.8900439137111795, -3.8888461968223726]], [[-3.99567828045613, 3.9984544745415613], [3.890357527969653, -3.889161008797735]], [[-3.996102904147484, 3.99887632203883], [3.8906694065957255, -3.8894740839429796]], [[-3.9965255425089454, 3.9992961869824], [3.8909795592034317, -3.8897854318733387]], [[-3.996946205741359, 3.99971407957034], [3.891287995349782, -3.8900950621470187]], [[-3.9973649039866106, 4.0001300099417625], [3.891594724535148, -3.8904029842655876]], [[-3.997781647328026, 4.000543988177223], [3.8918997562036473, -3.8907092076743566]], [[-3.998196445790767, 4.000956024299115], [3.892203099743523, -3.8910137417627615]], [[-3.9986093093422217, 4.001366128272061], [3.8925047644875206, -3.89131659586474]], [[-3.9990202478923953, 4.001774310003305], [3.8928047597132625, -3.891617779259105]], [[-3.9994292712942947, 4.002180579343094], [3.893103094643619, -3.891917301169916]], [[-3.9998363893443107, 4.002584946085061], [3.893399778447077, -3.8922151707668475]], [[-4.000241611782599, 4.002987419966608], [3.893694820238104, -3.8925113971655545]], [[-4.000644948293455, 4.003388010669281], [3.893988229077511, -3.8928059894280342]], [[-4.0010464085056885, 4.003786727819138], [3.894280013972812, -3.893098956562985]], [[-4.001446001992993, 4.00418358098713], [3.8945701838785802, -3.8933903075261633]], [[-4.001843738274315, 4.004578579689457], [3.894858747696802, -3.8936800512207372]], [[-4.002239626814214, 4.004971733387942], [3.8951457142772266, -3.893968196497638]], [[-4.002633677023232, 4.005363051490385], [3.895431092417715, -3.894254752155906]], [[-4.003025898258242, 4.005752543350929], [3.895714890864586, -3.894539726943039]], [[-4.003416299822814, 4.006140218270408], [3.8959971183129567, -3.894823129555331]], [[-4.003804890967561, 4.0065260854967075], [3.896277783407083, -3.8951049686382153]], [[-4.004191680890491, 4.006910154225109], [3.8965568947406983, -3.8953852527865993]], [[-4.004576678737356, 4.007292433598639], [3.896834460857345, -3.8956639905452]], [[-4.004959893601995, 4.007672932708417], [3.897110490250709, -3.895941190408876]], [[-4.005341334526675, 4.008051660593991], [3.897384991364947, -3.896216860822956]], [[-4.005721010502435, 4.008428626243683], [3.897657972595015, -3.8964910101835657]], [[-4.006098930469415, 4.008803838594923], [3.8979294422869892, -3.8967636468379516]], [[-4.006475103317198, 4.00917730653458], [3.898199408738391, -3.8970347790848026]], [[-4.006849537885135, 4.0095490388993], [3.8984678801985044, -3.8973044151745695]], [[-4.007222242962677, 4.0099190444758275], [3.8987348648686915, -3.8975725633097804]], [[-4.0075932272897, 4.010287332001337], [3.899000370902708, -3.8978392316453556]], [[-4.007962499556828, 4.010653910163753], [3.8992644064070143, -3.8981044282889195]], [[-4.008330068405756, 4.011018787602073], [3.899526979441085, -3.898368161301108]], [[-4.008695942429566, 4.011381972906687], [3.8997880980177144, -3.8986304386958777]], [[-4.0090601301730455, 4.011743474619689], [3.9000477701033223, -3.8988912684408077]], [[-4.009422640133, 4.0121033012351965], [3.9003060036182555, -3.899150658457404]], [[-4.009783480758562, 4.012461461199657], [3.9005628064370876, -3.899408616621397]], [[-4.010142660451506, 4.01281796291216], [3.9008181863889164, -3.8996651507630413]], [[-4.010500187566547, 4.01317281472474], [3.901072151257658, -3.8999202686674086]], [[-4.010856070411649, 4.013526024942685], [3.901324708782341, -3.9001739780746822]], [[-4.011210317248328, 4.0138776018248326], [3.901575866657397, -3.900426286680446]], [[-4.011562936291948, 4.014227553583876], [3.9018256325329483, -3.900677202135974]], [[-4.011913935712017, 4.014575888386653], [3.902074014015094, -3.9009267320485166]], [[-4.012263323632488, 4.014922614354449], [3.902321018666194, -3.901174883981583]], [[-4.012611108132045, 4.015267739563285], [3.902566654005152, -3.901421665455226]], [[-4.012957297244397, 4.0156112720442065], [3.902810927507694, -3.9016670839463177]], [[-4.013301898958565, 4.015953219783575], [3.903053846606645, -3.90191114688883]], [[-4.013644921219166, 4.016293590723351], [3.903295418692207, -3.90215386167411]], [[-4.013986371926701, 4.016632392761382], [3.90353565111223, -3.9023952356511513]], [[-4.014326258937832, 4.016969633751678], [3.903774551172485, -3.9026352761268672]], [[-4.014664590065664, 4.017305321504696], [3.9040121261369305, -3.9028739903663587]], [[-4.015001373080021, 4.0176394637876145], [3.9042483832279835, -3.9031113855931823]], [[-4.0153366157077235, 4.017972068324609], [3.9044833296267822, -3.9033474689896157]], [[-4.0156703256328585, 4.018303142797127], [3.9047169724734494, -3.90358224769692]], [[-4.016002510497051, 4.018632694844156], [3.904949318867354, -3.903815728815601]], [[-4.016333177899736, 4.018960732062494], [3.9051803758673707, -3.9040479194056696]], [[-4.016662335398422, 4.019287262007017], [3.905410150492137, -3.9042788264868977]], [[-4.016989990508958, 4.019612292190945], [3.9056386497203084, -3.9045084570390745]], [[-4.0173161507057955, 4.019935830086101], [3.905865880490812, -3.9047368180022595]], [[-4.01764082342225, 4.020257883123175], [3.9060918497030985, -3.9049639162770347]], [[-4.017964016050758, 4.020578458691983], [3.9063165642173914, -3.9051897587247537]], [[-4.01828573594314, 4.020897564141723], [3.906540030854935, -3.90541435216779]], [[-4.018605990410848, 4.021215206781233], [3.906762256398241, -3.905637703389783]], [[-4.018924786725226, 4.021531393879239], [3.9069832475913313, -3.9058598191358818]], [[-4.0192421321177525, 4.021846132664612], [3.9072030111399827, -3.9060807061129887]], [[-4.019558033780301, 4.022159430326614], [3.9074215537119654, -3.9063003709899986]], [[-4.0198724988653805, 4.022471294015146], [3.9076388819372827, -3.906518820398038]], [[-4.020185534486381, 4.022781730840997], [3.9078550024084087, -3.906736060930703]], [[-4.020497147717823, 4.0230907478760844], [3.9080699216805224, -3.9069520991442945]], [[-4.0208073455955935, 4.023398352153698], [3.908283646271742, -3.9071669415580503]], [[-4.021116135117192, 4.0237045506687386], [3.9084961826633573, -3.9073805946543794]], [[-4.021423523241966, 4.024009350377961], [3.9087075373000593, -3.9075930648790904]], [[-4.021729516891346, 4.024312758200205], [3.9089177165901683, -3.9078043586416205]], [[-4.022034122949087, 4.024614781016637], [3.9091267269058623, -3.908014482315263]], [[-4.022337348261496, 4.0249154256709785], [3.9093345745834003, -3.9082234422373916]], [[-4.022639199637668, 4.025214698969741], [3.9095412659233477, -3.908431244709685]], [[-4.022939683849712, 4.025512607682453], [3.909746807190797, -3.908637895998348]], [[-4.023238807632983, 4.0258091585418905], [3.9099512046155884, -3.908843402334332]], [[-4.023536577686307, 4.0261043582443055], [3.9101544643925292, -3.9090477699135544]], [[-4.023833000672207, 4.026398213449648], [3.91035659268161, -3.9092510048971145]], [[-4.024128083217126, 4.026690730781789], [3.9105575956082217, -3.909453113411511]], [[-4.024421831911648, 4.026981916828746], [3.910757479263368, -3.9096541015488535]], [[-4.02471425331072, 4.027271778142902], [3.910956249703878, -3.9098539753670782]], [[-4.025005353933871, 4.0275603212412205], [3.911153912952619, -3.910052740890156]], [[-4.025295140265425, 4.027847552605468], [3.911350474998704, -3.9102504041083037]], [[-4.025583618754721, 4.028133478682424], [3.9115459417977005, -3.9104469709781906]], [[-4.025870795816327, 4.028418105884102], [3.9117403192718374, -3.9106424474231467]], [[-4.026156677830247, 4.028701440587954], [3.9119336133102087, -3.9108368393333666]], [[-4.02644127114214, 4.028983489137089], [3.912125829768978, -3.911030152566113]], [[-4.0267245820635225, 4.0292642578404765], [3.912316974471581, -3.9112223929459184]], [[-4.027006616871979, 4.029543752973156], [3.912507053208925, -3.911413566264788]], [[-4.02728738181137, 4.029821980776446], [3.912696071739589, -3.911603678282396]], [[-4.027566883092034, 4.030098947458145], [3.9128840357900208, -3.9117927347262853]], [[-4.027845126890994, 4.030374659192738], [3.9130709510547343, -3.9119807412920626]], [[-4.0281221193521555, 4.030649122121598], [3.9132568231965044, -3.912167703643595]], [[-4.028397866586512, 4.030922342353184], [3.9134416578465587, -3.9123536274132027]], [[-4.02867237467234, 4.031194325963246], [3.913625460604773, -3.9125385182018504]], [[-4.028945649655399, 4.031465078995014], [3.91380823703986, -3.9127223815793406]], [[-4.029217697549129, 4.031734607459404], [3.9139899926895594, -3.9129052230845005]], [[-4.02948852433484, 4.032002917335205], [3.914170733060826, -3.913087048225372]], [[-4.029758135961914, 4.032270014569279], [3.9143504636300173, -3.913267862479399]], [[-4.030026538347989, 4.032535905076746], [3.9145291898430776, -3.9134476712936097]], [[-4.0302937373791545, 4.032800594741183], [3.9147069171157245, -3.913626480084806]], [[-4.030559738910142, 4.033064089414808], [3.91488365083363, -3.9138042942397426]], [[-4.030824548764509, 4.033326394918671], [3.9150593963526035, -3.9139811191153098]], [[-4.0310881727348296, 4.033587517042837], [3.915234158998771, -3.914156960038715]], [[-4.031350616582877, 4.033847461546576], [3.9154079440687557, -3.91433182230766]], [[-4.031611886039811, 4.034106234158546], [3.9155807568298555, -3.914505711190521]], [[-4.03187198680636, 4.034363840576976], [3.915752602520219, -3.914678631926524]], [[-4.032130924553, 4.0346202864698455], [3.9159234863490218, -3.9148505897259205]], [[-4.032388704920139, 4.034875577475068], [3.916093413496641, -3.915021589770163]], [[-4.032645333518294, 4.035129719200668], [3.916262389114827, -3.915191637212075]], [[-4.03290081592827, 4.0353827172249614], [3.916430418326877, -3.915360737176028]], [[-4.033155157701335, 4.0356345770967295], [3.916597506227805, -3.9155288947581064]], [[-4.033408364359397, 4.035885304335396], [3.9167636578845104, -3.9156961150262815]], [[-4.033660441395179, 4.0361349044312025], [3.9169288783359484, -3.915862403020578]], [[-4.0339113942723905, 4.0363833828453775], [3.9170931725932956, -3.9160277637532404]], [[-4.034161228425899, 4.036630745010313], [3.9172565456401163, -3.9161922022089013]], [[-4.034409949261902, 4.036876996329732], [3.917419002432528, -3.9163557233447444]], [[-4.034657562158098, 4.03712214217886], [3.917580547899365, -3.916518332090669]], [[-4.034904072463851, 4.037366187904592], [3.9177411869423406, -3.9166800333494534]], [[-4.0351494855003605, 4.03760913882566], [3.917900924436209, -3.9168408319969146]], [[-4.035393806560826, 4.0378510002328], [3.9180597652289255, -3.9170007328820704]], [[-4.035637040910615, 4.038091777388917], [3.9182177141418064, -3.9171597408272985]], [[-4.035879193787422, 4.038331475529246], [3.918374775969687, -3.917317860628494]], [[-4.036120270401436, 4.038570099861517], [3.9185309554810797, -3.9174750970552275]], [[-4.036360275935497, 4.038807655566119], [3.918686257418327, -3.917631454850901]], [[-4.036599215545262, 4.039044147796254], [3.9188406864977616, -3.9177869387329025]], [[-4.036837094359362, 4.039279581678103], [3.9189942474098554, -3.917941553392761]], [[-4.037073917479558, 4.03951396231098], [3.9191469448193756, -3.918095303496298]], [[-4.0373096899809, 4.039747294767491], [3.919298783365536, -3.918248193683781]], [[-4.037544416911885, 4.03997958409369], [3.9194497676621474, -3.918400228570074]], [[-4.037778103294611, 4.040210835309234], [3.919599902297768, -3.9185514127447867]], [[-4.0380107541249295, 4.040441053407538], [3.9197491918358525, -3.918701750772424]], [[-4.038242374372599, 4.040670243355926], [3.9198976408148996, -3.9188512471925345]], [[-4.03847296898144, 4.0408984100957825], [3.920045253748598, -3.9189999065198555]], [[-4.03870254286948, 4.041125558542708], [3.920192035125975, -3.9191477332444613]], [[-4.038931100929109, 4.041351693586664], [3.9203379894115393, -3.919294731831907]], [[-4.039158648027228, 4.041576820092125], [3.9204831210454243, -3.9194409067233718]], [[-4.039385189005392, 4.041800942898224], [3.9206274344435337, -3.919586262335803]], [[-4.039610728679963, 4.042024066818902], [3.920770933997682, -3.919730803062059]], [[-4.039835271842253, 4.0422461966430525], [3.920913624075735, -3.919874533271048]], [[-4.040058823258668, 4.042467337134667], [3.921055509021752, -3.9200174573078694]], [[-4.040281387670854, 4.042687493032978], [3.9211965931561226, -3.920159579493954]], [[-4.040502969795841, 4.042906669052603], [3.9213368807757076, -3.9203009041272012]], [[-4.040723574326181, 4.043124869883687], [3.9214763761539744, -3.9204414354821164]], [[-4.040943205930094, 4.043342100192041], [3.921615083541134, -3.920581177809948]], [[-4.041161869251604, 4.043558364619289], [3.9217530071642774, -3.9207201353388226]], [[-4.041379568910681, 4.043773667782999], [3.92189015122751, -3.9208583122738805]], [[-4.04159630950338, 4.043988014276826], [3.922026519912084, -3.920995712797408]], [[-4.0418120956019745, 4.044201408670647], [3.9221621173765335, -3.9211323410689727]], [[-4.042026931755098, 4.044413855510702], [3.9222969477568057, -3.9212682012255526]], [[-4.042240822487876, 4.044625359319724], [3.9224310151663917, -3.9214032973816697]], [[-4.042453772302062, 4.044835924597079], [3.9225643236964567, -3.9215376336295193]], [[-4.042665785676173, 4.045045555818895], [3.9226968774159703, -3.9216712140391]], [[-4.04287686706562, 4.045254257438199], [3.922828680371835, -3.9218040426583416]], [[-4.04308702090284, 4.045462033885046], [3.922959736589013, -3.921936123513233]], [[-4.043296251597431, 4.045668889566654], [3.9230900500706545, -3.9220674606079506]], [[-4.043504563536276, 4.04587482886753], [3.9232196247982234, -3.922198057924982]], [[-4.043711961083679, 4.046079856149602], [3.923348464731622, -3.922327919425254]], [[-4.043918448581491, 4.046283975752347], [3.9234765738093156, -3.922457049048254]], [[-4.044124030349236, 4.046487191992922], [3.9236039559484572, -3.9225854507121567]], [[-4.044328710684241, 4.046689509166284], [3.9237306150450095, -3.922713128313945]], [[-4.044532493861762, 4.046890931545323], [3.9238565549738667, -3.922840085729533]], [[-4.044735384135107, 4.047091463380984], [3.9239817795889764, -3.9229663268138872]], [[-4.044937385735762, 4.047291108902392], [3.9241062927234607, -3.9230918554011467]], [[-4.045138502873513, 4.047489872316977], [3.9242300981897342, -3.923216675304743]], [[-4.045338739736575, 4.047687757810596], [3.924353199779625, -3.9233407903175186]], [[-4.045538100491707, 4.047884769547654], [3.9244756012644904, -3.923464204211846]], [[-4.045736589284336, 4.048080911671226], [3.924597306395337, -3.923586920739745]], [[-4.045934210238678, 4.0482761883031815], [3.924718318902935, -3.923708943632999]], [[-4.046130967457858, 4.048470603544296], [3.9248386424979365, -3.92383027660327]], [[-4.046326865024027, 4.048664161474379], [3.9249582808709884, -3.923950923342217]], [[-4.046521906998485, 4.048856866152386], [3.925077237692848, -3.9240708875216055]], [[-4.046716097421791, 4.049048721616538], [3.925195516614497, -3.9241901727934256]], [[-4.046909440313887, 4.04923973188444], [3.9253131212672536, -3.9243087827900034]], [[-4.047101939674211, 4.049429900953194], [3.925430055262885, -3.924426721124112]], [[-4.047293599481811, 4.049619232799515], [3.9255463221937195, -3.924543991389085]], [[-4.04748442369546, 4.049807731379847], [3.9256619256327565, -3.9246605971589266]], [[-4.047674416253773, 4.0499954006304755], [3.9257768691337773, -3.9247765419884213]], [[-4.047863581075316, 4.050182244467642], [3.925891156231454, -3.924891829413243]], [[-4.04805192205872, 4.050368266787654], [3.926004790441459, -3.925006462950066]], [[-4.048239443082793, 4.050553471466998], [3.926117775260571, -3.9251204460966695]], [[-4.04842614800663, 4.05073786236245], [3.9262301141667857, -3.925233782332048]], [[-4.048612040669723, 4.050921443311187], [3.9263418106194194, -3.9253464751165166]], [[-4.048797124892072, 4.051104218130894], [3.926452868059217, -3.925458527891817]], [[-4.048981404474293, 4.0512861906198765], [3.926563289908455, -3.9255699440812224]], [[-4.049164883197725, 4.051467364557163], [3.926673079571049, -3.925680727089644]], [[-4.049347564824539, 4.051647743702618], [3.926782240432656, -3.9257908803037322]], [[-4.049529453097845, 4.051827331797045], [3.9268907758607776, -3.9259004070919827]], [[-4.049710551741796, 4.052006132562297], [3.9269986892048636, -3.9260093108048375]], [[-4.0498908644616955, 4.052184149701375], [3.9271059837964133, -3.9261175947747873]], [[-4.0500703949440995, 4.05236138689854], [3.927212662949077, -3.9262252623164726]], [[-4.050249146856925, 4.052537847819411], [3.927318729958757, -3.926332316726785]], [[-4.050427123849549, 4.0527135361110735], [3.927424188103708, -3.926438761284968]], [[-4.0506043295529155, 4.052888455402178], [3.9275290406446355, -3.9265445992527144]], [[-4.0507807675796315, 4.053062609303044], [3.9276332908247964, -3.926649833874267]], [[-4.050956441524075, 4.0532360014057645], [3.927736941870095, -3.926754468376516]], [[-4.051131354962493, 4.053408635284301], [3.927839996989183, -3.9268585059690975]], [[-4.0513055114531005, 4.053580514494587], [3.9279424593735546, -3.926961949844489]], [[-4.051478914536182, 4.053751642574627], [3.9280443321976444, -3.9270648031781077]], [[-4.051651567734191, 4.053922023044598], [3.9281456186189216, -3.9271670691284046]], [[-4.0518234745518455, 4.054091659406942], [3.9282463217779875, -3.9272687508369613]], [[-4.051994638476228, 4.054260555146469], [3.928346444798668, -3.927369851428583]], [[-4.052165062976882, 4.054428713730453], [3.928445990788109, -3.927470374011394]], [[-4.052334751505909, 4.054596138608726], [3.9285449628368685, -3.92757032167693]], [[-4.052503707498063, 4.054762833213778], [3.9286433640190115, -3.927669697500233]], [[-4.052671934370849, 4.054928800960848], [3.9287411973922004, -3.9277685045399404]], [[-4.052839435524613, 4.055094045248022], [3.9288384659977873, -3.92786674583838]], [[-4.05300621434264, 4.055258569456325], [3.928935172860906, -3.9279644244216576]], [[-4.053172274191247, 4.055422376949817], [3.9290313209905614, -3.9280615432997523]], [[-4.053337618419873, 4.055585471075684], [3.929126913379721, -3.9281581054666024]], [[-4.053502250361175, 4.055747855164331], [3.9292219530054022, -3.9282541139001967]], [[-4.05366617333112, 4.055909532529473], [3.929316442828764, -3.9283495715626633]], [[-4.0538293906290725, 4.056070506468227], [3.9294103857951925, -3.928444481400358]], [[-4.053991905537889, 4.056230780261205], [3.9295037848343917, -3.928538846343952]], [[-4.054153721324006, 4.056390357172599], [3.9295966428604685, -3.928632669308519]], [[-4.054314841237531, 4.056549240450275], [3.9296889627720204, -3.928725953193623]], [[-4.05447526851233, 4.056707433325861], [3.929780747452222, -3.928818700883403]], [[-4.054635006366117, 4.056864939014834], [3.9298719997689098, -3.92891091524666]], [[-4.0547940580005415, 4.05702176071661], [3.9299627225746687, -3.929002599136941]], [[-4.054952426601277, 4.05717790161463], [3.9300529187069158, -3.9290937553926257]], [[-4.055110115338108, 4.057333364876447], [3.9301425909879844, -3.9291843868370084]], [[-4.055267127365013, 4.057488153653813], [3.930231742225208, -3.929274496278383]], [[-4.0554234658202555, 4.057642271082766], [3.930320375211004, -3.9293640865101263]], [[-4.0555791338264635, 4.057795720283712], [3.9304084927229552, -3.9294531603107785]], [[-4.05573413449072, 4.057948504361512], [3.9304960975238927, -3.9295417204441283]], [[-4.0558884709046445, 4.058100626405566], [3.9305831923619774, -3.9296297696592926]], [[-4.056042146144476, 4.058252089489897], [3.9306697799707804, -3.9297173106907985]], [[-4.056195163271157, 4.0584028966732335], [3.9307558630693653, -3.9298043462586634]], [[-4.056347525330419, 4.058553050999093], [3.9308414443623665, -3.9298908790684752]], [[-4.056499235352859, 4.058702555495864], [3.9309265265400706, -3.929976911811473]], [[-4.056650296354025, 4.058851413176887], [3.9310111122784934, -3.9300624471646244]], [[-4.0568007113345, 4.058999627040539], [3.9310952042394613, -3.9301474877907063]], [[-4.056950483279974, 4.059147200070307], [3.9311788050706875, -3.930232036338381]], [[-4.057099615161334, 4.059294135234878], [3.93126191740585, -3.930316095442276]], [[-4.057248109934739, 4.059440435488209], [3.9313445438646704, -3.9303996677230595]], [[-4.057395970541699, 4.0595861037696155], [3.9314266870529884, -3.9304827557875193]], [[-4.057543199909154, 4.059731143003843], [3.93150834956284, -3.9305653622286365]], [[-4.057689800949555, 4.059875556101148], [3.931589533972533, -3.930647489625664]], [[-4.057835776560937, 4.060019345957379], [3.9316702428467223, -3.9307291405442]], [[-4.057981129627003, 4.060162515454048], [3.9317504787364843, -3.930810317536265]], [[-4.058125863017195, 4.060305067458414], [3.9318302441793924, -3.9308910231403735]], [[-4.058269979586773, 4.06044700482355], [3.931909541699591, -3.930971259881611]], [[-4.058413482176891, 4.060588330388432], [3.9319883738078683, -3.9310510302717057]], [[-4.058556373614673, 4.060729046978003], [3.9320667430017298, -3.9311303368091033]], [[-4.058698656713287, 4.060869157403254], [3.9321446517654723, -3.9312091819790385]], [[-4.058840334272021, 4.061008664461298], [3.932222102570255, -3.9312875682536075]], [[-4.058981409076354, 4.061147570935442], [3.932299097874171, -3.93136549809184]], [[-4.059121883898036, 4.061285879595265], [3.932375640122321, -3.9314429739397725]], [[-4.059261761495155, 4.061423593196687], [3.9324517317468817, -3.931519998230516]], [[-4.059401044612213, 4.061560714482043], [3.932527375167178, -3.9315965733843283]], [[-4.059539735980199, 4.0616972461801595], [3.9326025727897527, -3.931672701808686]], [[-4.059677838316658, 4.061833191006419], [3.9326773270084368, -3.9317483858983513]], [[-4.0598153543257665, 4.061968551662838], [3.9327516402044185, -3.931823628035443]], [[-4.059952286698403, 4.062103330838137], [3.9328255147463116, -3.931898430589505]], [[-4.060088638112214, 4.062237531207808], [3.9328989529902256, -3.9319727959175754]], [[-4.060224411231691, 4.06237115543419], [3.9329719572798325, -3.9320467263642547]], [[-4.060359608708237, 4.062504206166533], [3.9330445299464345, -3.9321202242617725]], [[-4.060494233180235, 4.062636686041073], [3.933116673309033, -3.932193291930056]], [[-4.060628287273121, 4.0627685976810985], [3.933188389674394, -3.932265931676796]], [[-4.060761773599449, 4.062899943697018], [3.9332596813371143, -3.932338145797514]], [[-4.060894694758959, 4.063030726686431], [3.93333055057969, -3.9324099365756293]], [[-4.06102705333865, 4.063160949234195], [3.9334009996725796, -3.9324813062825226]], [[-4.061158851912842, 4.063290613912492], [3.9334710308742706, -3.932552257177604]], [[-4.061290093043246, 4.063419723280895], [3.933540646431345, -3.932622791508375]], [[-4.061420779279028, 4.06354827988644], [3.9336098485785436, -3.9326929115104967]], [[-4.061550913156879, 4.063676286263685], [3.9336786395388295, -3.9327626194078507]], [[-4.06168049720108, 4.063803744934779], [3.9337470215234527, -3.9328319174126047]], [[-4.061809533923565, 4.06393065840953], [3.9338149967320137, -3.9329008077252765]], [[-4.061938025823988, 4.0640570291854665], [3.9338825673525264, -3.932969292534796]], [[-4.062065975389788, 4.0641828597479055], [3.9339497355614803, -3.9330373740185673]], [[-4.062193385096253, 4.064308152570013], [3.934016503523904, -3.933105054342534]], [[-4.0623202574065855, 4.064432910112871], [3.9340828733934265, -3.933172335661238]], [[-4.062446594771962, 4.064557134825542], [3.934148847312339, -3.9332392201178825]], [[-4.062572399631601, 4.064680829145127], [3.934214427411656, -3.933305709844394]], [[-4.062697674412823, 4.064803995496836], [3.9342796158111777, -3.933371806961483]], [[-4.0628224215311155, 4.064926636294043], [3.934344414619548, -3.933437513578703]], [[-4.062946643390191, 4.065048753938355], [3.9344088259343164, -3.9335028317945127]], [[-4.063070342382054, 4.06517035081967], [3.9344728518419982, -3.9335677636963347]], [[-4.063193520887059, 4.065291429316238], [3.9345364944181336, -3.9336323113606158]], [[-4.063316181273973, 4.065411991794723], [3.934599755727346, -3.9336964768528855]], [[-4.0634383259000355, 4.065532040610265], [3.934662637823402, -3.933760262227816]], [[-4.063559957111019, 4.065651578106538], [3.9347251427492695, -3.933823669529279]], [[-4.06368107724129, 4.065770606615813], [3.934787272537176, -3.9338867007904055]], [[-4.063801688613867, 4.065889128459016], [3.9348490292086664, -3.933949358033643]], [[-4.063921793540483, 4.066007145945787], [3.9349104147746607, -3.934011643270812]], [[-4.06404139432164, 4.066124661374539], [3.934971431235511, -3.934073558503166]], [[-4.064160493246672, 4.066241677032519], [3.935032080581057, -3.934135105721445]], [[-4.0642790925938, 4.066358195195861], [3.9350923647906857, -3.9341962869059333]], [[-4.0643971946301924, 4.066474218129652], [3.935152285833385, -3.9342571040265173]], [[-4.064514801612021, 4.066589748087981], [3.9352118456677996, -3.934317559042739]], [[-4.0646319157845205, 4.066704787314005], [3.935271046242288, -3.934377653903852]], [[-4.064748539382042, 4.066819338039997], [3.935329889494976, -3.934437390548879]], [[-4.064864674628113, 4.06693340248741], [3.9353883773538145, -3.934496770906663]], [[-4.064980323735494, 4.067046982866931], [3.9354465117366297, -3.9345557968959257]], [[-4.06509548890623, 4.067160081378536], [3.9355042945511816, -3.934614470425318]], [[-4.065210172331711, 4.067272700211546], [3.935561727695215, -3.934672793393477]], [[-4.065324376192726, 4.067384841544681], [3.9356188130565153, -3.934730767689079]], [[-4.065438102659518, 4.06749650754612], [3.93567555251296, -3.9347883951908913]], [[-4.065551353891836, 4.067607700373552], [3.9357319479325734, -3.9348456777678265]], [[-4.065664132038996, 4.06771842217423], [3.9357880011735777, -3.9349026172789956]], [[-4.065776439239928, 4.0678286750850265], [3.9358437140844473, -3.93495921557376]], [[-4.065888277623234, 4.067938461232488], [3.9358990885039598, -3.9350154744917827]], [[-4.0659996493072414, 4.068047782732886], [3.935954126261247, -3.935071395863082]], [[-4.066110556400054, 4.068156641692273], [3.9360088291758486, -3.935126981508082]], [[-4.066221000999608, 4.068265040206534], [3.9360631990577617, -3.9351822332376623]], [[-4.066330985193721, 4.06837298036144], [3.9361172377074922, -3.9352371528532126]], [[-4.066440511060147, 4.068480464232699], [3.9361709469161057, -3.9352917421466804]], [[-4.066549580666629, 4.068587493886008], [3.9362243284652783, -3.9353460029006224]], [[-4.0666581960709465, 4.068694071377106], [3.936277384127346, -3.935399936888255]], [[-4.066766359320972, 4.068800198751825], [3.936330115665354, -3.9354535458735023]], [[-4.066874072454721, 4.0689058780461425], [3.936382524833108, -3.935506831611048]], [[-4.0669813375003985, 4.069011111286229], [3.936434613375222, -3.935559795846384]], [[-4.067088156476456, 4.0691159004885], [3.9364863830271672, -3.935612440315858]], [[-4.067194531391636, 4.069220247659668], [3.9365378355153213, -3.9356647667467235]], [[-4.067300464245029, 4.069324154796792], [3.936588972557017, -3.935716776857188]], [[-4.067405957026113, 4.069427623887325], [3.9366397958605903, -3.935768472356461]], [[-4.0675110117148146, 4.069530656909165], [3.936690307125427, -3.935819854944802]], [[-4.067615630281549, 4.069633255830705], [3.936740508042012, -3.9358709263135676]], [[-4.067719814687273, 4.069735422610879], [3.9367904002919754, -3.9359216881452594]], [[-4.067823566883534, 4.069837159199216], [3.93683998554814, -3.9359721421135707]], [[-4.067926888812516, 4.0699384675358825], [3.936889265474569, -3.936022289883434]], [[-4.06802978240709, 4.070039349551733], [3.9369382417266108, -3.936072133111067]], [[-4.06813224959086, 4.070139807168358], [3.9369869159509463, -3.936121673444018]], [[-4.068234292278213, 4.0702398422981325], [3.9370352897856353, -3.936170912521214]], [[-4.06833591237436, 4.070339456844261], [3.937083364860161, -3.936219851973004]], [[-4.068437111775394, 4.070438652700824], [3.9371311427954767, -3.936268493421207]], [[-4.068537892368325, 4.07053743175283], [3.93717862520405, -3.936316838479155]], [[-4.068638256031135, 4.070635795876255], [3.9372258136899094, -3.9363648887517395]], [[-4.068738204632819, 4.070733746938093], [3.937272709848687, -3.936412645835455]], [[-4.068837740033434, 4.070831286796403], [3.937319315267664, -3.9364601113184454]], [[-4.068936864084144, 4.070928417300349], [3.937365631525815, -3.9365072867805457]], [[-4.069035578627263, 4.071025140290253], [3.937411660193852, -3.9365541737933283]], [[-4.0691338854963055, 4.071121457597632], [3.9374574028342684, -3.936600773920145]], [[-4.069231786516026, 4.071217371045251], [3.937502861001381, -3.936647088716172]], [[-4.069329283502466, 4.071312882447162], [3.9375480362413757, -3.9366931197284516]], [[-4.069426378262999, 4.071407993608751], [3.9375929300923476, -3.9367388684959366]], [[-4.0695230725963745, 4.07150270632678], [3.9376375440843465, -3.9367843365495316]], [[-4.06961936829276, 4.071597022389436], [3.9376818797394177, -3.9368295254121377]], [[-4.069715267133788, 4.0716909435763675], [3.937725938571645, -3.9368744365986923]], [[-4.069810770892598, 4.071784471658734], [3.937769722087193, -3.936919071616213]], [[-4.069905881333877, 4.071877608399247], [3.9378132317843475, -3.9369634319638385]], [[-4.070000600213906, 4.071970355552211], [3.937856469153559, -3.937007519132871]], [[-4.070094929280604, 4.07206271486357], [3.9378994356774832, -3.9370513346068154]], [[-4.070188870273563, 4.072154688070947], [3.9379421328310213, -3.9370948798614243]], [[-4.070282424924102, 4.072246276903688], [3.937984562081362, -3.937138156364735]], [[-4.070375594955297, 4.0723374830829036], [3.9380267248880223, -3.9371811655771123]], [[-4.070468382082031, 4.07242830832151], [3.9380686227028874, -3.9372239089512884]], [[-4.070560788011032, 4.072518754324272], [3.9381102569702504, -3.9372663879324032]], [[-4.070652814440916, 4.072608822787843], [3.9381516291268537, -3.9373086039580443]], [[-4.070744463062228, 4.072698515400808], [3.9381927406019277, -3.937350558458287]], [[-4.0708357355574805, 4.072787833843722], [3.9382335928172303, -3.9373922528557332]], [[-4.070926633601196, 4.072876779789152], [3.938274187187087, -3.9374336885655516]], [[-4.07101715885995, 4.072965354901718], [3.9383145251184297, -3.9374748669955157]], [[-4.071107312992406, 4.073053560838131], [3.9383546080108354, -3.9375157895460444]], [[-4.0711970976493586, 4.0731413992472385], [3.938394437256565, -3.9375564576102384]], [[-4.0712865144737735, 4.0732288717700555], [3.938434014240601, -3.937596872573921]], [[-4.071375565100826, 4.073315980039812], [3.9384733403406886, -3.9376370358156754]], [[-4.071464251157941, 4.073402725681988], [3.9385124169273693, -3.9376769487068812]], [[-4.071552574264833, 4.073489110314355], [3.938551245364023, -3.937716612611755]], [[-4.071640536033541, 4.073575135547014], [3.9385898270069024, -3.937756028887387]], [[-4.0717281380684724, 4.073660802982432], [3.938628163205173, -3.937795198883777]], [[-4.07181538196644, 4.073746114215485], [3.9386662553009484, -3.9378341239438734]], [[-4.071902269316697, 4.073831070833492], [3.938704104629328, -3.93787280540361]], [[-4.071988801700979, 4.0739156744162575], [3.938741712518434, -3.937911244591942]], [[-4.07207498069354, 4.0739999265361035], [3.9387790802894482, -3.9379494428308828]], [[-4.072160807861192, 4.074083828757913], [3.9388162092566477, -3.937987401435541]], [[-4.07224628476334, 4.074167382639164], [3.9388531007274414, -3.9380251217141558]], [[-4.072331412952019, 4.074250589729968], [3.9388897560024065, -3.938062604968134]], [[-4.072416193971936, 4.074333451573106], [3.9389261763753236, -3.938099852492085]], [[-4.072500629360499, 4.074415969704067], [3.9389623631332125, -3.938136865573857]], [[-4.072584720647859, 4.074498145651084], [3.9389983175563676, -3.9381736454945715]], [[-4.072668469356947, 4.0745799809351695], [3.939034040918394, -3.9382101935286595]], [[-4.072751877003508, 4.074661477070152], [3.939069534486241, -3.9382465109438964]], [[-4.072834945096137, 4.074742635562714], [3.939104799520238, -3.938282599001436]], [[-4.072917675136314, 4.074823457912425], [3.939139837274129, -3.9383184589558464]], [[-4.073000068618445, 4.074903945611779], [3.9391746489951074, -3.938354092055143]], [[-4.073082127029889, 4.074984100146231], [3.939209235923849, -3.9383894995408246]], [[-4.073163851851003, 4.075063922994228], [3.939243599294547, -3.938424682647906]], [[-4.073245244555168, 4.07514341562725], [3.939277740334947, -3.9384596426049523]], [[-4.07332630660883, 4.0752225795098385], [3.9393116602663776, -3.938494380634113]], [[-4.0734070394715305, 4.075301416099638], [3.939345360303787, -3.938528897951155]], [[-4.073487444595945, 4.0753799268474244], [3.939378841655776, -3.938563195765496]], [[-4.073567523427916, 4.075458113197144], [3.939412105524628, -3.9385972752802387]], [[-4.073647277406486, 4.075535976585945], [3.939445153106347, -3.938631137692202]], [[-4.073726707963931, 4.075613518444211], [3.939477985590686, -3.938664784191955]], [[-4.073805816525796, 4.075690740195596], [3.9395106041611823, -3.93869821596385]], [[-4.073884604510931, 4.075767643257061], [3.9395430099951887, -3.9387314341860535]], [[-4.073963073331516, 4.075844229038901], [3.9395752042639063, -3.9387644400305803]], [[-4.074041224393104, 4.075920498944782], [3.939607188132416, -3.9387972346633235]], [[-4.07411905909465, 4.075996454371776], [3.9396389627597115, -3.9388298192440883]], [[-4.0741965788285395, 4.076072096710389], [3.93967052929873, -3.9388621949266227]], [[-4.07427378498063, 4.076147427344598], [3.939701888896385, -3.9388943628586497]], [[-4.074350678930276, 4.0762224476518805], [3.9397330426935953, -3.9389263241818977]], [[-4.074427262050367, 4.07629715900325], [3.9397639918253193, -3.9389580800321333]], [[-4.074503535707354, 4.076371562763284], [3.939794737420584, -3.938989631539191]], [[-4.074579501261287, 4.076445660290161], [3.9398252806025167, -3.939020979827005]], [[-4.074655160065842, 4.076519452935687], [3.9398556224883756, -3.9390521260136393]], [[-4.074730513468358, 4.076592942045334], [3.93988576418958, -3.9390830712113183]], [[-4.074805562809864, 4.076666128958263], [3.939915706811741, -3.939113816526458]], [[-4.074880309425112, 4.076739015007362], [3.939945451454693, -3.939144363059695]], [[-4.074954754642607, 4.0768116015192755], [3.9399749992125206, -3.9391747119059177]], [[-4.075028899784642, 4.076883889814433], [3.940004351173592, -3.939204864154296]], [[-4.075102746167323, 4.076955881207084], [3.9400335084205866, -3.9392348208883097]], [[-4.075176295100604, 4.0770275770053255], [3.9400624720305255, -3.9392645831857807]], [[-4.075249547888316, 4.077098978511133], [3.9400912430748, -3.9392941521189]], [[-4.075322505828199, 4.077170087020392], [3.9401198226192022, -3.939323528754258]], [[-4.0753951702119275, 4.077240903822928], [3.9401482117239532, -3.939352714152874]], [[-4.075467542325146, 4.077311430202536], [3.9401764114437325, -3.9393817093702244]], [[-4.075539623447496, 4.077381667437009], [3.940204422827706, -3.9394105154562715]], [[-4.075611414852648, 4.07745161679817], [3.9402322469195563, -3.939439133455493]], [[-4.075682917808325, 4.077521279551902], [3.9402598847575088, -3.9394675644069097]], [[-4.075754133576341, 4.077590656958174], [3.9402873373743623, -3.939495809344114]], [[-4.075825063412624, 4.077659750271074], [3.940314605797516, -3.939523869295298]], [[-4.075895708567245, 4.077728560738837], [3.940341691048998, -3.9395517452832824]], [[-4.0759660702844505, 4.077797089603871], [3.940368594145493, -3.939579438325543]], [[-4.076036149802689, 4.07786533810279], [3.9403953160983702, -3.93960694943424]], [[-4.0761059483546385, 4.077933307466441], [3.94042185791371, -3.9396342796162442]], [[-4.076175467167238, 4.078000998919929], [3.940448220592333, -3.9396614298731647]], [[-4.076244707461715, 4.0780684136826535], [3.9404744051298257, -3.939688401201377]], [[-4.076313670453611, 4.078135552968328], [3.9405004125165695, -3.939715194592049]], [[-4.076382357352811, 4.078202417985013], [3.9405262437377657, -3.93974181103117]], [[-4.076450769363574, 4.078269009935144], [3.940551899773464, -3.9397682514995744]], [[-4.076518907684558, 4.078335330015556], [3.940577381598587, -3.9397945169729716]], [[-4.076586773508847, 4.078401379417515], [3.9406026901829607, -3.9398206084219707]], [[-4.0766543680239815, 4.07846715932674], [3.9406278264913364, -3.9398465268121075]], [[-4.076721692411982, 4.078532670923438], [3.9406527914834197, -3.9398722731038704]], [[-4.076788747849379, 4.078597915382324], [3.940677586113897, -3.9398978482527274]], [[-4.07685553550724, 4.078662893872652], [3.940702211332459, -3.939923253209151]], [[-4.076922056551193, 4.07872760755824], [3.9407266680838298, -3.939948488918645]], [[-4.076988312141458, 4.078792057597497], [3.9407509573077895, -3.9399735563217697]], [[-4.0770543034328695, 4.078856245143453], [3.940775079939202, -3.939998456354168]], [[-4.077120031574906, 4.078920171343779], [3.940799036908039, -3.94002318994659]], [[-4.077185497711715, 4.078983837340819], [3.9408228291394076, -3.94004775802492]], [[-4.077250702982138, 4.079047244271613], [3.9408464575535724, -3.9400721615101992]], [[-4.077315648519739, 4.079110393267924], [3.9408699230659825, -3.9400964013186526]], [[-4.077380335452828, 4.079173285456265], [3.9408932265872965, -3.9401204783617136]], [[-4.077444764904489, 4.079235921957922], [3.940916369023406, -3.9401443935460487]], [[-4.0775089379926035, 4.079298303888984], [3.940939351275462, -3.9401681477735817]], [[-4.077572855829878, 4.079360432360362], [3.9409621742398975, -3.940191741941519]], [[-4.0776365195238675, 4.079422308477821], [3.9409848388084536, -3.9402151769423734]], [[-4.077699930177002, 4.079483933342002], [3.9410073458682024, -3.9402384536639885]], [[-4.077763088886611, 4.079545308048446], [3.9410296963015727, -3.940261572989563]], [[-4.0778259967449495, 4.079606433687622], [3.941051890986372, -3.9402845357976743]], [[-4.07788865483922, 4.0796673113449495], [3.9410739307958127, -3.9403073429623037]], [[-4.077951064251601, 4.079727942100825], [3.9410958165985335, -3.940329995352858]], [[-4.0780132260592685, 4.079788327030644], [3.9411175492586246, -3.940352493834195]], [[-4.078075141334423, 4.079848467204827], [3.941139129635651, -3.9403748392666462]], [[-4.078136811144312, 4.079908363688846], [3.941160558584675, -3.9403970325060396]], [[-4.078198236551255, 4.079968017543243], [3.941181836956281, -3.9404190744037244]], [[-4.078259418612665, 4.080027429823661], [3.9412029655965974, -3.940440965806593]], [[-4.078320358381077, 4.080086601580863], [3.9412239453473195, -3.940462707557105]], [[-4.0783810569041705, 4.080145533860756], [3.941244777045733, -3.9404843004933086]], [[-4.07844151522479, 4.080204227704419], [3.9412654615247367, -3.940505745448865]], [[-4.078501734380971, 4.080262684148121], [3.941285999612865, -3.9405270432530695]], [[-4.078561715405965, 4.080320904223348], [3.941306392134311, -3.940548194730875]], [[-4.07862145932826, 4.080378888956825], [3.941326639908948, -3.940569200702915]], [[-4.0786809671716036, 4.08043663937054], [3.941346743752352, -3.940590061985525]], [[-4.07874023995503, 4.080494156481767], [3.9413667044758234, -3.9406107793907634]], [[-4.078799278692877, 4.080551441303087], [3.941386522886411, -3.9406313537264364]], [[-4.078858084394815, 4.080608494842415], [3.9414061997869325, -3.940651785796118]], [[-4.0789166580658645, 4.0806653181030175], [3.9414257359759954, -3.9406720763991716]], [[-4.078975000706423, 4.080721912083539], [3.941445132248021, -3.940692226330774]], [[-4.079033113312284, 4.080778277778023], [3.9414643893932637, -3.940712236381934]], [[-4.079090996874662, 4.080834416175935], [3.9414835081978343, -3.940732107339516]], [[-4.079148652380212, 4.080890328262184], [3.9415024894437205, -3.9407518399862607]], [[-4.079206080811056, 4.080946015017146], [3.9415213339088084, -3.940771435100806]], [[-4.079263283144799, 4.081001477416684], [3.9415400423669027, -3.9407908934577085]], [[-4.0793202603545575, 4.08105671643217], [3.94155861558775, -3.9408102158274647]], [[-4.079377013408976, 4.081111733030511], [3.9415770543370563, -3.940829402976531]], [[-4.079433543272251, 4.0811665281741645], [3.9415953593765116, -3.940848455667347]], [[-4.079489850904153, 4.081221102821164], [3.941613531463808, -3.9408673746583522]], [[-4.079545937260047, 4.081275457925141], [3.941631571352661, -3.9408861607040104]], [[-4.079601803290913, 4.081329594435343], [3.94164947979283, -3.940904814554828]], [[-4.079657449943371, 4.0813835132966565], [3.9416672575301392, -3.9409233369573755]], [[-4.079712878159697, 4.081437215449629], [3.9416849053064973, -3.9409417286543063]], [[-4.079768088877848, 4.08149070183049], [3.9417024238599176, -3.940959990384379]], [[-4.079823083031481, 4.08154397337117], [3.941719813924538, -3.9409781228824747]], [[-4.079877861549974, 4.081597030999324], [3.9417370762306416, -3.9409961268796208]], [[-4.079932425358448, 4.081649875638349], [3.9417542115046764, -3.9410140031030063]], [[-4.079986775377787, 4.081702508207408], [3.941771220469274, -3.9410317522760057]], [[-4.080040912524655, 4.081754929621446], [3.9417881038432707, -3.9410493751181956]], [[-4.080094837711523, 4.081807140791216], [3.941804862341726, -3.9410668723453757]], [[-4.080148551846684, 4.081859142623298], [3.9418214966759417, -3.941084244669588]], [[-4.080202055834276, 4.081910936020113], [3.941838007553484, -3.9411014927991364]], [[-4.0802553505742996, 4.081962521879951], [3.9418543956781984, -3.941118617438605]], [[-4.080308436962641, 4.082013901096986], [3.9418706617502326, -3.9411356192888785]], [[-4.080361315891089, 4.0820650745613], [3.9418868064660533, -3.9411524990471603]], [[-4.080413988247359, 4.0821160431589], [3.941902830518466, -3.9411692574069916]], [[-4.080466454915105, 4.082166807771734], [3.9419187345966336, -3.941185895058271]], [[-4.080518716773947, 4.0822173692777195], [3.9419345193860957, -3.9412024126872716]], [[-4.0805707746994875, 4.0822677285507565], [3.9419501855687864, -3.941218810976661]], [[-4.080622629563329, 4.082317886460747], [3.941965733823053, -3.9412350906055202]], [[-4.080674282233098, 4.082367843873619], [3.9419811648236758, -3.9412512522493603]], [[-4.080725733572458, 4.082417601651338], [3.9419964792418836, -3.9412672965801425]], [[-4.080776984441133, 4.082467160651934], [3.9420116777453744, -3.941283224266295]], [[-4.080828035694926, 4.082516521729516], [3.9420267609983335, -3.9412990359727336]], [[-4.080878888185736, 4.082565685734291], [3.94204172966145, -3.9413147323608757]], [[-4.080929542761578, 4.082614653512586], [3.942056584391936, -3.9413303140886624]], [[-4.080980000266604, 4.08266342590686], [3.942071325843544, -3.9413457818105737]], [[-4.081030261541115, 4.082712003755732], [3.942085954666585, -3.9413611361776475]], [[-4.081080327421588, 4.08276038789399], [3.942100471507945, -3.941376377837497]], [[-4.081130198740687, 4.082808579152617], [3.942114877011105, -3.9413915074343278]], [[-4.081179876327286, 4.082856578358805], [3.942129171816157, -3.9414065256089565]], [[-4.081229361006486, 4.082904386335973], [3.94214335655982, -3.941421432998827]], [[-4.081278653599631, 4.082952003903788], [3.9421574318754606, -3.9414362302380286]], [[-4.081327754924328, 4.082999431878181], [3.942171398393107, -3.9414509179573125]], [[-4.081376665794467, 4.083046671071367], [3.9421852567394686, -3.94146549678411]], [[-4.081425387020236, 4.083093722291858], [3.9421990075379516, -3.9414799673425485]], [[-4.081473919408136, 4.083140586344487], [3.942212651408677, -3.941494330253469]], [[-4.081522263761007, 4.083187264030421], [3.9422261889684953, -3.941508586134443]], [[-4.0815704208780375, 4.083233756147182], [3.942239620831007, -3.9415227355997886]], [[-4.081618391554786, 4.083280063488661], [3.9422529476065757, -3.9415367792605887]], [[-4.081666176583196, 4.083326186845137], [3.942266169902347, -3.9415507177247058]], [[-4.081713776751618, 4.083372127003297], [3.9422792883222635, -3.9415645515968]], [[-4.081761192844821, 4.083417884746249], [3.9422923034670823, -3.9415782814783444]], [[-4.081808425644013, 4.083463460853539], [3.9423052159343914, -3.9415919079676422]], [[-4.081855475926858, 4.083508856101174], [3.9423180263186253, -3.941605431659843]], [[-4.0819023444674905, 4.0835540712616325], [3.9423307352110815, -3.941618853146958]], [[-4.081949032036535, 4.0835991071038835], [3.942343343199936, -3.941632173017877]], [[-4.081995539401123, 4.083643964393404], [3.9423558508702614, -3.9416453918583847]], [[-4.082041867324906, 4.083688643892195], [3.94236825880404, -3.9416585102511754]], [[-4.082088016568078, 4.0837331463588], [3.9423805675801815, -3.94167152877587]], [[-4.082133987887387, 4.083777472548318], [3.9423927777745384, -3.9416844480090316]], [[-4.082179782036152, 4.0838216232124225], [3.9424048899599216, -3.9416972685241802]], [[-4.082225399764283, 4.0838655990993775], [3.9424169047061155, -3.94170999089181]], [[-4.082270841818294, 4.083909400954053], [3.9424288225798945, -3.941722615679403]], [[-4.082316108941319, 4.083953029517943], [3.9424406441450377, -3.9417351434514467]], [[-4.082361201873131, 4.083996485529179], [3.942452369962345, -3.9417475747694475]], [[-4.082406121350156, 4.084039769722548], [3.942464000589651, -3.9417599101919465]], [[-4.0824508681054885, 4.084082882829508], [3.9424755365818425, -3.9417721502745358]], [[-4.082495442868908, 4.084125825578203], [3.942486978490871, -3.9417842955698714]], [[-4.082539846366896, 4.084168598693482], [3.94249832686577, -3.941796346627691]], [[-4.08258407932265, 4.08421120289691], [3.942509582252668, -3.941808303994827]], [[-4.082628142456101, 4.084253638906786], [3.942520745194805, -3.941820168215222]], [[-4.082672036483925, 4.084295907438159], [3.942531816232547, -3.9418319398299437]], [[-4.082715762119564, 4.0843380092028445], [3.9425427959034, -3.9418436193771993]], [[-4.082759320073239, 4.084379944909436], [3.942553684742025, -3.9418552073923507]], [[-4.082802711051965, 4.084421715263326], [3.9425644832802536, -3.9418667044079285]], [[-4.082845935759564, 4.084463320966713], [3.9425751920471, -3.9418781109536476]], [[-4.0828889948966856, 4.084504762718627], [3.9425858115687795, -3.9418894275564202]], [[-4.082931889160817, 4.084546041214937], [3.9425963423687183, -3.941900654740371]], [[-4.082974619246302, 4.084587157148367], [3.9426067849675706, -3.941911793026852]], [[-4.083017185844352, 4.084628111208516], [3.942617139883233, -3.941922842934455]], [[-4.0830595896430655, 4.084668904081864], [3.9426274076308565, -3.9419338049790276]], [[-4.083101831327438, 4.084709536451798], [3.9426375887228633, -3.941944679673686]], [[-4.083143911579381, 4.084750008998616], [3.9426476836689583, -3.9419554675288304]], [[-4.083185831077732, 4.084790322399549], [3.9426576929761445, -3.941966169052157]], [[-4.083227590498276, 4.084830477328771], [3.9426676171487367, -3.941976784748673]], [[-4.083269190513753, 4.084870474457418], [3.942677456688375, -3.941987315120711]], [[-4.083310631793876, 4.084910314453597], [3.942687212094038, -3.9419977606679417]], [[-4.083351915005345, 4.084949997982406], [3.942696883862058, -3.9420081218873877]], [[-4.08339304081186, 4.084989525705944], [3.9427064724861327, -3.9420183992734374]], [[-4.083434009874137, 4.085028898283327], [3.9427159784573407, -3.942028593317858]], [[-4.083474822849921, 4.085068116370702], [3.9427254022641525, -3.9420387045098093]], [[-4.083515480394002, 4.085107180621262], [3.9427347443924465, -3.9420487333358576]], [[-4.0835559831582255, 4.0851460916852576], [3.9427440053255203, -3.942058680279988]], [[-4.083596331791508, 4.085184850210013], [3.9427531855441047, -3.942068545823618]], [[-4.083636526939854, 4.08522345683994], [3.9427622855263773, -3.9420783304456113]], [[-4.083676569246364, 4.08526191221655], [3.9427713057479745, -3.9420880346222895]], [[-4.083716459351254, 4.08530021697847], [3.9427802466820054, -3.9420976588274463]], [[-4.083756197891864, 4.085338371761453], [3.9427891087990647, -3.9421072035323603]], [[-4.0837957855026765, 4.085376377198395], [3.942797892567245, -3.942116669205807]], [[-4.083835222815326, 4.085414233919349], [3.94280659845215, -3.942126056314074]], [[-4.083874510458614, 4.085451942551533], [3.942815226916908, -3.94213536532097]], [[-4.083913649058523, 4.08548950371935], [3.9428237784221825, -3.942144596687841]], [[-4.08395263923823, 4.085526918044396], [3.9428322534261877, -3.9421537508735804]], [[-4.083991481618119, 4.085564186145478], [3.9428406523846986, -3.942162828334644]], [[-4.084030176815792, 4.0856013086386245], [3.942848975751065, -3.9421718295250607]], [[-4.084068725446087, 4.085638286137097], [3.942857223976223, -3.942180754896445]], [[-4.084107128121087, 4.085675119251405], [3.942865397508708, -3.94218960489801]], [[-4.084145385450134, 4.085711808589323], [3.942873496794667, -3.9421983799765794]], [[-4.084183498039846, 4.085748354755896], [3.9428815222778697, -3.9422070805766003]], [[-4.084221466494122, 4.085784758353456], [3.9428894743997227, -3.942215707140155]], [[-4.084259291414161, 4.085821019981635], [3.9428973535992804, -3.942224260106972]], [[-4.084296973398472, 4.085857140237379], [3.9429051603132566, -3.94223273991444]], [[-4.084334513042889, 4.0858931197149575], [3.942912894976037, -3.9422411469976195]], [[-4.084371910940582, 4.085928959005978], [3.942920558019692, -3.9422494817892533]], [[-4.084409167682066, 4.085964658699397], [3.942928149873988, -3.9422577447197797]], [[-4.084446283855224, 4.086000219381536], [3.942935670966398, -3.942265936217344]], [[-4.084483260045305, 4.086035641636092], [3.9429431217221147, -3.94227405670781]], [[-4.08452009683495, 4.086070926044147], [3.942950502564062, -3.9422821066147717]], [[-4.084556794804196, 4.086106073184183], [3.942957813912907, -3.942290086359566]], [[-4.08459335453049, 